{"weights": "-1.601603735833417586e-01,2.319520729707004458e-02,-3.512419721646622278e-02,9.319451511188035775e-02,-5.248628658448410700e-02,-3.157514793070635012e-02,-3.816834885103047303e-02,9.425977047306847989e-02,2.427973852123719786e-02,2.526244387545348857e-01,-1.230265145501544116e-01,1.030340082710907712e-01,-4.305306667849285313e-02,3.443694662219302233e-02,-4.370301510552829227e-02,-1.369855722843214829e-01,1.781545549777727167e-01,1.850245966252814511e-01,9.504201391700568824e-02,8.232526800170429648e-02,1.070644378012687407e-02,1.381692275154075555e-01,-5.202253961197068899e-02,7.820949606911307972e-02,-1.796160643694710290e-01,1.364240661286404699e-01,2.403867839662132688e-01,-1.510917954184450018e-01,-3.377879207059166639e-02,3.044679508374190796e-02,6.203713728164575447e-02,-2.049253984667791517e-01,-2.276309719355706224e-02,4.258866777795976971e-02,1.161871570308204288e-01,6.235349311955822038e-02,-5.958818191097282196e-02,-7.724373427805587833e-02,-6.269952070017326129e-02,1.510940880445130752e-01,-8.581005582449033331e-02,-1.936858028338669588e-02,6.595194976879063808e-02,5.421614373228962440e-03,4.764025913145494145e-02,5.317601001353894352e-03,-1.732667399834509486e-02,-3.517249061929490078e-02,5.154008581248904763e-02,6.159081091303531680e-02,-4.551726870570165645e-02,-6.000747190829899130e-02,1.151334663916476209e-01,1.701108338664774899e-01,-1.508427098441114667e-01,-3.110546656476424060e-02,-1.213062171919896265e-01,-1.124482111446449273e-01,-4.956402046623729213e-02,-1.264667491335527416e-01,5.339087173951928555e-02,-1.160479912734583147e-01,9.031895855288346944e-03,-2.452794876572579608e-01,4.256037657543620262e-02,-9.244714338592643910e-02,-3.567245512332365559e-02,1.353360184706797753e-01,-1.131521010234620428e-01,1.160538771574763928e-01,3.139265062167511614e-03,-9.694450189023014544e-03,-1.185611591898857453e-01,-1.697991163624481270e-01,1.141054215593416930e-02,-6.588408443610002663e-02,-1.650558887354798207e-02,-2.941734393242272441e-02,-9.862276571199748987e-02,3.532260750849076664e-03,6.449873716323767381e-02,-7.973841375357315631e-02,6.565297355417166504e-03,-1.174816271502980153e-01,-2.500305126047946470e-04,-1.156306561045158388e-01,-6.424528907242260667e-02,-1.163805357950747216e-01,1.774469903009197325e-01,-1.105278323555063114e-02,-5.343650800405796986e-02,-1.667202457451929243e-01,-5.449351544608171949e-02,-6.151727653336064999e-02,-1.415545483927443948e-01,-2.356924944397068358e-02,-1.516734969236714914e-01,2.674771820241527709e-01,-1.284498047812549469e-02,-2.349838071318243599e-02,-3.126053716411915373e-02,-3.865334471096098373e-02,4.257495875254048434e-02,-2.427995283877549537e-01,-9.031681590319222408e-02,1.826987782835166885e-01,-2.571411125339159026e-02,-2.743282361582353723e-01,-1.853624724222126541e-01,1.162914360967484267e-01,-1.261265808326046123e-01,-1.056065558141022903e-01,-1.620700881782569380e-01,6.492402551325332505e-02,7.927031853219961011e-02,9.581548808380457860e-02,7.209659893600557472e-03,8.722038102939663751e-02,-9.564473355353164674e-02,-1.733694667398391898e-01,-3.143378456046989206e-02,5.835107580636907446e-03,-9.022778249224290559e-02,-1.254422721480951686e-01,1.483763713422548980e-01,4.616266993224368148e-03,-4.251148905018893587e-02,-1.899820245009565534e-01,4.650779359782966638e-02,1.220078414030147801e-01,1.478005049711120754e-02,-4.073483195721897682e-02,-1.903293094167851918e-01,-3.927731431090717568e-02,-1.355005716735163401e-01,-1.376167041982385153e-01,-1.702871386397489598e-02,-1.066039528026173078e-01,6.034025580807698269e-02,-5.253393659445153990e-02,-1.546790429513125731e-01,4.534311746992521208e-02,2.459486973294042894e-03,-8.144778768552637938e-02,-1.247324672802263140e-01,-5.609820034986900961e-02,2.081573392128498179e-01,2.121180869865690530e-02,-6.894945198546405252e-02,-1.091685478716431651e-02,1.068352799531546438e-01,-2.364822836933483732e-02,-1.085674878438538937e-02,-1.390089118137615744e-02,-8.360584607312157926e-03,-9.147015375550979210e-02,-1.086485751183782072e-02,-2.985876837395647770e-02,1.016038992610195438e-02,1.420279970580165252e-01,-4.273987232283408579e-03,-1.292724855240708626e-01,1.173260797192156452e-01,4.257623743558056062e-02,-1.889668624605353175e-01,6.931903506131786852e-02,-7.234978464562506761e-02,-1.352358911184695645e-01,-1.986546975908535725e-02,-3.395231906982546649e-03,-1.331664428014623369e-01,-3.831558264688952886e-02,-1.094463982622374681e-01,3.221596895264311478e-02,-2.579422798745651946e-01,8.727517101550211556e-03,-8.671251305252581504e-03,-1.338649446767346540e-01,6.842283664533446719e-02,8.550631676612706344e-02,-1.792446734928622998e-01,-1.175690316669127655e-01,1.802847824809416730e-02,-3.433638159259159994e-02,9.522761805337234819e-02,-6.057388813551163598e-02,1.904717334579751342e-01,-7.289114093639718905e-02,3.326167543704690310e-02,-7.965182506725962397e-02,3.955511633550883033e-02,-2.563293770958647855e-01,2.997418319602583245e-02,-1.515480047436119915e-02,1.616734269681006572e-02,-6.607324636251388217e-02,5.276208180866871073e-02,2.919558730031161873e-03,-1.096745769539490267e-01,1.185346483051749888e-01,3.453947801171746573e-02,1.591542765011667859e-02,1.936759076844533634e-01,-8.649400298854906244e-02,2.196196857861641705e-02,-4.457742714131151390e-02,2.069786468203561880e-01,2.070851532950643281e-01,9.430101336066125384e-02,7.841544626747849744e-02,-1.038717618580650287e-01,5.214613833504129492e-02,-3.567176282423598424e-03,-5.032688631740999535e-02,1.570022515715144285e-01,-4.093328820303208937e-02,2.539110916996921777e-02,-5.703117564491761576e-02,2.343371336323947507e-02,-1.733043338519516807e-01,-6.414718950915669626e-02,-7.011932122440069082e-02,-2.292162915025362097e-02,1.667425936195466446e-02,-3.526605485504923782e-02,-5.332814767439972292e-02,1.702790916329006143e-01,-3.341540083493065721e-02,4.346712894122755494e-02,-3.426191952381086453e-02,-1.565064390704414277e-01,-9.463124030221990723e-02,7.593791722426562751e-02,2.065878917236097789e-01,-3.489719805199464897e-02,-1.125797951284242399e-01,1.322181328585503579e-01,-1.351131409018130614e-01,-6.142216273742982791e-02,1.522117042041196133e-01,-3.001990322059287092e-02,1.360542451721041546e-01,-1.344380047983081694e-01,-1.311747248710654346e-01,7.132347837366236065e-02,7.055737944433473907e-02,4.566024098427421546e-02,4.539679586634589453e-03,-5.776907088511311350e-02,1.383400057629141922e-01,-9.940143513353025262e-02,-1.636293250403954846e-01,-2.826678790511214998e-02,-1.559743539080192254e-01,9.072986462833937393e-02,-8.384527476503646562e-03\n-6.639523107097041778e-03,-7.728889466212023052e-02,-2.329878006298149173e-01,-2.261459700190094069e-01,-6.028638146004295685e-03,3.428128576874024148e-03,-1.956979858130775130e-02,-5.353174542106363398e-02,3.980290162966143228e-03,-1.660863000284952262e-01,1.512453032561940913e-01,3.595264982844821600e-02,5.274694600964350416e-02,-1.002919372288628153e-01,-9.937376925752476609e-02,5.313552405706367665e-02,-1.277829903981802240e-01,8.981981388709574243e-02,3.250692497818402638e-02,-6.611565486597072161e-02,3.653505696139019987e-02,1.267010276224528054e-01,-1.395468194884736668e-01,1.143409797520046484e-01,3.462834403020472601e-02,4.752576725189755491e-02,-4.525979239398505299e-02,3.597011275173193478e-03,1.254977231681128902e-01,-4.949860651926404898e-02,-5.756175858393281636e-02,-8.031313613081384264e-03,1.097257288333031849e-01,-3.633939787416316791e-02,-6.291851393704367412e-02,1.138138082919664187e-02,5.547483025784912675e-02,-1.039229305612509105e-02,1.054193832553355498e-01,-2.151860862930577920e-02,1.572769048116321455e-01,1.158825668234338352e-03,6.017755396914050738e-03,3.473269331305257716e-03,6.046768880252013922e-02,-3.780583252134894767e-02,-2.655840563912811869e-02,1.193927730116538660e-01,-7.035784616400682021e-03,1.749326617915226631e-04,-2.269914757602992106e-01,-7.782851233454476936e-02,-1.269319084655544660e-01,-7.038457898483042874e-02,-1.273927036484330255e-01,1.778074098833910544e-01,3.299001999220724235e-02,4.700079538839996296e-02,7.736314898300922227e-02,8.594421409366191644e-02,-2.099525862178395763e-01,-1.165736638479526049e-01,-8.145147268086155856e-02,-9.090251539282138971e-02,-1.272694112127554233e-01,-4.503400315334473575e-02,7.836165359919701479e-02,1.573188977519788534e-01,-1.411884534486910515e-02,-9.193417984263919235e-03,-4.388145830037373796e-02,-2.470137330561358036e-01,4.117657878130227128e-02,-1.362513460684407207e-01,5.448671009109995944e-04,4.055884427631111649e-02,6.833743491669015679e-02,-8.620969703668343587e-02,5.452822339030204829e-02,5.145059041319777204e-02,9.656301784695213442e-02,-1.493980677749782160e-01,4.386842377732401432e-02,2.353965633407362756e-01,-7.134924987608100289e-03,5.391277808033896612e-02,6.211739494810767509e-02,-2.612903386507082690e-02,-4.044015200944058898e-03,-5.480001404072915722e-02,-1.378005974625788332e-01,4.799908860941654032e-02,6.476498042190391609e-03,1.899850068068733300e-01,9.016031076075868567e-02,-1.108385450453433230e-01,3.557180271879111736e-03,-1.628772107503888844e-01,-5.421836585811456305e-02,1.880137050101438334e-01,-1.249752764212988011e-02,1.760114731235338792e-01,1.488938314033953214e-01,3.050859261109995640e-02,1.038202799529761716e-01,-3.565768911639274202e-02,2.186307218516805959e-03,-1.075574559252797102e-01,-1.005752486675349361e-02,-6.248781075726787121e-02,4.901174113025581064e-02,-8.112040450231290667e-02,-1.351039336616102586e-02,-1.134499366583626850e-01,-1.009702529485138611e-01,-3.243596376413075688e-02,1.453069750171235852e-01,-6.230897792609201014e-02,-3.953174552990315616e-02,1.293737179766587808e-01,-6.672866086784291773e-02,3.596368952853561812e-02,-4.927843875170524746e-02,-1.182306161478558354e-01,-6.061746578851169576e-02,9.315505857154243730e-02,-5.923950763065774505e-02,8.247471038509190944e-02,4.868463753192159293e-02,-6.926767619827094158e-02,-4.227896766991459665e-02,1.362376986046376914e-01,5.301647673900663355e-02,-1.281930215339144863e-01,9.805909768109112579e-02,-1.315723034917315633e-02,-1.591396834373912106e-01,-1.780685061558408278e-02,-5.328224682570974896e-02,1.183904659028111178e-01,6.152500730478121377e-02,1.551135580753110893e-02,-2.656840174724938667e-03,-1.352498326129756012e-01,3.704338879925894029e-02,-1.196157134132621452e-01,3.785113352400401501e-03,-1.125741872049072639e-01,1.333031430144401008e-01,1.748657137860437361e-01,-4.578499239007789712e-02,-2.184287245234302517e-03,6.134079356020036289e-02,1.590299744110478253e-01,2.054503121904314999e-02,-1.054862714517330186e-02,-1.266451767793702610e-01,2.849543007817328250e-02,-1.584436339264822802e-01,-1.896375242334701061e-02,-1.144867607717761915e-01,2.049857271914871659e-01,8.212418637017009082e-02,-3.525953663472726485e-02,2.212243079077175906e-02,1.180587001010261206e-01,1.239670040588037626e-02,-9.282233219862509599e-02,5.475145153497864431e-02,-6.921432037814502503e-02,2.830488515417013337e-02,1.553868227843019107e-03,1.166515736600520492e-01,9.089935409401642130e-02,3.352852873615331797e-01,6.781862858052224718e-02,6.207992317614110384e-02,-1.036032930832303522e-01,5.005357344054810892e-02,-1.391254465604111479e-01,1.147426168386741531e-02,4.719045067680111352e-03,9.076198263815775380e-02,-4.660924992215600970e-02,-3.000134439576723419e-02,-8.086531668894308966e-02,-2.653923538323453915e-02,-9.520506211202268976e-02,2.288038296047985587e-01,-1.476510792702583896e-01,-8.380106836078714261e-02,-2.802099312850568971e-02,4.251670989825543506e-02,-2.540338330541796474e-01,1.740735130194529801e-01,-7.738385575398230853e-02,-8.004375572627606128e-02,-1.922420958159705984e-01,8.018556071278530595e-02,-1.053654616390862359e-01,4.252264449461978096e-02,-9.609539031592739811e-02,-1.931204305798291110e-01,2.605599130115005338e-02,6.906632108992266650e-02,-6.161278390971947072e-02,-5.662586856873033647e-02,6.185569552982949498e-02,1.538950522204343696e-01,9.008570589348315061e-02,1.498229686462296539e-01,-1.748594050213981843e-01,-1.970955443958829004e-02,-9.097873802569381163e-02,9.759077493802767456e-02,-3.535093115474991637e-02,-2.143030504379869194e-01,7.697564005478096938e-02,-1.813495963854168946e-01,1.794520012977894319e-01,2.125565839194885343e-01,-1.017584730561707229e-01,-1.893865252149938214e-02,3.669833921622445150e-02,1.198330081554573392e-02,8.129465840179245228e-02,-1.657893856979828218e-01,-8.391364492970464217e-02,7.055586367202970610e-02,3.579258116901547909e-02,-3.505385598539936115e-02,-1.037085771933406314e-01,2.446413097989464866e-02,-1.519546082880918747e-01,9.710388156141981642e-02,8.731844802306555631e-02,8.138301322033475449e-02,4.486659644286409426e-03,-4.772881576290638472e-02,8.576770523646554123e-02,-4.348276001145714303e-02,-1.758699369994884132e-01,8.713669941336658897e-02,2.992532879621211377e-03,5.554850393565061162e-02,-1.982378328604166365e-02,-2.643681643085726840e-01,2.139059516606488243e-01,1.869427760468737043e-01,-2.989832886027548806e-02,1.067614349006786728e-01,6.589211179140188994e-03,2.864802177953832199e-02,5.263910718566278818e-02,1.146863517152946071e-01,-7.253795667130537306e-02\n5.308785866794403507e-02,3.426104828588729528e-02,-2.335380384252291608e-01,8.947339841619007805e-02,7.790711105269226833e-02,-6.884575231664369355e-02,4.470189001578238341e-02,-5.135874205070795756e-02,-3.337419302768656476e-02,-4.971992072610623148e-02,-2.000608074992393515e-01,-1.009484908397128566e-01,3.327916867872762752e-02,1.019170739212763854e-01,3.761110575635909226e-02,-1.247852511421687072e-01,2.982074650296066484e-02,-1.223856722040165962e-01,-1.609771905401571543e-02,-6.502618802210631543e-02,1.236206943972700117e-02,1.710554876703964666e-01,1.190910034044833227e-01,-2.713921242394724473e-02,-1.106819770217749715e-01,-1.348882459260380973e-01,-1.818084038545960401e-01,-1.341635803390965331e-01,1.559112377997303178e-01,2.148647785610869332e-01,-2.303458725190925954e-02,-4.499379198628192938e-02,2.445607305505892448e-01,-1.869009413645431050e-01,-2.375872946912157418e-03,2.365909242344191588e-01,5.104885899106271357e-02,-5.469286260230420832e-02,1.568814869471218398e-01,2.096304220147011954e-01,-2.354443084271144737e-02,7.743171658341767294e-02,-1.326505744556615018e-01,-9.055537801318924718e-02,6.133789626638824766e-02,-3.952344131169627239e-02,-8.353424670305627242e-02,1.846508120897474500e-02,6.603703203221730766e-02,-1.337826557262004334e-01,-8.378353685457114175e-02,-4.601535530135390101e-02,-1.823146981654298893e-01,-1.643090913342350468e-01,1.189534334450500358e-01,3.884796923015799291e-02,-2.182477666497494029e-02,3.777911418461289000e-02,6.910998315011880611e-02,3.298917032459586923e-02,-4.928449747300131523e-02,-8.218100966045562006e-02,1.575894668093940354e-01,-2.714328848252948144e-03,-1.152907528446224603e-03,5.219684977815076954e-02,-1.183145869715246379e-01,-2.952684733039000892e-02,-1.958415741615470232e-02,2.793003850955880218e-01,-8.931377088098141348e-02,1.633541768293790206e-02,-8.903005307144316871e-02,8.834782719378983518e-02,-9.289402787823704266e-02,5.710740950003116018e-02,3.158686533649750650e-03,4.951079344987015934e-02,-1.982377692151735538e-01,6.193208905061502872e-02,1.444067990255294143e-01,2.156559106633120504e-01,-3.880045254549991263e-03,-1.789599370203589779e-01,-2.669678599549731371e-02,-8.942400499885656828e-03,1.747915207455770226e-01,1.324529774190897902e-01,-8.114129353373612796e-03,4.967195318795101372e-02,-7.566014320643709096e-04,9.035444904616335426e-02,-6.663318296580369310e-03,1.475222733909758444e-01,2.010889348037189772e-02,1.666463789688395480e-01,3.947042689068900462e-03,1.139502517912901886e-01,7.125661579653853883e-02,3.765408811723910953e-02,4.355683418176150429e-02,2.058668957414197254e-01,-8.988996645044345160e-03,1.193805988966315651e-01,2.673493930322034390e-02,6.594006571796470761e-02,1.384830346512379573e-01,-3.259915130237045922e-03,-8.851786878634455846e-02,1.464785502608694501e-01,9.296367134536638599e-02,2.602061874345701700e-02,1.922086188987208195e-03,-1.045815011160590585e-01,-7.050428151725475490e-02,-1.141726464777978456e-02,1.092775702988322325e-03,-1.242913508936471650e-01,-1.601911838056898074e-01,-1.057351790336163444e-01,-3.081576349795720968e-03,3.079548310258950136e-02,2.227111030701789673e-01,1.065724538562958235e-01,1.792299143085199498e-01,-4.609425515428842990e-02,1.354250876954276595e-01,4.479691199334582402e-02,8.075457925464518683e-03,1.413331624563939765e-02,4.766797210919779954e-02,-1.716330442806705825e-01,-5.382937746824375397e-02,1.016967742404232961e-01,1.074834824468145766e-01,-6.111035668330728338e-02,-8.897369980775457488e-02,-1.904476327752001874e-01,-1.782654069947193498e-01,-2.642931638433594355e-01,-4.569759691827401417e-03,5.247249963121615457e-02,1.255905261640290899e-02,-1.436473131300084090e-02,-1.760667291454435790e-01,-3.751641854884957272e-02,3.576111005545409838e-02,-7.908111172037184111e-02,-1.978000584575053192e-02,6.090119941117774771e-02,1.450986637266909740e-01,2.676691697750107624e-01,-1.002355951315882648e-01,-2.448099926621748537e-03,-5.450576423719706576e-02,5.704045618927170574e-02,1.701841397879544637e-01,-4.532072653765965159e-02,9.397788107370801114e-02,1.982954229893052756e-01,1.020385482909637320e-01,-5.615599789000048220e-02,-2.907559016436497834e-02,5.719417627980891844e-02,3.952035012781665926e-03,1.294667775219392192e-01,1.638296238223112822e-01,2.071275281390819178e-02,-6.518230501668142995e-02,-9.791736451146883236e-02,3.953329079662028928e-02,-8.678002477987145635e-02,1.939655175570893231e-01,1.135164819240543771e-01,1.097390265742577142e-01,-1.678617974983565297e-01,3.147112463543021155e-02,-1.040916961300715655e-02,-4.766626325170658998e-03,6.284290022828881161e-02,8.410068644468698951e-02,-1.551021510701983686e-01,-8.048859953474927706e-03,1.724862689615502820e-01,-9.767816596467934764e-02,1.930572884728195826e-01,1.435092982633754399e-01,-8.082903302350123720e-02,-2.453288374027539909e-01,-1.165613774348217002e-01,-6.813095514907661909e-02,-6.055493313033826625e-02,-1.352159428426049359e-01,1.868996254344476859e-01,1.229806527996600285e-01,9.324309653536115572e-02,-7.399693248084893149e-02,6.107017269967696116e-02,1.077294085543448882e-01,1.243446011340776890e-02,9.413801538310810624e-02,3.181430229331685400e-01,-7.871019563459946689e-02,6.698234492438988330e-02,-1.267922142403596630e-01,6.826824863193128867e-02,1.191893988047732084e-01,2.159928660752331586e-01,6.071561367996375358e-02,-1.239447825019230620e-01,-9.742515483481811733e-02,7.664679421720234365e-02,-2.668149651548043511e-01,1.293527871383041289e-02,-8.270011840654187263e-02,-1.778057282950290530e-01,-4.461233547635872626e-02,-1.766094945348718470e-01,-1.002716029855165031e-01,6.691950175227612263e-03,1.737701049124718289e-01,9.766432185752444047e-04,-1.395392062207378714e-01,-9.258570050763996473e-02,-1.043787506914369140e-01,-3.964760546295301863e-02,-8.475128844055190847e-02,-1.055663347191470730e-01,1.510638050151595635e-01,-7.392007326047871085e-02,8.074783410618995017e-02,-7.075962796162535429e-02,9.122394920458179457e-02,8.326404751212229671e-02,-6.569307825261036515e-02,4.197965769541383424e-02,2.165085400301463292e-01,5.744142843413242022e-02,3.755894019424886598e-02,1.066783037473598150e-01,2.024468829166212458e-01,1.078017039262268578e-01,6.971206732231938208e-02,-1.450880458503241988e-01,1.600749946103529608e-01,-5.637280221373523748e-02,-2.220911418685881170e-02,2.799153007816975250e-02,-1.593957873273965098e-01,2.694453857836624777e-02,1.095643635378145408e-01,1.240331045476570221e-01,-4.028817490107694521e-02,-2.164967338509561287e-02,-2.073026507086001835e-01,-3.083324853192466897e-03\n-4.416051893416826635e-02,-6.872675608531984837e-02,-2.294235008641891671e-01,-6.720906641353845135e-02,6.067908181605872336e-02,9.441637161845050502e-03,1.869899980481738166e-01,-6.545217412769856191e-02,7.959873950319298203e-03,2.948033077008421418e-02,5.711485290172627766e-02,1.491729256589245378e-01,2.854938134265208940e-02,5.262294825975419310e-02,-9.453944074229172004e-03,2.040177720496041680e-01,3.356346382634235043e-02,5.476951847224591913e-02,1.908723200486632521e-01,-2.199070055083355013e-01,-1.207839892685938022e-03,1.045565185906662115e-01,-1.267882831390163278e-01,-2.665628143806359276e-02,2.993927785761052104e-02,7.741637658918536224e-02,-1.715534770848948370e-02,-1.126163756474473088e-01,-3.599111827951248510e-02,-9.386311663842160369e-02,-2.112442721246392263e-01,-1.345989587090027917e-01,6.505112149935994570e-02,-2.118208222868034896e-01,1.140235642386210752e-02,-1.682095002606533996e-01,4.089338673959079518e-02,-1.306466764820280076e-02,1.104231292071985865e-01,6.807900249886095212e-02,-1.551021995448920443e-01,5.863886973960054372e-02,4.972554071621996391e-02,-2.994204640181843610e-02,-4.965932500546308553e-02,4.731212635931605903e-02,1.751724846387728018e-01,-4.933356689195676770e-02,2.275679763682221524e-01,-1.935074620693773891e-03,-5.029098176238298856e-02,9.432785309105941318e-02,-2.041117571207644310e-02,9.657166702554970117e-02,-9.755972807224470855e-02,2.213327711854608526e-01,-1.630049319195065738e-01,-1.625300828231675265e-01,-9.299595588965632598e-02,2.577365541725474274e-01,-1.576672716734144886e-01,7.398461075530576858e-02,1.562172242194340699e-01,1.122290629935462081e-01,2.499238214803559954e-01,-1.914459393316832736e-01,-1.095036327546372174e-01,-1.370152496613628590e-01,-9.862247285790708140e-02,-4.703059215959414646e-02,-1.123044839313782628e-01,2.362339633432352856e-02,7.456278497190589605e-02,-9.948645068612425868e-02,-3.430157405131554343e-02,-5.867413422227914926e-02,-4.981684158415630725e-02,1.129873431696372665e-01,1.930872640251750094e-01,1.151622303874196285e-01,-1.109229212936121006e-01,4.371036656196711223e-02,1.902288793702252845e-01,1.444626662151773655e-01,-2.542048582064848627e-02,-1.176370787935792916e-01,1.828799203507345261e-01,-2.790429356919369580e-02,1.772977169655779589e-02,-2.207731840974418852e-02,-1.523710953106295063e-01,1.719930277687161529e-02,7.567178712202185520e-02,6.581620151299603927e-02,-3.854930160599640693e-02,1.423080537660461470e-02,-2.542374992794156283e-02,-2.007658648942886870e-01,-8.109072866041196204e-02,1.907033560815248885e-01,1.696207725307237457e-01,1.657233960187247130e-03,6.207607260791735138e-02,-1.121838892391905512e-01,-2.054526247508500422e-02,1.528556566563052665e-01,5.174084894872266194e-02,-1.066393774782243564e-01,-1.024989712599152780e-01,4.253879358560588159e-02,8.495902570170241197e-02,-5.081683918994821247e-02,7.853344272829755612e-02,-2.666058844526678420e-02,-7.924007866722115878e-02,-9.184448261628914978e-02,1.480610870912467186e-03,-9.172708852561746451e-02,-8.109799037868539728e-02,1.321038996672019850e-01,1.295708932292695403e-02,2.464356669897934532e-02,7.465025158776494862e-02,4.940911150345196623e-02,5.284443885623837239e-02,1.649791901633538005e-01,6.689124660348232110e-02,3.556099781128900517e-02,7.687428027706581790e-02,8.854226283643143458e-02,1.049618130882387472e-02,-1.689089303467126435e-01,-8.046596864247039516e-02,1.130561411590282582e-02,1.610670137888126352e-01,1.912500080352836362e-01,-1.642705424738129250e-01,6.786613510924077719e-02,-1.338453707134904525e-01,2.681219608298769652e-02,-1.883436165269704865e-01,-1.714514241255158111e-01,1.003917128742983222e-01,3.046995889976666927e-02,1.041445542578546962e-01,4.214728682765930823e-02,-1.632457977631375512e-01,2.585959358283563825e-01,-1.939894228625432815e-01,1.025101068464766840e-01,4.436295890346354104e-02,2.015017750416192230e-02,-2.017218690847084883e-01,-1.799278281216630249e-01,8.533586460448935873e-02,1.604128715192141008e-01,-1.183655501917333097e-01,6.712363285207155472e-03,3.305626006207301043e-02,1.368435738108292055e-01,-8.488428339006783008e-02,2.155006624846120822e-01,-2.511179349556266066e-02,3.720344770814469626e-02,-2.345274875395021372e-02,4.376198071186366417e-02,6.929004014130958622e-02,-1.065198754853665941e-01,-7.162240606424339837e-03,1.978806056312237133e-02,-1.148096697775555144e-03,1.675711838706926693e-02,5.719025112525616406e-02,-1.448945854312450043e-01,-4.182944917514657551e-02,4.976478259899350803e-02,9.561974701992136116e-02,3.449613115309667355e-02,1.978585337204583350e-01,1.112881654516324342e-01,-1.526464766567943998e-01,1.238539284498652304e-01,-2.606091727608121356e-01,6.130231157808926218e-02,1.158676383501169582e-01,-4.301817557572551465e-02,2.518123254351415079e-03,2.490988140458730987e-02,-2.962012855832525382e-01,-2.747298184227018325e-01,-1.265769575249161005e-01,-2.060542805745510520e-02,6.336798084508227236e-02,-9.758460741839962427e-02,-8.399509313419982470e-02,6.327075221088300505e-02,-4.567071729154962428e-02,-1.433159092736385476e-01,-1.888015247158132126e-01,-4.797632169301290633e-02,-1.752305766137080001e-01,2.672162190312600827e-01,-6.436770424206685048e-02,2.593067078873603423e-02,-1.374823992780730697e-01,3.873632627129965089e-02,1.031865103406811972e-02,-9.311147841706449158e-02,-1.910911633326599704e-02,-5.034518425831880500e-02,-7.839211980393974433e-02,-1.873889160632402351e-01,1.168510669031700699e-01,-5.966028209219936818e-02,-6.566041801589944660e-02,1.054595036148095293e-02,5.264702642471565108e-02,2.070755856263257685e-02,-8.655595486325790011e-02,1.162451390649930361e-01,-1.392930288485402512e-01,1.892182149905810296e-01,-4.572717829402487416e-02,-2.273677875694252518e-02,5.932060990013331148e-02,1.947057505040936387e-01,-7.246452524995140865e-02,-1.440663277917009488e-01,1.964085967994750118e-02,-5.299283680265728241e-02,1.485675382859316940e-01,3.363662815484033501e-03,-8.726859063470900069e-02,6.547648933039890151e-02,1.304261548445969365e-01,-1.707698262585825022e-01,2.470556638631203894e-01,9.111005732776990274e-02,-3.288327576344561576e-02,-5.660138273413502230e-02,1.856586031579469942e-01,-1.045529370790086870e-01,1.205926068472874639e-02,-2.121682492908015805e-01,-1.171139276380676886e-01,-1.778728796447866800e-01,-2.763561366164336147e-03,-3.098959629000886881e-02,-2.756249494172602343e-01,2.066859830479266663e-02,-1.619376200428868928e-01,8.517179615063566467e-02,8.751561090674250809e-02,4.935137892524390363e-02,3.434768701166664856e-02,1.392009804046916710e-01\n9.071233600374973421e-03,2.126582952922847769e-01,3.544767725331266633e-02,-1.603794569084818211e-01,-5.910872107844382384e-02,2.414250565990629788e-02,-5.444496591233414715e-03,-1.001787390531991978e-01,8.771352429853913890e-02,3.058676194462898179e-01,1.746944914552776562e-01,-6.801432433436858938e-02,-1.446084843156097977e-01,1.156298123691065910e-01,8.034370999424894633e-02,1.705501204033976759e-01,6.582817261252527086e-02,-6.986416596298253290e-02,-1.203596766830036940e-01,3.031232704688111013e-02,1.442333813807292475e-01,-8.685975821217278847e-02,9.465481771398239971e-03,1.159566408097345222e-02,-6.812288807009228564e-02,8.858457576136842537e-02,1.724837600635396040e-01,1.756109219582453751e-02,-2.050883783382322079e-01,-1.054031961693616126e-01,1.177629972978776057e-01,-9.861945434804628499e-03,2.167814969653259274e-03,6.843042869366996496e-03,-6.724650015377972578e-02,3.295141371814257138e-04,5.297168122439546017e-02,-4.346013935361674879e-02,3.326818974964557141e-02,7.049047057280581619e-02,8.430849369198269161e-02,-6.254017529519208599e-03,-1.481341074620037557e-01,7.099910387825414393e-02,1.432222777184866402e-01,6.229164333294315986e-02,1.015694804148982722e-01,1.721231323183801398e-01,-6.758698725831026322e-02,2.085872423072261395e-01,-8.878757217890705100e-02,-6.320239024470725164e-02,4.203895945553853125e-03,-2.133095688947425975e-02,-6.660614532271011412e-02,7.190825782601127647e-02,-3.330554021561512451e-02,1.310726729080104458e-01,-8.188016309488130307e-02,-2.411423495760042779e-02,-1.033690369494152800e-01,-7.856798661338498801e-02,7.682147446276196834e-02,-8.804473566546414109e-02,1.073384055915947155e-01,-1.338511363776979761e-02,1.320841240214051249e-01,1.157204568800100641e-01,1.891099478603175121e-01,-9.468501678962508439e-02,-1.628105974900867503e-02,9.694350220420946962e-02,9.798785927810735319e-02,-2.195740746110893746e-02,9.646370358238046117e-02,-3.419512977968181249e-03,-3.189793694236905952e-02,-1.797439096320200061e-02,8.898572304125965116e-02,-5.392838955086319552e-02,-4.349385491048722574e-02,1.076897824779098900e-01,1.025120468961194381e-01,-1.279007781329020987e-01,5.887357336997253721e-02,8.736745286874927213e-03,6.107038574030153669e-03,4.116826020690859261e-02,-1.676087930376928548e-01,-9.833075722870104896e-02,-1.007252465639650180e-01,-7.362194538536832172e-03,4.670535480281238355e-02,-2.794838886400138334e-01,5.790989543872532286e-02,7.547077777718726177e-02,4.953745207482387024e-03,-6.849266327674102817e-02,1.867035193114455760e-01,1.086215093506762847e-01,-8.504639339516574525e-02,-3.617879612992382608e-03,2.966917003559513960e-02,5.603853895832601462e-02,9.668660174350739156e-02,6.949665593646446593e-02,1.292532813585836882e-01,1.807024057942331063e-01,1.313337660129966500e-01,2.686410223130784175e-02,3.379261077369301314e-02,4.286983175127701690e-02,-1.141307978345692913e-02,2.357390109282106461e-02,-1.991041552621924254e-02,-1.022879900978607703e-01,5.332903339129663883e-02,-4.915882943719129816e-02,4.001251822649321693e-02,6.654631718599831811e-03,5.267357628025447908e-02,5.700655323407808478e-02,1.235077668299260079e-02,2.371519547382388848e-01,6.259560329351707142e-02,-1.465165679811644694e-01,-1.294095504928849949e-01,7.070147101363123687e-02,5.683820711791660180e-02,-2.715205766607868901e-02,6.419007068157818810e-03,-3.678659025847323683e-02,-4.095378321080657413e-02,1.002601466409052816e-01,-1.355065373268524720e-01,-7.149968112030401224e-02,-4.559784077045930806e-02,-5.943425749410954223e-02,4.263306017848748214e-02,-1.445574277824885484e-02,-2.384188752216840346e-01,-5.485434154088824482e-02,-1.060071530872095102e-01,7.804674540652066506e-02,2.583438196441318335e-01,-1.771449387141298959e-01,6.805938153155684234e-02,-4.968133494948685780e-02,3.318303258348379026e-02,-9.312621768016057788e-02,-1.686003182814688195e-01,-2.403727091154012341e-01,-2.488658068484930416e-02,3.768719719234959326e-02,4.442612277514045027e-02,2.790414174537408920e-01,1.164934766175562547e-01,-2.332494774031514118e-01,-9.890914319209578864e-02,7.378565661294854416e-02,2.410201780638136088e-02,7.274842164124573074e-02,-1.136017222990409609e-01,-3.080138978628362348e-02,-2.390483151155456676e-01,5.499039133947935393e-02,1.075563344375652514e-01,6.787231483445958780e-02,-1.066860574235404813e-01,-5.230953025468765977e-02,-4.456972316640267495e-02,8.660941315077878844e-02,8.943265936494622370e-02,-1.490052637417927095e-01,-9.764779478265195323e-02,4.759746451106287163e-02,6.501905284029545207e-02,5.347656477999602337e-02,4.611737486982676881e-02,1.803522682210270400e-01,-5.860394008340379796e-02,8.408671718006822948e-02,7.894435850385839171e-02,4.501011811233150695e-02,-1.070069738138720028e-01,4.673726847200192908e-02,-2.043122152624931298e-01,-1.690571121668257570e-01,9.257669409289039780e-03,6.212470548401298476e-02,1.162961831650730360e-01,2.478393222449538913e-02,2.440508047148829546e-02,-9.859375460192365548e-02,1.476816875417149288e-01,-6.479244797119004806e-02,-6.407633091338481302e-02,-1.786154567558735640e-02,-9.717481770913073691e-02,6.283780735784687266e-02,5.297307691660771423e-03,5.010137040393003449e-02,-4.037456450805554375e-03,4.407338099311710125e-03,2.417101744037336297e-01,-4.429661025928210982e-02,2.638513380482124596e-02,6.116583274779328894e-02,-4.700071128965563338e-02,4.317331336430443867e-02,-1.216839288621103521e-01,-7.949761227767732086e-02,-2.400551498420553428e-03,2.286125520482787943e-01,1.841732685673878140e-03,1.443111538768167557e-01,8.293260566268058354e-02,-6.124188838527199613e-02,5.035958410440630369e-03,1.161332259411252399e-01,1.287476343655525324e-01,4.145132216071109599e-02,5.831795102585826673e-02,1.287475341882374502e-01,2.099282154048848215e-02,-9.344171016049299117e-03,1.264309383749631643e-01,-1.807879825373058871e-02,-6.070574773069182389e-02,-1.183416131510367647e-01,2.346665600350990311e-02,-3.656022562373552331e-02,-1.082572124139217010e-02,1.499577797132047030e-01,-1.076290869696644309e-01,-2.323488996337204349e-01,-1.108471171705209535e-01,-8.710437091309113089e-02,-2.289657650424125335e-01,-4.952988947856157287e-02,2.510329628877297839e-02,2.955790423996688260e-02,-6.582086661592392862e-02,4.462721531397058350e-02,3.654150198576577163e-02,5.341473321867686030e-02,-1.698157639900910176e-02,3.991178556803261224e-02,3.486337095411567999e-02,-9.559884664226728224e-02,-6.962587626455092604e-02,-5.595097297146357784e-02,-2.156761090752659996e-02,-4.866895516262569055e-02,-3.496564119867673348e-02,-1.041898394761627822e-01\n-9.074280207561326306e-02,1.088863658696669207e-01,1.881258457344130441e-01,1.208918567511274578e-01,-1.927434532166857895e-02,-2.406062088131747656e-01,1.410404720005904722e-01,9.938851553664871177e-03,-1.715703476308180417e-02,9.932176788458936187e-03,1.237636302091490483e-02,1.088884771615504371e-01,2.567554747260178405e-01,5.760086111063452557e-02,-8.181769976275445055e-02,8.816599552628834671e-03,-1.215792425018589473e-01,-4.208528496588678086e-02,-1.334708813320909515e-01,8.523688176103978720e-02,1.396653289598465686e-01,5.814784260798767056e-03,2.189882886531958547e-02,-9.634890833629228268e-02,5.506931322931078038e-02,1.236271252932917147e-01,8.496154854666386480e-02,-8.776952481610392209e-02,7.202557673701261154e-02,5.054339108554405102e-02,-2.540871704377189316e-02,-3.347523120519154544e-02,6.253842669806688320e-03,6.547994266242891659e-02,6.974623323213226256e-02,3.243919943428692082e-02,-3.885923945422442571e-02,5.192128835311275031e-02,-1.412723413439219942e-02,2.141998013969921011e-01,-1.134708585554037308e-01,2.555512041520250355e-01,5.413765219587946681e-02,9.519450696883101359e-02,-1.114958609585414567e-01,-6.590188786358615325e-02,-3.496628514622549672e-02,2.365361460822266049e-03,-8.848196552623427413e-02,-6.579303382603148009e-02,7.726753103417528280e-03,-9.313720068153512333e-02,1.565502253921059739e-01,1.969053134535921901e-01,-1.423730344135695214e-01,-6.954397956106066203e-02,-7.469597637305724902e-02,-7.336125666173287652e-02,1.355763744709814755e-01,2.770421465634032715e-02,-6.205161545346082885e-02,-6.879285312515932577e-04,4.669932800914813886e-02,1.344226097493043393e-01,7.018215469815976271e-02,-1.269339728037781057e-01,1.094465714317541249e-01,2.660232320522783883e-02,-6.198608867226670233e-02,9.909785267254304919e-02,2.709178757829935891e-02,-7.176482679391377184e-02,-1.568542215951919741e-02,-3.116153119223099774e-02,-7.774241306457289891e-02,7.496353083683350571e-02,1.288833289926580861e-01,-6.961237622505030143e-02,1.522407147401952932e-01,1.090357707345415428e-01,1.285939629279861107e-01,-2.929269214693465666e-03,-4.252347639238850119e-02,2.088504542699639588e-01,-1.606963380666347752e-01,1.525579168845527800e-01,-1.170254904699415816e-01,5.592319752013508172e-02,6.982876441850351112e-02,1.371512912161409470e-01,-1.385779424957494232e-01,2.338740907742731245e-02,8.490654120405784211e-02,-5.434026119904716151e-02,-1.421793932177014830e-01,-5.272895975913232530e-02,-1.362926028259063560e-01,5.246436581496829142e-03,-2.590814771517658752e-02,-5.549568441273784042e-02,-6.358254217099101879e-02,-7.363228588781364770e-02,-3.184783609629879275e-02,-1.945949388285022341e-01,-8.175817285292751035e-02,1.004369910893523760e-01,2.833416550280624079e-03,-3.116657494051603902e-02,3.204392852566186750e-02,3.867101295751722984e-02,-9.413130215131695899e-02,1.619465873808509024e-02,-8.582295695736484598e-02,8.883140170445717743e-02,3.174311807228600429e-02,2.216166070880984384e-02,1.329939634206757648e-01,5.479874342180354393e-03,2.617781758412092083e-02,5.199147311634866320e-02,-5.062187905194689974e-02,5.176129286315360456e-02,-2.410557661401233499e-03,-8.158462262019944289e-02,5.429972691982774824e-02,1.357844769690467468e-01,-7.318723058549261862e-02,2.319686237765593850e-01,-4.107439664162720536e-03,1.303965743626348851e-02,1.044670023956340565e-01,-3.440467683269668279e-03,-3.234615243977689847e-02,-9.525554813074060823e-02,-5.749528408103836592e-03,7.483281397886955288e-02,-2.693356687668637672e-01,2.847141168531520661e-01,9.793432107050416280e-02,-1.756615304147711720e-01,2.839037539191674453e-02,-8.811861186321703898e-02,2.950022920681218477e-02,-1.179729257037038376e-02,-4.656545020532039934e-04,5.144313535909211810e-02,5.169279506006772135e-02,8.159807755153715425e-02,-6.468426068546523355e-02,-2.536325902828768797e-01,-1.018352947065412073e-01,-9.423639948582669679e-02,1.138013996222303204e-01,-1.340301536605952026e-01,-1.077273625626003596e-03,-1.258747608304968367e-02,1.661006677761665551e-01,1.000111618767497990e-01,5.686680714706098677e-02,-1.080107948149321428e-01,-2.352396793352146478e-02,-9.851152443625907362e-02,-6.088117253498612214e-02,-2.160683028622710500e-01,1.096845592470949426e-01,1.103884478629892779e-01,-4.015434208139558557e-03,-1.545904688265707927e-01,-7.575248716668145366e-02,-4.353399113516960572e-03,4.055695727914324089e-02,5.808269230208377293e-02,-7.096745628916245607e-02,4.235170139651323398e-03,1.678696095004941768e-01,-1.192566342412243047e-01,4.175166178465317818e-02,2.170468363428381883e-02,4.514370164318977363e-02,-1.540100464946712044e-01,6.139352733590081046e-02,2.507591299349309216e-02,1.342785767771722261e-01,-1.104080371482699524e-01,3.473494398308228648e-02,-1.017412923545982367e-01,7.209001903707845660e-02,-5.849511860439602501e-02,-1.198911109623656129e-01,2.424349459913015606e-02,1.033769035579056583e-01,-5.610760693497755976e-03,6.569252088240815080e-02,-1.061911633770710461e-01,-3.624808417023187707e-02,4.042026429333958615e-02,8.742583845971554912e-02,2.489006176159274386e-01,-5.059425243657535154e-02,-8.436510661239761399e-02,-1.283794163479088160e-02,4.246035451640051833e-02,-1.184289835747050490e-01,-5.132380042163363267e-04,-1.030678124089878939e-01,1.404652098770638735e-01,-6.673798840069999905e-02,-1.629505474632056694e-01,1.166402659442142692e-01,8.474238245375782796e-02,-8.316274459494404567e-03,4.170934831259766329e-02,-3.183325895397719901e-02,-1.222705039426687235e-01,-1.367157057903490083e-02,-3.946669468046608287e-02,-6.583002947313809639e-02,1.244649676428744717e-02,-7.358426909146463524e-02,-2.551996529381382259e-02,-4.261652251263616659e-02,1.405524351772158842e-01,-2.372178581443019907e-02,-4.445642978091220859e-02,1.014877150602060824e-02,-6.451089219223536675e-02,7.076904938376216148e-02,1.395052304501509244e-01,-9.816019227960808002e-02,-1.474116815011976556e-01,-1.992867415791809912e-02,-3.277517658649451576e-02,1.438026373971783983e-02,-3.007777701958134209e-01,4.192062929439685504e-02,1.743106415961869216e-01,6.638411587410780919e-03,-7.443402067184415327e-02,2.496189414704608478e-01,4.289343249990870688e-02,-3.114323557409201179e-02,1.824316395296184112e-01,-2.725853348989092095e-02,7.685103965610529109e-02,-4.113300746260548785e-02,1.635364102259524999e-01,-8.089400876738717105e-02,-7.959247871273714137e-02,2.210491637164983536e-01,2.521501598886574658e-02,-1.481423927078388547e-01,-1.791208932550895916e-01,-1.033674903129979013e-02,2.035853753912237607e-01,-7.960329686015174544e-02,-1.348546170507892161e-01\n9.421340269408663703e-02,-1.134365487170909126e-01,-2.369301467369046010e-01,-6.891468757864961658e-02,-3.335756833535270804e-02,1.451565256635961865e-01,-2.444640044350736285e-01,-3.917528890660766927e-01,8.146138557308064965e-02,-1.624350566341513646e-01,7.159368638524640782e-02,-1.836530451115514495e-01,-2.209254708557002733e-01,-4.441477471061328931e-03,1.432951469988885396e-01,4.779017659951147884e-02,1.409986055550923600e-01,-1.978173042388164590e-02,-1.451892465899329576e-01,7.996956043075158227e-02,-6.824114028231520468e-02,3.573819426907751118e-03,-1.242620251392331093e-01,1.074682019631402335e-01,-2.637294918226901763e-01,-1.417543242458818298e-01,-1.023689667485478960e-01,-1.376609253821568235e-01,-5.368418970614999286e-02,-5.491938494414307093e-02,-1.952263711651089084e-01,-1.981744355132861526e-02,1.528635884262277700e-01,4.361326662460942444e-02,-2.333554661033233890e-01,-9.254648152266541083e-02,-1.201155829954824311e-01,5.046450816269843626e-02,2.031969852910044116e-01,1.616188236858355776e-01,1.152378898093392862e-01,-1.443954006852932181e-01,5.851252870626255653e-02,-7.453557910212574300e-02,-2.062273890137521215e-01,-4.406679833631798465e-02,2.139493983172381653e-02,2.120098768323813720e-02,8.513600667790248433e-02,1.472818675215661066e-01,-1.155990750367495573e-01,-9.730303678359479569e-02,1.197943797374987351e-01,1.326437208124069955e-01,-1.089158398995501847e-01,1.257433447730779419e-01,8.562126293639930885e-02,1.287427453818534850e-01,1.373777111181125402e-02,2.184121430344600490e-01,-1.166449501188182858e-01,-7.178580479025421790e-02,1.129710226613657997e-01,1.920149998640739153e-01,-1.679767126782429065e-02,7.612112684049583688e-02,-1.951711606240450272e-02,-8.720308461312507864e-02,1.096877590486230042e-01,-3.462941055641385185e-02,3.786056527231178304e-02,-7.000749468949485355e-02,1.004124700803257914e-01,1.396555120202765954e-01,-4.414775653700336172e-02,-1.413328599296534149e-01,7.983016369914622268e-02,4.060196833602752742e-02,-1.598633903275841484e-01,-5.656861035207944727e-02,2.128416918811642244e-01,-5.736333253417227190e-02,1.355324080896755656e-01,8.620349354093080618e-02,5.789809483288686776e-03,8.025351234510146037e-02,1.081331066193460255e-01,-3.075671217474468949e-02,6.131844647728947745e-02,5.097803757595224805e-02,-5.428383884981670404e-02,-9.662478965988867408e-03,-6.631186293506668994e-02,1.129756905332205408e-01,-1.897881181368873266e-02,1.327909733313012777e-02,-8.899203716081975635e-02,-4.317105854985020530e-02,7.972770412577309673e-03,-6.298631088518613641e-02,-1.591383198258923826e-01,-1.960120892345250665e-01,-1.125594125669014678e-01,2.796227768459956797e-01,7.863840598739761656e-02,1.210787122711439456e-01,-4.580760637102248428e-02,7.075992291446508986e-02,1.232422395141920396e-01,-4.449912469356816420e-04,-4.407498730321015440e-02,5.132180127814960080e-02,1.446552699010655169e-03,4.292822637266360125e-02,-1.420289552671815114e-01,-1.441543767561892508e-01,-1.458059359826783530e-01,-1.229376191767508897e-02,-1.250933332289478062e-01,-9.091108543876928391e-03,-1.043509220587856556e-01,2.865451651005368472e-02,-8.136195727347844686e-02,1.692103799632560246e-01,3.410853093874711695e-01,-1.397644402290836464e-03,-8.838095177772652133e-02,-3.888957940985938305e-02,9.600311096337797723e-02,1.582674420364233933e-02,-5.296023385726510851e-02,-2.363872915106570161e-01,7.334789251340639860e-02,9.994381103119269472e-02,-4.501794732566321428e-02,-1.747104528515478206e-01,-1.716155826663581518e-01,-8.532076603360537470e-02,2.371087578526396011e-01,-3.226839346938048525e-02,-8.820960708815904494e-02,-1.703497725105727334e-01,-3.131350581385353854e-02,-1.479604855039309275e-01,-1.870693439587158002e-01,-1.977518169046394714e-01,-6.347236652914600707e-02,-6.002947778625774417e-02,1.120355991442735684e-02,4.522556485749123362e-02,8.091404817619947398e-02,1.678207014513639558e-02,3.016429867186052119e-02,-3.072178101066532808e-03,-1.158022408281415144e-01,-6.322555671415505674e-02,-5.605914273904853001e-02,2.715924481458474593e-02,1.882579030598705017e-02,-1.454344595343211831e-02,-4.024869624308723137e-02,2.530201606457392702e-03,1.862640860435960388e-01,9.376801068152132088e-03,2.369112422804999785e-01,1.885568109647001167e-02,1.939676815527663634e-01,1.382389006376318896e-01,6.095309616550633608e-02,1.683802794273405942e-02,4.906095803286517065e-02,-6.395816753970552659e-02,-1.161170034341392834e-02,1.478132693318027005e-02,8.735820490785078940e-02,5.801351178208030007e-02,1.940577630818955401e-01,5.157583277661166588e-02,9.436825535923603486e-03,1.083591749464002663e-01,-1.391413677197975707e-01,2.243762025709544194e-01,1.590392929592789398e-02,-2.145413417112032595e-02,4.103425406413650778e-02,1.282827874226788456e-02,1.160224712640241934e-01,-2.685408071188958856e-01,1.762505945032418961e-02,-3.045094427627397793e-01,-1.055743486934635073e-01,1.821267089469060241e-01,8.761661050339242252e-02,2.813574951616042152e-02,-1.547479080539404805e-01,3.356192052549427512e-02,1.661586363440798741e-01,8.538049454111240610e-03,3.985606482117067667e-03,-1.294962299670093520e-01,5.878396381617479599e-02,-1.205953375385877546e-01,1.248395000124190440e-01,1.075505200055165284e-01,2.319025639259124083e-01,9.898594551373282591e-02,-1.363893110452195079e-01,-3.859823743405367547e-02,-1.640977860213378159e-01,-2.344832409879386761e-03,-4.534377261592824337e-02,-7.088718042687197629e-02,1.571017617809346290e-01,-1.133200064489600090e-01,-4.894735166012692540e-02,-2.536766217456702388e-01,-1.070299666114852555e-01,-6.218459168379013302e-02,1.627015483560488585e-02,7.084750201706291328e-02,-1.661174223231202951e-01,9.631827200672636591e-02,-1.880215386775642428e-01,-6.668512111599064979e-04,-1.399421983388244861e-01,-1.345287790308742903e-01,6.140612389337463811e-02,-2.212941175480374056e-01,-1.035927253990855668e-01,-1.392492823005574316e-02,2.033682242829415454e-01,3.001400349708832280e-02,-1.162199750569286733e-01,-1.384148810447991540e-01,-3.726548129916781166e-02,-6.964198136183250010e-02,-2.827668108462280325e-02,-1.947147346637464471e-01,-4.300576486907351642e-02,-8.817400720223880772e-02,-7.839068476740746957e-03,-5.303647429920554934e-02,8.334110940725412975e-02,-2.651236895421247297e-01,2.073264554588102881e-01,1.107761013830908248e-01,1.617565171869842638e-02,-1.125475916286638707e-03,4.344678797078382719e-03,-6.063876517024087420e-02,2.515837449009867832e-01,-8.141010320319844173e-02,4.549259774972015322e-03,5.677562739045294987e-02,-3.812276689019957615e-02,-1.285861185926182038e-01\n2.867060270746183970e-01,-5.374457681187727771e-03,-1.414602987056027585e-02,-5.697793397259125203e-02,-8.799439219977085724e-02,4.914565353656961261e-02,1.592197012449974858e-01,1.428350841553721329e-01,-9.328967939272075904e-02,-2.325340616980944852e-01,-4.519525801877127824e-02,5.873792184226423602e-02,7.097352256012127991e-02,-1.026560273831122472e-01,-1.129814758707779615e-01,-1.963262800320346099e-02,9.296226152490576211e-02,-1.283879918633407113e-01,1.557214074946610023e-02,7.459011604296632292e-02,-1.126951421495699102e-01,-1.404052203219625095e-01,3.069591553678048534e-02,7.701782478522115061e-02,4.769127282154852349e-02,-1.177252955820498326e-01,-2.454232309410241814e-02,8.558112912321000354e-02,-1.210559388813407383e-01,7.363841128251830907e-04,-5.583021772276834660e-02,6.249287600825876102e-03,-1.106408546357912498e-01,-1.684193313372777112e-01,7.583482109761567613e-02,-1.472609955284308846e-02,1.873697125105752356e-02,-1.176907560026691363e-01,1.542965876911204549e-02,8.721086302303132642e-02,-5.705622271062359141e-02,6.669921924467124563e-02,-4.537857269037175179e-02,6.345417456766885844e-02,-7.633299311992876313e-02,-1.680568961889941301e-02,3.836885218671739345e-02,2.875971702055587706e-02,-5.122931645866649758e-02,-1.475923256719370406e-02,2.483206192564559878e-01,-3.596285248229012799e-02,1.821716687162960868e-01,-2.506780550514669040e-02,-9.129420354564105056e-02,1.506975391164702693e-02,1.528455462575131762e-01,-1.510482824056767481e-01,-4.951290417875566646e-02,1.658059434281510813e-01,-3.426151825973564741e-02,3.127680224394820824e-02,2.623761827538904634e-01,-1.873678999224139829e-01,-5.126183262522177042e-03,-2.353704989859990437e-01,-1.746436347107871989e-01,-3.265581176128495855e-02,1.211972128483233546e-01,-4.533261799805381187e-02,1.835012794712782280e-01,5.777291130238416950e-02,3.860986788705336736e-02,-3.272404176357319831e-03,1.305780912824429929e-01,5.714496291377338388e-02,1.075333927562435316e-01,-1.070920908719002196e-01,-9.391022516243011098e-02,8.721367721047259061e-03,-1.307216312305636841e-01,-8.340917223743958553e-02,1.697741678397395731e-02,5.623505791366000678e-02,-1.304150028939254358e-01,1.313512326453629975e-01,-6.376605585259031983e-02,7.173826060788474068e-02,-9.657790874423485827e-02,3.047769386109345970e-03,3.036110303302614818e-02,1.022604487506355020e-01,-5.464093867119788200e-02,6.457597505870285581e-02,-3.921426641302680656e-03,-1.232231865877184140e-02,9.941277339515311451e-02,2.330799862926526481e-02,1.607264532786849554e-01,-1.453274160344494859e-01,2.284741527523284632e-02,6.644410969528045940e-02,-3.218094467747273368e-02,-8.726101457735779832e-02,-1.140892342576232121e-01,-8.078023562307318217e-02,-7.047162692071798351e-02,7.888575255321154944e-02,-5.402128693247958136e-02,1.793088227498772225e-01,8.413037111304608184e-02,-3.195237760507264185e-02,1.345338055042266060e-03,-1.881933161307071944e-01,-1.522223785677886687e-01,1.573448966782909075e-01,5.273643157412823135e-02,-1.683653198413723531e-02,1.947689390296883094e-01,-6.181164822447213041e-03,-2.469857546652861821e-02,3.613401992826739684e-02,1.384658846913633945e-01,-1.176896080295892766e-01,-6.296326719417028039e-02,1.865319742907907419e-01,4.176068754432916280e-02,-5.368867952031050605e-02,1.531517556449968620e-01,4.443644319452291769e-02,1.386257578819527214e-01,-5.362688671183522826e-02,1.244123844306589538e-01,-8.803914152518661773e-02,1.140520868337089044e-01,-6.878959375415667765e-02,-1.140228423421841414e-01,-1.444239824572512466e-02,8.915263678758866481e-03,4.234932563505591080e-02,-5.192118739367924951e-02,-1.651369807789997493e-02,1.777815144605357778e-01,-4.086157696954172310e-03,-8.810526396311993413e-02,1.067588663150415007e-01,2.832673929986950778e-02,3.721154024527383031e-02,1.465690089536253737e-01,1.876475715464427999e-02,7.173377576706442549e-02,8.445654395552858185e-02,-5.387316361149233068e-02,-2.697019586461578688e-01,-1.927817320374322074e-01,1.451046292923843795e-01,2.764047507550881355e-01,5.906715855871272174e-03,-5.300702020548968274e-02,3.421560772348375412e-02,8.495924668657858433e-03,1.186898497958078537e-02,-6.162078250263233054e-02,4.953178404637063881e-02,5.586242857897357611e-02,2.564777205265867180e-02,-1.630504592345699555e-01,1.068701977487587357e-01,6.001695343420709178e-02,-6.907222935741798298e-02,-9.221329166775202313e-02,-1.535388331448901411e-01,6.823384226461617907e-02,-2.995765068419652469e-02,8.259908904135331020e-02,-1.045361184797569641e-02,-9.345343235074701771e-03,-6.576824400279730753e-02,5.536814027654574782e-02,-6.718140999704935723e-02,8.134616161998896311e-02,-3.172791253882498164e-02,-5.883758525179199478e-02,-1.688188091031914417e-01,6.670368909643135946e-02,5.152592887134547356e-02,-1.823798961756217252e-01,-5.776236517044189278e-02,1.733927925724980945e-01,-5.374776975242348542e-02,-1.845691180948088594e-01,9.929132498669472617e-02,1.891800286143578425e-01,-1.639969711347158063e-03,-5.487799338613526950e-02,-1.024272877161185591e-01,-3.151392916220342472e-03,9.677363983628679833e-03,-1.777636968657135275e-01,-2.096617716574073961e-02,2.206002418588848268e-02,1.246039194523027999e-01,1.601821659251633986e-02,-1.957560192793459386e-01,-3.782540916823867033e-02,-1.830649050412350709e-01,-4.831974993623874837e-02,-3.636773321994906522e-02,7.626920373434900591e-02,8.882784296525034207e-02,5.460484215036993244e-02,-2.000691228623316942e-01,1.039844072501973360e-01,-1.692634237625556537e-01,-3.089551358700862171e-02,-1.289595568358597455e-01,2.515134510267831580e-02,8.302333756159235856e-02,5.348104958541083365e-02,8.681425342895134067e-02,-5.724487080282358170e-02,-6.618014090640099347e-04,-1.150035982934729389e-01,-1.407931021630070001e-01,7.564196107652482182e-02,-3.082675963508717948e-02,9.926244453308212534e-02,-1.257085713673479488e-01,1.227267737497984151e-01,-2.211535020758196787e-02,9.429467574204106195e-02,5.790426703844388234e-02,2.885368749362718366e-01,-4.395441293641474262e-02,-7.120986670811921271e-02,-5.058062192749818858e-02,1.288310543227054461e-01,9.643535906500397270e-02,-1.720775942022696736e-02,-1.534518281155274888e-01,5.483602416224995363e-02,1.218063671017009936e-01,2.160191248701874012e-01,3.007587478547422977e-02,-1.185633103884373568e-01,7.021767364109604385e-03,-6.615365207994869379e-02,-1.112533948217979268e-01,8.290793694088988142e-02,2.590330977634238696e-01,1.325239890164111034e-01,-7.469041269069473521e-02,2.178573865662199877e-02,3.494076800029386094e-03,-1.630208513518415503e-01,4.758875008585305294e-02\n-7.753409925954601878e-02,-6.317571955375091142e-02,1.455583489958225431e-02,-3.584068298003274117e-02,-3.741394765039256221e-02,-2.263321629233295759e-02,-1.590054890518389497e-01,-1.559338016497065493e-01,-1.409281730913251318e-01,1.739408257719257944e-01,-1.775512416134821247e-01,3.010364972690067475e-02,8.560179223794840697e-02,-1.621795381508631395e-01,5.634797173433666456e-02,2.128722543771564002e-01,-2.058213057172121954e-02,1.408614688796923087e-01,-9.121102768584325726e-02,1.066700822758661488e-02,1.753079272026344115e-01,-1.127151137826014893e-01,-2.330029603875324040e-01,1.485656838893811837e-02,1.765837536034836341e-01,-3.340505497922607869e-02,-4.020027433379801812e-02,-4.548044724976859146e-03,1.142640424495664220e-01,5.078381043230720954e-02,4.589215145887937802e-02,-2.109375810441717347e-01,-3.987557752220902835e-02,5.763786060903255959e-02,7.130325530619689711e-02,-5.873882340829206933e-02,-1.602469745683875457e-01,1.080659548462882813e-01,8.015647857979731061e-02,2.799326326957855479e-02,-8.106793427648747996e-02,-2.295703651741213269e-01,-3.461276492556831369e-02,1.681842951309541617e-02,-5.670358155474614081e-02,-4.734769483686788322e-02,-1.154226403713919102e-01,-7.306620389980690577e-02,-9.558441599575126513e-02,-1.753043438146834609e-01,-9.839913741156981752e-02,-1.119131667018074539e-01,9.846250188236553569e-02,-2.335652539470609371e-02,-7.513779376923739040e-02,-7.197152299939750530e-02,4.116412136560611973e-02,3.892731656359352949e-02,-2.325647615347693417e-02,-4.900762155901798589e-02,-2.440185344780729515e-01,-1.712333620904408008e-02,-1.005069586256621544e-01,-6.913255448891893196e-02,6.848711498479424786e-02,-1.900624674284865506e-02,-7.655729396967474176e-02,2.569729480114542608e-01,-8.698191292851070733e-02,-3.342069260711340306e-02,-1.544259113348270540e-01,9.143382129840940675e-02,-1.309054174814910931e-01,-1.737404347661998527e-02,-5.825567141895748174e-02,1.007094279179445578e-01,-1.615437587342927750e-01,8.933840899732533453e-03,-6.914028990515355688e-02,7.982086775502540699e-02,1.214217826320240085e-01,1.022375557551679082e-01,-9.295773807283334855e-02,1.186922470705275151e-01,8.781916154035010469e-02,2.033553329892321127e-01,8.899597691209483463e-02,1.083221155725500318e-01,1.886077417950066115e-02,1.528843615317304061e-01,1.702924107794291653e-02,-9.859540564569366228e-02,2.447958046360480810e-02,1.148165458120005838e-01,-3.183020804920146940e-01,-3.030418756893441534e-01,1.436132205103476667e-01,1.887929865165151322e-01,9.820419155128551347e-02,-9.097482558624829518e-02,1.157988766912495943e-01,6.415515582442805030e-03,1.726435737450257857e-01,7.877878836032801979e-02,1.283781770359813390e-01,-1.431199292877004536e-01,7.878065701737822779e-02,-7.078726003369405217e-02,1.117076810832063616e-01,5.473496039053367401e-02,-1.960024224169940738e-02,-8.912762416225897266e-02,-6.456965967474764638e-03,-5.637112761064688032e-02,3.327593141556330764e-02,7.383891389031042862e-02,-1.972515918906398158e-01,-3.048003894415467555e-02,5.238553984751248560e-02,-1.280603748421422876e-02,-6.383257726135317667e-02,1.030972289291306188e-01,1.017036502782901752e-01,5.861769895588268137e-02,-6.642650100103103528e-02,-7.427617461856155824e-03,4.355640932210169680e-02,-1.034353303156175935e-01,1.105768293747432657e-01,-4.824939076253660641e-02,1.420718717704524958e-01,-4.808500336608273473e-02,7.723145809547676127e-03,2.556949456316518279e-02,-1.254947853424446258e-01,9.888143700006919723e-02,2.083625039944710100e-01,1.742467148091926821e-01,3.753402077131171022e-02,-1.589596542893459141e-01,6.916248934542293392e-02,2.869354645997355263e-02,-2.206686088655147697e-03,1.123065045536288803e-01,6.646418839239197351e-02,-2.007326743575121863e-01,-2.477411071544640131e-01,-1.679355916849444574e-01,-3.363247581347926507e-02,-1.033157179651013891e-01,-8.727751680650901178e-02,7.470726845996547572e-02,1.336684484047591659e-01,-8.465179959251305231e-02,1.045290668416518493e-01,2.605022233937607373e-03,1.598642895993765689e-01,-4.951195040778654660e-02,-3.006777514849962724e-02,-8.580178377685775126e-02,-6.124711306132370886e-04,-6.262328764516039703e-02,4.589589905147146293e-02,-1.054991221321304878e-01,2.760964807219838668e-02,1.396671841745633358e-01,-1.186077234894530458e-01,-9.652102393324601265e-03,4.032498800883844992e-02,-2.235006656514978984e-01,7.349916030784508364e-03,-9.308495011285247700e-02,-6.535306524218446877e-02,2.786208088323622808e-02,-8.086958000710840755e-02,5.790123282582674419e-02,-9.844403730686854259e-02,-4.400086036700674025e-02,5.739804508286269757e-02,-1.336038343096720982e-01,-5.230463353532362886e-02,-2.081729410156839960e-02,6.704191772721843079e-02,1.481665432082600875e-01,7.721073493176737468e-02,6.004642743391020582e-02,3.788734733797278348e-02,-1.258265960238919012e-01,-1.214721602725790106e-01,9.898993701604172357e-02,-8.583333134669371423e-02,-8.959952859345078624e-02,3.341610870141589057e-02,-2.853123814291482277e-02,-1.992170193186427324e-02,2.187692892831776155e-03,-1.037484114093635036e-02,-2.134534392801077651e-01,2.664549416213833968e-02,1.564165378789108829e-01,1.793706217202060693e-01,2.611191478266263952e-02,-5.873279020006855894e-02,7.643267094764656655e-02,-9.192994751948722898e-02,5.353552914676803186e-03,-1.452400653650969264e-01,-2.383820119265162851e-01,-8.340814257880595217e-02,6.066149040130637549e-02,-9.313940764075013048e-04,-2.292719930350531343e-02,3.174618037948541416e-02,1.151711450650122898e-01,-1.664521939006319562e-01,-8.319158787616759421e-02,-1.869960925420487974e-01,-2.403630340082619013e-02,4.525486184817356650e-02,-1.044398453541899030e-01,1.652835521449745881e-01,-1.973994970402800919e-01,-7.340538152330962351e-02,1.638069867178491568e-01,1.085408371989881465e-01,3.269516570022608370e-02,1.679801102548893477e-01,-1.047345080826373419e-02,1.664665030558555303e-01,8.973367367652719528e-02,4.201383165946059178e-02,-3.957420772588757935e-02,2.913260438658105134e-02,5.403034838183772004e-02,4.548029088207612008e-02,-1.051546711481013974e-01,9.885714242654006570e-03,-2.365933701983718995e-02,-9.103193853932586843e-02,2.846176063435522097e-01,-6.858422493674498632e-02,-1.467226229568432405e-01,-2.427948005465960929e-02,-1.217474844141608059e-01,-6.951968183709882065e-02,-1.715682315449424886e-02,-1.240887372153223339e-01,-2.188019709903491761e-01,1.651458808988666704e-01,1.122695273212624273e-01,-8.578041293911018578e-03,-6.331751067017066248e-02,-1.519337287911886637e-02,-5.912246203356306962e-02,-7.790911622898889777e-02,2.534661772953304970e-01\n-8.194027577295586763e-04,4.107109537137609845e-02,1.008882290620570776e-01,1.018566510360785667e-02,4.877493829440144452e-02,1.660463917216209451e-01,6.125119193386326967e-03,-5.014993519180629966e-02,-5.571126589552586467e-02,5.923116316694234523e-02,-4.009004996116846686e-02,1.123878609503058262e-01,-1.505188502730133437e-01,-4.899166686958872363e-02,1.907290664231433286e-01,1.147352598978483573e-01,4.406307973164821229e-02,1.199872634036133756e-01,-2.177232666134701622e-01,2.574235298019896326e-02,1.627443509167263158e-01,1.096202580028208251e-01,1.234677190657027940e-01,2.512195411549832114e-02,-4.168272526494756769e-02,-9.663236738828670513e-02,4.685749893855705589e-02,3.954153347032712124e-02,-4.666572677124110335e-02,6.236432621943582832e-02,6.227717074023592092e-02,1.637534050405725916e-01,-6.192436342453175313e-02,2.281122916342761056e-02,5.555726046913466581e-03,-2.911769377746979970e-01,1.617837542743291723e-01,5.678460492720835417e-02,3.553755015098888914e-02,6.970920125651830501e-02,5.181247792776864231e-02,-3.694832365265740548e-02,2.249728996723345670e-02,-2.955762415790604350e-02,1.386331599315195583e-02,-6.076678931658402449e-02,-3.801946065532596335e-03,3.655569030468302366e-02,-9.378235724126272876e-02,9.534006460522166659e-02,-1.424717970188021238e-02,1.062295495870681922e-01,-2.748398127262413615e-02,-3.606188561688657146e-02,-5.591868218664481499e-02,1.448082261567127382e-01,4.848183920007209657e-02,-2.986854328096444702e-02,-8.483670723871203356e-02,-3.659908133397610230e-02,2.528788395220506538e-02,2.212259103916158764e-02,9.346117984209736940e-02,-1.415822898784261097e-01,8.527960422825071884e-02,8.144343662786761306e-02,1.745220286281039812e-01,-1.437870303345892276e-01,-3.638297787201671962e-02,3.349716056472760994e-02,-1.403553502250093066e-01,5.034647153924590862e-02,7.802105218231487893e-02,-1.763883329710917991e-01,-7.012719849854302800e-02,-1.057186470276856860e-01,-1.216667711281130444e-02,-1.913135871326696047e-02,6.783114429394537792e-02,-7.025935926751800120e-02,1.710326018148736471e-01,-1.500819360824241500e-01,6.626479962310180549e-03,3.095659017167946836e-02,8.732627989911664890e-02,2.748278715442036349e-02,1.382893903129949198e-01,2.311909786545527645e-01,9.372105446878100862e-03,-1.073356568280358775e-01,-1.432428999157641086e-03,-2.957655820851410808e-02,-1.395169261284436024e-01,-1.307685173929921951e-01,-6.714529353289330760e-02,-3.043820565142466711e-02,7.572570178874109270e-02,-6.664028810897598687e-02,-2.668531234946638353e-01,6.344250975535349613e-02,-7.451682383471833204e-02,3.174983003901554746e-02,1.163494943125965297e-01,2.694122364031287936e-02,5.966462479964219912e-02,-1.082861894193888064e-01,-1.204954532256844735e-01,-4.590629569578251468e-02,7.081584919714359327e-02,9.145098471805057638e-02,-6.690840739710673946e-02,-2.848986969651006174e-01,1.091922153495180070e-01,1.192002924451354556e-01,-1.429884560769285606e-01,2.294684246360947227e-02,2.562450697651409426e-01,8.930805076172556103e-03,-8.671030956176861704e-02,-3.808668214084465209e-02,-5.627041906379452556e-03,-2.539409863595341599e-01,1.943263341377684805e-01,-2.407215192105913448e-01,1.149591584521643117e-01,1.102139007081093663e-01,4.270922130957811869e-02,2.457026028400009499e-01,-1.921947418326535872e-01,1.355269090787161734e-02,-6.169130465746199693e-02,-1.514356472206038751e-01,-5.049540155011125742e-02,-5.059369114010447283e-02,2.650262302445886495e-02,-2.034739484337270421e-01,-1.079332455472761243e-01,-2.143032263773028134e-01,-9.441758630809708730e-02,1.899191482248222332e-02,3.641769283830881276e-02,-6.132030339042141009e-02,-2.172058685596121169e-02,-2.324142694540257403e-01,6.395460550975308293e-03,-3.688223955968084229e-03,-4.802705413606472851e-02,1.234766718407473707e-01,-7.594825695935216933e-03,-6.778756463954253852e-02,-2.981985181026808665e-02,-7.254735792123467863e-02,6.286374782985237886e-02,9.752449194218518191e-02,-1.152719302114195085e-02,1.075646141018933438e-01,-7.149302332898233026e-02,-2.772217094369972684e-02,-5.571324510520098746e-04,-5.386906050047565037e-02,-2.069393484224211766e-01,-1.299357100664277065e-01,-9.885660098731720302e-02,9.984113057732472984e-02,1.343655430164036359e-02,-8.339996602298362094e-02,1.774411306733255644e-01,-9.956548529665344704e-02,-1.032975368716350234e-01,4.490151209636818186e-02,-1.049735948363187538e-01,4.413895381425606695e-02,-5.211101945974847688e-02,-9.866392605839811869e-02,-1.287276528021484567e-01,5.227278909207250419e-03,-2.491649624191545898e-01,2.562940805768419358e-02,9.985469678730810039e-02,1.911097167285042142e-01,-6.596141076625412769e-02,1.117256352034037142e-01,1.608996847275113717e-01,-1.800390493371481840e-02,8.556180024061312006e-03,-1.467587084309801559e-01,6.416531293480584597e-02,1.559574077405468939e-01,4.742059974492442154e-02,-1.663450416863028192e-01,8.138643169322853921e-02,-2.606958691440640075e-01,5.751051846394020228e-02,-2.585940718077916686e-02,-1.114075535499707281e-01,5.322419305065793915e-02,3.107657829839141628e-02,-1.316821103145306149e-01,-1.834115425060039994e-01,1.353740040317766985e-02,1.219558014592998230e-01,-7.499634228681534287e-02,-3.760769058721052244e-02,-2.531964918246949470e-01,9.296718461163919200e-02,-1.965156215967516218e-01,1.780161000664182494e-02,-8.018007322947041937e-02,3.997542670740494158e-02,1.246504162260302778e-02,-2.753222980215703219e-01,-4.402000672176226148e-01,6.584346969380977521e-02,-1.343863962919301935e-01,-1.699894651600927439e-02,4.322038744774854904e-03,-2.747413781994544335e-01,-2.454642241163829813e-02,1.313386195734192637e-02,1.048323553856602419e-01,3.878833478558063770e-03,3.156828173467261800e-02,7.720721910105668440e-02,1.546279178052828440e-01,6.755238347716061020e-02,-6.006413208944826054e-02,-1.007984402603981505e-01,-1.611227452931162929e-01,-1.313315831591843896e-01,9.122186146803132334e-02,-6.859471757420688466e-03,-1.568234586452903478e-01,-4.352715807422518485e-02,-8.998537777004790572e-02,-1.161600469448921015e-02,7.727400953211335799e-02,-6.737367310375429186e-02,-4.826049884851826843e-02,-1.406227046835637623e-02,-3.998689764883611719e-02,-1.011338894275902456e-01,-9.948567235833932765e-02,-3.552252425327534491e-02,-1.964949512459736227e-03,2.285379878086247207e-01,-6.531682372048884522e-02,-1.104758431158252424e-01,-1.542458758129010010e-01,1.784523917867023857e-01,-7.201418585729744970e-02,-6.428188914367842510e-02,2.051077829615122472e-01,-5.242197401439379484e-02,7.811282194991064909e-02,-1.208424149423683591e-01,1.667287235694121517e-01\n-4.527291830356139357e-02,-1.167719215551664413e-02,1.537593074567815236e-02,-9.309749509676851220e-02,-3.256092342425358395e-03,1.549347230851425561e-01,-1.146968706385961545e-01,1.093443048796817613e-01,-4.234546991645249392e-02,-3.372566299493497122e-02,-4.574585348635238496e-02,-1.832818066200724016e-02,-5.540520548964428249e-02,1.639754369183850369e-01,-6.493558775927313342e-02,-2.550196402642708818e-02,9.020379197768127466e-02,2.263848920200758896e-02,3.965971591486279479e-02,-3.161483120683018788e-02,-7.250601153368883833e-02,4.645393335027572790e-02,3.385432208961609846e-02,3.546795589987970093e-02,-4.875774459371190472e-02,-5.021081374703598860e-02,1.274369989307515827e-01,-9.615620338538624634e-02,-2.758891027302316501e-01,7.322990423269977456e-02,4.854556119302651240e-02,-6.594249292228525350e-02,-1.993869826524954231e-02,-2.131739157051062289e-02,1.063382639368543325e-01,3.159923202312044099e-02,-6.306562932185409698e-02,-6.067022505191076165e-02,9.816878702814694699e-03,-3.167227646123668694e-02,-2.915481736004207347e-01,9.367379829194726060e-02,-5.806727933959345694e-02,-8.819691036694633779e-02,1.033898626788435360e-01,9.786459088000293641e-04,1.572506667272924874e-01,-2.993543583604153790e-02,1.211273923263060520e-01,2.733059902814719607e-03,-1.770051558799913202e-02,9.320822161794978244e-02,-7.162112217351747356e-02,-1.676109026988809869e-01,6.976890783768738280e-02,-1.136321962208230590e-01,-1.775556114789142133e-03,2.512813009323588975e-01,-2.698131765345371247e-02,-6.016743449739096056e-02,-2.931509164306575141e-02,-2.671149562922267226e-02,-2.267001594308929169e-01,6.103030073751938844e-02,4.050065279567274801e-02,9.085224984125847558e-02,2.677114481728398165e-01,-3.763838334005268488e-02,-1.401015153087295795e-01,-3.105200839312390049e-02,6.202302791037710150e-02,1.801316989048988224e-02,1.311175152042801106e-01,-1.507257082678273019e-01,1.029261835599276642e-01,1.661584573002672094e-01,-8.160275081127403574e-02,-3.477628580668601366e-02,-1.676607055459988695e-03,1.447322271323082665e-01,-5.143746541565433206e-02,3.808778297088623310e-02,-8.879940404056202441e-02,7.502337668685922500e-02,1.305506638438924394e-01,-1.670155503560932439e-02,-7.303144172088721353e-02,-1.141649757968047907e-01,-9.609648192046320314e-02,-1.816942541340151873e-01,6.051558413418886215e-03,2.237156876585604248e-01,2.543771746964795105e-02,-6.514705425586851673e-02,-2.501281615737691033e-02,8.234334529225076360e-02,1.631903184122574790e-01,2.000947125309391617e-01,1.635099373172924364e-01,3.339775739062319712e-03,4.588505117760621060e-02,2.283290786750000537e-02,4.110431061046171397e-02,-8.247201939507450841e-02,-1.317607218419740781e-04,6.718055269979136823e-02,-1.331117671286542181e-01,-4.292902421249009115e-02,-1.120536697582347058e-01,-8.876875888089912070e-02,-7.273953110911993147e-02,1.662430250246632601e-02,3.183924491787682581e-02,6.997136118124562543e-02,5.801833148199997403e-02,6.903001891071451623e-02,1.017307631542828938e-01,-1.680689638635083846e-02,-1.149440899252614640e-01,-1.735573998291706915e-02,1.326850841240179435e-01,4.435882094425372402e-02,8.282426764723949120e-02,-7.192488548608176602e-02,2.660549568133747933e-02,1.853255950791513895e-01,1.794929504039359178e-02,-8.504086695789990838e-03,1.390519160346060379e-01,8.830039456691156710e-03,-1.799674242451968220e-01,9.804900667643356993e-02,1.390531126970774058e-02,-1.208474307936285436e-01,2.154975579727137075e-02,-4.770313637774970666e-02,-5.606092099711853377e-02,5.580805849915905503e-02,5.268909661001631300e-02,-2.366938796439208015e-01,2.145909743474182577e-02,1.654537784138524620e-02,1.983267528797243162e-01,-8.967162426427731370e-02,-3.149814821569563161e-02,-7.161527371190003211e-02,-7.016589862417130230e-02,-7.122266539377833383e-02,7.003039790402215692e-02,-4.885663835778170094e-02,2.383788084098520388e-02,-2.714517864763334870e-02,-9.385808147157276293e-02,1.342080003987509637e-02,-3.994519950136388858e-02,-7.889486305728195259e-02,2.255900425344564003e-02,-1.568505304850774940e-01,-1.377807377362230135e-01,1.297024739023710238e-01,-9.993698623037761131e-02,-2.741024512167640655e-03,-1.038558656281847042e-01,9.597560744265477839e-02,1.038741262090185635e-01,-2.812928431549306316e-02,1.251548596283507536e-02,-1.348421802687093524e-02,2.055716854785136771e-01,-1.864169928060914749e-01,1.111887442591951713e-01,5.352570644647003384e-02,-8.299255863115906351e-02,1.837634266562101770e-01,-9.419966746007249481e-02,6.229846390369139786e-02,-1.042534013289558303e-01,9.341186829741159048e-02,1.357670120286400550e-01,-9.976643755936585867e-02,3.102072115775888692e-02,-2.008580716067983329e-01,1.136247040521667397e-02,-1.508817196636754766e-02,-8.023749171472774333e-02,-1.789665520683238753e-01,1.742734513835618795e-02,1.096577342882107675e-01,-8.319925908734472630e-02,1.088362093859167878e-01,1.332717026434700469e-01,8.909265485591974162e-03,-1.676890037227897132e-02,7.515157203272382347e-02,-9.056511343811840531e-02,-3.866539152782923899e-02,-8.933298770352308960e-02,-8.519072661395110657e-02,-9.538803732734040322e-03,-3.125255003170541307e-02,1.831198171781906955e-02,1.350242159460275648e-01,2.331787294973027436e-03,1.643137804490597820e-02,-1.056232578111329784e-01,-4.076288334138018776e-02,1.827132688052153231e-01,-4.608461862498848538e-02,-2.656732052808434899e-02,-1.752993944336367627e-01,-5.235673813971114532e-02,-1.622459950285632391e-01,-1.838811192542129033e-02,-1.115422357745452647e-01,1.669203390773311979e-01,-3.879181192916456022e-02,-1.639487990069421197e-01,-8.269780222279603590e-03,-2.286710999887971441e-01,5.106637125952857327e-03,8.835124611855844912e-02,1.639943642239444221e-02,3.886077247911373222e-03,3.398022950419428423e-02,1.648068269751202424e-03,-1.160863194357183020e-01,-8.259708103097729293e-02,1.190620678281207323e-01,-1.728983162180829369e-01,-3.987506982689217189e-02,5.917300180829967310e-02,-1.331736524735071814e-01,1.750478937172775945e-02,-4.923340767045981947e-02,-1.689796713446377052e-01,-6.807855053001196644e-02,-3.798138485199142184e-02,1.279652178604872431e-02,-5.826069325099537954e-02,-2.805137761612671449e-02,-8.944964917754584521e-02,6.829352474418727559e-02,7.131030024871717887e-02,-1.124936374849023167e-02,8.118759355120350185e-02,4.940155190013476721e-02,-7.267052497475022521e-02,4.851901438750610279e-02,-3.581968758019209165e-02,5.801778222390768791e-02,1.395070275331996290e-01,2.309527831485752580e-02,-1.845659032657104293e-02,-4.812983509775791563e-02,-1.939377288943901212e-01,7.415232538800459183e-02\n7.329375009318725431e-02,-1.390634824900151278e-01,9.625521774519002483e-02,-1.017138761112330175e-01,-1.884365231953644415e-01,3.029888538221531952e-02,-3.716552837681292853e-01,-4.813394819908875522e-02,1.605252742970606286e-02,2.868246167476884434e-01,2.614116120939112553e-02,-1.530463894121374124e-01,4.314259761638531560e-02,7.415425862850140437e-02,4.188817493311677853e-02,2.543806641406500813e-01,-9.587915744270816831e-02,3.256772157133178136e-02,-7.662552470953902517e-02,-9.025774659616664364e-02,2.717521027981239026e-02,4.696007086205947201e-02,-1.722421292330716946e-01,5.044414351963341647e-02,1.892097439881695875e-02,-1.166368990983754350e-01,1.861790122889719068e-01,-3.795361026862417025e-02,-5.799322913713732264e-02,-9.368082834577644291e-02,-3.509545531826836068e-02,-9.956526314448521306e-03,-6.271624693007699092e-02,1.062638549358156659e-01,-1.297967829202349432e-01,3.230562512200048364e-02,4.972977901087326236e-02,2.134762280596441408e-01,-4.537383713094840509e-02,8.683643966046555862e-02,1.832253274952780897e-01,-5.790602990894366114e-02,-2.625675363988221392e-02,9.912705362737470050e-02,8.745055368056151371e-03,1.020982752962211644e-02,1.385231291442060308e-01,-4.867884536672882623e-02,6.206124445594537326e-02,-1.588158704792053122e-01,-1.290460491165953683e-01,-3.887596906475701553e-02,4.005927298104548090e-02,4.113545480460661236e-02,1.526985282310197034e-01,1.586664446918373550e-01,-4.198087170094820519e-02,-5.082109622021099143e-02,5.323250253786390197e-03,-6.076042781178702529e-02,-1.263788170592405891e-01,9.982410472818134539e-02,-5.733632151268581306e-02,-2.282756951885106175e-02,-3.660691939499291503e-02,8.406888270588067091e-03,-4.294354373484889770e-02,-1.388107935217486322e-02,-4.914490484714457291e-02,-2.540018679782478639e-01,-4.798846978492860363e-03,-6.114524594223085668e-02,1.978192982713345704e-01,-7.570040266779916316e-02,-3.698421833945654547e-02,-8.168339135066671197e-02,-8.904818370726239052e-02,1.933745328995472440e-02,-1.447358041753466634e-02,-3.105000718298485396e-02,2.827884862548930497e-02,7.909007184769845100e-02,-7.308839520695499525e-02,6.426234948808907943e-02,-5.233692583414143590e-02,5.049872122345521255e-04,-1.812971858959254723e-01,-2.760610764196386874e-02,1.646154367578356315e-01,9.544900808648126844e-02,2.748169855052962074e-01,2.566827913709373576e-01,6.007702715644382130e-02,8.116993541250093480e-02,-1.000328781373258369e-01,-7.953360076130859893e-03,1.495045274113996660e-02,-1.202838075704859150e-01,-1.255809688097145327e-01,-8.964385380484148069e-02,2.439989575260231580e-01,-5.972984890769961197e-02,6.023837244295980609e-02,1.284755371691501113e-01,2.017678183113091051e-01,1.919958145551770023e-02,-2.264183195360354173e-01,1.305474271317942081e-01,5.455688473003306171e-02,-1.484963999852994820e-01,1.019104550934387676e-01,-4.942122202500157102e-02,-5.648938081510084669e-02,-2.373422815460027591e-01,-5.345921292400784841e-02,-1.449767313412703429e-01,4.798138837447068344e-02,1.539324454305088796e-01,1.355158723837988632e-01,-2.031138204853061013e-01,-1.316954236721020466e-01,2.691088071823816846e-02,-1.227650036055397964e-01,-2.803562163669312199e-02,5.035001182958134119e-02,1.098550955429463266e-01,-9.477795685649408053e-02,2.501922432469247393e-02,6.783213749310512686e-02,-5.088316032294475100e-02,-1.314266911341757382e-01,-1.187786254515671019e-01,-9.703063856088221806e-02,-1.496441186546048074e-01,-1.373610153347297191e-01,2.282919669639544846e-01,-2.292537059496850896e-02,8.320885798632836339e-02,-7.492289548481897987e-02,-1.835803957535098174e-01,8.867712457052681629e-02,2.730363694637780864e-04,1.789791596636529925e-01,1.909909736480435438e-01,7.943368904441425182e-02,4.551127690547362992e-02,-1.001563216972610609e-01,1.302098463487785240e-01,5.063719182066582503e-02,-1.100891568922146742e-02,3.175898769938180488e-02,5.430140790633141562e-02,-1.911038490292100989e-01,-2.603441584560492114e-02,-2.201931140311291779e-02,1.223163440856812412e-03,4.848110719408600493e-03,-1.400988541796317211e-01,3.354447394087253266e-03,1.894269328466541558e-01,-9.658216974413823264e-02,5.819344254608507794e-02,5.879267053499930007e-02,-9.886693044415355291e-02,-1.428857398245357013e-01,-9.776595458070662034e-03,-6.671587380894197783e-02,3.316871232638184813e-02,1.353257269068742219e-01,1.191388454613015978e-02,7.353670666069542228e-02,1.171583931785224499e-02,1.782355166088042120e-01,-1.223826558816750593e-01,-5.308719949838445334e-02,-7.454159598261189679e-02,7.355381687704623528e-02,-3.880791162503263031e-02,6.834524616510892492e-02,1.281899247607561909e-01,-2.324864821674609006e-01,2.580059407674001326e-02,9.207542077317161511e-02,-1.540504311988549480e-01,2.101067212445907051e-01,-6.695983713036153528e-02,7.140553330033233559e-02,3.356398285445088593e-03,1.101293696819563711e-01,1.944589259651553770e-01,1.792644128940288073e-01,-1.604267992361190776e-01,6.522804802673240476e-02,-1.949316408585796967e-01,2.693690047216260389e-02,9.023950502882659153e-02,4.977519824410792798e-02,7.415983759340842585e-02,-5.261551888018093509e-02,4.635245425905390459e-03,1.659238593487792970e-02,-4.903041710530819941e-02,-1.267710003242815686e-01,-1.581943935124742462e-01,-2.438293825760516620e-01,-9.485225057630805590e-02,1.908972196444185532e-01,-8.656429639307866575e-02,-9.421434054351432441e-02,-1.355823039954537068e-01,-1.112578246073864380e-01,1.765724062316524068e-01,1.169577061407197083e-01,1.195584487628210610e-02,1.350934932184476023e-01,-6.530695891062633651e-02,-1.635728826762826715e-01,6.023109998173398899e-02,-2.363838416111508078e-01,3.254484802117886544e-02,3.626317982193796863e-02,-2.810982033073190778e-02,-2.093908972893646428e-02,-1.038812977029856394e-01,5.077890568773366781e-02,5.100102686555497977e-02,1.081920848883819869e-01,-3.207662791679832121e-02,9.185297083451547662e-02,-1.078494617653320831e-01,-1.658118865360730665e-01,-1.382078402970641495e-01,1.492160857000157138e-02,-7.212705120285368976e-02,1.374583535452448824e-01,-1.220297887885710558e-01,1.534356853564360079e-01,-5.948721409503415075e-02,-2.247337751513207166e-02,1.916042762207018357e-01,-9.595021962220905837e-03,1.016804196202801824e-01,1.473635556427089870e-02,-3.658360552940626703e-02,9.674294037436348415e-02,2.263962668512339571e-01,-3.160784729300896156e-01,1.455760409446747727e-01,-1.839768218027072397e-02,-4.904223688674264753e-02,-1.425271456019054361e-01,-7.975968856375645691e-03,-3.450719210326123887e-02,2.031203395282505861e-02,2.299518328532289962e-02,-1.422604168972230188e-02\n-2.217298833490499999e-01,3.092538449576355888e-02,2.593995150174278064e-01,-1.506116643508735031e-01,-4.515696293209409129e-02,1.472602453220486218e-01,-6.601162754405000277e-02,1.981074779751749448e-01,7.899887745120431903e-03,-2.116274821615531654e-01,-8.836163767171197059e-02,-2.480989803271158034e-02,8.269219488159526565e-02,9.261839887568106000e-02,8.850860203569899110e-02,-1.721116638926835363e-01,1.988650919367299097e-02,-6.621528275580693471e-03,-1.507809308112201437e-02,-2.414803254580441538e-01,1.418575253076948331e-02,1.897988658813624108e-01,6.141272430900447665e-02,-6.424844884041170864e-03,3.359095031321372021e-02,-1.319537934538229651e-01,3.534663407987995859e-02,9.502363672872431166e-03,4.085068351558013983e-02,1.386965204004847463e-01,7.898969399531266533e-02,-1.350676358690775236e-01,1.943219506762283028e-02,-1.157534762130903311e-01,3.281021736775723702e-02,6.899145331589318086e-02,7.919712910137748085e-02,-4.218425879175690535e-02,-2.187962286595938610e-01,-1.163545485600706308e-01,-5.290905310620366148e-02,-1.312568919382655491e-02,1.756087075138725584e-01,5.285424077790731867e-02,3.737518801507181410e-01,-3.572267293815650085e-02,-2.731909850485333881e-03,-1.100607559696776816e-01,-2.218059052962032263e-01,-1.137217801461834904e-01,3.418285426560998402e-02,1.309253796015836524e-01,-1.362944300596753977e-01,-1.918328509764347378e-01,3.581820044241151857e-02,6.268021781441394935e-02,-1.153677590577429635e-01,8.552968463815152633e-02,2.944745360102405188e-02,-2.995959049558404377e-02,-8.965665176160943217e-02,4.943023723698743849e-02,-3.432145011531499874e-03,1.278477911089896946e-01,8.539657114529823623e-02,1.908857393833518490e-02,7.241580607754460885e-02,-5.527919189494562985e-02,7.061642434251155787e-02,-1.075968590076689518e-01,-7.837760590878824207e-02,2.623934831463161158e-02,-1.366084774941598301e-01,-1.766798131311949835e-02,3.472278845193704083e-02,3.919096667531479783e-02,-2.363514256925225987e-01,1.300239413971760183e-01,2.014009827182280943e-01,1.104809617098832623e-02,-4.504813568761577638e-03,1.031253701780841109e-01,-2.814186259004805568e-02,-1.373463331216033534e-01,1.083655301189782871e-01,-1.258566719222811436e-01,-6.709300082742403193e-02,-7.116814985574478059e-02,1.661196597593052604e-01,2.297319027737746919e-02,9.680715123356302410e-02,-7.267820640165736923e-02,1.463677411087726254e-01,-8.213615266863730224e-02,6.670003381152946054e-02,-7.754319593061020921e-02,2.917941837268669177e-03,-1.303991283365819320e-01,-1.225786413621726412e-01,-2.538373692252121061e-01,6.490038843880287234e-02,1.525334425066078754e-02,7.250941730195265000e-02,-2.039122836061047495e-01,-1.158970059824969562e-01,-1.600883546034799765e-01,-6.778921076019274461e-02,-9.636774297469506700e-02,-7.071561399962567052e-02,-5.409951347884060097e-02,1.658214995142189008e-01,9.626484899779562399e-02,4.395165632783794296e-02,-1.340295721692226494e-01,-4.629607630566369425e-02,4.008046949657524671e-02,4.866499735659523401e-02,1.178348952840122532e-01,-1.182425611937370502e-01,-3.899278985064503350e-02,1.018561368873105999e-01,2.295775108253863758e-02,1.408711971692659919e-03,-2.521181011770600167e-01,-3.096105421673752897e-02,1.865694946921259145e-02,-8.591510607459573647e-04,-6.758347373600188945e-02,-1.601412889006273432e-01,-1.670160653100878079e-01,3.874525859733422839e-02,9.450509424415594328e-02,-5.454907877470871469e-02,1.179257955628614241e-01,-7.394767203643329290e-02,5.469782795234145317e-02,1.103342632366866721e-01,-5.190651516786878167e-02,-6.627273549035608835e-02,-1.739906564644897458e-01,3.001573063697510549e-02,2.999691771708477839e-02,-6.230064809036509749e-02,3.368257468229132919e-03,1.139382385987347257e-01,-5.461027018111482695e-02,1.843416868017979521e-02,-1.901473867694376818e-01,-9.490670454330812911e-02,-2.484229261803350824e-02,6.225849228920817685e-02,-4.330328864434675878e-02,-1.865880376257053885e-01,1.460951149567482066e-01,-6.053201091181356630e-02,-4.472442378124827367e-02,1.044118546744349230e-01,2.130417657672649123e-01,4.892759905350099053e-02,-8.862797471849953590e-02,8.035721710522464312e-02,-3.051352410935037965e-02,4.223681542542077894e-02,3.196175837841424006e-01,4.559995088709640348e-02,-3.150639199748939828e-02,-8.486475783519642491e-02,-4.791520129549971252e-02,1.453927398093912693e-01,2.164925897924977263e-03,8.251196135967520107e-02,1.490577892510160374e-01,3.483185551283468628e-02,3.743108424712281602e-03,-1.958995087085489972e-01,1.238798934326802853e-01,1.099577144261813105e-01,-2.034471768567224989e-02,-1.455245221910147005e-02,-1.110246725156088382e-01,9.220366935417402543e-02,-2.656764005753487271e-02,1.181741149996491796e-01,2.125609499687219905e-01,-2.040183151791857830e-01,3.882600264345873464e-01,1.893469727134722558e-01,2.955130645460607441e-01,7.998189471843016041e-02,5.069073728866670125e-02,-4.209853855421414465e-02,-2.922455496265909947e-01,-6.097871846350408354e-02,-8.167795445840533852e-02,5.668451082962195839e-03,1.175080243395327378e-01,6.269284974544310669e-03,-5.519456006619449795e-02,-1.833569827944272479e-01,-2.399265015416317259e-02,-3.607907013609314151e-02,7.526648022802483184e-02,1.484526510415704395e-02,4.177394762837452480e-02,1.279487175991565195e-01,-3.951835690922253508e-02,1.027450544311614561e-01,-3.976951116027786781e-02,3.782568047739130052e-02,-1.732722312031696188e-01,1.465275614153126460e-01,1.138056234285454299e-01,-3.581779684841178424e-02,7.275633121149045757e-02,5.445372260032964318e-02,-3.576689416204582861e-02,1.142345137038507374e-01,-1.269935641840068963e-01,-4.080793306252492730e-02,-1.350313224446797467e-01,-1.015016787464801395e-01,1.075681422743086091e-01,-1.205416096831338074e-01,8.581580231564112093e-02,-7.270730349546083993e-02,-1.077968592769195516e-02,2.415390884424094275e-02,-2.541850266424364874e-02,3.344080853193558134e-02,6.821805133132335941e-02,-4.400729897631163595e-02,-1.836302903330909175e-01,9.606955536222404335e-02,7.887440528318140007e-03,1.235159642832450583e-01,-1.593236806239830827e-01,3.626508547533074250e-02,-3.168848193594280271e-01,7.430421868667570762e-02,9.362319397043207536e-02,-3.257969801513491831e-02,7.543099001007699811e-02,4.887212901656404901e-02,1.507224528001268639e-02,-2.650893817969500119e-02,1.472045440657817131e-02,1.070364248901644749e-01,1.141141982699796220e-01,7.061248318954649328e-02,-2.296822612064211219e-02,1.196569282114562094e-01,-6.806456856820413022e-03,1.846771982397659162e-01,-2.975207473668640967e-02,1.547071245304668385e-01,-1.548365817929442606e-03\n-1.973817577029708115e-01,1.647518146690712393e-01,-1.052739984874517254e-01,4.434214030792199557e-02,-5.458766042983743960e-02,2.149174390702530621e-02,9.060231764551150702e-02,1.119840063630197502e-01,1.498330558469958274e-01,1.729836613544070145e-01,-4.787953590481207333e-02,7.612300659395386526e-02,1.500989582249735443e-01,-1.039965845497121955e-01,6.156354111340840013e-02,-2.463392953721056568e-03,1.243666408180961747e-01,-3.570126780049279885e-02,-4.995297943924289358e-02,1.476438510078629217e-02,-3.077933142698510011e-02,-9.551175067076336789e-02,4.424415832194367355e-04,-1.231366943675212683e-01,-5.658684739604251390e-02,-1.274218872658827162e-01,-4.889815526921011124e-02,-1.295871541375269720e-01,2.150771253913578429e-01,-2.473396385760046751e-02,2.333598051718127273e-02,-2.261898697828642057e-01,4.669728179557348230e-02,1.766146769062608771e-02,-3.634650808392885651e-02,-4.227918925912194786e-02,3.265356780945048720e-02,4.416829156858780719e-02,-2.296515417141740401e-01,-6.445928445965740106e-02,5.886575049334268755e-02,1.111585631325624594e-02,-9.791731898389202660e-02,-1.010712516912294218e-01,7.104803630086553579e-02,2.691777418055065624e-03,6.335821738399134706e-02,-4.868797106353912885e-02,-7.809137211588480787e-02,4.142985741334495597e-02,1.904081149402817585e-01,-1.294558879599350398e-01,1.823455266253902821e-02,3.211273905801032696e-02,-6.942271663929490237e-03,1.558076433158738817e-02,1.859697871741270315e-03,-1.086959667891873316e-01,4.002877416342211919e-02,-9.238989203418656454e-03,9.681536527663651623e-03,1.443341654490991888e-01,-1.529910455045054019e-01,-1.267245579421887314e-01,3.738406054833063458e-02,-4.086524486151620061e-02,-3.728528764308347565e-02,-6.811667232161680574e-02,-7.572712176296134134e-02,6.689175326810348210e-02,-5.902250000001171143e-02,-8.055541477082163448e-02,6.822202092988237376e-02,1.355982639472309674e-02,2.440780343226262861e-01,8.643552117344148814e-03,-1.067029411605256578e-01,-2.650471864684816881e-02,-1.260372841155179002e-01,-1.474532182576175354e-01,6.524853015937881473e-02,-1.927485141237679223e-01,-7.551477422583932619e-02,2.539080087497512170e-02,-2.175666768209807631e-02,4.121498534337537933e-02,2.885719739557743302e-02,1.024073692789941731e-02,7.237449149955078875e-02,-1.430945672748512587e-01,-1.777748739065678485e-01,-1.258800452824461180e-01,-1.895665566061225105e-01,-6.521643667896202812e-02,-1.607555989180104450e-01,8.896943166629234234e-02,-1.829978209579152804e-01,-1.336626083039839591e-03,-2.108109543293278099e-02,-1.369022665861949761e-01,-2.122558630362693100e-01,-1.849932482427436506e-02,2.417306252380480858e-01,-6.877876957611185615e-02,-2.198845903175423999e-02,6.006214779866533848e-02,-1.336837194595846268e-01,7.656301336071073653e-03,-5.604282994421167299e-03,-1.727938390099456878e-01,-1.225721683633201331e-01,-1.646386446678262394e-01,9.281846040220340099e-02,-1.410378077176120638e-03,-1.673840286467490612e-01,-1.970012192442468016e-02,-6.772888239426420984e-05,6.473328890570306804e-02,8.901032494064138600e-02,1.150527224408114668e-01,5.164223712445169256e-02,8.134869839858699381e-02,-9.165327664507806615e-02,1.035415233098527232e-01,3.426843768403345369e-02,4.321231360917354714e-02,-6.643827498173188184e-02,5.334834502738699386e-02,6.079951595325416847e-02,-9.942147706333841206e-02,-4.018781396595627609e-02,-3.451751787189759335e-02,5.729175584192295473e-02,-8.160841582449999965e-02,2.220522652058241619e-01,-2.078528076848523976e-01,-7.318934520201311744e-02,9.181022687238546420e-02,-3.038713793232442409e-02,-4.280876928805348036e-02,-5.013549645274074235e-02,5.193018271015057558e-02,-2.248544594419913945e-01,-2.201524264025427335e-01,1.488643458542880382e-01,-7.466011775413843032e-02,1.685528069316315561e-02,6.708002513965108382e-02,-4.309652257294151016e-03,4.828213554760882320e-02,-8.030409631055696051e-02,1.191990945407654517e-01,-1.394133003555244124e-02,2.694772686755749283e-02,1.227214818054445378e-01,-6.053096433588697062e-02,1.105182093552573297e-01,4.073439927805466015e-03,-7.844777811250200350e-02,-1.464499995366040919e-01,2.620062835872180931e-02,-6.811566585884766545e-02,5.973290413081730477e-02,1.188393755441182337e-01,1.115751364172165583e-01,-4.021060927959946990e-02,1.365109850217882947e-01,-7.854852947546975619e-03,-5.065998676552978947e-02,-5.310612014569834893e-02,-1.058295013342112068e-01,-3.932779323118440473e-02,-6.614958123456413097e-02,-4.270401905174773388e-02,-1.806140462952985359e-01,1.378772063833347272e-01,-1.120995522985773207e-01,2.087524118931030626e-02,8.539583913589804398e-02,-3.262667378809477187e-02,2.544997829302368675e-02,8.210852737655188749e-02,2.163234085564163522e-01,-1.811273301289858806e-01,8.495653779743228551e-02,3.290531716979655085e-03,9.454552992087311702e-02,-4.719915446773668977e-02,-4.134004225626507212e-02,4.389179890088435246e-03,-2.222912738095440266e-01,-2.447191094842002604e-02,-8.782029578747382881e-02,-5.627449246530842608e-02,-3.934424958264928773e-02,-5.449285024238362252e-02,-4.633041722444751487e-02,1.225260170678307489e-02,3.739338631260469281e-02,-1.151449901158368115e-02,1.916449864663289093e-01,-2.252829329384582139e-03,-2.929530155299662347e-02,-1.613979604181439154e-01,-2.273370461195196035e-01,1.401220139810978871e-01,3.876004632834422620e-02,-3.376520430478970047e-02,2.650424056719149005e-02,-6.962766313701596044e-02,2.085107416343011943e-01,2.502826073923125061e-01,-1.329636046865471655e-01,1.867583240345000242e-02,8.197371743662587584e-02,7.508527002950192430e-02,-4.648933506032569205e-03,1.199843238668861084e-01,1.192991254701083748e-01,1.561396541389756809e-01,2.551717553482498943e-02,-2.098939369001033561e-02,1.296315276305328584e-02,-2.787491909667632120e-02,-5.943968918099982318e-02,1.877625937695918401e-01,3.166783692306877063e-01,-6.115043618237699097e-02,-1.098267839538578511e-01,-9.254483533356083758e-02,-1.281006394061756370e-01,-1.014801904652675724e-01,-1.609158879550352805e-02,-1.311436949797871281e-02,3.951050722576825852e-02,-2.559863049071197522e-02,1.246333378117211316e-01,4.008784614576963584e-02,-8.037740343016487599e-02,-3.275258034300551624e-02,-1.415691124096808140e-01,2.185285999664982742e-02,1.160165805277690726e-01,4.316699744041107428e-02,-1.045301650916463099e-01,-2.064337650632911136e-01,4.343538107051343744e-02,-7.393329408619286891e-02,5.984342697974663616e-02,-2.213965604776366725e-01,-4.143174961471900869e-02,-4.888557692253064219e-02,1.469823389317062301e-01,1.738758139814507164e-01,-2.132420121556552195e-01,1.733392722387612148e-02\n2.559864527144888741e-02,3.908375224516819763e-02,-1.425819981404054249e-01,-2.459419171195200912e-02,-4.193272100163875776e-02,7.789210794106864177e-02,-9.237691937764734573e-02,-1.097524064710793251e-01,6.574372120619222104e-02,9.305444239180730992e-02,7.221331735984243272e-02,-8.267117732701861899e-02,-1.735079151254218799e-01,-1.709967661405686901e-01,9.970167150667676170e-02,-1.095641192814549025e-01,9.522880568239415477e-02,6.397794414081761638e-02,1.388309143929223055e-01,3.610108975919083807e-02,1.354414047172393110e-01,1.247669492159727330e-03,2.960854653099933079e-02,4.005395512972662747e-02,1.579890553026523092e-01,-3.883384227280476525e-02,-2.828162585691967532e-02,-8.789341029648463366e-03,-6.587451404550340173e-02,-1.716377377255242642e-01,1.597472266122528795e-01,7.032963839755608515e-03,-1.344646368334934394e-01,-2.837145547282604249e-02,9.308480138967621664e-02,-8.753197722788383373e-02,-3.347019216988027929e-02,6.969218969330852331e-02,-7.724373302002089658e-02,3.939802387416271867e-02,-2.286641316607640195e-01,-6.308146704211362032e-02,-1.250314889634480953e-01,1.859859078746377292e-01,1.892017275858001446e-01,-1.057017701696068152e-01,-1.059648704939459701e-01,-1.871202644915055668e-01,-1.763515656402229737e-01,5.581442446582623312e-02,-2.412829064076304694e-02,1.443339053944457107e-01,-4.881208335302083395e-02,-1.641496141602473077e-02,-9.983338635081741297e-02,-1.648382525106644736e-01,-1.179501401818409123e-01,-1.267115421303354472e-01,4.810504969243147022e-02,-1.436337991747915419e-02,1.469315213226346506e-01,-1.947379167500699060e-01,6.442408762760862273e-02,1.912481580762688191e-02,-6.947268906952755452e-02,7.870500748223990817e-02,4.748067847030912336e-02,6.653157220830381580e-02,-8.726732211722312837e-02,-1.323497552748995887e-01,1.426067229281404759e-02,-6.650860805304356638e-02,-5.447426561755405218e-04,3.040863084399314520e-02,-3.821290045836299443e-02,-1.082824406981006404e-01,1.442569388432189958e-01,1.023017696099464968e-01,-4.753580174864242142e-02,4.387806795783252140e-02,5.960924468629182071e-02,6.691638079728398636e-02,7.202080261207985390e-02,-2.241064328434027864e-01,5.390191548739839411e-02,-1.049853579549851756e-01,-1.330798164707288657e-02,6.370338413689845096e-03,-7.501502254348341170e-02,-1.729341804908401947e-02,-1.122389587488637347e-01,-1.199473870906304640e-01,1.566965645607982516e-01,-7.150112673992431445e-02,-7.675176777514249038e-02,-2.896127387995084401e-02,7.581393638864601485e-03,8.006183155771501303e-02,2.925067408543206848e-02,-1.798805970522754649e-01,1.188403192015416582e-01,-8.064171588981867977e-02,1.016423996468635571e-01,-6.264988573344461298e-02,-1.042192978822103350e-02,1.077137578985081223e-01,-1.160399419191169429e-02,6.841108486049041204e-02,7.368225514821986205e-03,-1.657687669687260279e-01,9.589384096839236038e-02,7.463336230367589690e-03,-9.494725264484841012e-03,-3.649028186281463859e-02,8.016983391144967552e-02,-2.533335592818095616e-01,1.333274328258782400e-02,-5.996453845447389380e-02,1.704749726836641555e-01,1.410874297124815602e-01,-7.326167051281643611e-03,9.969202695757838073e-02,4.225719076402909002e-02,-1.734653931959609374e-01,8.651123328875552632e-02,1.072425388716944650e-01,8.947228007125612378e-03,-1.061906277453800451e-01,1.267467503675359652e-01,2.145036177636883423e-01,-1.361185500933039805e-01,-3.610296384670790698e-02,-8.439571371306998915e-02,-7.350484132952285476e-02,-1.548904906853539043e-01,-8.028390045024125232e-02,-1.433488293019072601e-01,2.600913838501371367e-01,-5.069382897949665373e-02,5.057407919346611908e-02,-4.540673403785742274e-02,-1.883160411161401981e-01,-1.980755796834261229e-01,5.653623626730967799e-02,-8.690721366598416764e-03,-1.605596069658921932e-01,-4.887644068250382445e-02,1.023284976904331178e-01,4.383451881257525301e-02,5.969103139228126853e-02,1.008419598706896958e-01,-1.425210626971579464e-01,7.484940459506159161e-02,-1.258871850889912436e-01,2.962975112779560605e-01,-5.142003503938309683e-02,-1.421298501461968288e-04,1.770886749688705131e-01,-2.477064267838485767e-02,6.686452009846716171e-02,-6.367033249303774567e-02,-1.264321816308565903e-02,-5.486771568616322092e-02,-5.628643613121761535e-02,-1.476445768757727803e-02,-8.041205886953768645e-02,-1.360760274731949437e-01,-6.608633491293676443e-02,-4.469935655312119727e-02,-6.599615565062545708e-02,1.109071745919311576e-02,1.240166501193114834e-01,3.289215003004478111e-02,3.059869519615837988e-02,6.590160948159320964e-02,3.628511901908802739e-02,-1.102113254023110861e-01,-1.184468075084517957e-01,-9.398966001782325941e-02,-2.182567823533212992e-02,1.069254800638787598e-02,4.910240822765363222e-02,9.304550860986371408e-02,-1.077114130364308642e-01,1.113334387588118916e-02,5.328898921070845951e-02,-1.188712248687534834e-01,1.085289331497358845e-01,-5.612035054246887478e-02,-2.524189673021362545e-01,2.792907909714224379e-04,1.859055506946018926e-02,-1.314435103257796840e-02,-8.859142194662228409e-02,1.162726870168558357e-01,-7.148254736095303874e-02,-2.830324746453695417e-02,-9.349258791795711510e-03,-5.327710341256235160e-02,1.398391321529017239e-01,-7.084876674073059544e-02,7.849322566581981575e-02,2.308788783595857805e-02,-1.249240571131032956e-01,8.194322783740271010e-02,-7.908264751727914210e-02,2.627222229511907980e-03,1.036266067000855690e-01,-8.533400156364235808e-03,1.630243561481963810e-01,5.501221887580966252e-02,9.122100609362848722e-02,3.289540535295328548e-03,8.775620958141111191e-04,-2.205164393805744000e-02,2.613581228258265304e-02,-1.185676900883891466e-01,-4.894084721811123306e-02,8.334903053135393758e-02,9.435297496833444653e-02,4.547957308172789065e-02,2.099855143908637145e-01,1.065418944025943622e-03,-1.630560739988565488e-01,6.470497753064699542e-02,8.223692402667125145e-02,-3.536866062336731925e-02,-3.726816242389554418e-02,1.379662613877443711e-01,2.585792939275343566e-02,2.094541768032514087e-02,5.676371127962919622e-02,-3.335685840261127383e-02,-4.663629229147409766e-02,-7.747966640064697652e-02,-8.418977576062953647e-03,-1.823057447650975049e-01,-1.261307800894090857e-02,-1.438421746567491825e-02,-1.123534225564234712e-01,-2.318553933748068452e-01,-2.996475754673278910e-02,2.104194309826572240e-02,-3.682385465990801326e-02,-9.447065154465930648e-02,1.945767072070236220e-02,-1.441192232669279705e-01,-7.638176611397584637e-02,9.623260682670478974e-03,2.333102835568284794e-01,4.774949596828896581e-02,-1.243607857414630175e-01,2.898710042162587833e-02,4.187169512065131750e-03,-8.580299357043842667e-02,1.116966475460817593e-01\n-6.368042421288208632e-02,-1.048594831021251866e-01,1.225695387298720990e-01,2.714746623363681680e-02,7.846880790363874869e-02,-1.200726960944633603e-01,8.553113834567434293e-02,9.131227145996276273e-02,1.251542410634569058e-01,-8.579731286885422525e-02,-1.964645692722191694e-02,2.599483578470866973e-01,-1.049533135894380464e-01,-1.582895481995512388e-01,-1.307418045782966498e-01,-1.752028296620674816e-02,3.831978929359273339e-02,-7.110523837362553445e-02,-6.110705083302205021e-02,-8.246905616757987945e-02,2.124487327589636432e-01,-1.725760025252569829e-01,-1.261360623697967620e-03,-3.852090757517281222e-02,-3.912285903319638602e-02,-4.197940923060985291e-02,-5.104047578835821386e-02,1.404864885803226715e-01,-1.802072355875778409e-01,8.158972904258106340e-03,-9.957447570418005711e-02,1.262591311033971209e-01,3.234614720626637907e-01,-7.222791230205832802e-02,-1.364243712419621612e-01,2.414397186960125785e-01,-1.122260999276655791e-02,6.349060196684191970e-02,-3.303482030831643712e-01,-1.542827862117400473e-01,-2.342155543575126161e-02,-9.124439951396702553e-02,5.881785002404495144e-02,-1.953125380983874448e-01,1.764796083489444944e-01,-6.126218833206162340e-02,9.048162571477044724e-02,6.543589902219951182e-02,-1.102181855383851895e-03,-4.224662489697907780e-02,-8.684633899985562400e-02,-8.506869592708944661e-02,4.480742557648228347e-02,6.594510020519529780e-02,-7.191206077163563026e-02,-3.066896892167558092e-02,4.667930069346754723e-02,1.779850255296057948e-01,-7.157299517831609836e-02,-1.982400890166576002e-02,1.277167504944349830e-01,9.966032381634906678e-02,7.191654376437181528e-02,-7.809098619361243276e-02,2.986534463156444857e-02,4.362574834188403389e-02,-1.575087006986151603e-02,-2.175938401173916625e-01,-1.034251911279736452e-01,-1.096411135029906891e-01,1.189463210159894258e-01,-4.387873376259700253e-02,-3.186535325949603481e-02,-2.208849298707296974e-02,1.000749606039611078e-01,-1.180526333189672317e-01,1.534895175523467714e-01,-5.260799265467640262e-02,