{"weights": "1.842946657876935346e+00,-5.508961784147379248e-01,-5.158383881787593772e-01,-1.134581313139881420e+00,9.093626278403521557e-01\n-2.280389357921020377e+00,1.918412370295455194e+00,-7.845430364092710329e-01,3.631841022354543314e-01,-2.643528559046024462e-01\n1.650337617043686977e+00,-2.115227809351514665e+00,-2.862146898731208755e-01,-3.840066231237846406e-01,1.135518928330491173e+00\n-1.082504473941266365e+00,-1.375058029662847847e-01,-8.689565758236545978e-01,1.367766684547678906e-02,5.563813305572388179e-01\n-1.111339211976205998e+00,1.235524987161165988e+00,9.212794726448353400e-01,4.533757015794983580e-01,8.912213629465074449e-01\n-6.358137015594077512e-01,-4.201626101991203649e-02,-9.297855615225054660e-01,-2.426524634322517748e-01,5.743870789326600557e-01\n-6.701330594591000667e-01,-3.502356895633308431e-01,-6.674099048761807929e-01,-8.386815650189944904e-01,-7.246549727687321418e-01\n1.393246880426064066e-02,-1.170079958945360987e+00,2.536012062075996276e-01,1.738049596897865978e+00,7.124097978155240485e-01\n-2.140340114814818784e-01,-9.701243779293382552e-01,-7.997165915156096982e-01,1.762885382829054715e+00,7.648565491769789351e-03\n-6.616205703339558264e-01,1.981167375976121692e-01,2.205042724839139101e+00,7.003513896011433204e-02,6.046315163795891179e-01\n2.417799163519284422e-01,-4.209742740607494427e-01,-1.280584447618835942e+00,-4.291341644251511211e-01,-2.838481929448709584e-01\n5.505398918011579212e-01,8.392034522259363971e-01,9.220659314829243725e-01,2.719781375639023779e-01,9.180639295755651519e-01\n-8.363834699078241952e-01,1.273137420901281791e+00,4.833650126611805931e-01,-3.393305788866611827e-01,5.147794922113235749e-01\n-1.268459091357340973e-01,1.116468317808174460e+00,1.533903285824191220e+00,2.278080647311512053e+00,-1.496271033275695661e+00\n-1.549983751255672226e+00,-5.787352570820711861e-01,1.325314916739425697e-01,8.923875957278278870e-01,3.073056910258255003e-01\n-2.162030804243954663e+00,-4.078569533923093737e-01,7.824067037655980661e-01,1.213365378137549050e-01,6.707102207516419945e-01\n-2.543736021319203400e-01,-2.610866893948994294e-01,1.616819414747707184e-01,3.895565267256095310e-01,1.348215605171098341e-01\n9.640731188565918042e-02,-7.061102892805177778e-01,3.699444011114839115e-01,1.297208225861251063e-01,1.174533995018761434e+00\n1.252720668747897559e+00,1.381869133929359561e-01,-4.373178695115340631e-01,-6.799784730303478630e-01,4.406970301893181619e-01\n7.852958382721242359e-02,-4.159587063028234444e-01,6.187231499332638239e-03,-6.751846166647743619e-01,7.169238050645017069e-01\n-4.307271260761022513e-01,1.374511130650184709e+00,4.892651802576797881e-01,6.803275278177726149e-01,-1.132998209576653981e+00\n1.833033318036008386e-01,8.337519234036825377e-01,-9.602398814686323725e-01,-2.591144474410392307e-01,4.682305945331979857e-02\n-1.446978563289867292e+00,3.805951820916144701e-01,9.167605738059037002e-01,-9.115536254512932590e-01,3.495030184448122412e-01\n-1.365589567259759551e+00,5.822964117553654229e-04,-1.695377542673529581e+00,1.159840867874231352e+00,3.982596942840507803e-01\n4.244688684682988711e-02,-7.697952424020609863e-01,1.351816579877338054e+00,2.091682277025351588e+00,-1.942387821592155062e+00\n1.241599951470038210e+00,1.605240629787477502e+00,2.478635833671662125e-01,-1.413995763249540127e+00,7.512093499818139897e-01\n-2.158972577280673100e-01,-7.135021578436653300e-01,-1.363714855779784685e+00,4.554211170678765241e-01,6.511656404368283413e-01\n-6.665692169341260742e-01,5.301284154691553452e-01,-1.261265680552278390e+00,7.491031670581875801e-01,-4.647689776402088441e-02\n-2.579410450980323399e-01,-1.398561712484827912e-01,8.175103131238506959e-01,6.831092357299977103e-01,4.631877457057037573e-01\n6.797119243919881593e-02,2.977377518576638030e-02,5.791313721735454889e-01,9.301196622017084137e-02,5.588681170884801652e-01\n-3.291781817081119166e-01,-2.599047651410745452e+00,1.053204231494153209e+00,2.268921227145415109e+00,4.375161710355043865e-01\n-1.224120248243350667e-01,-1.661287183872221518e-01,-1.537328523249374690e-01,-6.687301343875034013e-03,-1.205368515602994073e+00\n-5.453300840594574872e-01,-1.043217039452443595e+00,2.818447347249505852e-01,-3.009689574286493197e-01,4.903712272977535647e-01\n-1.794508224008029840e-01,1.068969347841235651e+00,2.313316492179546269e-01,2.292936819224317802e+00,-2.042108290182159003e+00\n-7.406762217160370865e-01,9.076232134938050367e-01,2.643768474938160029e+00,-2.866397411782860560e-01,3.298725212064903406e-02\n-2.779394718446021040e-01,1.364286662611989387e+00,-3.391890801419656376e-01,6.364497844647140079e-01,-3.999845900641681995e-01\n-1.391476752227768676e+00,3.005840015102195228e-01,5.079732193600089429e-01,1.289762549327191810e+00,-1.962844659983475348e-01\n-6.936911386278886704e-01,5.895721522453315488e-01,2.026576731639529727e-01,1.964210093958703440e-01,-1.496760868801488287e-01\n1.199591448067785171e+00,3.474003370897247311e-01,1.927329313739428729e+00,1.051303754487081576e+00,6.031932792795783316e-01\n-1.763494579605972667e+00,5.597905937996042747e-01,3.511629536575661681e-01,7.620519702032194642e-01,1.023512056863555175e+00\n-3.610317828082551528e-01,9.459366255976020543e-01,-5.127221622495697906e-01,2.168911241564538628e+00,-1.301074672359304074e+00\n-1.891931539024978015e+00,-1.716499352904743647e+00,-9.359541437434317768e-01,-1.100758411541704618e+00,2.115202845103412610e+00\n-4.024722960668332683e-01,-1.390985581098732604e+00,1.175998722348344350e+00,-5.812491080469984750e-01,-1.342555292197299410e+00\n9.007920183424389382e-01,6.938798746960047614e-01,-4.332031359788406366e-01,1.514669753985151024e+00,9.199880958949109566e-02\n1.653827708391883533e+00,4.724793161307898059e-01,1.664361031286797354e+00,1.094801885993240270e-01,-1.324592029759256384e+00\n2.621962629445049764e+00,-4.896005057456922493e-01,-8.271779545556696978e-02,-6.332435632557728011e-01,-1.092665202657960022e-01\n3.362111402943631644e-01,3.592962208561451543e-01,8.186391883883464837e-01,1.943020226767920855e+00,-4.577098356147158570e-02\n-1.249628266126065812e+00,-1.169734149552971836e+00,-6.806643604666771097e-01,-1.768864277568862997e+00,9.148336877990772553e-01\n-4.444270332827437997e-01,-2.904352425308996399e-01,3.523764051861397878e-02,-1.450091398614255622e+00,-8.072456103704399588e-01\n7.982213200897108063e-01,6.941365095213164471e-01,-4.102743434841979453e-01,1.970608479012032177e+00,-1.326959532193964897e+00\n-3.949520498906798904e-01,-2.810673170737551518e-01,-3.005686073538419656e+00,1.994241415444747645e+00,3.990296179487635708e-01\n-1.153956481470844064e+00,2.104144866101969491e+00,5.565535392935379022e-01,4.212205562736315301e-01,-6.332746240003255256e-01\n4.020369936195034716e-02,-1.701390940055146350e+00,7.773487896712711898e-01,-4.191186723673731018e-01,1.340972225454989675e-01\n1.169676392485665462e+00,2.139047718288652755e-01,2.169053572099457483e-01,2.593297190652141260e-01,-7.810910734312049852e-01\n7.722285984833923145e-01,1.495559114721447092e+00,7.129891323382212542e-01,8.603238142721412185e-01,-9.950864154964940145e-01\n-8.762928214673009197e-01,-1.510624865532000927e+00,1.294835306454668267e+00,-2.729352624950652784e-01,1.444828570461257566e+00\n-7.742439079218803588e-01,-4.814421670758130545e-01,4.945870555483500991e-02,9.453362354968173342e-01,3.831373454118312816e-02\n2.510804991642676676e-01,1.649606325809620244e-02,2.068912673104987276e-01,-1.195746018683621958e+00,5.203196384314434653e-02\n-1.840092948033592024e-01,-2.067465994619893666e-02,5.383038516721049271e-01,-7.250664032888862742e-01,-1.379143464267027497e-01\n-2.983567367816948868e-01,4.702556133593231991e-01,8.203949524841791519e-01,-1.063908715452895226e+00,5.580340862265584789e-01\n2.085894348215091121e+00,-1.605047683866385855e+00,-9.029397190321677424e-01,-9.323905901393365614e-01,-3.001333806397748494e-01\n1.609832906179001544e+00,-4.213615665615487449e-02,-7.705281384948642343e-01,6.440386858084981014e-01,-6.476863283100737778e-01\n1.118375156243814894e+00,2.979502430182970896e-01,1.427361303441401441e+00,-7.226631419902106446e-01,3.187810903357961134e+00\n8.228672524352274031e-01,6.774705628754906783e-01,-1.070520244297807899e-01,-7.949242877887292558e-01,-9.150880117755091359e-01\n-2.360143835796326972e-01,-8.992623124625661601e-01,2.194622060756412363e-01,-9.281551413867628053e-01,6.590213988192957784e-01\n1.070019102435177505e+00,-6.772620114448917317e-01,1.330178543240866151e+00,-1.628569903437971644e-01,1.299051844419962798e+00\n5.325971663667447009e-01,1.247359203363513025e+00,-9.758518422018160887e-01,-2.369812322918674399e-02,1.594245854640920168e+00\n-5.823414026556763545e-01,-2.096938475373434585e+00,-1.988575360601254394e+00,-2.600782366765860054e+00,-2.204096863471996404e+00\n-3.687751660623701522e-01,1.390409156932140400e+00,-4.134505625668248863e-01,3.848207891934053437e-01,-8.547707302295230736e-02\n6.427483365192793174e-02,-1.385230437277986948e-01,-1.559402059556276310e-01,5.065017561180223948e-01,-1.239202279310213539e+00\n1.099346433316902516e+00,9.720412140730532169e-01,-2.121204091751255627e-01,8.377972075879491776e-01,-7.852516677553252888e-01\n-5.613991002181678569e-01,1.579487760393929741e-01,-1.980084181297266099e-01,-5.058044132043477692e-01,-7.399583331182663093e-01\n-5.990387182047905990e-01,1.029792797183865627e+00,-2.020442829241778870e+00,3.819578359820593461e-01,-2.305506859024614996e-01\n7.887573171023233298e-01,5.991281891753671429e-01,-2.898587560484595649e+00,6.558799038337325138e-01,3.673139173254947876e-01\n5.798881093897195055e-02,-4.486647347504158501e-01,9.159083083766779154e-01,-4.062567580372922205e-01,1.982899312493833444e+00\n6.297754212138818586e-01,2.294340717099964344e+00,-7.947076494691039938e-01,-1.829651792348414574e+00,7.929822924813691998e-01\n8.982635308011632791e-01,6.179389296564330447e-02,-1.589488993511039894e+00,-4.422886611083922115e-01,7.005463223885886048e-01\n-2.103712352799992913e-01,-1.049865823795099740e-01,-1.295225008533862354e-01,-9.784289977620806988e-01,-5.466909309308216613e-01\n-1.507674125743086790e+00,1.888177317434211355e+00,-4.723114917313877004e-01,5.080389733719076206e-01,-1.063996431432732148e+00\n8.493403089751317969e-01,-1.978580306700785219e+00,9.580402233458302774e-01,-8.144840551553605978e-02,2.207253324062228295e+00\n-1.420504763206898780e+00,7.855338568588179915e-02,4.256962215643387282e-01,1.365187776916602092e+00,-3.668404342483412295e-01\n4.117478789959931607e-02,-2.287392751468988461e+00,-8.489635906601235016e-01,5.405178931523695329e-01,1.213347653539922133e+00\n-2.794532490517888657e-01,2.186196272930371443e+00,1.898424999157019233e+00,-3.186471244747234727e-02,-2.528545583310757738e+00\n-1.864591333982767551e+00,-8.048545206715780331e-01,1.192525107591813072e+00,3.272902329303146729e-01,-2.226398347149951107e+00\n-2.039692741645125484e-01,1.689128547251877999e+00,-3.969333837108844909e-01,-8.451709201779737946e-01,2.122851747605863704e+00\n-1.569322186000292330e-02,-6.083234870898474034e-01,2.495302617688046343e-01,-9.712058545568094670e-02,-5.532632690558217936e-01\n1.213379295935225644e+00,1.090002547650767983e+00,7.656149638968602344e-01,-2.204651071153130304e-01,1.116211773150177500e+00\n-1.266621174715192033e-01,4.022986298219770052e-01,9.994581463974111513e-01,7.743453225207121982e-01,1.803306472351092093e+00\n3.930779080257460478e-01,-1.897802294604377549e+00,-1.349306725714081834e+00,1.320362758875124110e+00,-4.411250101057418438e-01\n3.032093210428197794e-01,-9.948714833110069433e-01,9.659376188010957431e-01,-5.114606637551328827e-01,1.436457072867722840e+00\n-5.657135680545601897e-01,1.122871190768495842e+00,6.806449099188560670e-01,-7.846009427638480638e-01,1.118756784156341277e+00\n-9.634914187580172484e-01,-9.319901847585848609e-01,7.553940799430491904e-01,-6.350657244905915100e-01,-6.228191240109915983e-01\n-3.624673978139804076e-01,-1.108803676789167802e+00,1.041440589416997353e+00,6.199457635734341165e-01,-1.037873569011716207e-01\n-1.225928542212097877e-01,4.032945259307579855e-01,1.757193684652776478e+00,8.445649270651122142e-01,-6.199741517672552327e-01\n7.620458871084648811e-01,-2.300468549330821899e-01,-3.052032472329943569e-01,1.896309683024456127e+00,-5.150353521342562191e-01\n-4.568579163997600889e-01,-2.007870028230305692e+00,-1.426101949351472387e+00,5.410271696149800968e-01,-6.686141057661748599e-01\n5.786027437643000981e-01,-1.075526631604743377e+00,-6.903736138448868243e-01,8.312333834652971820e-01,1.674323832130961698e+00\n6.797365946388135294e-01,1.362042116109795087e+00,1.928849972807838098e+00,1.220741698852970680e+00,-8.613196425452561700e-01\n8.819813153481353626e-03,7.880110851877464295e-01,-3.037675519703297300e-01,5.785871084265548081e-01,-1.586215631864989595e+00\n-7.766489854330840270e-01,6.571207043912100643e-01,-2.234550461812825350e+00,-1.052626427486666350e+00,3.889487058556031357e-02\n"}