{"weights": "-3.541206823714649482e-02,-5.360004487559740793e-01,1.041734713977482685e-01,-5.181388339885236727e-01,2.093127904113025184e-01,-9.959282258972342039e-02,1.547908361769080310e-01,7.554206350352420107e-02,1.194794152785318003e-01,-1.785522876639333151e-02,-1.107084648185406167e-01,-3.055135357836972765e-01,-6.749171096185113683e-02,1.656484623531374045e-01,-1.499779681293937905e-01,2.418111417985470760e-02,4.503297893625801129e-01,9.391407884248430260e-02,3.589399400539407536e-01,-2.407192788315608845e-01,-9.148403747051601920e-02,-7.658232864054538291e-01,4.025431650780058046e-01,-2.744202814645061578e-02,8.379914724620658451e-01,-4.244955950589250904e-01,1.722426963276927070e-01,4.889358080787615801e-01,3.269063216417736895e-01,-8.259722408479548694e-02,1.149494807198606361e-01,-8.115766067373316739e-01,-2.422636084610485241e-01,6.926458390780282359e-02,-6.570231483666854055e-01,3.930152201824424485e-01,-2.264788463144545294e-01,1.645100330623996965e-01,-1.143450362551211713e-01,-5.200640546670383113e-01,3.058589232878494157e-01,5.491118219572906078e-02,-6.168597279019155666e-01,5.698309105510932504e-01,8.560514092017003362e-02,-3.294385778280528587e-01,2.188028945210955811e-01,-2.431901687998808473e-02,7.725998801144720596e-02,3.429590384431864813e-01,3.832108158002266451e-01,4.523336823209199720e-01,-4.031930097768024468e-01,-1.111706559990672111e-01,-1.384583214416693249e-02,-1.405298333636909869e-01,-2.785243008914528029e-01,1.787340882347523419e-01,-7.212903644185741925e-02,-1.630455878154716542e-01,-2.249005529657053248e-01,-4.783521040208046221e-02,-2.408995454481132337e-01,-5.705367502850964279e-01,-5.509447014299766188e-02,2.092468899846181285e-01,-4.303751189959014178e-01,1.178221006226597978e-01,2.084270867765439239e-01,9.203616963189892308e-01,-1.610966427974564949e-02,-3.476779912797176575e-01,-5.802029779539896737e-01,1.213367330776905957e-02,-1.831797853647304519e-01,-3.189221260542249858e-01,-1.016444824500143118e-01,-3.241655698062937963e-01,-3.565886738316094151e-01,4.703866690374240989e-01,2.287934993392150840e-01,3.220936000136083166e-01,-8.900512662354384541e-02,6.856780831030985235e-01,-1.203736647127430087e-01,2.873644435213589809e-01,-2.430246597642432213e-02,8.816892454680920477e-02,2.968480213496452746e-01,2.499119406210332517e-01,-4.276028162029155699e-01,9.498139219064939687e-02,-5.415463185417331848e-01,-8.646743704339634462e-01,1.278649798387724579e-01,-8.725740889020364155e-02,1.826375723043970056e-01,-4.483980105540387451e-02,8.998205930627133364e-01,1.469461509306072278e-01\n-2.138383773002988375e-01,-1.063939289950706912e-01,-2.312543179746263389e-01,5.226859806616225290e-01,-2.483696799863671367e-01,-5.264843415142798078e-01,6.388453132651046307e-01,1.963042040757430329e-01,-3.496412093017510214e-01,-3.418906286167882613e-01,6.378875427267222120e-01,2.520678292853078539e-01,1.941253809857072798e-01,4.091821008776956869e-01,-5.732892769007149614e-01,-1.294883579257072592e-01,2.566487383304260142e-02,-5.530171318428658833e-02,1.533462146898358913e-01,-3.276378361865512345e-01,-2.309650127332140701e-01,-5.430262077926713005e-01,-2.557707913741685823e-01,4.620171964716102142e-01,3.782050857430825364e-01,9.934408312302096811e-02,5.360540489700298394e-01,-1.883184113818307526e-01,6.117560069895761066e-01,-2.565306947152041772e-01,-3.971107794312810774e-02,1.104489914920476351e-01,3.132181047130192519e-01,-1.317024807082625149e-01,8.185492414514743131e-02,-1.970237376826136921e-01,3.076246392926481610e-01,2.845036195242378607e-01,-1.104844300086377795e-01,5.856229556306923739e-02,-3.978935372079633881e-01,1.854486410803911911e-01,-7.201359736392555499e-02,-5.644970698625449007e-02,1.134744405742184326e-01,4.670246633039861761e-01,1.259061376386365338e-01,-1.301209021960058609e-01,8.126961780022759485e-02,9.066242843440655563e-02,-2.567189521197199564e-01,6.368226824632801097e-01,-3.718760650359801412e-01,-9.321756211000921388e-02,9.097142323129596420e-02,2.830452575197627829e-01,6.313938013643108915e-01,-1.209129548806861798e-01,6.890676174201922945e-03,-1.556591605199508233e-01,-7.948530619519414975e-01,8.252800326378749718e-01,-1.985628779971243818e-01,-3.559515012148516122e-02,3.533940614143779024e-01,-4.043883291264270263e-01,-4.389049950131466149e-01,1.045537749398638555e-01,-2.551020735588765964e-01,-2.293221247745038383e-01,-4.032219882694511037e-01,-2.492452195432193762e-01,7.974858528758950182e-01,7.249407567215505610e-01,3.665578837021690739e-02,3.814406660843792651e-01,6.768198882110675052e-02,-4.712216187449973503e-01,-9.554469892426797895e-02,8.531484030795885576e-02,1.278768384344220466e-01,-2.430971757445406500e-01,2.692867936940651630e-01,-2.037198822925004871e-01,-3.312391253617363307e-01,9.820418912165016501e-01,-3.012853030512642749e-01,-1.586081089284822887e-01,7.727645719531417434e-02,1.951918721009291702e-01,1.565764596598055725e-01,-2.062913976094959689e-01,-1.262950139216023060e-01,-2.252899737934830893e-01,-3.182908972671917858e-01,3.348974256325964460e-01,-1.002096005356962194e-01,3.149079929825742696e-01,2.758183249180160002e-01,-3.730848028905176528e-01\n2.134190790023442752e-01,-5.562688160457145425e-01,4.192435951509659864e-01,-5.815583819876418009e-02,7.836059483378435275e-02,-2.151775964681712228e-01,2.156173477651569526e-01,8.861649023803938596e-02,-2.061456619766502407e-01,4.890198071920157791e-02,1.364700610943301584e-01,-5.133805984199935057e-01,4.420914861411127939e-02,7.891974937722147712e-03,3.990616296588555545e-01,2.222955714759618784e-01,2.512568164162320983e-01,4.065644932626401309e-02,-9.162806357016091419e-02,-1.196549860817362199e-01,-1.214016290530881143e-01,7.029477138392729862e-02,-1.489486225247213247e-01,2.467244480539758974e-03,3.670067096720915079e-02,7.511877598377340870e-02,6.849681501956078611e-01,-3.802686436233858047e-01,-2.705839287548090777e-01,5.498809596849012216e-02,3.362844594721062785e-01,-9.439906551793315614e-01,7.305798332515236332e-03,3.238282253293262580e-01,1.959773825197984043e-01,-1.070995807328393723e-01,4.480890486386188143e-02,1.903532242643390590e-02,6.172674131209729409e-02,-4.333575670659189361e-01,-2.543755075153449341e-01,5.525918237705578634e-02,-5.439102138125819774e-01,3.637640945521047331e-01,7.054872200892751133e-01,-1.024015307873662739e-01,-1.303654320587011861e-01,-7.079253814323255289e-01,4.949478150723611858e-01,-9.095160163909352113e-02,-1.717298608068062726e-01,9.619955760599199768e-02,-1.452204360671372207e-01,1.377849376185415753e-01,-2.568541502867949244e-01,5.393584982567216635e-01,5.606924562148021263e-01,1.352888924546473068e-02,-1.340008054560631323e-01,-7.751049042973714998e-02,4.125397395589439770e-02,5.473338855501316269e-01,2.467384054504840885e-01,-4.509955617067313849e-01,2.713417033092486719e-01,5.724943606779782090e-01,8.712857353111632674e-01,-2.043230042667186497e-01,-2.356220557338508867e-02,-3.021234345867004345e-01,1.522956428017264996e-01,5.576923624197338558e-01,2.521047175076234215e-01,-4.719478367740466696e-01,-2.010939087158514771e-01,8.427139705378278167e-02,-9.226341892928988098e-02,-1.849420946520294873e-01,2.228795535909198766e-01,5.213696636638194271e-01,2.627750035045039456e-01,-1.400367983038991980e-02,3.288450934445624196e-01,-2.615499582478535319e-03,1.824194602304390622e-01,-8.628358183590535413e-01,1.313321988911638665e-03,6.864830107042161345e-01,-5.740622054899697374e-02,1.899981542462381434e-01,-5.360661540839930517e-01,9.548443512397949973e-02,2.683370015411646325e-01,-1.208362082936394188e-01,3.274359934884832346e-01,-3.650975146527198900e-01,-5.555631173150746838e-01,-4.813935833154021904e-02,-2.004332936863428005e-01,1.703634799278621603e-01\n1.806296728718637720e-03,-3.846808536042446020e-02,1.134190619573146180e-01,-1.540562953999833479e-02,-3.077924291601174533e-01,4.306652005019506735e-01,3.026235551708015836e-01,3.540052963965238386e-01,4.566076404763924068e-01,-5.422922476390137914e-02,-2.223961175143761571e-01,1.391612066308868245e-01,7.128186805919208002e-03,3.610632570515823758e-01,2.114151833473775222e-01,3.365500345683011263e-01,8.093115422989111130e-02,1.075134104881635855e+00,-3.857814006273974639e-01,-1.569851129328465045e-01,3.175113610590983293e-01,2.021960183117234577e-01,-3.022553242128799833e-01,-9.389378341763132685e-02,-5.264786005390577062e-01,4.292649218728507021e-01,-1.157388026031034856e-01,-3.903535526363204888e-01,-1.838793977393626544e-01,2.858025349243750735e-01,2.543892659961070613e-01,4.327649365207144605e-01,-6.406349876792272191e-01,-1.747976599227534511e-01,2.429017848259910628e-01,-2.289215227351811266e-01,1.691479816332506492e-01,-5.810362789636278613e-01,4.539752032621064554e-02,-4.495048923485311376e-01,-2.157108109565234189e-01,8.502201224705668858e-01,-1.372749446525511063e-01,4.486542605212159862e-01,-2.249172868136919690e-01,-1.966333834790884583e-01,-1.317402855240991100e-01,-1.614424289599761253e-01,2.884997569381881344e-01,-4.459488661938029175e-01,-5.633535222964100031e-01,-2.797211935723352694e-01,3.704205177443931855e-03,4.164659229329636253e-02,4.855434513316122525e-01,-3.889992420213123636e-01,-2.157453920499064481e-01,-1.941750501433217591e-01,-3.544444899407172000e-01,6.193935518234092857e-02,1.521379097552617299e-01,-1.042767584596426961e-01,-2.443070635438181759e-01,-3.043251705552653674e-01,-3.181910175801573593e-02,-7.584726708744418677e-02,-4.637754193229667518e-03,-3.296377905591165169e-01,4.305860036775119304e-02,1.606301859002025045e-01,-1.098306423268818055e-01,-2.346983269492098900e-01,3.647512085058253195e-01,1.725904571883009331e-01,5.416406784873465385e-01,3.885960397033029201e-01,1.813368563249577736e-01,3.938732885503329340e-02,7.618000671338430729e-01,8.457642455844928131e-01,-2.629846410754211883e-01,9.657465540522429392e-02,9.596803696469707878e-02,7.031960074922710691e-01,-3.746189210453394480e-01,-3.613155635890148709e-02,-1.087840493913647642e-02,-5.540509420270560703e-01,2.058696429029146791e-01,-2.174428743330695246e-01,1.449619957994499053e-01,-1.991358338990946164e-01,1.763934287475675822e-01,5.655206337006913470e-02,4.916323786279155894e-01,3.449799240369236242e-02,4.391980408080713438e-01,-3.242132629600166793e-01,-1.599774477790796845e-01,2.606611330552762174e-01\n3.951640191485805143e-01,2.734327073238475552e-03,-9.941888093355595590e-02,1.360022135958467437e-01,-1.566948061922280033e-01,-3.551048826778761547e-01,3.879910213069598934e-01,1.453657328649259617e-01,9.948011171562796962e-02,8.538645598967390393e-01,2.430213878840210839e-01,-3.165922694593656384e-01,4.276592901947389169e-01,1.296463293932656469e-01,-4.053013604491390032e-01,5.937351145040180578e-01,2.338108850800855662e-02,4.357297406557941177e-01,-9.387101454639508458e-02,5.824107711296416801e-02,1.892960558534881321e-01,4.428552593065050724e-02,2.386817652984844773e-01,-1.143673391944417389e-01,-1.952953068110853119e-01,-3.977215518909873460e-01,1.171426740278565248e-02,4.526815718842959191e-01,3.543735203587121130e-01,-3.604627158010178523e-01,-6.032438632189012218e-01,2.074038443936860876e-01,-2.217080983394253413e-01,9.412556830702533128e-01,1.010235280027314830e-01,-1.273803506155780363e-01,-4.062007904936957847e-01,2.874610013197442249e-01,-2.637780808391682053e-01,3.005907229195036723e-01,3.236614547433257494e-01,-5.760355386448747783e-01,-5.369738414957827555e-01,5.841100744383835586e-02,-3.740773456606982239e-01,2.257500348583610095e-01,2.122754677948898161e-01,-1.483122499408776052e-01,-4.587972973675726318e-01,-2.268410113619230839e-01,1.856681621854203990e-01,-3.363512660322128811e-01,-2.641037137161153514e-01,4.570799553611009647e-01,-3.382485285515753892e-01,-1.211825327331701174e-01,2.234487760676845125e-01,5.495683296531805873e-01,-5.361434317523344067e-02,3.865970405450230296e-01,3.677537504415120950e-01,-4.325246823491054604e-01,-6.042545504381233723e-01,4.270404770945584461e-01,9.085177507194729107e-02,2.400702662212510774e-01,2.035299355685236122e-01,-4.097161430678394195e-02,-2.082192495631533524e-01,-3.241430354394045921e-01,-2.409422731435639786e-01,-3.358993425650191322e-01,2.243074021693444720e-02,9.993515358738619403e-01,4.502149255215907586e-01,1.370017434050350980e-01,4.305275000246602812e-01,1.862504036176473310e-01,-3.733659199503044923e-01,-2.031196619602581022e-01,-4.383771923538452575e-01,1.497772263855706443e-01,6.263389038615015114e-02,4.061277272322071433e-03,6.020587066260193326e-02,-2.747308725686144482e-01,-4.943464040659878433e-01,-2.779688102652444481e-01,-9.017222962424095711e-02,-1.153230743336410846e-01,3.120159474637845265e-01,-4.038062267293737739e-01,-6.583861682724176378e-02,2.562322504488300234e-01,1.058249886877989515e-01,7.831482995525122781e-02,-5.181953503462759514e-01,3.927614117120585835e-01,-2.227353557791378891e-01,6.581997428170541786e-01\n2.352896495792521359e-01,-3.314203757481701262e-01,4.907067775163628104e-02,-7.893634111742079407e-01,5.057379575773472968e-01,-9.914420635095415324e-02,7.555125068322822435e-02,2.796331330872436349e-01,-5.434633399093924400e-01,-9.611818655580786630e-02,2.644626723465512974e-01,3.270732090935398739e-01,4.208195061282505867e-01,-4.463417194199521543e-01,-2.594874940372154937e-01,-4.433035331751506991e-01,1.031612227831589235e-01,5.447631416143350336e-01,-4.216938613096716248e-01,2.465960951139370971e-01,2.278284719057038776e-01,-1.992332856276641251e-01,-5.116193802613833164e-01,-1.894324642861596186e-01,-2.579057965354217730e-04,1.255710525324064408e-01,-2.513078957029505900e-01,-5.007589708992921107e-01,3.343278585316314944e-01,-1.784817712473053819e-02,6.618619610024692457e-02,4.861073707886870987e-01,-1.000368663522361867e+00,-2.601313592636568806e-01,2.374751064428002045e-01,2.967065911156406902e-02,1.083098041155107077e-01,-1.991593864504048739e-01,-4.584878341176695793e-01,2.790759922275554486e-02,4.397420537938726004e-01,3.883897982705611374e-02,1.087031805219853681e-01,-3.073622756531518840e-01,-9.193562992988922600e-02,3.767271326772738543e-02,-1.101099118886285921e-01,-3.667218835599509452e-01,-4.745645426796661348e-01,-1.376241668530439055e-01,-4.232732357803154488e-01,2.163131068890732367e-01,-3.228919089134047460e-01,5.897792392466160161e-01,-3.636042577606879989e-01,-1.690126076746953643e-01,-2.392095747629289226e-01,-5.838365756306577170e-01,4.267367707733273341e-01,-3.126273923342935968e-01,4.170579131447542109e-01,2.309322450859610798e-01,2.663307112286839029e-01,9.972989924115301941e-01,3.161027112402968742e-01,-2.030358823410846614e-01,3.625140936854899798e-01,4.066500743022591347e-01,2.286268084966945613e-01,2.573218019322332517e-01,3.073497132373312346e-01,2.268826569059956277e-01,-3.171385607533604989e-01,8.944723385306148356e-02,1.541388411455499596e-01,-1.598708846521310623e-01,-2.196236008135345197e-01,4.798726944860515209e-01,-1.443918624059985778e-01,2.275293660159783682e-01,9.268908284846536505e-01,3.374106041872942940e-01,-2.566589629721293120e-01,-1.233713801695266038e-01,-1.788324545320908454e-01,6.315195787761671564e-01,3.784153904078806363e-01,7.449527625758553540e-02,-1.766277300628771585e-01,-1.299345072206717355e-01,-4.710980449822312066e-02,8.079907620923982847e-01,3.376631105863445170e-01,3.274118942809134958e-01,8.668383138077982719e-02,-4.425564006312332488e-01,-1.288510570782271658e-01,-4.866544153664634220e-01,-3.962339067304279649e-01,-5.382350148184813360e-02\n3.462156769145179752e-02,-2.095492716993236082e-01,-6.647830575272687392e-01,-1.898222914437842634e-01,5.151764254310148283e-01,3.319041367763897465e-01,-5.026268126230267613e-02,-2.037755062149565755e-01,4.348058714783905598e-01,-3.024954999516384357e-01,-1.366508969324801426e-01,1.307100913977622333e-02,2.915575045674579924e-01,-5.650389167428118142e-01,-4.229168332628866489e-01,8.701765165101971178e-02,2.209135149542024446e-01,-4.250772319000783450e-01,-4.437104670342046919e-01,-4.219331226231133325e-01,-1.671920904498603033e-01,-1.723057906053139243e-01,-9.369861981155629127e-02,1.771787678858486315e-01,-2.666471986593713095e-01,-3.589245779505559897e-01,4.051261493752802423e-01,-4.391297340089228562e-02,7.169507682837819029e-01,9.433588878935750266e-01,-1.896237144756688087e-01,9.039262158466929153e-02,3.613801151012484003e-01,-1.716495627242301814e-01,7.873156102205025597e-02,-4.548017139028187605e-01,-3.061338466434153083e-01,2.805169616139698702e-02,4.550468348610861580e-01,6.140852636213104399e-01,-8.604127624023180099e-01,-5.068463536520028123e-01,-4.576422289839453261e-02,5.447754918652107925e-01,-4.495447929057490022e-01,-4.129408282353151383e-01,5.718558993089964959e-01,1.133845694795925785e-01,-4.496207529212414844e-01,9.697188009766974925e-01,1.249544163443635642e-01,3.176416511313938651e-01,6.554568590652148918e-03,3.833038453341485741e-01,-5.540606620350299050e-01,2.704261324358121499e-01,-5.037147449300952706e-01,-3.488164598571965591e-01,4.999661966336402252e-01,7.837225544738407601e-02,3.701547304778861625e-01,3.820851292769248952e-01,3.818970006304377995e-01,4.122463610520001043e-02,-4.894654350979321146e-03,-7.843332540896677529e-02,1.053339996336399020e-01,2.179625180368537085e-01,4.373385059619653292e-01,-3.245925601576049035e-01,2.972131283302542060e-01,1.340801710415126524e-01,-3.862538154062037377e-01,-3.593047261404184733e-01,3.687560478005629805e-01,-2.617488075910576750e-01,2.826234501083640244e-02,-5.671899593749931690e-01,7.900538460190753565e-01,2.803623202013823534e-01,-1.175355299212213905e-01,-2.325125713197371269e-01,9.703437221631346088e-02,4.880975384116776339e-01,-3.413265959364072955e-01,2.714054069903047983e-01,-1.112701107136754741e+00,2.224470312583202714e-01,-2.797103977787303575e-01,-4.470863891814678692e-01,-2.720662373760187047e-01,-3.667016938546896476e-01,-4.027293126746989693e-01,4.099533432252413512e-01,1.243870190437151579e-01,1.230839090320840802e-02,7.012055280860106377e-02,-7.270690928589500224e-03,3.971034991489432175e-01,6.912210365538887236e-02\n9.127943640387883861e-02,6.428922506167866757e-01,-2.696438424450606219e-01,3.378053393575283780e-01,1.304943511048067273e-01,-2.119453309406567898e-01,-3.688324365160838281e-01,3.064663491963481867e-01,5.337146406293522549e-01,1.623439840904959963e-01,2.478204915004516007e-01,7.177158929639531060e-01,1.993593098485414716e-02,1.813057211391676249e-02,4.709959634112236282e-01,7.439587608495265014e-01,-4.611723433832279895e-01,2.252127622748100189e-01,3.019795316499087612e-01,1.649992444358583110e-01,-2.444899929540041705e-01,1.898005895744127591e-01,-1.886077502973501907e-01,-3.138727717821671471e-03,9.190329652693498552e-01,-2.799144379032248997e-01,-2.069813923945229284e-01,-2.477221780861852407e-01,-1.976760028293143290e-01,-1.636012216648392303e-01,-2.719136571301760674e-01,-9.631549526144116413e-01,-3.273219665803288603e-01,2.102775612231687352e-01,1.977529830391335230e-01,-9.191282132326514809e-01,2.968552883022582134e-01,3.888681537730805382e-01,2.301628433811918895e-01,7.325494105621034313e-01,1.096588166375749157e-01,-2.568094993096876610e-01,-4.498523316959410767e-01,-5.304972483132368126e-03,3.540416322803136562e-01,2.562242698464980983e-01,-3.897762731277739090e-01,2.585251855275671681e-04,3.575398981554202549e-01,3.709488925728653963e-01,-2.780554613691544885e-01,1.008282898044595977e-01,2.809582560806211937e-01,-4.368116778387421545e-02,1.726409269674452907e-01,-2.177982664130956592e-01,1.079211145782966175e-01,-8.143256563369535850e-02,-2.043564072415398336e-01,-2.144311048379488327e-01,5.377090469916316895e-01,-2.010473354149771574e-01,-2.867842753706651426e-01,-3.270968110153588126e-01,-8.760120297189566418e-01,4.016150741763099830e-01,-1.675343229911334690e-03,3.453017775305826098e-01,-3.107992235829441507e-01,-3.979867681543498570e-01,-9.934423176979784165e-02,-5.359374154586601380e-01,3.398012087096946021e-01,-5.572195911016517567e-01,4.165086752294240580e-02,-5.315159697721797416e-01,-7.092689368431296382e-01,4.183480463149178430e-01,-1.049983041241514398e-01,1.716165706745541031e-01,3.096687135911611044e-01,2.142714792298557602e-01,2.416132737303635092e-01,-6.771021229251385221e-02,4.079468737483925023e-01,-6.848883158128667159e-02,8.401745168990172596e-02,3.235161743553515712e-01,6.452954081764463723e-01,-5.141260496167535665e-01,-2.189918333362574354e-01,-1.821108576873576024e-01,-3.872233524416209272e-01,-1.415901085822407202e-01,-5.939172816857748449e-01,-7.042747839038467073e-02,3.774676417974459075e-01,-3.914338522892332750e-02,-6.274242510378298388e-01,2.965664877731970517e-01\n1.077611953726352462e-01,9.003929514460580485e-02,-4.057901247708975978e-01,-3.301476317828447998e-02,3.589302402530912262e-01,7.050317028672975495e-02,5.127204785758840977e-01,-1.653321808253885306e-01,3.513960756945495589e-01,3.470951686884271581e-01,2.157960236043418856e-01,6.883692657453309716e-01,-3.428044041814293230e-01,2.482675917706887170e-01,3.986718069689668131e-01,-3.659251893129920608e-01,-1.289955290810294586e-01,9.114434225174736226e-02,5.929187430084374988e-01,-6.524330334061240189e-01,5.443486565651398656e-01,-4.991255947777022417e-01,4.951672916985866424e-01,7.009241653571727237e-01,2.821184001406464303e-01,9.063432193158424965e-01,-8.473927468295020526e-01,2.406313262748714377e-01,-3.287888728396355931e-01,7.002179056523296641e-01,1.341953764111535885e-01,-3.325080677249555583e-01,3.619783315256432377e-01,-6.623799105688955580e-01,-4.377291073118552700e-01,-4.226795060779023339e-01,-5.333365328355721413e-01,-6.815044223868256257e-01,3.352143194533610537e-01,-2.237031794245375182e-01,5.450888763844193852e-01,-3.446566489889315438e-02,-3.093176079493539232e-01,-7.122508885036828996e-01,5.561261427301898014e-02,-6.221149267202893962e-02,-1.112730650101783070e-01,1.036615349648860734e-01,-4.710878780330364501e-02,2.487857830569502327e-01,3.369166336604207390e-01,1.875085000554380932e-01,1.729269777592867818e-01,-7.360542205941358884e-02,9.423904229756462081e-02,5.464152677223907961e-01,3.587151344179554946e-01,8.140160089366242635e-02,-4.535675928869425388e-01,-4.518473755215348109e-01,-1.105939641966045654e-02,7.586519013540189427e-01,1.781339832959966674e-01,2.366757547392139560e-01,4.878614759059764910e-02,-3.461991690298295565e-01,6.270267684132727615e-01,-3.791380088925559999e-01,1.336986780806912190e-01,-8.509999509986022892e-02,5.693095998860080165e-02,-1.126009929040111268e-01,1.778679528572900534e-03,-9.785467479116174636e-03,2.376919479641906030e-01,-9.976477697985176862e-02,8.584107753079817105e-01,-1.958276341430670031e-01,-1.507830506249352442e-01,-2.646451003671704272e-01,-6.017123843826238661e-01,-3.370750543570668056e-01,-3.424597904911358959e-01,-4.277092837037916873e-01,1.163630911618595276e-01,6.644225919681513715e-02,1.620103171004083076e-01,-1.265845892122038630e-01,-3.080767193507906732e-01,-3.121298239477449665e-01,-1.139607305886200517e-01,-5.517910614846270878e-01,2.225536923400315559e-01,-5.427387507578041760e-03,3.352473942420831909e-02,-6.014421188086512826e-01,-3.298188570655932739e-01,-2.701247188429733437e-01,2.761339493060059880e-01,3.115585105483912320e-01\n1.039751975210931045e-01,6.578097390638341091e-01,2.524979100599662740e-02,1.047980019707097782e-01,9.626456438351706224e-02,3.852162978931917281e-01,-2.702549692938404635e-01,6.111198102021611067e-01,-3.722088884512844698e-01,6.837194181191581510e-01,-4.462524762351522956e-01,-3.323900901933478647e-01,1.190241055384107099e-01,-9.529388216492937214e-02,-1.946331602098316516e-01,3.877979446201723079e-01,-2.408512121983109877e-01,-3.249254265991014523e-01,2.459268576179648447e-01,-2.124881209413357064e-01,6.585209439498683759e-01,-2.153997684069348106e-01,-1.727614926016162178e-01,-1.012921859234421074e-01,3.964288869952259931e-01,-2.237503611306762841e-01,6.742721286618063026e-01,1.029538432783192736e-01,1.052451962931513496e-01,4.831469599457142161e-01,-1.217442931920629384e-01,3.516644116280000509e-01,2.323283553872761142e-01,-6.388336966021836982e-01,-2.184929801520749115e-01,4.011367894791426636e-01,-4.545484738519624257e-02,-2.227469481784072891e-01,4.197083327030373678e-01,-1.373055978590099202e-01,2.562299422070767330e-01,-6.390452903083958767e-03,4.398903194132530031e-02,-5.281013127839748744e-01,-1.274253291353434903e-01,4.937503689161214515e-01,-7.463741163887932517e-02,4.667003689071587691e-01,3.040897995905554319e-01,-2.235512135518218646e-01,3.566147483371818194e-01,-1.116625932183473030e-01,-1.943348792881471054e-01,-4.529258347211955749e-01,-7.443526482392053001e-02,1.956736178875104551e-02,-4.643130103179226587e-01,-7.156567588529134938e-02,6.485073207413266649e-01,3.052136052800468180e-01,2.476341282110963438e-01,-8.182708644927946251e-01,-5.428312194818261105e-01,2.309973609632586522e-01,2.092427041087510931e-01,-2.360046033654338293e-01,-4.008534987781725567e-01,-4.672690788094974873e-02,-5.779889152123096618e-02,-9.273655814957762478e-02,-2.837079238163370265e-01,-8.872008517002318018e-02,-2.228510826332931183e-01,-8.250226009499435353e-02,-3.099900228011315817e-01,1.291829940586335579e-03,-8.385624596864357794e-02,6.361397402177300375e-02,-1.811129110863342884e-01,6.054256456492874694e-01,-6.073464532682847777e-02,-1.093863554915548014e-01,-2.093509320904672621e-02,-9.943850656015823519e-02,1.699953997270510844e-02,-2.765280331050468110e-01,5.034303936377678701e-01,-1.897045231974740093e-02,-5.291825434308269349e-01,6.292885555982504764e-01,1.031181580972217793e+00,2.167735273858275857e-01,-1.617244595362446469e-01,-8.204092660341223697e-02,-4.650947071393983223e-01,-7.055308327070518304e-02,5.345103719363757389e-01,2.610600727307523794e-01,-8.415663167677277512e-01,-3.950516697216730488e-01\n"}