{"weights": "3.197769756566975485e-01,3.524898029367558028e-01,-6.107055257167478407e-02,-3.882426147682956907e-01,2.591812376937585594e-01,-9.042939203802598247e-02,3.272570275213572133e-01,4.415412985156982884e-01,3.092591498432844047e-02,-6.930915490016102964e-01,6.348077584006819318e-01,5.310474112571488270e-01,4.582284971895840830e-01,-5.006815015849574307e-02,-2.134164107253549436e-01,1.129300971452682455e-02,-1.198598641374086643e-01,4.487492053713424411e-01,2.093749317708382476e-02,-2.665016148265165197e-01,-4.303015749312880112e-01,1.611753401499769200e-01,3.251084788118576707e-01,-9.877821744478504362e-02,2.700803186443833659e-01,2.218958847881943308e-01,1.385357655113883535e-01,2.887356174379886453e-01,-5.364633407035829249e-01,-7.392413790882715330e-02,-9.718798480185600330e-02,4.899324559074320629e-01,-3.805178580400813693e-01,3.159118090786365851e-01,1.409607288998712986e-03,-3.284950891170202447e-01,-2.075348040567660812e-01,2.365858332147754151e-01,-7.675105844938897581e-01,1.693226923685577923e-01,2.321182186095555738e-02,5.419594004231056417e-01,2.248419935461432595e-01,-4.367409198904667611e-01,-4.557354091659001072e-01,3.897026513870165132e-02,4.825460821330799233e-01,-3.230500027500490257e-01,-1.186615901937921116e-02,2.839818221633982551e-02,-2.108483674133764252e-01,-6.420698215483338078e-01,3.498545753240304805e-03,1.017564947640205719e-01,-6.458423065576666122e-01,1.325587421537979902e-03,1.905495391069130795e-01,3.904728319849736229e-01,2.780694022769386597e-02,7.979843178333256848e-02,-1.043688438390751039e-01,-2.619256955688731292e-01,8.877300010390751228e-02,2.089376812544355977e-01,7.050721049592554301e-01,-5.908064349546158223e-01,2.075386851035335156e-01,-5.491989793472579207e-01,-4.935900650526066080e-01,3.575185179646906963e-01,1.218318612385337063e-01,-4.227638273896513477e-01,-3.864388008955801923e-01,2.156633486247693521e-01,-7.852974792192369408e-03,2.092478558698692981e-01,-2.993768750634984155e-01,-1.290242050727440637e-01,5.803612641674341655e-01,2.457078314432165900e-01,1.835716048078926410e-01,3.628992153482054062e-01,-3.355476181376563782e-01,-2.551474809446022118e-01,-4.734637582673766748e-02,3.087264557905808338e-01,1.532035062114730506e-01,-1.298988403002837300e-01,-8.316866260497646213e-01,-7.031014854834886398e-03,-3.711773127618341328e-01,-4.592529452403994183e-02,-3.467843347908410312e-01,3.641957878726546083e-01,-7.223852633169874915e-01,2.657193355543516766e-01,-4.698225411301663601e-01,-3.127703635056395814e-01,-4.667864931285790608e-01,6.726735074497176836e-02\n2.429894740899970207e-01,-5.214618606498360176e-01,-3.137267644577730885e-01,2.081012429654994778e-01,-2.517720353933154964e-01,-1.361352199214077878e-03,4.549346168746750130e-01,7.117173071490655312e-02,2.375463646477103397e-01,6.372607586657231815e-01,-4.935801005923687312e-01,2.883158715943069939e-01,-6.865798502261487302e-02,1.877763306546024746e-01,-2.859656232554554367e-01,3.906922089814980348e-01,-4.353386943697609146e-01,-1.092321745451667603e-01,-4.982268998531204640e-01,1.251612665439835737e-01,-3.458940832519592501e-01,8.699150771743737742e-01,-3.648672068855571271e-01,3.443080532544661176e-01,7.044905178243535127e-02,2.554494594123065676e-01,-6.460722368874207699e-01,4.066510233260732243e-01,-5.947416423201880992e-02,3.726337385678491487e-01,-4.382303994839420458e-01,-3.413435421689357541e-01,-3.260553475626756237e-01,4.052098851573856519e-01,-8.395049295105042608e-01,1.404029881225642706e-01,1.865301671289826824e-01,6.028860306201058172e-01,-3.722579427468786784e-01,3.861073714488650332e-01,-1.011519908249615823e-01,1.430559190027633210e-01,6.963661336400381319e-02,1.846045473033552098e-01,9.138792919452867758e-02,-3.819304457023625088e-01,-7.293508345494733591e-01,-9.949976683378400008e-04,-3.275224776384889069e-01,-7.979644756759713964e-01,5.082553629414358065e-01,-5.498067955811344332e-01,3.786089250582429511e-01,-6.445000831188703039e-01,-2.045807122939294342e-01,-6.102463011055075243e-02,-2.632460164594219425e-03,4.189940349999821817e-02,-9.951316402412291318e-01,5.266577976929159854e-01,1.957983871164528378e-01,5.758605804458780675e-01,-1.640749267854947346e-01,-1.836642969857786301e-01,-2.890099665964610334e-02,4.920699058791376812e-01,-3.104978880904517569e-01,1.317084696020860979e-01,4.452094196282956329e-01,-4.259661065621824783e-01,-1.896654566852607471e-01,7.380417261879358426e-01,1.966865169973264216e-01,-1.503695612332598686e-01,-3.900842502512006371e-01,-4.787445295796766143e-01,1.725311578165830972e-01,3.686659076025470272e-01,-7.804855815422823140e-02,-3.593647131055233146e-02,-2.665286865138289385e-01,3.197332813371603355e-01,2.142691110873969074e-01,2.998910068355842284e-02,5.407993634999670451e-01,-2.277908055315460700e-01,5.023070812522879569e-01,1.014725717841479663e-01,-1.385392270896307065e-01,1.921814498591662979e-01,3.102032697861575872e-01,2.025467638520600522e-01,3.152532435536082311e-01,4.019059458691082720e-01,-5.533610237986297253e-01,2.998359857773550963e-01,-7.146567296354690013e-01,-6.084716091683991523e-01,9.421014874541867867e-02,5.864594138592290617e-01\n5.654997901378311376e-01,8.810046103863125588e-02,-5.619817085691928421e-02,2.281404023409778770e-01,2.964557040822627387e-01,6.423064303364356409e-01,-7.304702128470021150e-02,2.949656490822417099e-01,6.792049231896667150e-02,-5.281657036526073989e-01,1.611120803523305722e-01,5.651641802294974370e-01,2.663664429993350957e-01,-2.176423757688020211e-01,1.108059020138821155e-01,2.200298834064702558e-01,3.873139377720343779e-01,-5.955880745483996819e-01,-2.698062569087359974e-01,-4.585685790718450061e-01,1.002590187480508904e-01,4.545837594728984743e-01,1.722686831812203778e-01,4.092937976027898883e-01,-5.276556201929229195e-02,3.132300526454541156e-01,-1.020277835611084483e-01,2.085173158496048118e-02,-4.780903725995778175e-01,2.373164483146009973e-01,-6.849315970585951874e-01,-5.568736311925921029e-02,-1.229812179647131187e-01,6.114475984133079661e-02,-7.136267799247507371e-02,4.551915688069945592e-02,1.370306932731882588e-01,-7.329286408633889360e-01,1.390441709896735878e-01,-6.109362848543076208e-02,3.048931798100528723e-01,-6.705788870680050584e-01,-1.303220607911850515e-01,1.677414006116623446e-01,1.509983414019195891e-01,2.403268461590855332e-01,-4.814506780682055176e-01,3.828643255593376926e-01,3.790450272586771974e-02,-4.905700290372208561e-02,2.761480100970181151e-01,-2.143090363936879794e-01,2.849175835591823414e-01,2.581340741695084540e-01,-3.513298882132270262e-01,-2.399619165532003093e-02,1.463637405817039550e-01,-1.903482284288326651e-02,1.801210939227106955e-01,-7.642080644638135078e-01,-6.166619572129595772e-01,-7.489194834697596170e-02,-3.322174103542164803e-01,-1.164033907370999321e-01,4.195781483687835989e-01,-3.571906473771831875e-02,2.620697697552570871e-01,4.796129757222588053e-01,-7.255827624748383275e-01,5.705747333376166852e-02,-2.529774393700126023e-01,-1.605936423546747982e-01,2.737338796688960074e-01,3.616493557589336438e-01,2.672570524706888717e-01,4.663593215595366465e-02,1.874389654640629399e-01,-3.482548566029741721e-01,1.823559870890808787e-01,7.056815430745652096e-01,-2.131391853348372778e-01,-4.891970410741993125e-01,-7.148556880518490697e-01,6.137041569402313518e-02,3.187372986241105433e-01,1.708040333130181054e-01,4.053418078304767136e-02,4.245452971351906801e-01,1.620816148806064338e-01,1.140832355061676502e-03,-3.286332407425049396e-02,1.789724878632740490e-01,-1.402388657045844367e-01,2.704105232634195222e-01,1.135496798602104035e-01,3.478558563781417035e-02,9.659919740432251767e-02,-3.302463825723198770e-02,2.922501077012027437e-01,-4.084065572038375058e-01\n5.816057370333648224e-01,1.034904779829173838e-01,-2.772940444557879802e-01,-6.359850973506646632e-01,-5.012849475881153705e-01,1.537570083537617704e-01,3.041596292707081095e-01,7.575981167583584197e-02,-3.708740033707582651e-01,3.570128705745220787e-01,5.688160194406969294e-01,3.007485960229209776e-01,-2.627305698025968472e-01,2.536908558719594073e-03,-1.080183678772584782e-01,-1.774768750557934593e-01,6.469823701154513163e-02,7.258397987940105878e-02,4.197645114623865248e-01,-1.156473386103124973e-01,-2.064747095722460624e-01,2.872745636654877033e-01,4.310150689495463767e-03,-2.140591918059114307e-01,1.239102679709355309e-01,2.461560186135605399e-01,1.922985409516402566e-01,1.804801290387302304e-01,2.355652500190102416e-01,2.474804958710871139e-01,2.604296048704692890e-01,3.968167475538965094e-01,5.263445600247937950e-01,-4.115271312280239235e-01,1.150586696377030871e-01,6.166632229281587135e-02,4.356904591687165568e-02,-1.872431035414389155e-01,4.413207468190580851e-01,1.063461466216838874e-01,5.177963255058177783e-01,-5.462961224598192889e-01,1.662080015914789155e-01,5.745277821352452741e-02,2.001321693623795694e-01,8.621513009281812218e-03,-5.693726256074344017e-01,-2.917542296074607244e-01,-2.590462042908678320e-01,-5.067516262670105354e-01,8.067257617352624477e-01,3.301015322898452620e-02,1.190893721458035071e-01,-2.676287318719439701e-01,3.925176437734796964e-01,-4.553457629551403429e-01,-8.463123936013886572e-01,5.374428969982587567e-01,-4.167432959234240730e-01,-1.309991186633895355e-01,-6.673526266758456407e-03,-2.522416046640297838e-01,2.738376254108129682e-01,-3.506911376622782184e-01,-7.745641663320702586e-01,1.535384446540881409e-01,-3.551004302622967623e-01,-2.028997107310900327e-01,8.878775545368731981e-02,3.114075353906888832e-01,-1.783768632970854917e-01,-6.388147241748354244e-01,2.857419746051639842e-01,5.745409554003902963e-01,1.856063997503888952e-01,1.202457324196887362e-01,1.368719951490681985e-01,2.170934738324646618e-01,-3.668686983177349425e-01,-2.379270114246845313e-01,3.455766510566760652e-01,6.567804570343452886e-01,5.836307921286203182e-02,5.751890559298284966e-01,-3.615679529826379413e-01,-8.693955692449395478e-02,-2.326900723126126280e-01,1.507525457080796105e-01,2.154979231474992915e-02,4.275724056866826717e-02,-5.135160079130731692e-01,-2.066422348998590841e-01,-3.072336408298540489e-01,1.220861956620265809e-01,3.258064105033995905e-01,-2.079968832472086915e-01,4.178568365703792531e-01,3.018870470439595222e-01,1.814812136776223772e-01,-6.771724057582024781e-01\n-1.218412794737855076e-01,1.241231532324397202e-01,6.942526621406104326e-01,-7.545067311028726131e-02,6.655624323501529993e-01,-5.923143451753639654e-01,4.338804007161625176e-01,2.105176469120971783e-01,4.309054047946825339e-01,4.239644808517807895e-01,-4.210224786778678507e-01,-2.039836605417903181e-01,-1.177704937395532836e-01,-5.056289082668060653e-01,-2.116044674363880274e-02,1.777474601254265818e-01,3.539903439576474464e-01,-1.505730822194740470e-01,8.155764153895350699e-02,4.494090360829749442e-01,-2.756306141314982527e-01,-3.297626697114404148e-01,-1.048987618637709299e-02,4.971337719042900338e-01,-8.901682120113709740e-01,-5.843159056867154311e-01,-4.104489860688267377e-01,3.023930762522913929e-01,-5.579031416251517550e-01,1.228640996629372928e-01,-1.417361141277062864e-01,-3.417346684176011951e-01,9.033621285812355739e-02,-5.906787221716681691e-01,4.790134018719720554e-01,-4.493609371811705944e-01,-2.267917523378427391e-01,-3.371589212299291871e-01,1.933891330374834794e-01,-4.033735015369313004e-01,-4.891746309984204011e-01,1.186081612230455024e-01,1.801702631356282003e-02,2.282697626061789553e-01,-2.146749963965806918e-01,-1.627311252242179818e-01,1.051568940557068427e-01,2.708643773657739423e-02,2.489343535816471165e-01,-8.482048021002869254e-02,3.261653593883656055e-01,2.401688223208893747e-01,-5.977487896157689384e-01,-6.336792289797277267e-01,1.581107814325253269e-01,3.578336706157351776e-01,-5.415874737953932927e-01,-3.333202314945677980e-01,1.945171113558400167e-01,3.410851723923392087e-01,-1.676108296784239657e-02,-1.141249289893899177e-01,-2.411790156507633009e-01,-3.680452019053505608e-01,-2.299953750978053213e-01,-2.265167799600025789e-01,-2.328059080665230984e-01,5.416139847299470400e-01,4.389675806856873641e-01,-6.008704578238351912e-01,5.144294708489219759e-04,1.827888464214023068e-01,-4.630838709575005874e-01,1.948448363039319564e-01,8.113337211700956120e-01,5.024719143341326022e-02,4.350041294916296430e-01,-1.565342139138779232e-01,1.370434015559176232e-02,2.001592626911429251e-01,7.126499826860130393e-02,-1.176643925290914439e-01,1.377857572258219254e-01,5.887441246283299234e-01,8.667282722006020013e-02,7.300225720245455407e-02,1.061319122595976855e-01,3.883759171503077257e-01,3.754568627295835070e-01,-4.319757553873948552e-01,1.575439923619858795e-01,-4.798208360437473674e-01,1.900629955398880910e-01,8.908192861689066822e-02,-9.299421127152544819e-02,6.148588307854969265e-02,4.711151062467638373e-01,1.585939959433884383e-01,-5.597679871472660551e-01,7.051549610179085048e-02\n5.916889842331021221e-01,2.785894420351752720e-01,-1.088407577424160694e-01,9.679957216186949043e-02,8.055326109328905804e-02,2.495428659119217907e-01,1.350368897235951215e-01,-4.710944540704308237e-01,-7.992175482966945577e-01,7.256992904856555959e-02,-5.545748888631008705e-02,2.028970962744414130e-01,-2.905328178117660975e-01,2.321991778873458145e-01,2.930967126063425687e-01,-2.074005376696411163e-01,-4.022865178708799894e-01,6.564037346127804540e-02,-2.298569949245947985e-01,5.211598666765965282e-01,6.411546546183047868e-01,-1.899631050651139075e-01,-2.991375645259817806e-01,6.028884837739405603e-03,3.697437434073228002e-02,3.466276249135322729e-01,-7.651748458421097077e-01,-7.035850892677987245e-01,-9.915549213355928648e-02,-1.809866539921494988e-01,-1.278922245274262404e-01,2.841233433908523232e-01,2.196693716035625354e-01,9.920078358547672337e-02,-7.123376414800194345e-01,2.760350113208754341e-01,-8.875089030396191014e-02,-8.246245300925737487e-01,8.404185451001237872e-02,1.728366108563126613e-01,-6.131486611102628936e-01,-7.578717007953617024e-02,1.749289286840295388e-01,1.614211991606344376e-01,2.834323601492627631e-01,3.273426333859543180e-01,5.696050188636451184e-01,-6.131274586874714272e-01,-6.258728185716493364e-01,1.260839885963032647e-01,-2.519670158985573005e-01,1.967433030182376419e-01,-7.908501796582458887e-01,-1.261899465400306286e-01,1.800750753438950524e-01,-2.784554036668715482e-01,-5.470730195579726757e-02,7.814939939574403471e-01,-6.318219565021046535e-02,4.270081011910862312e-01,-4.043518347529875268e-01,-1.326150931197023208e-01,2.197756233462622444e-01,8.432858511989711758e-02,3.195243017562496984e-02,-2.584809923386556796e-01,-8.301896798915145426e-02,-6.729715586802155203e-01,-2.321783115655680907e-01,3.266447520431077223e-01,4.564860046688156703e-01,2.673917194541116094e-01,5.200555349005473449e-01,3.329873454812496414e-01,1.384389575352698021e-01,5.856582973135318060e-01,9.914934358592883412e-02,3.922552382671901094e-01,-1.019145003254137427e-01,-8.091166843199761038e-02,-2.149577093971873076e-01,3.168878567705857296e-01,1.165448450346354137e-01,-1.916543558300836114e-01,-8.057428211715489397e-02,-3.997564888011919670e-01,3.056006689861539005e-01,4.150158821616722893e-02,-1.338626486506058755e-01,-1.779379112396119733e-01,-3.605357129306424602e-01,4.144002783543977442e-01,7.406679664611877378e-02,-4.996682814187709126e-02,1.818139610018764951e-01,6.694670093965811308e-02,2.421152497009214921e-01,-2.211565532303146411e-02,-2.169027590622747970e-01,-5.610451708193918419e-02\n4.209740684718640824e-01,6.986805712597743412e-02,3.744885853997671488e-01,-1.689380239724462204e-02,-1.796018063474858761e-01,1.505062008251956129e-01,-3.124617728532061989e-01,-1.151701475860761048e-01,2.536869500145001038e-02,6.280803773135396582e-03,1.940356725279228645e-01,-7.995105972036847808e-02,-6.214464553913998657e-01,2.715933312588191817e-01,-2.126963897044644169e-01,-2.815774057960790944e-01,-1.407701659444306197e-01,-4.989882362936600702e-01,2.034019185361825577e-01,-5.169884904461302666e-01,-5.288499003579829605e-01,-3.664994077915405546e-01,1.930287259506683339e-01,2.705209744197604738e-01,3.673349526206767801e-01,-4.980355372592177865e-01,-1.211119279616704458e-01,1.309626329618544249e-01,4.428143291790610503e-01,-1.127026662914936972e-01,-4.880081333288570633e-01,1.651693728190594124e-01,-6.388774487952564307e-01,1.976431848314258444e-01,2.076709287976390497e-02,-8.557796170428761950e-01,2.788284557990600154e-01,3.762533061824577252e-01,-4.056736566902732766e-01,5.412788813992477355e-01,-5.401082698919952296e-01,5.693927871628366999e-01,-1.419999276301567581e-01,-5.373198739038427263e-01,9.200191387344756888e-02,2.225709697082994265e-01,2.327206995942157353e-01,-1.441457824100678131e-01,-1.769122809156963294e-01,3.191618311695337828e-01,4.691128101222544755e-01,2.303042130351931061e-01,-6.913836156487094264e-01,2.698729466800200427e-01,3.171072889977884501e-01,-2.946566044338460033e-01,2.290653881374967171e-01,-5.783710462639255478e-01,-1.966186921714622171e-01,2.298725910528766903e-01,-1.109518253578248154e-01,5.435430152145335342e-02,-7.336627033873203141e-01,5.797090758823331830e-02,-2.890149827431409690e-01,-1.067257251429490628e-01,-1.197832191723266604e+00,5.554709311322805210e-01,2.439257896765487932e-01,-1.008378578646264012e-01,-1.694024364183874531e-01,-6.394881272284963503e-01,2.701671772546013206e-01,-4.235059859774040758e-01,6.393820570910505596e-01,1.822134845766262834e-01,1.950250318872466249e-01,-5.959955576333916816e-02,1.244410218423509379e-01,3.761464532256738602e-01,1.318184303784282474e-01,-5.223703375068004806e-02,4.439571427115825836e-02,-4.091610491560248031e-01,4.333577683134033354e-01,-5.786753491227374369e-01,-3.281101964268834381e-01,5.353445372456232532e-01,-8.511874739879267127e-01,-4.425975104325036158e-01,1.572635699226080930e-01,3.947183057082093716e-01,-7.448970818583490472e-02,-3.744120491946196227e-01,7.085702357077314217e-02,-7.426477770805722800e-01,-1.360406105816611699e-01,2.438623475627427206e-02,7.782865434880531508e-01,1.086340318600798049e-01\n2.588514267633406640e-01,1.123964406919282510e-01,-3.636000881466256440e-01,-2.333219385368479892e-01,6.596555761904643322e-01,-4.174565230644846081e-01,3.547945439396614775e-01,-4.862343452744267297e-02,3.742834340920016267e-02,-7.813908410057250897e-01,1.815319297630605955e-01,-1.751139811964786686e-01,6.825819497754491427e-02,-4.335175110339883342e-01,-3.676576064145250511e-01,3.784418089564792892e-02,-4.308621254003345419e-02,2.277174930193740510e-01,2.945531765785964207e-01,1.690399448647149638e-01,-4.004181606694245943e-02,5.641491988970900318e-01,-5.964374738403220855e-01,-4.837236065182198841e-01,1.879983913514871319e-01,-2.749929871053967689e-01,5.731880155386965409e-02,-4.781109154679369921e-01,3.223108991326817385e-01,4.442649173214436309e-01,2.765224295285096390e-01,-5.279817849639332206e-01,4.758476756390650486e-01,-2.345285850768343561e-01,6.475925234175559930e-02,5.232632837670626869e-02,-9.227801361464046392e-01,-1.875036660276699074e-01,-1.628356486112106094e-01,-2.236263769817551372e-01,4.093402435560705016e-02,1.536376145583735475e-01,2.129265081297235518e-01,-1.257778054495503617e-01,5.969485327722675594e-01,6.167642874537981185e-02,-2.531886242274770105e-01,2.260063969770756964e-01,1.272642813059617073e-01,3.999099385534963247e-01,-2.287257614275075013e-01,-6.006544956920688572e-01,4.618643679512143274e-01,-1.555209941179072908e-01,-3.124942426849619537e-01,-2.734980684294189834e-01,3.275377792485544282e-01,3.450760028600993179e-01,-7.218373755742054643e-01,2.173265285003194713e-01,-8.074559830985874598e-01,2.364391009222664430e-01,-1.238726152592746627e-01,4.550381800130467308e-02,-4.623076182660861289e-01,-3.909416898406985474e-01,-2.069062293568325606e-01,1.881816188568804782e-01,3.187491950386358019e-01,2.113553305807488458e-01,1.585772396224741920e-01,1.050415010249563796e-01,-4.433829303036723735e-01,-4.162979311590692122e-01,3.016688933219727753e-01,-1.233846770749591204e-01,-8.966989477195412561e-02,3.084044809692070843e-01,2.640275741269315635e-01,-6.922742667438453422e-03,-3.825600075611388373e-01,-4.914853886039360908e-01,-9.647731071843942963e-02,6.709554927121282875e-01,3.008287620818373975e-01,-8.627578453295604854e-02,2.958302343345200480e-01,6.435299513826331363e-02,1.074987279095688392e-01,-4.200890575819785089e-01,2.434996241276362883e-01,-1.732259842011908968e-01,3.620177367879344743e-01,-1.747300662531720283e-01,-3.495429256239159232e-01,5.341996054081792067e-02,2.187351099413005484e-01,4.806601763933536775e-01,4.454186202116884319e-01,1.544064279943486995e-01\n4.027529595419349073e-01,-4.804418307888924100e-01,5.027925469731632235e-01,3.706005437230919797e-01,1.034071781710582810e-01,2.663304555912469618e-01,4.090994770176202833e-01,6.911768978299465127e-02,-6.318973172327886356e-01,-4.321135726286726153e-01,9.946468576852852961e-02,3.185503765940400633e-02,-1.131377102634862492e-01,8.830726769955417332e-02,2.189472007560752387e-01,3.180852711758841433e-01,3.088234597262479730e-01,1.375442569013505534e-01,-2.484958852846307631e-01,1.838421262346221496e-01,-2.394791803045158984e-01,-1.830334249234918942e-01,-3.588011541137497290e-02,-4.875688334672689112e-02,-6.777753645607370592e-01,5.201743755185530560e-01,2.525293529298051620e-01,-2.163848092922887045e-01,1.300105424197629811e-01,-2.997386455564659546e-01,3.761766777046794408e-01,3.546042469520649942e-01,-1.817551921243473478e-01,-1.328937328725039169e-01,1.571346110630865434e-01,2.739236840644352911e-01,3.463266139727604748e-02,-2.626407725580721664e-01,-8.444426014636244315e-02,4.714650699119998234e-01,3.090915908950641611e-01,-1.204036692342074916e-01,4.277316599935990227e-01,-5.400260833020829043e-01,2.115727776746049449e-01,-1.920247425156340892e-01,4.924430031086807769e-01,7.794165200451432796e-01,-1.552594586975283852e-01,-2.880423965599160363e-01,4.768259666435119004e-01,4.595107048723526266e-02,-6.022931587418881710e-02,-1.555240646744663335e-01,-3.425354909934706371e-01,1.647475412402436556e-01,2.885096849336733493e-01,5.725910540643815161e-02,5.306049089723433726e-02,-6.685670024402362577e-01,-2.966945230069954476e-01,-5.047409299418584849e-01,-5.505562089968000228e-01,-6.270255658725837344e-02,-3.688996551384748912e-01,-3.494832662339074636e-01,-7.497105832127147484e-02,2.295170562710248663e-01,-1.770369572701454008e-01,-3.248232594385886407e-01,4.512728889635532203e-01,2.266831209913048803e-02,7.508535606009375529e-02,-1.485016791281662529e-01,2.283415066116240011e-01,1.288428706818436631e-01,-6.517797083285058468e-01,1.749384473943174090e-01,-4.097899448399305311e-01,-3.046875185204627190e-01,-4.540907653207920114e-01,2.691747070970730293e-01,5.829708499837953084e-02,-8.383672975252211279e-02,-5.979198184560984286e-01,4.580224600429438214e-02,1.752694407885076466e-01,3.013410825136436655e-01,1.609582060312503837e-01,-7.912528854405872503e-01,-1.559538843248627071e-02,2.649783016871191665e-01,4.968013781909163540e-01,2.580739435406930182e-01,3.651519852841688674e-01,-2.347858656567804007e-03,5.137030930915231774e-02,-6.421128488741882634e-02,-4.325620216310952643e-02,-4.870479921898008269e-01\n-4.793336042940837816e-01,-8.457468724724743758e-01,2.104118839658172813e-01,-4.255881594447780136e-02,3.932514282396113448e-01,-5.287524622015655762e-01,5.133997264275282912e-01,-9.903202625564698491e-02,-8.116115055435675629e-02,1.106932536257876493e-01,2.982437889516593721e-01,-8.074690269133144582e-02,-3.779829765627673033e-01,-2.534218706270496835e-01,2.381140712998812692e-01,-6.167574546813933134e-01,2.048164304176951778e-01,-5.338243303742392504e-02,3.982330399389113866e-03,4.002687664622329167e-01,-1.974953278499805009e-01,8.497481307799718830e-02,4.589927324134378539e-01,4.504973070754809683e-01,3.446047969935644301e-02,5.079795865693562812e-02,1.178521479455421211e-01,-1.292548407688222378e-01,-4.267486358416629905e-02,2.220778724310903951e-01,3.464936984705031531e-01,2.118203072999878533e-01,3.698645364227938770e-01,-6.332351249868165555e-01,2.666217646084820814e-01,1.317523360559088030e-01,-5.355166296836866291e-01,-5.391696048075261816e-01,2.773333071117085602e-01,-2.795975466635526874e-01,4.280076030274525961e-02,5.259453437421800909e-02,-1.135173550525722802e-01,8.090437552939280796e-02,-7.183111650949045579e-01,2.232290233149860914e-01,3.055032817524596170e-02,-2.415338136333266827e-01,-3.489619670077848679e-01,-3.192953074430121552e-01,4.938110341219963395e-01,4.699709967276325395e-01,2.403629138115947472e-01,2.521787816768404356e-01,-1.165266370723836153e-01,3.718663587522277325e-01,-2.441127793280356562e-01,1.439016962170625302e-01,-3.766820147395406049e-01,3.871476014072533500e-01,3.098810725025452628e-01,-6.492837792085246473e-01,-3.240697801647932641e-01,3.438846267438832038e-01,-4.844590936597805153e-01,-2.598473931815497018e-01,1.845339003584747506e-01,5.671857667343394027e-01,5.482778669885578909e-02,-6.538663702026635827e-01,2.850147265002940244e-01,3.868677626088291854e-02,1.279518679737088604e-01,-2.010580467896725954e-01,-3.743923383049768128e-01,1.167100424430951439e-01,8.029254572844830851e-02,3.821187300587008395e-01,-2.492442372460621641e-02,3.036950319795831965e-01,-3.295114612682485400e-01,1.697148001636369086e-01,-2.314503780413015299e-01,-1.578342270006727610e-01,-1.618825932771319198e-01,2.226442415243067019e-02,3.640759331779654939e-01,1.060183588095198470e-01,2.950241461415205602e-01,1.162092844460785833e-02,3.690406208955009371e-01,-4.711948197852051101e-01,-4.486625549137948088e-01,-2.339154485708061504e-01,2.615087425618163319e-01,-3.122811974834687754e-01,-7.758259148086706081e-02,2.487208167826031047e-01,-1.033779399062644933e+00,1.919428626919806036e-01\n"}