{"weights": "2.769708310872443846e+00,-1.171357560813861998e+00,-1.024041969131330054e+00,-1.984230978736891693e+00,1.432102109811959734e+00\n-4.149550841005324564e+00,2.982026920303413764e+00,-1.434759799819266268e+00,4.691430881473469539e-01,-5.326624611955084188e-01\n2.483769454402474430e+00,-3.724093744544138662e+00,-6.614054217795429791e-01,-7.700391491610883987e-01,1.905082183103314009e+00\n-2.031681376157822516e+00,-3.970540755723390713e-01,-1.640354785386078040e+00,-1.875372754155004221e-02,9.340410036258263160e-01\n-2.032964296680182414e+00,1.924388768451094522e+00,1.495873780482613435e+00,7.924777430780047816e-01,1.494578766885657828e+00\n-1.085383800733709103e+00,-9.692340059333155733e-02,-1.529599918215612586e+00,-3.524780001594093881e-01,1.054403578213849224e+00\n-1.099365298541007174e+00,-5.795996908043681284e-01,-1.091455235057720019e+00,-1.369983805711505909e+00,-1.063385109050834387e+00\n9.734613560794122544e-02,-1.849560623592104269e+00,5.328181409127821233e-01,3.045021326160183950e+00,1.427498888622163120e+00\n-2.184375809360274978e-01,-1.444753706842106800e+00,-1.197178140093360765e+00,3.102570295905712427e+00,2.092143562232143539e-01\n-1.003019603328012987e+00,4.561502507503513715e-01,3.821307157093144280e+00,3.314438724335626030e-01,1.207470082258974120e+00\n5.480607884442757483e-01,-6.018112245741826793e-01,-1.994636748565024487e+00,-5.966875009515746342e-01,-3.491510281068495591e-01\n1.052925838009776571e+00,1.497703562849649561e+00,1.660060097795052148e+00,5.223586744759269873e-01,1.579055286928561896e+00\n-1.310585819134109986e+00,2.227163664142829180e+00,9.230433651121395799e-01,-5.063610301911410927e-01,8.800184832497296439e-01\n-1.141738726731797021e-01,2.013483779408533181e+00,2.697653097485152696e+00,3.871033703362947165e+00,-2.442266002240723655e+00\n-2.526190440558468975e+00,-8.700876302606279644e-01,3.010799145553000877e-01,1.563241963202680829e+00,5.753167548017463773e-01\n-3.636423089258047803e+00,-6.120267571961838238e-01,1.386930909173881510e+00,3.331845539284054580e-01,1.270672180404238460e+00\n-4.641979185718678735e-01,-4.261812763537433102e-01,2.564582709203258593e-01,6.503534998312539006e-01,2.771467426292889003e-01\n1.373984762043862218e-01,-1.254374113005498170e+00,5.930945677530259363e-01,1.423556482056271000e-01,1.918332425663511920e+00\n2.040707829198390222e+00,2.539820450236547345e-01,-7.337799474027962843e-01,-1.198095083503586400e+00,6.740458888585345587e-01\n6.395879192387148027e-02,-6.783832187890238563e-01,4.487340020672025108e-03,-1.165084759790092184e+00,1.157910752322781178e+00\n-7.878513604526852232e-01,2.158360086092276919e+00,7.113425939183998237e-01,1.046365323529242719e+00,-1.929550994486473936e+00\n2.987317628093478783e-01,1.305409746843936514e+00,-1.680670187803407378e+00,-4.690025201424580237e-01,5.768224763718229897e-02\n-2.419880241578313829e+00,5.556595125913139643e-01,1.491534143734653650e+00,-1.514672397910936219e+00,6.180273664455636640e-01\n-2.312662204783044295e+00,-6.799970060908099023e-02,-2.847552847804003306e+00,1.976666895149159275e+00,7.208756197497309115e-01\n-4.318665012450881996e-02,-1.366000301851855836e+00,2.245158684505871971e+00,3.467160997924091603e+00,-3.274440229376911482e+00\n2.274411082899814751e+00,2.964395312459191079e+00,6.914431041898821961e-01,-2.017968755461856389e+00,1.617328690372843436e+00\n-2.231598044814123161e-01,-9.686858642974325306e-01,-2.072235438068923408e+00,1.066013789376408338e+00,1.493006672851070693e+00\n-1.003248111896981820e+00,1.013208097781255645e+00,-1.921162107734565083e+00,1.508964383180724456e+00,1.777806301926339039e-01\n-2.331168345964402810e-01,-8.361712115117263255e-02,1.627094262550776271e+00,1.418286291059714044e+00,1.028874685391844901e+00\n3.384015609116794443e-01,2.328646169800606125e-01,1.185584737588154081e+00,5.054721464779250439e-01,1.298684557794977268e+00\n-5.304421379736569131e-01,-4.275202536548693644e+00,1.847028722853290006e+00,3.870619379421392559e+00,7.940221632138619867e-01\n-1.603908867379779113e-01,-2.243501184805911097e-01,-1.936997572517991373e-01,4.681345492596700186e-02,-1.961396274038168519e+00\n-8.952344280536358445e-01,-1.741101598434919850e+00,4.546313227011048452e-01,-5.066917384427361837e-01,8.889257605506299953e-01\n-2.917794897762307493e-01,1.754517621440358388e+00,3.924773034796000259e-01,3.877175918278898958e+00,-3.326152397981259501e+00\n-1.124042421745657272e+00,1.604974909338022560e+00,4.472232114802015879e+00,-4.220818666125205620e-01,9.309522743687487223e-02\n-3.848356138070386234e-01,2.360692154994314951e+00,-4.923351383834020378e-01,1.212640587855654539e+00,-5.496044241632649374e-01\n-2.228811851562578550e+00,5.666557625232181428e-01,9.008857527230793583e-01,2.293310697883430116e+00,-1.806229363532246002e-01\n-1.074046291943253850e+00,1.005887259720364746e+00,4.383290982775846500e-01,5.087010375835789855e-01,-1.148222530345071601e-01\n2.059100583863126666e+00,6.652572288421917390e-01,3.370943687164756675e+00,1.972242685189220746e+00,1.175593357718424992e+00\n-2.854277041318565633e+00,1.075607434899993109e+00,7.547722576106965509e-01,1.443316101018571773e+00,1.854836337917599165e+00\n"}