{"weights": "3.172159457165052432e-01,3.323287027689706963e-01,-1.792072856327281069e-02,-1.630884189138824270e-01,4.251956756840532536e-01,-6.138156592905567865e-02,3.861130386941007409e-01,6.218789623408788048e-01,-2.024840802435974585e-01,-7.332266031766746517e-01,5.983596152994326012e-01,4.951244190917025723e-01,4.816015441765951755e-01,-1.035471381007502523e-01,-1.797250709510714306e-01,9.679214980987509154e-02,-1.320098290203096381e-01,3.881104332974515958e-01,3.692894638039661420e-02,-8.457336661421911705e-02,-4.512586594372949289e-01,1.910778354157129932e-01,2.153145093985550929e-01,-5.697789160863023228e-02,2.781873185004800075e-01,2.566813249646893724e-01,5.362864781313788493e-02,1.729343474221802790e-01,-4.305883960955129708e-01,-7.011726618937418054e-02,-9.514683233765083847e-02,2.702765963061117827e-01,-4.460687853891575072e-01,3.534457306173364732e-01,8.266296533607660202e-02,-1.077081913873403352e-01,-3.540603834307884390e-01,2.705527089941447971e-01,-6.886294971114259589e-01,4.092037315629529770e-01,1.499580859545417977e-01,6.281369085430809074e-01,6.848663152413154986e-02,-2.429903314072039133e-01,-2.414230271491128177e-01,1.454563480550689902e-01,6.327748335020714210e-01,-2.518026260247271941e-01,-1.210270613336483503e-01,1.093003232274050163e-01,-2.242404027921787169e-01,-5.730062711047909652e-01,3.217322422409930275e-04,-3.056511787752941994e-02,-6.921913072502836606e-01,-1.141619520836108098e-01,2.255263804073645573e-01,4.837410531682606041e-01,5.570331934211011221e-02,1.635759778759189043e-01,-3.097811088836190940e-01,-3.404510629043288605e-01,2.058272491486730915e-01,2.417276751548672886e-01,5.484187353108890273e-01,-5.847057654222544976e-01,2.742705925822267465e-01,-4.301812140856990374e-01,-4.435113499469599541e-01,1.560108687689678308e-01,-5.290594816735463141e-02,-3.605187238167849029e-01,-3.489441594015717518e-01,6.499962671748370224e-02,5.826545042327732626e-02,9.676312234506381782e-02,-9.497985132346012382e-02,5.416522756865965044e-02,6.008162352447597998e-01,2.098390670576490424e-01,1.232950912806529964e-01,3.394543299239998202e-01,-4.204466447220239211e-01,-1.303206961903826122e-01,-5.737285130810480804e-02,2.100720400418750744e-01,7.871867548901022305e-02,-6.214963591998890619e-02,-7.223543834908214833e-01,-1.841842972464844200e-02,-3.261983670007570502e-01,3.858969796976641220e-02,-2.941145188962908663e-01,3.057396394732501688e-01,-7.412452870015611150e-01,3.126529300671551659e-01,-4.576453318069385046e-01,-2.762519892311356418e-01,-4.367856086254146564e-01,-6.016949897372124434e-02\n2.597928068852523031e-01,-4.712092378148253213e-01,-3.665507308577831691e-01,6.481823199226341425e-02,-2.080525821387824437e-01,1.053134672883287853e-01,4.907465908092617513e-01,-1.767927468418705184e-01,1.531128260455948964e-01,5.701586255077538690e-01,-3.855300220972238123e-01,2.371046295501954837e-01,-1.133852481149986470e-02,3.110151878671398307e-01,-1.599420984804449386e-01,2.094129406272342286e-01,-1.471792288344080657e-01,-1.516861236185675921e-01,-3.412358965747372963e-01,1.438255719810841750e-02,-3.101976812171067799e-01,7.642594290235239507e-01,-3.310403508163027309e-01,1.849708605645501991e-01,2.555742890596870640e-02,2.019816701410393212e-01,-5.508226430454908895e-01,1.878966460682592876e-01,2.741048640703163883e-02,2.773050509474507264e-01,-3.901286578052213794e-01,-2.411274949324156147e-01,-2.681156663273155938e-01,3.715006931609079466e-01,-7.212713261624231764e-01,1.064278537553030451e-01,1.091492363018922301e-01,5.518354629981057080e-01,-2.805702247534920812e-01,5.216524324880548180e-01,-1.433940282354672635e-01,-1.598030513266959218e-01,2.567202270533102126e-01,1.652900840555326656e-01,-1.159611374273238210e-01,-3.661804155796332116e-01,-5.231173189202567020e-01,-7.661834438309517159e-02,-2.729803415081580864e-01,-6.388959254901289686e-01,5.683527107609457341e-01,-2.956119491926542664e-01,2.614926472906387578e-01,-5.408124047200063567e-01,-2.504886961866638062e-01,-3.050077317729367465e-02,-3.129395904239948203e-03,1.330841206098761498e-01,-9.299388576193708955e-01,5.385928481651711675e-01,-9.483055436769260993e-02,4.370422144176655532e-01,-1.375961529357850321e-01,-1.577534031690134286e-01,-8.906803749090327904e-02,4.466132227803641941e-01,-3.518115528073177956e-01,1.524082833646309698e-01,5.051860939961061447e-01,-4.643349859416651682e-01,-1.446914532297944866e-01,6.150174925723180808e-01,3.946737618989190621e-01,-9.766268123297640324e-02,-3.390046110754492692e-01,-3.012850226917943020e-01,1.824206037885433562e-01,2.408065154146601383e-01,-5.754019734359263477e-02,2.032721834380613046e-02,-3.258989807803425176e-01,4.758924053525084297e-01,9.179412796579537737e-02,-1.599013281159851474e-01,5.651520559190692516e-01,-1.719060627590686119e-01,4.143797804405856544e-01,6.095325438577126054e-02,-4.053413323673202284e-02,1.700848540086954408e-01,2.284766453325676461e-01,1.333086502140309326e-01,2.059681565521730706e-01,4.733532546484131576e-01,-4.038836542047418154e-01,3.701687599305096277e-01,-6.197289559595674513e-01,-2.943538906725859938e-01,-4.650077875023998081e-02,5.930126735043890207e-01\n5.437353558622751715e-01,1.243457733570048351e-02,-3.866189939473181625e-02,8.072568395877270653e-02,1.718423314416026026e-01,5.141434636417311355e-01,2.264531185470908259e-02,1.998775181461810435e-01,1.499067089919632056e-01,-5.288096639046986347e-01,1.786002271452891699e-01,4.157331004943718988e-01,1.913152521016601437e-01,-1.411940159620974078e-01,7.150867366476572340e-02,1.603916651693113593e-01,3.980369572179586757e-01,-5.261494997082517555e-01,-1.436141978776307448e-01,-3.868515280512274113e-01,2.252734553177047905e-01,5.152128232510736483e-01,2.772414969466478474e-01,2.734691125958771951e-01,-1.561687786394990729e-01,9.339451914149031475e-02,-2.808075584525445145e-01,9.993002620450565365e-02,-5.267197322971189921e-01,8.415948979309781364e-02,-6.298247533130593157e-01,-1.372749489788646082e-01,4.177410492923312735e-02,-1.290900142927056127e-01,-9.753341754087377358e-02,5.082020522646019806e-02,-8.310465927124024987e-02,-8.096569202901653384e-01,1.725696194275268269e-01,-2.435565677489123504e-01,6.063287135047070418e-03,-4.586606105170256686e-01,-8.239309440282915897e-02,2.235594575203808387e-01,1.487539459915670215e-01,2.725201499333112509e-01,-3.143461855907757618e-01,3.455582294400848520e-01,2.231833037940826603e-01,1.417901994966009639e-02,2.982978143270398896e-01,-2.088461674846402438e-01,3.311176244897116594e-01,4.317694044938328313e-01,-2.836067104127680261e-01,-1.057093399932047401e-01,4.649709843761679756e-02,1.978812630929625005e-01,1.079268296491560780e-01,-6.419359552189903839e-01,-6.196241579505840091e-01,-1.732429539044649247e-01,-3.474549332089177933e-01,-1.584777550818236291e-01,4.340084065675238745e-01,-2.891666999674011307e-01,2.461906769463776956e-01,4.312800066844960645e-01,-6.242558607966338657e-01,-1.417184955757280589e-02,-1.838795830180055824e-01,-9.494813130568532933e-02,2.777362463573547768e-01,4.221768434945737947e-01,1.251578451236513012e-01,-1.002316690779849612e-01,2.559336839592061749e-02,-2.387134837880820759e-01,3.021243417943614284e-01,6.713628067052692661e-01,-2.117983553785635908e-01,-4.077817702963694724e-01,-5.532607392437564053e-01,-2.650691870081065549e-01,3.420718910229379461e-01,8.460481900054771243e-02,9.582861678780876802e-02,4.186424572921771947e-01,1.063322926780918276e-01,1.165843270514390490e-02,4.504489780921502179e-02,1.095690296679569659e-02,-2.503316801335974673e-01,1.772382548801343660e-01,1.181474539341059310e-01,-1.120477342009970970e-02,7.778803293075213510e-02,-9.349787890761182552e-02,4.599132279128483880e-01,-1.901005975753857768e-01\n5.051883726929586871e-01,3.716774102722504858e-01,-3.758987651714819633e-01,-5.771534933993208716e-01,-5.309858853155318137e-01,-7.645067435503490050e-02,3.110247358131680850e-01,9.598701682028902560e-02,-3.254210041839920020e-01,3.131252956476295868e-01,4.921397523714207134e-01,4.653852106200319638e-01,-2.495264485731736870e-01,-5.504977556416432855e-02,-1.130986767481189231e-01,1.124164324944897653e-01,-7.563673834325514156e-02,1.236217008628211350e-01,5.160273105669280769e-01,-6.996052978320388416e-02,-3.181742361067762537e-01,4.008268898624837151e-01,6.434052136958406942e-02,-3.459246371146983967e-01,8.677931075848797915e-02,3.837350475494510360e-01,4.083089350412228563e-02,3.499600127954541340e-01,3.033196383008870400e-01,1.307533573150140294e-01,3.462802939933998791e-01,5.275433812754983798e-01,4.557405343855389646e-01,-3.905527037239844845e-01,2.201824328709272305e-01,1.966740817373645867e-01,-6.130676721035737894e-03,-3.425614913562711333e-02,5.469004182976443529e-01,2.174689504605297266e-02,4.651493855281005341e-01,-5.114547580390861325e-01,1.444148015397749840e-01,1.712351320361861495e-01,1.506572036969330286e-01,6.615994615251481747e-02,-4.436062969183247051e-01,-3.384126092541139275e-01,-1.368756931465388571e-01,-4.512850292261443852e-01,1.003491756033967119e+00,-4.314977375435248841e-01,2.326293823073723455e-01,-3.140564333899814597e-01,3.777423900384273558e-01,-1.435141099357891692e-01,-6.813844830502473471e-01,7.058504539862374694e-01,-4.535162853005486605e-01,4.181259257124578244e-02,8.690434961460641317e-02,-2.110782516071170456e-01,2.100790829935461068e-01,-2.948884842936107531e-01,-8.502622107181996292e-01,1.594647261660702697e-01,-2.494023023805773953e-01,-2.749037319563834014e-01,6.503064088577211778e-03,1.925637622765817292e-01,-5.737784149846103521e-02,-4.791921937112725849e-01,3.715210717466227441e-01,5.608089796639265101e-01,3.445141857566060700e-02,6.366010515340111975e-02,1.548201584150063308e-02,2.719085926858988422e-01,-2.943366038521548211e-01,-2.089035706495422917e-01,1.699150920781447582e-01,6.337511099056476471e-01,1.851929195469805833e-01,6.774915184981642469e-01,-8.490400521516906773e-02,-1.145919092414006829e-01,-1.660330834529293309e-01,7.979269704791491780e-02,2.409544018792719733e-02,-9.787300433879751738e-02,-3.777770383225104167e-01,-1.532267984753885592e-01,-1.880931491921169763e-01,1.171738357734439934e-01,2.942618271485252790e-01,-4.767869802578599825e-01,8.491405921774647370e-02,3.680285994826970053e-01,8.353273961064197617e-02,-6.588546570765797528e-01\n1.525303116172975482e-02,-1.569417321490185636e-03,6.648061231793062076e-01,3.046195354222428625e-02,6.080249244720302704e-01,-5.175390291741839288e-01,3.366823971585966024e-01,1.169731128669797698e-01,5.281502996243352399e-01,3.630329996853499663e-01,-3.462611561837681817e-01,-1.647143375912691887e-01,6.897556294075065514e-03,-4.155539388881231422e-01,-4.519940732028353975e-02,8.968223757730001133e-02,2.452057991434582196e-01,-3.607319447986472305e-01,-1.787904676958408934e-01,3.823698009958335642e-01,-3.974246544500578682e-01,-3.720221926654280753e-01,-1.726792453894253621e-01,5.991485280882860032e-01,-8.257070139365568773e-01,-3.947136873475474705e-01,-2.885704395144582657e-01,7.354802050022919702e-02,-4.698447077814235096e-01,1.006456205833493323e-01,-1.116484266956329491e-01,-2.990259091541634384e-01,-1.818131488305668453e-01,-5.331420237262891604e-01,3.901540679316204963e-01,-5.858114737895067092e-01,-3.985407520055205266e-01,-6.740324068596482698e-01,2.738756767257095048e-01,-2.072776888137390361e-01,-2.814729599060448728e-01,2.385715255045353644e-01,1.196735501232624732e-01,8.394079403117370164e-02,-2.459783039553603556e-01,-2.062876699160782479e-01,1.034381602610191658e-01,-5.551932430213001035e-02,2.869385940542745206e-01,-1.279867844222886686e-01,1.784314769602770856e-01,2.674576229512861114e-01,-5.711027005623567909e-01,-4.785590515306870074e-01,1.738081714652061349e-01,3.661959138675099368e-01,-5.289845856166224269e-01,-2.208142682605533924e-01,1.597939028761925229e-01,2.163836426338085484e-01,-2.908332867215125961e-01,-3.009692380763844266e-01,-2.575876402082159511e-01,-3.194961454397592382e-01,-1.772171260397829851e-01,-1.876986700911299766e-01,-2.347591796360753158e-01,5.739562434603759922e-01,3.377206862586022984e-01,-3.712615530305623524e-01,-2.367378987929699002e-02,3.266073342931136159e-01,-3.150352960519356427e-01,1.835180894982899602e-01,9.222954672893030059e-01,3.033433694813825188e-01,5.402682163153277317e-01,-2.604955450796718197e-01,-1.064377301452848392e-03,2.560657295024749147e-01,2.509423226459102652e-01,-1.063271529640729268e-01,8.819395732427867673e-02,4.935895198475552248e-01,-1.481184481451717772e-01,-1.267070485997490725e-01,5.670101951960431624e-02,2.807142724336431638e-01,4.668523738938381573e-01,-3.575813764850991339e-01,1.678449155330616060e-01,-2.997918382674023552e-01,1.898625099467267097e-01,9.499247358021299659e-02,-2.073103255949193813e-01,1.858967054479372660e-01,4.249608905057861707e-01,9.733409388929037398e-02,-3.226650983714855481e-01,7.710425427030237477e-02\n4.503645554712367161e-01,1.697472142970945508e-01,-3.318080170814588503e-01,2.425784572617925572e-01,7.308138069315531227e-02,2.484427556321342212e-01,4.233707879113015465e-02,-3.325819742342456808e-01,-8.969533053047802351e-01,6.097473238057485312e-02,-2.489704681600841130e-01,1.959867929785134855e-01,-3.409899004460019145e-01,-1.062433623007150441e-01,2.577899261607604076e-01,-2.132005622899890984e-01,-5.274237322884594015e-01,2.052730587925189268e-02,-2.810349409123641951e-01,3.554486195612822641e-01,5.921964449685706011e-01,-5.351569700587099215e-02,-2.118671271887424268e-01,-4.504862005880496539e-02,3.353971686634806600e-03,1.717565114056411602e-01,-4.072223399038411573e-01,-6.320312163791443894e-01,-1.277275492971778337e-01,-8.154302235658268672e-02,-2.352934575482734936e-01,4.847350911891855074e-01,3.596900442765152972e-01,1.560930533136997145e-01,-7.669909416498053023e-01,7.450782731686576843e-02,-1.890843926401536423e-02,-6.164537242513028481e-01,-1.550493821332024104e-02,-1.316242196136914178e-01,-4.884469996172045581e-01,-9.630908463509899042e-02,1.067160608416752379e-02,-6.569441773931283812e-02,1.623126876314903988e-01,2.738192867028600985e-01,5.398996028093411281e-01,-5.189334412602381041e-01,-5.253733961651878559e-01,2.588381504249391285e-01,-2.575521429957399189e-01,2.839428213303997195e-01,-8.179177861809613370e-01,-1.808104266578818842e-01,-6.449727108100145045e-02,-3.714180822947608651e-01,-1.348934714261006878e-03,4.164779830712640463e-01,-1.672369355057041207e-01,5.616742419189695301e-01,-1.471551328672725256e-01,3.199984776470788522e-02,1.382022711392437708e-01,5.572036454467818589e-02,3.358484529871195723e-01,-9.279285124636785231e-02,8.476154992944165412e-02,-4.947194286194587232e-01,-2.937772468003526094e-01,1.519975191733260456e-01,3.664107792431843258e-01,1.791754694033238504e-01,5.250798325557239910e-01,2.360652812640268994e-01,9.018837323261151562e-02,6.544975894320945731e-01,1.097912988166669865e-02,4.217505839578379878e-01,-1.534640680655171840e-01,-2.577218823387499372e-02,-3.312236835528478696e-01,4.068046411025040832e-01,1.658499216903854268e-01,-9.464167018575006529e-02,-9.318883984334429271e-02,-2.342449564820759111e-01,2.074313943129691695e-01,1.349839604237108581e-01,-2.895175231561339380e-02,-2.267779391057097860e-01,-2.643264669658951793e-01,4.679139432568548140e-01,1.012780767394698272e-01,2.610084786981248586e-02,2.370996385720623434e-01,2.877184288400716494e-01,2.631381316337665921e-01,-2.796119375658798201e-01,-1.400784330001365700e-02,3.675518153944661720e-02\n5.327433127630430976e-01,5.995558809551501667e-02,3.501879933139787626e-01,-1.985651895139738457e-02,-1.842948755897747537e-01,1.356301499688806755e-01,-2.441620347235850530e-01,6.206246624652934744e-03,-1.070844790083082532e-01,2.936640631240239885e-01,8.618061375010971359e-02,1.346709544355035454e-02,-7.095423593431254838e-01,1.743502084743794034e-01,-2.427511598661856174e-01,-3.554431827402663724e-01,-8.573796670626672445e-02,-4.649434273857532829e-01,9.766069659696821614e-02,-4.746264993620820105e-01,-4.797119348695518259e-01,-4.754414642714417938e-01,2.936127866358790306e-01,2.837793010794160686e-01,5.013569208287286250e-01,-5.112463592135281232e-01,-2.009707908183437641e-01,1.114461942401552413e-01,3.441238698679171537e-01,-1.890383070291229081e-02,-6.077352391228977302e-01,-2.295462195193068849e-02,-4.773012623273435451e-01,2.846607916140462824e-01,9.131352754883649558e-02,-7.597947995313019121e-01,3.680130113736497233e-01,4.353227617532632876e-01,-3.711843190786507374e-01,3.618810684544472300e-01,-5.079657306694461694e-01,5.828051721740737934e-01,-1.311755075651882541e-01,-4.651078741084986867e-01,2.881370911212548583e-02,2.444112139668678241e-01,1.302434008393277554e-01,-2.166565463790543489e-01,-2.180698801487973293e-01,2.203997265817831674e-01,4.527738513392412512e-01,2.795346965452485399e-01,-5.632640309021056391e-01,2.386019541696714485e-01,3.700807133040697194e-01,-3.570319284234668156e-01,1.573803482401879283e-01,-5.421789309911188015e-01,-3.804005656641460398e-01,1.661434632954347512e-01,-5.036202123115023771e-02,8.562201593338233940e-02,-5.368237016491538283e-01,7.549166368034984642e-02,-4.102830491595633178e-01,-1.512704287725488983e-01,-1.135490016439428596e+00,3.635097917331234219e-01,1.882775496320462649e-01,-1.936759204640011237e-02,-1.332459164565145682e-01,-4.478147124209141960e-01,7.219186700644085464e-02,-3.908658340673207277e-01,8.479299062729777070e-01,5.454892034776848836e-02,1.997025395345134458e-01,-4.925836690758324254e-02,1.012679010810889346e-01,4.052783930873369300e-01,9.384813492041937932e-02,-1.947551272240195808e-01,-1.463437762877630444e-01,-1.843520597035210318e-01,1.931350023439696306e-01,-3.422319052012925966e-01,-3.314434975990713239e-01,5.753207360193414166e-01,-6.008818488527503110e-01,-5.405104294169787993e-01,6.192672470792580375e-02,2.925146130481155460e-01,9.664820872100961940e-03,-2.400860098601763637e-01,1.320912705087766981e-01,-5.907370233160740280e-01,2.249242871841807337e-02,-5.732555635640156251e-03,8.391558626961994616e-01,-4.671964556296290955e-02\n3.117583530291430094e-01,1.749869899768937143e-01,-3.660433201673534698e-01,-3.107959756424630293e-01,5.451761344553149868e-01,-2.887684161451695153e-01,3.640202355082496344e-01,-1.885081975575867708e-01,-4.604098537701022120e-02,-8.104440336418430313e-01,2.504655999627729002e-01,-3.144167257429457685e-01,-8.963289697590218208e-02,-4.040490114665074017e-01,-3.065443780550391462e-01,2.408917926375793994e-01,8.296325202037346802e-02,1.863484086871015910e-01,2.795052844682608950e-01,2.499677508830154826e-01,2.146254723967403952e-02,6.265440039000996775e-01,-6.968827143753699715e-01,-3.849592898883855696e-01,4.380274381261206051e-01,-1.711502587939940090e-01,-4.317835447174615121e-02,-4.257358993703282968e-01,3.134038335529155672e-01,4.030714442822871391e-01,1.598959951115635769e-01,-4.218258010841324235e-01,5.023935624632314134e-01,-3.698316759877530724e-01,6.628174235485176369e-02,-2.198428848478189632e-02,-5.526416990445950361e-01,-3.876190263115038004e-01,-1.594341430557210115e-01,-1.674149348990923714e-01,-1.311575633859784519e-02,2.265299613785654032e-01,2.975338616175232098e-01,-2.369930981651429125e-01,5.573331967021446509e-01,1.074138742604055785e-01,-3.801074108961317588e-01,3.061376216710711140e-01,-1.110435100949303949e-01,1.456673557772223682e-01,-1.295626529417751027e-01,-6.174414918773898364e-01,5.324850457436779427e-01,-2.059758534896952986e-01,-1.129546078232225581e-01,-3.934972609414757461e-01,2.478335682840054344e-01,2.796815886124472406e-01,-3.551322263107954402e-01,8.831599449135589530e-02,-7.053600883519245413e-01,2.537430051758332583e-01,-1.747046303297600522e-01,6.621073265529632546e-02,-5.663824029898639756e-01,-5.342646018106060879e-01,-3.688931504487527602e-01,2.892435587947523451e-02,4.024508504448437440e-01,4.028309918069921114e-01,2.376560556360733933e-01,-4.817777210270349914e-02,-4.731324491976818258e-01,-3.720150223586289329e-01,6.545296128494773602e-02,-2.237566327652442122e-01,-1.601872834400430712e-01,3.148421259677452455e-01,1.726684833281438847e-01,-1.080916211397332793e-01,-2.980708320570437109e-01,-3.234068757841042085e-01,-2.054613804200058902e-01,6.156490380614265678e-01,1.925149032769647439e-01,6.907275449724203931e-02,2.717298927606932035e-01,8.572201030282476653e-02,-1.038034669558596385e-01,-2.969670429943321865e-01,2.299388781348573330e-01,-9.814761147561230914e-02,1.927139936109532603e-01,-6.214467629253302150e-02,-4.159098705102317606e-01,1.121298078053455625e-02,3.519282575081419950e-01,3.890477864707260758e-01,2.028151072459588589e-01,1.327858970565434261e-02\n1.180740130139671523e-01,-5.013206515733700241e-01,7.340200197506717705e-01,4.282628800868500396e-01,1.582509175602403451e-01,3.165117501165898295e-01,3.778366730629114101e-01,1.323366772843616590e-01,-4.594644181936483607e-01,-5.071882411692948400e-01,9.606095984201453233e-03,3.907790577772655288e-02,-1.060136218776114442e-01,2.068875156793004155e-01,8.730481704693560108e-02,2.770019859506684945e-01,2.004002339722944226e-01,1.131300128322149934e-01,-2.263965266618281624e-01,5.115913238747503422e-02,-2.535201027390094897e-01,-2.462920012707140449e-01,1.981747717127046657e-02,3.590306741806516266e-02,-8.248879495655916383e-01,5.518179342960061184e-01,2.601163417762867303e-01,8.272969783434254779e-03,1.230916195560517179e-01,-8.277271060691523963e-02,3.895243094834585640e-01,3.656901051101268396e-01,-8.322001688365926464e-02,-5.230812986026535383e-02,1.890085316206203264e-02,1.327960165796567560e-01,1.060001254661471076e-01,-1.828772473811838273e-01,-2.959858343080582488e-01,4.765581824152523849e-01,3.472735317429638813e-01,-2.893856605436968543e-01,3.555689567979322119e-01,-4.722246384795596441e-01,4.175639181920873244e-01,-2.445050393547116285e-01,3.517921321863987649e-01,7.432480081325960608e-01,-3.419699273808101680e-01,-2.214242867740855714e-01,3.239152457150207831e-01,1.458357892429537062e-01,-1.926541265256181412e-01,-1.520539956848581953e-01,-3.797711719054158719e-01,6.804776744001984901e-02,3.974670464253505786e-01,1.746537233817456458e-02,2.375267517666357353e-01,-7.628992910532058636e-01,-1.797605043707299344e-01,-4.418208709917650356e-01,-5.846888682677529037e-01,-2.083612609532428384e-01,-3.011770370196305002e-01,-1.769204395204516944e-01,-2.720754939673613593e-01,3.648947012213443197e-01,-3.012037882729541316e-01,-2.342508573366379743e-01,4.286671077847900024e-01,-7.870744156892876819e-02,-4.682703369915142654e-03,-1.649397259005117578e-01,2.550300712813932114e-01,1.362151741064565880e-01,-6.051518746715378594e-01,7.708409329431974155e-02,-4.103100421518798835e-01,-3.758351659504037268e-01,-4.430759487020972665e-01,2.796067713385503861e-01,8.421114655349634659e-02,-1.980798584403394708e-02,-3.922605583019296849e-01,-8.758446680559783815e-02,3.128384032538139570e-01,1.980889071870749751e-01,8.061202648980488050e-02,-5.836560802399120007e-01,-9.001736250864528222e-02,2.432217195745534910e-01,5.947590394049966367e-01,6.708719349221604900e-02,2.383310138276796275e-01,-4.587713153261915172e-02,1.287370482253147319e-01,-3.895999894365097249e-02,-1.550075791955447257e-01,-3.402637034125716720e-01\n-2.544133091335997188e-01,-8.699484023365992025e-01,3.527027442635053966e-01,-2.677056508847649452e-01,4.763499263096402925e-01,-5.447832645591207390e-01,4.751376811021807978e-01,-4.364020003597472719e-02,1.468863401745393038e-01,1.467564853933643332e-01,5.403903536982228584e-01,5.790750259631684965e-03,-2.385519879398602938e-01,-1.485608719457053584e-01,2.806124445444900251e-01,-7.462331361917208250e-01,2.207552235881614366e-01,2.135030662216521602e-01,1.742369126249032618e-02,4.568149421163379964e-01,-1.605626561095938876e-01,1.030576626106364559e-02,3.881178024262775805e-01,5.949196426816310002e-01,-5.918649239132972584e-02,1.832291509469537866e-02,1.229540997958104703e-01,-1.446696665850049357e-01,-2.033993592707096787e-01,2.425806840119678898e-01,4.513896042826957555e-01,1.135084807629294368e-01,1.289877515558661425e-01,-6.200877479659241409e-01,1.947392652161893389e-01,2.581391514781208874e-01,-4.783870772165593199e-01,-4.195262093278030457e-01,1.564129620482271887e-01,-1.562093438332681494e-01,-4.194289268466035864e-02,6.752253535559500988e-03,-1.255825760911046252e-01,7.494377219574063775e-02,-6.228889426424786269e-01,9.556693235257884833e-02,-2.180358654172311339e-01,-1.374325556642035095e-01,-2.830952033193205875e-01,-4.882252758812063442e-01,4.676365256255845537e-01,3.541827077137161828e-01,1.310990589643784843e-01,1.247347385573498724e-01,-6.918965654875004756e-02,5.874301952702207785e-01,-3.702364133914501920e-01,-9.614327141124769105e-02,-6.033453335933987027e-01,2.773408739372102416e-01,4.413794826979033914e-01,-4.707739497868018708e-01,-4.138565541078849108e-01,3.568942230525273263e-01,-4.143408519476629581e-01,-1.716372923688755381e-01,1.893440738228139297e-01,5.606837091818530627e-01,1.844612258927340598e-01,-6.474661996863030344e-01,2.504274990325682237e-01,-1.215341409347033969e-01,-4.014414464823475026e-02,-1.000870818029673259e-01,-2.492372530716161216e-01,1.589583626583263298e-01,1.529575279036140822e-01,3.248947957074123649e-01,-7.571424451864405825e-02,3.277450500411051570e-01,-1.632806321700832342e-01,-1.529472194744988522e-01,-4.291047075998260379e-02,-9.903619388688901515e-02,-8.332975896354881395e-02,-4.988853015359496351e-02,4.503192947151735126e-01,2.236759566987020220e-01,-1.908441004735215649e-02,-9.531820551764726146e-02,2.686126732884149826e-01,-5.560580497663989430e-01,-4.401872689840968245e-01,-2.826763861833821445e-01,3.464175420894829993e-01,-5.290313428090680503e-01,-1.762952933161346658e-01,3.086975465395045970e-01,-1.142478837137787862e+00,1.237463841628569650e-01\n"}