{"weights": "3.436365628625190349e-02,1.525429394677163715e-02,6.651093815929651383e-03,2.036075851251915522e-02,-7.315964555561449423e-02,-1.029930380209497232e-01,1.407746305133919240e-01,-9.993244217757420167e-02,-2.323682081923777315e-02,1.743660184586154696e-02,4.314306140013463020e-03,-6.347574414393418463e-02,-1.628821018039104326e-02,-4.472879291471949792e-02,5.489161780045383188e-02,1.007763034929513718e-01,-3.380627709011221026e-03,5.238429359229709176e-02,-1.542548563003268980e-01,-9.668681894007621902e-02,-2.110907994354975850e-02,1.270530050909934872e-01,-1.264529160574719147e-01,-4.391571136081241777e-02,-1.874337374343826995e-02,-4.592416687118826973e-02,-1.291668424536699944e-01,-6.002205496454199318e-02,1.261789579749636458e-01,-3.955881263433649181e-02,1.109942722623201428e-02,1.788210503660127015e-01,1.230293839152286073e-01,-7.491044178344725361e-04,-2.437004190704996909e-01,1.793835435199963024e-01,-1.342264415193250050e-02,-5.140693406151633504e-02,-1.478553546237271754e-01,3.175293717942029303e-02,1.190735175739567608e-01,1.152435703383968141e-01,2.436150822398511218e-02,1.133446108904199827e-02,8.302236699458377667e-02,6.204740506116620397e-02,-8.158686481568513948e-02,1.033129795461827823e-02,1.021475726386858324e-01,-1.974695231272846629e-01,1.249299645591546715e-01,1.109159044931214283e-01,-9.046068909805610181e-02,8.872504777038507651e-02,-8.830154013519178613e-03,-1.506753415476667080e-01,6.499793382803153996e-02,5.208621584845968960e-02,7.225936304704017044e-02,1.251143161030587592e-01,-3.527829792216246457e-02,-2.108430868032851180e-01,1.072751995892390620e-01,-8.230227439957600588e-02,1.623132153778736597e-01,-1.442044608606079525e-01,-8.454958654048126687e-02,1.225774608930530335e-01,5.241662496749237461e-03,2.701530893360087546e-02,9.342910821384674269e-02,-5.168090101412572274e-02,-2.113136252531336301e-01,-1.171250942008047052e-01,-1.058185833803219761e-01,-1.026505631599323870e-01,-6.969759024072591513e-02,-8.741810092370189134e-02,2.578515422744774299e-01,1.659965986474521704e-01,2.027835822647392205e-01,-2.652841727891786655e-02,1.631863254269774743e-01,3.871196496602968742e-03,-6.122799765644047765e-02,1.604642935227007516e-01,-5.045054124606746654e-02,1.476546474182154067e-02,-2.495604596205399650e-01,1.008665242308998677e-01,8.326939242601970326e-02,-2.486471979337014082e-01,-1.843796058763339518e-01,-1.945317766635122347e-01,5.763663035236030185e-02,8.366165519250835791e-02,8.682030157860186337e-02,-5.142809367608817961e-02,-3.112244267378124277e-02,-8.839685779224097650e-02\n1.420901022366207744e-01,-5.376282085569435154e-02,9.086370961777158473e-02,-7.160407101707663702e-02,1.885662823341319461e-01,-1.646276065095347574e-01,-1.241133586452777132e-01,3.187934694518770179e-02,-5.170290715060316816e-02,-4.415192031020911262e-02,-8.134847792628666086e-02,-7.197380059611019343e-02,-6.426533813677020625e-03,1.115135366808365780e-01,-2.225350565545708773e-02,2.634191334322559877e-02,4.413600815279544176e-01,-7.826758811773608382e-02,4.335272939632386913e-02,5.498691800481792652e-02,6.060032197095971407e-02,-1.485835228005210618e-01,-1.209126407367508010e-01,-8.741565365532887044e-02,2.969478323375205828e-02,1.316939795925218259e-01,4.625492212394136798e-02,-1.217366827525830919e-01,5.002142851918243288e-02,-1.052433789790229585e-01,-7.626640654529202867e-02,-1.899416416491168658e-01,1.733105324410528017e-02,2.742405159083013272e-02,-1.354966637073071883e-02,4.571865171450038845e-02,7.924335705380367023e-02,7.648046882416226211e-02,-5.122546735060360540e-02,-3.111340652037070456e-02,6.041670478989837750e-02,1.932571052607595652e-01,-2.372357328249795339e-01,-9.656848598844422829e-03,1.296625179961775898e-02,-1.581849485416718382e-01,-5.433471151724358211e-02,-7.173608638135302307e-02,2.102713110914762942e-02,1.399303935993543857e-01,-1.196906631208737443e-01,-4.855274672777142031e-02,-1.514488597677691173e-01,-5.831891668996268263e-02,9.416839445549574084e-02,-2.959835532549876663e-02,5.050910134588223327e-02,1.107564045116721935e-01,-3.231309075977743805e-02,1.876129330639494941e-02,-7.610811564350850045e-02,-6.729753777293155659e-02,-2.718849731275911896e-01,-2.699001700005271287e-02,-1.257498577799070483e-01,4.550539434541972517e-02,-7.598054835388248773e-02,3.557525382206099818e-01,-9.615087572054074883e-02,-3.629842984972305592e-02,-3.147695370078093221e-04,9.503219613004261490e-02,-9.999192258136863076e-02,1.922518032759108070e-02,-4.405924810871626740e-02,-7.197416755882241057e-02,2.883899364156309320e-01,-3.522012045335806002e-02,1.782429940555865233e-01,-1.724270181082484480e-03,2.819250645827476708e-03,1.234357843274292571e-01,2.441066943084927721e-01,1.782797712073974916e-01,-9.349138254262503306e-03,5.205903504241918972e-02,6.352166435735820404e-02,-1.303858355970964333e-01,1.004270412601407196e-02,-4.252056913122714832e-02,-8.965058035719086771e-02,-6.491953202198295914e-02,8.367802148724731021e-03,1.022544345572869509e-02,-2.466296196233472016e-01,7.408943210668315904e-02,2.476690044746400476e-01,-1.398631093228363542e-01,-9.361364969405210068e-02,-1.731317837589186129e-02\n1.230516013834283273e-01,5.017056932475479764e-02,-1.029799992656898894e-01,-4.621574946154172192e-02,4.102965813925983640e-02,7.818142556704917034e-02,-2.859369827891395377e-01,5.192706088411467441e-03,-3.323319803492333357e-02,-4.766185633800799903e-02,9.018390269524272085e-02,1.697385278258454755e-01,-1.268446006176521257e-01,1.251744318289074176e-01,-1.279325340027551161e-01,2.188391701017959948e-02,-9.749868573111801495e-02,1.102833105141105968e-01,5.586639612820506334e-02,-2.014889878054036410e-01,2.945636144398725009e-01,-4.872382244108236504e-02,-7.279871763772090276e-02,6.941752805026929485e-02,2.033042119562864791e-01,-5.281506482691141445e-03,7.120419047800186085e-02,-4.064462958260180170e-02,-1.181018401378764078e-02,-5.292036790034353178e-02,-1.088216903307001743e-01,1.317183666307321921e-01,8.316186403880154732e-02,1.733169360410850290e-01,-1.690438612450043815e-02,-2.873221047254332916e-01,-1.673574036301719165e-02,-2.456969407960432061e-01,-1.289332188901707588e-01,-3.099005488374040329e-02,-1.077508933315749623e-01,-2.243168619477271808e-02,-1.696179696697020789e-01,6.106289885026703473e-02,1.262230530270888051e-01,1.790562527396866721e-01,1.954584347747565509e-01,-1.043051211135548884e-01,-1.391572224268486646e-01,2.208204176675225214e-02,-9.821012565418428542e-02,2.968733064250040909e-01,-1.918082577289102753e-01,-2.215348052639596124e-02,-7.848672831902357011e-03,2.373065201586601614e-01,7.569444874380587551e-02,1.589116967792289781e-01,3.341835564213812421e-04,8.089633044385378946e-02,-1.040525447227568512e-01,-6.997362188473610356e-02,1.020975123168931832e-02,4.580714675189169471e-02,7.569140978303556810e-02,1.198969565200956183e-01,3.149353007236756902e-02,5.478331347990456762e-02,-1.865302026637286892e-01,-1.951515117054415382e-01,-1.355410783780341966e-01,-1.203977521747959523e-01,7.206795736451022949e-02,-6.518051944994235347e-02,4.523407749348629797e-02,1.969578346323760595e-02,2.075457516383237902e-02,6.532710824345734635e-02,5.785039453579646218e-02,-9.047986009941236252e-02,-1.929135217021293036e-01,-2.975550997359272323e-02,2.793582045514415163e-02,-1.520958897066878313e-01,-6.022120339745246076e-02,4.587931235366789207e-02,-9.990142178348510038e-02,1.775020295577274532e-01,-1.125804032120771708e-02,-6.560061653440135698e-02,-5.274666403068795084e-02,2.346129690227401199e-02,5.489393370129305033e-02,-1.210535084700295298e-02,-1.886729274393886616e-02,-3.863879196095423851e-01,-8.694537341832979382e-02,1.727626168174088428e-01,1.475995155035893514e-01,4.171572137440128503e-02\n1.119170416200540863e-01,-6.961225706467746854e-02,1.712165869435545648e-02,-5.713248243300905749e-02,-8.742146754118480800e-02,-4.024622407598121149e-02,-6.707677885489243819e-02,-1.066923278635690253e-01,2.603712338321652053e-01,9.119131119993320600e-02,-8.521154015437006068e-02,1.215010489685999506e-01,-1.134805224121249526e-02,-1.952085745979790371e-02,-6.581685566512934966e-03,1.002244316442279237e-01,-6.696331548259210065e-02,-4.563632240826125813e-02,-1.308806326111785490e-01,-2.834063232736989124e-01,-1.124282493735404703e-01,-4.031655334361358006e-02,-3.675484978525426355e-02,1.175162462623929177e-02,1.451858144638957793e-01,-4.626478161275381085e-02,6.388447571032390693e-02,-7.236596207007446602e-02,2.444918251119312935e-02,8.779495912279601522e-02,1.444610185739207131e-01,2.594713041952695712e-02,-1.153749192273428870e-01,7.019443802416364120e-02,-2.418472565541360253e-02,5.387569912454891197e-03,-4.147850309287545723e-02,-1.218509397188975163e-01,-1.324956233578899467e-01,-6.328426108324290700e-02,-6.550991097301084309e-02,-2.556349865222544773e-02,2.346451059210268725e-02,6.472060746116509167e-02,2.864100958889874426e-02,7.269207790209655795e-02,1.447895699936415093e-01,5.245760802696479430e-02,6.846605256688964580e-02,1.469283312963066135e-01,-1.623898153193696972e-02,4.743307567141358261e-02,1.560146593859011444e-01,-4.189348016200657859e-02,1.549093830210697409e-01,-3.430377360434017087e-02,-4.414150085833636744e-02,-8.715979460592551686e-02,-1.570960821304802080e-01,1.721828548773708667e-01,1.702117748968036762e-02,-5.421546062731205651e-02,-2.904686475477262150e-02,8.539513309688993858e-02,1.910965992201510422e-01,9.387622199531872602e-02,8.882853669314841327e-02,4.707579144315458819e-03,1.168387106107026119e-01,5.695849398305675299e-02,-7.332999243596977079e-02,-6.599500456498007261e-02,-3.198763874740061068e-03,1.441137623793518341e-01,-1.276430774404321844e-01,1.240131400479908275e-01,5.382617836133330586e-02,8.020833573321299592e-02,7.258875173864155761e-02,-9.867866073877697153e-02,-1.761646480492796984e-01,-3.565993049152681171e-02,-1.616143141299845321e-01,-2.523979013781276447e-04,9.038247186768366692e-02,-1.148809503528245776e-02,8.148737439744953293e-02,1.372101089622079773e-01,1.390830144758286313e-01,2.006439117615701484e-01,-1.448704747199097420e-01,-3.295697820586770965e-02,8.241612212704321760e-02,1.118986817075874884e-01,-7.151196348381519408e-02,1.519718981762945009e-01,-1.177775785306493656e-01,2.074381088864786504e-02,3.467220694730904079e-02,-1.600802361857879830e-01\n-9.017847886069549346e-02,8.131690680267521579e-03,-6.275165362924024770e-02,9.879919062585593159e-02,-4.905609577075134564e-02,2.430755789603311623e-02,-2.050076421566392193e-02,-2.023062025072123321e-02,-4.298512424896222539e-02,-8.865032704459374635e-02,1.418742424482121768e-02,5.661827211101774088e-02,-3.862122787305640598e-02,3.856702919391723217e-02,-5.237470043312743295e-02,2.265588861342930915e-01,-1.305294628718323691e-01,-3.486940299606189342e-02,1.457025808412014956e-01,2.081381159361105626e-01,5.090215704381010481e-02,5.315901805698942939e-02,-1.300583614882807881e-01,1.516450675354522881e-01,-6.490451204274755304e-02,1.101380438267501871e-01,-5.074974579180201520e-03,6.393183584282791099e-02,1.353301914494759589e-02,1.060317577233494124e-01,-5.625046200829223603e-02,-2.723133793107452086e-02,1.060938795434513554e-01,1.110160805641288301e-01,-4.444802296360750304e-02,5.121802889169350947e-02,-1.847207674592465237e-02,-1.948069532274983584e-01,-1.943046566994739988e-01,-1.028000792522263535e-01,2.005998161304301530e-01,1.952950500457013017e-01,-1.085807418472433256e-01,-7.192124727934509631e-02,-4.709842623674478229e-02,1.180607072777666577e-01,-1.301268803645666827e-01,-5.879293240182375396e-02,9.086600942306136131e-02,2.346041473993564774e-01,3.140594217227054424e-02,1.530419159861853284e-01,-2.109192587818778941e-01,-1.562921125019119395e-01,2.746095004247869897e-01,3.192254330287450786e-02,-4.265811852863918840e-01,6.486767544290857057e-02,2.237311780559967933e-01,-2.401851926160262184e-03,-7.504452575489448628e-03,1.251715800747681961e-01,-9.336566157322173654e-02,1.909120529519556242e-02,-6.105129841025393363e-03,-3.831604185114687033e-02,2.315376752517850356e-02,4.511943771741581954e-02,-5.510858180294420094e-02,-5.454944928193908305e-02,-2.150654028387264383e-01,5.379176159890970005e-02,-3.613838579350201786e-03,1.833466715813763803e-01,1.061351307290883256e-01,5.819020645693008531e-02,5.835275642528262030e-02,2.398632911687486463e-02,1.443872002679475741e-01,-9.095760037667985354e-02,-3.026450691581869523e-02,1.807900215758085627e-01,-2.671977053334375074e-01,1.021134907630460442e-01,-1.503849910289535401e-03,-7.431829673086551291e-02,-5.280428785604630165e-02,5.075949545245078687e-02,-1.183826667303608943e-01,-6.843471388602016814e-02,-5.807329218658559278e-02,-3.756375772270085373e-02,8.347388803736119356e-02,-1.000017495780135962e-01,-2.178650570073618620e-01,-9.126015225268747921e-02,-1.231190518766927811e-01,-2.664654706773206608e-02,-1.583575053390632800e-02,2.429336497994511596e-02\n6.930953864897096417e-02,1.597469655266057775e-01,-6.289166889188196885e-02,-3.964292059741261753e-02,1.907807098601418672e-01,-9.905383128896039224e-02,-3.412659181651729601e-02,-1.284074324028521286e-01,6.649307558552583486e-02,5.009345108688843112e-02,2.091138049064785939e-02,2.407695095890524314e-02,-9.105590756623889448e-02,-4.215656934660141214e-02,6.261107386845803091e-02,6.321197139309006618e-02,7.854983548399474980e-04,-2.208529226882700869e-02,9.147097073624541877e-04,1.495684025809124185e-01,-1.078404591402811891e-01,-1.272390535346733520e-01,2.125698744763788450e-01,-1.459918238173878169e-01,7.248230687686377238e-02,1.549449122789712217e-02,8.189047055518787477e-02,1.704846269536104686e-01,-5.077765931129493010e-02,6.105050351094839373e-02,-1.362215646043556973e-02,-1.150094805382170376e-01,-1.089492089075855090e-02,-1.017651424120428610e-01,-8.550635360290395615e-02,-1.061546738076158368e-02,7.301873759156803090e-02,-8.859322182154870384e-03,-1.935556701317961148e-01,4.936991161107193854e-02,-1.137174614029609065e-01,-1.128421692076014837e-01,-1.121595297270297498e-02,4.658733646127258266e-02,8.580230819331984005e-02,7.563127098066926846e-02,-1.459527964757076357e-01,1.815431186722834753e-02,8.941633559370808226e-02,2.639905881899146448e-02,1.555902305203970548e-01,-1.635453576465847325e-01,-9.005372130230447636e-02,-1.010116546796560426e-02,-1.575657125300679584e-01,2.549276619144762515e-02,1.936239932722957358e-01,1.740354632341093166e-01,-2.824623181099479297e-01,-3.556618098623547108e-02,-3.486126658133129053e-02,-1.683540123733018312e-01,1.085976785747652523e-01,-6.108872640400076631e-02,4.449154080274547035e-02,-1.747665732214440798e-02,6.644815074315346681e-02,-1.392872332793798074e-01,1.951981395495798466e-01,7.297814821413384223e-02,3.128947854106406412e-02,5.683715380112427940e-02,6.122475530281160788e-02,1.765112021786481578e-02,-3.756806528312516252e-03,-1.589270414253543817e-01,-1.487549247112624623e-02,1.110907449447845058e-01,-9.548780869821440337e-03,-6.640642015793646324e-02,1.035540947231258918e-01,7.298717810440692733e-02,6.255574391972894277e-02,1.313666095528410321e-02,4.841861316839835699e-02,2.187206446493895062e-01,-2.274705345277949486e-01,2.520045257562650853e-01,-3.303645123784783311e-02,3.108724978719136153e-02,3.765046386061515760e-02,-1.405725603190781936e-01,-1.754845726219304847e-01,1.102683170649093741e-01,-2.008067436325279391e-03,-2.037497125851572832e-02,3.331401945187089098e-01,2.700962994070080225e-02,4.602569568709746067e-02,-1.302004107042108449e-01\n-5.468268087588481260e-04,-1.664794967254052196e-02,-1.487035576947815310e-02,3.316114187506385980e-02,-1.090449977436606759e-02,1.312108017910053326e-01,-1.402125721187745750e-03,-6.805209591355766696e-02,1.027208617507769928e-01,-1.828769596471372938e-01,-1.171931960070849432e-01,6.603490070419479330e-02,8.295662433119531387e-02,-1.491114730644731434e-01,2.390564524975611477e-02,1.610715986854676512e-02,-1.292767196884690162e-01,1.168629340584960569e-01,-2.484175087819351369e-01,3.509572816311799098e-02,-5.892735063718934629e-02,5.690602152058799740e-02,1.835368985525732966e-01,3.806132778994249927e-02,-8.105602359604632823e-02,8.728568855270567306e-02,4.663539078722955117e-02,3.782305934365938482e-03,9.454736385228103279e-02,-3.830990712084965388e-02,-1.820750582430543107e-01,-7.295710624809671752e-02,-3.170625887021356198e-02,1.054002150693432172e-01,3.243016593193807223e-02,1.064752329349567470e-02,2.673154478423587221e-01,1.676729698653103562e-01,-1.737651925364974981e-01,-1.853462567870405031e-01,-1.741266429747738691e-03,5.853749407044584602e-02,-1.652880994493148015e-01,2.825055438952443765e-02,5.482564797335554019e-02,1.974356779892109254e-02,1.902042622520017101e-01,3.994108561728439838e-02,-5.017497716207543895e-02,-6.095210056497301493e-02,-1.449785974615284689e-01,-4.879781400674667452e-02,-1.479315695693397825e-01,-9.821177662110577855e-02,1.409003665594061039e-01,8.443592801794046199e-02,-3.627432720577020153e-02,-1.237680040953035021e-01,-9.569975262201142752e-02,-4.154594108900299537e-03,-1.215185769066740862e-01,-8.604679086642696550e-04,-9.133300599207339054e-02,-1.055565259496417108e-01,-8.132329134282899330e-02,-1.358809235783603464e-01,-1.502885596582149152e-01,1.551633863473316499e-01,2.031011895700846406e-02,-1.451980572014280046e-01,-1.400146136391924000e-02,-4.627893915102435085e-02,1.464638813378952020e-01,-7.553925883387013762e-02,-1.007510181931287052e-01,9.651059849361211251e-02,5.921537549076877349e-02,-8.631312205508824553e-02,-4.481954351564326061e-02,-1.405703996490167140e-01,-5.815149999468101306e-05,-8.787207227644321106e-02,-8.533137257515345520e-02,-2.361748735741728278e-02,1.241344192647196032e-01,-1.030139892164201876e-01,4.198304980116245033e-02,1.138003068971141230e-02,1.034016566985934693e-01,-1.131094858139373160e-01,-1.322710455586010962e-02,-2.541369003097647059e-02,-1.145349481469715852e-01,-1.281416111773474829e-02,7.549439381365677382e-02,1.161018704508079147e-01,-1.320387278919272697e-02,-1.833467161911827847e-01,1.784891108262472992e-01,4.151948045840527651e-02\n9.785382416532019401e-02,-1.461939816601461328e-01,-1.608257947452105263e-01,-6.676592257436085587e-02,-1.699589540798502885e-01,7.633905733898116441e-02,6.912346170381561405e-02,-7.404989569825608416e-03,1.263563311818998725e-01,-7.188812635925388717e-02,-1.886114062270110789e-02,-1.302595937753362187e-01,1.297997771698156388e-01,-2.995522629279064389e-02,5.382596482009108230e-02,7.815210525212555603e-02,-1.524945876281622870e-01,4.426293373510217961e-03,-5.480484294247062876e-02,-1.625689937626472598e-02,1.685831222935661039e-02,-6.928686502387193524e-02,3.400461162284551270e-03,-9.922885646226936585e-02,-5.020774594051315848e-02,-1.079603510758251478e-01,3.345798422773989082e-03,-3.286631020736779842e-03,-1.252855252816778911e-02,-6.021106858514602839e-02,1.781727583361782455e-02,-8.624061084017375922e-02,-2.055087859601532549e-02,-5.508981402654131859e-02,2.021456646273891156e-01,-3.439842592681373323e-02,-1.046705596178816311e-01,-1.318994569593100741e-01,-4.175586956411121015e-02,8.985304224503659620e-02,-2.741416410107135881e-01,4.928915090156923279e-02,-6.316682213754137853e-02,-6.581176470979160920e-02,-1.261673129061227638e-01,-1.445725501105658561e-01,-1.822011344898001872e-01,1.316643763969649050e-01,1.201226983222666439e-01,-1.255812733403268919e-02,-9.858616664492876602e-02,1.917875464785438744e-02,-7.797400345695783275e-02,-1.058599782433301828e-01,9.869872322134339016e-02,-1.778505341556435582e-02,4.905163499229389656e-02,-7.741685692163095822e-02,-3.080227305081679190e-01,2.136848763432873735e-02,-9.682500742705890673e-02,-2.072422653321012720e-02,4.302432530743377503e-02,5.033314169775289504e-02,-5.965012831773925522e-02,-4.203867085444885909e-02,6.276153670665871043e-02,1.662401111753187000e-01,1.521261846086155167e-01,-1.710019963757112016e-01,-3.099212586265759004e-02,-5.891666001111184325e-02,1.083239030675943598e-01,1.118746709055355865e-01,2.827628774669409609e-02,1.807396251511467489e-01,-2.622125118597341039e-03,-8.130291338637725407e-02,1.494551553141483802e-01,-3.101359098669101977e-01,1.036246441179597688e-01,-6.995719740389044761e-02,-1.410185885434808439e-01,-6.375915310691258886e-02,-3.716452555761467352e-02,1.874784440813527520e-02,1.432704964426789462e-01,1.022954945239866881e-01,-2.112865580072574856e-01,-5.172243295441390082e-02,-2.237021001208807369e-01,-1.891149258171764824e-02,4.313765343238723515e-02,1.589872816143978740e-01,-8.846033935632074963e-02,5.504590176606410923e-02,1.047280520813785309e-01,3.041649839280560416e-02,2.947260524009026952e-02,-1.489700707476435126e-01\n1.701418478267273104e-01,-1.456754775953439940e-01,2.112297144037914368e-02,-9.961143980233054529e-02,-1.206092416811346824e-01,1.663284781141792512e-01,-2.195973164541244194e-01,5.145548929845154135e-02,-6.022063354688433900e-02,-1.098123474662901500e-01,7.945440805267521556e-02,8.206049204978885236e-02,2.539832745405272083e-02,5.439935592242776952e-02,-5.102828940124793343e-03,-5.899770399265277451e-03,-1.173943496287077060e-01,-1.078810694307184292e-01,1.993319745438967838e-01,1.230776314982319625e-01,-3.762699292409307089e-02,1.239246448948421037e-01,-6.462107848772753738e-02,8.680232791410461002e-02,4.234964539520189031e-02,2.832675603115209495e-01,-1.660738385892851776e-01,1.754870038896529094e-01,-2.415397526244934812e-01,9.561409004145347834e-02,9.685210508767455595e-02,6.942445977139557849e-03,8.279775795470394051e-02,3.638769725358685647e-02,-6.742744714879463086e-02,-5.989798549240341052e-02,3.088197761682428752e-02,8.562705301654169321e-02,-1.011058350325662325e-01,2.011848578116368080e-01,8.269976020056497845e-02,-8.444873563593674470e-02,-2.017153761558250491e-01,1.915755358591796076e-01,8.805405039391352162e-02,6.341306691378380267e-02,3.036961882815802372e-01,-1.866507543192007512e-01,1.091850910440356898e-01,-9.618004452015928296e-02,-1.534265678768101659e-01,-1.822853245621743890e-01,-1.531358006275243266e-01,2.023693598527687432e-01,-1.179208225014921896e-01,9.823238835669031999e-02,5.181823306343728147e-02,7.462485367431077876e-02,-2.661275071836305059e-02,-7.621871631969898142e-02,-3.913308286084907911e-02,3.373468031067454465e-02,4.362412206404342463e-02,3.221405390920490525e-03,-9.947742380620180902e-02,1.219923090465955540e-01,4.271296912502314108e-02,2.024082332698371855e-03,1.440442751318560602e-02,4.740885390689512924e-02,-1.447731033951011048e-01,-1.488181183070583224e-01,-7.819014569867808323e-03,-5.003924646065733423e-02,1.539190761988907391e-02,-1.343533560529319160e-01,5.899227754153620745e-02,-3.220196122206574196e-02,5.063992313857271221e-02,-1.742471608727727272e-01,1.506919973805494473e-01,-9.918601585849350089e-02,1.406720730366959604e-01,-2.510462898097208170e-02,-1.581786100587314059e-01,-6.600659221322711934e-02,4.481846708883074210e-02,-1.055431036380326537e-01,2.657428088326217741e-02,4.788634223554063402e-02,7.851142157383855791e-02,-1.774002162945865768e-01,3.938516183490727365e-03,-1.777845874562311579e-01,-3.179835364028314043e-02,1.049970615938521923e-01,2.773737302711896252e-02,-6.118720675750118770e-02,-1.482218263526282054e-01,1.112332523892359815e-01\n1.361615979460167047e-01,-1.485383984522084255e-01,6.141547888643047320e-02,-2.694015528852571756e-02,2.127352024834232302e-01,3.077108750562304595e-01,1.283338954078263872e-01,-1.915775375324772767e-02,-9.687951992278258026e-03,-6.082477756212740366e-02,-1.871387845696685925e-01,-8.308335635971288158e-02,1.157485935071576044e-01,-6.034772605718585758e-02,7.825104879761608789e-02,-2.449412464585409566e-01,1.298680392910038506e-01,-1.425594544909753181e-01,9.073057013559696071e-02,-3.479916322338240386e-02,-5.690503731806578411e-03,-7.819408797571915370e-02,2.077631273447781701e-01,-3.140593155567623224e-02,-9.165167207377936109e-02,2.991592994292866306e-02,1.394309771947297161e-01,-1.064406748364823407e-01,-8.023860637685517605e-02,7.258470881263119623e-02,-8.384154001074185791e-02,2.477849737366196944e-02,1.297964380886051372e-01,4.964103758731099048e-02,1.849248945121373389e-01,-9.291803689290960289e-02,-1.098369574264818904e-01,3.628820566699092216e-03,5.106008416645598652e-02,6.456012641764581617e-02,-1.386929277985752829e-01,-5.885480063802935730e-02,-3.693261467024830033e-03,2.247638061521855246e-01,-1.265874574095694483e-01,9.385221970817207715e-02,4.985517409828235658e-02,-1.201369291513390281e-01,-6.197072761731806795e-02,-9.871063615770059307e-02,-2.972058748762089822e-02,-7.773953553651342940e-02,4.543299466497118487e-03,-2.690312294346173735e-02,8.893468708997404049e-02,-3.712856697147311896e-02,-2.332018756169636498e-01,1.309762757640308417e-01,1.845240147882156734e-01,-5.175391703572584934e-02,1.318658719274933000e-01,-1.970925750368654750e-01,-1.162927739587665543e-01,5.710929667187825826e-03,-5.758056356195796928e-03,3.314294423894584112e-03,1.371098372858648162e-01,-8.262070641686299066e-02,1.605592440328399428e-01,-2.420727279588863745e-01,2.750133005033796735e-02,-7.799754093693553325e-02,2.098471828895126789e-01,6.447542501248756941e-02,1.863051958759324653e-02,5.927424266808643122e-02,9.019123676636672804e-02,-9.715682155179324042e-02,1.635378540886821622e-02,-1.199853169380064449e-01,4.954887181736465640e-02,1.575309047156329412e-01,5.759881069954494309e-02,3.556548682596610278e-01,-1.564831990206678736e-01,1.725214531649547911e-01,7.917832553502360260e-02,-2.333254457451936215e-01,2.825088756307153615e-01,-1.791789163013587094e-01,1.344895971374366062e-01,-1.532997296048105584e-01,4.182837359558458368e-02,-4.872602955606853553e-02,-6.175930473134143978e-02,-1.547386929436616598e-01,-5.369971125466218437e-02,-1.712036718926169751e-02,5.980533900076563658e-02,-3.758420017280499764e-02\n1.231191965702481406e-01,-8.056836513587820048e-02,-1.545097784422522040e-02,1.904778228452285449e-01,1.252892631349768748e-01,-9.696862268917541550e-03,1.190500774173423593e-01,7.624679084781911531e-02,7.741868399540090262e-02,1.862580320011280807e-02,-4.143920206609634505e-02,1.173284991123986348e-01,-1.204743272637641277e-01,-1.289382821820796339e-02,1.468473693337983554e-01,4.609226960047431432e-02,-1.620611234563388570e-01,1.276994932246304781e-01,5.578431652041384442e-02,-4.935846397830807170e-02,5.856784696612972463e-02,1.714017151892391344e-01,1.534230708133959425e-02,-6.319682090354823700e-02,1.264568542871825629e-01,2.345274472318431280e-01,5.123981382374737104e-02,-1.458126831958920372e-02,-1.308301092912514951e-01,1.240731702043968016e-01,1.063706674400925339e-01,9.551661620939540243e-02,-1.750504820422009444e-01,2.053299950793476686e-02,1.150529907301660413e-03,-6.275221225191311702e-02,2.482240042458969953e-01,1.344030769388532970e-02,1.523213485655970645e-01,3.075022340576577876e-02,-8.739450110613666833e-02,2.883232067660435743e-02,6.824060399276522804e-02,-8.402053332494270610e-02,1.080870011248153684e-01,1.562639599900274290e-01,-6.011129674059070317e-03,-1.652713316072458027e-01,5.181309838077786251e-02,-2.270950132856948966e-01,-1.487010212973310652e-01,5.680894196567586735e-02,-1.801303187448569376e-01,1.255208361938684458e-01,3.136492228944467390e-03,4.040922426537704032e-02,2.121393581654177907e-01,-3.624565851871945632e-02,-6.687420174252028948e-03,-4.607406330010376666e-02,1.327441364646753108e-01,2.185980071884496001e-01,-1.720976221431823605e-01,9.676152078414822222e-02,-3.019698543066027391e-02,1.160498244896287917e-01,1.004644942124974516e-01,-1.769203816676569174e-01,-1.656974292962397621e-01,-1.224099108174690753e-01,-1.649011127461983556e-02,-1.034405889879188023e-01,4.261742241243789836e-02,-2.412976844811859922e-01,1.425833753768214196e-01,1.503349426958992992e-02,-4.099888929306886448e-02,-7.779843642128443648e-02,1.578990318603427645e-01,-8.083626953881757615e-02,2.408986126249920007e-02,-1.850013520914378928e-01,8.480883027808858166e-02,-9.986792861610858593e-03,-4.063558286881895770e-02,2.403223640719187315e-01,-5.482950229422242638e-02,3.483109918705112884e-02,-2.198974694855458933e-01,2.596160159103059681e-02,6.683704511878776899e-02,7.761498214808398854e-02,-1.024113446343610095e-01,-1.066298371620798546e-01,-1.331271347799175553e-01,9.639174652375413765e-02,9.355850856046886562e-04,5.584009395097309925e-02,1.531180243825968901e-01,-2.199595970682866330e-01\n2.880641936478801901e-02,-1.134030513944230510e-02,1.886802377261140584e-01,-2.587781252846443891e-02,2.117084648971190586e-01,2.150891830408895866e-01,8.588454192297860501e-02,9.830568542526988210e-03,8.553429026288061898e-02,-3.541065756035472432e-03,-5.046541932768414812e-02,8.636704610386887471e-02,-6.740322138941604035e-02,8.123527483066224353e-02,2.898328513836478590e-02,1.092161751567619077e-02,3.262159706579686839e-03,-1.583085006316344023e-01,-2.476670395471856911e-02,6.814893439238982331e-02,-5.880953381953017700e-02,5.660462565487098252e-02,-8.420872028826113798e-02,-1.200717028868058672e-01,-3.254585170888080886e-02,-1.281905377604495577e-01,-6.086836354218714412e-02,1.239413467767111338e-01,-6.243501766294960731e-02,3.925418427964732365e-02,1.607702895857544279e-01,9.158921311650987385e-02,4.010174390760655461e-02,-2.453789115710177660e-01,-2.452407252959034056e-01,1.169815695122839172e-01,9.466053337363883671e-03,1.981527669344279041e-01,1.193492650864282911e-01,-4.741325715063846903e-03,6.473284842372328818e-02,-3.799375063477344189e-02,-1.917752891398653153e-02,-1.628237658134754073e-01,2.610302942113158428e-02,-3.140458808838506206e-03,-3.646119902620912484e-02,-6.593580612323120260e-02,6.304630135546515635e-02,-5.405851599223852888e-02,-1.582860890916801544e-01,-3.991695712736176987e-02,3.849644895943754586e-02,1.222109852781571027e-01,8.439605369175663674e-02,-1.103172459038378184e-01,-4.057430268384301653e-02,-1.219000126322450778e-01,4.926758831207108530e-02,-5.009329063715962232e-02,3.582100753781466453e-03,-3.008679696761580504e-03,-2.596974345350317945e-03,1.936923656548261707e-01,5.143014007566554940e-02,-3.166862001437671702e-04,-1.345286986121462247e-01,1.202724482126730915e-01,-1.078265382732583252e-02,9.694963307470050307e-02,5.529949089824550724e-03,-1.570445464521298407e-01,1.632607457048465202e-02,2.668733953319400373e-02,-8.266209093968693994e-03,8.992664841031935974e-03,-1.866917847535546626e-01,-9.967171413086292620e-02,1.127573754595064502e-02,-5.829903584772992697e-02,-1.927485251514001602e-02,1.230009065673965951e-01,1.518963658043955868e-02,2.084353350658096071e-01,3.141973238422258660e-03,-1.223473238099481303e-01,-8.104916847443016659e-02,2.212060469153130093e-01,1.074813258576076402e-01,-6.216822072278248984e-02,-2.040117679960403232e-02,-9.136556784168264889e-02,-4.131049450763107228e-02,-5.175237888650948553e-02,-4.728767964581013193e-03,2.695006326845303946e-01,2.636253475665771839e-01,1.153421983499274966e-01,3.177811169853485881e-03,-2.201845667966954509e-02\n6.978586247334646331e-02,-5.949624182524679283e-02,-1.613972022713056065e-01,-5.917514339880782653e-02,2.160648728695150830e-02,-2.755622310750439809e-03,-9.620798839896657628e-02,-8.053454359045461586e-02,3.033579991387170063e-02,1.416407919630237044e-01,9.726929488622505782e-02,-1.843496245080341600e-01,1.353117009885594080e-01,4.685602198013508191e-02,8.235412053699351503e-03,7.292093043953626341e-02,-3.211870793210894887e-02,-4.242396471653200191e-02,-4.254132908412639608e-02,8.884386624409719435e-03,-1.549447024541429629e-01,-1.587719429541261662e-01,7.652921653790958033e-03,9.716982855518614681e-02,2.779710659964448882e-01,-1.041849937640199064e-01,1.235342138603927852e-02,-1.414252529531037118e-02,-2.648267610541516631e-02,9.597759110761602819e-02,5.918242396848863440e-02,-5.579703643702640763e-03,-7.194231326129346682e-02,1.932229858092121555e-02,-6.618432387752514823e-04,2.469824266214062924e-01,8.733294165376312423e-02,-1.475127494492177449e-01,-8.237536314227971931e-03,2.925447994060458856e-01,-1.686200272421561341e-01,-1.898097697881063334e-02,4.168576684377409830e-02,-1.939959296437345493e-01,-1.290648624020637389e-02,1.509818218827447232e-02,5.150195385605386977e-02,1.583022611289489623e-01,1.018186882475225069e-01,2.144632450705917168e-02,1.255862597336607489e-01,-1.754071662543180143e-01,-4.467534825458237963e-02,-1.710239440902232289e-02,-4.426311500266775362e-02,-2.075583767041665195e-01,-8.531830683113698910e-02,1.028013903931455919e-01,-7.764487063498062835e-02,-2.312404051863519924e-02,3.036857621253245473e-02,1.274327024664719255e-01,-1.680945084079177657e-02,3.056622682680778386e-03,-2.296593625163098965e-02,-1.624918153021608358e-01,4.246055715592082780e-02,2.220050719825858790e-02,1.225371869292101942e-02,-1.340021231104207566e-01,-1.475963608486600132e-01,2.249762594815203978e-02,-1.536864237441727399e-01,-1.645135677603227695e-02,-2.714205768081381920e-02,1.394990396967844826e-01,2.134565831586540327e-02,-4.543143250430747848e-02,-1.287486403003389700e-02,-1.078333320831856984e-01,5.426779529260387230e-02,7.454174370299682106e-02,-1.732219607816447571e-01,-8.181863910202423484e-02,7.698506774156485544e-02,-2.300699347639023895e-01,2.625541153894427396e-02,8.912018451236315697e-02,-4.804972369760729389e-02,2.071267275201650604e-01,1.615239273589550717e-01,5.400858442981922719e-02,1.195788913610549981e-01,5.918575801467153980e-02,1.745273508480255642e-01,-1.520684966295061122e-03,2.026416408621220244e-01,1.020455647345357431e-01,-1.273222927314978173e-02,3.174291869406172667e-02\n4.465928755196092725e-02,-1.294662390413622022e-01,-1.410426901413603940e-01,-1.638200293654050108e-02,-2.273439178628001642e-02,-1.581076017758438756e-01,-8.783260202440858200e-02,-4.864546127977380924e-02,-7.313432302822317488e-02,3.829281253979952004e-02,1.985782745161243368e-01,-1.340453672083791181e-01,2.831548447449583339e-02,-3.012861853811674845e-02,-2.831608575883556855e-02,-7.661130566785558094e-02,-1.494431052949825589e-01,3.739554188396285173e-02,-1.285350975782278971e-01,6.262327939214118455e-02,-3.487010729061353759e-02,8.130307726148916503e-02,5.476011398150984477e-02,-2.286143553142490348e-01,6.859849751399771378e-02,-5.044227017653794831e-02,-1.051306451387880730e-01,-1.765612333236279280e-02,-1.540372084113984519e-01,-4.723462486369201310e-03,5.777349563948551425e-02,1.476563181351454000e-03,-5.820875374575051192e-02,-5.736186060383133278e-02,1.451144435224762108e-01,-9.810877797357162033e-02,2.747843629750695293e-01,5.579718786832420230e-02,1.946908805546892218e-01,1.171328691584840320e-01,4.199973027724265145e-02,-1.869258732781522159e-01,8.740221498518682686e-02,7.435015215999468685e-02,1.371123217047812981e-01,9.196200354352104811e-02,1.967099636145256542e-02,5.896771588310725787e-02,-1.117251124199717671e-01,2.464419275385825170e-01,-1.046262771857399583e-02,-4.706285787530811032e-02,3.947431269557423461e-02,-2.037094552125661567e-02,1.934503635513091790e-01,-2.709694511095459002e-02,1.835519587770526595e-01,2.183474069835239229e-01,-1.647118386758863670e-02,1.812742482510749931e-02,-4.811428719203761362e-02,-7.558509202668228788e-02,1.141173502331922773e-01,-1.741287731996504426e-02,1.403817053788963543e-01,-5.336113532922834995e-02,-8.126973565092290852e-02,7.961266113888165741e-02,-6.584139211772339906e-02,1.290042434516049108e-01,-3.074684348117473140e-02,-1.977909077569122223e-02,1.470339597355118932e-01,-1.422979369306955344e-01,-2.338866995683611116e-02,2.950390868165586513e-03,-1.857248306462832843e-01,6.806319045828879144e-02,4.871183212864632628e-02,-6.467248245336366767e-03,-3.140350607070030442e-02,-1.284046191813946469e-01,2.010319703375184341e-01,-1.158715735009794856e-01,-1.155400131893263710e-01,1.881315926564848529e-02,8.854996886402488263e-03,8.781286542009691942e-02,1.020036825123879672e-02,2.829638109558924031e-01,-5.610538782559944563e-04,-3.340406454639558570e-02,1.312382735324721106e-01,1.027400079513789664e-02,-4.448424973472261262e-02,2.242228227120183701e-02,-1.214390071341410748e-01,-2.658670182263176904e-02,8.224676145622070167e-02,-1.801614610059839444e-02\n7.287383788880835711e-02,1.757366381727746840e-01,4.708373476192022344e-02,1.085242508978092029e-03,-1.868600754767383090e-02,-2.644638990596309691e-02,3.470279781955521586e-02,-1.056922265025460606e-01,1.964870355060288065e-01,-1.870631353109241876e-02,-4.917911763101044664e-02,3.088803832765006918e-01,6.199349933184463562e-02,-1.343590428841710122e-02,-1.763639251869468863e-02,1.468561845721282622e-01,4.194848899585672947e-02,-1.262476797139098772e-01,1.006562031977195487e-01,-1.023934642199481743e-01,-7.031744401256749544e-02,4.260107854655089538e-02,-4.978632177376887680e-02,1.855819209963347760e-01,1.770625323608063795e-01,-1.634341888194080217e-01,-2.552067385250609069e-03,-4.383586694070031042e-02,1.285610222371552647e-01,-2.180961689792377811e-01,7.668506823156674701e-02,-5.191315196633513457e-02,2.113127588520394284e-02,1.797921395433658698e-01,-9.271684821407373545e-02,-3.500546532333393551e-02,-8.516415895104965939e-02,2.929979798969317359e-02,-1.070238677719854009e-01,-1.569242637777871208e-01,6.476783868477842265e-02,-1.008836912360044635e-01,3.616700074109784752e-02,-1.173732096535693853e-01,-7.401716163345896382e-02,-9.863172956907191591e-02,2.797757077533317635e-02,-2.603068504310492373e-02,-2.195682090426134131e-02,4.903571793389835398e-02,6.469948883328240086e-02,3.700748354696071357e-02,1.479907515652266747e-01,-1.601412109764106112e-02,4.423919386461475783e-03,1.174307736836259636e-01,2.065117768828561573e-03,-1.258604872781533546e-01,-3.827610131692349427e-02,-9.429490137688488482e-02,7.686872716160324248e-02,-4.625216116858255760e-02,-1.373990830149356690e-01,-5.765665970029633380e-02,2.681644932789939428e-01,5.073226116409430830e-02,4.559356055022161652e-02,-6.993531330475774577e-02,-3.986358209347375808e-02,-1.779146979129889727e-01,-2.190253479287787575e-02,9.923944808303256440e-03,-2.015386614483918315e-01,-1.971245978929773990e-01,6.858726002384078063e-03,-7.071414558892920310e-02,-3.101055908603934583e-02,-1.452682588426279509e-01,-6.504471898750596726e-02,-2.478553548801837661e-02,1.127544446600913658e-01,-6.143717370463278038e-02,-3.014280473004551583e-02,1.075904584444061229e-01,-1.424574883589480867e-01,1.643107118254459251e-02,-5.050992172172902306e-02,2.489686991650529868e-01,-9.853024393147397086e-02,2.324141752663894805e-02,-5.647292214035114222e-02,1.298837977100388286e-01,1.650854320863534841e-01,-7.281968298626370628e-02,-8.730673836748048533e-02,-7.086955976229884768e-02,1.269565276933846409e-01,1.792274655744714729e-01,-6.943781059128703581e-02,-2.562140042307694543e-01\n-4.198672030611732414e-02,-6.083733960030431043e-02,-1.548596506427477211e-02,-7.577454320750341699e-02,1.179115109838003023e-01,4.471738204221599455e-02,-1.344059594098014065e-01,-1.759903818801871259e-02,2.984734590176820954e-02,-2.104594059295034590e-03,1.194959601057590248e-01,-6.801976690751326826e-02,3.808934557539032234e-02,2.652331634504912980e-02,7.808744962073616014e-02,1.901879691892906787e-01,-4.465293439703653215e-03,6.383191012458777625e-02,-2.533544685218299120e-01,1.935410546515296815e-01,-1.798151755146144559e-01,6.115332156398350233e-03,2.325696035029644476e-02,-1.603602314418310359e-01,1.142538928711016172e-01,1.176124895967887440e-01,1.925706312235928724e-02,7.470919661214625584e-02,1.566341995931266606e-01,2.117584069060142460e-02,1.175457665588973272e-01,2.413539267770242747e-02,-1.222290503593480154e-01,5.075437213155879757e-02,6.154302724864105928e-02,-1.922191251053576369e-02,-6.689037967841357513e-02,-1.263171321628053234e-01,-1.609911017964658075e-01,2.641239644221255942e-02,-9.382857925757270845e-02,1.055138879359559245e-01,-7.894699640336078073e-02,-2.322149231758837140e-01,-1.506241707099546523e-01,1.177859915964096504e-01,9.315117122788868498e-02,1.342932313763516572e-01,1.023061624641942863e-01,7.853376188330277174e-02,1.356245293791341622e-01,-1.917432153380837015e-02,-5.506864100932180178e-02,-2.080432011974077053e-02,1.001829651408184668e-01,-1.424866858782677104e-01,2.156068185004650709e-02,-9.519649162019054242e-03,-8.191430246600885090e-02,-2.969351457631057289e-02,-7.438062087529528910e-02,1.703660757346232291e-01,1.896838736285970384e-01,-6.613654242176859877e-02,-1.219936356272682404e-01,1.646933740182609518e-01,1.315060311754143174e-01,-1.644647228725570898e-02,-6.885330648970897083e-02,1.219356491265975173e-01,3.096368302806394579e-02,7.486980109380318715e-02,-1.904678372130046426e-01,-1.773447107269855438e-01,8.870242812486117678e-02,-1.741223911419124970e-02,-1.365133868216779345e-01,7.420336251976242248e-02,-1.346616864307974802e-02,-1.667723139805126209e-01,1.821221813725211192e-01,2.221012867192482809e-01,-7.459172031031408023e-02,-4.178700398901903645e-02,1.844940084132425107e-01,-1.486618256228486035e-01,-8.209587237553088446e-02,1.092160949551926746e-01,-9.454808344289138133e-02,4.910502823163338110e-02,1.335161939129887454e-01,-1.541629558049721072e-01,-4.686987333141164752e-02,1.860797877438551406e-01,-1.100739703748298964e-01,-1.558466074824026437e-01,9.117717634472224941e-02,-2.608871126577797517e-01,1.746605073666645802e-01,2.214881213494813983e-01\n3.855066056737765923e-02,-1.050183013501177799e-02,-1.602275612490829948e-01,-1.331301793448345372e-01,-1.750176112724445843e-01,1.451765664138402745e-01,-7.278736614870326589e-03,3.401933180667929962e-02,1.715430023887385136e-01,4.147577360111058542e-03,1.417541115896160967e-03,6.022825183009165861e-02,-9.901820784338143111e-02,7.242273422191035370e-02,5.058166411638411603e-02,4.936940650835968530e-02,1.311836231908056483e-01,-1.618899047786007406e-01,-1.260880107142600404e-01,-6.395810194139812943e-02,3.404426663449391238e-02,1.758414176479150826e-01,-8.463247593702755145e-02,8.962192901571392964e-03,6.668543036328895834e-02,5.901909326046238247e-02,5.775526780577417557e-02,-1.716356611885573244e-02,1.417009385760601980e-01,-1.006275210279999471e-01,1.990095407921549930e-01,-1.710876092371785284e-01,6.680989567958932340e-02,8.801448576202523105e-03,-1.828210455291866612e-02,3.114232067237702739e-01,1.372041276930386633e-01,-1.601619261997362376e-01,1.059773539479214738e-02,-6.246582017054438246e-02,1.417730326817725206e-01,1.732644057807894433e-01,-5.054147717102701332e-02,9.244331989863090182e-02,1.405857769309618310e-01,-1.027524982196940245e-02,2.653508033570406086e-02,-3.039939804420726394e-03,-1.233683734465240711e-01,-2.975676196101017731e-02,-1.877991493401522105e-02,-3.545085918118558166e-02,6.615152863416015605e-02,7.787717025138693461e-02,1.706298687034471240e-01,2.480865390327091462e-03,2.233978389702769574e-01,1.886804158824033351e-01,-4.121651586583026383e-02,-1.920946978152471285e-02,-2.067755567470846434e-01,7.797585413649969766e-02,5.863218270360465861e-02,-6.012104494488115097e-02,1.245834883362277740e-01,-1.355737817528128997e-01,-1.107788074373259324e-01,1.580017874001856948e-01,-4.270434243992551893e-02,1.167261051200955829e-01,2.238381772931664904e-02,-2.055035884944105273e-01,2.322146767552785152e-02,4.817347750785876820e-02,-5.363883832102272348e-02,-1.173890173722775578e-02,-6.092749178567564289e-02,-1.209186567680122087e-01,-1.563571846038369073e-01,-7.330571570473960741e-02,-2.716656490546394132e-01,2.408828990110656321e-01,1.565915521625135254e-01,2.621670457013592151e-02,1.001625454607880106e-01,-2.325520291954982777e-02,-5.036845739359153279e-02,-1.852917293570798818e-01,-3.672555509688558983e-02,4.267251735195145418e-02,6.964352190969859413e-02,1.353427628777106317e-01,-1.394241304502379375e-01,1.210815484955547403e-02,-3.134213960677529470e-02,2.880665770243828749e-02,-1.539993556505598327e-01,-3.195131791490513767e-02,1.131362995314519199e-01,1.095695380605256064e-01\n1.450832627554042853e-01,7.020601250444954977e-02,-6.117391100519480734e-02,-1.157306756629098987e-01,8.761287713883649658e-03,-6.179028711366868487e-02,-9.047840969231087105e-02,6.986734126685988089e-02,6.114393918144550924e-04,9.165661130132943257e-02,-6.092720154220844508e-02,-7.183564583475830767e-02,1.508414806121322616e-01,2.802003830506392609e-02,6.000411546229312415e-02,1.806306538986049703e-01,-5.545950902285800427e-02,-2.871888952145569551e-02,-9.087974497956514963e-04,-3.228729326393587479e-02,-2.615730245303386076e-02,1.058245532426995428e-01,-2.889474911472118823e-02,9.324227086152721278e-02,-5.111424512974355183e-02,9.396547348603050132e-02,6.821747206817270481e-02,-1.068802283468414382e-01,7.610531482158180983e-02,1.620111687008463086e-01,-9.886249493995204196e-02,2.717604879942225882e-01,7.272295999307021308e-02,-1.738845700700253696e-02,9.712646793529877698e-02,-7.413030306190204755e-02,-2.116587676105436897e-02,-8.518873400211776636e-03,-1.066701726087584401e-01,-2.295979047306700715e-01,-8.688352687991106327e-02,-7.192226863088113653e-02,2.033576450308979267e-01,1.225963987124020771e-01,-1.860374377475708108e-01,1.548774623245526838e-01,-1.063846337707934943e-02,-3.077369754979382768e-03,1.510710844398494845e-01,3.523844682835176878e-02,4.756791500011820634e-02,2.817850660203754035e-02,-5.801496454710845102e-03,-4.548458890363466650e-02,-3.812597393915977129e-02,-9.675884366066665743e-02,-4.271856076034445671e-02,-9.457373077057699973e-02,2.074545786703601846e-01,-2.954341368274552293e-01,4.737723284733545877e-03,2.769915775012310455e-02,-7.737879812044456962e-02,-4.155526909824090731e-02,1.129939319689686472e-01,-1.585325486956032093e-01,-5.302620423349734685e-03,3.698407081282192692e-03,-6.744680913654690912e-02,1.398929076637929004e-03,1.755735527059022472e-01,-9.920931414085935873e-02,1.154652116773138316e-02,-1.276216317634726038e-01,9.066163252006154138e-03,7.250122133457460871e-02,8.258052481459242367e-02,1.532577100579077534e-01,-3.307201197936676662e-02,-1.989247449881654806e-01,-2.224115667396751317e-01,-1.760174571861985726e-01,-2.509939170893775440e-02,1.917346174437100925e-01,9.056654536103610209e-02,-1.254851434257210352e-01,1.798667805715403745e-02,-1.447003641247570360e-01,-1.528159351013760880e-01,-1.584945393959715509e-01,1.499210990696333012e-01,-5.545083708516575921e-02,9.216982938591852803e-02,1.346176337335661666e-01,1.238230688197840823e-01,1.487616606800500896e-01,-1.174080019030893235e-01,1.317083923421534519e-01,5.604935881313657248e-02,-3.789602034682664627e-02\n-1.904921085296261973e-01,-1.644652748058283986e-01,6.709501456646006778e-02,2.955563497585103616e-02,-1.011619577799550002e-01,-7.481742628767276693e-02,1.024722304117591520e-01,1.227427731437381042e-01,-4.583110419426347087e-02,-1.499271712610087681e-01,-5.946442196083406850e-02,-3.155664389079568255e-01,-8.587739844397493383e-02,5.871667565459428445e-02,-5.144806804570142313e-03,3.542065157214650817e-02,-2.719683883131997562e-02,2.694192214109610711e-02,4.783198567541890878e-02,1.955841128531798090e-01,6.306869985559108820e-03,-4.642501148282451862e-02,2.045122841512673761e-01,1.865411103318757591e-01,6.001241943539976920e-02,-1.548230343436624024e-01,-1.633924423961960748e-01,1.034646474610293049e-01,-9.529678747671483513e-03,-6.768492715794278969e-02,-7.327479547554584249e-02,-1.134331229980854866e-01,2.681649162173940226e-01,3.879613178910988093e-03,8.256772687742243433e-02,4.324158466328764661e-02,2.646261882716862551e-02,-7.615458461150868830e-02,3.839661559107979127e-02,1.003250252256173009e-01,-1.127012337363102745e-01,1.254376334728913300e-01,-4.807567833393171230e-02,1.014912627669221218e-01,-5.118440809641239958e-02,9.369307259260965803e-02,-7.033807292652688448e-02,-2.210216682860696724e-01,-1.900861396909999945e-01,-9.609341138945971805e-02,3.625667227761291550e-02,1.381215031623559963e-01,-5.114036599219951018e-02,-8.420111467335422706e-02,-2.454076311052677192e-02,5.401331089783552308e-02,-1.600306049040628453e-01,1.223762091043231887e-01,7.577016627119589898e-02,-2.305396944548737323e-02,-1.176754347380022103e-01,-5.953373365449084187e-02,9.291000447936587081e-02,-5.963419674593141429e-02,5.805107738141184609e-02,3.497263947206771112e-02,-2.001951767668697646e-01,-5.261492900451582647e-03,-1.894557355795459253e-01,1.543310440988956422e-01,-1.654916918843694629e-01,2.368409597423388191e-01,-7.239375636992330387e-02,-7.923480289216738859e-02,8.973940939856502041e-02,6.914337045950721961e-02,-7.808951464392006880e-02,-1.431139737445198123e-01,-1.225658704000955057e-01,1.498364499363904166e-02,4.739439879730841798e-02,1.186433177440227305e-01,2.813140346908755279e-02,6.863989005302062463e-02,1.449032351720450779e-02,-4.708672300551108164e-02,2.496626178331617651e-01,-6.278885393856615399e-03,9.608264577368469048e-03,1.117829410643851329e-01,-1.247120930844504844e-01,-8.711939235137337867e-02,1.460861042834130930e-01,-1.090421721079099932e-01,-5.863270768969121305e-02,1.397424547846980725e-01,-1.323976073971482592e-01,4.743104024679733327e-02,7.967724606586142067e-02,-1.381861302923117207e-01\n1.309893194404699313e-01,-7.033694953771663094e-02,-1.345480484595767967e-01,6.949700448049388191e-02,-1.696023809447068376e-01,7.746295422965640554e-02,1.668979742898466651e-02,5.951758913400826030e-03,-5.206878303773580102e-02,1.902022973722539145e-01,-6.657504065407593430e-02,1.491115853984027739e-01,-1.548736837228379681e-01,9.976992481653611244e-02,9.391222949815089538e-02,1.402275008490044134e-02,4.083201872674805527e-02,2.057966983981604839e-02,-4.071841856533987836e-02,7.633306567615041199e-03,-8.691061171396914642e-02,-3.354294925571927460e-02,-4.932078264729169992e-02,1.294454148765170898e-01,-3.632300668010491479e-02,1.859058822618289697e-01,1.133388781862005174e-01,1.279652795646743779e-01,3.535744109768824972e-02,2.041441024081621924e-01,-1.181310279495325077e-01,1.807420639488668823e-02,-2.176586096116054844e-02,9.197554820307393686e-02,5.937448235853387546e-02,-1.274233547059145100e-01,-1.626900620002279252e-01,-9.273416230752133671e-02,-8.602239532975929082e-02,-3.183708581924521441e-02,-1.236032553363856507e-01,-9.290767355411434780e-02,-5.369195943452232528e-02,1.973747575018006961e-01,-1.160686545278795910e-02,-1.005083330107503226e-01,2.467480798649509255e-01,-9.192793665387807844e-02,-3.241785352813635057e-02,-1.014289819185334313e-01,-1.424419145495035843e-01,5.278396178797294114e-02,-1.812617038323267524e-02,-5.197393193075984519e-02,5.636750427923890167e-03,9.637032337002661431e-02,-2.409450865235678585e-01,2.849953792522725432e-02,5.560562838162640131e-02,-1.024738048857603417e-01,6.768243558856144870e-02,6.856380513774839973e-03,5.617125296823852199e-02,2.506058801140098515e-03,1.805324546421045173e-01,8.866297943701967332e-02,1.162726466138681719e-01,-6.132815184192991209e-02,3.497024496173387759e-02,-6.679740899137767696e-02,2.289005890167344556e-02,1.621104176989150436e-01,1.885168125319685029e-01,1.745585781411411463e-01,7.120630434694981414e-02,8.216096735963653030e-02,6.604572267456776391e-02,-3.709303218983969058e-02,8.242879642016207042e-02,-3.046609389925467037e-02,-3.663168976257893256e-02,-2.446355507814298308e-02,1.205777578141591089e-01,1.488425297246968593e-01,4.272359320404066352e-02,-9.827645225645353921e-02,1.273230659861472325e-01,-2.300353436104928539e-01,5.289598051020250741e-02,-7.142818763202316013e-02,-3.985253699933054977e-02,3.417891988019838151e-02,6.267941682252170521e-02,-4.341696042135843869e-02,1.441200539722153062e-01,3.858552766179482868e-02,-1.669939695464034424e-01,-3.287019522183590864e-02,1.457804889320200165e-02,8.572469447247345331e-02\n1.128205142368846475e-01,8.900393387846060322e-03,3.499505154760373937e-01,-4.698992761022209586e-02,-8.657289509823731799e-02,2.339723528697904356e-02,3.698144991089052230e-02,-1.981985301912534206e-02,2.933756373677523163e-02,3.666665365917461811e-02,-5.007403837004975600e-02,7.601688153699359685e-02,3.212193481057349503e-02,4.915829716496254026e-02,-1.165026443891711283e-01,9.366602219044904698e-02,2.417540996938129239e-02,-5.190677903878485738e-02,-1.463265620456754013e-01,-1.855022573199729408e-01,2.483532833626334035e-01,4.899142429252242859e-02,-1.376976723593570373e-01,4.110397503838677385e-02,-2.136993345974871339e-01,1.553327457847220316e-01,-1.846531005769357914e-01,5.569712639260519793e-02,-1.513381471401954448e-01,-2.760951798252453751e-02,1.042798538359855365e-01,-1.292990828122590474e-01,-2.550665879731138785e-01,-7.092734567408826019e-02,-2.103153758450909405e-01,-1.279714426603771049e-01,1.646575033657425927e-02,5.724474372279705903e-02,3.998859344404407518e-02,-7.250111030883869823e-02,5.673459530379525162e-02,1.758202252499549700e-01,3.439343632012756974e-02,7.522057651875967144e-02,-9.150192510630163201e-02,9.568422993938525967e-02,-2.163861940066536330e-02,1.431865187384676330e-01,2.443769577017288960e-02,-5.870753967640640614e-02,1.212030238210231453e-01,1.654015643199612806e-01,1.013390135431179451e-01,9.800032098749564269e-03,1.576767120778370390e-01,-3.759685463828563688e-03,-1.550245982043844395e-01,-2.653954223364628495e-01,1.783330240251465582e-01,1.560389473174424724e-01,-1.867240849581850159e-01,-7.439850118792618039e-02,-4.912700583951226663e-02,-6.497535719109190366e-02,-5.786311290761658732e-02,-6.784805200540572345e-02,-2.057015800630565203e-02,-1.769959198365440578e-01,1.094736628432876058e-01,-1.790131128196397609e-02,6.969828250488291355e-02,5.859138902722284964e-02,-1.655723170264670197e-01,-9.641629264455305048e-02,5.824504980137332893e-02,9.447661436611769215e-02,-1.203137899431455243e-01,-1.174210654640941570e-01,8.327962417639928061e-02,-2.286773545343341041e-01,7.202111256509900750e-02,5.590480543269123886e-02,4.469638749738108485e-02,1.404425410924898809e-01,1.504488201522351520e-01,-6.250544766833175669e-02,-3.589277380035476445e-02,-5.919243948286955631e-02,2.263552957755260719e-01,-3.671313936308423509e-02,2.148965053118389312e-01,1.271584279015792740e-01,-4.528935278161932976e-02,-6.859839682185769894e-02,4.101198701137422076e-02,4.297731221090006493e-02,3.468189550059341125e-02,-5.238301777293154216e-02,1.137639741042698466e-01,-9.542640509429861639e-02\n-1.262605294720985927e-01,-1.731618684552082774e-02,7.812917889164421037e-02,9.497141420791524458e-02,-8.281208962806463347e-02,-6.456836707542559783e-02,3.651940853770700018e-02,-2.584508446058542824e-02,-1.470111700580544745e-01,8.004918602792638477e-03,3.361498237763287100e-02,4.037629422262214302e-02,2.648117302465542999e-01,1.795073221788076878e-01,-6.777926232655565909e-03,8.470902559191053477e-03,8.504012546296331465e-02,-6.414185693893580120e-02,5.964037336929167016e-02,-5.914179203237204807e-02,-3.555168134899933108e-02,-3.063346400289715388e-02,2.543723673999365720e-01,-1.047611474169750367e-01,6.320622387216169591e-02,1.500426049537843531e-01,5.381284790300427945e-02,-1.682246231046550383e-02,-9.693928111992033969e-02,-6.541027706700056066e-02,2.018713325420714577e-01,-4.540699090670225618e-02,1.173145324763457190e-02,-4.357571436113082120e-02,8.348415012143450831e-02,2.511519781268597984e-01,5.324237335738805574e-03,1.612419170086525425e-02,-1.290741215631602268e-01,-1.069757497400477819e-01,9.882985282493431112e-02,-1.151082165228243803e-01,5.416904468215555032e-03,1.135936935456985097e-01,7.980617297471013713e-03,-7.173597209842173805e-02,6.153246234842631168e-02,6.038306647350134837e-02,9.215558028100460930e-02,-2.551219043149906551e-01,1.273542824508608687e-02,-1.695554953472623305e-01,-1.046309043156188820e-02,3.985129697164767337e-02,-3.528015769844201899e-02,3.706365143018602870e-02,6.892215969535794851e-02,-1.211966402114285635e-01,-2.052405405454439322e-02,3.647260127403096578e-03,1.838699578479796870e-01,3.401692405607634889e-02,-2.406857171707679766e-01,8.529243295867328101e-02,-1.003259924697575134e-01,-2.726529888923482359e-01,1.703689400347592753e-01,-6.320882278679852695e-02,5.691646299521601476e-02,1.135480644239941946e-02,2.012526264742462226e-02,-1.265602134826898095e-01,9.122344426462074274e-02,-5.513627107570884950e-02,3.225610012672719407e-02,3.425381773036301897e-02,3.978858876518126531e-02,1.030046931494803392e-01,8.346585978345880119e-02,-1.274671648669496596e-03,-4.037040126322740535e-02,-4.446889494626489470e-02,-2.928795352811397468e-02,-1.890700298995369177e-01,-1.029174016632646432e-01,8.501435313224603441e-02,-5.419578024723848558e-02,-1.134291596636516769e-01,-2.243574457922143661e-01,-1.500857770694894455e-01,2.206632548416714856e-01,-1.100415350421739095e-02,-1.400315550264447095e-01,-6.856627192418002226e-03,-4.474785130214932460e-02,1.016614155962274474e-01,8.078367446344009162e-02,-1.459006920022235809e-01,-1.007137556747861318e-01,2.425723359144527913e-01\n-2.038186829995965177e-01,8.569333430978562371e-02,4.985127972505050409e-02,-1.151733369191365181e-01,1.285536518764645308e-01,-9.439167285226498713e-03,3.016481721122360460e-02,-1.200888791175374892e-01,-6.358896313388304189e-02,-6.524271891317121042e-02,-7.765906180456426389e-02,-1.080320542216765545e-01,1.770825216717057948e-01,1.747723882678219598e-01,3.327863277806722853e-03,-7.770782010085749980e-02,-4.634107824251156027e-02,-1.660208901193393205e-01,-5.496270631128436640e-02,-2.045649939125702976e-01,1.318157978316220613e-01,4.728072831178460611e-02,9.723484524288587491e-03,-5.262537762407294706e-02,6.918529469107219387e-02,-2.891945589707864417e-01,-3.042764642073701817e-03,-1.619008313221968753e-01,4.823020718385347821e-02,6.244187697622029590e-03,2.882677825920441569e-02,7.027199973149989010e-02,1.988102093891543076e-01,-3.732314316142943539e-02,9.774012062722278738e-02,-7.963779065205868479e-02,2.276310798084563158e-01,-7.037198062159726736e-03,9.941806694877057538e-02,-7.106765726737068745e-02,5.798017115202567379e-02,-5.029210136041169926e-02,5.457790263664342306e-02,-9.575634416995924825e-02,-1.316915045303006793e-01,-3.990670969639721621e-02,-8.892982380468460180e-02,2.556525625757092302e-01,-1.343845070283837539e-01,1.412197104651790880e-01,1.175168519745566076e-01,2.871518600410181143e-01,-6.626947720987441670e-02,2.264885675329182946e-01,5.647181659042450896e-02,-1.368493553677879553e-02,8.239068751250497313e-02,9.531809843792250769e-02,-1.339896569596823461e-01,-1.147514892588257229e-01,-1.619555212206864880e-01,-2.597770559204894136e-02,1.155440049256762497e-01,8.396988408771592638e-02,4.988876185050267198e-02,1.283387817034501999e-01,1.139539057017323193e-01,6.911575210394148294e-02,-4.914622663963546384e-02,2.789485702871701001e-02,3.204940126561807712e-01,-1.193467941820391121e-01,5.979628051351171258e-02,1.415311580552044979e-01,8.519697794556146953e-02,-3.911747102393035164e-02,-7.600922507260267358e-02,2.954259112560844724e-02,-4.584548846273264755e-02,2.274112541871708276e-02,-2.897267476332117658e-03,5.393245450658658985e-02,-7.521540397351306195e-02,-9.928342813232632347e-02,-1.244692837944991054e-01,1.543107715842001459e-01,-3.244586841035453344e-03,1.906350856293215559e-02,1.362420967886984469e-01,-9.507807844808940922e-02,1.244921319899994216e-01,8.142075699045202286e-02,-5.949554817478235058e-02,1.567299578057326503e-01,-2.617773671382260872e-02,4.200928132917416957e-02,5.948372311626434067e-02,4.717489065433897073e-03,1.153167598086893841e-01,-1.051030468845304683e-01\n2.561042036341110162e-02,-2.341414302622880222e-02,-9.985469049762242533e-02,-6.279699416886766472e-02,-2.176071761791834036e-01,-6.495255232567159753e-02,5.358778239701982027e-02,-3.148187075031996102e-02,8.362434919080942441e-02,-1.424275676353118358e-01,2.026635432353610447e-02,3.645643603695965934e-02,1.257521328561141127e-03,1.580867073204126061e-01,-1.001992177438955911e-01,-9.402019096144695331e-02,4.959966624062077736e-03,-1.247716325375324425e-01,1.509585559592112325e-01,-3.817521140998893225e-02,6.830841277783068766e-02,-1.312532184373050026e-01,-4.214861026436984570e-01,-3.046879886906544033e-04,2.103565930405892903e-02,-1.503548679844805488e-02,5.681815036197716828e-02,-4.548883768565962354e-02,-1.448652001390296311e-02,-2.843260538056520750e-02,1.646276989861790163e-01,7.061240314023554954e-02,-2.380921517171643575e-01,1.676450276097296577e-02,-1.393538379703884549e-02,8.668707753308024788e-02,-8.284800693297372787e-02,-3.730083652702812641e-02,7.260615630405914747e-03,1.246733074921596574e-01,-1.262024395658882005e-02,1.000775843072416044e-01,3.243990458642624641e-02,9.377883636143906354e-02,9.185069474001875123e-02,-2.900546052806633746e-02,8.384042215105094731e-02,-5.420197160015283872e-02,-5.275781433270902709e-02,-3.472315294236207744e-02,7.352640474674770107e-04,-1.244575615087187420e-01,-1.155289037416753622e-01,1.569613550949494341e-01,8.321468990911674857e-02,-2.961619863101702275e-04,-1.167336235750765921e-01,7.248676794695148307e-02,5.361056394424901922e-02,-1.276896828981894348e-02,-1.562328838409031417e-01,1.329415795966238907e-03,2.475695403269278019e-02,7.538744075549710802e-04,2.225964937449843428e-03,-1.215220008027447784e-01,8.529896489547902916e-02,8.135680922656400582e-02,2.408321004015611388e-01,-7.021457721029701615e-02,-3.458391433431717149e-02,-1.183147545019963970e-01,-5.012699076131420933e-02,-1.268155901921072248e-01,2.027969928973358954e-02,9.090828416942794976e-02,1.103335600669704680e-01,-7.370551783365604515e-02,1.519213890830318214e-01,1.563594565840524140e-03,3.754511608274521770e-03,1.598309875439344330e-01,-4.864366069273540899e-02,2.089185475423326055e-01,1.083377392691869806e-01,5.125240863835786587e-02,6.136464311393277637e-02,9.173741038520505375e-02,-1.290521358940982001e-02,4.842809831021895745e-02,-6.809272745620680023e-02,1.818899320945762121e-01,-1.221856757408821686e-01,3.181676391875848386e-02,-1.548742038220304595e-01,-2.271742798255889095e-01,-1.001232685011596707e-01,1.203726077571112135e-01,1.360866582257849733e-01,-1.200419343111566450e-01\n-5.883310048907514772e-02,5.312387242236981527e-02,-2.305640589414656993e-01,1.360585712296117633e-01,-9.607891670087069513e-02,-7.255433426565409405e-02,-1.066824996725156544e-01,-3.157136634778107132e-01,-9.824943245676510950e-02,9.017282165811174588e-02,7.180190851047661693e-02,3.247964688387899174e-02,-1.394450943522120012e-01,2.977679629687361371e-02,-8.837127495967457558e-02,1.731088282359718455e-01,2.789822252660277904e-02,9.156134137757385161e-02,5.359267461441573344e-02,1.470364837069428610e-01,1.621226921737087823e-01,2.122190234864875236e-01,1.795662767769253335e-02,-1.374618411262474964e-02,7.666521571565373082e-03,2.184482443151759823e-01,-2.655646063187540318e-02,-1.072567784509254468e-01,1.622413160959014222e-01,2.593990131375433772e-01,4.734268030071239752e-02,2.427438914489002289e-04,-2.584412956172209286e-02,-2.011616705568735619e-01,1.077429471552997509e-01,-5.385319989349184782e-04,-4.477877219432967876e-02,1.666966389790246750e-01,-1.774268738949534227e-02,-4.221236565097993138e-02,2.394452958994858910e-02,-1.129499239483311435e-01,-3.331852321340083439e-02,1.146497776369749359e-02,-5.174817245747959787e-02,5.038662472784936203e-02,-1.067969585416512629e-01,-1.688511925335205721e-01,2.018563486892106240e-01,-6.898542611942573566e-02,-7.384403062590801092e-02,-9.490019961518275649e-02,9.661944292293207781e-02,-1.923786521582781517e-01,1.108049784597458648e-01,3.409135629469393219e-02,-1.158804527488961622e-01,1.372304834186395261e-01,2.286488323409883450e-01,1.351778379516165030e-01,-5.760499002597936277e-03,1.032945091898340301e-01,-8.881707371002377227e-02,-1.017422198379631104e-01,-1.496791990883233614e-01,1.813809738914541267e-02,5.620178614683396523e-02,-8.776491129887596318e-03,-3.546956271718464115e-02,-1.849497947070410930e-01,2.536571303187198922e-01,-5.833572533869010868e-02,-1.663211130959576789e-01,8.813737084137402214e-03,-8.051482540624042838e-02,4.747186357993221639e-02,2.010891988810075415e-01,-2.233634659204382367e-01,-7.156050321679410797e-02,-2.219494281284590739e-02,7.542232900521386729e-02,5.398842676684593306e-02,-2.432252305985288174e-02,1.531703642022635807e-02,9.800550628574900003e-02,7.071855794775443182e-02,4.050996374084470802e-02,-7.528286215357164746e-02,-1.648088332504009101e-01,7.004795060814715535e-03,1.131513301865007259e-01,-1.253934898552572785e-01,3.216312727653768133e-02,1.672544106984597545e-01,-1.340330723786905057e-02,-2.787203564471412917e-02,7.468961845321618609e-02,-1.869142986352712310e-01,7.820129523570595875e-02,-1.882869410000106644e-02\n3.700906410177120034e-03,-1.401378768918005169e-01,5.949993904286748903e-02,3.925734454428070341e-02,-3.624644237564091098e-02,-1.881340002812715564e-03,-4.473986633311634320e-02,-1.983236058497909321e-02,2.476345036073781813e-01,1.568030654904923327e-01,-2.683001164997302346e-01,-8.774703813971021504e-02,1.754452149022507623e-01,-5.324823184521679936e-02,1.602023493286104383e-01,-7.437975148894919713e-04,-1.992305589673844246e-01,-3.658440556949461853e-02,-2.116264193197691101e-01,4.668345143945116377e-02,-1.246680080069314210e-02,-1.020855088056975279e-01,1.703179996234934213e-01,-4.593611577578235461e-02,-4.645046679047346722e-02,8.729128937983500480e-02,2.226041533270695094e-01,-4.609269482740364909e-02,-2.718068273080014377e-02,9.561881401002175198e-04,-1.512215087533283209e-01,-1.452884667902696048e-01,8.767710854979655910e-02,2.306106114490328041e-01,1.245064401687479838e-01,1.076565874103012077e-01,1.297452449351040593e-01,-5.533504240401241475e-02,-8.723331480972736085e-02,1.870964932543946468e-01,-8.656805150304222596e-02,8.248274528094197422e-02,-1.350757603437981735e-01,-8.953941370216811357e-02,-3.899113518915783144e-02,-1.077658456886866761e-01,-1.365208318381491148e-01,1.274461464257696797e-01,-1.133722428529222448e-01,-8.948804397821640000e-02,2.131626315075145495e-02,-9.460716612929145897e-02,1.731679452818787879e-01,5.982657901224315566e-02,3.741567201409165544e-02,-6.787284469218636540e-02,1.059165803408348150e-01,1.074505592568831824e-01,-5.069475235469385332e-02,4.626287162161601269e-02,1.339590021279312981e-01,1.528482044293301978e-01,2.692108593181974374e-01,1.367999268415077685e-01,1.945083043795053090e-01,-5.961564924919043884e-02,-9.520266043222902486e-02,1.499181574773006120e-01,1.314139047968791371e-02,7.649290374917593061e-02,-1.151524951424344884e-01,8.381274765261607917e-02,2.799069502696692816e-02,-1.297894037451647817e-02,1.569723879972851344e-01,-1.140204743050842184e-01,-9.975397804424361581e-02,2.019202169475443620e-01,-3.863509405439526784e-03,-9.446127484454414081e-02,1.226587240517039434e-01,1.405149010415891742e-01,-1.532006263502629639e-01,-5.050006878777273805e-02,-9.001738851865498381e-02,-2.025269189033368222e-01,1.519200730439292379e-01,3.300141078109179033e-02,-1.814398588098109499e-02,7.477868889947308917e-02,1.208196763135090529e-01,1.621519929908989740e-03,-2.737429386344892787e-02,-6.580674376951434201e-02,1.404825122981379071e-01,-2.612301511106927127e-02,2.093627843592023308e-01,7.310562621032772046e-02,1.717457968325085682e-01,9.723931948483847953e-02\n-2.431715056683662890e-02,2.189133008163916538e-01,4.336541376454492759e-03,3.993694169568358376e-02,-5.052855126682086195e-02,-8.252486859688766552e-02,-1.577442259731599294e-01,2.396498461573396896e-02,1.395289371021713187e-01,6.062884301150505556e-02,-3.358352497974297773e-02,-1.388607105727014401e-01,3.825490672793981518e-03,-6.498466338365016526e-02,-1.200935985564311088e-02,-1.816603409551306378e-02,-4.474828407137343075e-03,-1.294076492348174567e-01,9.864032890450945279e-02,-1.048432679392110184e-01,-1.405061554859642903e-01,-6.101566037065599829e-02,-4.054787616124199551e-02,-1.233529086796504408e-02,9.743010422645387303e-03,7.511243618978570569e-02,-1.380834452991003096e-02,6.048143322769297670e-02,4.774617966269744523e-02,1.306261880835543343e-01,-5.858895157167705314e-02,6.334788485779012379e-02,2.007427725515381622e-02,7.276084123130785453e-02,1.774546697314450250e-01,-1.396354148591160693e-01,-6.908489723581973108e-02,-1.871163412167776152e-01,1.310258819977493661e-01,-1.198531334828258355e-01,-1.074977317096557639e-01,2.124240521331032666e-02,1.394776770386129128e-01,2.294740091473507909e-02,-9.468482712078954422e-02,1.167541949864764755e-01,6.263352026203448941e-02,-2.581927919862432586e-02,7.543728556324458268e-02,2.344307086457723607e-02,1.803177779301382566e-01,-1.102856396412694451e-01,-6.355797141913685500e-02,1.282275770882649046e-01,-9.051882243266548556e-02,9.567226016595220539e-02,6.801902927644053187e-02,3.658592454417748663e-02,3.919454244675227989e-02,1.721948625562382679e-02,4.703149714023668881e-02,7.478331175277420917e-02,1.868951672245271756e-01,8.320639726835502015e-02,-9.231228782996099558e-02,9.456976451022493235e-02,-1.020595098505288761e-01,-2.704849950431975625e-02,-1.295783333317888086e-01,6.356922532992351216e-02,1.085466780951661186e-01,-1.301656525368797834e-01,-6.801415043297699692e-02,-2.526583181040082532e-02,6.820892812617640466e-02,1.590950278739879653e-01,-5.621359786784724949e-02,1.246092693243540800e-01,-1.902776987742328951e-01,-8.211571480925254629e-02,-1.256170171244652967e-01,-8.944152767067108101e-02,3.942902156744512721e-02,-3.020513519107800304e-01,5.061455445062972014e-02,1.086030491925600167e-01,-9.038058311471876272e-02,-3.122310110694726318e-02,-1.504273417856240858e-01,-9.164722518420195807e-02,8.818116482563460867e-02,1.569516039488463022e-01,1.041036607222168009e-01,1.069981083742113648e-01,1.201217950927586930e-01,-1.305142372863563049e-01,-9.090927949327698432e-02,-5.628460300777183428e-02,1.253476897346531005e-01,1.705697135655572308e-02\n-3.088189137186182764e-02,-2.235476479333275979e-01,1.488535115020012990e-02,-1.566401954162540688e-01,9.688624130371487064e-02,2.302728391371087480e-01,-1.164327802923525723e-01,1.408004031355098665e-03,1.360835057597325204e-01,-5.374678267949664634e-02,-6.011112824366995205e-02,-2.034971989564905714e-01,3.621910246731759875e-01,-3.588873081942551418e-02,-9.258519716923999110e-02,4.157182224613218541e-02,-2.665234481111846201e-02,-5.379307749733355098e-02,-3.866498686838596571e-02,1.176017075716835336e-01,1.069771042399915856e-01,-5.991124824354590594e-02,-7.706984574166235447e-03,-4.695983321276497868e-02,1.020992462716314580e-01,-1.669057058629542026e-03,5.382033400634306936e-02,1.554245124080032570e-01,-1.300395011607916040e-01,-1.037131167117543579e-01,-9.607217519035260445e-02,6.275631866503256218e-02,2.475870032638849763e-02,4.073786117966691350e-02,1.827773117815323090e-01,-5.321937980235445440e-03,7.005376987607146722e-02,-5.887827586390024376e-02,-9.055967089824355776e-02,1.627053031247631398e-01,1.062243447595866280e-01,-6.105873648911914336e-02,-1.503580371360131174e-01,-1.242256320538129115e-02,3.245431320950158127e-02,-1.018823505082484399e-01,-4.801335380159271055e-02,-1.435446823142689232e-01,-1.363040623440922756e-02,3.456351450000844788e-02,1.372670575026281765e-02,1.831965211263062582e-02,1.243529525731072727e-01,1.971593714788737184e-02,1.026275633186331804e-01,-9.259442480680838555e-03,-5.077321560484888280e-02,-5.369732768852482005e-03,-2.211690039818935694e-01,-6.145580270271293333e-02,-1.872276520163770330e-01,-1.194410575719281609e-01,-2.502030739790703784e-01,9.177883005040866904e-02,-3.550713716795406150e-02,1.241325875858233091e-01,1.661416078163923393e-01,8.935448960889272318e-02,1.098228222209597649e-02,1.076000389432378856e-01,1.742454999607805088e-02,2.194809139042649959e-02,-1.289970422959175744e-01,-1.335967917662178872e-01,-2.737807533660902709e-02,-4.729407474052681887e-02,-1.169357773101011577e-01,2.176138411338040257e-01,4.521567669461584033e-02,-1.216499856905966515e-01,6.329310947917182739e-02,-4.041859876371190624e-02,-1.452817864556924798e-01,-8.091371285560912396e-02,-7.602975260174718586e-02,8.887346881250922457e-04,-3.414838738330203127e-02,9.233682483954855358e-03,1.393845509457853835e-02,-7.596707503292693398e-02,-1.349114138088770287e-01,-1.435630075987617549e-01,5.792926662976625313e-03,8.615841838264173824e-02,-7.409944124219616790e-02,7.876105183888684746e-02,-3.447898099197404392e-02,-5.891614060416564685e-02,5.313065760439706492e-02,-2.442846821326638551e-01\n1.111581514201306214e-01,-1.199009330900989989e-01,4.531424538439952909e-02,-7.645678613298806381e-02,1.717807265243092019e-01,2.249336194215481588e-01,1.467383533619508662e-03,4.325551699521090060e-02,7.304337390626991500e-02,1.438736248768807124e-01,2.189760241715629080e-02,6.450646294826226090e-02,4.913247577410281147e-02,-1.315623057429062270e-01,-1.637762747608549896e-01,6.805400627757365872e-02,-1.247215482209535903e-01,3.387293795869956992e-02,-1.139659948102233894e-01,-2.018750680571582967e-01,2.362252127910476930e-03,-7.865287413257818216e-02,5.655322467969889355e-02,1.197069830137706403e-01,8.374197573618713530e-02,1.046736287432231960e-01,-1.538019128822573633e-02,4.061158035309466591e-02,1.338984966790555675e-01,3.845399591966377345e-02,-2.227545464425428542e-02,1.275622475425390806e-03,-1.216205427585855120e-01,2.884362563599938145e-01,9.195770503578089283e-02,8.814607459157372538e-02,-6.616241795367616696e-02,-6.723976517282881371e-02,1.043347864804458625e-01,3.556784149630305703e-02,-1.734759328593575567e-02,-2.216052210231517217e-01,2.159584838353630354e-01,-5.533043804845963476e-02,9.659851341363713886e-03,1.383463207193855737e-01,1.785089235879798175e-01,3.652899776159021852e-03,1.389155945422336780e-01,7.540856615265773000e-02,1.210536915659564672e-01,-1.420341965144787388e-01,1.049125355787263597e-01,-8.973029631563526898e-02,1.171970489590408102e-02,-3.852814399231987985e-02,2.657633467939099839e-02,1.624268983442173908e-01,-6.317282541036413346e-02,-5.751289941934845107e-02,6.648327491414930679e-02,6.353401487197173070e-02,2.896430779502353614e-01,-7.013029372263600292e-02,-8.368235245443927245e-03,1.266709606955636336e-03,3.606252074082606784e-02,-7.157144274189064515e-02,-1.954189819998547184e-01,-2.391929611969764724e-01,9.596069616416916248e-02,-6.721573497761257343e-02,6.533737913846381085e-02,-1.071182612415887830e-01,-1.336708357636596234e-01,4.301875789445810255e-02,6.196090882086293349e-03,-4.608513007594212951e-02,9.815950789657294784e-02,6.831669428831445290e-02,9.146888131993242965e-02,-1.802569614023579597e-02,-8.390486178668941572e-03,-1.101219118390132229e-01,4.196135794399814822e-02,2.459676276928977057e-01,3.909743814505726132e-03,-1.617391034766566815e-01,-3.502441890276765390e-02,-1.722253766625024274e-01,2.082309453852539127e-02,-2.228952179048935833e-01,3.063449563264090611e-02,4.419681738940237081e-02,1.084978833580241796e-02,-1.922226641095633320e-02,8.881515305607627642e-02,-8.354162627623241966e-02,-7.642687064024683563e-02,5.101869910636092076e-02\n8.208177551859515862e-04,-6.527491013793985768e-03,-3.220447002805806175e-02,-2.554639647508474484e-02,3.331077239410631941e-02,2.474162863655560707e-01,7.535349099950167107e-02,-6.699206260830282977e-02,1.024535063627623893e-01,-1.640794872803793061e-02,2.026535036096625136e-03,5.294640961040378291e-02,-2.676350901806805183e-02,-8.457341937919037045e-02,1.591275080423635302e-01,4.803406726125002135e-02,-2.397844200056303554e-01,-5.539674017775921434e-04,-2.304918729523740967e-02,1.781624937096646169e-02,7.488525318072811188e-02,1.564617761714947874e-01,5.100500477522296877e-02,8.213457725139922116e-02,5.245372881847489011e-02,1.080028399212690227e-01,-6.369643202445219796e-03,-4.608269134512421594e-02,-7.744027527328491145e-02,-6.383178565238022129e-02,-2.484137065774181807e-01,4.684380047748448739e-02,-3.260741410251211114e-02,2.881155085042362909e-02,-9.934921539836175097e-02,7.929027943729616279e-02,6.053021210876490671e-02,1.018686590329386937e-01,-1.014586128549691685e-01,2.517248443714934295e-02,1.175099714510128013e-01,4.742658667555192664e-02,6.192168472983774347e-02,1.991305109899676185e-01,-1.247917278807811753e-01,1.763101971137441548e-01,-4.446088353083163525e-02,-5.895700259166371249e-02,-4.523281598022823626e-03,7.129916084955242872e-02,3.193729855712287846e-02,-8.360399081406867661e-02,-1.684311496672602493e-01,2.403268418514609150e-02,-1.320189254360722500e-02,1.659349101600703369e-01,-1.027637641316708761e-01,1.009990647200475350e-01,1.048399865423123994e-02,-2.129997850462153064e-01,-3.721948439038424289e-02,6.526580964136627361e-02,-2.169410325222017877e-01,-1.069700715244540634e-01,-5.205802704719713833e-03,-6.291574444917152897e-02,-1.658571645596737809e-01,4.794091070333501847e-02,-7.522083813598169633e-02,2.471033701049896603e-04,-1.349966002520767427e-01,1.073045056854885354e-01,5.591358440841725369e-02,3.072071710999124163e-03,2.873651738756274887e-02,1.194567878374512282e-01,3.164347640769293868e-02,-1.530829308472095307e-01,6.394497558501276331e-03,1.121821145082389226e-01,-4.196214639256463236e-02,1.382381813615288779e-01,1.384183300025758068e-01,4.792426289484284785e-02,-1.583590050852523301e-01,4.180194115184373421e-02,7.107389615975633068e-02,-1.152090868612278829e-01,-1.927180115479989186e-01,-1.093873544921058691e-02,-6.012623213148710413e-03,-8.391292666049531002e-02,3.015683241518598429e-02,-5.609300460426550061e-02,3.797801622935639831e-02,-1.163902303425651610e-02,9.461006891241516281e-02,6.919238794199880638e-02,-9.796776605356710688e-02,1.275133745025836540e-01\n7.015196366896727861e-03,-8.102345666524309042e-02,-2.032105027701728781e-02,3.950061898417294576e-02,-2.028789472014490003e-01,8.719146759508393518e-02,-1.575297409029305720e-02,2.504941017097899944e-02,2.455227910773959132e-01,1.066341446278744193e-01,-7.314268978335969340e-02,-1.094202661473328148e-01,4.740406087229891152e-02,7.383255166204538700e-02,2.681292835987674622e-02,-2.809151945010938123e-01,-1.351431672366852077e-01,-2.146878341720694361e-01,-7.967365939731789470e-02,2.408313560091054628e-01,1.686226400098184697e-01,1.299687542490819414e-01,1.029809302204026944e-01,6.399409044287689141e-02,-7.632907653763751354e-02,1.946415506247339000e-01,9.415377351577697285e-02,-4.637217533224706478e-02,-8.680421492678415396e-02,-1.451729771359291377e-01,1.675589566095957161e-01,2.810536633383295402e-02,-1.547345592007299056e-02,1.363275640066257399e-01,2.106555230042929661e-01,-1.081358242094687949e-01,6.286974014327161714e-03,-9.467799880778328403e-02,3.354738816717406369e-02,-1.829763006105683196e-02,1.158723894971515622e-01,-5.116107679249601303e-02,-5.407151880075741768e-02,-5.346536644786297095e-03,-7.652954188164221017e-02,-1.088281045067281821e-01,-7.493071690859316389e-03,2.615848996141661997e-01,-1.979324767748038838e-01,-7.142852728104789883e-02,3.268036290390632925e-02,-8.945932062634148058e-03,-2.859379079230019507e-02,-1.617259871223949153e-01,1.353352080170077375e-02,-2.640348278613538317e-03,-4.531282051604333672e-02,-1.096674151394839286e-02,1.033994251300729972e-01,-2.098327632057068459e-01,-9.041891191823224483e-02,-3.757246059723746024e-03,-2.300093879643022865e-01,-4.855419118178223858e-02,2.084122922268786746e-02,2.505463937924145568e-01,1.549473677865869925e-01,7.040744799521504727e-02,3.432838188569562604e-02,-2.633048744292475554e-02,1.943491237317123976e-01,1.492951679787711816e-01,-1.048051168061884045e-02,-2.093888651505127624e-02,-3.626926432749991158e-01,1.378539653654247688e-01,8.376806248313961589e-02,-6.252268804481833642e-03,-6.162007238949226973e-02,-1.990920617525210878e-01,-2.128204230244141321e-02,-9.477243593516235243e-02,2.283630465840109924e-02,-5.434707457870719544e-02,3.237827118205126309e-02,-6.003662442788723630e-02,-2.006573302163462691e-01,-4.671078941508700205e-02,-1.037211780345754369e-01,-1.709360299229096269e-01,5.675553128488870780e-02,-3.508788567979779366e-02,2.197493388199006081e-01,-1.431219217834955315e-01,3.469359659609783098e-02,2.595888020910566002e-02,-1.540677252220871707e-01,-1.426868790357491701e-01,-3.997779492593667161e-02,2.403614124106636871e-02\n8.419398427422402839e-03,1.653788199685446436e-02,6.757845574365144159e-02,-7.318713425699718660e-03,7.623279392800305643e-02,-4.551145178901880306e-02,2.811511239988744859e-01,-2.130750469885364928e-01,1.861017581420348552e-02,-3.813679428004568273e-02,-1.184370387803415775e-01,1.371303779314102982e-03,1.012028244456979892e-01,1.954855112860635069e-01,1.517011065269562864e-01,7.268510148668270998e-02,-1.033548459166606370e-01,-1.575132349255398828e-02,3.117086754603613785e-02,-9.338847187316898918e-03,1.891571038047081821e-01,-5.536792169841417421e-02,-5.353850629934455568e-02,4.103839632708094348e-02,3.037408347049603830e-01,9.437848153484752756e-02,-1.352797304056216621e-01,-1.148091760872929079e-01,-1.232027785879918728e-02,-2.468402018698395983e-01,-1.311571869684598768e-01,1.031190415369435953e-01,2.363048859954386127e-01,2.548983840337059048e-01,-2.685696679629866537e-02,-1.476539885599356672e-01,1.622862745735429435e-01,9.675033997188356438e-02,3.603053606815816851e-02,-1.171683530486913351e-02,-6.225524038602224574e-04,1.539645909302928550e-01,3.620037643490596480e-02,2.483527769129051377e-02,-1.277132639548523574e-01,9.039305376394081437e-02,2.259259895605374158e-02,-3.091689047317494055e-01,-1.884960499316082339e-01,-5.963409675548971695e-02,5.487377216825330833e-02,-3.192406311820286668e-02,7.291243152532375649e-02,-5.369090873164466399e-02,7.003282212681055663e-02,-1.004824101133431347e-01,8.971561467103005005e-02,-1.303598878438337605e-02,-3.439627871778520862e-02,3.926134904849106627e-02,3.181394058895894994e-01,5.181732585277192688e-02,1.402223584178011184e-01,1.018887930560170296e-01,-5.263121504154062843e-04,-9.769563307977355282e-02,1.422835761093108609e-01,6.027077190963283509e-02,2.497784912261523382e-02,-3.077532763434236152e-02,1.384341473670240852e-01,-2.828439112072052460e-03,6.152864069825630250e-02,1.078547473125333334e-01,-5.885383370620289600e-02,8.893525123606126070e-02,-3.436497267302799502e-02,-1.608349689342847624e-02,5.834849304820798055e-02,-2.289573403973967913e-01,-1.446708583542884174e-02,-5.385189879460020035e-02,-4.310347717283764812e-02,1.520431492531588644e-02,-7.584606244763053562e-02,-1.039011906394328583e-01,-5.450797780110868546e-02,-7.939782640516614143e-02,-1.023114824171965538e-02,9.093685808474623322e-02,7.662179565083356708e-03,-1.097406838641145216e-01,-1.122496191381715594e-02,1.096299797769960255e-01,1.622120583604448607e-01,-1.561035828666636205e-01,8.362745971818065505e-02,-1.346822803513871292e-01,3.635620183765262553e-02,-1.346671332997203749e-02\n-1.515930190486425577e-01,1.167101102849367510e-03,2.661893162445096855e-02,1.064334983670858353e-01,-4.767367789329363809e-03,-1.404415832266031790e-02,2.552129952193374907e-01,2.398697405101929761e-02,1.916657455176714320e-01,2.868556773844584962e-01,3.468107878657034938e-03,7.031159693087836449e-02,6.561814065249559069e-02,-2.316978028111048304e-01,-1.756384504981286232e-01,1.753715430824242805e-01,5.467137489665015171e-02,4.942952651264478914e-02,-1.012337350606930531e-01,-9.463323565811704308e-02,1.037527235372058265e-01,1.058927294561101337e-02,6.924392223109034072e-02,8.908501929741999281e-02,-1.513978758191459884e-01,1.007003772216679000e-01,4.839884507097427443e-03,8.473105064145319831e-02,6.842216000120482366e-02,2.184230187157363071e-02,-1.164529682662770321e-01,-1.365589204207273144e-01,-3.353774499039081231e-02,-1.491575131100590819e-02,-1.384706355893693119e-01,-5.953580486269003519e-02,-1.814452437191728038e-02,7.186060828435847890e-03,2.225743491286720499e-02,-1.253603369318294081e-01,1.437143964390793782e-01,-4.258602561099110451e-02,1.683446217511720133e-01,1.552498917090137653e-01,-1.506365894520594606e-01,-2.910711747589397880e-02,-1.727986052815459195e-01,7.513940230845192469e-02,1.016495905683606760e-01,-1.623146131150433047e-01,-3.121074673069683669e-01,7.014261055063657213e-02,1.042576841515894526e-01,5.423561159576076318e-02,-8.958653216692497034e-02,1.416380688346797201e-01,-9.599204558072192695e-02,-1.180493572949498637e-01,-5.213293459093783222e-02,-1.129735356793192952e-01,-9.090469673281798696e-03,1.970251945003918537e-01,4.005203056298371062e-02,-3.903982639457006382e-02,-1.194000006953788162e-01,-8.252486180214135825e-02,-1.698663975472677612e-01,-2.107418168609571651e-01,9.600196354091677930e-02,-1.710764332301402957e-01,-2.573039274143830522e-03,-2.825905926106682051e-02,-1.320433024558027024e-01,4.615294382358611780e-02,-6.097166655458059054e-02,1.609205553687274581e-01,-1.298030324448869177e-01,-1.387919671368585128e-01,-5.482023585497165785e-02,-4.293893663231995728e-02,-1.081878192878239948e-02,8.526387600313441173e-03,6.498440058554096066e-02,7.294895850694729789e-02,-1.243532056432345989e-01,-3.934520527867721440e-02,-4.414319596061004602e-02,-1.062841374855819226e-01,1.694919970185588751e-02,2.288857820921892661e-02,1.279550376194600325e-01,-4.656672054376126413e-02,-8.954038515226796224e-02,4.106252409362313310e-02,2.727254286864065347e-01,-1.049945674038327836e-01,-1.395075583830229504e-01,8.695763739000063330e-02,-4.429286871721409974e-02,3.771727337786978836e-03\n-1.224311938615623742e-02,1.517336997405081822e-01,8.704282626418512192e-02,1.986626616727848460e-01,-7.013344624164449641e-03,-7.932317874339130104e-02,9.069377429009706226e-02,5.545726382580818542e-02,-5.305064349524255679e-02,1.321829249115155924e-01,-1.508675862152999703e-01,-1.061136522690701439e-01,-8.218274241222463250e-03,6.110415812080981918e-02,2.065907169106939167e-01,-1.519422100195461089e-01,-3.128595047742788182e-01,1.193621638569081905e-01,-9.169899633568852348e-02,-1.463712637651276016e-01,-3.159526334641090117e-01,-7.200346073951199855e-02,1.425253384215634522e-01,-1.229243624008974078e-01,1.259282546086483989e-01,-2.555395948295736130e-01,-9.854383036896867398e-02,6.019197240222859402e-03,-6.268993289445357053e-02,9.433044187810760151e-02,-1.473469954690908024e-01,1.193101563430025713e-01,-1.722702346723302969e-01,7.901719891488039049e-02,3.115381498880471361e-02,1.280464177249380497e-01,3.033419471787123303e-02,-1.460877739717873491e-01,-1.548358267907952446e-01,6.394212324180925666e-02,-1.004249718962524351e-01,6.701038959296755360e-02,1.665254035273329436e-01,-7.920503132191684947e-02,-7.820524797224727431e-02,5.751439089700669666e-02,-2.821816011690704284e-01,1.708620246858754410e-01,9.943127547038314862e-02,1.617699759404788717e-01,-1.351829443811669931e-02,-9.859615673148561243e-02,6.048042159365604742e-02,-1.687032657713040951e-01,-1.022609072862732948e-01,-1.625146002215853425e-02,9.223391147758579212e-02,-4.531553992583005341e-02,-2.199516145313368531e-01,-2.546497519035244295e-02,1.933268664010336924e-01,1.086530220907553079e-01,1.403824167312051618e-01,1.394410130975170525e-01,9.280897147928041102e-02,4.534064949192548322e-02,-1.352799933385451792e-01,-1.719664872770654274e-01,7.314204144888751535e-02,-2.243480497244053073e-01,7.052403092918102523e-02,1.438516170612958445e-01,7.611800397158904018e-03,9.810334583566985948e-04,7.588899186989681413e-04,-7.735397151100632807e-02,9.572431198055868229e-02,-8.473317636010956055e-02,1.231504033520386260e-01,-6.580604052796512615e-02,-4.030443803450298179e-02,4.652313051050820797e-02,8.216085187134286594e-02,-9.629008468502131546e-02,2.339587233740790528e-02,-4.051079259200747462e-02,4.476787848176211337e-02,-6.508575388174178689e-02,-4.459984755260230221e-02,-3.603577403479802516e-02,7.967550696651611031e-02,1.525085515681876003e-01,-4.403055025843275599e-02,2.764737046686853092e-02,-1.562234300737786463e-01,3.261208586891088668e-02,1.162422106478457062e-01,1.117246186027553573e-01,-7.909965891614295641e-02,-1.134401114537626348e-01\n1.194342894864288546e-01,-2.687228915956579867e-01,-2.250735398758195727e-01,-1.947813608893840254e-01,5.838232143729189805e-02,2.072789285610539961e-02,3.925686075747508025e-02,1.820468225535509105e-02,-5.309529176119713329e-04,-2.027230888521920349e-01,1.461468423068891867e-02,2.382054757854683569e-01,9.709122826353241975e-02,2.781074714625162564e-02,1.834545201108964407e-01,-9.414386744660196982e-02,-5.868304957453023690e-02,-8.013516675670649680e-02,-2.890037948118087327e-03,6.011955063794257453e-02,8.691156991084168304e-04,1.718069039599511294e-01,4.399303960892683718e-02,3.965316218454509323e-01,-1.672107112894695991e-01,1.028706635664934504e-01,-8.563353683647741132e-02,6.463410821584267274e-02,-4.390906254925086571e-02,4.571102233346480831e-02,-2.333369588912038647e-02,-1.008977791219190095e-01,1.140854499795512650e-01,-1.681660387992892636e-01,-1.894360157020348323e-01,9.464971153068721735e-03,1.795771427546018761e-01,-9.039184697289770476e-02,1.222457228039906668e-01,8.858946543430842868e-02,1.459182000154939964e-02,-7.631552337629941146e-03,8.200159826558025417e-03,-5.034710217871712912e-02,8.027008987288485053e-02,1.972683641310382652e-01,-6.774549397142573537e-02,-2.306621264574569841e-01,2.476638656165944252e-02,8.333605746784888274e-04,1.873531126077464526e-01,-1.212266608915248262e-01,-4.325677101822824472e-02,6.976431545098470133e-02,4.362789928263698103e-02,2.866093302738258533e-02,-1.083557010041118485e-01,-4.515340255023832629e-04,1.084663423438560620e-01,-8.454494573055930384e-02,6.320001060706204044e-02,1.658772684989936741e-01,8.689321192936150240e-02,-3.349446871622835387e-02,-1.163983525298555727e-01,8.495231298542728349e-02,-1.604180728357769981e-01,8.560707564238916045e-02,-2.209330948685367044e-02,5.879616760741897957e-02,-2.293940732581794262e-01,-1.332210227907749435e-02,-9.953811041693036432e-02,1.513076691490109760e-01,8.692890249770691968e-02,-2.965966471541446603e-02,2.639150755266929660e-01,-1.259777620524058228e-01,-3.326374999075038669e-02,-1.543441815436820685e-01,1.932152514268673515e-01,-1.469838077044627600e-01,2.862489751869557245e-02,-1.372292636707522773e-01,1.605511223265038492e-02,6.029339036085608339e-03,5.876006384434339508e-02,-1.093441587447258403e-02,-3.099602758144267001e-01,8.532131301433780457e-02,-6.350973575238930136e-02,-1.394646007086438981e-02,2.702469130005873965e-01,-1.034918942602331832e-01,9.395006122101375035e-02,-6.134789860838512493e-02,-1.817342943731250007e-02,-1.322729635165978412e-01,5.976820842763427150e-02,9.438250016184374092e-02\n-9.008313888549834836e-02,-4.392141924945117820e-02,-4.057272899451273666e-03,8.190460374230801310e-02,-1.597338662658474157e-02,-4.620890035101197363e-02,1.840100022305699856e-01,-1.123804557493226219e-01,7.437192878500967219e-02,1.829515209930420577e-02,3.578481186778603024e-02,3.886888004916055905e-02,1.005821603752171250e-01,8.787774780037822808e-02,-4.052456206428911578e-02,-2.896229733385084493e-01,3.747502119499741824e-02,4.151610577167887291e-03,-2.131595469533127396e-01,-1.934491269985764705e-01,1.481255954278977438e-01,-8.422914300966793250e-03,-2.181904408779303250e-02,5.730590791071085710e-02,6.962515082824677348e-02,2.924102824361442254e-02,5.444652648514802795e-02,-8.224040094343032514e-02,-4.583330671233336318e-03,1.680796422094144385e-02,9.617723477707941504e-02,4.328887475079012254e-02,-3.692936738569881083e-02,-4.041769464326698535e-02,-3.184851214311519574e-02,4.551536310978907679e-02,1.097981706097518051e-01,1.518406067036258966e-01,-7.867336491606320703e-02,9.649115169807363779e-02,4.149680049567187889e-02,-2.275957765860436507e-02,-1.063397247903394641e-02,-7.448181418934524123e-02,-7.839313071609385619e-02,2.756753558884823124e-02,-5.908572078833011472e-04,-5.446273791880337778e-02,-6.396689898752723827e-03,-2.101931702293172999e-01,1.436181080878304872e-01,2.215060562353523416e-02,-7.533630199901293623e-02,-5.782025840723712534e-02,-1.123692966528064691e-01,1.331187906181799663e-01,6.973250938523462006e-02,9.412736493187957854e-02,6.951993415319691894e-02,7.157115879399897351e-02,2.093211586589561191e-01,1.786124006797078778e-01,7.269182130013786269e-02,-1.796934294272623314e-02,5.899358031678943182e-02,-2.226110137507378850e-01,-4.586483653001007660e-02,-8.801792725478581325e-02,4.886873976002586994e-02,-7.037543070083145114e-02,-7.283153172256381924e-02,-3.039688431142395508e-01,-1.306540308295391639e-01,-5.304447263084920844e-02,1.243619382900513701e-02,2.830543833572629620e-01,-1.777044868064786565e-01,-7.551485771338882491e-02,-5.047281922581483421e-02,-7.701811268282567069e-02,-1.565305130778080200e-01,-2.393605615598791425e-02,-1.067944616567577387e-01,1.088497358764274753e-01,3.836463078983975289e-02,-1.731714654729582525e-01,-7.503592425156678514e-02,-9.393300444896258983e-02,3.737264311481759693e-02,-1.172456046069266788e-01,2.297805288951956446e-02,-9.274128117535150595e-02,7.489033876741525708e-02,-3.167809162023321051e-02,2.114659887129433091e-02,8.734349405920324716e-02,6.921031140186779951e-02,7.050963141287000524e-02,2.386933081418970148e-01,2.286848835074995270e-02\n9.618728231346343124e-03,-9.496369137173985009e-03,-2.464686802775490487e-02,1.327909061497092036e-01,5.296789603863788498e-03,5.813017617951322241e-02,1.109965928697045912e-01,1.180723580730930200e-02,6.434844682351886780e-02,1.024972241873566142e-01,1.065916805189522087e-01,1.724735973232002090e-02,1.048065297657741896e-01,1.327715851860583780e-02,-1.794774629606075977e-02,-1.021616502040526425e-01,1.524291948485166359e-01,1.618309841078483247e-01,-8.821575334612996588e-02,-1.618524335939348635e-01,-7.193783992476407430e-02,-3.868975494704757212e-02,-1.565923620805463323e-01,3.597537153377047825e-02,-4.463104296914022218e-02,-1.877302442427287721e-01,-5.525582678402737868e-03,-9.389744657410185880e-02,-6.928120529852729859e-02,-9.590178183017339375e-02,-5.426062063872207769e-02,-3.117941847729681012e-02,-2.596025507979905084e-02,-1.508854978440880672e-02,2.967211495956329805e-03,-1.110299114625158540e-01,-1.598280956706985001e-02,1.425840527431440630e-01,6.781373928136179285e-02,1.144756767350799537e-01,-1.738210205491067806e-01,-4.113266898728586834e-02,-6.932799394028810180e-02,-5.290075057940916980e-02,-1.514295062565126915e-01,2.613610840229373400e-01,-2.901346378707315640e-02,4.031384184041184732e-02,-1.013756963952502088e-01,9.878777577438403734e-02,-1.263543495095550799e-02,2.905677439632422653e-03,8.660677508628626675e-02,1.943343672660616250e-02,7.120387687910739727e-02,-4.119083493501984015e-03,1.180483355594568323e-01,3.672283265535137425e-02,-2.464139990678449466e-01,3.403819409038405519e-01,1.199470810850716135e-01,-2.063191274923986337e-02,-1.322207196127554441e-01,-4.156173226372240903e-02,2.132263002462485291e-01,-1.338780084085099686e-01,3.273219008469371860e-03,5.147292696293517822e-02,-3.890869218363007115e-02,-1.388097560887526227e-01,-3.597334880984817684e-02,-6.972403131185801219e-03,-1.604942828567182790e-03,-1.739582169089386871e-02,-6.172747421831243503e-02,8.285059258011111608e-03,-1.908836675363405622e-01,1.617882910191603685e-01,-8.536103871451306696e-03,-3.071944184346316054e-02,1.636907237542223684e-03,9.742402649420948968e-02,-5.248764052007248021e-02,-6.226853156816753582e-02,5.253246230183302584e-02,7.661563139677947387e-02,1.519409734196035602e-02,2.496702953987731469e-02,7.206239720488447076e-02,-2.040650324587846808e-03,-4.667004019676735532e-02,-2.227900061847276070e-01,1.756464983151890397e-02,-4.470181039889110919e-02,-4.405066218297976066e-02,-4.267912758509050108e-02,2.543491379937642266e-02,6.413085672258235503e-02,6.648305121923676897e-02,5.216550210208268507e-02\n-1.832592019538048234e-01,-6.993157825926042681e-02,-1.699548632094440570e-01,3.728904038979949376e-02,-2.889782418704845909e-02,6.733742617255231155e-02,7.034774970301160835e-02,-4.200453069692522412e-02,-1.314935594806388719e-01,1.781713283691275795e-01,1.620712712485266466e-02,-2.271621361074503409e-01,-3.565841761860359671e-02,1.846379468573983440e-01,-7.270774686076819648e-02,-6.855784251279520292e-02,-3.883652768133442207e-02,1.197685692949258252e-01,-2.382251371009753982e-02,-4.095000609527377905e-02,-7.324810589340413625e-02,8.328732811464475971e-02,-1.652584947604205934e-01,-1.635010418230266882e-01,3.739037167545696816e-01,-1.142991089262600929e-01,-1.053821451708682189e-02,-2.693449237070834855e-03,-1.678400790164358281e-01,1.548228215354251480e-01,-1.717408753608364314e-01,1.451694898788237487e-01,8.234759114495567023e-03,-1.120294022037975207e-01,-4.998511942228541644e-02,1.431999855709245317e-01,-1.717401003366141321e-01,2.997342149064176342e-02,-1.877886904534858681e-01,9.412492381569394218e-02,5.196492834406556127e-02,-1.815127525591610225e-02,-5.992797472176952800e-02,-2.158339217054981996e-01,1.245681895002583028e-01,1.057664576005577783e-01,9.906645600785002337e-02,2.823940236644595717e-02,3.532778910096258385e-02,1.781607517923888828e-01,-6.170456155971947715e-02,-1.565863808930905987e-01,2.326350551153256313e-02,-2.440424625295328775e-02,-9.777691468916867301e-02,-2.045795828030272656e-01,-8.109303084100498438e-02,1.453387989375549694e-01,1.718361365969552773e-02,4.260374857121084630e-02,-1.275613429927218989e-01,5.835516695606481063e-02,-1.025688608934111207e-01,1.878823291678178575e-01,1.807608613441795131e-01,8.199555998019242287e-02,9.329190346416163515e-02,1.271496561201963804e-01,3.459110173064169902e-02,1.200304432490902490e-01,-1.394750218910350004e-01,2.788592423560557615e-02,1.559565088888875961e-01,7.330433766798911954e-02,-5.976622630240530087e-02,-1.601785669586739680e-01,-3.496869861940947542e-03,-1.142842666639211219e-01,-3.827167552082131469e-02,1.184344951569849536e-01,-1.920021264190273358e-02,-1.071243558120363037e-01,-6.495349385783677487e-02,9.652318507562959726e-02,1.168091304686850150e-02,-4.508016686550032209e-02,2.163813061072412669e-01,2.638593848168122591e-01,9.869925356656090998e-02,1.693541533474056671e-01,-2.208046797224786847e-02,1.673798520810018675e-01,1.110932847934252427e-01,6.706912688277190393e-02,-1.894976162658531527e-01,7.402743627125192571e-02,9.922186326437548720e-02,-1.907757568724299246e-01,-2.273398933522135512e-01,-1.055767455997513871e-01\n-8.219379148442260141e-02,8.175599896937534028e-02,5.563665828052418577e-02,1.286550491258865725e-01,-1.135238725683457572e-01,1.394878247857336481e-02,-9.053042314542565638e-02,8.831104950643908769e-02,9.294488193299728362e-02,-2.771401612522520486e-01,-2.742769063150842998e-02,1.345832746568470795e-01,3.804866043418090871e-01,6.279208727245465770e-03,-2.704626417716570960e-02,8.238134693896705107e-02,8.714545335242525337e-02,7.230011717000170424e-02,1.056457002655700333e-01,-5.036096368384259531e-02,-1.723135812987335314e-01,-1.971317870243540493e-01,2.593110152208547708e-02,1.947476865952809388e-01,-3.523782794013755743e-02,1.295819542094929500e-01,-6.196587799547441378e-02,-1.702075803955775124e-01,4.570569422087206179e-02,6.196718890891608766e-02,1.094805872704699840e-01,-1.076532176906025290e-01,-8.489601723189725557e-02,-2.312839223181906677e-03,9.384922884555808864e-02,-1.407144294873727275e-01,-1.373262190656011628e-01,-1.430580685197176127e-01,5.319970385795284862e-02,-5.759556566180602799e-02,2.560688400195872128e-02,6.501746112057753268e-02,5.837578976943449960e-02,4.363974472632927565e-02,-1.397806418784433569e-01,-3.546067301231332070e-01,-4.683139480395283327e-02,2.009995580968292339e-01,1.288608859056919187e-01,3.508897889084098523e-04,3.888688737921600080e-02,1.527546954829756831e-01,-2.114165314533750228e-01,1.579951805249384666e-01,-1.080665164962216068e-01,1.658512553883311480e-01,1.280157336294748469e-02,-3.235753829874381260e-02,-2.380448365695880461e-02,-1.731756396580749202e-01,-2.460955253245959706e-03,-7.356775190808599596e-02,-1.619748754010927327e-01,-1.897610447903150810e-01,9.007173400098132665e-02,-1.504157448689011911e-01,-4.986057798344283726e-02,6.653547704840105659e-02,-4.332372757338633085e-02,-1.209523312116654245e-02,-7.188240726654961284e-03,-1.928995464699410634e-01,-7.943581569883108318e-02,-3.965033369311447842e-02,-1.232805182294742508e-01,-9.176589709798274597e-02,1.379677482004345035e-01,7.415722939696477167e-02,1.181617845162089148e-01,-1.740011755667595916e-01,2.622275671128740035e-02,2.391041896040883297e-01,1.216569409885567693e-01,-1.690864607746631054e-02,2.217304951947063618e-01,9.333250978234669537e-02,1.074510266985770207e-01,4.158422778967053174e-02,-6.292548724939291127e-02,-2.115106024179648769e-01,1.369916747417722624e-01,5.431272573720339475e-02,2.696396204143768766e-02,-2.155606206129834918e-02,-1.137671229154713359e-01,3.056295163785519714e-02,-8.766303755606084935e-02,-1.617081768232513372e-01,1.244020023386264301e-01,1.579633062223389783e-01\n3.205167048681030473e-02,-2.463615837534694972e-02,-2.455096713639775413e-02,8.006088531819187393e-02,6.958272585559062764e-04,7.891521527844699846e-02,3.996851917914936297e-02,-1.165323904728902266e-01,1.191230761338340355e-02,2.860663201161723138e-02,-3.392238600979080587e-02,1.202994513033785046e-01,1.431996139581320597e-02,-4.494717144842717838e-02,-1.580559573284454067e-02,3.252445019338001675e-02,-2.053870199355820603e-01,-1.008621114777540628e-01,2.033653282772797735e-02,