{"weights": "-4.934071309968059427e-01,1.031028470923109008e+00,-6.997811797154322999e-01,2.434168753061995982e+00,-1.658980937970359504e+00\n-2.193533507449238140e+00,-2.058691163084370057e+00,-1.114329166711491848e+00,-1.394773300556574336e+00,2.437834467152295126e+00\n-4.139035202306508010e-01,-1.683469797720748895e+00,1.382004898327083842e+00,-7.341009118821885115e-01,-1.543839503461805984e+00\n1.080092290710751080e+00,7.676057540370567756e-01,-5.467904468854295486e-01,1.750136578794070585e+00,1.595082626120826463e-01\n2.009614899400235632e+00,6.219144883321734429e-01,1.940133608571156465e+00,1.358979985981656202e-01,-1.518838688285690797e+00\n3.050294296848229170e+00,-6.819142622828753275e-01,-2.520920147974113346e-01,-8.739924575321303957e-01,-2.534660664789932794e-01\n2.966010103652815810e-01,2.457672992252195043e-01,8.183716093206316877e-01,2.230194202130435954e+00,-1.519412202126647349e-01\n-1.538632381655159920e+00,-1.473824747512995748e+00,-8.306793794382569818e-01,-2.087796004305602082e+00,1.028194224034097326e+00\n-6.192366319442392797e-01,-3.862484565481628662e-01,-2.272341877901391111e-03,-1.740797381540680311e+00,-1.073424685498043152e+00\n8.422478479799172524e-01,7.708932634182902310e-01,-5.540360225291989238e-01,2.255923915533593949e+00,-1.626487122715085443e+00\n-4.338210913277441017e-01,-2.911608890757800827e-01,-3.484381616986558239e+00,2.410226140066527467e+00,4.532071238826418380e-01\n-1.306141982393439260e+00,2.551368761723347589e+00,7.251319629443767623e-01,5.303865358285447806e-01,-7.595112848709641984e-01\n1.291235671898562920e-01,-1.904366210986745189e+00,9.860461751182434398e-01,-4.691854242900321270e-01,1.670723936896980066e-01\n1.495084489015442886e+00,3.519845361604516110e-01,3.241885148970335973e-01,3.437813212003885677e-01,-9.135226736318060592e-01\n1.036859022737053104e+00,1.919976715271289214e+00,9.432463304565243956e-01,1.102646013733131092e+00,-1.093015315700641921e+00\n-1.079674952059737736e+00,-1.791408254738382055e+00,1.541832578830596212e+00,-3.131974826607317186e-01,1.747236661584356865e+00\n-9.621675290133698821e-01,-5.306650165785545825e-01,1.295503817865539531e-01,1.157106230533969882e+00,8.095382800402169121e-02\n2.831716026783107631e-01,3.701827080849708074e-02,2.327092452707057446e-01,-1.382588507568223379e+00,1.063666863763813170e-01\n-2.154130495473058626e-01,-5.763393237661505047e-02,6.224853542650301552e-01,-8.420591530059510221e-01,-1.017912116965818264e-01\n-3.586385711784203512e-01,5.310984404284408988e-01,9.853961164514712934e-01,-1.185605092293329887e+00,7.326674436808254809e-01\n2.580189336468381889e+00,-1.826270719154486244e+00,-1.028007811766715074e+00,-1.095286126536624938e+00,-3.460221320407239065e-01\n2.021449943276572458e+00,1.691984596598590171e-02,-8.660704446605560491e-01,7.734025087695065581e-01,-7.484502228116954869e-01\n1.393457791184827377e+00,3.749299420692762119e-01,1.726574723685646351e+00,-8.289664633077374889e-01,3.773558993296751041e+00\n1.027294523153290839e+00,8.139335594254133444e-01,-6.786088630208575445e-02,-9.082270152323395074e-01,-1.084632064512008220e+00\n-1.693337463932944598e-01,-9.949434832645847049e-01,3.475244994952933486e-01,-1.033294601019968395e+00,7.716428758175202240e-01\n1.183324613356548927e+00,-8.896156953750371521e-01,1.476640303515173613e+00,-3.022745581017618477e-01,1.432994216975526536e+00\n5.410160998762378881e-01,1.388419637294333819e+00,-1.249794625601506448e+00,-1.381961513977579270e-01,1.805239687825157757e+00\n-7.727862220698049622e-01,-2.545406339447086275e+00,-2.423982300717482552e+00,-3.126290097102014442e+00,-2.637406657756573569e+00\n-5.181545506832916370e-01,1.588684581909177052e+00,-5.515666764604887362e-01,4.027927832601172486e-01,-1.385942896822150161e-01\n1.431557566959014861e-03,-2.155768594942295835e-01,-2.209167611001346954e-01,5.733297683085537555e-01,-1.466791668076858013e+00\n1.262229799749842396e+00,1.155056750556467726e+00,-2.391834783653367935e-01,1.003046703058603661e+00,-8.747808204181569680e-01\n-6.696276370939663325e-01,1.974472507324398496e-01,-2.374056927004843387e-01,-5.606415496077248317e-01,-8.380697021624607945e-01\n-6.978569385673873970e-01,1.170703212269580629e+00,-2.418693602226808625e+00,4.428872977043525339e-01,-2.910781133245550767e-01\n9.090031146214010427e-01,6.441387407920411423e-01,-3.462111576541902380e+00,7.338798969452779986e-01,4.073071777579532760e-01\n3.204327469607247403e-02,-5.789581992032992730e-01,1.067753206290501744e+00,-5.115069919011249189e-01,2.288539621401030733e+00\n7.110750315405427457e-01,2.665503789140792001e+00,-9.775024448932964072e-01,-2.188411828204606557e+00,8.903185406882579978e-01\n1.062180530889851537e+00,4.228293839782702040e-02,-1.920407165689913542e+00,-5.579679475208497719e-01,7.711523539145196393e-01\n-2.265573842707338248e-01,-1.441149075542202673e-01,-2.192382478997582373e-01,-1.163017677416243512e+00,-6.638695529885080271e-01\n-1.773438298089901277e+00,2.203162197570654346e+00,-5.929072682071903078e-01,5.948177073152774996e-01,-1.272918787092998327e+00\n9.873156336156009294e-01,-2.338829694935704140e+00,1.145187079464326407e+00,-4.441454198607538983e-02,2.630568213362551866e+00\n-1.627200706953599640e+00,9.223556867124071967e-02,4.524789864466909894e-01,1.530655395805195385e+00,-5.286228212639584312e-01\n9.674062506181760335e-02,-2.678259540768834768e+00,-1.043602107166790471e+00,5.554728503369026349e-01,1.372164050043949368e+00\n-3.590402205772122990e-01,2.555092056784337817e+00,2.186051222383706971e+00,-8.210913218295268212e-02,-3.011419875818522218e+00\n-2.217420529100728288e+00,-9.721952251121539490e-01,1.386445935396381612e+00,3.807347516460242165e-01,-2.612593396965339654e+00\n-2.855906803149196871e-01,2.010032219011290255e+00,-4.684531348829166775e-01,-9.364830820461021998e-01,2.560530199743743740e+00\n8.218936308335957064e-02,-5.863624287260945644e-01,4.466344031911223533e-01,2.654265256857511399e-02,-5.322556668597443474e-01\n1.509695334237196818e+00,1.392102074753058361e+00,1.045308580409016752e+00,-1.319319735431070117e-01,1.425943947346357543e+00\n-6.942846788488267473e-02,5.689323581629802673e-01,1.274570814404848873e+00,1.001482640515382938e+00,2.225836722593253381e+00\n5.555958820021847933e-01,-2.112190902754552013e+00,-1.455485024606613109e+00,1.678226027551990462e+00,-4.155458240989098884e-01\n4.716473667587597896e-01,-1.071027529175273552e+00,1.241280439581006645e+00,-4.821676232380648353e-01,1.816037526878455655e+00\n-6.650250018695389453e-01,1.389935747679824196e+00,8.372045082324935938e-01,-9.021533931598457734e-01,1.369419104864051828e+00\n-1.123271173064785744e+00,-1.027787223988752885e+00,8.977668577179879206e-01,-7.802393340719874226e-01,-7.403141933744941117e-01\n-4.266356623771417333e-01,-1.245882252512395816e+00,1.302088782940750589e+00,7.588899592782945014e-01,-8.596891880653162454e-02\n-1.341388584805779660e-01,5.597063711838751177e-01,2.200405280661511309e+00,1.087599603096383039e+00,-6.324393656805111785e-01\n9.713810400912977761e-01,-1.482473228351404715e-01,-2.456927025733622316e-01,2.328781280072966808e+00,-5.215226755149744431e-01\n-6.158611336146555537e-01,-2.446804232912938470e+00,-1.764020831832278757e+00,5.512207581179725535e-01,-8.697059524272304776e-01\n6.259189945677032796e-01,-1.412012291682965159e+00,-9.721151627776910553e-01,8.307774188320766751e-01,1.815731541403102778e+00\n7.163403066175009215e-01,1.469702862409770106e+00,2.108987254492862728e+00,1.285305009128759224e+00,-1.150996356138070720e+00\n-1.605516865434305218e-01,7.645947840652995708e-01,-5.301491161825631071e-01,5.546977032231156235e-01,-1.972954294148211218e+00\n-1.053795765522142824e+00,6.457154845140519184e-01,-2.795593380979280340e+00,-1.383935112414206969e+00,-2.451191098464992543e-02\n-2.142441903180557716e+00,6.529964718475664287e-02,-1.003968851444160260e+00,-3.667680721276503908e-01,-3.195899273115624384e-01\n2.356805905387366618e-01,-7.078989242831064121e-01,1.058552712844167826e-01,-7.541352828215104331e-01,6.938367250136671105e-01\n2.111969415257166638e+00,2.413642420415814671e-01,2.080597041631269128e-01,-1.454713385590701735e+00,8.626120471553705427e-01\n-9.418931468052897937e-01,-1.008306423919151928e+00,6.941726542009341028e-01,2.238201930092916236e-01,1.378747382946135192e+00\n1.799687450476616046e+00,-6.718068714546084896e-01,1.591549161809907575e-01,2.192513245859691651e+00,1.204664753881138806e+00\n8.836970312125604909e-01,1.626110716163810199e+00,-7.492151412259319132e-01,7.953329089306654387e-01,1.754532540652701256e+00\n2.010852678269009264e+00,-1.009293698155084185e+00,-3.167062608831308079e-01,4.743517462174067778e-01,-3.618694891931750202e-01\n-4.973661466436247736e-01,8.454663811120032291e-01,-4.463910198852642508e-01,-2.231333294123699851e+00,4.501158270103722270e-01\n-5.363830955488340102e-01,-9.194409168992674353e-01,-1.956026787047202342e+00,1.262459698240433026e+00,-2.776149328625416857e+00\n-2.123375442867192930e+00,-3.467894774770942101e-01,1.530823483164123200e+00,1.632011824621027118e+00,-1.440384195866740269e+00\n-2.148589518688063527e-01,-1.870683489355977613e+00,1.267002279915673268e+00,-1.838169377749001354e+00,-1.781527518116866882e-01\n1.287189877022631990e+00,-2.760615769238309869e-01,1.828937289979358782e+00,-1.086498900045813398e+00,4.585849375800075123e-01\n1.061330024922223725e+00,-1.773722449264037437e-01,1.724378711767542649e+00,6.809965721503126179e-01,-2.043132350625448623e+00\n4.933989137429781735e+00,8.060353631959021881e-01,1.319458747554478895e-01,-1.745789014078093837e+00,1.007249265335611044e-01\n-5.765045206370721376e-01,7.997195616216374869e-01,4.620832010494014819e-01,2.308705656048118282e+00,1.782040189481150227e-01\n6.433974933118328243e-01,4.647588241714012969e-01,-1.790783026460892879e-01,-2.221699263909225064e-01,1.375427401008205708e+00\n9.690335359077036914e-01,-7.796846907406363991e-01,-1.382968174334693101e+00,-7.875961799156812326e-02,1.449292760442414396e+00\n-3.376985485272435833e-02,2.178889885102987201e+00,-9.632671015677886084e-01,1.798096745902008631e-01,-3.133472958336853242e+00\n-7.409079010817993804e-01,-3.860856091336078988e-01,6.379477975975486048e-01,2.135371482588371617e+00,4.610668491342003600e-02\n1.812790659303546104e+00,8.202991185264664198e-01,1.227643115313711064e+00,-5.813381341179585382e-01,1.726870096204261351e+00\n-1.330998192776930322e+00,6.212010405905233901e-01,-1.185517619066385642e+00,-6.478508366784639927e-01,-1.820311143252473451e+00\n-6.427669791762069540e-01,4.361108935679122167e-01,-9.017484255965166340e-02,-1.679729077750902411e+00,1.832977953053523734e+00\n4.132618025685095842e-01,1.246154657830999213e+00,9.717923128265183452e-01,-8.317373478644706219e-01,-2.426429733931242616e+00\n-1.152279655559364846e+00,1.517594499665245955e+00,-1.317710950495961875e+00,1.012980971903700622e+00,-7.646009373501738704e-01\n4.843969823733812463e-01,-2.277699523973436335e+00,1.451937428359002746e+00,-4.988306683127544106e-02,1.105239998046190442e+00\n2.343710040070458578e-01,9.928513494843964615e-01,-1.313225876625128963e-01,9.252953829677323938e-01,-1.881298030616755490e+00\n-1.352668916133451749e+00,8.983613588544455686e-01,-5.425475979602751436e-02,-2.883792056946724025e-01,-2.256544021376283293e-01\n6.234289992270023451e-01,-7.398121270653075232e-01,6.349946387309518547e-01,-1.142630810053625545e+00,-5.075439765634384148e-01\n1.229166375415228885e+00,1.336372676630348755e+00,-1.367249856328135449e+00,1.044901934583833736e+00,-1.295091139013674342e+00\n9.149191392313645865e-01,-2.366369800377955190e+00,-1.393935990707258377e+00,-6.347749540206260033e-01,-2.067016662050562004e-01\n1.770308638363471854e+00,1.123138487225926241e+00,1.959951989159409047e+00,1.499311842522403460e+00,-3.558564978106760202e-01\n-3.362279722939662263e-01,1.327294224467852279e+00,4.556052755894340195e-02,-2.005670757379453273e-01,-1.667040015911218642e+00\n-1.359336240346125380e-01,-3.481273497599678635e+00,-5.731986274099331036e-01,-1.223733297150027877e+00,8.631387472981461029e-01\n-5.995312499422259522e-01,-4.129667388360419578e-01,1.675924740109698385e+00,-1.308214062227628594e+00,3.949591095915841454e-01\n-2.367003637137931271e+00,1.083821691790203823e-01,5.088765035733099351e-01,1.071442461639122046e+00,-1.119687272662321265e+00\n4.001840097111585282e-01,4.007930445695995769e-01,-1.783726584682409147e-02,1.905342355874994620e-01,5.803555362969791132e-01\n5.081550134198942192e-01,-1.226701155062352999e+00,-1.479722795148020964e+00,3.131835915344197030e+00,2.397795478027016092e+00\n-1.714350121330135757e+00,5.775070876516067431e-01,7.938350428746949738e-01,9.451767753614639389e-01,1.804794335693640783e-01\n-1.138007292278764515e+00,-2.141585601328857003e-01,-6.031593068838425609e-01,1.737030552587319199e-01,-3.309318532950621949e-01\n-1.521511431640887313e-01,1.280410216387937616e+00,1.540961353866087347e+00,-1.466857456043609398e+00,-5.707171995338178316e-01\n-9.798436177669693770e-01,1.532237546844572362e+00,-6.738900520602184030e-02,1.807949840308605616e+00,-5.933828518126805784e-01\n3.136779115094624759e-02,-1.680541526095407301e+00,1.622987581759567810e+00,-4.534309533147308224e-01,-1.851825027564044879e+00\n-7.449591325760924754e-01,-2.878015288915941383e+00,-4.385173179396245624e-02,1.354259962927401584e-01,3.553553229949488745e-01\n1.866677042016984700e+00,-3.769338561639696272e-01,1.002229477181903139e+00,3.851816915001829433e-01,-2.440986552472233506e-01\n-2.588097427615540180e+00,1.179487119283228580e+00,-6.328420606132575399e-01,1.861159549848765207e-02,-1.585703809851783941e+00\n3.444373418069570647e-01,1.246760155892271127e-01,2.691046367654180427e-02,-1.737247785388492394e-01,1.300804387862171563e+00\n1.199107006299019895e+00,8.943896167415470444e-01,4.131659954644155697e+00,-7.531377355812098884e-01,-4.765880186508194560e-01\n-1.267259129517536387e+00,5.368173801957381031e-01,-8.598046454186845100e-01,-3.365472832517871993e+00,-1.514747448310491240e+00\n8.489740438795416455e-02,1.253764914991355672e+00,-1.940783116097082539e+00,-7.636644420575687819e-01,-1.751847475628412754e-01\n-9.171665530195985960e-01,6.560077513317837949e-01,1.142543373292974427e-03,3.989808686536465143e-01,-9.050198324740162947e-01\n1.918270161294885590e+00,8.011875576812486563e-03,1.616001310830109450e+00,-5.477826815443904707e-01,7.346136083424840146e-01\n-8.467962818453770302e-01,-1.182373447172237579e+00,-8.781422293604104201e-01,-5.856087047020952507e-02,-2.726253579778417091e-01\n1.915169374051268525e+00,-1.431320211578276158e+00,-1.355656162444664581e+00,2.122458245556726908e+00,7.622828214536273572e-01\n-2.342757412253154481e+00,6.219497639511780696e-01,3.014148467138149656e-01,-2.667264667331532113e+00,-4.573906688694721612e-01\n-1.695674007306443437e-02,9.166436736379680594e-01,1.193892276512175776e+00,1.225580572572749494e-01,1.289956341033593024e+00\n-1.745841632527633247e-01,-1.067436686244080724e+00,-1.162755658396451119e+00,6.761951132521979435e-01,-2.440871235476300249e+00\n8.442147968592838003e-01,-1.380857683468340147e+00,-4.503624853369593839e-01,6.300589784935600735e-01,1.518850100593705621e+00\n-2.415611158759827237e+00,-1.004271844488374699e+00,6.057188732981314688e-02,-7.419972343150810223e-01,1.074212653905509907e+00\n-2.595761554590113374e+00,4.507295063902989618e-01,5.303342610965764425e-01,6.076005557222902143e-02,1.374281033268839325e+00\n-1.535233470398454481e+00,1.377227560482014113e+00,-8.781531849790419342e-01,9.038843425853736457e-01,-4.038265226061705238e-01\n1.015954421664307272e+00,9.697110009895445470e-01,-1.829770716313713796e+00,-1.983876676964768659e-01,-1.168292537024324257e-01\n-3.074695133684419157e-01,-9.499473092427614951e-01,2.298365381690942399e+00,2.532318426039440462e-01,1.934028011770757116e+00\n-7.172295194502618099e-01,-1.330922746367604770e+00,1.571452718689748396e-01,-7.084574058369218497e-01,2.975154633089166278e+00\n3.037411582237852792e-01,1.433648855389109356e+00,-2.836324052599764611e-01,-4.122995643940366439e-01,-4.114881783167004259e-02\n4.428246549301257939e-01,1.058173920579462690e+00,-1.535858152083918460e-01,-8.503443323124195707e-01,-1.330903814478620273e+00\n-7.993465879653142980e-02,7.248478139397378506e-01,5.809557308877199011e-01,-1.705420472303482635e-02,-7.453610418591197773e-01\n1.865568794214578496e-01,7.142674775654246355e-01,-4.850407188649149409e-02,1.363316598771992516e-01,-1.909539517370457962e-01\n1.133459756967088783e+00,-5.587339804357250861e-01,2.175575577327316379e-01,4.850139606392267488e-01,8.995314577408189960e-01\n1.857435435331611151e+00,8.283664207105257971e-01,7.371563480872509455e-01,-1.836643412841170386e+00,7.530520101859253801e-01\n2.848479246556480327e+00,-1.044301987505760199e+00,-1.276655998137003145e+00,-2.700818278982750065e-01,1.271598157269502094e+00\n6.522478861108814696e-01,-5.981630028599569382e-01,-4.811839251108767507e-02,1.290547234934004805e+00,8.380448907808369929e-01\n3.027397445629854911e+00,1.250559806560160414e+00,4.389652345376124365e-01,7.652027235278346939e-01,-4.351574430568520002e-01\n-1.216602567941888369e+00,2.148867616375640666e-01,6.111230857830098895e-01,-1.738354211547664674e+00,-6.505573204580292757e-01\n-4.592418780200949735e-01,3.297558708890430124e-01,-3.242607956938534097e-01,5.568528692928143009e-01,1.235011326273218052e-01\n1.323957103288268655e+00,-2.132780391902160400e+00,2.067510792328957514e+00,1.769465046030937350e+00,6.328898447257218229e-02\n7.917947184923507242e-01,7.419323005066978949e-01,-9.352115965438748679e-01,1.942210246404642571e-01,9.661470676051598927e-01\n3.696925244127902133e-01,1.287616434482995453e+00,1.025384551186996757e-01,9.072625862752138615e-02,-9.617935276207865147e-01\n-4.763398433374534946e-01,-5.960262966134144413e-01,2.110095607419311570e+00,2.888194541075766453e-01,-1.251926190727099764e+00\n4.674902339473804846e-01,-2.600757967799531278e-01,-3.818914850676248918e+00,5.894761285469508616e-01,-1.939981483364431325e+00\n6.998010422793878860e-01,-1.211384030722229221e+00,-1.825056799984595468e+00,6.126338768474353103e-01,-1.864577732481932815e+00\n-5.563382711896116550e-01,2.488187615623116689e-01,7.554699225223964199e-01,9.249498692610604866e-01,-4.204685092646867628e-02\n-1.037604499085083676e+00,2.392291736807025782e+00,-7.611245430030040282e-01,2.242792658646299842e+00,-5.631348014414673253e-01\n1.448309111295442042e+00,1.329464737844292310e+00,-1.306643739557059369e+00,4.387134011017802537e-01,9.399120532821503282e-01\n8.764554276717363424e-01,-2.482029761020777270e-01,3.757800073149213382e-01,-4.936845916779486476e-01,-1.461455250599487110e+00\n1.227824750604883386e+00,-6.967318089901138878e-01,1.718695769070189838e+00,7.493937532573176075e-01,-1.112356148967469371e+00\n-2.058386652029774999e-01,-3.586647409086725635e-01,-1.081073920339479022e+00,6.268967020232898424e-01,-5.982328919171845394e-01\n2.024286351735760991e+00,1.068309205689263575e+00,-1.099996432465709884e+00,-2.628869595713046597e-02,-2.843060902941967893e-01\n-1.958839659078481565e+00,1.153608504668617529e+00,1.177752729038620494e+00,1.150274280015877837e+00,-5.703621083074721376e-01\n1.324873202578485509e+00,-2.691720952047875204e-01,1.160716354144169848e+00,2.257850725699472871e+00,1.740150280593041887e-01\n-1.774193527347848631e+00,-3.979546688420305123e-01,7.980629171621140827e-01,1.520058779834283946e+00,-1.413975292141014251e+00\n-2.309557161508755674e-01,3.025314512906943087e-01,5.488989010096962939e-01,1.136625663870296732e+00,-1.181692500519589961e+00\n-5.279341681897740113e-01,1.257307041435779871e+00,4.856912889743908446e-01,5.565506411906061546e-01,1.400919973267588103e+00\n1.275994284040680993e-01,6.547715152884617806e-01,-3.953502089351009774e-01,-1.678339296672557657e+00,-1.616674012349227807e+00\n9.318068465223786068e-02,-2.510440884853713528e-01,-8.176341847578625366e-01,3.938164236741729662e-01,-1.110684600635296171e+00\n1.354565101265843563e-01,-2.763991280285811244e-02,-1.047953891622289468e+00,-2.864769815936662578e+00,1.816127885269931852e+00\n3.980493378156773066e-01,-3.319599539134138411e+00,-5.254611118409187043e-01,4.971537723790188101e-01,-2.810219048085860760e-01\n7.201599993744224326e-01,-1.208179751508361655e+00,2.229615912415297274e-01,-6.140384823101995015e-02,-2.263003717288932792e-01\n-2.749197132000715249e-01,2.513368111900780022e-01,1.165077900319741122e+00,-6.573754205976689580e-01,-5.050403022694672783e-01\n2.015515651727482760e-01,-1.505790112138531145e-01,4.817477488038875988e-01,8.986234201819688350e-01,1.611709464756383658e+00\n-1.442814692565227153e-01,-2.842420063298392918e+00,-8.837380432062565128e-02,4.406229828172795737e-01,-2.321768867711873630e-01\n-1.847818597654086459e-01,-3.027420560892056578e+00,6.340734563625173292e-01,-4.059361414646338040e-01,-1.882216402551363910e+00\n-1.085280142171849205e+00,-1.079269684762773407e+00,7.541876973997000411e-01,6.998751855966607316e-01,1.887826318082877375e+00\n8.004782511609302986e-01,-1.694653192077244075e+00,-1.763036125479244598e+00,1.406030667904830667e+00,1.950087446176177686e+00\n-3.077217966044942243e-01,6.871485027922386024e-01,-1.880202454330770268e+00,-2.426641467202657054e+00,-1.464518909287154891e+00\n-4.506645831690961335e-01,-6.543974099294714852e-01,-2.893174986134345317e-01,-6.123752218713116591e-01,8.478574876697635432e-01\n1.776843265189775423e+00,4.337115219705580532e-02,2.525606562721409709e+00,-7.917473202163186619e-01,-6.543976465970038348e-01\n4.773893578742628430e-01,-4.479346456370199014e-01,1.461479348862862793e+00,-8.022772512108017340e-01,1.646603239356770443e+00\n2.401429678660982892e-01,3.196855801559856047e+00,-5.793848794334132135e-01,-2.539284942643657561e-01,1.815155656997282374e-01\n-2.716453536729522167e+00,7.518946187308995777e-01,5.993420994097814480e-01,1.359872943803895617e-01,-1.924716251150139890e+00\n-1.926025566650863885e+00,7.311120211439562366e-01,1.462842527785285673e+00,1.986645112274691094e+00,-1.115166639611090860e+00\n-1.288516675828241587e+00,-3.423808192051543409e-01,-2.465748532754156841e+00,-7.383888163497668300e-01,1.058211413941474888e+00\n2.032815954530608593e+00,3.429813870011353960e-01,2.039796606394435941e+00,5.071398780090261571e-01,2.354522335327615123e-01\n-2.169166425202565529e-01,2.299927983327472170e-01,-3.223714790521975959e-01,-1.781503825799073959e-01,-8.248723423561034052e-01\n3.198368264615450984e-01,1.512202161744353839e-02,-1.846847944423181120e+00,-3.007818435043513317e-01,-1.066064097722433823e+00\n-2.557597884770883567e+00,5.995994690168880981e-01,1.940104507704341730e+00,2.953112993937174302e+00,1.947475822750416974e+00\n-1.083431577427432346e+00,1.468947260739207783e+00,1.401810691258421615e+00,-2.473768116245773641e+00,1.076058934830961489e+00\n7.939172025149695555e-01,2.174837079531881379e-01,3.703165341869762983e-01,8.140980885401599698e-02,2.039052775200749679e+00\n-4.806754009193968114e-01,-2.327548949152647706e-01,2.109661584760056524e-02,3.523664272441967560e-01,-2.191949138757555371e+00\n1.746882227509813035e+00,2.950866139961947909e-01,7.181828803905923042e-01,2.521459677391540977e-01,-2.288260895683130736e-01\n-4.307713861501974439e-01,1.308162621030358186e-01,1.968673677372062558e-01,1.444850462012884806e+00,4.337496876723210826e-01\n-1.606657366280801746e-01,2.482934795549080587e+00,-1.587893458562099402e+00,-1.668104560529114933e+00,4.437297711667048672e-01\n-2.657062478880790057e-01,-2.211321222412818255e+00,-3.894226182450902241e-01,-8.871823487815269083e-01,1.408734917142967058e+00\n-7.808394366048826418e-01,1.303823586870789919e+00,5.688061254978920012e-01,-2.619035430321735025e-01,2.272179919422900179e-02\n5.338696640605005150e-01,-2.878246598099508891e+00,4.035438446066975104e-01,-4.764274738717515500e-01,2.237496636859375609e+00\n-8.613690608766373380e-01,1.422585170697959756e+00,-3.139000637699003171e+00,1.011464966345081651e+00,3.417096787876177655e-01\n-3.160931217153745698e-01,-1.606169798120984094e-01,-3.344765092011265928e-01,5.214320426325536051e-01,-1.740978296802681846e-01\n-2.233029335253321701e+00,-2.418561632960284091e-01,2.777781416849657958e+00,5.327880062066431277e-02,3.587839293185782208e-01\n-5.484822194159570952e-01,2.103834899154902183e-01,2.187460320173680861e-01,-3.281487114978456354e-01,1.073228868811338277e+00\n-1.155538020970813484e+00,-1.669447341238146088e-01,6.289901240068086485e-01,-3.331604574287303500e-01,-1.526783667705704284e+00\n6.865173051491743061e-01,-1.229981722454361659e+00,-5.613038380938576433e-01,-1.033482167998743373e+00,-1.392125649191360282e-01\n-5.317715516758044769e-01,-5.829810558669712428e-01,8.525816426637050638e-01,2.195981869382766849e+00,-4.462804866896921130e-01\n6.512515217990736405e-01,-4.402335099275284103e-01,1.229656585232325322e-01,1.404067194376740435e+00,6.265067585937961203e-02\n-1.019456477786570892e+00,-9.094162531562333118e-01,-7.654395870940600144e-01,-1.299124484603414800e-02,1.072884358933817728e+00\n-1.691446746090592868e+00,-1.290502099088486787e+00,-1.146577042471591534e+00,-2.174945561497546365e+00,1.655617173676706244e+00\n-4.054049745640422170e-02,2.373986083736632224e+00,-1.770737155492944526e+00,1.616115084779966349e+00,-8.724209539786138556e-01\n-4.999770318237992117e-01,-1.231278961681472550e+00,-1.182299459365427907e+00,-1.649804789708215536e+00,2.691141527983301196e-01\n-1.638337117052585556e+00,-3.031317143825638660e-01,-1.414491405397189441e-02,8.309912546999179694e-01,1.260981583314337018e-01\n4.034275215692861294e-01,6.415205789277673709e-01,-2.207051018111132884e-02,4.537030940366340581e-01,-1.220571769869990275e+00\n-9.620199765528447688e-01,2.364615683235546051e+00,-1.509498239189547945e-02,-8.858721226912528168e-01,1.720295391864822498e+00\n-1.983356333876706568e-01,-8.100853769396006987e-01,-1.807948541817630650e+00,9.711090505537022244e-01,-1.353593801339713298e+00\n-6.706976595007004827e-01,7.997591948406029827e-01,2.236686488109234650e-01,-1.135621265325824081e-01,-2.683184324209269556e-01\n1.417102275856454430e+00,2.771293344225822075e+00,-6.928957626868650355e-01,7.016438537014090260e-01,2.399858809397204862e+00\n1.336856104765421271e+00,-8.636203395595937193e-01,-5.444074167774431983e-01,-7.517422791794351467e-01,-1.141962182166929907e+00\n-7.796637482000229324e-01,3.235794946967019414e-01,-7.357655101910351991e-01,1.086025171350329277e+00,1.509825239843111955e-01\n-4.954100942339549341e-01,1.103666083021685340e+00,3.961697422872237362e-01,3.282635337361506922e-01,1.296097135740732487e+00\n7.300627137571096270e-01,-1.249255284525255943e-01,1.178669604520563352e+00,3.906400647136291648e-01,3.638277744344958098e+00\n1.372896562505376172e+00,1.438850143166573003e+00,1.606287881924101102e+00,9.579236349243451520e-02,1.632816192480283979e+00\n2.162247746798438147e-02,-1.048478958808971573e+00,-7.165385446985267359e-01,6.514171567374837934e-01,-1.950209541162086113e+00\n2.528416405250391574e-01,-9.211320699307424809e-01,8.854646887541801625e-01,-9.342753595805876055e-01,2.330686147356203719e+00\n9.468184425150072414e-01,-1.591218740173306889e+00,2.185790063314725806e+00,-2.857829875969809530e-01,-9.077592464025668884e-01\n-1.277641013037098316e+00,7.040357167034405617e-01,1.871753402790607757e+00,-7.227362867229675247e-01,-1.243501828297917777e+00\n-1.419961761533757638e+00,1.862120657488596676e+00,2.080485784306855379e+00,-4.351874675868837028e-01,6.698840517435257214e-01\n-1.668405130417101355e-03,-7.497663527789455440e-02,1.201177250365326410e+00,5.500689907516487231e-01,4.110610811864111591e-01\n-3.636827777670877948e-01,1.015144064850709960e+00,-3.511049467289207304e-01,6.436477458992750922e-02,2.747532542520141896e-01\n-1.494428995952709949e+00,-3.729768650332488944e-01,-3.872733600492503925e-01,1.288057576063957876e-01,-1.385028508941931635e+00\n-1.497420964608580984e+00,2.009266716003663689e+00,1.424864086000912744e+00,1.096976554337162790e+00,2.270533790008975927e+00\n5.065045705581102675e-01,-1.361053641460591157e-01,5.850632547051063392e-01,-2.351982086036717767e+00,-1.373406084713344910e+00\n9.234234511869008344e-01,1.754667531876526881e-02,-1.607634269113835446e+00,8.097933345329084709e-01,1.238501493770483686e+00\n8.030834089424555566e-01,-5.854764271803593323e-02,-1.055075196391920045e+00,1.255482112509171411e-01,5.271349420010688069e-01\n-4.680067951615899391e-01,7.381330212023559101e-01,3.842508160212531609e-01,4.117036970203841739e-01,-2.535494488893821785e+00\n1.347681337226222853e+00,2.143145153963707639e+00,-5.091058373925142488e-01,-1.843960322132378371e+00,7.994381627675736235e-01\n-5.805581781586047763e-01,-1.210418646593109271e+00,1.511668807605439868e+00,-1.728984532775801553e+00,8.949264398279721533e-01\n-1.553945366704245989e+00,1.818373862517755901e+00,6.401156032470621815e-01,-3.248418723425732235e-01,1.846536424156965117e-01\n7.282821973932855908e-01,1.033984469429856556e+00,1.031100322492811472e+00,6.795653063007693895e-01,-5.960158218064320890e-01\n8.291068389598742483e-01,-1.633471070927145385e+00,1.250521043807366617e+00,1.086574362389211901e+00,1.737491114539216897e+00\n-7.387142471702446977e-01,2.303114442897654379e-01,1.073918456581512748e+00,3.981194260967748644e-01,-5.334939132501730352e-01\n3.737947045828020065e-01,8.020396528839611461e-02,1.237845765451995650e+00,-7.858341764640668359e-01,4.213836582145439880e-01\n3.560041046835731304e-01,9.368503127392754370e-01,-9.679421331167474551e-02,1.555297713570250595e-01,-8.925985426481614082e-02\n3.509820220850363298e-02,2.651332562011491333e-03,-4.119240529667443917e-01,3.522516005706328279e+00,-1.052327131844645880e+00\n-1.467940078973662521e+00,-9.945689084596870400e-01,-8.856762984826052065e-01,1.403637245505782657e-02,1.782327440564084764e+00\n2.110673945691428521e+00,3.074980761682365449e-01,-3.106631835283819143e+00,4.810151368325919496e-01,-1.633104866091309670e+00\n-6.241741122101353012e-01,-1.431725328448702816e+00,5.271762328446648604e-01,-7.831593122350501979e-01,9.607377266777165081e-01\n5.927630999915238785e-01,-3.024437622660499092e-01,9.707558575184332961e-02,1.141226535878770543e+00,-4.662230866189168155e-01\n1.141653457301838870e+00,-2.641310435578680949e-02,3.339067808478518029e-01,9.935477460692275775e-01,1.658251211357200550e+00\n6.457669452837940804e-01,6.943647352370024839e-02,8.970459076837156154e-01,-1.926640626261151512e+00,2.043487552771263260e+00\n-1.648462532953498316e+00,1.126835338836931211e+00,-6.971145193897768655e-01,6.385587370108957161e-01,-1.419730944065210332e-01\n3.752707789835513230e-01,-9.932249024114749858e-01,-2.688036964756823188e+00,5.120473920220808273e-01,-7.465402477866600606e-01\n-8.078271721252963111e-01,-9.015526910361143509e-01,2.475752266098331322e+00,-7.222712381707874219e-01,4.097773769812917410e-01\n-1.444762307910258503e+00,1.897326407829233785e+00,-6.920633555878857868e-01,-3.237614910476683594e+00,3.382340807121279713e+00\n-1.367736198265965486e+00,1.626939635003287643e+00,9.119919663103379648e-01,8.123925104269613673e-01,-2.876724174468547890e-01\n2.419795751863731970e-01,1.529443966953885292e+00,-3.740414729009379768e-01,3.110870099833487612e-01,1.157858205397985119e+00\n1.046583098546085139e-01,-5.311082059304726988e-01,1.804693728819385168e+00,4.257618884167951312e-01,-1.559369928371351632e-01\n-9.739649699443037045e-01,-1.263383739277575302e+00,1.107082315465131694e+00,1.179888527817601451e+00,-2.707664886974782803e+00\n-7.784868071856554383e-01,1.193234400831230335e+00,3.016582507583352779e+00,2.675872459525292069e+00,1.172420706113865396e+00\n1.706005665321403741e+00,-6.619286218113585862e-01,9.627314472851359328e-01,-1.542269185720104296e+00,-6.989669340160400424e-01\n3.977668725936196470e-01,2.700063614443864335e+00,9.278642903880341963e-01,3.401416644194374950e-01,-2.119521873050167482e-01\n-1.653929126822705431e+00,7.455567085097535296e-01,-4.404886185465367587e-01,2.946177727949946812e-01,-1.110145218851045890e+00\n1.492659301793751447e-01,-1.915885000630073387e+00,6.270168859877570666e-01,1.643395759357609842e+00,1.139012507951138842e+00\n2.636029556631805715e+00,4.057949625072690969e-01,6.298969574827525397e-01,6.414018660055914589e-01,-1.096372539591590423e+00\n2.684864126877213319e+00,1.232056388344205944e+00,-3.043543060630712338e-01,-1.125624524683119354e+00,7.254916017410744100e-01\n1.064844614139857315e+00,1.683642290292252375e-01,2.284126690837906259e-01,-2.388716899904151925e-01,-6.760164747048524533e-03\n1.659610784418338980e+00,1.740610243757723108e+00,-1.874356464605742012e+00,1.681657482857064900e-01,-1.503654192818131063e+00\n-1.667875060386003527e+00,7.272684070124973976e-01,-1.053570077326455579e+00,-3.932429004415458618e+00,8.040391942114274437e-01\n1.594893322697077842e+00,2.537953067801300033e+00,-4.967957550578999126e-01,1.800586845116452617e+00,-3.266129294212527512e+00\n-1.305359177939039661e+00,6.433252472635319075e-01,5.852327441986078238e-01,1.645401674250547286e+00,1.192581357426446775e+00\n-9.984734537460157600e-02,1.910125327220105529e+00,8.616631132959144956e-01,2.143507086010952190e+00,-9.996614372328096465e-01\n3.864871295327099165e-01,-5.208030108677089709e-01,1.015000317850920153e+00,-2.648742162183966853e-01,-3.086286606147614631e-01\n-1.633088985505497526e+00,4.005218305615386165e-01,1.402072952962722718e+00,1.265287969236105203e+00,-3.753235974292195021e+00\n-2.001380476145335319e+00,2.512101541540118443e+00,-2.249222363575650308e-01,-1.793790391600530998e-01,1.455833232918588793e+00\n2.570206495400839675e-01,-7.773355467888892756e-01,-2.541516549961415627e-01,2.369446174156873752e+00,-1.719093208465790390e+00\n1.627354032179225696e+00,-3.821535636538442859e-01,-3.314217331621766571e-01,2.323804559036432238e+00,-7.993798580225105477e-01\n1.039661331726647431e+00,-4.521784047311063759e-01,-1.785026225625712781e+00,-2.084267972728496010e-01,1.455840605227088469e+00\n-2.382700981056227740e-01,6.792092167636754052e-01,2.307862269479524497e-01,5.360135833888880069e-02,-5.239727183252506082e-01\n1.638857338834631416e-01,-2.535345519209184051e+00,-5.627903779902445613e-01,-2.252122406989329306e+00,3.329432283984957719e-01\n4.421263839600403922e-01,-9.934423235099365534e-01,9.938724139533043900e-01,4.895400128791974059e-01,3.634809335910900163e-01\n-4.586490237986371454e-01,5.792629396837053468e-01,1.304060031726109292e+00,-8.288191208762832884e-01,-1.024786756737297910e+00\n1.476760163985771479e+00,-2.899642854946354209e+00,-3.269065588649337606e+00,-2.266717373862755291e+00,2.228835968033513470e-01\n1.873428835922227587e-01,6.122393271257818848e-01,9.166750571304521644e-02,1.913343870904826716e+00,1.961210980412375404e+00\n1.439276589438308163e+00,-1.445110806357140065e+00,4.526750307805241236e-01,-1.079914956198874787e+00,-6.255298833459974617e-01\n-1.284593506828185072e+00,7.392311391992530817e-03,6.742741677839129144e-01,9.667182699969502357e-02,-1.488459091837047499e+00\n-1.898476796840056435e+00,-9.412732377765899994e-01,-9.652283432686762366e-01,9.767254639574042274e-01,-3.986319528787537481e-01\n-2.352369101686272446e-01,-1.928786595261563208e-01,1.366611495163247314e+00,2.037618407842953783e+00,5.321965454396975215e-01\n-3.125285490479567940e-01,1.748134295071052557e+00,5.493449083797165011e-01,-5.212051431390207767e-01,1.263015931603915121e+00\n2.602229356912204028e-01,-1.784943496732601886e+00,7.869231427021604608e-01,3.789196161502283444e-01,-2.310671223532132057e+00\n-2.675953025568021282e+00,1.749950711800448977e-01,8.559832610155063692e-01,7.616794124623178508e-01,-1.694116218290504516e+00\n-4.247533716390011205e-01,8.319649808889792997e-01,-1.912466106357426421e+00,1.062047618604514687e-01,2.653707894751499152e-01\n1.150729369598604057e+00,-3.059961385990851213e+00,1.780138330072721653e-01,2.515319639629458148e+00,-7.731987258067026803e-01\n-3.911416424503550426e-01,1.189350458158986212e+00,-9.516422765622988278e-01,1.442740234132009469e+00,6.740525120941813775e-01\n-1.957283440133227970e+00,1.251972910769379443e-01,-1.818735615123096450e+00,1.186711405267309338e+00,-2.093937691518574340e+00\n-2.260777894719034897e+00,-1.421764314876384772e+00,-1.002968505727209747e+00,1.638415277220379940e+00,-2.253874839613457040e-02\n3.637407676406396728e-01,1.336645816835031919e+00,-8.748352333175869466e-01,-7.265938234574862431e-01,-1.057777443913181736e+00\n9.671756992545474940e-01,2.027281309627697592e+00,3.134597909425483886e-01,-7.841222592477269382e-01,-6.524222612384388276e-01\n-1.394152745825112394e+00,9.035414574389440956e-01,-1.332350207525888397e+00,-3.238585119779069932e-01,-1.460402844406269995e+00\n-2.369335006002924349e+00,-3.168217983709701979e+00,-1.113296846707269694e+00,2.658377228930647873e-01,-3.987047250636870377e-01\n-2.791214404125027526e-01,-1.335841653537551244e+00,-1.162464068851095877e+00,-1.332459276452649499e+00,2.631945055591075056e-01\n2.567528772822152749e+00,-1.591652087958980444e-01,-1.696236783794856207e+00,1.591164992440322168e+00,-1.241903696211728469e+00\n6.984780320389227803e-01,-5.500093565206021218e-01,9.843054017092077446e-02,4.274267886867037625e+00,-9.349959023354913468e-01\n-7.386401434612205330e-01,4.550148537629796763e-01,-4.101853001102226393e-02,-5.126123297873496076e-01,-8.625868749799014967e-01\n7.290869398810344570e-01,1.329264916499698579e+00,-1.196156636483874935e+00,-1.420638317768784020e+00,2.277848617714445023e+00\n-1.786188101116115146e+00,8.815921963476988088e-01,5.411912981144669788e-01,-1.377150268157456781e+00,9.453850997845244519e-01\n-1.376614932793731816e+00,-1.361403457779094550e+00,-1.735000217876367046e+00,1.037861709309112035e+00,-5.602110363193265608e-01\n1.352896431538039401e+00,-1.012424433749409936e+00,7.643568064540813278e-01,1.753090009374865366e+00,-1.074287583836904952e-01\n-1.400649279498570543e+00,-4.263467419342997222e-01,1.565974762597553749e+00,9.216249433361403121e-01,-4.806074711902375562e-01\n-2.172988507911933542e+00,8.904392727550288766e-01,2.032872575531416981e+00,2.056718224108885273e+00,5.405954123746226081e-01\n-2.355531902991918336e-01,-9.799361319831558781e-01,-7.112983298327588688e-01,-2.053329742627411303e+00,2.660777905922523612e+00\n-5.227876258975196894e-02,2.957596248764152058e+00,-1.092030781195930944e-01,-2.027831553200601711e+00,2.316329092384812771e+00\n-1.087982610856593757e+00,-5.683435472984144088e-01,2.038665077123916536e+00,1.808094195057199816e+00,-2.530084924900835919e+00\n-2.071773785596072934e-02,-1.380939675203338934e+00,6.565312298438257255e-01,2.247523940199600112e+00,-6.513098970083479600e-01\n1.831672057898074524e+00,-1.178118256681468079e+00,2.694060499982172896e+00,-1.037518385245986829e+00,-5.823594469367755488e-01\n3.489712965234902931e-01,-1.758902567865079591e+00,1.923596991438745185e+00,-1.336956761429416218e+00,7.627102283293791807e-01\n-1.606222433545208217e+00,1.309298982783619614e-01,-2.064660436309320724e-02,-4.872140808038981641e-01,6.128610775496318164e-01\n-1.392085595648516749e+00,1.891359715643450512e+00,2.463842382327312008e-01,-3.483793057869931875e+00,2.500269370627266063e+00\n5.652471867399504468e-01,1.932153559286996281e+00,-2.241489882002531409e-01,-2.823858974248261156e+00,-5.245752605458060547e-01\n-1.525144057146389676e+00,-4.823504583074288837e-02,-6.021404600686377506e-01,2.586823690531053765e-01,-2.199979726580828743e+00\n6.852059556464616674e-02,-5.719821341299197170e-01,7.886783603679294874e-01,-2.110455626433056509e+00,-5.296373086767823812e-01\n2.061845140729086090e+00,-1.473662202934427068e+00,9.240782578649926471e-01,1.660137979645694317e+00,-1.433184389183060278e-02\n1.222718577183251831e+00,1.293318655279929397e+00,1.953260757866738029e+00,-4.610221367572184814e-01,-1.416582904023459266e-01\n9.930796643951673719e-01,-9.362372031521258853e-01,5.393161995534988262e-02,-8.737344208405729562e-01,-2.903419007283434716e+00\n4.100333091691875653e-01,2.113896689660942574e+00,-4.684045191360494687e-01,1.040338498876898221e-01,-5.652822900051632793e-01\n-9.290011193343207241e-01,1.666061805511287741e-01,1.336377088839702409e+00,2.761290687877876238e+00,1.029020454508440929e+00\n-1.191588869772473469e+00,-1.766694990393368414e+00,1.635424755087934390e+00,3.967129712249293227e-01,-7.604874969656488792e-01\n-1.316432419905082529e+00,-1.005505381775094298e+00,1.533904424660107013e+00,-3.011175696819288344e-02,-1.746864336492105041e+00\n1.085378775206971902e+00,3.832113867376165661e-01,-3.661483322278515917e-01,7.552555404088405755e-01,-1.033957377618436313e+00\n1.201829797099501551e+00,-1.778081326421250496e+00,-1.127751881753843444e+00,-1.718458905461426323e+00,-5.203177457495030689e-01\n-9.472757895582361032e-01,-4.552593285155054903e-01,4.828949625356162602e-03,6.901225163907823701e-01,1.835388656707414579e-01\n3.173199740624410570e-01,1.999980108030529946e+00,-3.261374100711753043e-01,-1.811065757830440992e+00,1.188964641641116149e+00\n2.284883071615580796e+00,2.381700319840371061e-01,1.050932066432858747e+00,-8.118154754541614393e-01,2.332406108057995253e-01\n7.944351799712723317e-01,4.741872827475198671e-01,-6.699326337368960438e-01,2.035470898502482751e+00,2.178578813741474107e-01\n1.160711281865918654e+00,5.048629128036313807e-01,1.090010134082293192e+00,1.166521719333425633e+00,-2.668265290076715646e-01\n1.039814609092381437e+00,2.688155447080986082e+00,2.489651197315033038e+00,9.518008874957403220e-01,2.103568154235630150e+00\n-1.623877067803621399e+00,1.839089009015598020e+00,9.430988053575367625e-02,-2.229087317350150865e+00,2.068659313318706727e-01\n1.217449249517154941e+00,-8.688989071895119043e-01,2.409691849079321102e+00,1.681413126720341600e+00,-1.589057674106491680e+00\n1.250582722791607537e+00,1.293940391731080997e-01,-6.943357507063521172e-01,-3.977461213734994616e-01,-5.569815562175690626e-01\n-1.527211488777563408e+00,-5.679880512801899206e-01,8.585442107753306074e-01,1.773070208649594637e+00,1.816077039069734278e+00\n-7.200716527397500455e-01,-1.507497367382782394e-01,-1.073532886075458270e+00,1.283200661720910629e+00,-2.052745215274692558e+00\n-1.701236211684480581e+00,-7.941676595952144035e-01,3.091109819649824897e-01,-4.013493601883330597e-01,4.122148654234628062e-02\n5.341314597269625208e-02,2.849614753387464949e-01,-1.294633940081231671e+00,-4.262220553091299324e-01,7.180410478100669458e-01\n3.473884225949382953e-01,1.362185394093305968e+00,-9.309652664662219079e-01,1.128113305085515883e+00,1.827785492537307821e+00\n-1.760391314785974270e-01,3.327352563383985107e-01,2.807285269039626607e-01,6.673311507219511496e-01,4.834445371014053916e-01\n1.832742130202225761e+00,6.398193317880896958e-01,1.075659590968638168e+00,4.127016572424533902e-01,-1.297529676470177140e+00\n5.361989310951260634e-01,-2.900595474506691973e-01,-7.949650074801063449e-01,-1.119044469089664595e+00,-9.106896456060170619e-02\n-7.613721463421914137e-01,2.537035355082552623e+00,1.985233353814792379e+00,-3.375762099988985354e-01,8.807549888335082233e-01\n1.438613912646369286e+00,-2.183805835018846342e-01,2.298611656960904082e+00,1.146645661207864819e+00,-1.267414788366048595e-01\n-2.245369785583865685e+00,-1.206711502018197546e+00,3.942593583156606685e-01,-5.469963996254580962e-01,-2.554268643280290657e-02\n-9.862104807558789155e-01,3.042855933994959572e-01,-5.735809763283736817e-01,-1.935244987874983336e+00,-4.254731153261651633e-01\n-7.110807258303297740e-01,-1.929470464707113919e+00,1.779772830429988906e+00,-9.120333845172065579e-02,-4.046854034333147165e-01\n9.474531231376351892e-01,-8.835176928762782100e-02,9.668703236148429303e-01,-1.836530232453615241e+00,-1.286694643969840790e+00\n6.995491390905661522e-01,1.875706165076958643e+00,4.929008649448827356e-02,2.785509427653667380e-01,-1.020710759801700451e+00\n-2.019568532820981491e-02,-8.703324661816193020e-01,-1.907894967064531211e-01,9.063854664868955524e-01,-2.487443402752204324e+00\n2.774348542366498749e-01,-9.916309986500997375e-01,-7.984354350046989346e-01,1.423553217029235540e+00,3.706666190604581690e-01\n1.169236437070056978e+00,-2.190947283842716864e+00,-5.046364388318204108e-01,-5.632465484239151943e-01,-7.327750678888876879e-01\n5.476098767570639625e-01,1.116826177476400783e+00,-1.379634033324769415e+00,-1.201247231268220084e+00,-1.561199440065195398e+00\n1.423610338424680544e+00,-6.470021104446285198e-01,-1.305457697157475505e-01,-4.187819103364180950e-01,-1.204626144136266230e+00\n4.648298869647295439e-01,4.755087550428923060e-01,1.169065302473212276e+00,-2.848785730264349891e-01,-3.734173424896387594e-01\n-7.295810063184697825e-01,1.853263254526600790e+00,1.250924321283948482e+00,-5.409632757162988193e-02,8.064020730976797502e-01\n-7.383584937321552299e-01,2.550442717261155234e+00,-7.469941722079458390e-01,-4.789275777717277305e-01,-4.691899154937319572e-01\n2.115122461368073470e+00,1.736620260167389962e-01,1.344209623312194957e+00,-1.423124982357260038e-01,-1.515289055324176903e+00\n9.638921951787966513e-01,-7.872578568793698883e-01,-1.646235706973132151e+00,-5.211608364046947939e-01,7.845882187716399780e-01\n2.193603235888050840e+00,-1.733840395504871790e+00,-2.741024328428121493e+00,1.158808385035269062e+00,3.724237901255349481e-01\n-7.114538942509672781e-01,5.154277785915997168e-01,9.052290004822760583e-01,2.381527835639933421e+00,-1.636560222206631110e-01\n1.598311283983443465e+00,-5.545241479452588385e-01,-6.312697028564779878e-01,5.274506414497616147e-01,-1.390260905139756531e+00\n-1.622684176245474896e+00,1.203087358180868760e+00,-2.446835003969896061e+00,1.398616445644857986e-01,-4.047394268851555177e-01\n-4.679545197887744479e-01,-1.660134068956143016e+00,-2.534070737672875051e+00,-8.200716857388828940e-01,-1.448576715288635297e+00\n-5.282193985736012287e-01,1.119408353828868496e-01,-9.187852191443759420e-01,-1.331379909386930294e+00,3.646442598592751216e-01\n-9.446441715976572340e-01,-1.190692747716452615e+00,-3.684747550557260776e-01,3.590284121123253902e-01,2.630052049650251078e+00\n2.018619875485577975e+00,-1.573272046577670835e+00,-1.648879314783230132e+00,8.057475486553572486e-02,6.936710475029992384e-01\n-1.646454940602103123e-01,2.705497170839489041e+00,1.464252937189055359e+00,2.044154651519305421e+00,-5.197891948509719695e-01\n-1.114767827146261769e+00,-1.333420515081422231e+00,-1.423724362115199871e-01,-1.567346945016471871e+00,-7.894568846878281532e-01\n-5.324347984034403236e-01,1.176652328133216407e+00,-5.897949739764967170e-01,-1.753968218067851081e+00,-5.570537675247779763e-01\n2.321528652066033316e-01,6.946549790227048993e-01,-1.150757458470126338e+00,8.064578083500266725e-01,1.728553995382355213e+00\n6.111375573626922630e-01,2.946466452017355575e-01,-5.636475807605098032e-01,-7.670588533422240118e-01,-2.531465404637648131e+00\n7.466407211656655996e-01,-4.495085283375978014e-01,1.811560430299451740e-01,6.173605315710506414e-01,-9.839782788394419999e-01\n1.259511774625761582e+00,1.333121310085208511e-01,1.857969472290728064e+00,2.040188941539138046e-01,3.935096157337230616e-01\n-3.428162410556058193e-01,1.837204941240099254e+00,-2.625667011721324773e+00,-6.699886553277341061e-01,-3.828005438038445951e-01\n-1.907785420242841479e+00,-9.910311029162536256e-01,-2.708370819044441102e+00,2.354419311041469620e-01,-1.751329353161893421e+00\n4.765681211252572602e-01,-3.154571116847471601e-01,-1.027537279534846526e+00,-1.931259291370712283e+00,-8.484376541404335947e-01\n3.907665264686412954e-01,-1.546868354179557759e-01,8.276902173884275182e-01,-9.861692267837818271e-01,1.998091358812962737e+00\n-3.040371313943494025e-01,-1.065953987339820719e+00,1.619126050649778881e+00,1.685330662557761094e+00,-1.170291246723561968e-01\n-6.103835922473092035e-01,1.120763947923533843e+00,-1.123939733203413560e+00,1.161135532628310818e+00,-1.731463828874688637e+00\n-1.140085494205098637e-01,4.754233358388253172e-03,1.499527082970131486e+00,-2.282243516631223379e+00,2.910300243621599114e-01\n-1.521614604995036035e-01,8.018926935765534889e-05,-1.105086929919541827e+00,-1.624362169333024797e+00,-5.773984144965227383e-01\n-3.007789730690408891e-01,1.835672828818579516e+00,1.371401041845008717e-01,-6.232657821160545765e-03,8.700840562146560098e-01\n-2.006830373446674809e+00,9.010867139005749316e-01,1.140551287760290133e+00,1.131058239007049826e+00,-4.145633620123500562e-01\n-1.538491883171732910e+00,-1.228775149371011288e+00,3.087372679669080910e-01,6.710947974180637710e-01,1.592135524273063929e+00\n1.898613714216167203e+00,1.085569982640792075e+00,4.459385763107469314e-02,3.328388269114825326e-01,-2.926783296850196114e-01\n1.295961494088390564e+00,7.266322058772799464e-01,2.526560737695273118e-01,-1.575792963624139231e+00,1.300750756336235048e+00\n-1.919309063231405377e+00,1.512517492453209211e+00,1.211249070465482358e+00,-1.987803548217478733e+00,-6.531274649708751490e-02\n-1.569126821730664423e+00,-2.033331937074381590e-01,6.765108901570744404e-01,-1.811979409057853929e-01,-1.706113486619002639e+00\n2.957922128647421101e-01,3.025979010498400235e-01,-4.708537040858831041e-02,-1.311052904133049646e+00,-4.408392628386898493e-01\n3.135400008691610063e-01,-2.066355807110716869e-01,2.625255437463205777e+00,3.156982546166895998e-01,-2.601078319517178272e-01\n6.018035292614232201e-01,-1.383538995916645753e+00,5.168402326220550291e-01,2.011572220386109056e+00,-1.098236062255655288e+00\n3.721977010294570398e-01,9.507449599836051979e-01,-2.116262258826615117e+00,2.037534295049854283e+00,-1.301507875279579896e+00\n-4.165127101833516199e-01,4.704290136816091650e-01,-2.935234607918337235e-01,9.966024206642575267e-01,1.865921417595258480e-01\n7.129082678493715575e-01,9.315998950636432407e-02,1.833950886477504261e+00,-2.513626076563525213e+00,4.526782572217100675e-01\n-3.731493200708631552e-01,-1.194425479494181097e+00,-1.012309164566251862e+00,-7.142473284737665962e-01,7.209571640793861480e-01\n-1.121751944684754143e+00,-2.051243799610108220e-01,3.473051567111548055e-01,-1.438424580259403118e+00,1.384513344356652853e+00\n3.008700910754820601e+00,-8.445791960474465787e-01,1.142810353620253849e+00,-3.885489815610961850e-01,6.630072623620890671e-01\n-2.355140771996764859e-01,2.745582848163351297e+00,-4.101521905811004731e-01,9.863034243886005248e-01,7.560950567331518046e-01\n-1.358247980949657485e+00,-2.700014213950885811e+00,7.169738760173522962e-01,1.051463602906020700e+00,-6.694698414801762976e-01\n-7.949181285690658516e-01,1.214331772940442811e+00,1.062079127193369388e+00,1.191050123538126115e+00,3.247931573197442856e-01\n-9.758777980546758934e-01,-1.506174913102710455e+00,-2.477177822608605418e+00,-6.988108122575849290e-02,2.392080597944818088e+00\n5.954068143350982334e-01,-9.825357080183819147e-02,-1.898496814675374234e+00,-8.346578620310985963e-01,4.634217568256896770e-03\n-2.790199631695647331e-01,1.128767726231958202e+00,-2.009878067935423618e-01,8.644160006746688385e-01,-1.447967441216989615e-01\n-2.359401202680311560e-01,1.566861812900990580e+00,-9.389874104426886303e-01,-3.552669068354216697e-01,-1.612259927997967912e+00\n1.172637805481658718e-01,1.329561816456896972e+00,8.480879712826062677e-01,9.141485165747891273e-01,1.313282424113819236e+00\n7.826200820148654369e-01,9.455674578294321897e-01,5.091213479544223208e-01,-1.209189854744084913e+00,6.589486864280124090e-01\n1.175736544956386131e+00,-1.106786974118015632e+00,2.987616642799590383e-01,1.354712378293461583e+00,-4.636054728030625793e-01\n-1.645897692284600478e+00,7.907240137856194617e-02,1.988808180531604686e+00,-1.134473999185415138e+00,-1.288581017168033138e-01\n-9.345299952880684602e-01,-4.482064360423065330e-01,2.937737535720077453e-01,1.843936812075302134e+00,-8.905636033069483926e-01\n-8.823275632230263010e-01,-1.091685708790944620e+00,-1.364746318741631770e+00,-1.913018597200084825e+00,-1.060073445182917018e+00\n-1.256808138143765408e-01,5.503555700684554380e-02,1.462166509937936842e+00,-1.026033250788294771e+00,-9.710309592443504556e-01\n-9.424781601587005619e-01,2.424789399990209815e-01,-2.019664061791077991e-01,9.685313798434126431e-01,-9.834110204340514860e-01\n1.131152289576212500e+00,1.164459748051806631e+00,-3.339029956889417172e-01,-7.789829570192294828e-01,2.233789616312107928e-01\n-9.978802958302325221e-01,2.473533483824678747e+00,1.708583559896003912e-01,9.835657055301187945e-01,-1.580524898614261708e+00\n-2.187409098866478718e+00,8.518802090607011657e-01,6.403901676859931058e-01,-9.483536780510005704e-01,-7.050727185705778499e-01\n-8.496289250452673247e-01,2.821904335005038789e-01,1.147066693916166225e+00,-1.926407601815996129e+00,5.966542176956907140e-01\n-1.095263577397667554e+00,-6.674416385545332009e-01,-2.053719173124677055e-01,-1.700012781145892271e+00,3.542462849696472738e+00\n3.020293064669880678e+00,9.371663984718191509e-01,8.165835347527572452e-01,-1.301925138778397217e+00,2.962780563225186903e+00\n2.449281508017116943e-02,-1.524640277485152795e-01,1.500568691513868291e+00,3.247722161627659698e-01,-9.678509454114976318e-01\n-2.714472443262769819e-01,-4.686636187768752349e-01,7.884700707477378112e-02,6.905304296609111603e-01,6.647361675233612877e-01\n1.617751325680745644e+00,-8.589029106436536429e-03,1.190514530281414407e+00,2.122506878974518951e+00,-1.531273770464157913e+00\n8.837284717361902908e-01,-1.341317582423594557e+00,-1.882954017229096610e+00,1.969981140512923945e+00,1.412067154712478345e+00\n6.489993723696395600e-01,-5.973569790587270889e-01,1.869062061221520299e+00,-1.706380024170735865e+00,8.400288057128753316e-02\n6.016721156497083500e-01,1.601204775141510606e+00,-1.905232109829405163e+00,-3.819510871059626833e+00,1.441020835445342707e-01\n3.905788199877330835e-01,2.130067680466418145e-01,-1.095693316114441540e+00,-5.521221284686377712e-02,-1.919030489175466814e+00\n5.259766272872454795e-01,1.116684888842955470e+00,-9.061685827371970259e-01,-2.493848081419958174e+00,-1.590679019688044649e-01\n-2.350878397628134997e-01,-8.587390824025013802e-02,1.635214560953297092e+00,1.814693000398708844e-01,2.602593363252175607e+00\n4.945598583989153640e-01,-1.338550373230040558e+00,1.424660194702375593e+00,-1.037736508768816041e-01,-6.036225948710193245e-01\n3.653175730739162685e-01,1.562338660249837641e-01,-1.933498614026350371e+00,-1.052477743470751959e+00,1.439222052394586004e+00\n2.312014702699589086e-01,8.073733069961834818e-01,1.278742248287189742e+00,2.239153120648813999e+00,-7.940043268554182188e-01\n-8.709147759994710913e-01,-1.145008411335983523e+00,-7.417162840104600807e-01,-1.135177731101777443e+00,-1.688977567791453971e-02\n-1.359205440250309815e-01,7.246504597279931348e-01,-1.484160437776796071e+00,-8.163560874571719195e-01,4.470399165043731915e-01\n8.640930398950115165e-01,-2.892608160364878778e+00,-7.545332972590362841e-01,-3.208383201121942085e-01,-2.547463574861267510e+00\n5.588466420192856887e-01,1.498810061362912505e+00,-2.425665555296473208e+00,-1.954248798178247259e+00,1.183491850378848742e+00\n1.415051651886659601e+00,-1.587545322799028158e+00,-1.235589556954107771e+00,8.180383573268091846e-01,-3.052546204986157363e-01\n-6.579409628888385209e-01,1.976744668211202427e+00,3.613823155521249109e-01,-2.273236425580920095e+00,3.089040764230459590e-01\n-1.756361426053649977e+00,9.145038424357180284e-01,1.216562009116985088e+00,5.414568086946565106e-01,1.152688521767181840e+00\n2.445439981076197977e+00,8.990961239254989801e-01,-4.665767853732669668e-01,-1.365160490641775137e+00,2.771049969836599791e-01\n-1.295069065675705788e+00,-1.797732604262672229e+00,-5.760184926314519949e-01,-2.216643953320094784e+00,-1.622239535473366967e+00\n6.153463541935415559e-01,-5.982476650151458131e-01,-3.859883481178015274e-01,-3.369666578250449240e-02,-2.436639186320294748e+00\n2.354355189468946841e-01,3.706144284605646967e-03,-5.243098827445175081e-02,4.265947639798425839e-01,-2.698779535354584702e+00\n2.382517845199766171e+00,-3.753504816927886734e-01,-1.787738574057394114e+00,1.375954824689067935e-01,-1.584227472486182897e+00\n7.966626580132581126e-02,6.739874573088768805e-01,-1.640498470911986972e+00,1.057206652823964310e+00,1.669571565907164157e-01\n4.370089538977245391e-01,5.057975021767966428e-01,6.442615712091908087e-01,1.401517961144166602e+00,1.075524769802871150e+00\n6.116113553236177669e-01,-9.474333760321084208e-01,3.611884346088162778e-01,-6.919705939018223617e-01,-1.803503189253655270e+00\n-4.385643616512557852e-02,-1.136371162251974765e+00,1.416150041653854830e+00,-4.707492895430628183e-02,5.591671951451146483e-02\n9.655982838579363348e-01,-5.228740680354552195e-01,-3.224602217539693227e-01,1.451701922259583499e+00,-1.723432820802216714e+00\n-1.077474415423432141e+00,-1.661844579294908530e-01,9.774764160752779096e-01,3.121839831885481198e-01,-1.442151839203259511e+00\n-1.141859068803639188e+00,2.111562498719713687e+00,3.936812170157572011e-01,-7.711425131071153460e-01,-6.029212681752228464e-01\n4.658436561071751747e+00,1.665929095583563280e+00,-2.041599613937326030e+00,-5.720879576850964598e-01,9.010366375815673790e-01\n-3.422451255953520288e-01,1.416597535159233479e+00,2.193520225076239338e+00,3.570035352700394980e-03,3.656858189077631383e-01\n-2.212124497911839016e-01,1.091994953201259833e+00,1.860290665704173785e+00,1.157139419161421934e+00,-1.353586333212479342e+00\n9.322044015869628275e-01,-7.289279081369319790e-01,2.171236657456137920e+00,5.870507576626617929e-01,1.315120679057089514e+00\n-2.836382465094737862e-02,-4.308559702847981204e-02,5.326817306122964002e-01,-4.433013840020506857e-02,1.965105034804060402e+00\n-1.423958537984098660e+00,8.535756404566449129e-01,-7.324787549018608734e-01,1.071254484184170463e+00,-2.239722658184066351e+00\n1.618469490701845981e+00,-3.747627805287508385e-01,-1.527235483201317745e+00,8.983228640669920217e-01,-2.364376601052448346e-01\n3.490356712491325397e-01,1.531940548541063984e+00,-1.362522222545492934e+00,-9.214223421754914600e-01,9.682074767314149955e-02\n6.997829044851721081e-01,-8.895085520942392909e-01,-1.002129057315040983e+00,9.547367537613419275e-01,1.221210077541281080e+00\n1.734540290241286753e+00,-3.812357420380863560e-01,-3.227741137372269975e+00,6.479259024575180215e-01,9.443873399354812959e-01\n-1.838115805993276064e+00,1.027407563850382399e-01,3.370308322471404217e-01,4.216010128665186318e-01,-5.802661500620097668e-01\n1.022537246253838877e-01,7.447007340135161080e-01,-2.216831557600591918e+00,1.133573180030739591e+00,-4.561372346560942925e-01\n9.531609375243556004e-01,-8.784273372345982045e-01,-2.134966475054667523e+00,1.471097424828933242e+00,2.045041257318341632e+00\n-2.316744355599202443e+00,-1.609922780149315669e+00,1.171224558923491671e-01,-1.307246098904474518e+00,9.479003699684303008e-01\n-9.923999979637099234e-01,-6.463401040338858650e-01,2.638485115344078036e-01,-2.712476672013397483e+00,-3.974771270624557484e-01\n2.513285465846648137e+00,7.311803288555541736e-01,-1.242835941667693067e+00,1.306283063614066320e+00,2.571837477759367552e+00\n1.569888510145099669e+00,-7.425565917096537127e-01,-8.358931394471150744e-01,-4.727025999940910328e-01,-1.311045526613620282e+00\n1.999199237561031031e-02,-1.275943945056813744e+00,-1.106622984317178204e+00,3.899120821859212715e-01,-7.073309520046585641e-01\n-2.767479740116223774e-01,2.654078651092229624e+00,4.435227985311652743e-01,1.472535075739660915e+00,5.393726341930847878e-01\n7.222007416029478932e-01,-1.702207292819610807e+00,-6.948106543891794384e-01,-3.353779483271439044e-01,-5.615328737577788276e-01\n-2.739893552566522450e-01,1.858745761270685914e-01,-2.850437139455299085e-01,8.559667393658443313e-01,-3.112493919197683034e-01\n1.351244363567591478e+00,-2.220794506532957138e-02,-7.486469263332499180e-01,-1.562919430614706950e+00,-9.556797557689414857e-01\n-3.171632786676117366e-01,1.492799173371257115e+00,-1.590996510535152009e+00,1.291355952583806754e+00,-1.135346526117833044e-01\n-1.035142811093189730e+00,-1.647910682806418503e+00,6.805474494787949746e-01,-2.379715305479036758e+00,-5.766626394988921822e-01\n-5.459510104989999668e-01,-2.035715164750045714e-01,7.237656063321260547e-01,-7.678000651576536439e-01,1.489011838236171947e-01\n-1.516253511047309877e+00,7.267340201419544843e-02,7.573306770431438295e-01,-4.397120436513508035e-01,4.595614741717156115e-01\n1.254542669933252363e-01,-4.308282177089042819e-01,-7.151941341778922379e-02,-2.410586047307775592e-01,-2.462174779410399417e+00\n-1.877558503563901748e+00,5.348631801068663982e-01,-2.605670099222504366e+00,1.441030630875032914e+00,-1.758889379084169535e+00\n2.897935507491256751e-02,5.814279207426297225e-01,-7.994864444278495519e-01,1.445745699630339054e+00,-1.709272360291799409e+00\n1.122706121802604207e+00,1.773731131856072230e-01,-1.931329999917727747e-01,1.259809509241580416e+00,6.714504075503745506e-01\n-1.506658163084133362e+00,1.756462127879004242e+00,1.250466838309218343e+00,1.291543871740574168e-01,1.855683256198836228e-01\n1.671808687492914114e+00,2.078237742135593979e+00,7.703088765943890692e-01,-1.446918360876659371e+00,1.501681705935467570e-01\n1.021782453283352599e+00,-1.038875083277453593e+00,-1.506076711986698902e+00,4.955089163205576852e-03,1.385133146363489443e-01\n4.687948070305129611e-01,1.530011754688234138e+00,-2.723183144286038804e+00,1.223398883461878084e-01,-2.587786145093690093e-01\n2.018586295189699412e-02,2.063242119551854103e-01,1.276514828624624620e+00,6.940623821876586996e-01,-5.813246311500622904e-02\n1.077650388973655088e-01,1.279924267982156805e-01,-1.668223401919802784e-01,1.646949280941302440e+00,-2.382215260604500173e+00\n-1.743184094528564820e+00,1.991646421299057224e+00,7.208966518793230582e-01,7.923343274008765036e-01,1.446696584949811681e+00\n-2.518465986714361726e+00,1.798291025517540831e+00,-1.449054674784633789e+00,-1.219493458382731488e+00,1.293265039182334153e+00\n-1.439778703475813826e+00,6.640488875179988426e-01,1.781485865815937153e+00,-8.062702502259057047e-01,-7.316595825060884239e-01\n8.389659205952385568e-01,1.116204459123109283e+00,4.270657025314616440e-01,-1.967339205795969770e+00,2.009283850538952976e+00\n7.766255095714434953e-01,-2.941580773297214790e+00,-1.122969049358391702e+00,-1.321463678227127403e+00,-9.683931734956621185e-01\n3.252962925404365713e-01,-8.872552343411933551e-01,1.527592221542734441e+00,1.379661838109908389e+00,9.350663940496976856e-02\n-1.311855530082781218e+00,-2.234472392696246982e-03,5.024573269192832425e-01,1.448649601857007196e+00,-5.785689899141536197e-01\n9.235225633732181694e-02,-1.252345091640907349e+00,-5.813030197379952524e-01,1.452905845955551056e+00,1.986873519984639236e+00\n-4.413528292680525267e-01,-3.384475023077484490e-01,-9.527027344056371305e-01,-1.910288129899653686e+00,4.631695390124505041e-01\n5.835753407172412643e-01,7.486664096404316293e-01,3.003057210898320284e-02,6.590868347100188318e-01,2.073827412753108668e-01\n1.548668954516717156e+00,4.650774448552806861e-01,1.804445330941118586e+00,1.335320120241728636e+00,4.474417931161261408e-01\n-1.554051136191271221e+00,6.388888285848853821e-01,3.943227826340244269e-01,2.387797329464248719e+00,9.233357861386252141e-01\n-1.411701836221182171e+00,-9.884650236647379851e-01,1.200332736065775840e+00,-2.419873148438493049e-01,-1.499112265468043548e+00\n6.132789497432268311e-01,6.165314550940629301e-01,-1.476483928358401643e-01,1.073517820641159526e+00,-1.299064469401040312e-01\n2.325421416506295191e+00,-1.367742361077262769e+00,1.129772487715644536e+00,1.234556690019686265e+00,1.579621963896317149e+00\n-1.599776413865030278e-01,-5.181720764325613571e-01,2.165842334831691307e+00,6.767347855181793381e-01,-7.325643372378775053e-01\n1.033006529937198215e+00,1.972992844146315372e+00,8.257285399267795256e-01,-9.096695520881459274e-01,1.217577770573477602e+00\n-1.919418533557055495e+00,9.651368522469402356e-01,1.214486634744779803e+00,-2.791695540835600342e-01,3.453845339085867550e-01\n1.843045405491041955e-01,-6.706227507963153922e-01,-1.071702230893534225e+00,-3.481156861027239757e-01,-7.748649595383427791e-01\n1.881615982254290609e+00,-1.692457924202637853e+00,2.239858341216191651e+00,-2.935587969919371543e-01,-9.606093730835792988e-01\n-6.764597741174560586e-01,-1.293014211126742419e+00,-2.526469678254209761e+00,1.020506672768470402e+00,-1.888105583547600164e-01\n-1.032629086814150332e+00,-1.612818643410514508e+00,-6.908025279945932962e-01,-1.550944257384379021e+00,1.623595734524188261e+00\n-2.343190833972358611e+00,-1.177757407944786339e+00,-1.088582739122583298e+00,6.010110202441761862e-01,3.217791117519411825e-01\n-1.633371630362752402e-01,-2.014524637606830981e-01,5.050073574716278380e-01,-9.850804369515153702e-01,6.062972835533462224e-01\n-1.636549751369281713e+00,6.843922574456735575e-01,-6.248008551713610803e-01,1.411347106548383579e+00,-1.522134245822418297e+00\n-5.594855423003737283e-01,-1.015891066208015392e+00,1.178351669785016931e+00,-1.756693757477187479e+00,1.103679128507936813e+00\n5.762522188059920891e-01,7.056262851031072092e-01,-8.579270514528879454e-01,5.908721883238897687e-01,2.180906429190515361e+00\n-8.681480772624095010e-01,3.100280749216792753e-01,-3.320658910925771146e-01,-1.376075362901984178e+00,-1.031609734194400829e+00\n6.537497407422517837e-01,-5.839889958943071668e-02,-3.061032156031691986e+00,6.594196055903761566e-01,-3.989679587826545637e-01\n1.143876254527758762e+00,-8.034742304309577809e-01,2.870259381058779091e+00,-1.186150120986104284e+00,9.525287654945968630e-01\n-1.348545270715730604e+00,2.330065328115414058e-01,-1.439842265624972306e+00,1.558124225276126262e+00,-3.309055525627813826e-02\n1.857813319557630072e+00,-1.315313703843651871e-01,-2.031619587821093198e+00,-1.055843254856480451e+00,-4.923549714812214817e-01\n1.719147079935489097e+00,3.395074654698134076e+00,-1.452885066986921159e-01,3.937059477833416699e-01,1.555341393226971292e+00\n-1.427508839142716646e+00,-3.980104972892685722e-01,8.340477069148911626e-01,4.396893035577689179e-01,-1.066042072233843035e-01\n-1.227313739867615494e+00,1.238892323193734740e-01,8.845838111590028641e-01,-8.967347360396107359e-01,9.160084115966361795e-02\n2.607704488417319943e+00,6.033627262879934783e-01,7.430914055006325736e-01,-1.292035199238452670e+00,-6.872582621412951509e-01\n-3.957544240382480094e-01,-1.042503881941828192e+00,-1.507189911097459367e+00,-1.952754952665025412e+00,-2.590989716223563999e-01\n1.034829028711414134e+00,7.689251309172717708e-01,8.460037423322475103e-01,1.140282587014500137e+00,-1.066730410466013135e+00\n-8.495685204107469302e-01,-2.913745863416690174e-01,-1.105097203043170273e+00,3.164146789447744301e-01,-8.232831005284914072e-01\n1.393066454761470840e+00,-1.088898239409372692e+00,7.054175476971978886e-01,2.095397685408849853e+00,-1.512469033522380712e+00\n-6.793798392070099501e-01,-9.560982676675592318e-01,-1.319898491501541038e+00,3.248048501273000932e-01,6.230340010337055423e-01\n-9.137720824818180709e-01,-6.404691325253264456e-01,2.994283242931818911e-01,3.915005288981225351e-01,-1.384070350603458399e+00\n2.871398326591140471e+00,-2.904949371624221954e-01,1.092481543335527966e-01,-7.818558265481622138e-01,-3.219906176157055211e-01\n-1.122560387071051657e+00,2.029033816865357664e+00,-2.302538965210865651e+00,-2.309008496772383401e-01,8.245299270486943222e-01\n-1.993406874318566668e+00,5.701514322643306265e-01,1.638568817183297943e+00,3.690153016369842054e-01,2.241695379902207061e-04\n-4.156068004740681721e-02,-3.537741436248051374e-01,7.178639245015063786e-01,-1.082027021864175653e+00,4.056576571980062274e-01\n-4.329057142307604633e-01,-7.330490875762394332e-01,-1.450139074988468169e+00,8.332785176876789102e-01,-7.400145293351709785e-01\n1.334940519214896870e+00,-4.260432803468566787e-02,-1.152298453947338437e-02,-1.374750655558374168e+00,-1.249978035815581201e+00\n6.795811704456341529e-01,-1.226587453229104618e-01,6.903076974239645558e-02,8.053866550289177084e-01,6.477267693069272969e-01\n-4.439479885495088984e-01,3.606516594404305831e+00,3.905719673504973954e+00,5.469134530358720214e-01,-1.793660687149829291e+00\n-1.098039231396190862e+00,7.357856549034286209e-01,-7.083629578050972819e-01,-9.667089514049587162e-02,-2.485890037684591825e+00\n5.472435101320263229e-01,1.507680819535818229e+00,-1.516039487495814519e+00,-4.317970373712153864e-01,-4.508185391406392406e-01\n-3.104301213060330689e+00,-6.054060164494231566e-01,-7.229917775946258507e-01,-1.743272387212718932e+00,-1.094556143958311578e+00\n3.008229175580729997e-01,4.120363340456133505e-01,3.952527452840481903e-01,-7.221358407819626901e-01,-1.030724204287061907e+00\n1.711113666922769172e-01,-4.998517574055001966e-01,1.285566864410059074e+00,1.448457921820057948e+00,-5.901348213697715783e-01\n-2.037467662674367741e+00,2.249688550292349154e-01,-8.368802007670828047e-01,1.022923921307849815e+00,8.722917080443337579e-01\n-1.308931940163917673e+00,1.303580354848947298e+00,1.733463562632807209e+00,4.804303325552123916e-01,7.601639916878747405e-01\n-6.472569744222422816e-01,-1.070149253626991204e+00,1.563668442628776578e+00,3.010086892324161933e-01,-1.138183736483656533e-01\n-8.495282857738176152e-02,9.368307396545949572e-01,-2.684101085649070462e-01,-6.190199786660920411e-01,-3.785602363172693163e-01\n-1.999950619178434419e-01,-6.064957379509680058e-01,1.123322276744316423e-01,-6.099767081996980700e-01,-5.663753466022775074e-01\n2.457061395103274481e+00,-4.933632294824754315e-03,2.112227118211068344e+00,-1.263187276476722465e+00,9.370377207720067547e-01\n-2.313221665137332652e-03,2.084832756819538169e+00,-5.955920794119887729e-01,2.223782480589273192e+00,-7.385173028374620863e-01\n-1.252650063368422780e-02,-1.463879143253216109e+00,-5.843237525420810069e-02,-2.686663963727892734e-01,-1.388963612749928300e+00\n-2.329848821121375035e+00,1.096362077020351711e+00,6.039241539277745430e-01,-8.763583741266368632e-01,-1.380140708128644034e-01\n-9.249028584674013898e-01,-1.854801860143365788e-01,3.040053576799496282e-01,4.366301884902743513e-01,-6.267756011041104580e-01\n-2.611067627403941271e-01,6.373258518410882534e-01,-8.292175929262993739e-01,-6.957328456329365807e-01,1.051751910911783855e-01\n6.163731115953204887e-01,-5.336238056415060216e-01,9.867640652138364166e-01,-9.225804075686705463e-02,-8.375821691167466554e-01\n1.187160232968345747e-01,-1.819394289407817888e+00,-2.291640304445263787e+00,4.184500606730706118e-01,-2.215252449110627797e+00\n-9.965785375599186535e-01,1.244322771200411237e+00,4.128361953667157302e-01,-1.061076343924979959e+00,-1.975814913590483862e-02\n-1.785506635234845652e+00,-1.418948021671040394e+00,-2.099798747521610387e-01,7.306982367713986681e-01,-4.192582203138713048e-02\n-1.099965577883288970e-01,-8.122512065145629512e-01,9.714348432614922091e-02,9.940289332254910182e-01,1.373794761988966773e+00\n4.179649248843541609e-01,1.474346631335558822e-01,4.395800795124953919e-01,6.521239216112132420e-01,-6.021214397288366937e-01\n-4.690707554848851935e-01,-8.337961433107737852e-01,-7.895966611843674432e-01,2.343599330476050291e+00,9.773946230866151774e-01\n-8.607172756297362115e-01,4.497120288728358867e-02,3.784933262841826962e-01,-1.131334490779651314e-01,-1.201682026721461405e+00\n1.797173056858790030e+00,-1.484095613132811131e+00,1.081404758538761168e+00,6.712734183685442613e-02,-1.014774405242157007e+00\n-1.947592397692432808e-01,-2.294463686579221839e+00,3.494659049964613518e-01,9.098582422732741648e-01,-6.602856924817412931e-01\n3.710351551585248098e-01,-3.113137873578859960e+00,-6.655129772846971603e-01,-1.668990509532134903e+00,1.151630346339605371e+00\n2.400862081810096471e-01,-6.212581352714496852e-02,-2.391505567924614717e-01,-3.048140178208009754e-01,9.759369283506716952e-01\n-1.297732008850879248e+00,1.159485274980994518e+00,8.700352824610075864e-01,1.282072696205637241e+00,-4.347967048711267046e-01\n1.344509720877585357e+00,1.243925267855971795e+00,5.592006619905836029e-01,1.398764903864848197e+00,-5.490522060533868931e-01\n-8.772256745331176442e-02,1.680035927690738173e+00,2.520162044238156707e+00,-2.045734247851827448e+00,1.171095360508682015e+00\n-1.571013697040687385e+00,2.668374098306386388e-01,-7.280134886391674831e-01,2.615916269338864897e-01,-3.698399343796034411e-01\n4.916550506883851646e-01,8.121333143555895528e-01,-4.312225430111507607e-01,8.364902471926125571e-01,-3.559078745702127788e-01\n8.549066376995013705e-01,1.466567724574729725e+00,2.069269387084146095e-01,2.939674879646150263e-01,-2.244094443151439577e+00\n-9.611351404755338335e-01,-7.803138996592469123e-01,-1.893642214205389085e-01,-1.745176413304792007e+00,-1.620644057431567919e+00\n-8.990541044569996809e-02,2.631102464582387168e-01,1.230047339182043675e+00,1.783471715345958275e+00,6.593164325873687170e-01\n-4.575535366879129873e-01,8.605904958811231298e-01,-9.994133869204073761e-01,2.664020962427549599e-01,2.230827702391235512e+00\n1.829448105499245303e+00,-3.870020581628227374e-01,1.202520071072678221e+00,-4.865859241315504402e-01,-7.689833552556493146e-01\n-2.017072629754435464e+00,6.598395214294473510e-01,3.765571840669943438e-01,1.222913145612471109e+00,1.002999697692458669e+00\n-3.787965214507660328e-01,1.071016069907253065e+00,2.341334715182696868e+00,2.867542090971695323e+00,9.639520055830598233e-01\n3.572695532543004870e-01,4.826346628319747589e-01,9.963563201322153673e-02,-7.184228402903400923e-01,1.965723679469394636e+00\n9.444508282021428780e-01,1.768076399272846821e-01,1.848527351757808912e+00,1.043227034490765481e+00,-1.567455350787051671e+00\n1.539319273582621772e+00,-5.106101502344906340e-01,-1.643023088384234054e+00,3.599188346177997766e-01,-3.865884597095916031e-01\n-9.261385951181905218e-01,1.974823028879683307e+00,7.451402590781680546e-02,-6.533576946392262441e-02,-3.132695567555949800e-01\n-4.883716218678606502e-01,2.353025397339153224e-01,-4.019577082256640677e-01,4.035338009551922234e+00,-1.313238421821630419e+00\n1.422361319643310196e-01,-5.895562765589705823e-01,-8.790288400457542117e-01,-8.368521582388765978e-01,3.112905865008364428e-02\n1.156190043439729864e+00,1.483742662403248369e+00,8.634408189389027877e-01,-5.329286161280221146e-01,2.391940867745333321e+00\n2.212253382925380762e+00,2.194367371529833299e+00,-5.923107107454825826e-01,7.719268491559786449e-01,8.851724655414106024e-01\n7.259925684534890289e-01,7.059294631760291150e-01,6.813096204436300818e-01,-3.777143981072406675e-01,1.504946814710215408e+00\n1.711908204816592560e+00,7.895291750341160153e-01,6.649515086687228516e-02,5.055752939987060435e-01,1.556198609121864473e+00\n-1.570649239382665152e-01,8.759672148593447005e-01,-9.101797504410461537e-01,4.761757997551383514e-01,-1.585881171617665730e+00\n-1.404590939712445197e+00,2.617365193857476680e+00,1.746919163630834271e-01,1.384254698447479504e+00,-3.330785049278512933e+00\n-2.761768552019091549e-01,-2.026501778716973678e-01,-6.838198640978845333e-01,1.828650613698435123e-01,-1.074176805251775280e+00\n1.582236075104344497e+00,8.343827098982607993e-01,-1.417251614902523382e+00,6.102434692676542705e-01,3.954995885343146611e-01\n2.019520437418716341e+00,1.326915649830705757e+00,-1.386341096140217610e+00,-9.634601025802970176e-01,1.241793485801456542e+00\n-1.641248204829891089e+00,7.547981549691757941e-01,-8.387965127360961226e-01,6.364143110075124454e-01,6.726205266780265202e-01\n4.657298266821341959e-01,-9.304461839294777548e-01,4.149210699919415879e-02,1.519185517152882303e+00,-2.309990346047088583e-01\n5.500695061925569007e-01,2.049250380796783677e+00,2.375561458510229151e+00,1.932778007792795405e+00,1.742737661725788090e-01\n1.277705625918563737e-01,-2.219295306395971668e-01,-6.422340974003859504e-01,-2.082714032648602387e-01,-1.761594743966464316e+00\n7.204955938381081282e-01,-3.560696921022439287e-01,1.405083505932894106e+00,1.304806648773020994e+00,1.733668779704723883e+00\n-9.763505011559924229e-01,-2.924534372036539653e-01,-9.197832420162804778e-01,-1.948769189482556952e+00,-8.420340173845307641e-01\n-9.930086188731860330e-01,1.398734715219820846e+00,-3.420923885295898970e+00,6.308793632347879932e-01,-3.196866861754665279e-01\n-5.729189992220098393e-01,-3.879325698723040117e-01,5.774333512725384754e-01,-1.247270568159817294e-01,2.961276496794865043e+00\n2.401732093653612954e-01,-5.914793446858369608e-01,-6.605468565595741248e-01,-2.698151563217698334e-01,1.980723483706559040e+00\n6.676359129928217673e-01,1.710182556430177803e+00,-1.579373557413634721e+00,-6.085023441049441928e-01,8.555829766737642339e-02\n-2.465312985915504018e-01,8.845632094899048559e-01,1.314346505227104167e+00,-4.569625466754151377e-01,-3.580035149199876088e+00\n-1.150179021976029059e+00,-1.493437669139457746e+00,7.256278449960024135e-01,2.545286687964805949e+00,4.275313643429443644e-01\n2.264826423250090759e+00,4.215143636993318177e-01,1.402697709259966174e+00,4.075169406417811779e-01,9.449722741335562226e-01\n-1.153308127654833370e+00,-3.842320027014561323e-01,1.885130155881420855e+00,1.163916093628945214e+00,-1.685735103597482132e+00\n1.344665562948170967e+00,1.540104017927622193e+00,-3.391241799857722672e-01,4.195367805227144808e-01,-7.134134788124090187e-01\n3.920515475433700159e-01,1.970306562455297616e-01,-4.787122099041790091e-01,-5.058713766684361235e-02,-6.766322526714645402e-01\n8.581257682941908493e-01,-8.046554514690389404e-01,4.385500222722116814e-01,3.501853510442397566e-01,-9.812499846366742329e-01\n-4.940481452754946767e-01,3.899041016755308009e-01,1.712312962791103566e+00,-7.973510754756543140e-01,-1.539447814486618327e-01\n-2.277037447751713017e-01,-2.185361037338432677e+00,-1.847761176980119158e-01,9.366789578021069707e-01,9.743353103595470133e-01\n-6.011156360620398820e-01,6.632390009319105717e-01,-3.122676645851459876e-01,4.452389009122748043e-01,1.166678794988628143e+00\n-8.261299436926955453e-01,5.949207969556207232e-01,-2.048843994089073028e+00,1.209669076805419463e+00,-1.928097947879564344e+00\n-9.044131234381157236e-02,-2.445428181249694466e-01,1.064862068483680257e+00,2.222426323239900192e+00,-2.382344635698408764e-01\n2.778791641058461163e-03,-1.326997317376627405e+00,6.966828908970099654e-01,1.237214115900710842e+00,1.462730021394254010e+00\n-1.243494633561315288e+00,-1.091375001484833795e+00,1.123209849375459424e+00,1.164505388663094720e+00,-2.557440868390874478e+00\n-1.018134294449399624e+00,-2.736025751158588815e+00,-2.396143098970833774e-01,1.747515325891602633e-01,4.350535183900812730e-01\n5.790212330216275571e-01,8.299066470414159236e-01,-1.152957340132331615e-01,-1.879040177425729707e+00,2.689758816729914126e-01\n9.397960375366868346e-01,-1.758632336573024091e+00,-1.208725923921213363e+00,1.493304944297901171e+00,2.028198915317358075e+00\n-5.870682333392315266e-01,-1.638125001970189620e+00,-7.593735960383708461e-01,-1.039634409411666294e+00,-5.744776722595235086e-01\n1.018551208666558239e+00,-2.408833686437671151e+00,-2.556401092370361727e+00,2.417065025384621535e+00,-1.005215402079902454e+00\n1.465060948162256071e+00,-2.309550475382356804e+00,1.063966320434991397e+00,-1.764699116941434998e+00,-1.231629639243685181e+00\n-1.742320976411878108e+00,6.753233466831048970e-01,-1.300858751216408704e+00,-1.246158265446537516e+00,8.393330356631359956e-01\n1.954394199792387710e+00,5.322610693197236120e-01,3.236543372876778402e-01,9.709883498248174094e-01,2.078244058013373419e+00\n-3.075164125365777434e-01,-1.218063079598667775e+00,2.296725510639587409e+00,1.763853609351911045e+00,-1.512682993443160262e+00\n1.014477028749546372e+00,5.065666470743592775e-01,-8.815119458187950507e-02,-1.434005062257454721e+00,-1.757029024732129630e+00\n-6.798861971875596044e-01,-9.000785992567386651e-02,2.047476685760275750e+00,-1.740737281664295644e+00,1.269547365385144788e+00\n2.466645307587105318e-01,1.002869697147981576e+00,2.504286166292038374e+00,-5.637976875032704172e-01,1.682113573194849721e-01\n-2.112245397653010226e+00,-8.573840485024003533e-01,1.930451432164901782e+00,2.513341142629518465e+00,2.034341158005238126e-01\n-8.708663190015104860e-02,5.512101570691100294e-01,3.547982595579685094e-01,2.796344965918125425e+00,-1.265614373685057581e+00\n-2.129148779657736412e+00,-9.492337223114226674e-01,-1.730178864724245758e+00,1.329759775863439131e-01,6.529678597105348370e-02\n-1.882114991104084645e+00,-5.445788340484759849e-02,-3.737329178602569191e-01,2.954990202125475918e-01,-8.012022623346118921e-01\n-4.987714320025815051e-01,-3.646574486044928953e-01,1.648636145699099442e+00,-1.417939330060643544e+00,-7.227669700395132901e-01\n8.058164875340968758e-02,-9.577724149388099073e-02,1.435164773821401285e+00,-3.829715951592784218e-01,4.326321148089370960e-01\n4.187551186455470281e-02,-1.068139912338492481e+00,-3.867315663728379538e-01,-3.988441503558434742e-02,-9.973024443700556629e-01\n3.238448146223450674e+00,2.781953466584407564e-01,1.302504824173294162e+00,2.074174979447422462e+00,2.496889360370762478e+00\n-2.245635015505293541e+00,-7.980934541493736045e-01,-1.747181118127786981e+00,-6.128819310365710704e-01,-4.442558730534826306e-01\n-1.839166794872122646e+00,1.382008885785867447e+00,1.592949499633745880e+00,-8.793868453644394512e-01,8.463295732404015892e-01\n1.055147293978827783e+00,8.198862628757607185e-01,-1.695597441539363093e+00,3.044956935475446880e+00,2.599496926191533053e+00\n-6.187753083249786235e-01,-5.842199480292710190e-01,-1.664430454609933108e+00,7.631057271466880065e-01,-4.817182638130993941e-03\n5.933463517857315850e-01,-5.325660932058853270e-01,-1.577923716069565163e+00,-1.198574654295610609e+00,-7.698799752728573420e-01\n1.804040725763773334e-01,-2.866130674696408254e-01,9.699713699350585028e-01,8.449482192138847436e-01,1.163049495303672298e+00\n3.761731794611866686e-01,2.324745449430879685e+00,2.678734285441747076e+00,-6.103936686379959342e-01,-1.317745744828065613e+00\n9.556418751839046433e-01,7.331027263576821440e-01,9.968950864484661389e-01,-6.225870077976795036e-01,-1.278060903013443106e+00\n-1.973017464949873845e-01,2.160937733721810972e+00,-2.553007116122860687e-01,8.653835614360559925e-01,-7.039739434031562215e-01\n-1.095830372636757089e+00,-9.999977560011993338e-01,-2.807876080572607069e+00,-8.194083489279092580e-01,1.099816101590209039e+00\n5.069016659450507195e-02,-1.057651483077641119e+00,-6.789816474081966646e-02,3.231762685000404423e-01,1.038221308542160326e+00\n-9.079897223818341745e-01,-8.873066569671286472e-03,4.208405615768487928e-01,1.319293925182130289e+00,-1.555364849991480947e+00\n-3.842024472156903014e-01,-2.237052092952496629e+00,-1.041760325722466574e+00,4.254059479969493074e-01,2.131951353540198379e+00\n-2.963006213460135374e-01,-4.981039904971706345e-01,-1.242916889957004889e+00,-1.700079985351388601e+00,-1.071433437168971325e+00\n7.750192238838131686e-01,-2.612827083758740176e+00,-2.556127060030694564e-01,-8.479399947660769543e-01,-1.300413524763337714e+00\n2.973015754272433364e-01,-9.916909760355901993e-01,-1.357034912535907134e+00,-7.276750748934680546e-01,-1.924008911581243320e+00\n"}