{"weights": "-1.190594186818161593e-01,-2.662059320096243215e-02,-7.114527637663871362e-02,-5.404361125802882582e-02,2.996301269326141770e-02,-7.016109990584395995e-02,1.627879477831990079e-02,5.184647132440544509e-02,1.130515023873858022e-01,-8.127226273571139248e-02,-1.561099358876506249e-01,6.356414418642009068e-02,1.566380533787574969e-01,-7.900859549682097416e-02,4.915286514840305147e-05,7.393810906744463507e-02,-8.366810471246678704e-02,7.244273191620605179e-02,7.073660456488325282e-03,-1.143315146599433035e-01,9.096492995294093095e-03,6.477083957091574196e-02,2.895349968260811299e-02,-8.526830866507530138e-02,1.931487702154133512e-01,3.688815937657486527e-02,-8.009452884460856181e-02,-5.190160574209472938e-02,-6.905436426538674212e-03,9.373038170122323376e-02,3.160788973767957033e-02,2.062618309953949056e-02,-7.540309624907660935e-02,-5.154019740803855026e-02,-6.500004984558661880e-02,1.284638399854560464e-01,-6.831598423542853404e-02,1.263195069092868383e-01,1.513941740875847930e-01,1.283354650152133403e-01,3.528923720515018264e-02,-1.550538589546819057e-01,9.255317314776087892e-03,9.768028772412744309e-02,1.529389643244456580e-02,5.446946893066356016e-02,-1.540397816195823166e-01,-1.520291739894060190e-01,-6.816889196146762309e-02,2.539160230110231731e-01,-1.067430753841812630e-01,-3.300606490130415099e-02,3.483294103160894384e-02,-9.964895824347279329e-02,-2.008051651305567051e-02,-1.049643413573037309e-01,-1.323358649570204049e-01,7.496092327548131706e-02,-8.554883641060938293e-02,1.555950801380659443e-01,1.269910540633597540e-01,1.139253004922783225e-01,-1.910488673950337390e-01,5.231262869246969954e-02,-2.650983540947577863e-02,4.856589506707455206e-02,2.643232726286644935e-02,-2.872894783241245475e-01,6.995663116570863260e-02,1.882760603593969977e-03,-3.030292821357661454e-02,-8.885259200433412441e-02,1.869095765625059533e-03,6.955997396308005731e-02,-5.891231890750223132e-02,-2.054831798878186677e-01,-1.520153095183059133e-02,7.924782501784276290e-02,2.090550301212232565e-01,-1.344144705760206282e-01,-5.597324420316056315e-02,-4.101627641093164023e-02,-6.726753842152588536e-02,1.394427290232585215e-01,-6.428882603439407817e-02,-1.027369570802286495e-03,-4.724121482675303768e-02,-1.418712394003455828e-02,2.605869697162638277e-02,-5.980157316163188519e-02,7.648364436091331653e-02,7.834129684903706758e-02,5.158081928601740418e-02,6.077720721990642616e-02,1.216926874574301570e-01,-1.588743298250338068e-02,-1.930797344513683622e-02,2.580534173824688415e-01,1.065364334717570777e-01,9.977039493502793364e-04,1.833785919858770819e-01,6.842413365033386818e-02,8.978342207922963836e-02,4.743545836545956518e-02,-4.610470957385582463e-02,1.250581184688238368e-01,9.670337897432153274e-02,-5.177542931923112546e-02,4.949096601527256528e-02,8.946052353977447524e-02,2.159329967838223216e-02,-1.015976726016315328e-02,-1.587810789447297588e-01,-1.596765659276075666e-01,1.828331203628329182e-02,1.096645773713685740e-01,-6.758986839792281709e-02,-1.497938357625273331e-01,3.753311433028741484e-02,3.114716255173336987e-02,7.207410583278647809e-02,1.868122352806623337e-02,-1.102300276818799912e-01,6.621066842711059719e-02,2.425174679803942732e-02,-2.364602928413837499e-02,2.388159887921905561e-02,-7.552522184113882875e-02,2.137424331511827633e-02,1.237148272196803983e-01,-1.569383336725463721e-02,1.001185759503676054e-01,-2.017867531101494999e-02,-8.864100243994584710e-03,4.050059756395199551e-02,-2.738808412669915121e-02,-6.816548848630070434e-02,-8.667731294950288545e-02,4.355443423679935394e-02,-8.666177685351154902e-02,-3.002827484726234078e-02,-2.278306271641747371e-01,1.368225072812740140e-01,-7.413185328218728498e-02,1.471355375681984157e-01,3.250896444481867625e-02,1.184331251237286942e-01,2.969681785107672334e-02,9.160133759606125387e-03,-1.065747956154164677e-01,-6.258455891336588139e-02,7.976210273966582998e-02,3.031721930774738255e-02,-9.341146676722320019e-02,-2.937383553338552764e-02,-3.940824090384702910e-02,1.496445655147869702e-01,-1.985186894021750137e-01,-1.971730662261941269e-01,-3.059592249919678153e-01,7.026546571733229170e-03,1.608330399753882534e-01,7.042555246516365997e-02,1.293467386195274946e-03,-1.675719602202018488e-01,-2.362289075301560529e-02,1.156499937748287632e-01,6.900799316329921107e-02,-1.077885303269765851e-02,-5.292436240888600402e-02,1.980124813291999838e-02,-1.487670920287828269e-01,5.523131242729188706e-02,-3.485540469792881846e-02,8.744023884313756323e-02,-1.721035241579820241e-01,-4.236950421919545920e-03,-2.982474983973757441e-04,6.470834633798307201e-02,-1.897348382830123942e-02,1.949250942297868494e-02,-9.798201654381119563e-02,4.464693493090950843e-02,-3.893045137861309707e-02,5.610163045253008934e-02,-5.067454117008890480e-02,-4.200021078434915123e-02,3.447786987140892545e-02,1.334263102426492542e-01,2.425805753814000154e-01,-1.107064380485924399e-01,-1.755028641456059524e-01,-9.254490194247280352e-03,1.116635253538776351e-01,1.274116182794642321e-03,1.114909359783075732e-01,3.522611087580755640e-02,-8.807202496855834339e-02,1.559510809933322417e-01,4.120894832558112675e-02\n4.867331444164030123e-03,-5.060185471720179962e-02,-3.419690922949766062e-03,8.661711714217802671e-02,5.041990137777206671e-02,-2.286335603293987162e-01,-4.631157908919658617e-02,1.136099674801639148e-01,-6.062721625869124664e-02,-8.377545788513957037e-02,1.618646494071696029e-02,-4.640081360769609392e-02,8.346592968715889349e-02,6.175426552197470914e-02,-1.242738692777399373e-01,1.101060361949872113e-01,1.802030186518746580e-01,9.270610564320928837e-02,-1.980986111871086905e-02,-1.541208632628717212e-01,-5.996730560149860639e-02,-3.601208262891052864e-02,5.597590810449293991e-02,3.267575098763900177e-02,-3.907981564375870298e-03,-9.635814634759601316e-02,-7.652522778892115185e-02,4.967874703630113103e-02,3.743455770597300947e-02,-3.623268079767258398e-02,-1.634647476829003132e-01,1.962697931292104181e-01,-6.408846371110099582e-02,-4.623940117754908596e-02,9.392302531953758415e-02,1.075968310631571778e-01,-8.610573831005620404e-02,-1.649605435754341043e-01,-2.314222763847797182e-01,-4.153126420490074050e-02,9.881234500657160025e-02,-1.024066031967691276e-01,1.061591614008183110e-02,3.171180913692623338e-01,-9.718396517617404473e-02,-5.432394831580379668e-02,6.520990236121727845e-02,-1.699467433902724367e-01,2.542365061059016496e-01,-5.140117180827948051e-02,-1.584342574952003202e-01,1.376216738659071237e-01,-2.758751920709744468e-02,4.121391833246680625e-02,-7.241474067469988452e-02,2.104137055360154329e-01,3.839452535130771435e-03,1.499899272505781644e-01,-1.011278659545831321e-01,-2.559737673138425262e-01,-1.450086138348712257e-02,-1.589451542538106643e-03,8.873478679610764808e-02,-2.657225358489755454e-02,2.558886263476052580e-02,-6.787196580480667207e-02,1.918300555971401422e-01,-1.509715822410208526e-03,-1.781749117867383340e-04,-1.129628386996661404e-01,1.474650965469155306e-01,6.572365030884949610e-02,6.647462756410679741e-02,-3.864274264302449552e-02,4.774177843391581161e-02,-1.202967032539838527e-01,6.158980983315837793e-02,-1.355327607283230984e-01,-7.643153479767225700e-03,3.631572659217335852e-01,-6.571425812703336755e-02,5.694656787653840091e-02,2.450648681846032476e-02,-2.934228394958198968e-02,-5.984462969837892748e-02,5.535369180423390517e-02,2.093795024859983755e-01,-1.573371353785322363e-02,1.500097768245147456e-01,1.209593434003041340e-01,-3.447902713218473081e-02,1.185642311362635759e-01,3.633054846293824053e-02,8.704959649584477488e-02,6.331440340640201447e-02,2.162766766965021348e-01,-5.495306521124392746e-02,-9.402846561888870969e-02,-4.202455159741499274e-02,2.449155618101896831e-02,4.142871339372779238e-02,-9.691149501035840885e-02,3.630937870235623199e-02,4.618330578531312618e-03,1.207076129553196209e-01,-2.332966223236748043e-02,-1.379380256649384573e-01,5.344796454914117062e-02,7.978470625663318383e-02,-1.487354249021962393e-01,-2.024428436928791541e-01,9.149632453706622870e-02,-8.446371464746828261e-02,-2.519046017930107878e-02,3.946768754152826797e-02,1.489555480605027696e-02,1.273359027113210029e-01,-1.334517462985408132e-01,-3.217056980782415782e-02,2.238711206124229525e-01,5.891807170896642964e-02,-1.339587255005395272e-01,-1.521474422691902403e-02,1.246993699881280698e-01,4.353866253307252243e-02,2.538182471072756435e-02,-7.210382178167563938e-02,1.743586600932977848e-01,-6.184422707281429787e-02,9.858773892816929951e-02,-4.326674364401883639e-03,1.180959554595885919e-01,-2.972755946578606312e-02,8.783283873552165388e-02,3.620347579141034583e-02,-1.181252169302952626e-01,1.152793970274841456e-01,8.914856743191915123e-02,-4.236761580776028657e-02,-1.921163223281914523e-01,-4.147883381754730037e-02,-3.724498456238882760e-01,-2.577483609547592119e-02,8.970301784917437959e-02,-2.307415899370193410e-02,4.877924517618051348e-02,-4.832621492947874846e-03,8.836420914254364267e-03,-6.012021640712057399e-03,-4.001724057513685734e-02,1.325071994452361179e-01,-2.351619821586053982e-02,-1.986132405653832228e-02,3.223704324721977932e-02,1.192162620646521412e-02,-6.303480955662241203e-02,-2.278176547282039985e-02,1.332830678449657413e-01,-9.409737101859430575e-02,-2.474576264264232578e-02,1.797567400214086786e-02,-1.056236828158940190e-02,1.448016159380865753e-01,-1.568800238551841253e-01,6.290858082400503648e-02,1.697360477499924164e-02,1.703719830609622468e-02,9.840470906285421482e-02,-1.266179742552815402e-01,9.228383150775683330e-02,1.812131850143877398e-01,2.074445685360222780e-01,3.295391322735222867e-02,8.424868040212502018e-02,-1.377460801375724742e-01,-1.700936736472393601e-02,-1.266518249018815379e-01,5.198337106499396204e-02,-7.297173581297533573e-02,6.371456006698021646e-02,-2.850192517730483575e-03,1.066570160139248546e-01,-2.197491621619100111e-01,6.432165653898236357e-02,1.299568685002012482e-02,-4.876076976932931274e-03,6.146955752461907840e-02,1.799707069546278154e-02,2.446916330420261312e-02,3.221542411843876241e-01,7.302384627702682152e-02,6.391288547815977827e-02,-6.929475790564454396e-02,2.170538228814368129e-02,-4.402636839860646356e-02,-2.275388656774264464e-03,-1.365583927473215109e-01,-5.501244508352431256e-02,-1.648843346254482908e-02,-2.195925816927684487e-02\n7.110481708922958277e-02,6.849373356308707805e-02,6.325062709714517062e-02,-2.316974929504350342e-02,1.768058551202477402e-01,1.217839980430417413e-01,1.705646582103079179e-02,-2.104543118932040643e-02,1.695845087671572216e-01,-1.640608204156385752e-01,6.283524959152166078e-02,-1.210868096678745509e-01,-7.701791042772299090e-03,1.719654573221260085e-01,6.342985803760051340e-03,-1.010873650636861555e-02,-6.150249269709336108e-02,-8.575067165023168847e-02,-5.419331172373804961e-02,4.536072136107745928e-02,1.543238314610904070e-02,5.824083065752537480e-02,-8.862158131176109399e-02,-4.760263093893614926e-03,-6.524032621411347821e-02,-5.416679838826861382e-02,-3.612058126434310179e-02,-7.144235871033088880e-02,1.379029467948195697e-01,8.607988865259247335e-02,1.822044261908982721e-01,-2.971408464280886775e-03,2.850228598714444131e-02,9.194093832678568168e-02,1.664234614346412067e-01,4.661070705504396366e-02,-7.083372079169225621e-02,-1.981065287063667885e-02,-9.811658763198100042e-02,-5.361655654905519292e-02,-8.362936477529812201e-03,8.861761515240876297e-02,2.459312040540122539e-04,1.620701634103896838e-01,8.297043963979681969e-02,6.005206556154186331e-02,-8.879067173145583844e-03,-2.834490037763180009e-02,-1.788972155621951221e-01,9.473141012849727038e-02,-5.449137327187891962e-03,3.066102117489511239e-02,2.227020971316752695e-01,1.156224863465587227e-01,-8.455463372998467397e-02,4.814745026636926134e-02,1.920412230496556516e-01,-1.444219184195199776e-02,1.608107669944607299e-01,2.507816382727359739e-02,1.427498357834699506e-02,-6.705763784360066482e-02,-4.754202164793482760e-02,-1.341151452328482041e-01,-5.079305178747908073e-03,9.610753634694471637e-02,-9.443732009305115527e-02,-1.757542685496695789e-01,-8.961115413447488798e-02,-2.187733544704123789e-01,1.913291946204343993e-02,3.465746752473727876e-02,-4.645047172789563278e-02,-1.035411825309468375e-01,-1.069956825656726840e-01,8.341198011147225866e-02,-1.194012149118334337e-01,-2.893066733863838141e-02,9.389041899031159988e-02,-1.071384740346234821e-01,-4.450527468221538580e-02,8.491321042895990170e-03,-1.263350997412483051e-02,1.204102384187374364e-01,7.387195780097785547e-02,-1.643242880539964867e-01,5.630726173436302606e-02,1.227137187922190120e-01,4.614899208042178708e-02,6.951392679112840256e-02,1.046785031181916804e-03,-3.451217220911554501e-02,-8.675555493393330431e-02,-6.170773983843920452e-03,8.827601495310130608e-02,-1.033938548588981621e-03,4.350047951620645420e-02,3.392074169880809897e-02,1.483263240271909256e-02,3.133774619660533584e-02,1.487688033870037396e-01,-1.571546994057971269e-01,-6.490453550422060902e-02,-2.973736156073199591e-02,-5.023510215186675898e-02,5.398834144734298429e-02,1.647331813620959706e-01,1.067048509025167458e-02,1.748796456053409998e-02,-1.159944265317633567e-02,-1.003076028410581355e-01,-1.662630365525347848e-02,2.178532559067730690e-02,2.009945923236423036e-03,-2.273141931554435724e-01,-3.222666691947984746e-02,-5.852207228852829984e-02,3.352569967040072707e-02,1.852241093512934089e-01,1.000955154321470607e-02,3.363907800607794651e-02,1.223638069286496141e-02,1.344645059061972368e-02,1.167165524079312802e-02,1.966432957524264988e-02,-1.395268423859113704e-01,5.683733465005224444e-02,-2.161184287344220661e-02,-2.720609015982815293e-02,1.259804677316438970e-01,-8.090591365581917271e-02,-8.536423611240051557e-02,-1.471674036967633367e-02,-1.448460101980893477e-01,1.292531940614555230e-01,1.684680607407970307e-02,9.277772223601360446e-02,3.662433552902188277e-02,4.052437815848256714e-02,-7.197717949895197920e-02,-2.406335214126307034e-02,2.307513630328673904e-02,1.493809101867005218e-01,-2.631517691403265427e-02,-1.093979940002696022e-01,-1.453164852220358190e-02,-1.496231125574074838e-01,-4.119680137314912088e-02,6.160436746957419218e-02,-4.347624452825316760e-02,2.043096215210710859e-02,-1.232485993878619790e-01,7.805576293671807886e-02,-2.293256067428363007e-02,5.388927300468267928e-02,1.638020337604260135e-01,6.738785514897269744e-04,-1.849261063393442886e-02,-8.448046260700084464e-02,1.347081604999506577e-01,9.480160511461160899e-02,-5.703874383293165706e-02,-9.949411860019898024e-02,1.222946836509758162e-01,2.135168141386625459e-02,2.714163464570887654e-02,-1.178256587525717929e-02,-7.405833500465107411e-02,5.254196714645999189e-02,-8.518170577785866282e-02,-1.435444744212907298e-01,-4.713535038235140001e-02,-8.433177904777328093e-02,1.607122337470984763e-01,1.935024511905003020e-01,2.786149694018771189e-02,-4.978307870123842294e-02,-5.907303813004116666e-02,-1.840451321200584078e-01,-1.518907734702031886e-01,2.600523107426547242e-02,-1.395138547959806907e-01,2.831858426153570710e-02,6.208024124621943328e-03,-1.702851404187600837e-01,2.532563630421527309e-02,1.428092862791582041e-01,1.141041622520997008e-02,-3.452859205846399437e-02,2.839652751210465856e-02,9.197178839652189741e-02,1.450144952979746660e-01,-3.585117300873130741e-02,8.356983676781377934e-02,7.300539807874339981e-02,1.242360371070270336e-02,-1.451404881658311385e-01,1.817703214554854951e-01,5.042520605469449912e-02,4.593028357446701099e-02\n3.763574540235616744e-02,3.641586745790993673e-02,2.320955223960573244e-02,1.540621566255728492e-01,4.459751492288436397e-02,4.066194983828107061e-03,1.017384167357511526e-01,-6.703384360213544835e-02,1.340477978637458489e-01,9.693207639938226233e-03,-5.594033158216259877e-02,4.853646504319627381e-02,-2.183011958251275877e-02,4.553115647714794934e-02,9.241444900297088316e-02,-4.073789305035572378e-02,7.728902421487798824e-02,4.251178039072962128e-02,-1.819445147720273048e-01,6.221373087955422987e-02,7.062043324235657560e-02,4.970028248113580321e-02,7.833308712731151813e-02,-1.387515856309053386e-01,1.747390435902531486e-02,-7.967913376393756519e-02,-9.237774691401548499e-02,8.445999123400743658e-02,9.488654203202500845e-03,-2.548623735056602668e-01,-5.804645317714389463e-02,3.567619835547734689e-04,-1.023468443215523466e-01,-6.223631967748085442e-02,1.181392080277101908e-01,-1.767621656088152193e-01,1.518095146667680917e-01,1.168978146236042126e-01,3.767458645163021536e-02,-1.354405304468518645e-01,-1.883714277465889375e-01,9.824590363848403896e-03,1.231993991703679049e-02,-2.182092212971136203e-01,-9.535222516088488753e-02,6.506078395352914157e-02,-1.377534896177114443e-01,-6.613444681747353456e-03,1.909591836631741035e-01,1.277434525736390880e-01,-2.470552946206784617e-02,3.652439970142818543e-02,1.986418755321052720e-01,9.306696737009520493e-02,-1.180185179279863716e-01,6.861423786814740966e-02,-3.090677227847932543e-02,-4.749921715813164996e-02,1.160862135523098131e-02,-9.262270520991892908e-02,-1.551190088366255319e-03,-8.765476356597186325e-02,7.022506607085636510e-02,-7.166523235699569228e-02,-4.479542964415741957e-02,-7.861768122481860299e-02,-9.596220319836942791e-02,-5.800824172539658513e-02,-6.337538562672933619e-03,8.958231199587113336e-02,1.772566478698247294e-01,1.745377046821639661e-02,6.628270777396633954e-04,-1.502809516929951537e-02,1.552535248196985213e-02,-1.871819935076282082e-01,-1.109359156830556567e-02,4.198171042388102597e-02,9.110763428482186732e-02,2.892516574389110071e-02,-3.316570178989245582e-02,2.083158316193144122e-02,9.050163355726147107e-02,-1.663002403287273112e-01,-7.297605201100698658e-02,-7.712985105343087011e-03,-6.326326412598563820e-02,-5.220694292221184779e-02,6.690713477060017400e-02,-5.808816733164931523e-02,1.308234955460796205e-02,-5.572546861192644724e-02,9.237738180264519483e-02,2.102536140065260420e-02,-5.923812953879939447e-02,3.818408579572465239e-02,3.998131200642943833e-02,-5.685532299154985592e-02,2.632838921070109958e-02,6.003291263455972498e-02,-1.667771897211220780e-02,1.203756902663023348e-01,7.927855692387449082e-02,3.800685199982482831e-02,1.065011650708394819e-01,-1.558105812977660272e-02,-1.422059069168065681e-01,-5.790591524409272051e-02,8.998351483246111449e-02,-4.061526089811636625e-02,8.475029959367393062e-03,5.565242166521189304e-02,-1.466814516163713611e-01,-1.529304171235061349e-01,-8.749972784553387492e-03,-1.900084361950867690e-02,1.058142605112804141e-01,-3.786595432301369940e-02,8.407223546337458039e-03,4.331993358112020548e-02,-1.916634664239471111e-02,5.041809943521277128e-03,2.505503061004721657e-02,-5.358463187494270918e-02,4.819101097224768454e-02,-9.479648821284755722e-02,-4.398024403857454800e-02,1.206316583571586248e-01,1.615086532862524682e-01,6.833254466291672352e-03,8.523860298943616853e-02,-5.430747493057466735e-02,2.980475602182511285e-02,-3.283797376334656598e-02,-6.975745088710182118e-02,4.823971088732874335e-02,-2.110733864722940112e-01,-7.578025833581128468e-02,2.701596476124418916e-02,-1.914654853162882919e-01,1.128765653907480293e-01,8.608773799846482222e-02,-1.051094774581353836e-01,1.589666349959336644e-01,-1.173938607853995120e-01,-1.647165119855552029e-01,-4.239022508293635583e-02,9.108267067533003247e-02,-3.976388816507302193e-02,-5.893266153830927639e-02,-1.957042685477002886e-01,-5.413560542499269712e-02,1.670204408546772934e-01,6.912657775403026339e-02,-5.623130245298994280e-04,-2.378154191100584347e-01,-1.049504880741154028e-01,-2.453964116682038898e-01,-1.228899746245634694e-01,-5.213753924157184944e-02,-2.340255401009486147e-02,-1.317207824474921352e-01,-8.655669936307087975e-02,-6.903195022735328368e-03,8.623887932959257985e-02,-2.720311604004330489e-02,5.916161764164455661e-02,-2.515787067276527011e-01,1.619433262469963108e-02,1.668554705680171460e-02,-1.434299890905160468e-01,5.663283939407809386e-02,1.064265854620076307e-01,-2.668544615265134798e-02,-2.430979869999695120e-01,-8.554306729590800684e-02,-1.040203819937682598e-03,-7.892956349300302155e-02,-2.609767884925060510e-01,1.701430543893961422e-02,1.420359866934614024e-01,7.240165648533461451e-02,-2.009920785501429635e-02,-9.912813168025905175e-02,1.475803730827816018e-01,-4.359529633596125053e-02,4.755733304917842547e-02,-1.157295322658089265e-01,-2.141605456101671190e-01,1.148128622059283455e-01,-5.221037076687631839e-02,-1.163899101933078967e-01,1.184249146038068717e-01,-9.544963081489073187e-02,1.309930734852167086e-02,1.404435629899271516e-02,-7.268029273067364016e-02,9.921824985276787856e-02,-8.392899454470327536e-02,2.195590454010642179e-01\n-7.094207077461586741e-02,-1.796853111021971469e-02,9.010267894489758234e-02,-1.225151040577115852e-01,2.409461388854031855e-02,2.392778673254153110e-01,-2.104024520012650256e-04,9.670415478039787183e-02,-3.647080170624700940e-02,-2.028328994515593217e-02,5.500454645810274462e-02,5.019117502863753438e-02,1.948440784597532324e-02,-1.843150495925744148e-01,8.321240227741605322e-02,6.909657557174045395e-02,-1.193307986119556963e-01,1.584326963076928274e-01,7.128536657103566598e-02,-4.507295169710286153e-02,-5.306174835531336786e-02,6.341627119241773081e-02,-1.186390919565955548e-01,1.352489312192836912e-01,-1.100027015233074335e-01,-3.561045987217843767e-02,-1.621523684013718991e-01,1.233883727935967817e-01,2.603758507727345350e-02,-2.096395212578673964e-02,1.156604851830022734e-01,-2.012067366509479732e-02,1.362649496027084350e-01,2.715670569966948181e-02,1.171788777148188160e-01,2.085910988215858852e-01,-2.201137836072841747e-02,4.733505188363735378e-02,-9.772628422634994927e-02,1.141602459699340710e-01,1.375608278197258671e-01,6.382526232073737482e-02,-3.675887544203161605e-02,-8.765535743800807050e-03,-1.145659703850029215e-02,-1.092830050460486813e-01,1.076964405071525605e-01,-9.685765410518574689e-03,-1.741079671604725890e-02,-7.623506265256084491e-02,6.269683267646390668e-02,2.025443903147547964e-01,-1.445176596559612503e-01,-2.841109468678572059e-01,-6.096625142447212320e-02,-1.905224610130950291e-01,-7.638122597972661632e-02,6.504388132242827636e-02,5.037415084581992747e-02,-3.772971764070760835e-04,-2.881190965752289390e-02,4.122485919015320133e-02,-1.045249366086024173e-02,1.298599080299606690e-01,6.021256020051649754e-02,1.134812756020126163e-02,-1.004816753340382340e-01,1.819028542790767644e-01,3.001250533124457873e-02,1.972506830074181525e-02,-9.820465963927775543e-02,-6.738432205870709124e-02,-1.657086175952254391e-03,1.627193347941078283e-01,-1.249493094252761005e-01,1.336266695481868882e-01,4.516007755850287575e-02,1.448346130458140826e-02,-7.606340563181478165e-02,6.650813241950008503e-02,8.772048349015607385e-03,1.121512324558086721e-01,-1.112399760806882798e-01,-9.736441229406027353e-02,2.417913641626753818e-01,7.975911818299349920e-02,-2.477988578367040090e-02,4.372928979686936668e-02,-2.880240380922947929e-02,3.548239169685979411e-02,-3.593606656929002052e-02,-2.494323040273120455e-03,1.590642119359931828e-01,2.041358121329044650e-01,-5.530234523119744762e-03,4.294941989120481390e-02,1.553981785316598807e-01,2.667323236780549250e-02,4.907458832213089372e-02,-1.002776413576826064e-01,-5.219858183151454903e-03,1.361318984416719224e-01,3.724211473437442910e-02,-6.479320987480108318e-03,1.080120753272542089e-01,-5.735051829666458489e-02,7.878212394239089700e-02,2.678869779501185516e-02,3.777929777446817350e-02,-2.272990534941000257e-02,8.738058256707240470e-03,1.210520591050540384e-01,3.965010114375112221e-02,-6.644281391277137572e-02,9.836898343355186813e-02,-4.874280311043026337e-02,-1.849445651850561145e-01,-4.746947000811122669e-02,-5.330884995838676421e-02,-2.715915678531348118e-02,-1.234096247763963455e-01,8.834914603596724647e-02,4.068244170721631303e-02,-1.886077023077110670e-01,-1.686597395917663611e-01,1.289952568754756668e-01,2.525892964934096929e-02,7.021631729904265207e-02,4.846984777899740471e-02,-4.077118257855621292e-02,-5.760814482944914827e-02,5.597592911901994039e-02,-9.100730180413017789e-02,-8.980496645780230644e-03,4.754808395125358772e-02,-6.510330451609749880e-02,-5.011252861904146733e-02,2.903607106170127961e-02,8.917082807002929545e-02,-8.230899144615744234e-02,5.238342689384695161e-02,4.489620571931069587e-02,5.694065077038241302e-02,-1.189076543110326734e-01,5.524780697863359430e-02,5.151027705319082689e-02,-3.845498547640573833e-02,-1.138115172557029459e-01,2.589033934593820349e-02,1.282331261374971831e-01,2.483327928334062851e-01,-7.616533920272867964e-02,6.913723833291053611e-02,7.719526169981677163e-03,3.670012648387650095e-02,-2.931525107518089673e-02,-3.257516468737113591e-02,-5.374290649023179961e-02,3.568922831130037776e-02,-7.861236181488415187e-03,1.108918471312603238e-01,1.945012025176699744e-01,8.082020785011596875e-02,-7.263063864999586006e-03,-1.704628483635584613e-01,-7.942191950210376883e-02,1.089181897092318524e-01,-7.143838399604630907e-02,-2.537382548839958382e-02,1.884993451413208634e-02,2.399062789697424189e-02,1.485367835584023299e-01,-6.172937344283679212e-02,8.198198583156185437e-02,8.845547095868130927e-02,-1.333581826225486641e-02,-6.738729121198591687e-02,3.264912000813696008e-02,-1.727013866676277085e-02,5.809906390699616507e-02,2.462830578224448619e-01,-9.687303385236836761e-02,1.109748362442863345e-01,-2.507184420812514150e-02,1.249395269016337351e-01,-1.841978518147616801e-03,8.088565099088647348e-02,1.758628616730246660e-02,6.524085040400526281e-02,8.966061904429677154e-02,-2.720438356148262293e-03,1.832937879592293484e-01,-3.111119311537087484e-02,-1.444293726169741665e-02,-1.226355266443267950e-01,-1.461272293681842027e-01,-1.295633073370414667e-01,-1.153881637977698521e-01,-1.725257827924180642e-01,2.914524917373043089e-02\n-4.195795184431922592e-02,-1.956496150393151334e-01,-5.233910900950690392e-02,4.708498430136075219e-02,6.570047149601966618e-02,7.647395431889841833e-02,-9.441820588994068175e-02,5.534953371298444863e-02,-1.450687637315809242e-01,-1.801985691495086306e-01,-1.703912468492538024e-01,-6.764271051814776947e-03,2.742346843848239915e-02,-5.724758622808839154e-03,2.328353030523210368e-02,1.776540986223348884e-01,7.794265433501987653e-03,1.866600466926932322e-01,2.638799436221373959e-02,-5.423863333015051941e-02,-1.569563998853950038e-01,9.185990966994926621e-02,1.416149425269571382e-01,-1.554716166381603371e-01,1.086057879746601118e-01,5.244592550733160398e-05,6.699653844280356596e-02,-6.246059363039167811e-02,-6.770439643205151958e-03,1.380201479492585981e-01,2.465152587290398919e-02,1.027703285953862206e-01,8.463105953125789338e-02,1.074811338208265521e-01,-7.797453092798897756e-02,-5.004333240839018565e-03,8.822683230204271532e-02,-2.139771358404960189e-01,2.365251580963424055e-02,2.085634681929948164e-01,2.424521426919910294e-01,1.172928177722878523e-01,-8.953692984955087530e-02,7.486182888702717919e-02,-6.798419591414435470e-02,1.614654124776047223e-02,-4.661151215511197959e-02,5.338346563036340531e-02,2.324820761614994902e-01,-7.634051584620189790e-02,-7.717051064850194431e-02,-1.155800369589560922e-01,-2.156166958448598944e-02,-4.375118339248397492e-02,-4.900115916419379991e-02,6.770966560310563709e-02,-1.384995078808498419e-02,-4.795197878882107717e-02,6.994983342257275749e-02,-3.038559831559637173e-02,7.401693341869625131e-02,-4.732354691079260212e-02,2.183986924411035480e-02,1.164867169761493598e-01,-5.582051675250697398e-02,2.628855884959680270e-02,1.213048507542548171e-01,7.987690522601184617e-02,2.466968481299857546e-02,3.940573837404547780e-02,2.739123630125851055e-02,8.189873345658617299e-02,5.053341275500786850e-02,9.417017063191422677e-02,-1.097365586979139745e-01,4.711952357491966392e-02,-7.107685084051784674e-02,1.058404129470203875e-01,1.336161912002278851e-01,1.114448610763161540e-01,2.860962762029826273e-02,-1.180105713735855877e-02,5.368023781919922105e-02,4.311922886428018464e-02,-1.828346076270341916e-02,5.768796754001206256e-02,6.690190450228462871e-02,-2.273095051280229692e-02,3.460034142267745180e-03,1.166504736453063129e-01,-4.584168183356202714e-02,7.549262722414974702e-02,1.246391621750597839e-01,6.297303808637046141e-02,8.104316280959263097e-02,-1.329796843706687083e-02,3.711470857772940224e-02,1.550599008885447383e-01,1.257910438210117950e-02,-6.884165026881437777e-02,-1.262119536795405506e-01,6.992837569237712880e-02,-3.936159002461198098e-02,-7.252582793019203729e-03,6.736480032809804772e-03,2.008848692073139433e-05,1.012710744212999975e-01,6.307732025959893185e-02,7.212423250313507173e-02,9.559612374751039979e-04,-1.960914190648810895e-01,3.872068772441347034e-02,-5.614666343050385422e-02,7.678839015735774987e-02,-8.816932165002586141e-02,1.444372507728871324e-01,1.342067652326432436e-01,-1.797187240703975453e-01,5.646732674054862761e-02,2.511135805921655209e-02,6.961523603371407021e-02,6.138036966683278750e-02,8.987500546957931380e-02,-3.829749903048901283e-02,4.071590458741811830e-02,4.646806343135111150e-02,-1.355101398464443954e-02,8.544150834817014484e-03,-1.965152370685875963e-02,-1.037917426137087290e-01,-6.297970223278483159e-02,1.163185071060552217e-01,-3.028085755515487476e-02,1.327129447295341824e-01,1.345528244379327366e-02,-7.197595747016982681e-02,-1.185588277455238843e-01,-2.138787600011236578e-01,7.306854821356099927e-02,4.699165955799747274e-02,-4.127282488023283069e-02,-2.277657481990750243e-01,-1.443925103388795650e-01,1.395431543285469422e-01,1.765568801600634133e-02,1.163554267000390385e-01,8.699483373131296216e-02,7.833250269001051924e-02,-8.991939011415425037e-03,-6.408300249627204778e-03,4.756684765829826550e-02,-2.646773103879856287e-02,-1.980748072654314462e-01,7.556448187032369090e-02,-7.636970578885193817e-02,-5.218793552592032592e-02,7.861316432826523024e-03,1.075079866507105270e-01,-1.666378715290012811e-03,4.245988040489279830e-02,-1.791915209043585810e-01,8.393147513814548655e-02,6.064380702840324600e-02,2.417444410614668152e-02,1.652055346969241723e-02,7.587186711831379882e-02,4.845822084948299413e-02,5.218239551603457566e-02,-1.538367240409342640e-01,-3.213253166596989618e-02,-1.627331431265212000e-02,1.806036027763015250e-01,7.969860602755467205e-02,-4.958299646926682402e-02,-2.610203585848301297e-02,1.265969546908068347e-03,-3.122897737017943029e-02,1.988932548814841342e-02,1.916118350363376077e-01,-4.224944072993346011e-02,-1.138880436190996834e-03,2.191252043246497833e-02,2.448678534695578057e-01,2.642649233760140104e-02,-5.657482223680751487e-02,-1.498841214160309410e-01,5.426234571267100730e-03,-3.473854213109241196e-02,2.413587994831959890e-02,-7.173320583579595455e-02,5.197071955658449927e-02,1.846181841730824835e-01,-1.097586249651163887e-01,-6.167288399625253659e-02,1.046101550256826607e-01,2.031211973469847221e-02,3.196487872531319357e-02,-9.104056325654086290e-03,-1.013783912614452248e-01,6.442819665937420115e-02\n3.817487260298089990e-02,1.168391690534681254e-01,1.620866882163352340e-01,9.479321740839684318e-02,1.448272402917974155e-01,-2.359359557081554537e-01,-8.978598429820325300e-02,-5.844073056195037835e-02,-1.789590442028780315e-01,-1.945884299108207316e-01,-3.267925071909164730e-02,-6.571187246490431400e-02,1.543715198485814954e-02,3.093324814432504843e-02,5.349301717457960459e-02,6.366458944635471073e-02,-9.008495162509468079e-02,-3.269745145960540646e-03,-1.848010788331935729e-03,2.734110451586308638e-02,-5.825609160276833814e-02,1.153413088859848307e-01,-1.843284856021354112e-01,3.359800837237652410e-02,1.060367521200944740e-01,-6.052605805305742194e-03,4.528216974381425036e-02,-2.476963393661436169e-02,4.424104014481867325e-02,-8.027635334032005854e-02,-1.829078306291901865e-02,3.670242543159878135e-02,-4.456931943264150903e-02,-4.305769595144385425e-02,5.670876671772102223e-02,6.012114896168057124e-03,2.956828391997868774e-02,-4.710175497801118161e-02,4.453364322827521593e-02,-7.330375491460329462e-02,-3.565085495134363153e-02,3.825277824287218881e-02,-2.260089205983282223e-01,-1.457202561979994981e-01,-4.992857039665069691e-02,-6.666985847708789721e-03,1.008430234134711778e-01,-4.945481558050214554e-02,1.863974954564122724e-02,-1.107226180401043036e-01,-4.530220081074108618e-02,-8.774205256393168006e-02,-5.065868635265163150e-02,-1.595923061921379962e-02,4.945447410569904501e-02,-3.178163300910396422e-02,8.712481117629157501e-02,4.263486873780712033e-02,2.014295891228738353e-02,-1.406802705314298962e-01,-2.047720828973412580e-02,1.180113124286336912e-01,2.140396459545007915e-02,8.356336937803307552e-02,-2.184054533739510084e-01,5.040026914488508064e-02,6.126288176552791183e-03,-1.107637634239512225e-01,-1.798510790872586140e-01,-7.234261666857215445e-02,-1.372223065317424717e-01,2.057287517884233419e-02,9.253818506841640645e-02,1.095156524446373042e-01,7.064287238957597803e-02,-3.178975294266089130e-02,4.335680010458173306e-02,1.134946676198837906e-01,-6.393257286357063862e-02,-9.376891435499583316e-02,-3.932700589545852499e-02,-2.256987882077995111e-01,2.727399304527227796e-03,7.555409419634018242e-02,4.987978367139177249e-02,2.155382918893917477e-01,1.095250362924179155e-01,2.115010405359936396e-01,-5.705259857847635313e-02,-2.397861684211238451e-02,1.011382509318607507e-02,-4.338929529622014003e-02,1.798522222532013314e-03,-5.733526199967137887e-02,2.337208810219541244e-01,-1.594912948440067035e-01,1.358384658701632108e-01,3.674605035042510792e-02,-6.489262385255730077e-03,-8.194529460324873060e-02,1.149696730340081657e-01,-7.683882295176526489e-02,-9.502043113821662113e-02,2.497936759075065905e-02,-5.354016074203059999e-02,-8.415817417221541086e-03,4.949839162102221551e-02,-6.062208308839661663e-02,2.923421923804007602e-02,1.809069746085690267e-01,3.685004278940919725e-02,-1.642274300409935286e-02,1.103113796336067237e-01,1.120420770885590875e-02,-3.454819333926017338e-02,4.387016412342319149e-02,-1.981138203679373624e-03,9.262493659620311959e-02,-4.374853285142110693e-02,1.018724730999224504e-01,-3.558711404094987846e-02,1.072990407411139047e-01,8.097916690634759940e-02,2.014942819438507796e-02,1.669983104196471821e-02,-9.228646560242707853e-02,2.040759900219528411e-01,-1.207307117455406337e-01,1.777365562276506661e-01,3.608813600911376512e-02,-1.425721438894058946e-01,-8.016888337525400476e-02,-2.057784213563554898e-01,-6.950443258256669421e-02,-2.320626622175298720e-02,-6.531413453797133006e-02,-1.260532720950179597e-01,6.398789478686600640e-02,1.420261388549350946e-02,-3.173654038299746766e-02,3.207347156035372099e-02,4.499381000019316360e-03,-1.278490341057385120e-02,-1.370099967211619307e-01,-5.898835778219677778e-02,9.279248216856249287e-02,7.229990206576454234e-03,-1.373927353976022725e-01,-9.494160054312102137e-02,1.090050207585327273e-02,4.715958894227396947e-02,2.037213572679279910e-02,-1.576872491689664535e-01,-1.038622760536384998e-01,-1.033478762243238286e-01,2.879748567041989435e-02,1.290707142821093632e-02,3.554114139715403020e-01,-1.075701529784007932e-01,-2.470878734734275883e-01,-2.103193781739575927e-02,1.924924793330130279e-01,-1.700163733847847303e-01,1.525878362381846362e-02,6.358805423548107016e-02,-4.458995357526349124e-02,-4.385951879118495794e-02,-1.293964477801934354e-01,4.575641388850083813e-02,-1.890632213601828593e-01,1.112748472551028031e-02,-5.712526877020056987e-02,-2.512785293806694617e-02,1.863720826880570225e-02,-2.869650288510672276e-02,-3.107965320795907926e-01,-5.073259483322838104e-02,-1.831886460276564710e-02,-1.255882621186961978e-01,5.005378812107260517e-02,-4.879438420007285032e-02,-4.963917475518676153e-02,-1.367056765514656491e-01,-1.022678970041170921e-01,-1.440194469781199693e-01,2.873628521566883726e-02,1.837129393274110900e-01,8.240625462451067751e-02,-6.043551723247068963e-02,-1.782671509802530307e-01,-7.114020489789818491e-02,-1.686106090068440200e-01,-5.055271326501613316e-02,6.551100172837870557e-03,1.019530461675103306e-01,1.070781986847276213e-01,-7.153201643734616311e-02,-2.288828332415673017e-01,7.304279627519788543e-02,-3.344556818306127638e-02\n-2.426092154968592565e-03,5.322234748881485983e-02,-2.187746469992956841e-02,8.410454759700120020e-02,3.947479581317298730e-02,8.582862845601549329e-02,-1.737410717286418799e-02,3.272045696491359713e-03,-8.076846755475107541e-04,1.252576110467358561e-01,8.542837918792468496e-03,-1.364460007743474868e-01,5.294774735869752641e-02,-4.902834197208768424e-03,9.432658594887353976e-02,8.841895847632520733e-02,-5.815427438738317995e-02,2.641654410913061440e-02,1.837361599446330207e-01,-1.864985146603767574e-01,7.055767015330839664e-02,-3.719887490562338167e-02,-1.024494057614047243e-01,7.200790580319089973e-02,7.906205291182981723e-03,-7.370324911917126853e-02,1.286609299022298779e-02,-5.563873085376809524e-02,-4.993976353324217771e-02,-3.790901792945979704e-02,4.252265028132010127e-02,9.542943482739266181e-02,2.089114942558954746e-02,-2.543557136745634370e-02,5.853976586996263026e-02,-4.056786463536436044e-02,6.115147425565417572e-02,-6.502369674922703346e-02,4.753837000808721486e-02,4.048676201891433096e-02,-4.351419693230484248e-02,3.413293273322831611e-02,8.552218790862571585e-02,-1.573597438328369069e-01,-1.643145894386404959e-01,-1.434921280042657787e-01,6.977135373373695437e-02,2.335384764168333511e-04,6.738985106863553017e-03,-1.875201813766090853e-01,8.860986127860125128e-02,8.369888148420585872e-02,-2.539872001363514473e-02,-2.204565861403098570e-01,-4.748899682778709441e-02,-8.932199775789961826e-02,3.633533661633148865e-02,-4.202222715295726024e-02,1.128318464147778227e-02,-1.293731893700534874e-01,-3.412227305965926522e-03,-1.696042025368914574e-01,3.119335419508562079e-02,-1.120888900519325243e-01,2.238657265535091284e-02,-7.925574539049277945e-02,-8.564527601494996423e-02,5.274966482430747117e-02,4.221526705225635973e-02,7.363437120517298852e-03,-2.112961275956577734e-02,-6.927399675852970173e-02,-1.161185973518096826e-01,3.619924698393873347e-02,-1.579283347908984614e-01,1.227035199970775807e-02,3.461036815223735713e-02,-2.698419175548434634e-02,-5.359120119672195620e-02,1.037508138576198891e-01,1.316433364359522185e-01,-1.513701919795211182e-01,-1.579801075352823755e-02,1.610016311307106707e-01,-1.507183852621834554e-02,-5.013692969893856349e-03,-4.493558140170993837e-02,-2.310899019533815824e-02,1.499414231121428687e-01,9.100144262995672750e-02,-8.264456369944803149e-02,7.298941397403684028e-02,-3.161341842311280424e-03,-3.328785297340788180e-02,-6.381517216447164798e-02,4.360135825445465158e-02,-4.856243481670904222e-02,-6.256231611785699476e-02,5.951761035515747839e-02,1.703172284689918967e-03,1.613409397367482623e-01,-6.252523037215107493e-02,7.367573878705402368e-02,-2.785447315542229421e-02,3.561725283872497344e-02,-9.641961584902562776e-02,-7.987225255004697100e-02,-4.099624976264792942e-02,-4.230840211489882846e-02,6.007154995579777612e-02,4.181616731491954314e-02,1.115228497025531479e-01,-1.129721907720648150e-02,4.653221421358022178e-03,-9.125160311660171497e-02,-8.076348706058268656e-02,-1.784466453594597130e-02,-7.559430541600287157e-02,-7.144550506612884488e-02,8.209883704344993205e-02,-2.300853493416963377e-03,-2.146375546796747830e-02,-9.799155798693308383e-02,3.078009056880618433e-01,-4.977668617007575264e-02,1.099552204910787395e-01,5.061465517388762103e-02,-1.851177531885721816e-01,8.640135988662381306e-02,1.502306043443342176e-01,5.368249476492695932e-02,2.049812192671577049e-01,1.269225872036309211e-01,1.688620886107495833e-01,-3.608587766152979853e-02,-8.128463548676406747e-02,1.859602850364322837e-02,-2.065912538849333860e-02,1.523768042927045596e-01,-5.772643934508117636e-02,5.060524343260084518e-02,-1.673953103568324302e-02,-4.356256701026398580e-03,-8.509782903456723779e-02,8.044471032472444438e-02,-1.378789028723721999e-01,1.450793228380405919e-01,4.549403904471121390e-02,3.483872901711558556e-02,-3.320699601682977186e-03,-9.373146461256809392e-02,-7.416704335932083891e-02,1.019065436095304283e-01,1.947169097936487028e-02,1.013678680854088743e-01,7.126591780807153831e-02,8.053244565384004572e-02,-8.513545610548284293e-02,-1.627166008099709404e-01,-2.386632500144608704e-01,-1.273629669095595676e-02,-4.672282783509332238e-02,3.432465364466059932e-02,-9.448636550308020521e-02,1.618415858324972756e-01,7.939966324398320396e-02,-2.620418750702476623e-02,-2.990495066693963505e-02,-4.734900582320384493e-02,-7.726193302330042201e-03,2.464363529858927815e-01,-8.158900987055624221e-02,7.220582170887183959e-02,-8.298198422462325918e-02,-1.768628201330642025e-01,-1.996926121406917276e-01,1.412074940667116252e-01,-2.557068527162208865e-02,7.927758162652924490e-02,4.389700239929404321e-03,9.056251156006804581e-02,9.442741523089079325e-02,9.379079466831279077e-02,-4.059947742880984367e-02,-8.684029675408196092e-02,5.122304377122646746e-03,-2.646933563037346532e-02,-2.105462624142593817e-02,4.822822214206876242e-03,1.473082051887065758e-01,1.170410112690195431e-01,-3.309367214682071290e-02,-1.222543789908225598e-01,3.937116098069524950e-02,3.397472151666854762e-02,2.602165710039400573e-02,5.137113783215925544e-02,5.814089837995611160e-02,4.041245701676305507e-02,1.235758298419851881e-01\n-6.628390745715345700e-02,-4.818778300294569022e-02,6.453588171821454667e-02,1.140348730286080969e-01,-8.271199333644638219e-02,-4.557870172084765165e-02,-2.479570084928392135e-02,3.563056915582052397e-02,-2.126675327345128874e-02,-1.732698377363778852e-01,-1.163142492620232865e-01,2.281288444320020772e-02,-1.273322309016919340e-01,-5.246413918043215524e-02,1.382849960520844690e-01,-8.736968883548495990e-02,1.324521667024480265e-01,-1.109596226844005024e-01,-8.133897089740481368e-02,1.216187816834430613e-01,6.124669261420370020e-02,-6.108083850165570844e-02,6.787045710941004562e-02,-1.544235739352373682e-01,2.815744951894579365e-02,-2.772598512908926952e-03,-4.174320921648979818e-03,-7.384564499370906143e-02,-2.239365405753476201e-01,1.644386701799446515e-01,1.214826232908992470e-01,-8.533697282240482185e-02,2.208891263095122404e-01,1.048650248757434927e-01,-2.541845882092425013e-02,6.697761802452895097e-02,8.774256611144001794e-02,-3.064848359817835821e-02,-1.184738506670662272e-01,-5.149529096146736318e-02,8.241809414530512634e-02,-1.382584828990575665e-01,-2.824764885147737839e-02,-5.364936310080193477e-02,-4.875785450961987039e-02,-8.878498371573638470e-02,7.600026462813214145e-02,4.263645328092030562e-02,1.816911848990658551e-01,-7.014162107613482189e-02,6.450441770734399727e-02,8.159976448004726407e-03,-4.659275408079688319e-02,1.540313742908060446e-01,-1.955984987942879783e-02,-2.315688448807648805e-02,-9.229626657310750770e-02,-2.255989253004708761e-01,8.278298514369349104e-02,4.366024363649601697e-02,-1.293073255588576831e-01,-4.236814816287640811e-02,-1.508697952537038367e-01,1.579037734470474866e-02,5.101524593115715211e-02,-2.317331665930973887e-04,6.436653557202985654e-02,-8.254135584322441765e-02,-1.821119628441537075e-01,1.625696788908157497e-01,-9.381199372718916629e-02,-2.233300227556424544e-01,3.277551098790087297e-02,-1.557397581740355696e-01,1.808027512427262673e-01,-2.211579339108506875e-02,-2.858673091359187693e-02,2.207096518100798987e-01,-4.486416726969590443e-03,5.035009959556030479e-02,-1.157334094788499274e-01,-3.146266685054602275e-02,1.237168389940697527e-01,-5.694942566761991565e-02,-1.661787446286174669e-02,-1.882241965320372024e-02,1.846221988749054133e-01,-1.335137705223065907e-01,1.221163701207831909e-01,1.453788090614278050e-01,1.607128774187928932e-01,1.745143376507201916e-01,1.585487608449195340e-01,-3.740689074271814213e-02,7.595158651441906439e-02,-1.107255615131798668e-02,5.058283950945622817e-03,-2.363904588700823164e-02,2.186726638101872677e-02,-2.032656317803595986e-02,-2.116277994183752773e-02,-9.110907991761676983e-02,1.627449566944403903e-01,-7.340095809278565642e-03,1.624125843599023566e-01,-1.332696698718516259e-01,2.383640748540887810e-01,-1.022100528802995234e-01,-1.460758053431527592e-01,2.001758825788123395e-03,-8.565946573610982995e-02,-6.104643538133629199e-02,2.732306404459828100e-02,1.730863369202303437e-01,-4.505028008781927079e-02,3.590031379796315703e-02,5.921302642659072996e-02,-9.091207448071378372e-02,-2.512782893645079674e-02,1.260092304995855395e-01,4.929360207707635805e-02,1.554236939465500622e-01,-1.204416598042020170e-01,1.281225286416946552e-01,-6.255121741468826213e-02,8.933545744512501330e-02,-7.194723094511994155e-02,1.475195490296098665e-02,-5.833945011540334763e-02,-1.351047110078716362e-01,1.453633031454988622e-01,-9.119037650976086207e-02,1.040892951818341433e-01,-9.022760276163363513e-02,1.096842836800631868e-02,9.298795301934997815e-02,-2.411275105197569282e-02,1.044098549038270929e-01,-1.417681827010101522e-02,9.030955204132357084e-02,-1.521342147235631159e-01,-1.786265494621349856e-02,-6.752740726339727384e-02,-1.990935045794630862e-02,-1.064650568843001216e-01,-3.229735415059015180e-02,-9.244600030728777895e-02,-9.666726353009652550e-02,1.302794969106552680e-01,6.556082288088260768e-02,9.344575221950332522e-02,5.019345406949592830e-02,-8.151385284125777300e-03,1.269517821990626960e-01,-1.611504116807318809e-01,-3.121803217357727034e-02,-9.664153468481834208e-02,-1.916176254478553220e-01,9.375108009753001237e-02,9.059831322728630065e-02,-4.311250356668100414e-02,-3.141214063725700917e-02,-8.960423413151981376e-02,-1.068733198593627837e-01,-9.202669632913883756e-04,-4.581147776752807210e-02,1.906398478786317796e-01,-9.477617273009443510e-02,9.973470738060055685e-02,-2.153146495293570550e-01,4.863790600003468911e-02,-2.125203751944080011e-01,1.148960731653700940e-01,-4.249125602708413163e-02,2.137990498724608515e-02,6.052971132686055938e-02,1.453254664686796926e-01,1.527702565147902314e-01,4.179714384730721412e-03,-7.623210806607376433e-02,-1.618307724422692884e-01,-6.747814007512974166e-03,-8.371744598404741444e-02,-8.298314445674309647e-02,1.328025106314374704e-01,6.198066753201372098e-02,9.854314254948057239e-02,1.937572808610411867e-02,7.240008558023981224e-03,-9.903360554647032410e-02,8.568214017243203084e-02,-1.445607095177931234e-01,4.299963171747480523e-02,-1.409530183791539715e-01,-4.681350876969785080e-02,4.856680320712297716e-02,-8.039073598281454291e-02,-1.330902237012613065e-01,-5.268822648987681045e-02,-1.807469956560860680e-01\n7.907553239037296011e-02,-1.650187004077641739e-01,1.120155551334143518e-01,1.154729516045344406e-01,-6.879567565200045420e-02,1.287044057544766730e-02,-9.010182603589650396e-02,-4.470569873165097796e-02,-1.166577792043673040e-01,-1.782830693200645467e-01,1.887988175376052735e-01,-2.633160762610664563e-03,4.707854738561496194e-02,1.300880896334001002e-01,-9.690520155209891850e-02,-1.318831878714468719e-01,-7.646560196549933609e-03,7.166982081404343896e-02,-5.511075579933327750e-02,6.743593992554667779e-03,-1.537108694698597622e-01,1.619239228266305675e-01,-1.401382708016638556e-01,8.719306573929616611e-02,-5.378309481549792964e-02,-1.329769180544485355e-02,-3.244851754833492224e-02,-1.327681352784430557e-01,-5.770365356472628715e-02,-1.312132101816513019e-01,8.106870686721581731e-02,-1.054959425343051926e-01,-5.568446811550795822e-02,1.490313558461808519e-01,1.514694684702722616e-01,-1.175041616891031176e-01,1.682528282997456867e-02,-5.447161182810075775e-02,-9.044707036303696601e-02,-1.335747400349558602e-03,1.709424289845567491e-01,-2.998200158668606896e-02,-7.693937391145441729e-02,-3.000579354094327078e-01,-1.491447145552839415e-01,-1.694975828465249829e-02,-1.765980473538417486e-02,-9.504118803957269102e-02,-1.211666333767391808e-02,8.822652284645118859e-02,-8.319587125743997669e-02,-2.010949108247740355e-02,-1.287591720013600283e-01,1.925168890341322214e-01,-7.457286087883265024e-02,-5.862300923954464130e-03,1.771202214999701135e-03,7.003555789899577888e-02,-7.792322923349925129e-03,-1.447510078567832911e-02,-3.940859584279171601e-02,2.866621617352144158e-02,8.986784887382335413e-03,-7.657121389200040318e-02,5.339200382901022196e-02,-1.334228102794468053e-02,1.468700625712466845e-01,-2.453411720828517842e-02,-7.555110761001542462e-03,-4.644044602084160256e-02,-8.523724295358582961e-03,9.855230673663588868e-04,-2.031188406916145106e-01,-4.714543251188067080e-02,1.277220743278862924e-01,-1.082975968880495049e-01,-4.474571324740224398e-02,1.020752125273314270e-01,2.963658363224091000e-02,4.676537926906012416e-02,-1.044825741999685503e-01,9.834293389659071183e-02,-9.238128956754698695e-02,-5.417608760832131644e-03,-6.158292733024595816e-02,-1.967734512691295123e-02,-8.754993557964892148e-02,2.671139563633774180e-02,2.971293426445676955e-01,3.424451778850372968e-02,-1.615623462760961138e-01,-1.497038922958731644e-01,-3.948727394509592842e-02,-1.512913539796427280e-02,4.092950482391597561e-02,4.045175563189221113e-02,8.146166788097052025e-02,-1.685888268143150015e-02,-4.300600519941506772e-02,4.475088803584942841e-03,2.312604429607661716e-01,-6.961258387106655787e-02,-1.653760375797808657e-01,1.027029186823500556e-01,-4.814060891842826366e-03,-5.044920271989509347e-02,-1.425555075481680367e-01,-5.334185294128022947e-02,-3.149304146401553980e-03,8.031583881740900210e-02,1.757805106261138839e-01,-7.710527969611367938e-02,-3.863698535008803364e-02,-1.413064169754980892e-01,9.389590707858555541e-02,7.959285723328508866e-02,-1.518416053340248262e-01,-1.323314958751815873e-01,-1.315655736291761711e-02,6.277203096063534160e-02,1.595181404477030718e-02,3.841089831389223053e-02,-2.380262917537206632e-02,3.170460292302496041e-02,-7.250087861215565033e-02,3.356282995987149020e-02,1.884340036160090520e-02,5.505037354661845850e-02,1.720782696502791975e-01,9.221248618894435645e-02,-8.250718003639158360e-02,-7.559999642166106981e-02,9.433031849703787941e-03,8.810927355160176611e-02,-4.495708091991845734e-02,4.132644359127517208e-02,7.695283250808923614e-02,7.209301881178495353e-02,-4.227696451200649297e-03,3.671290160378823386e-02,-3.915738207235194140e-02,1.393868134620397936e-01,-7.885142077061906701e-03,3.869354974914120116e-02,-1.402708774641301705e-02,-3.936875113690295296e-03,1.143321906158970558e-01,1.272241761176394759e-01,-1.792678525019914260e-01,-1.352526315386113898e-01,-3.794293159624504558e-02,-6.749292805710642440e-02,-1.545657043855891422e-01,1.207359781706079244e-02,-1.202031944316068329e-01,1.517877000474791372e-03,1.458398749238662417e-02,-1.589930793400617590e-02,-1.441336800846148604e-02,1.966572475681088901e-03,-1.544533887988126797e-01,2.456234805700670525e-03,-1.209590268982190797e-01,-1.582932835670144978e-01,2.145207653432401173e-03,9.233377190323545369e-02,9.326770860339861358e-02,8.649113052004707425e-02,7.967358893084940108e-02,-1.440877729600109278e-02,-3.802334381830951848e-02,-1.615833192690395437e-02,7.214696367138277722e-02,4.471035262501859425e-02,-5.426643766866663665e-02,-3.365009691509204814e-02,6.397447943117484659e-02,6.595314390153360351e-02,4.791780607418471422e-02,2.452725438045279954e-02,-9.357061742573950791e-02,-1.159441780034301123e-01,1.421393076198375627e-01,-3.892492627102638741e-02,5.872776398063594971e-02,-1.610737675977522154e-01,1.402747071583845817e-01,-5.795946169133292178e-03,9.129347774192821119e-02,-1.531977856894248258e-02,-2.634767503105854905e-02,-5.331670302567416420e-02,-1.186569392711711024e-01,-9.918664072251787145e-02,-2.319644294174137700e-02,-6.952973586934980965e-02,7.227768880959127562e-02,-7.269890443830331894e-02,9.866445693471907752e-02,4.270803077018361926e-02\n-1.454757282207435609e-01,2.231002472846415063e-01,3.060103353379189234e-02,1.260566089604006068e-01,1.155835845589266858e-01,-8.851472830142964598e-02,2.134128692555805340e-01,-2.815126679432886775e-02,1.864890209888584449e-01,5.469019680254394791e-03,9.582509941929819031e-02,-1.546365550424392832e-01,1.661626926464741250e-01,-1.593085135762354609e-01,1.573811329884464150e-01,-8.936474252344106528e-02,-1.465112736297043139e-01,2.326467905301865622e-03,9.209088001268071755e-02,-8.995057229277066829e-03,-1.155126559274301523e-01,-1.377489007237004404e-01,2.686625444689460518e-01,3.917832046525085432e-02,-4.398109108725448656e-03,1.633489213422184561e-01,1.679516116526381247e-02,1.305495876850426562e-01,2.272534154799948913e-02,1.606423293038415287e-02,1.423758645110831042e-02,-1.923249696853589763e-01,6.081682673437106140e-02,1.153749369204799813e-01,-1.091237854598463286e-01,-6.653349255473389734e-02,7.074717452326251266e-02,5.379586042613136027e-02,5.353018713798768369e-02,-2.384925798242837347e-02,3.210800226264796942e-02,-8.897619753682246835e-02,5.277221505624913808e-03,-2.871725926927814684e-02,2.506923761578019536e-02,-1.324002063529121191e-02,3.592083586563623449e-02,-5.927169402588551399e-03,-1.401367131711792058e-01,2.186759944474875872e-01,-1.346142161848154217e-01,6.938510496089306256e-02,3.548100857155714327e-02,8.680737299206768565e-02,3.476127115912976823e-02,5.757042968342498263e-02,-1.334519366501519567e-02,3.588988858099714102e-02,1.329940158326089854e-02,7.639544500294347118e-02,-1.853084747324889314e-01,1.224029317393185851e-01,-2.921875392052000406e-02,3.834474339250685399e-02,-5.942942541529232930e-02,1.390999851493955886e-01,1.022744990248266039e-01,2.635310544210216488e-01,-1.119477183397628722e-01,6.413250011771423620e-02,-2.360791051011239539e-01,4.929833611450833153e-02,-9.248923950830410801e-02,-2.200798311992930526e-03,-1.364224398511583169e-01,-5.644265528210076072e-02,2.860163241936836825e-02,8.652347457570931655e-02,-5.891142847853816228e-02,6.007262695697957594e-02,-2.254417585149654235e-01,1.923273932293931010e-01,1.067252500692504880e-01,9.631476270039024401e-02,1.011113118121970272e-01,-1.021052629467774781e-01,-8.378498303262350844e-02,1.464032939382758636e-01,-5.533126915036005317e-02,2.422036780994957228e-01,6.825177921893932353e-02,1.977756263565037202e-03,-9.653881844907032106e-02,-1.979113352510138493e-02,7.407036912335566992e-02,2.295885551485550916e-02,1.279157583731569958e-01,6.976126604734968206e-02,1.618580573941121870e-01,-1.198204566309132336e-02,-2.189548021403385850e-02,-2.120335523348443330e-01,-3.462795757113599354e-02,-2.445242578989439142e-01,-2.236030495686710390e-02,-6.362103901919974325e-02,9.491700384060348938e-02,-5.526774031528784714e-03,4.745451436635737125e-02,-1.561410052021052763e-01,1.084626984535402988e-01,-1.027132754804225591e-02,8.996881437954420968e-02,-4.994444196633333888e-02,-5.913325289447288191e-02,5.918544174011906162e-02,-1.024307613827544206e-01,9.140723704688905049e-02,-3.856170538837555561e-02,-1.677268198938278443e-01,-2.265328363404973955e-01,3.449998381593032040e-03,-1.778474798559461986e-02,-1.459317998920333648e-01,4.507729083713665069e-02,2.226217726413148301e-01,8.605949502961347808e-02,6.166944509958086768e-02,5.901345083211914644e-02,4.986140750749423756e-02,6.614070721872493397e-02,-6.048989399756239021e-04,3.692788486792405317e-02,-2.730916770783737776e-02,3.299361749998860893e-02,2.013124258648826548e-01,-1.655234796286202403e-01,1.184593849217631389e-01,2.982650628939802033e-03,-6.080961195658195206e-02,-1.538656119646912290e-01,-4.037177853701957170e-02,-5.825439379932555867e-03,7.183635948243911884e-02,-1.491238743103072417e-01,-2.487517043536092640e-02,-1.196785596541125318e-01,5.084123117433315964e-02,5.013496839790986676e-02,1.601412468885044307e-02,-1.480625398793603831e-01,-1.269974522206802070e-01,9.793914825941495150e-02,1.145831914311738337e-01,5.258554205334431408e-02,6.474475055505607424e-02,7.371492189974114539e-02,-2.150628016446820209e-02,9.790615489674985364e-03,-6.816995181060768461e-02,-6.691128192835996136e-02,-1.552229741231193061e-01,6.589924141152099513e-02,-1.292455478237458100e-01,-1.521014837062034317e-02,-7.072444473628265726e-02,6.331546806616958345e-02,-3.023825258785408851e-02,2.597669872572517039e-02,-2.822661492812622575e-02,-2.346589312024260354e-01,7.024143706656464647e-02,-1.805634408424343709e-02,5.005219175776907253e-02,-1.676901422170778422e-01,1.323963910886812589e-01,-7.573953152360603236e-02,1.837815545502191183e-03,-3.261284945111495720e-02,2.626344108004200484e-01,1.289788079092937800e-01,-2.105457051893037390e-01,-6.978644969699011880e-02,4.167837272541016075e-02,6.272095056046994577e-02,3.919021817061164870e-02,-5.483817032832535854e-02,-7.960567221622488754e-02,-2.817945179239584319e-01,-6.465354281016748306e-02,-7.263031127578689627e-02,-3.226843359430918434e-02,9.020120194833934624e-02,1.212087878673706945e-02,-1.533420777944832260e-02,-8.026306524087691019e-02,-1.211673890141211907e-01,7.194222573484927719e-02,6.325342878573811389e-02,-1.581433471361764209e-01\n-1.931533491016068291e-02,3.978494970327092067e-02,1.877657727302153509e-02,2.059201909113721196e-01,-1.550713756855193470e-01,-1.479933613003275028e-01,3.599278777690424758e-02,-1.309824121294585197e-01,-1.615241228986299404e-01,-6.185429285306495717e-02,-1.757430166954099537e-01,-5.365584087783822897e-02,-8.148603964121563237e-02,1.043617683419973026e-02,8.194107274312267819e-02,3.062760740375526300e-02,-3.003096328169226406e-03,-9.013147277926453335e-04,7.298118528993614851e-02,-1.242270004735862021e-01,1.272606820700943331e-01,1.227780964660779295e-01,-1.477212164936516636e-01,-6.704132414440883148e-02,3.128142193275194188e-02,-5.961734599350352465e-02,-1.166321481569657093e-01,6.660453600462119816e-02,-2.861166254604465345e-02,-1.503522472336893574e-02,1.724936128582513217e-01,3.691194941617454567e-02,-1.357792387729368777e-01,-3.208911358920654017e-02,1.441770576227767164e-01,2.049820701337192949e-02,3.227880111668840479e-02,4.766100974165590060e-02,-1.005184440307387572e-01,-2.732828367625121310e-02,-6.759401505582664227e-02,-4.095491172695443771e-02,-8.224526121823180769e-02,1.320481220408248613e-01,1.449171281919143031e-02,4.107683710757830536e-02,3.070698646440136667e-02,-3.782284269841834634e-02,-1.855030299188640264e-01,1.154903607154626061e-02,2.213356659805731375e-01,-7.032725433297834505e-02,-1.601928328739585516e-01,-1.051929130323491363e-01,1.795287242464019828e-01,-3.852699923647846802e-02,-1.193529443475439406e-01,8.323671123239912567e-03,-3.691169656891078732e-02,9.834732553659099319e-02,1.744397258678551457e-02,1.279344970092635703e-01,-1.626355995039421576e-01,-5.484110151788130355e-02,-7.103347896119556470e-02,-2.851523357763384101e-02,-6.302332260760173943e-02,-1.260548480420032313e-01,-4.629518208777526345e-02,-6.581510852671874912e-02,-4.207625610778879810e-02,-1.715052744839011545e-01,-7.851406867495247521e-02,-1.261084146507547923e-02,4.893281952436305537e-02,1.175254861978550745e-03,-3.936310361330499358e-02,7.649831457155187309e-02,-9.667735602328243749e-02,1.229023512043127264e-01,-2.623708852610989739e-01,6.917268803432341517e-02,2.346096731515393604e-03,-6.768079177988146899e-02,-1.612698760783888227e-02,-2.295851634759795978e-01,-1.804026397954599237e-01,-2.369213803742185875e-01,-1.384212542202486740e-01,1.818196388165203500e-02,2.746180693357954880e-02,-6.641554375836833390e-02,1.803356746521060927e-01,-3.029935560010817500e-02,-2.791822871889725055e-02,-1.823028151424330515e-02,4.726717593132773176e-02,-9.955022241579414288e-02,-1.817965057323510381e-02,8.722937247367769376e-02,2.581491260648811903e-02,1.993344285578592112e-01,2.436811073222967458e-02,9.076226425436884071e-02,4.091557734355937004e-02,4.943319004440207415e-02,2.498136496249898138e-03,-3.172635102174715949e-02,9.907925972999262476e-02,-3.160031550969433223e-02,2.186898736064424309e-01,3.452183074537911595e-02,-1.204934800765634639e-01,-2.452057377375045644e-02,8.714698470403137165e-02,1.349321087960408672e-01,-1.358079993041233502e-01,3.067274655300017763e-02,-9.865930468202468995e-02,-1.424629095926973343e-01,-6.777572304520526614e-02,-7.287169855619043089e-03,-1.123039722986194366e-01,5.715550811612257233e-03,7.924072664188432091e-02,-3.486495062802857231e-02,1.394569572513818800e-01,-1.533713472073769228e-02,-3.433935169632215678e-02,8.327191033848842239e-02,1.363027454090073864e-01,2.613938492672018485e-02,-3.124337766273192762e-02,5.423944384935842217e-02,-6.666886185672595000e-02,-6.210387263858137101e-03,4.589547144354114150e-02,1.531359531463886980e-01,-6.665798408186592028e-02,5.819775322028896553e-02,-5.901782647734658827e-02,-2.775402385857435664e-02,5.291427299143915131e-02,2.447871878415037172e-01,2.177284118318504325e-01,-1.176693738702602465e-01,7.536841490389403764e-02,-2.201981911364867261e-01,5.842191518862432931e-02,2.402100014107633186e-02,4.727656697704587033e-03,-1.388151023204947376e-01,1.525713389903633477e-01,-1.187469323339166404e-02,1.685021796936239658e-01,1.399658585031843816e-01,-2.873476243017119430e-02,-1.292284491011901904e-01,-8.536374873541464903e-02,-8.871948760535469658e-02,-4.664984015078478020e-03,-6.398169226217202687e-02,-9.267461462216110279e-03,-1.381420117891901389e-01,-1.060298196620814148e-01,4.573674551560565071e-02,-7.082324184124723365e-02,-7.518956424320311083e-02,-1.491272435269542229e-01,-5.894788706396870970e-02,1.437915551619246557e-01,-3.466321590496334454e-02,2.769909459035688540e-02,-8.264486321830948751e-03,1.059664101252103807e-01,5.299391501612300825e-02,6.264143660372145650e-02,-2.264786624281706906e-01,4.562185087659145766e-02,6.833610384490376548e-03,-2.286178047762931487e-01,-1.040985408822616420e-01,1.338695964945325056e-01,-1.085866731694764414e-01,6.971349792570979975e-02,1.706663161886127489e-01,2.381957298778491702e-02,-3.216106014137127406e-02,5.685984049534679140e-03,5.071859966335009323e-02,2.234433639804032645e-01,-1.157001314375962070e-01,2.218729610330220925e-01,-8.092746083073507068e-02,1.498691111856915135e-02,9.274202887784532140e-03,1.258979129706396249e-01,2.299712951740393724e-02,4.443647531163087000e-02,-8.559162375863724193e-02\n-4.644207856450553035e-02,4.992587076376069771e-02,-1.454131365851672186e-01,1.944923508155733255e-02,4.800560330617302529e-02,2.264266779862421190e-03,5.812832290771084015e-02,9.215125022307214808e-02,3.604673094629876756e-02,-1.165239991517138807e-01,-3.861854261358133034e-02,-1.380746450613364595e-01,1.324470289338140205e-01,5.994118050536462877e-02,-1.270101655628970705e-01,-1.529399610377949192e-01,2.430750140111169119e-02,8.560985337350333901e-02,4.602336280349055703e-02,-2.210881930861851186e-03,8.830376760345171050e-02,3.651364136312278824e-02,-9.365779496434360751e-02,4.811535644867573000e-03,-2.536341142858792447e-02,5.099450229284785419e-02,6.621208209120772736e-02,-6.316882531813508561e-02,-6.584174050294712421e-02,-7.442957302018700892e-03,-2.519629634972231705e-02,3.277469312905659238e-02,-2.385033362607483567e-02,5.152269171265911468e-02,-5.173059813905470095e-02,1.187108702820489220e-01,-1.233189818177683056e-02,1.529444450575874470e-01,-9.473103203031728314e-02,4.141027937871995940e-02,-2.697108613197759033e-02,-4.247151909492660228e-03,-3.368569879936506722e-02,2.765683423180494843e-02,-1.049310737882586803e-01,1.421723010161788092e-01,-3.501493054077054606e-02,-1.055478326380814014e-01,1.045905813813104435e-01,8.355996975551677197e-02,-1.453438429751270078e-01,2.170203156859901866e-02,-3.084764706943990756e-02,6.617401365262887136e-02,-2.585354761004888396e-02,1.095294010211319002e-01,-1.897531304668443608e-01,-3.812325643499874656e-02,2.931176347123577459e-03,-8.270208113685491302e-02,2.008136329791833652e-01,1.533515505433976356e-01,1.471649361389018029e-01,-7.508097777214177426e-02,3.439460767694776239e-02,1.299408572137403794e-01,-2.246931931668530794e-02,-2.293461473128696471e-01,-5.538443234085323186e-02,-8.200965222607293156e-06,-7.806445019588719933e-03,-2.594367190050970995e-02,-4.430748208629562389e-03,1.523194143646771359e-01,8.333799813964870573e-02,1.157644440516686218e-01,8.496544266072370011e-02,1.560145312438847576e-01,-4.299964114694056205e-02,1.427657499778600160e-02,-5.924037522678595596e-02,-4.592690671776645389e-02,-1.094934713092688694e-01,8.230984727306846910e-03,-1.293067425656381497e-01,-1.001954371300359664e-01,-3.608300441127856167e-02,-6.841998728946090125e-02,-2.088052916026607864e-01,-1.765102842664156568e-01,-1.490922594374144150e-01,4.649581829649291481e-02,-1.259295379823344857e-02,2.052306664217705065e-02,-2.838203062773658400e-02,1.296795166188805248e-01,-8.368156722554885574e-02,1.150564407862810119e-02,1.507363134377310288e-01,4.729535721450035118e-02,1.225433663498570747e-02,1.301728931451677229e-01,6.656032154391758326e-02,2.370480775510801739e-03,2.687600662968597093e-02,4.971254271765022936e-02,1.124424548224593201e-01,-1.836912982894884638e-01,3.035164379521031273e-03,5.517956574550404725e-03,1.711656835629958573e-01,-1.291804533868111671e-01,5.566034424823576576e-02,-9.020559516573668779e-02,-9.197577126703986028e-02,-9.000406627312440566e-02,-2.217589396393451870e-04,1.178376355542063748e-03,-1.861874973910856990e-02,1.206579788489191285e-02,1.381445376915807766e-01,8.528858405783242003e-02,-8.381345919770204211e-02,-6.559615079102341928e-02,7.508293487253740739e-02,-2.364042731371299166e-02,-2.612201120537794349e-03,-1.827482648551365663e-01,-1.664439143154893275e-01,-8.107382163920599794e-02,1.492331960941969404e-01,4.223555149601890268e-02,-1.268839173530812714e-01,-1.234133149371455934e-01,2.170502716270930263e-02,-7.218038028485963820e-02,1.092412378720951510e-01,9.771316541339312989e-02,-9.437605478920198243e-02,1.063158435205543567e-01,-9.325022935570816129e-02,8.880657990120512102e-02,-1.601110507328469823e-01,1.239740081369131997e-01,-8.355039997904663285e-02,3.566501198131962792e-04,3.071417309849045971e-02,-7.740933668366659949e-03,1.447784439868853301e-01,7.965474050700774300e-02,-8.029952367010206871e-02,-5.842429297389957477e-02,2.698712513643716435e-02,-5.654314591757829064e-03,-9.137665961676577631e-02,5.087430895598890612e-02,7.447782848108015254e-03,1.906173478987475967e-02,1.919528244589333577e-01,-1.104052012639157587e-02,-1.301363029388528103e-01,1.061180746786220645e-02,-1.395471681266522990e-01,4.956723658804069316e-02,5.638932521894803040e-02,2.637614880460073530e-02,-1.329229809052561995e-01,-2.553095893902609381e-01,5.118972249347153447e-02,2.796890088250448755e-02,1.957576912303711225e-01,-2.644955871954624352e-02,3.086081514631514727e-02,-6.295769022321089092e-02,-1.958699449684772262e-02,1.860321195732809463e-01,-1.227207097635769906e-01,-1.021032822038633187e-01,1.125168742457588189e-01,2.167269232378735144e-02,6.286811350029804235e-02,1.506023178336495308e-02,3.615175106955209605e-02,7.569225422017976379e-02,9.695058882025177349e-02,-5.854961000299726409e-02,7.541369126792456246e-02,-1.256862821090098670e-01,1.825761864528478717e-01,1.420128227516917196e-01,-3.962327204773364447e-02,5.517226225281943869e-02,7.215620707654007981e-02,-4.633839325349937283e-02,-6.507402339280941861e-02,-1.023897429097184314e-01,1.373123880715443057e-01,-4.098658915502160875e-03,-5.089579938621058286e-02,2.203328430141059460e-02\n1.270880611721233143e-02,-1.269164767034349772e-01,8.342203755802486687e-02,8.605120045228531467e-02,1.791328011193416003e-01,-1.327301433900321403e-01,-8.111309045781431304e-03,5.583441779546326200e-02,-2.776301880382938542e-02,1.515472197074713319e-02,-7.110141485357721058e-02,2.317151491608880620e-02,-8.080762259647339407e-02,-1.167701803566058433e-01,-2.206699686613418365e-02,2.261057864505414475e-02,2.656982112585749498e-02,1.151322863930853840e-01,1.054717351722200408e-01,-1.072720461761652172e-01,1.194276168353926131e-02,3.070972271669172859e-02,2.136845121913886203e-01,2.612082219004939823e-02,-8.986580206270822560e-03,2.161322160329695596e-01,-4.535299473307919521e-02,7.106897348491841848e-02,6.055951488957412449e-02,1.681581372540978947e-01,1.094882166188216807e-02,-1.158815191894004698e-01,-1.684488536038492718e-02,1.082876255594520665e-01,8.051243140177957724e-02,-1.847664446233009683e-01,-1.270169087307542743e-01,6.505572554838411070e-02,-1.068621205451239856e-02,9.197569266242289210e-02,-1.143059907388173889e-02,-7.801023521221746304e-02,5.210071734219130779e-02,-1.224502919828051629e-02,-1.214895737933094962e-03,1.422643705587523823e-02,-7.215808839201508229e-02,-1.436328714129659657e-02,-4.659250973395340917e-02,5.522613037385645102e-02,5.428331216763041672e-02,4.788875745928547478e-02,-5.869339689814827982e-02,3.016407800237414644e-02,-1.118440501846271022e-02,8.556449034028380807e-02,-1.158584136103417983e-01,-4.672176167198455188e-02,4.288994358287136904e-02,1.098750983447055601e-01,-1.781236980523666080e-01,-7.399280668189087140e-02,-3.569943100945211500e-01,-1.670900914997031084e-02,-1.583211605853400428e-02,-9.082294024449599767e-02,7.553565048246656255e-02,3.116398820387360907e-02,6.194005849241551037e-03,3.065240698438102471e-02,9.890257130124585627e-02,9.178601166681849000e-02,1.068360172616991399e-01,-5.204976538585655288e-02,2.514574319593351204e-01,1.183653023171131642e-02,1.450832133397283452e-01,-9.495920771100722912e-02,9.031906449550021476e-02,-1.753294675666935420e-01,-6.355222590237304126e-02,-6.292160551439882066e-02,-8.406089722472272208e-02,-3.052006529541601010e-02,-1.031510334534439521e-01,-1.158843650476002046e-01,1.567110494259962572e-01,5.655258000609159758e-02,-1.257858445534175695e-01,1.432673061353131327e-01,8.617203829329848908e-02,7.956591614529724688e-02,4.538966757296611365e-02,-1.046096075026728758e-02,3.808287173376832813e-02,3.947806073168481575e-03,2.297897381785626025e-01,2.164594753599451485e-02,-5.535475523890673322e-02,-2.278944066917839521e-03,-3.404254758942113629e-02,-9.387664968106194940e-02,1.072593637330393652e-02,4.071734195014850566e-02,-3.195678102772122470e-02,3.477433341824995305e-02,3.245326119488208677e-02,-1.109939242700101192e-01,-1.424756637825870809e-01,8.844775549950699423e-02,2.794884113057143071e-02,8.031644394328091296e-02,-8.362644985103971640e-02,4.560151325191980076e-02,-1.153356539532997410e-01,7.082471033159534746e-02,-7.133769087692434785e-02,-4.975947253872552156e-02,1.223077370045481602e-02,4.955927171371878742e-02,4.041860247279818741e-02,-4.960964080122727028e-03,-6.460493733010239104e-02,-7.001076712861104001e-02,-6.614784520751948449e-02,-8.939143805541688997e-03,3.542254449577444952e-02,-9.143786585577476367e-02,-3.013879832689902658e-02,3.536416759170632734e-03,-1.127846712223477266e-01,8.319356491528404063e-02,1.843769691147347511e-01,2.553315333869110929e-02,8.514755836389123478e-02,-9.282749862540862207e-02,-1.601718709515566330e-01,-2.365976031843444738e-01,-3.035787649916743894e-02,-2.595200193651647780e-02,5.652927770459159618e-02,-6.327126395250422253e-02,3.224394285820637168e-02,8.738237785902337393e-03,8.965079721822174011e-03,1.513832352706251938e-01,4.235014168859279476e-02,7.420903566307595831e-03,-5.547307928999863080e-02,-8.343364473459349839e-02,1.613194628000340358e-01,1.121194625318156363e-01,1.181374073463094670e-01,1.428558669039541595e-01,1.093540020679551091e-02,9.631738891073947373e-02,1.364338228206223198e-02,-1.865494554560475637e-01,-3.423538841609096925e-03,-4.040101580097345269e-02,-3.404098213931648631e-02,1.455707310281641187e-01,-1.532847557681948393e-02,-8.971344283776981621e-02,1.369269304746685845e-01,-2.135572753715035688e-01,-1.050083648311648660e-01,7.276057667769070259e-02,1.619747458833037945e-01,-5.061582543061856482e-02,-5.767532631259240927e-02,1.648129004114085860e-01,1.051616685698945897e-01,-7.229013966334638108e-02,-8.240723056501023103e-02,-7.355755649339551158e-03,4.766813198294748977e-02,-2.892112449088450089e-03,-9.789294502713019597e-02,-4.033821141545926303e-02,6.938012836968110442e-02,1.130977991749843592e-01,1.211059784584343248e-02,5.380275906537441977e-02,-1.453420848704818080e-01,-3.181065823198137715e-02,-5.336699062195120191e-02,5.117723363960252625e-02,-3.117947362886757529e-02,-3.380423794789978037e-02,-4.592645199067613149e-02,-5.174231470500936098e-02,1.030655795515138945e-01,-1.061631491976210012e-01,-3.161176874482394400e-02,4.577867963692204556e-02,-7.446555155218829991e-02,1.083208726613923145e-01,9.868249400315241837e-02,-1.436134254572817362e-02\n1.969167266831124696e-01,1.374143035655846397e-02,-5.575193362137019493e-02,4.755597834703512855e-02,2.733801261503377225e-02,3.534998812024826159e-02,1.576066052222486191e-01,3.602491549377558056e-02,-4.914106407030364304e-02,6.707558879359845627e-02,-2.858429711916352436e-02,2.117004208605883370e-02,-2.234200204243138102e-02,8.134927670266481337e-03,-9.599034035706897894e-02,-7.901544951707283049e-02,-6.015384578328347026e-02,-1.759569862829959974e-02,3.167673775101256251e-01,3.795365129577042695e-02,5.777264733124182726e-03,-1.112165621024273354e-01,-7.421710959133193120e-02,-5.046183242916439660e-02,3.535392122142002463e-02,-2.224228824412307140e-02,-3.912406169810529744e-02,-3.071818522145447483e-02,-1.172691677413528893e-01,3.043742200501417527e-02,-1.726991093990818960e-01,6.077532638402208254e-02,-8.369804951120615732e-02,7.945344180230337616e-02,1.741029340875672321e-02,-5.779644063793341197e-02,1.510198864952232850e-02,4.040726296748575926e-03,-4.222657730701886991e-02,-9.971462692980345710e-02,1.087265465406888759e-01,1.843723741088024448e-01,1.234129268957095404e-01,7.467918508419708890e-02,1.598383307757117108e-02,-1.427112380433117056e-01,1.408513017780317622e-01,-7.766431574825814754e-02,7.425786412780693846e-02,-8.834064164547648923e-02,4.753841657066786019e-02,9.656435492015683075e-02,-1.755225979125386027e-01,8.042362827349628859e-03,-1.140793295222891218e-01,-2.752955225874668607e-02,4.678031349262454924e-02,-1.777233299551012335e-01,-4.241039199909638069e-02,-6.532959118987496927e-02,2.305715533099793324e-02,6.655618181184182192e-02,6.599881570568989775e-03,1.463011887338973582e-01,9.949360379572355639e-02,4.453992821413099018e-02,7.049331581023579769e-03,-5.009773391048901944e-03,-9.485167691574503124e-02,1.956138991634567142e-02,1.978730130892955019e-01,-4.845349365117524593e-02,9.215849559396512014e-02,-3.683222263026275992e-03,-5.269072974388979563e-02,-1.095938128368308118e-01,-2.210709258889682893e-01,1.309381956444939099e-01,3.743321671778671728e-02,-9.277263681583150512e-02,6.664121075241913328e-02,-1.732294883235304533e-02,-2.402883739268186769e-01,-3.467204403159391494e-03,1.242158603846996515e-02,3.777927780755352405e-02,9.711018191359750695e-02,-8.842443000493671601e-02,5.492973053396397326e-02,1.366664481653245555e-01,-6.774943779597174254e-02,4.814433220498821192e-02,2.981212591842141019e-02,1.499338152886597053e-01,-1.292250991205798061e-01,-2.513743594523695224e-01,6.317144202141293519e-02,-4.809319093180675769e-02,2.616258609525125289e-02,-9.684039610679774299e-03,1.258540010148588920e-02,1.046769946052686778e-01,2.903142434508821160e-02,-1.065007316492932489e-02,6.385041066465374504e-02,1.944377876174953335e-01,-3.679806164475746960e-02,2.653097422073072333e-03,-5.498869395363045059e-02,1.316479619169383386e-01,1.051259962215409655e-01,1.304520313029567391e-01,2.109831337408760513e-02,1.007594407501368888e-01,-2.522066826033479356e-02,8.319856819231429002e-02,2.879936145924705260e-02,1.090703765181869345e-01,1.392042719003557805e-01,1.209830033151809703e-01,-3.004922171455408179e-03,-1.579438928714944068e-01,-1.422736275126909311e-01,6.539821395836686868e-02,6.999455754995795309e-02,7.957172818669538961e-02,-9.928282601575995348e-02,4.369172395769485573e-02,-2.669961149863905522e-02,-5.465789587996502941e-02,1.238645551725869320e-01,-7.319251514521386837e-02,5.026062039801571651e-02,-1.531936854878479248e-01,-6.411884223138769601e-02,-1.412486757289694583e-01,3.760445054144817556e-02,8.230592333225383861e-02,3.724208634141649293e-02,-1.427399851448681867e-01,-5.903702881020757298e-02,-2.053733902920654164e-02,4.485855206174910875e-02,6.328169776249469025e-02,4.244734736155216653e-02,-8.705161154848181648e-02,-1.077291497222345774e-02,-4.915866201274853714e-02,1.580341825206047282e-02,-1.970079396381368142e-01,1.857864307682519089e-01,7.296818160550354315e-02,6.353132580371271924e-03,-9.829944576729809924e-02,4.523585358778477172e-02,-7.479695816979201051e-02,-3.163649209924328937e-02,-1.439757207242738368e-01,-1.626862921898840075e-01,-6.509977360421724535e-02,8.274436610610443055e-02,6.351916635895865637e-02,-1.130983125986225087e-02,3.510734591315812364e-02,-9.032301037892601775e-03,-7.276377321887220195e-02,9.632930271331964500e-02,-6.354417144902179890e-03,5.368037149811580658e-03,8.137888390926387855e-03,2.469997689960730658e-01,-8.064535625667478003e-02,1.173877153094366604e-02,1.342672882105133136e-01,-1.035496916700911485e-01,-3.636440905277438240e-02,2.546282400315166283e-01,3.954319142186291103e-02,6.616020664650665295e-02,-3.213741279890477975e-02,6.897215319496295682e-02,-6.805935659739927035e-02,-1.004605432380357641e-02,-4.609397873384724065e-02,1.176056220222902737e-01,1.016157614242311491e-01,-7.223655964582906264e-02,-3.164650749718344452e-02,-1.517292634666030093e-01,-1.068641740804456702e-01,-1.162465621507148134e-01,4.525174616774992054e-02,1.299351861057220225e-01,1.572665884100486050e-02,3.390121209034744482e-02,1.792597662690154914e-01,-2.817812835042179248e-02,1.307558046471638258e-01,-4.632829879648170911e-03,1.053225020520505706e-01\n-6.758664080179445366e-02,-4.636574691925281905e-02,8.268136967871446419e-02,-1.393894756863413298e-02,-3.744094977653898704e-02,-7.297025927223203812e-02,-8.656340205675371047e-02,-3.149269692798226800e-02,9.877141438367469106e-02,-1.490723412910530642e-02,1.656398862394332927e-01,8.148621656664410684e-02,5.707161759248890326e-02,-1.327909548266519579e-01,1.106630109680244306e-01,3.308574474121039888e-02,7.163731440539512774e-02,5.883951102069751721e-02,-7.901194676135835093e-03,5.648636335264744374e-02,-6.734349046451641729e-02,-1.136422654837439400e-01,1.102419337727413573e-01,1.582901010038181289e-01,-5.888809878975995171e-02,8.975283735777717098e-02,2.593364249119697318e-01,9.142995724876525065e-02,5.744493303938010692e-02,8.736402112675879794e-02,2.722632464692393284e-01,-1.321010663752219816e-01,-2.311653726128939240e-02,-1.434982545460996017e-01,6.420714603367914941e-02,-3.111668328347109297e-02,1.965535858911421074e-01,3.584314634311866477e-02,-1.113883852948043159e-02,-1.500075834249808004e-01,1.805537772358603854e-01,1.588593574609411391e-02,-9.147631152109564345e-02,1.081654181115776631e-01,-7.921110387194839342e-02,1.479156209325388771e-01,-9.233044059013757743e-02,-3.262316246250109714e-02,-5.141759568794293522e-02,1.431786215033135357e-01,-1.586445138536768384e-01,2.659948131588410480e-02,-3.140487075961381075e-02,-9.087805540182970418e-03,1.122876976027865903e-01,3.387442523480425904e-02,-1.298352930907098191e-01,-1.190761903908370417e-01,1.055655321074640135e-01,-5.259277874191146951e-02,-6.852029960495717442e-02,-1.330901326147308772e-01,-1.005622699444480433e-01,7.132687070938821539e-02,1.359120772151985179e-01,3.715088907173106497e-02,4.836167069434483406e-02,5.629552716427634745e-02,-7.055176356212126965e-02,6.856096742948178391e-02,4.557275210413040678e-02,-8.349402998658579655e-02,1.517013468937919995e-01,1.503462874553130324e-01,9.681194742451902646e-02,-1.038990866949630054e-01,1.292387533921388332e-01,4.171109478743398324e-02,-5.707157929875900787e-02,4.226758992983280228e-02,-5.292456506668153510e-02,1.048369345194389984e-01,3.067434682411195046e-02,5.910717411956789222e-04,-1.429945757505745318e-01,4.185109247468573462e-02,-1.097515188215078402e-01,-1.510208705362557913e-01,4.175427831663727080e-02,-8.498728471959916819e-02,-4.530540280719636882e-04,-2.054769683613202891e-02,7.157198413104319881e-04,-7.652619826687352689e-02,4.994286322373124587e-02,-3.626496681608889355e-02,9.758836261444255034e-03,3.184631790911337385e-02,-1.695788951581289339e-01,-5.761524427287468414e-02,1.269709630701209013e-01,4.994781107967014022e-02,-1.083066783546674100e-01,5.238679728089128823e-02,3.945648743628374366e-02,-4.677321067508975749e-02,-6.388410681041041539e-02,-1.270273314461857483e-01,-1.448443591389469431e-01,2.892893471278021322e-02,-1.455231164026358354e-02,-3.728380782506575397e-02,-1.143616848132792962e-01,7.069530969998244485e-02,5.194794374252489216e-02,-2.342877805770180455e-01,8.245908788005747170e-03,-1.858490602242862111e-01,1.708377846231000363e-01,-5.746913054554720485e-02,-1.555035771374366493e-01,1.310809087846979692e-01,-2.190751590149985287e-02,8.201252997672350137e-03,1.048717702984908184e-01,8.656951394349375606e-03,4.665877257970697453e-03,4.228084355182437290e-03,-1.652899465124327838e-01,1.764446053401716175e-01,2.000003012618018286e-02,1.327887200624242869e-01,-1.141613334502537547e-01,3.638540226019579792e-03,5.599320302734739352e-02,-2.276381168585272716e-02,-3.406322862060284090e-03,1.408267590733856302e-03,-8.471508501136104652e-02,2.136864278248832780e-02,-2.105184880793139687e-02,-1.290515106359573227e-01,-2.158472591593073309e-02,-9.418016317198010801e-02,-4.970399185983012669e-02,-3.589604627869850267e-02,1.108151538121242147e-01,-4.374974796837469149e-02,1.073811006396925422e-01,2.021944943055594968e-01,-1.784356450702725971e-01,6.257116322093725889e-03,1.148339251480507278e-01,-8.330432494587250436e-02,-9.687897788459438886e-02,-4.740782503443561474e-02,8.809684313149418466e-02,-1.301593891754948829e-01,-1.818528074499914382e-02,-6.268568239971467060e-02,-1.128542487455823362e-01,-7.253642792927778027e-02,-3.387235391401843820e-03,2.146974215716300205e-01,1.850271488990991309e-01,-6.825271641642433051e-02,7.949853376968993302e-02,2.518005370807511675e-02,-8.950445227886122401e-02,-1.671878200391449174e-02,8.068876472473095196e-02,-2.868853466961672222e-03,-4.668075383987759647e-02,1.441382650827700872e-04,7.862955027980970957e-02,-3.943116879870980224e-02,-9.978896951538214488e-02,1.202760452600051683e-01,9.172782797570296076e-02,-6.464312553210782575e-02,2.217158613363132413e-01,1.223330698873998507e-01,-8.989229858725869549e-02,9.644214346775694877e-03,-5.768621488354953863e-02,2.016105964066519304e-02,-1.465354577791178892e-01,-1.090872436346152774e-01,9.557951903854605691e-02,3.829304628097349172e-02,-7.704350499980426592e-02,-3.271633001112103645e-02,-7.857120855775094614e-02,3.214898187099742705e-02,-5.337184979167105409e-02,2.560574017531933727e-03,1.408265162146737359e-01,-1.759137659687574073e-01,-9.503287177208480374e-02,-1.001048197227262793e-01\n2.234207965338057614e-02,1.971278417836888341e-01,-1.322514498134014505e-01,7.097960579898408839e-02,2.340252831877288105e-03,-4.684088206579717362e-02,6.530418799775693228e-02,-9.994759412733991710e-02,-5.153688883596187903e-02,1.189005791614740348e-01,-2.044526309235541323e-02,6.881179603647127885e-02,1.225741121748486206e-01,1.450726709231889289e-02,-6.889762633217529075e-02,-2.070972437713045414e-02,-6.653462278491497836e-03,-2.437595880600607404e-02,-5.584867565581549953e-02,-3.076894508125566779e-02,4.205451720124188386e-02,-2.859830492954793524e-01,-2.278561247477013940e-01,-1.081299951465036491e-01,-6.539371766068813319e-02,1.381142844240649528e-03,2.141568999810197216e-01,-6.988752655211945275e-02,8.573294862557324578e-03,-1.369809861891571057e-01,-2.196085976512368587e-01,-7.375124041665569175e-02,-3.504024082397088485e-02,-2.772009538682060001e-02,-4.128815255334888912e-02,4.049365214571696431e-02,-4.195229702279780482e-02,1.525314642526441056e-01,6.803257859602544755e-02,1.707625206272051638e-02,-1.114779217623571295e-01,-4.842502782815752416e-02,-2.675334956399943453e-01,-5.409060254263067108e-02,1.323204379788836260e-01,1.911608193940141781e-02,1.418751179971324298e-03,-1.100494542677465416e-02,7.293838292101573195e-02,1.502832371721929683e-01,1.259558817884838706e-02,4.882165339448132912e-02,-4.156966747840970533e-02,-1.600115081131340822e-01,-4.587801844602024115e-02,1.496188377282932185e-02,4.442872623223192291e-02,5.674867370996938831e-02,-9.647059420998015111e-02,-1.294713640534598809e-01,-7.890367242080130461e-02,1.502228649610419520e-02,3.235469333307289946e-02,1.007105118796043364e-01,1.210275066737259986e-01,-4.585342879560401139e-03,-4.807160434952927053e-02,5.824298170500297883e-02,-6.937991573468486883e-02,-2.976657173490989544e-02,-1.294972174961203475e-02,-1.570071230468639539e-03,-4.065860790135542848e-04,-6.824407338606364171e-02,-9.241786413332517269e-02,1.552079330324155348e-01,9.356086751002447299e-02,-8.463667781361594589e-03,1.802060252400864704e-01,-1.797595849827313963e-01,4.593009075350765885e-02,-5.571871643379790184e-02,-8.030155229439209230e-02,-1.274163610580914818e-01,9.799042162255504340e-02,2.991309651751608914e-02,-2.290960235700194043e-03,-4.307120237392220163e-02,5.475813435955099312e-02,-2.113419191017146537e-01,1.612966958463766740e-02,-7.206992348731058873e-02,-3.057849955699240910e-02,3.310304115486080358e-03,-4.300833176180175049e-02,1.011979011736014733e-01,5.951002006109436249e-02,-5.088119675876836417e-02,-1.041308517324362332e-02,-1.499972964106665307e-01,9.287575345698129148e-02,-5.843082165484916879e-02,6.328026280898263467e-02,2.270974554939961948e-02,1.583969942359575098e-02,-3.285837094315418455e-02,-2.306390322668118789e-02,-3.091859632197650407e-02,6.724740135082010739e-02,1.881091710965776265e-01,-3.335992685318585338e-02,6.619752295165447220e-02,-1.054773072005223307e-02,-7.052408908311035007e-02,-2.249974794650809809e-02,-3.332392345154434887e-02,1.779702500973954701e-02,8.132114345705995784e-02,-5.446500298383025185e-02,-8.693085104676934183e-02,-7.495563277137647085e-02,4.124052457693453549e-02,-1.693675456055452125e-02,3.583551238179763510e-02,1.420439273333854238e-02,-5.813605161231882867e-02,2.612943171609042117e-02,-1.295303562818943544e-01,9.207525969028579338e-02,1.305706617199594577e-01,5.782825164451456390e-02,8.331197649821966977e-02,-7.090768328459672032e-02,1.011825027659869064e-02,-6.042430521729000303e-02,7.969928889028204955e-02,5.784050579595544084e-02,-2.548600440460685457e-01,-9.431025761471102664e-02,1.925221438047958200e-02,5.123008963744880850e-02,-1.274326951190789259e-01,4.137422466029889306e-02,-1.975713737628872479e-01,-1.588223931512093845e-01,-2.793962901665193732e-02,-3.684744482045129721e-02,-6.787297766520443421e-02,1.128893386487425377e-01,1.639150837244487610e-02,-1.587232722423850481e-02,7.262605272133844381e-02,3.953902764837802231e-02,-2.638348283535494471e-02,2.742479928550697627e-03,-1.872244543182254375e-02,-9.654496651964742868e-03,7.165615893621814225e-02,9.203501105025721843e-03,9.765278447032832432e-02,1.582480149719204046e-02,1.217710235815109288e-01,-5.322650388201839722e-02,1.745332941454732579e-03,5.914386102016013641e-02,-1.023707672462034410e-02,-9.531014714057085835e-02,3.944400631378303795e-02,8.971858809537978929e-02,-4.995637548042060339e-02,-3.687594853889630125e-02,2.283754837581107242e-02,6.167219541662827265e-02,6.257543884020437541e-02,-1.860036359816723533e-03,7.417421157518176711e-02,-1.198242367192596247e-01,1.564651500297866427e-01,-1.058010393083252607e-02,1.789560250217240092e-02,-5.279412685485428830e-02,-6.818288472809093392e-02,9.942073954620980758e-02,-1.417622493694601082e-01,-1.267560513518341814e-01,2.087576595910446420e-01,2.951136056911937006e-02,-4.188240912385158936e-03,-1.212837045243916889e-01,-1.520902805095268873e-01,-6.495196625800180035e-02,4.167100979478882000e-02,3.588679169464514818e-02,-7.403825517510342902e-02,4.665974937056705484e-03,-1.027511824916600425e-01,-1.365905348861572513e-02,4.373534850465757989e-02,2.792779914388871659e-02,-8.865924408191792894e-02\n8.551854579397179246e-02,1.963697304936208310e-01,-3.844413604831517853e-03,7.927724765166740961e-02,-3.036640817192960695e-02,-7.722709836751823209e-02,-6.060528888973532730e-02,6.332711014425952689e-02,1.889803635137387444e-02,-2.087996133758095174e-02,8.851089521123763418e-03,7.807396533995999977e-02,-1.017878955869799956e-01,6.478178926957774142e-02,2.435241205500954936e-02,3.640371144340087683e-02,1.663942135353798923e-01,1.279344987863089145e-01,8.947071827369429409e-02,2.387103486886056614e-01,8.177475562203141701e-03,1.707093559175831554e-01,-1.135925210755776987e-01,1.207997454943713078e-01,5.050704247161238308e-02,8.742360849323151106e-02,-4.100850296464476907e-02,-6.241797416737818877e-02,-8.929481114780500606e-02,1.253646503892128783e-01,9.964742327357925533e-02,1.349196879254070114e-01,-7.033290452540426341e-02,1.397255433139190373e-01,-8.611253584065954592e-02,-6.645724191110791157e-02,-1.257686317658122943e-01,6.121609901665727577e-02,-6.727150475494135529e-02,4.324576817082941005e-02,-1.731118176232873118e-01,6.468511452106984194e-02,-1.953892155137233744e-02,-1.620052295814904675e-01,-6.271902250195630912e-02,-1.365792987040197193e-02,8.722987020290788596e-02,-4.016999551431434112e-02,1.166956730772726603e-01,-6.837826509188341118e-02,-7.360752159729124812e-03,-1.225862955237232016e-01,3.660226122739033278e-02,-2.113293790953823734e-02,1.597157365657136674e-01,2.566798463489733950e-01,-1.420194367623591131e-03,-5.262149634677695809e-02,-4.631325657823238094e-03,7.671344088511854176e-02,-1.053467786465671491e-01,-2.191088167519627834e-03,3.857167462392628587e-02,-1.121735724762398245e-01,-3.848042489880822148e-02,5.128930076044975299e-03,-2.389539830802919068e-02,1.311518257156818121e-02,-8.078240544513058674e-02,1.100707887374094557e-01,4.532630159986884150e-02,-1.022116328287009657e-01,-1.803394549333698152e-02,1.985920632930501806e-01,-1.235083108315294803e-01,1.929294468225755399e-01,-8.909740304119849463e-02,-6.405028430084876157e-02,6.485724186924858581e-02,-6.196630171225459699e-02,2.052422675680204700e-01,-8.328069949651848922e-03,-1.064289968947162435e-01,9.121512584237291554e-02,1.540771282900623984e-01,-9.156001180915465665e-02,7.328371416295800800e-02,-5.123103801491157849e-02,-1.280030482697667726e-01,-2.627562777964567286e-03,9.669082602732015364e-02,1.200424094927820262e-01,-1.088888205334880357e-02,-1.760012034897615041e-02,-3.897257829939011504e-03,8.397247287536721561e-02,1.776793039743977121e-01,-2.543580371324562495e-01,5.559019267851354057e-02,2.829391806073060928e-02,-4.225239180757618673e-02,9.597035573926553098e-02,5.630673937561497117e-02,-4.612683893299149296e-02,3.055133163398537563e-02,-7.492105060999930399e-02,1.112959100262310291e-01,-8.931258397940472493e-02,1.955592763526493860e-01,-1.073607734962481464e-01,-7.706108482052530413e-03,1.778558976257896274e-01,1.158387412516073342e-02,1.176571935372205807e-01,1.536118478532865483e-01,1.199197371593297215e-02,1.169890255765203557e-01,-3.598568297444425246e-02,7.950623878153763660e-03,-1.103723668531827878e-01,1.068838975099804384e-01,-1.786589891211856629e-02,2.461625770734054974e-03,6.050018664865571688e-02,-3.591476726619841076e-02,6.417847939648768651e-02,1.515244656660657552e-01,7.707346851711077695e-02,1.039760951351900303e-01,4.857530258127752687e-02,9.906606040523706358e-02,-1.267162428010764064e-01,-5.529687520602288853e-02,4.685827723222498603e-02,3.077547887796735007e-02,1.156000343006423868e-02,-1.192649617789769273e-01,6.155810798816411383e-02,-3.868091758932135776e-02,-4.353000965816467699e-02,2.742964152539462130e-02,4.068181853498573086e-02,2.105810040664411395e-02,2.939900007009892402e-01,-3.009139072635576631e-02,6.972655432834375111e-02,2.394991110805976334e-02,-5.292180019121935780e-02,4.351211040645594497e-02,-9.540275818539797892e-02,1.571179730438606315e-01,-1.136886186224413398e-01,3.111754668669390878e-01,-1.709981619761409208e-02,-3.211122864379981501e-03,4.758515707916749493e-02,-3.875435419800465214e-02,-1.277240448314634347e-01,-1.151330089240125941e-02,-1.777111479692321250e-01,-1.496229337760006661e-01,-1.006150058711752920e-01,-1.117779135087084291e-01,1.004530332702614076e-01,-2.288894637651168323e-02,2.148266664705308360e-01,2.748837382647834407e-02,-4.637361884278862201e-02,-1.436802753935868988e-02,5.212451402895591779e-02,8.021375087065842069e-02,-4.864803943133390318e-02,1.008126718537559890e-01,-1.091863933674137449e-01,-1.278045678414288164e-02,1.394999271330077395e-01,-5.671072156589645336e-02,6.482965096468359945e-02,3.300329131393883036e-02,1.494667049648981116e-01,-4.885646748881360829e-02,-3.530192449853468417e-02,-1.982977575520129543e-01,-1.549119039592939881e-02,2.422886788430157756e-02,-8.701014582041952106e-02,-1.924402666866975309e-01,-1.103004862992483653e-01,-1.106032249731792733e-01,7.081945287812482781e-02,2.577633367769521441e-02,9.180965175688954316e-02,6.150832260460007556e-02,1.040296707107649966e-02,5.737556590803682965e-02,4.814820523074629655e-02,6.365584610361256501e-02,-1.904413915847913696e-01,1.606119949231608543e-02,-1.048973206381392936e-01\n9.988986785482723008e-02,-1.081336392357402781e-01,8.539615619567382521e-02,4.779978369621767920e-03,1.133915688949189843e-01,-1.278931563206905375e-01,1.232037679674300237e-02,3.362408135536148340e-02,-3.915906829067936773e-02,1.874450477029674170e-03,-1.431635839166705004e-01,1.597894413648084629e-03,8.640147615261122363e-03,-1.089068137983902895e-01,-4.280222345379156891e-03,4.139204270618616899e-02,-1.996478254730561785e-02,1.182357500757773433e-01,-8.900096219949582554e-02,-1.170448999612130614e-01,1.387994546303757959e-01,4.958662318920851325e-02,1.480735114202723357e-01,-3.435080386190740576e-02,-1.271791451899880465e-01,1.474562444236124717e-02,8.002521831764912441e-02,-5.022867774628731602e-02,5.269545178945239661e-02,9.243894349256880083e-02,1.392870594416868446e-01,-1.423621366620984700e-02,1.034423145985558928e-01,5.865326491425792294e-02,-9.942832404166594695e-02,-1.103695149008366294e-01,1.925033434899615708e-03,-1.043936198025178508e-01,-1.325761597581410212e-01,-1.787620967153951551e-02,1.422048328712977594e-01,3.354585867651296155e-02,-3.421149800293642879e-02,-2.871709198240827640e-02,-1.045808475623137557e-01,-1.028699725178243256e-02,1.450006810927783052e-01,-1.378156382511551425e-01,9.079972118610019072e-02,9.881352309610304252e-02,-1.164853067863649005e-01,2.497330429418040398e-02,6.993881362307645400e-02,3.088938805245955779e-02,5.427321771316723741e-04,-1.920442228244866869e-03,-1.978173969120743114e-01,-2.065845764877646817e-02,6.030675808497202445e-02,1.031780723438359693e-01,-9.120389841739547088e-02,6.513465761922358765e-02,-2.130509463910355283e-01,1.011126666486237280e-01,1.052095730606198154e-01,6.707447831212141887e-02,-7.633160200585474391e-03,2.656059948136744314e-02,-1.061272482846827431e-01,1.151067814638912466e-02,-4.226334842144523901e-02,8.024143978967923641e-02,-1.617623627720591803e-02,4.916753175182591792e-03,6.206304717625930195e-02,-9.819486091116576276e-02,-7.012132808657549343e-02,-1.213312587468985404e-01,-1.164153277343383530e-01,1.064118280260368046e-02,-1.005308492476118289e-02,2.078888840657565906e-01,-1.860555430852818271e-01,5.122125158229861447e-02,-1.347250429675780070e-01,-7.439343468509475310e-02,-6.769691940604682934e-02,5.196289932957250807e-02,1.114232812782061932e-01,-2.902947345705860771e-01,-4.597378445970572852e-02,-3.062027716501724006e-01,-5.989740402306575895e-02,-2.946526238959222208e-02,3.797938724098790658e-02,8.724270862566459173e-02,2.538526464595113746e-02,2.178257150662608888e-01,-3.731613683993758451e-02,1.354428520383281487e-01,1.362497165272049671e-01,7.771550044792881196e-02,5.662825166123058168e-02,-1.335093312291535383e-01,2.021406641770097656e-01,-2.307482410132662837e-02,-3.338471812173528924e-02,-6.560884598078060848e-02,-8.103997663847226085e-02,8.522966396756014029e-02,-1.767607946406114516e-01,7.035195437742969293e-02,1.768282827470506746e-01,-1.309764995108951557e-02,-2.103779070183769973e-02,1.877380281310429139e-02,4.218250370941001304e-02,-1.176677212128167914e-02,4.838365114651228469e-03,1.216390217221669651e-01,-1.179127130263143419e-01,1.158084733591583371e-01,-6.720238164145528326e-02,1.833401149213232662e-01,-1.053435503045959017e-02,-6.131145333947698312e-02,1.065959200855903372e-01,1.108193851023770854e-01,-5.097343399169459305e-02,5.326249423111777126e-02,-5.502087106913437775e-02,1.074473176098282856e-01,-3.072078053718028251e-02,-6.998732509836427806e-02,-3.707980914295415376e-02,-9.545287201018924639e-02,-6.045715605457172709e-02,-1.196246138908533679e-01,1.329287130975319864e-01,-1.622203135451841527e-01,-1.721582461834709754e-01,-8.037327619689260683e-02,-3.051087549624003151e-02,-3.929413533377307949e-02,1.379941252687383046e-01,9.338341649883134810e-02,-1.688075866962579774e-01,-6.486274569943133173e-02,-8.663619930424375226e-02,-1.290536336139198326e-01,-1.243429556408213316e-01,1.275463193229665372e-02,-1.384013196913025032e-02,1.030210610463352106e-01,9.362408726154936023e-02,-1.215754151117176551e-01,3.533573071274026534e-02,7.824141690284860950e-02,-1.355745566130844015e-01,-5.730554325086441303e-02,5.303361654059814134e-02,1.131002896977111455e-01,-1.299548881845694615e-01,-2.920952058400903481e-02,8.534566746957912564e-02,-7.175234112479872417e-02,1.675135148076349959e-02,-9.014009332805626717e-02,-6.235659766285951700e-02,7.039382752837602952e-02,-7.512372424346894229e-02,1.836556006147804787e-02,4.261647298608634699e-02,1.754426871372943841e-01,-4.638522967488165755e-02,-4.788618321101448944e-02,2.031927451100495191e-02,2.452465114353015452e-01,1.372946788604949564e-01,-6.480542926504452572e-02,1.620266632385343117e-02,8.944362960052089362e-02,-1.323097968851540407e-01,1.228983229251237944e-02,7.712201682927365132e-02,-9.244776783084919514e-03,-5.495435882198543981e-02,-6.235836678805013744e-02,1.135422071338716525e-02,1.871351353990822683e-02,-6.161174115851940358e-02,8.507740752135446727e-02,4.742418425302408615e-04,9.996091836494301261e-03,-1.346033685471088592e-01,4.404164822216474762e-02,8.979562162709814332e-03,-8.829776401994242352e-02,-7.807686835261999636e-02,-1.682125488835904681e-01\n-1.513383032774969217e-01,-5.395287284472808503e-03,7.994439262757611908e-02,7.580504265804205444e-02,-1.385993200052240415e-01,-3.114194730487952409e-02,1.144546493876841958e-01,9.434121160252398330e-02,3.580887170911627865e-02,-3.458822233176675302e-03,-1.025588153783097561e-02,9.326743251736757667e-02,-4.340835883640210835e-02,-1.409314023526497990e-02,2.009119378074212814e-01,-2.208340218093369223e-01,1.586190913711552075e-02,7.606195210500496517e-02,-5.509695105704436741e-02,-4.188109934617905566e-02,-1.277946510551368209e-01,-5.397518112689100173e-02,9.354855099508714578e-02,-6.563869513697810631e-02,2.088567268536076216e-01,-2.339831467116279193e-02,-2.957252603472020069e-02,5.034328096637941813e-02,9.130353026081543255e-02,-7.160590604456457120e-02,-7.230227495507679514e-02,2.007704885715244081e-01,4.617161284283512884e-02,3.485682328278288944e-02,9.965685061422649427e-02,1.525828567193377172e-01,-9.360894892881746476e-02,-2.992176631192696237e-02,-1.251588940786080850e-01,2.436923074354360730e-02,2.509636559906487305e-02,-2.171575807201579777e-01,-3.316557006148793812e-02,-4.496230473348684226e-02,3.065045780981621310e-02,1.663029276793704103e-01,-1.160690488065750055e-05,-2.030297058921867737e-02,1.239041695394909048e-01,2.430255952542737310e-02,1.312939045638427948e-01,3.093453765397223207e-02,1.291670743705877200e-01,5.045127204513780161e-02,-4.726115936525588507e-02,-6.337567065700262792e-02,-7.716112682225080566e-02,-8.751630737886309519e-02,-7.454264003662612603e-02,5.875644140826513651e-02,6.257664602424967137e-02,-1.505144038037343202e-01,1.005703041832305411e-01,1.359056128554722402e-02,4.525856389285543707e-02,8.801811289017492934e-02,1.369141902583099479e-01,7.789726625430135054e-02,6.487812408952574328e-02,-9.693327521069897146e-02,-5.762520414204156533e-02,6.248321879085468739e-02,-1.009177881482985484e-01,-7.051127061977066623e-03,8.962660589981354120e-02,1.400208472988799246e-01,-1.832134103096545452e-01,-2.044601706881887526e-01,-1.705539922386065804e-02,8.836105150237227868e-02,-4.280381625682116997e-03,1.315302480710164590e-01,-2.306995460417310684e-01,-7.922838708194819557e-02,7.121082099118419828e-02,3.677311797024860988e-03,-8.068951955930472875e-02,-9.222044352102926057e-02,-4.067473692524290786e-03,7.055471767408254269e-02,2.287299980353851847e-01,5.148760300590382588e-02,2.282040618206434557e-01,-1.431843977457698258e-01,-2.497640108883565913e-01,-5.993056371590955306e-02,-5.125940480049046705e-02,7.881881646346060311e-02,-6.210422357787574472e-04,-5.668338958599467708e-02,-1.099602478373887526e-01,-1.423025864296768341e-02,1.109706814317791140e-01,8.452984942724521902e-03,-8.123513780705400589e-02,-6.844697099657727490e-02,-3.240879751113117518e-02,1.412598215112141065e-01,3.046543744463856961e-03,1.059314832432128317e-01,-7.607806160691553757e-03,-7.015046508654323131e-03,-1.363318466275727503e-01,-6.165306753819260743e-02,-1.231802438004267197e-01,1.073270515801706265e-01,-2.512930067437829651e-01,2.504433108752233267e-02,-8.124230560826131708e-03,-1.173921938295026807e-01,