{"weights": "2.658476022045634490e+00,-1.200690284671149355e+00,-1.056436068582133458e+00,-1.996671323357021022e+00,1.348666708815527748e+00\n-4.116993522426307450e+00,2.866382423633971666e+00,-1.458618743362057435e+00,4.057190057955478713e-01,-5.752679524994596116e-01\n2.378479280910740901e+00,-3.700377879583984342e+00,-7.013354966332245866e-01,-8.077116989433213989e-01,1.811817750189355092e+00\n-2.043135650757052169e+00,-4.424776542035229188e-01,-1.659941245183082392e+00,-7.203879211087002576e-02,8.609558452421757213e-01\n-2.044391910818479818e+00,1.830723124039424832e+00,1.411113135946653774e+00,7.223344206930401024e-01,1.409845034117649609e+00\n-1.050497933611419077e+00,-8.257879804181010586e-02,-1.485482764949254575e+00,-3.328226996363565227e-01,1.044822374455086189e+00\n-1.064188880936872250e+00,-5.552245585747166423e-01,-1.056443197034968362e+00,-1.329183646020447362e+00,-1.028956398275942652e+00\n1.076536093674717726e-01,-1.798794344573767967e+00,5.340760405337309225e-01,2.994072956034415256e+00,1.410164365175425649e+00\n-2.015677837210024526e-01,-1.402399748616651065e+00,-1.159969067001503484e+00,3.050425996622707192e+00,2.171970886816358137e-01\n-9.698453523411025845e-01,4.590013911482534459e-01,3.754226736929250574e+00,3.368865447838843008e-01,1.194707992795474460e+00\n5.580034640339612828e-01,-5.679729784198458420e-01,-1.931854097976125617e+00,-5.629557312554823723e-01,-3.205633311312151568e-01\n1.052376877764399143e+00,1.487911645658467785e+00,1.646894238118536968e+00,5.328354674900104282e-01,1.567572793880872339e+00\n-1.262018478657106479e+00,2.202212785669666495e+00,9.251935016019593450e-01,-4.745063411887905369e-01,8.830627228127043704e-01\n-9.046925236623473698e-02,1.992973397535138691e+00,2.662924945257147513e+00,3.811921446861141760e+00,-2.370181136886260198e+00\n-2.452361535593334363e+00,-8.306743133937809498e-01,3.161551169247532322e-01,1.552088087939119010e+00,5.846930222520562159e-01\n-3.555752117582120064e+00,-5.942059768024795519e-01,1.363211210773666027e+00,3.313628320890025236e-01,1.249368462761557330e+00\n-4.494491795922168076e-01,-4.122225638696234151e-01,2.562310033236805396e-01,6.419406679883707945e-01,2.764895464579834594e-01\n1.396453985122149966e-01,-1.223204667374300003e+00,5.858716377743860004e-01,1.444995551760843711e-01,1.883569635256807651e+00\n2.003401946988938143e+00,2.538062360502110759e-01,-7.134290054649278234e-01,-1.168095176312788919e+00,6.651407038255195969e-01\n6.773186943689263328e-02,-6.591834801352213224e-01,9.496297926852989221e-03,-1.135770842440545270e+00,1.138950337787912437e+00\n-7.997692299784541214e-01,2.085216790847607804e+00,6.682698701817348930e-01,9.963304690636546335e-01,-1.917743124225674389e+00\n2.642335335545760722e-01,1.249991672135907006e+00,-1.674034326958430352e+00,-4.875464096746504050e-01,2.819328518267861725e-02\n-2.397882805008285878e+00,5.158220498345281735e-01,1.432248204943184167e+00,-1.511486148724502598e+00,5.768938329644938134e-01\n-2.292892873719599933e+00,-9.487685772436343923e-02,-2.816667916952090511e+00,1.907299378787846944e+00,6.776047895378428665e-01\n-7.057944897388453154e-02,-1.365903617871075060e+00,2.170211621528934653e+00,3.366819419575117767e+00,-3.234684122051393107e+00\n2.049266743643135325e+00,2.724912362766489959e+00,4.991945329913793916e-01,-2.153912849685491349e+00,1.405839226180195967e+00\n-3.964019487947028075e-01,-1.126435179523277874e+00,-2.207051812573446181e+00,8.659812386236656057e-01,1.284100753182345178e+00\n-1.160279186643002225e+00,8.142729057914392943e-01,-2.059117947661808667e+00,1.299726845219768556e+00,-3.793485279627539525e-03\n-4.061520611718989482e-01,-2.597591117069537603e-01,1.415401859321065992e+00,1.210933140860532387e+00,8.296139249513396763e-01\n1.534895706666582482e-01,5.014579733345781581e-02,9.830673746144524827e-01,3.170882507325731847e-01,1.093816859563087052e+00\n-6.346531505829327013e-01,-4.301593421927437433e+00,1.693411322335515168e+00,3.674949600220977164e+00,6.622873655127867742e-01\n-2.722919602291034580e-01,-3.349220507124626711e-01,-3.049086367797887998e-01,-6.939354645233175578e-02,-2.035870528863995332e+00\n-9.918646666199220086e-01,-1.820153812291221085e+00,3.299494297465105364e-01,-6.113963097624627308e-01,7.552187645689336648e-01\n-4.009501675365751416e-01,1.602822700578416582e+00,2.690870375368544232e-01,3.681369887186814349e+00,-3.372265560534213780e+00\n-1.215917785424028841e+00,1.456387646014494441e+00,4.264060179354625113e+00,-5.285447215846035274e-01,-2.407355868648400343e-02\n-2.678564731393094922e-01,2.420616291458244085e+00,-3.731220425918828076e-01,1.296422464071340430e+00,-4.292012113465056844e-01\n-2.073512911986824747e+00,6.638618944844552061e-01,9.911462279284176669e-01,2.354635093110858612e+00,-6.788755358989531641e-02\n-9.427446160656299812e-01,1.093965691279591868e+00,5.382019956058267107e-01,6.071115307290786411e-01,-3.454278864172794384e-03\n2.125292115818072869e+00,7.604143168493792126e-01,3.409873716022158607e+00,2.040239217199251165e+00,1.260145115009500660e+00\n-2.685980265976417591e+00,1.162237006632274028e+00,8.480691275568144061e-01,1.522304293293837096e+00,1.925272699425379708e+00\n"}