{"weights": "3.014790262600041681e-01,3.727597124486343172e-01,3.519432762151279877e-03,-2.666192112935559799e-01,3.317690837679289628e-01,-8.158451667331352575e-02,3.712208140218958285e-01,4.879674594353975992e-01,-1.815397622842616909e-01,-6.820339222547057156e-01,5.721888979550832088e-01,4.665030564240534305e-01,3.593662549936595951e-01,-1.287959004610266522e-01,-1.555478079554191706e-01,1.295659275320001635e-01,-1.354607616430444639e-01,4.145333228088584065e-01,6.482694063803615125e-02,-8.351895958225637184e-02,-3.843094442168595859e-01,1.799887024808802249e-01,2.068256991746101336e-01,-6.811097508170399495e-02,2.066216459412387463e-01,1.354241881360440936e-01,7.292051114416928104e-02,2.112669174077337897e-01,-3.995902640700441100e-01,-3.019455892605854910e-02,-1.031914441406127925e-01,2.836290520555044825e-01,-3.664040073503779804e-01,2.620274797811787959e-01,7.719975178220622736e-02,-1.423622521704808741e-01,-2.523849256022649423e-01,1.980052569916237459e-01,-6.565428795889702851e-01,2.446099773199680860e-01,7.205507146407358343e-02,6.771061087436305304e-01,1.802013836707627159e-01,-2.197999627975587844e-01,-2.522949240155866746e-01,5.032629595503035347e-02,6.674677523878723706e-01,-2.161611546418013285e-01,-2.346641388799458605e-02,1.439664773075622350e-01,-1.654130737384822691e-01,-5.538042938618478184e-01,-6.237010118240510909e-02,4.357870902944019353e-02,-6.390233498433891546e-01,-4.271067106405285196e-02,1.683240074334766689e-01,3.863715363865702357e-01,6.136242219975276968e-02,1.096132596512121027e-01,-2.537134908168255376e-01,-2.582991337442320234e-01,1.686119014056004228e-01,2.901214629878061668e-01,6.013374201076867598e-01,-5.428598896402746510e-01,2.385231509588410237e-01,-4.988990129569119136e-01,-4.478410612670525870e-01,1.828489709616158143e-01,-1.220393190743279850e-02,-3.278364340974804225e-01,-3.025873637324451582e-01,1.429203181334660067e-01,-1.442317812045649378e-02,1.255328748374111847e-01,-1.976447253590938868e-01,3.255347655659786982e-02,5.865926958069362929e-01,2.135119926650056454e-01,6.953952493485687780e-02,3.017009187279607318e-01,-3.268240834532905037e-01,-1.323186644171324144e-01,-7.476605359228211123e-02,2.138184922159936385e-01,1.585205053807765552e-01,4.502754504067184305e-02,-6.331007452996009199e-01,-2.339274390717133861e-02,-2.703862391640706186e-01,5.696017963041082911e-03,-2.960876430735232545e-01,2.794714773118521789e-01,-7.058423162608548074e-01,2.938352547364879719e-01,-4.037380877456857031e-01,-2.480517570396766069e-01,-3.869917487020329006e-01,4.494696348012047066e-02\n2.396530560631508766e-01,-4.153176730635732006e-01,-3.114271555907778821e-01,5.260161776520698440e-02,-1.910236164002591941e-01,1.121205341338781108e-01,4.516268744675535074e-01,-1.307738463080652391e-01,1.307850177082567067e-01,6.282410853914076609e-01,-3.173579694491869829e-01,3.080870774259102385e-01,-1.053031055384622550e-01,3.037824390986461065e-01,-1.747158794145251270e-01,2.795852416905802440e-01,-2.425609264900784878e-01,-1.392989184872421293e-01,-3.429399644681608850e-01,4.903477782896800696e-02,-2.431877460441895511e-01,7.869997892372301296e-01,-2.588745409761762373e-01,1.692126461461055664e-01,-2.372713735627610121e-02,2.091010292063797404e-01,-5.069929508476841429e-01,2.711286201885113045e-01,3.107137370727023826e-02,3.678469424544200672e-01,-3.932016814821769901e-01,-1.837091941035070009e-01,-2.142199851043859737e-01,3.593974496781192074e-01,-7.582095505010374437e-01,8.651567448210115141e-02,2.083668315341012101e-01,4.187332507097717427e-01,-3.531274430656456409e-01,4.541260584236258002e-01,-1.208003350359557609e-01,-5.765167646617540970e-02,2.079464001827101283e-01,4.981363760564109372e-02,-1.276955888459297972e-01,-3.117971179721302222e-01,-5.203785585745623887e-01,-6.893512803125739774e-02,-3.417241042183529753e-01,-6.875600672632296018e-01,4.941703518235273651e-01,-3.028320148466389639e-01,3.341164702547474996e-01,-5.110154578290537764e-01,-2.603542251182570100e-01,-7.133587675867074374e-02,-1.177548868929921555e-02,5.451356156336974873e-02,-9.407856887624123088e-01,5.179740713281302256e-01,5.841291943182213425e-02,4.675826787402392881e-01,-2.116984608032474735e-01,-1.322684059701624559e-01,-1.238225947242562732e-03,3.957937539361213730e-01,-3.835292731640067565e-01,7.671300519161208809e-02,4.153744327939684622e-01,-4.220619598785834148e-01,-9.131840301811439131e-02,6.171498297757884721e-01,2.679087775674809935e-01,-8.492945823778812187e-02,-3.011657936028675486e-01,-3.597062202313511259e-01,1.448745728498340990e-01,3.191961664633867768e-01,-9.190893245023022684e-02,7.574976144514938836e-02,-2.587206013049503373e-01,5.426002727782981427e-01,1.364659559800381616e-01,-1.054335424212085592e-01,6.204334873099365266e-01,-1.097871461391195791e-01,3.929518142733218200e-01,3.241905166727235971e-02,-1.145940697981106399e-01,1.630772542396272395e-01,2.943602599013986909e-01,1.307146850613105094e-01,2.206489079424171218e-01,4.177631593143071864e-01,-3.312789292464978219e-01,2.476578677009300122e-01,-6.076276850895366843e-01,-3.258782760242631693e-01,-2.848245650189157319e-02,5.846596303577853426e-01\n5.897055919947480351e-01,9.259431223031305835e-02,-6.799910740297193668e-02,1.732531200779736658e-01,2.299164600116928303e-01,5.249172050838705195e-01,-2.160188409065151582e-02,3.259999124182679231e-01,6.592713906394336021e-02,-4.281776626776951367e-01,1.373909026916831089e-01,4.309106099779083654e-01,1.824049530635089844e-01,-1.626826398740299218e-01,4.977818534962287489e-02,1.584786726366557708e-01,3.116457350703593088e-01,-4.488947729653324781e-01,-1.670375259309499483e-01,-4.022297534539283625e-01,2.342673617949074805e-01,4.761070247199101213e-01,3.166749497317803419e-01,2.768046466951745721e-01,-1.003677382183457839e-01,1.617320142764483715e-01,-1.898387459649071018e-01,1.162795666049141613e-01,-5.264459542708933570e-01,9.501717870955274370e-02,-6.226056250254241586e-01,-3.192689182923338920e-02,-7.873686255041698057e-02,-1.429336729575623847e-02,-1.087484977574079414e-01,4.932539573888498202e-02,-9.669509165687276142e-02,-7.713468998939181365e-01,1.339593452095309833e-01,-1.862431973587539702e-01,4.561850349335448696e-02,-4.208954993628487018e-01,-9.712783393455265424e-02,1.460505728356059352e-01,1.754383350076449410e-01,2.944060252564095204e-01,-3.321046780536114906e-01,3.194952516202443360e-01,6.919707974658313721e-02,-2.815366541485391991e-02,3.064224495938905335e-01,-2.049021970064590636e-01,3.604312466388970848e-01,2.147553144188370788e-01,-3.808682379050956079e-01,-3.219384402620149854e-02,7.574003916260009517e-02,1.284258337173722619e-01,8.426158873768628543e-02,-6.496250546225825762e-01,-6.401806729157315523e-01,-2.270056241434658673e-01,-2.531276947245249542e-01,-7.408828413896749454e-02,4.062852895299802758e-01,-1.348427881138635764e-01,2.042221001570916628e-01,3.411933992800662008e-01,-6.684237151812020272e-01,7.126373225836427072e-02,-1.677276451113512978e-01,-7.540023938815609839e-02,2.887036504276442872e-01,3.802918823694408923e-01,1.752638092211970255e-01,-1.698539583519054685e-03,1.037093592350022409e-01,-2.554941357391026235e-01,2.107393353642623424e-01,5.553875441304224614e-01,-1.041315731975733239e-01,-4.530643712868163697e-01,-5.284250582519833817e-01,-2.491053069147199650e-01,2.733962626578789190e-01,4.899861334534076629e-02,8.903427078532333283e-02,3.028626613382831012e-01,1.676327282982282597e-03,-4.834301431810535815e-02,-3.077817734780281464e-02,3.184983671463979815e-02,-1.945748735592975898e-01,2.127256739676799402e-01,1.363387023312559732e-01,-7.389585967112705100e-02,6.890397743653714491e-02,-1.984389132505347542e-01,4.403666874163977285e-01,-2.914371440477878106e-01\n6.007979763402121476e-01,2.393999194903788097e-01,-2.259119569452407716e-01,-5.212622642983379961e-01,-4.004011722459860922e-01,4.103062831908594298e-03,2.500215591864211051e-01,1.149279095783565102e-01,-3.923201402155624962e-01,2.786001074649945286e-01,5.308568675295409767e-01,4.060841400458403694e-01,-2.226319972237661704e-01,-7.577892938853325946e-03,-8.360919749693716818e-02,7.045861718979111454e-02,-5.182471412604541111e-02,8.034255639281387418e-02,4.222794400934632431e-01,-7.971271664860619943e-02,-2.904528685012409128e-01,2.782838537679265811e-01,8.612991110939730022e-02,-1.812161640062855406e-01,6.065805476881892117e-02,3.583722637067596750e-01,1.397736904781268471e-03,2.318804831027860558e-01,2.613195314955626403e-01,1.601711754170314916e-01,3.079200003820367071e-01,4.681448923261498085e-01,4.795319248474836926e-01,-3.298454125137827986e-01,2.095301042327462615e-01,1.118624391782349209e-01,4.929705361773589062e-02,3.637822617112353857e-02,5.560113564684099341e-01,5.182649405151837363e-02,5.208856053452822765e-01,-4.589393029286983339e-01,1.274127180576092033e-01,7.153745734353017527e-02,1.816008277529659043e-01,2.107281832877378608e-02,-4.273092234608863449e-01,-4.021083045806465028e-01,-1.152699291496303430e-01,-3.601979697175196615e-01,9.948172566512933912e-01,-3.653057203050010804e-01,1.925999205264351533e-01,-2.969932298470464582e-01,4.176712914123031917e-01,-2.463002158231890615e-01,-7.327744339845335686e-01,6.661346453913011834e-01,-4.973706016776006100e-01,8.999882169985841396e-02,7.270954699142193056e-02,-2.382932525736149165e-01,2.055318474723791811e-01,-3.059577204565224751e-01,-8.241429066784289326e-01,2.318705306963685375e-01,-3.447463111386676604e-01,-2.580815466157132532e-01,1.853856406168473761e-02,3.647205751981628663e-01,4.159330970998428509e-03,-4.803877220331326803e-01,3.739991645804783271e-01,5.504674571148752138e-01,1.356339199804734719e-01,6.547765924097391499e-02,4.491917777553903340e-02,2.087928272210317626e-01,-2.456827177171231336e-01,-7.530533406320254197e-02,1.354183072092884355e-01,6.232926407143322134e-01,1.595726547239756099e-01,5.569215259842490440e-01,-1.525641977948296035e-01,-1.218971014051512813e-01,-1.705554883614429362e-01,2.090472337714520679e-01,1.912938960613781714e-02,-8.262270796857866528e-02,-4.309504423456678168e-01,-2.215963176944134305e-01,-2.300179131374500974e-01,7.562091884565969035e-02,2.932989695007954811e-01,-4.172997029298368687e-01,1.375480093408950888e-01,3.012653451522800951e-01,6.768175569986381590e-02,-5.874865496507676310e-01\n-1.303152680032710134e-02,-7.452451547867777748e-03,6.968757105322744838e-01,-1.915650341053110745e-02,6.306956560331550277e-01,-5.125405835308675107e-01,3.220588695263652546e-01,1.607977417999572056e-01,4.601146967667885668e-01,4.125686148683498367e-01,-2.802704373275954897e-01,-1.414647531939407787e-01,-1.883930302668144000e-02,-4.013966094825288655e-01,-3.943978104082748737e-02,8.319926154277156038e-02,1.904541549102369558e-01,-2.965390632507122759e-01,-5.034455209545166815e-02,3.729374144769785349e-01,-3.156227233238598218e-01,-3.346920399845098593e-01,6.907830455435970407e-02,5.387372560381356035e-01,-8.400398740325358826e-01,-3.738463073766593592e-01,-3.081660630063359774e-01,1.614217595476513389e-01,-4.725278356978495631e-01,9.569811935175195905e-02,-1.855786406529228438e-01,-3.066615278580540616e-01,-1.220190745173626856e-01,-5.309875906676168045e-01,4.073548318749052322e-01,-4.693350457911640294e-01,-2.763718445543130176e-01,-5.619400704911013955e-01,1.962954071991455385e-01,-2.031414389970885581e-01,-3.435189788992725202e-01,1.399326856791940354e-01,1.226962158172778261e-01,8.492238619016607981e-02,-2.281326604573384320e-01,-1.159481145851857242e-01,1.669348605857199352e-01,3.828288640509011631e-02,2.555940687341614614e-01,-1.764419657739081104e-01,2.188351215143634065e-01,1.961572200162874369e-01,-4.882079838338699296e-01,-4.562104475163509254e-01,1.712119975225367685e-01,3.079871707029836481e-01,-5.298600980745103994e-01,-2.697069770092674346e-01,2.159994925380634423e-01,2.510802508436367764e-01,-2.222954304353245425e-01,-3.284998376991637992e-01,-2.487343577313322618e-01,-3.082769286933189079e-01,-1.425921607922993051e-01,-2.463616311040731088e-01,-2.114735876082013410e-01,5.416004655192443451e-01,3.455206114731239064e-01,-4.229532941177014393e-01,4.078927096537533770e-02,2.730148970795000518e-01,-3.718205009883955303e-01,1.065495720439056243e-01,8.431841461350888522e-01,2.227840876282094484e-01,3.940180210330291311e-01,-1.771303622896264474e-01,-7.749787769475868782e-02,1.975712621129540325e-01,1.205358517740395818e-01,-1.165103459429672889e-01,6.274002649351437255e-02,4.633420338844529973e-01,-6.518004209031437457e-02,-8.276852972551436427e-02,1.025562358969674126e-01,3.408850906725744423e-01,4.425354276413550059e-01,-3.934741214990338243e-01,6.701460330151967626e-02,-3.124299411099465407e-01,2.026344996771160256e-01,2.940406439286631646e-02,-1.618313887373934723e-01,1.756081041462573544e-01,3.965492580592103744e-01,2.076236109989867962e-01,-3.987558866882621178e-01,1.991173027721069091e-03\n4.454972642060930355e-01,1.319339200522698929e-01,-3.053307501882404074e-01,1.691485315352291297e-01,9.463778808845156598e-02,1.949506599601978363e-01,1.360725819180031715e-01,-3.401326382146905858e-01,-7.470827555201923209e-01,-1.753357727624065346e-02,-8.131329746682744442e-02,1.952124164239886495e-01,-2.460551802466667826e-01,2.677584571134340036e-02,2.481152226506848912e-01,-1.976282055632016810e-01,-3.394378001247130849e-01,-8.890119783536383491e-02,-2.268397252749281279e-01,4.233158669000855467e-01,5.294400300315477148e-01,2.635225767651191292e-02,-2.617682915777593267e-01,-1.206759033956359556e-02,1.418141820643189187e-02,1.815273154617480789e-01,-5.323396199838753562e-01,-5.970661758691250265e-01,-1.507611377254814700e-01,-4.543405269564582127e-02,-2.717731980928064228e-01,3.733118973030534749e-01,3.168324632460986501e-01,1.214282175956660492e-01,-6.466710072623975680e-01,1.315564885901887027e-01,-1.225894458208750398e-01,-6.629570779002509351e-01,-4.250610750023871981e-02,-9.201582002904336310e-03,-5.176931727303790698e-01,2.333726440757201079e-02,6.824628063948955103e-02,-5.896525022946430029e-03,2.255074094317349176e-01,3.066815200443866463e-01,3.902678968016930483e-01,-4.977028556551150174e-01,-4.919799531666375070e-01,2.929755812781043578e-01,-2.161913652234585259e-01,2.796484658477946805e-01,-7.903297698092647261e-01,-1.636489835006803284e-01,8.723704717241231865e-02,-3.306675337318669139e-01,-2.728761697617199458e-02,5.630644918010735411e-01,-1.386654538126776137e-01,4.846060593217324519e-01,-2.944448226538696201e-01,4.077534393241279143e-02,1.067909862044356117e-01,2.395769297233544051e-02,1.742498142219876811e-01,-1.971914133397682234e-01,3.821127839548998234e-02,-5.080683846598523790e-01,-2.582305077721114839e-01,1.679186118988378607e-01,2.660594422673668302e-01,1.968361506060656574e-01,4.275692907170740020e-01,2.903022220733144088e-01,8.127335258655342398e-02,6.051809850214382447e-01,9.176745938296178295e-02,3.503897996987090369e-01,-3.242191008914598049e-02,-3.086430104028876215e-02,-3.092856035875665710e-01,2.926526975256523166e-01,3.357862086052265660e-02,-5.294191765790979415e-02,-4.068851878466520078e-02,-2.544339305603271484e-01,2.202437570268485356e-01,1.313398809708829496e-01,-1.041419925953956244e-01,-2.145336239769585207e-01,-2.215227115549580628e-01,4.726238446426026529e-01,2.530888318514317240e-02,-3.671433102305024510e-02,1.971491805564716815e-01,1.924785509443945331e-01,1.624581787941682121e-01,-1.247674075162231166e-01,-4.196426570510786158e-02,-2.928387048772364970e-02\n4.810405067783409816e-01,-5.994619564924325017e-02,3.031899972855996994e-01,-3.904986270665422587e-02,-1.994624829013318390e-01,1.390322928050541085e-01,-1.696221135557252624e-01,-9.776759256251940644e-02,-3.682248270835037068e-03,2.139997538763822316e-01,8.199059065808603219e-02,-2.447221227179388961e-02,-6.250606232178631538e-01,1.597292651638616834e-01,-2.210992270202650767e-01,-3.353343104576526623e-01,-7.928001153733965634e-02,-4.283395764482019197e-01,9.475323733997263742e-02,-5.076144229014973863e-01,-4.745769468768459842e-01,-4.710174115988824961e-01,1.483050920548662499e-01,2.708219457774307948e-01,4.589274913877346429e-01,-5.054249792382947692e-01,-1.529658460581082291e-01,7.767895168601626765e-02,3.963997702845841742e-01,-6.215597103020000652e-02,-5.243838922393609936e-01,-7.122076793146374374e-02,-5.042264848493810403e-01,2.539696480241053211e-01,6.120747940511258450e-02,-7.266651693544441404e-01,2.910769034343920203e-01,3.957201464324922591e-01,-2.614669657879261089e-01,3.667242377032759459e-01,-4.157708278033587224e-01,5.075216920034366641e-01,-7.797568439650175154e-02,-4.175624528524189971e-01,-2.649125731076835619e-02,1.447452799119844091e-01,1.306626651767641700e-01,-2.212360017474485074e-01,-2.046269188001511308e-01,1.899316867390338781e-01,4.110908201419618546e-01,3.050473898252627492e-01,-5.104184825173450069e-01,2.499797909739593926e-01,3.052355253363255305e-01,-3.580403422205007957e-01,1.740732584642608050e-01,-5.215566458443751108e-01,-2.588190102073829602e-01,1.361889880098549888e-01,-3.932209496121771147e-02,5.848658278925300547e-02,-6.247901173784584650e-01,-2.643438171723747434e-04,-4.076790810878526128e-01,-1.022828292954863771e-01,-1.123463557073967722e+00,4.866930650542741210e-01,1.857689135110667245e-01,-1.281841334618735173e-01,-1.005900717119918575e-01,-3.774639602125145488e-01,1.736977108249971036e-01,-3.836340176296008653e-01,7.342720233940425167e-01,1.389960825430899827e-01,2.343910685538428962e-01,-3.485106629141595126e-03,1.122364270881153481e-01,3.127993411401998047e-01,1.552332037732132852e-01,-1.504675045705262115e-01,-4.692919159955787067e-02,-2.025555805144832189e-01,2.840301775650508898e-01,-4.103393974482755779e-01,-3.532208914076811479e-01,4.739906135351760752e-01,-5.385254011580744571e-01,-4.465717976354433016e-01,3.049227971344015131e-02,2.918315341048042244e-01,-1.599854479425630305e-02,-2.095188822203128409e-01,2.451325167517088427e-02,-6.000303972133907982e-01,4.747679766535045816e-03,-1.191614572311314874e-01,8.149057647229670520e-01,2.815017616127647379e-02\n2.229702583964516260e-01,1.958743712562996397e-01,-3.229051316323586773e-01,-2.977215184559626193e-01,5.521821406757843054e-01,-2.880257229629150095e-01,3.438259744929376693e-01,-1.040579224948389447e-01,5.608554699837875468e-02,-8.474256564687165927e-01,2.102191665074567839e-01,-2.533412935017911871e-01,4.287370320698556127e-04,-4.223568435382487052e-01,-3.040561025213142643e-01,1.123523693819151043e-01,1.456933820600421203e-01,2.053527318527779144e-01,3.026323558609279041e-01,1.614675966561348874e-01,-1.000246077270475209e-01,6.050731952755012966e-01,-7.029881505725996682e-01,-3.103428650070259587e-01,3.534870030691962817e-01,-1.456061700869661357e-01,-1.010941270994325653e-01,-4.336523580924845356e-01,2.364790541467801654e-01,3.148763891308301033e-01,1.729304963413224872e-01,-3.962932632917575138e-01,4.109569234738639776e-01,-3.393722189562615177e-01,-5.671914647206425381e-02,-4.063404469625848947e-02,-6.111410202269038638e-01,-3.644914831833024893e-01,-2.623295981403143684e-01,-1.020011936032147043e-01,2.969177879664952266e-02,1.204597584977599584e-01,1.799236802948262215e-01,-1.700844254992924243e-01,4.927195593338943858e-01,3.643009884161838713e-02,-3.517044244848196444e-01,3.197972747961919104e-01,-3.358478380783248146e-02,2.569782909519085501e-01,-1.251041818020762197e-01,-5.975616645063176469e-01,5.029351820308772814e-01,-2.756417954577988216e-01,-2.296257203425615956e-01,-3.251267420683109921e-01,2.104208688830976892e-01,2.235624823788230908e-01,-5.009126582841038067e-01,1.525608194001164819e-01,-6.839027666623672674e-01,2.827070017213589304e-01,-1.011934594521451958e-01,4.668891779323813482e-03,-5.662036421575851186e-01,-5.084243105110826111e-01,-2.928880760107192560e-01,2.067983812790068765e-01,4.243658327715699730e-01,3.666063257733090941e-01,1.714049079607113946e-01,-1.039089814417254592e-01,-4.607479842765774269e-01,-3.579744126977247309e-01,2.360591406259226754e-01,-1.008203976374707350e-01,-1.540276599824744463e-01,2.567652610291649706e-01,1.854480597157178723e-01,-9.052181444538504040e-02,-3.113428133787158880e-01,-2.702520129578225294e-01,-1.605903080848675168e-01,7.088823550341997182e-01,1.926827857091971130e-01,-1.343065619756385852e-02,3.137546721009473738e-01,1.008718117705553613e-01,-1.959349719879905152e-02,-3.883555634263312073e-01,2.310425096497417397e-01,-8.372962467450102697e-02,2.123323569223105056e-01,-9.050298269177534105e-02,-3.892559362003770174e-01,1.192783817799635687e-01,4.141497094070166196e-01,4.369338924148654102e-01,1.961480731449440906e-01,6.829681663731747288e-02\n2.286932979051274628e-01,-4.849298214483200864e-01,6.279367278468702684e-01,4.176573688058557998e-01,1.000438269872383906e-01,2.481922152756309563e-01,4.075556944164741013e-01,5.423961443657426135e-02,-4.398263888737204419e-01,-4.837883439459892410e-01,4.981963608183425513e-02,5.868604919032018030e-02,-2.052861565039866554e-01,1.972599618122870269e-01,7.616035533341665442e-02,1.757921196996021229e-01,1.504655437538685026e-01,9.049488930974763923e-02,-2.513702235689006526e-01,1.062540557080507431e-01,-2.321116137221586051e-01,-1.923495846035949142e-01,-3.634867815944505670e-02,1.868859676048280002e-02,-7.482645893186816721e-01,6.059955480341612244e-01,2.293946385392341136e-01,-1.500919635076788661e-01,8.920294802892342334e-02,-6.167088266781060174e-02,3.831758517833562805e-01,3.400993152083532922e-01,-9.272707716870251526e-02,-1.345296578715922398e-01,1.504303440649139567e-01,1.461336320448462234e-01,9.039812506307897885e-03,-1.479661334585445909e-01,-1.791118868014729693e-01,4.294009313440453890e-01,2.908597846502430917e-01,-2.803908220008569097e-01,3.692996881250643071e-01,-4.367117220569736169e-01,3.868774273512018969e-01,-2.111451860376041545e-01,4.228607618721269001e-01,7.003802729525193671e-01,-2.306921434512325675e-01,-2.583955136846141087e-01,3.491375661269718877e-01,8.262924453489593757e-02,-2.610052317736880623e-01,-1.215167227634084135e-01,-3.001023681182301006e-01,1.000896335289337968e-01,4.477344827145268713e-01,1.912853114002601232e-02,2.103108943453458890e-01,-7.058969137909062441e-01,-1.909222468295946884e-01,-4.697502047623473564e-01,-5.809876516042206118e-01,-1.611042827835225399e-01,-3.064060048834399419e-01,-3.254322889139349972e-01,-2.477026650511680028e-01,3.170217280061631282e-01,-1.963969988898613961e-01,-2.920337443166676206e-01,3.527991410553354412e-01,-5.113011523123759533e-02,-1.577282930439499742e-02,-1.966584548178889613e-01,2.083739737973070161e-01,6.830709088799291617e-02,-5.622068100392282330e-01,9.607849451683597719e-02,-4.025938118185726777e-01,-3.029740194144795451e-01,-4.083872965702762814e-01,2.400900764229621231e-01,7.925950506747780899e-02,-5.935593605156091329e-02,-4.361715036847050864e-01,-5.382362269100635782e-02,2.230026948208005400e-01,2.334604012551243224e-01,1.950407655521745054e-02,-5.561638204157125509e-01,-5.979547047620503014e-02,2.078163937106969339e-01,5.778624099420993643e-01,2.073478395720413370e-01,2.040384118554729176e-01,-4.152344928946663516e-02,5.479063577582160560e-02,-7.453695093232536040e-02,-1.026214707683393984e-01,-4.212733281060437318e-01\n-2.376772714084419702e-01,-8.031751326876986896e-01,2.197214803400264205e-01,-1.710401509916336660e-01,4.187974232277801856e-01,-5.136305255089671506e-01,5.256024264589280737e-01,-3.030187469760631247e-02,-3.033571461828252561e-02,7.593741063628074717e-02,2.963917959231824883e-01,-2.819855688536854546e-02,-2.074230725668604614e-01,-2.611551284380089211e-01,2.469406179841112936e-01,-6.074799029112289972e-01,2.334860589755315963e-01,1.432545134240639229e-01,-7.422977349960770133e-02,4.646835090962133652e-01,-2.878494055386773831e-01,3.509191992856900560e-02,2.756721321293359450e-01,4.609304781665616857e-01,7.453113176314410393e-02,-1.394973170462270734e-02,1.661800474839486841e-01,-9.150585920253465066e-02,-1.258069943150448566e-01,1.719320283751546441e-01,4.986840389593164002e-01,1.777438440245185103e-01,2.037598290058845740e-01,-5.968285157570780708e-01,1.319962501191356552e-01,1.837489842743329216e-01,-5.349810508252949015e-01,-4.464614640261059808e-01,1.932290140694360170e-01,-1.423600427267551760e-01,-8.000007890711080538e-02,-7.974958754609395850e-02,-1.473091343364177352e-01,1.174753667036081695e-01,-5.832699102367459032e-01,1.818451271309064199e-01,-2.703312513154099150e-01,-1.764974058368104504e-01,-4.155997934304563879e-01,-5.775656047423352035e-01,4.706872021628726310e-01,3.485924818316968876e-01,5.253829686657807141e-02,1.854773531118440177e-01,-1.222093161712561327e-01,4.936517535585477345e-01,-2.958057054737329716e-01,1.542892377028053652e-01,-6.134185500637741040e-01,2.762773146874237806e-01,2.845629774964044123e-01,-4.816122555041531528e-01,-3.992992083953002536e-01,3.130017870925980161e-01,-4.556961917684234642e-01,-1.862293152961762011e-01,2.664032522693420280e-01,5.979578747375673409e-01,1.423655563437285776e-01,-7.535596357093812259e-01,2.386026531027046482e-01,-1.917914790907730149e-01,8.806065243607140436e-02,-9.807871151501351692e-02,-2.495185464975866185e-01,9.654383206072163215e-02,1.729520171135900397e-01,3.538717450917588936e-01,-5.654948053263828683e-02,3.415339063478510795e-01,-2.483012415266948325e-01,-3.958409842104095716e-02,-1.780131318520830064e-01,-7.614325905111903048e-02,-1.582690000973556443e-01,4.056959569374851693e-03,4.436916122241767457e-01,1.681941926793315278e-01,7.161450156949471235e-02,-8.817365364967387487e-02,3.328503815515029829e-01,-4.418126864944165733e-01,-3.780091955395323833e-01,-1.944558590959146738e-01,3.223383758245556008e-01,-3.924098645737079116e-01,-1.253640604759279353e-01,3.234191827709348988e-01,-1.103606022438003542e+00,1.396282513950196924e-01\n"}