{"weights": "-1.430313696815015134e-02,-5.586804310263432383e-02,6.181380788346609728e-02,-5.794124680147809403e-02,9.481168843378592892e-02,-1.881430098803979489e-01,2.165035192253821628e-01,-2.255279160709458552e-03,1.214848092678725601e-02,1.495081769690266918e-02,1.571069752687120347e-01,-1.522329405434548477e-01,-9.957127135669095741e-02,8.595345126424451098e-04,-5.784990825952868176e-02,1.770591196972814974e-01,-1.853107116385183497e-03,1.590432956066493708e-01,-3.319901394152839358e-01,-6.085556258803177104e-02,5.383798941160778534e-02,4.723410046339748813e-02,-6.181116092349450003e-02,-5.494879138462478718e-02,4.833707835135424291e-02,-1.354708353160507806e-01,-7.122304500489558959e-03,-1.061685357792733903e-01,6.048508049163858757e-02,4.459898518684693447e-02,-9.066946843913957499e-02,2.656108630437288287e-01,-5.572788088545829743e-02,-1.469912856860661199e-01,-1.080068962826078866e-01,3.734023714860473797e-02,6.430945486354168461e-02,5.339094088853515649e-03,-1.439947623625316142e-01,5.057826083766387565e-02,1.413170923526687883e-01,2.424805235097729217e-01,4.984186224206019894e-02,1.732299888537780774e-01,5.750073110796898729e-02,-7.697885747187221961e-02,2.780945662851514594e-02,-2.203766071127820358e-02,1.424722708076825717e-01,-8.958690239373422182e-02,-1.935883195634855586e-02,5.628583758818857252e-02,-2.321702846859514946e-01,1.404894296264573295e-01,-1.342573266135629328e-01,-5.704395450336759155e-02,-1.130914263065741082e-01,2.706318405438113417e-01,1.595859010568880521e-01,3.165362635507927291e-01,1.253984340857380309e-01,-4.205862989679691744e-01,1.296958676337519878e-01,-4.543408483989455626e-02,2.605547023124858974e-01,-3.310601363379668538e-02,3.463045055233451852e-02,2.283967657050692268e-01,1.971478116251344087e-02,1.811150854650067366e-01,1.678336830661852630e-01,-1.007807703454197262e-01,-7.649104628789593630e-02,-4.979115357612645676e-02,-2.323187692550537919e-01,-9.763237756823144042e-02,-6.482241210065204512e-03,-9.947246548674942845e-02,3.233229782785609352e-01,1.332518563511657372e-01,2.586446576381043472e-01,1.235781142628511881e-01,2.989507698915718770e-01,2.709329610592348669e-01,-1.885694399669364252e-01,1.854430202406854300e-01,-8.679445151347196796e-02,-8.252046145896048401e-02,-2.002314115714108889e-01,2.678080519573881602e-01,-5.117179276407570615e-02,-5.985745321757798831e-02,-1.112415861675519618e-01,-1.409747899285164752e-01,-1.515223998224882532e-02,3.915178196617914719e-02,1.566020185876458581e-01,6.017418985635118733e-03,-9.265308015895237781e-02,-5.887327715805800582e-02\n-4.348784975976001388e-02,2.503931176965062608e-02,6.740514595324177682e-02,-2.896020235957074557e-02,9.273906308168369805e-02,-1.537729421213705761e-01,6.930879627734434778e-02,4.949399109514415925e-03,1.177256036393136696e-01,-1.858509775794113250e-01,-6.369543608642815047e-02,-1.406724536334655051e-01,-1.506362285722543937e-01,8.527389247625609403e-02,-1.085442356416029264e-01,2.740099412508048560e-01,2.674382454150459609e-01,-1.566181670955230087e-01,6.008128296766088172e-02,3.596789812791119367e-02,8.443523143011716359e-02,-2.513193169767251045e-01,-2.357210984869823056e-01,-1.376525355209010371e-01,3.471326956662280222e-02,3.070731956135017704e-01,9.031222377224049080e-03,-6.689730075969463341e-02,3.319066257935332498e-01,-3.205874430295707622e-02,1.641138074270496738e-01,8.759917052142145166e-02,9.735417023548194326e-02,9.147180195309861928e-02,-1.881323793235829822e-02,1.964731544757280027e-03,1.398053449398758419e-01,2.201655497553689153e-02,3.059312067346285635e-02,-5.203860956495044016e-02,-1.574736369985807460e-01,1.009918486524840064e-01,-3.163959419003488649e-01,-7.284036658736306458e-02,1.175381522105413412e-01,-1.559213262276746836e-01,-5.589293934492270410e-02,4.168126872472737582e-02,4.108355898143386392e-02,1.611483473048714588e-01,-8.219964017879262397e-02,1.499912944809258901e-02,-5.009509931336961902e-02,-4.230183218147381269e-02,-9.554949782826865912e-03,-1.082519691944720808e-01,3.956870474348187644e-02,5.801155694278950503e-02,-1.444244594698562978e-01,-2.127967903391908555e-02,1.678886349276682011e-01,9.035485080523585066e-02,-2.886698801655048219e-01,1.922887173914015341e-02,-2.397271774852473281e-02,6.418451293147861385e-03,-2.785509272587715079e-01,3.149691421059038765e-01,5.590228377174813468e-02,-1.161329546919722955e-01,3.651284334755274807e-01,-1.636073474318703799e-02,-2.376931190102978264e-01,2.869433479928891820e-02,-1.102470240127834678e-01,9.163868137384036799e-03,1.894713210352244603e-01,7.539838139624566171e-02,2.860593002090011661e-01,9.886247404483881895e-02,2.029216524671534627e-01,1.897447354882101922e-01,-4.393452328668698975e-03,-7.266979432341386103e-02,8.852846003677586340e-02,-9.037893940020493011e-02,1.770516337477395508e-01,-3.001876255446854769e-01,3.495731666128734649e-02,-3.201557675805919434e-01,7.690013937519860066e-02,-1.961864843330463626e-01,-1.681878465152102375e-01,1.133432045598690430e-01,-1.643878625389138814e-01,8.793394149778109570e-02,2.480897641318157987e-01,-2.541487982984545480e-01,-9.123474983872943700e-02,3.268779327697945297e-02\n3.243933885994281230e-01,4.226082331038596984e-02,-5.900383199090458025e-02,-1.513700145801239738e-01,9.660296533124269891e-02,7.194651872188354003e-02,-9.104460466385257134e-02,7.675973508205882756e-02,-8.295239419647956747e-02,-9.294489058719834079e-03,6.585255025485517444e-02,7.283674336378972991e-02,-9.200788816030217032e-02,2.655484510284738392e-02,1.914003227300436691e-02,8.447714248584178853e-02,1.063717233509419852e-01,1.257788232152591001e-01,-7.160587050053725255e-02,-7.955597630641124407e-02,1.269706053503108223e-01,1.045764524364395653e-01,1.218869198630788547e-01,8.556963789969174172e-03,1.814409833778896641e-01,-8.210558829177329321e-02,-2.730877114310782672e-02,-5.118466520618112324e-03,6.682707989261575665e-02,-1.132672928913667498e-01,-1.136607544361536715e-01,1.754741589375103661e-01,-4.726319352762670817e-02,2.525013765947751176e-01,6.535448091534983017e-02,-3.539816226787845244e-01,2.885650496676660931e-02,-2.528575008323906692e-01,-7.394201942551457962e-02,-6.730460138163661676e-02,-4.767492299438539499e-02,1.950498817870483514e-01,-1.698327105912958990e-01,1.634993557855963231e-01,6.731173729390961535e-02,9.112968704081747529e-02,6.563605387598779595e-02,-7.812822605754909944e-02,-3.921163433946043830e-01,1.309218217812767038e-01,-3.008297673431160196e-02,4.047988591323503083e-01,-1.737989095675352424e-01,1.595594493586321161e-01,1.255494471374731802e-01,1.584556831926742515e-01,5.360184781111345526e-02,2.339085438237598902e-01,-5.025720257985410999e-02,1.650903184067836205e-01,-1.652904020448332789e-01,-4.451865007203865271e-02,3.057534944050146475e-01,-2.046553407497421206e-01,3.326192349685071908e-02,1.056955587133445590e-01,8.008625589430286296e-02,2.482731227317385714e-01,-2.074189123801228052e-01,-1.506497759698493533e-01,-2.561551607021823052e-01,-1.354288481487101181e-01,1.324004667942813296e-01,-6.846636679448080132e-02,4.110605050954069944e-02,8.504024811018066898e-02,-9.357317528246496263e-02,-7.045106479942211952e-02,9.891993192265569751e-03,-1.065250575231186936e-01,6.669477279837564276e-02,-1.347287533582061936e-01,-4.579125251819120279e-02,-2.176827335345914161e-01,9.514548567550028257e-02,-6.856169292595203080e-02,-1.563017786909652040e-01,2.174424997378057722e-01,9.062142812149216742e-02,-1.012805903226757787e-01,-1.702467873718816194e-01,1.637274009127406837e-01,8.723060207300958879e-02,-4.133211657721011512e-02,-9.848014788817319176e-02,-3.600917950820521352e-01,3.080344388314907311e-01,7.408672401449140077e-02,2.662992745070612011e-01,7.519380279713246129e-02\n1.715410104433537919e-01,-7.952239606092434410e-02,1.369579025737629151e-03,3.485436840223601201e-02,-5.437604447199219371e-02,-1.118591029189950486e-01,-1.875608124832505580e-02,-9.149396614463697897e-02,1.506945066831692215e-01,6.181596808734526882e-02,3.329743971726226159e-02,2.847241714819290226e-01,-1.592126267504514747e-01,3.332859168359350588e-02,6.637146519656414445e-02,9.796508528353831818e-03,-2.686301477520209313e-01,1.463287213117723806e-01,-2.538136506170798334e-01,-2.258295840011406153e-01,-1.732181205232523891e-01,-4.501314403879110027e-02,-4.338363850238967367e-02,8.406040094295189058e-02,1.477998056873431609e-01,8.214963223420686245e-02,-1.540794633960255178e-01,-1.423528276447537655e-01,7.296573935938098499e-02,1.738011282491813969e-01,8.238621608390307716e-02,1.371993707307375340e-02,-1.353272333236094083e-01,1.491947203314117620e-01,1.069741561933961055e-01,-1.079876800926839187e-01,-1.462351647418197453e-01,8.631384430313879252e-02,-1.207763781380721824e-01,-9.523612475204498717e-02,-9.866056641751132228e-02,-1.110549041990153002e-01,5.350589912837942774e-02,1.943159874702505008e-01,1.819516715193584405e-02,2.077515230049237910e-02,2.110837179614771242e-01,-9.073908345471710934e-02,-6.361604809512151626e-02,5.328510966170246776e-02,-7.747883436020656933e-02,4.659765593892562646e-02,2.111955105753736406e-01,2.232424031002488637e-02,1.115552499055213198e-01,8.758369661269932438e-02,-9.155005023047628476e-02,-1.904908462070253328e-01,-6.217194274224573276e-03,9.101288434735722854e-02,1.513065835461875966e-02,2.527428222051961507e-02,6.959178037465110767e-02,1.260175834800767170e-01,2.972654374782155995e-01,1.208847705337031259e-01,6.536037093584282434e-03,5.767924568879324518e-03,1.331792484781793573e-01,3.893215451249972675e-02,8.121276028435286953e-02,-1.145871231857474581e-01,3.974682926685191992e-02,1.135327467602215007e-01,-8.813156075492817321e-02,1.863717189776118721e-01,-2.316800719624236352e-02,-1.895657297592859628e-02,-2.909299112960085643e-02,4.225318480713725899e-02,-1.810842199965127797e-01,-2.896759301138766146e-02,-1.041830847885486244e-01,6.600575787491605451e-02,1.633050230320997054e-01,-6.839684760554774756e-02,1.374164642426614902e-01,1.841641123376030198e-01,2.692589599133720646e-01,-1.568381767370446989e-02,-1.121164409691500774e-01,3.812199765748831848e-02,-4.446002139277833304e-03,-1.819295138551021429e-01,9.917820880448766779e-03,1.743087830218297551e-01,-6.825811587979818684e-02,8.603666342980177684e-02,3.180324476334370210e-02,-3.524414643837763816e-01\n7.089121544317476820e-02,1.434271994765239089e-01,-9.843448901586303312e-02,1.704824876534423717e-01,-1.040181971923890003e-01,-2.222564128323277835e-02,-1.749333775908694655e-01,1.448728281305377598e-02,-4.751887143915939360e-02,-2.125297078659633271e-02,-1.658378418084364425e-01,-2.440070086502823046e-02,3.289786388263823969e-02,-6.020378197675366888e-02,7.997139551691333226e-02,4.369738724094315852e-01,-8.980586842682378168e-02,1.087493746045923859e-01,1.492808173425180795e-01,1.094201191723929018e-01,1.286371570543891341e-01,-3.837489833008833617e-02,-3.032240389451814830e-02,2.052256960428331389e-01,1.460647102940094144e-01,3.683812605423106984e-02,-1.925444173593756914e-01,1.314217238171123958e-01,-9.321573497398671915e-02,-4.580925568523854310e-03,-3.227065535299842441e-02,9.724801553614628724e-02,3.369794631662534901e-01,1.916449026597752681e-01,-4.140388896085288317e-02,1.757245910561449631e-01,-4.076298935539537927e-02,-1.453599147063886765e-01,-2.161601955825623311e-02,-1.269585798591023329e-02,1.119934194521272075e-01,-3.952725237827313387e-02,-9.047734127158491013e-02,-2.179913259060096142e-01,7.364842742068455211e-04,3.407073820819037091e-02,-7.709799898868414936e-02,-5.151252210785366159e-02,1.232626878583226587e-01,2.192750963059734715e-01,-1.680133721208696557e-02,2.156228616679536081e-01,-1.600483721806141846e-01,-1.720876006522528701e-01,3.079830415971187563e-01,-2.050692559793429112e-02,-2.757468410782146773e-01,3.090057113610293962e-02,2.985733419804525446e-01,-9.580842881004156264e-02,-5.389946675692906114e-02,1.884681439111874357e-01,-2.223908022677417370e-02,-1.804702702979736617e-02,-2.835602372800755458e-02,-1.965015629386566987e-02,4.765557637788878087e-02,5.277994449563853420e-03,-1.391758928729393274e-02,-8.209580506576842629e-02,-2.428001203390014670e-02,2.247077285031590654e-01,-2.487676534247674695e-02,2.192069014879157729e-01,2.342920246693716568e-01,4.618927253532726512e-02,3.622701651540546908e-02,9.550775511033737786e-02,3.693833442017106783e-02,-3.088792967057641184e-02,-1.651721503169748806e-01,3.027837889959976714e-01,-2.272927157032936518e-01,-1.096401579057690451e-01,1.335184926353242818e-01,4.780944512642960192e-02,-8.441562080889095099e-02,2.085382903752397155e-01,-7.611974846491251223e-02,7.899953756100472346e-02,2.566771878493888659e-01,-3.425343834828929734e-02,1.233043854543795226e-01,-1.971242920101464735e-01,-2.130793411123561576e-01,5.298781372676212437e-02,-1.828795023706871192e-01,6.970144714351511617e-02,-1.211753929400310181e-01,5.802972822486274912e-02\n-9.043018643603691065e-02,-7.716981284084195591e-02,6.912573815512106090e-02,9.571853199818317059e-02,1.693855655076713651e-01,-1.816027225331521278e-01,1.416126823730191053e-01,1.250062015545776346e-02,1.395254572120771877e-02,-9.032017755006926593e-03,-1.725819635512844674e-01,-6.017024934483434367e-02,-1.141172870998487798e-01,-1.482377267338738647e-01,-2.482813965091893171e-01,2.571057603534955271e-01,1.256920402639636059e-01,-6.221816610420190935e-02,-5.625809854669068522e-02,1.652221248885571148e-01,-1.550164322199343858e-01,-6.308861490724329557e-02,2.032737149366507512e-01,6.016694410558089123e-02,4.652704159120430588e-02,1.306252547529962726e-01,2.190698141421812684e-01,1.022336012148582218e-01,1.760564280130624132e-02,1.465198285230844832e-01,-1.244863854456759733e-01,-5.727435912003619317e-02,-7.794728752096018176e-02,-1.279269905849464151e-01,-9.480148151806784551e-02,-9.251680090748670704e-02,1.077711432888392024e-01,-4.415204567499741301e-02,-6.158050985783340703e-02,3.008570135175870491e-02,-4.080857923264192416e-02,3.754646634922579468e-02,4.260679477778370194e-02,8.539084483267427028e-02,-4.147188280270389799e-02,1.671321953932358717e-01,-3.287303674786886676e-01,8.145735453019961603e-02,1.471114758718050919e-01,1.256283502682586928e-01,4.875393884048503934e-02,-4.333440984045620198e-02,-6.864255794404390543e-02,-4.565869377975361604e-02,-1.110575325372718525e-01,6.135679373521891328e-02,1.701664588451695659e-01,1.458215697690960488e-01,-1.719881275342927396e-01,1.823707581976632408e-01,9.766493205251118581e-02,1.628518997232537846e-02,8.410458631895006976e-02,-2.335030374861557234e-01,2.100220655872102882e-01,2.958534591092993882e-01,-1.962880645413075595e-02,5.080988980435940938e-02,2.400448361859188473e-01,-5.176582716171061055e-02,1.994999543406628106e-01,4.774696734001928483e-02,-4.620432823231977043e-02,-3.829695372107064927e-02,4.558195453893498089e-02,-5.703832681328203230e-02,6.973924293765092208e-02,8.184862372590477608e-02,1.370589659746910827e-01,-1.930360927094378343e-01,1.737549019106912618e-01,1.670278753951372763e-01,6.449156002206975213e-02,1.010264902568531187e-01,-5.740098045199001214e-02,8.960342689208156131e-02,-1.433660296924345046e-01,2.858486179137287864e-01,-5.924616137725483705e-02,1.496836500621412033e-03,6.895691765872445644e-02,-5.936627816907517202e-02,-1.736547877316230726e-01,2.854317700253096723e-01,4.742342378877104775e-02,-6.837790619747131926e-02,4.883662574023951986e-01,1.284448846703499791e-01,-7.271169573663044394e-02,-2.355073581422086060e-01\n6.635858488038649111e-03,2.524646707520938546e-02,-2.960320625932100214e-02,3.708527771447378291e-03,-3.199872286818886830e-02,9.113347841876370814e-02,6.317974843814140595e-03,3.812048948125761755e-02,-2.545416399796043838e-02,-9.466449706626542393e-02,-1.073113523409298942e-01,8.614969461666141526e-02,4.823705807662063971e-02,-1.679275468648347980e-01,-3.139940654655531266e-02,6.541846745554469322e-02,-1.502275427877545685e-02,5.866771803887529946e-02,-2.466412950313512098e-01,6.339957901680025147e-03,-5.729285365135552283e-02,-3.967392544332915688e-02,4.065825149141158446e-01,2.147301601238169391e-02,-1.095293544004207059e-01,1.254837180741342172e-02,1.605410244551425114e-01,1.774753501577719661e-01,-5.691478974294764473e-03,-5.101221194743052467e-02,-1.437296832894237597e-01,-1.599252508769170300e-01,-1.030231890699033898e-01,1.305375619242236385e-01,-4.720979565322645181e-04,-5.784691448351263893e-02,2.445744230665249652e-01,1.346488063173462424e-01,-1.169381772858126278e-01,-2.180949219096700309e-01,-2.387527815919755336e-03,1.345189760615288499e-01,-9.476041168579388274e-02,-1.580414424485370728e-01,7.812662837362542578e-02,5.101533638258515246e-02,1.817302357063673435e-01,1.071487408865670898e-01,-5.208794173194736948e-02,3.367935303670092917e-02,-2.427773984184039002e-01,7.054943115387310101e-03,-2.409241676553106060e-01,4.348166572444074618e-02,2.323813255974100656e-01,1.338773468222841379e-01,1.078541830181912603e-01,-1.449884944634270145e-01,-1.343427666530376541e-01,-3.700663274460359864e-02,-1.217865766683578765e-01,5.326652369238117158e-04,-3.279062533045570826e-02,-1.410068344925121710e-02,-2.505655020340812889e-01,-1.389643996823719529e-01,-1.939216518947892709e-01,1.078385496103232977e-01,-1.029356287078430354e-01,5.986656020719888921e-02,-5.549455628858183248e-02,1.901682720064887602e-02,1.230445370883563733e-01,-9.120832740094472757e-02,-6.852069688353637500e-02,1.093858034124846335e-01,2.126180520301687582e-02,-7.172222111322383575e-02,9.502690843846238813e-03,-2.374641384917323961e-01,2.313250636906558078e-02,-7.440551883680172332e-04,-6.315259525584066003e-02,-3.306298984439842714e-02,6.916503881033038426e-02,-7.724207934943942699e-02,6.259598057561638340e-02,-6.629133737539590066e-02,1.322213430859914551e-01,-1.558204585500287953e-01,-6.457132536716919669e-02,1.194225897672851477e-01,-3.140512047364365511e-01,1.777990527251255976e-02,9.879643376554539391e-02,5.033535022738926806e-02,6.147366337535795089e-02,-7.558361413121304773e-02,2.956369318107606170e-01,1.182843649639619688e-01\n1.983349926693096232e-01,-1.686045716717576581e-01,-1.324098075697294208e-01,-4.280653770819468906e-02,-9.163270622470730264e-02,2.669621137495819529e-01,8.838815870809266229e-02,-2.573924690523429065e-02,-2.493112288869117968e-02,-7.310952076486355866e-02,-1.139185915340610311e-01,-1.784854371339810730e-01,5.075278939183622967e-02,-2.147275815027078691e-02,1.703831149932368838e-01,2.534733261350933034e-02,-1.609752566024384990e-01,-7.706628622148695151e-02,-6.872128326268928111e-02,-1.100282185680638153e-01,1.325418341645805687e-01,1.832979558281475907e-01,-2.737716252415773807e-02,8.486863538256282646e-02,-1.330642548981350870e-01,-1.484825781088213725e-01,-1.355361946975335019e-01,5.173470250234050299e-02,3.193091380567984749e-02,6.312143706842449076e-02,-5.667073570326519594e-02,-1.103585830017698999e-01,7.267598186875949551e-02,-9.399874220124890267e-02,2.568671906612169376e-01,1.640478550717623107e-01,-2.959977805314519261e-01,-1.842432495984265561e-01,2.145752170501419309e-02,2.929718499521850742e-04,-1.853635057919236218e-01,1.085053683546192277e-01,-1.411372799318802163e-01,-1.309287025638913027e-01,-1.622844992456293212e-01,-4.451991015495632836e-02,-1.020630560519242974e-01,-1.211338262812993449e-01,1.347577111066326216e-01,-7.405101086028006985e-02,-1.419038162973487449e-01,-1.006873565851263003e-01,1.311019241659040213e-01,-1.001422718200386808e-01,2.262362207247542722e-01,-5.775336298129248036e-02,1.083090473227681615e-02,-9.022516976735291128e-02,-1.795706387058819686e-01,9.640421762373181658e-02,-1.279821281844235603e-01,-5.813470247032062610e-02,-1.671957988854174196e-02,4.762289930682368777e-02,1.147517132545617345e-02,-1.422730619369977530e-02,8.052502843441750047e-02,1.210323508458091418e-01,1.074838271321195693e-01,-1.300541222000404229e-01,-3.771708803590885228e-01,4.987905878471116106e-02,7.724270376538212857e-02,1.471653861205129699e-01,1.219559154472958998e-02,1.313977767731756563e-01,-5.397633062840243197e-03,-1.796151975604479700e-01,2.289824880212301961e-01,-2.014676829286465576e-01,5.638647846557300752e-02,-4.925989091884716564e-02,-2.915311721494658337e-01,1.806916522101195965e-01,-1.121917432828714450e-01,1.289546962327233759e-01,1.757643174346271986e-01,9.306744441216040220e-02,-3.408527667761745428e-01,-6.188473142996520071e-02,-2.704309502401006093e-01,1.505298430858707272e-02,4.792023213114579225e-03,2.444253233881141796e-01,-7.407710875356261770e-02,-1.575477369747296449e-02,1.119714245656358020e-01,-1.834625328696629365e-01,1.103988918580265793e-01,-1.715297682102576160e-01\n5.242366704627309665e-02,-5.340430605368423622e-02,1.962326548548892075e-02,-8.208511653027788027e-03,-2.296986124919938033e-01,7.970168377231277856e-02,-2.413824920170670463e-01,2.129599500460874206e-01,-2.445425803708279819e-02,4.089726975470406312e-02,1.431962597103263735e-01,6.861964942090524600e-02,7.815033553030069358e-02,1.150853087652674162e-01,4.919030903266070898e-02,1.810533123928924903e-01,-3.989749109470073773e-01,-1.183647749844122798e-01,2.556545477996213234e-01,6.244241765108816955e-02,8.795551503431067730e-02,1.741041761743622462e-01,-1.236119655678612900e-02,8.043838034003175652e-02,-6.218556730604685168e-02,2.163038179937897265e-01,-6.688332512173911226e-02,2.392457491847247431e-01,-3.870243268902928135e-01,1.011699616130155854e-01,5.517847350938295814e-02,-9.653206407498508140e-03,9.370918812967553302e-02,-2.089745335651219116e-01,-2.990971678771389350e-02,-1.183179731120171177e-02,1.097899449520956666e-01,1.057480658408005841e-01,1.887864150454760803e-01,6.309893030846996931e-02,1.089192251116248289e-01,-1.852908469233273125e-01,-1.388778141511644651e-02,9.709416100230183755e-02,1.464716874372953836e-01,7.223985722301723422e-02,3.865339011176067985e-02,-1.264959696232879072e-01,1.961799334900421188e-01,-1.666837703149874061e-01,-8.947716611904239781e-02,-2.803259993037698905e-01,-2.784623106725732378e-03,-3.954294621975867202e-02,-2.041790304715636328e-02,3.576850783850978738e-02,-7.620060680821432765e-03,8.829722734482969848e-02,5.044320491180753763e-02,-1.821112053580526413e-01,-4.368773620691056986e-02,-2.396535123432452438e-02,-8.748839976707865895e-02,1.569478727064469448e-01,-1.544017548092690428e-01,2.191274710297507200e-01,1.305128926334821748e-01,-1.047323392407141229e-01,2.508130276121365784e-02,1.327429826328468399e-01,-6.985029860202313090e-02,-3.890905553863311522e-02,-9.164543278856362302e-03,-1.301297864525002568e-01,9.338139750014085028e-02,-8.201243687264600513e-02,-2.709231193467123711e-02,1.121227015793718473e-01,9.969914559714138091e-02,1.403189607464323113e-02,1.985933064613844279e-01,1.400576080696340486e-01,8.595716095772193421e-02,-1.702895165593061588e-02,-1.701984400287122334e-02,1.329345231852790687e-01,-1.491116587237329705e-01,-2.000770132814863600e-01,8.660491911571081836e-02,1.764217852744379422e-01,1.194763627208704493e-01,-2.207499955637975408e-01,-2.047573941756384297e-01,-3.582759705870581235e-01,-5.207196393466434481e-02,1.008641575540953628e-01,1.114529141069596496e-02,-2.276074011554740928e-01,-7.120263957564565427e-02,6.353813167951274932e-02\n2.347006401257522301e-01,-5.790850750807911840e-02,-1.111258000372054577e-01,-4.905512776479208081e-02,1.862883163193240210e-01,3.001711549734396578e-01,2.151652876025900163e-01,-2.385073227444985469e-02,-3.829915775666566796e-02,6.614216314681015119e-02,-1.995141550201793568e-01,4.161041696244693715e-03,4.438832898672120941e-02,-1.306938081187165313e-01,-2.916395057121285231e-02,-1.815860173443679115e-01,1.979795518467634130e-01,-1.691178213315353007e-01,-6.804710145423956136e-02,6.543495761188469761e-02,-1.194721846044128066e-01,-5.008075980122019683e-02,2.085284843128960008e-01,-1.038484079966120049e-01,-1.447377592262961421e-01,1.582874146618659106e-01,1.530125588283512139e-01,-1.354957554434685907e-01,-1.107089312915446842e-02,2.675800689672958380e-02,-1.227175909451666547e-01,1.312168024000660155e-02,1.446864242869471961e-01,1.723436480617133171e-01,2.585787989118935037e-01,-8.116758354551277185e-03,-3.504869796183969488e-02,-3.408902605461527208e-02,7.745020625581175433e-02,-5.765486690345611627e-03,-6.577887310185746850e-02,-2.065206709298604559e-02,1.817931949305228168e-01,3.881074173167201602e-01,-1.553201141879154423e-01,8.864291774884057451e-02,-5.619828939637409870e-02,-1.869329573043623238e-01,3.033888285578206431e-02,-5.700636987074638590e-02,-4.658022999175141787e-02,-4.748907527241943288e-02,-4.809235755584111149e-02,1.111090463206734352e-01,6.022976220574732809e-02,-3.335054891673830402e-02,-3.088644070081226767e-01,1.060181895416387882e-01,1.399644575188519480e-01,-1.066671431613656629e-01,1.111661077456907454e-01,-1.884819327075875073e-01,1.641737769418077364e-01,-1.111130730788979087e-01,1.246326097970276714e-01,2.812427903561915982e-03,1.839328440413783711e-02,-1.281420196694607050e-01,3.975762841707760065e-01,-2.121958716303385395e-01,-3.862359922719406369e-02,9.783801164561846744e-03,1.942072636562752197e-01,2.308792675431764474e-01,6.528749173520123628e-02,8.962339151960891509e-03,-1.995555165294819050e-02,1.152911432398403130e-01,-1.631826853253391940e-01,-1.335209890039366631e-01,1.441492627049477566e-02,3.970003136784390207e-01,-3.980903909853179823e-02,1.688081907474827947e-01,-2.813531212703386797e-01,-3.190266032799934925e-02,1.798681473101431394e-01,-3.895725408671638634e-01,1.562491802794606088e-01,-3.178286869218862054e-01,2.968489845493145762e-01,-7.296565790288507547e-02,6.713683077628442020e-02,-6.065518463265977267e-02,-1.034862707156929545e-01,-1.622869495371161430e-01,-4.081364973876576430e-02,5.546040486350179571e-02,-2.633307810209173719e-02,1.278613528402125221e-01\n-1.573828485151989309e-01,7.554210367854584385e-02,3.374724261908475242e-02,2.011324898979348907e-01,3.528351131084070391e-02,1.437527053545768763e-01,2.827568379417328970e-01,1.338766085816184004e-01,6.121143248448695368e-02,3.064225074129759904e-02,-5.055288669760020503e-02,1.923764232792403439e-01,-1.012645065348757173e-01,-1.944088369327963764e-02,4.434645897803792675e-02,-6.898240115832931499e-04,-1.642398126530326130e-01,9.222827447902867681e-02,1.399514781192006119e-01,7.302362830407675698e-02,3.112490696034234811e-02,2.039451857178434802e-01,-1.307397061838032060e-01,-5.861266745942048106e-02,-4.798390526899619368e-02,1.274781415961902808e-01,5.029196647521488178e-02,-1.578837932243759568e-01,-1.683936169554646756e-01,5.052024483154381879e-02,2.505215733506858666e-01,-1.824578499672102399e-04,-1.829253983517840076e-01,3.026399925634625995e-02,2.926007397139545468e-02,1.497014641826894810e-01,-3.068206491795645238e-02,-1.529894291203899581e-01,7.397869513038174416e-02,1.387612648917436464e-01,-1.686483748652019277e-01,2.180706668069537224e-01,2.194316277449263192e-04,-2.355348375249387838e-01,3.740093753295098966e-01,7.034027393657206473e-02,-1.534231637009865305e-02,-1.527225207853428190e-01,-1.077695553785544963e-01,-3.738549807417922977e-01,-1.877074283364428275e-01,9.345496827053272060e-02,-2.365618875259038745e-01,1.488967317572905957e-01,2.873366635723968721e-02,1.494199260818539765e-01,2.523479532242217105e-01,-1.469544069405858133e-01,-2.836803752939268813e-02,-2.068736266949550429e-01,3.363786960972703355e-01,2.054217870845012617e-01,-1.751912297248177930e-01,1.894927355556264570e-01,8.183444579077885084e-02,2.320925387992956238e-02,-3.406495275815069751e-02,-1.931395282055419216e-01,-1.775273433141456303e-01,-3.275309888302896377e-02,4.981956209066425861e-02,5.579049002221882214e-02,3.969787013357973376e-02,-4.054354931831218312e-01,2.289131472320916072e-01,-5.623253421251830225e-02,-2.387106863266365980e-02,-9.146948641917848621e-02,1.135040610842857206e-01,2.157302607549740382e-03,-6.295070961804175025e-02,-1.556762686630464299e-01,4.202543078025749307e-02,9.337773620115276396e-02,7.239076710759138888e-02,3.738385378712474894e-01,2.095282837441917205e-04,1.534845012489720502e-02,-2.086498149485060960e-01,-2.723805431260289261e-02,1.915627830655744490e-01,1.096419505539567851e-01,-1.803342137377861309e-01,-7.551056378303039329e-02,8.988981271730961398e-02,1.738644945300017036e-02,-9.822795032106682034e-02,-3.755944885345439965e-03,1.502202902026686659e-01,-3.803087803741480033e-01\n1.138822690057860743e-01,-4.656801717271491503e-02,3.155108322867144349e-02,2.863956709942391127e-02,3.635632350485161757e-01,3.489971436239843738e-01,1.409319677763868350e-01,-1.352226379070410600e-01,2.348087691219828133e-01,4.649388398384809995e-02,1.855725358048737270e-02,-1.223528685120746883e-02,-5.576115604032635953e-02,1.353808234514028985e-01,9.109137250341539649e-02,-1.105407254759359498e-01,1.239493381744737402e-02,-7.818801746291483001e-02,6.893093206698117266e-03,1.369050382810209181e-02,-8.124338530513873502e-02,1.146472804348172003e-01,-7.055188220645254582e-02,-2.579072126522548025e-01,-9.558853516548959650e-02,-3.609417648343795498e-02,-1.865699967764059275e-01,2.004574153726285807e-02,-2.295890640079860032e-02,9.290134501033171788e-02,1.016963450191407797e-01,1.065818741912316070e-01,1.258959699109747365e-01,7.079134852192710443e-03,-8.900850864411354035e-02,6.915266363201898192e-02,2.017949508864739783e-01,3.653772238711971432e-01,8.849089864490624138e-03,-2.892984471989529585e-02,-1.144369563233689907e-01,-7.832820735764192688e-02,3.741766905352805761e-02,-2.186849952547118281e-01,4.389458424129714931e-02,5.362084335426389042e-02,1.444299646502979206e-01,-7.179415863239352324e-02,-1.229871144028966690e-01,-2.699047966622724476e-02,-1.895722093794598440e-01,4.042229676271104355e-02,7.651240788970534168e-02,-1.267104282445948537e-04,1.974197590363556062e-02,-1.085616912834565795e-01,-1.191806593587845381e-01,-8.591181491778110413e-02,-4.302381196130881241e-02,-4.189951868865796070e-03,1.226205184406177207e-01,1.164296895093167167e-01,-1.551833224130424460e-01,1.343527002076960741e-01,-6.029502495775356484e-03,-3.734774788346806318e-02,-2.236134686273234529e-01,8.232756319392105573e-03,3.605656172318984914e-02,-2.106902244889213502e-02,-4.955301926051407929e-03,-1.562942614085689741e-01,1.161215775822529300e-01,8.571361292460238923e-02,-2.243579141188178638e-01,1.269811176533063579e-01,-2.556425762855646378e-01,1.138063784271944739e-01,1.685117096795180902e-01,1.298472829375975635e-01,-1.357172945738223668e-01,9.893987991892573552e-02,-2.326689142690861745e-01,5.546701182259863167e-02,6.807513496355080407e-02,-1.793061289685473902e-01,-4.623043574982137888e-02,-1.218152578378823257e-02,1.175653217081860102e-01,-9.506098635284761234e-02,2.531702625071726928e-02,-6.047513012239919689e-02,-8.750698129995059318e-03,5.730287000271754722e-02,1.366429940310193332e-02,2.595916022326781314e-01,2.151905220022904686e-01,-6.015090288259442031e-02,-4.132020733601318024e-02,-1.563162813632197265e-02\n1.273104689415045787e-01,-2.343448778859162362e-01,-6.549998202891935128e-02,1.193318413082443546e-01,2.506168152566710244e-02,1.369270653207960153e-01,-6.117983513845731691e-02,-1.540118571263006386e-01,1.225738826666063486e-01,1.140284606371336495e-01,2.232660822807901457e-01,-2.036715418472567485e-01,4.446320722984522383e-02,9.650157144024747169e-02,9.158703496911355102e-02,1.661333994457238616e-01,-4.270481489455965618e-02,1.038482133403704905e-01,-1.760439382458647006e-01,-1.852504256049975762e-01,-1.856110582239168805e-01,-1.499206548136055306e-01,-1.112208629356179757e-01,-2.122326867880099804e-02,2.562476704024386764e-01,4.317034224204734094e-02,-1.313845568554171395e-01,-3.011628679637043393e-02,6.619992761402736237e-02,5.724703019698458573e-02,8.655752681668638093e-02,-4.208077798002137632e-02,-1.382993060144937225e-01,1.500603276709715772e-01,1.346065303550854630e-01,2.681825650397443028e-01,1.853572594449992283e-01,-1.286429595245107693e-01,-8.544970220121370086e-02,3.184373033646517026e-01,-2.461819406021168999e-01,9.200753915019913021e-02,8.470497489450613815e-02,-4.649351127803365985e-02,-2.454299448887393292e-02,-4.523072878878785230e-02,1.143394737918961429e-01,3.980818067148778061e-02,1.371914822069305873e-01,4.852650609790880309e-02,1.110760258325929895e-01,-1.260853419882136117e-01,9.589930923295013343e-02,1.547349968509501017e-02,-5.630391236207649835e-02,-9.290719525235599519e-02,-5.017860914559191254e-02,-2.552787701666931527e-03,-1.231557300695953205e-01,-1.437209467492811879e-02,9.337909125714663472e-02,2.459438617072773059e-01,-6.170093974819253896e-02,-1.330169893892056976e-01,5.083346720779030603e-02,-1.478614834572893333e-01,-1.868175543135261463e-02,-2.350795166355513222e-01,1.593875053209518611e-01,-2.535326853950877757e-01,-8.785686619436743061e-02,-5.286045494392719452e-02,-2.011146334410149616e-01,5.288449998930731116e-02,4.652705532637534114e-02,1.930552793940035483e-01,4.096200662777600005e-02,9.786467670495753446e-02,2.176937212691636148e-01,-1.111297270538475490e-01,-3.715052867575468348e-02,2.164725731067461759e-02,-2.054072737713836250e-01,-5.153830616170924223e-02,9.862965180013452682e-02,-1.920038013872729932e-01,1.217510780879563631e-01,-7.956791515188270381e-02,-1.819052808540271571e-01,3.082829256501783133e-02,2.132806664689619325e-01,-6.400810884792906830e-02,6.096544466490803893e-02,1.269828513948359321e-02,1.767805282632614605e-01,6.063070373828546855e-02,1.744011714383569278e-01,2.465493817845300709e-02,1.776365853791304628e-01,-8.306766298608972768e-03\n1.726701914123006040e-02,-1.587977541033064877e-01,-1.603451759536970722e-01,1.311249657199493046e-01,1.386918265577119502e-01,-2.484843577143786286e-01,-3.300398276500825234e-02,3.330132269356238933e-02,-1.163442044765774230e-01,1.271813841314376609e-02,1.764346874293130085e-01,-1.487693230875682671e-01,-2.986028713956169478e-02,-3.935490166063727868e-02,-8.986910176443994869e-02,-1.534107932945088792e-01,-1.797700033543346287e-01,9.154487455805061791e-02,-2.005708748963185017e-01,1.299552970511224093e-01,-9.342447207272260024e-02,-7.903543557151582535e-03,9.819412770072855068e-02,-6.106507406410335848e-02,8.769836994626788174e-02,1.607989232463683804e-01,-6.984275737834838571e-02,-1.130379466126863464e-01,-2.452851297525760615e-02,8.552952963284016219e-02,8.552090605784755384e-02,5.894568056052260085e-02,1.441803114128768944e-02,4.315895580588220010e-02,4.829770029793310077e-02,-1.033877514042989554e-01,3.134915943675558037e-01,2.095791177787225679e-01,3.814584245918625216e-01,-1.183489970352571419e-01,1.376228145665386038e-01,-5.548974899972862473e-02,2.887779935108692464e-01,3.572533070254613197e-02,4.379999328488360516e-02,8.129789225686617771e-02,4.931350782971354735e-02,7.330974593919654947e-02,-2.746908116647936784e-02,1.475906921768961877e-01,-1.219141221070779157e-01,-1.131850561315952686e-01,-1.305290603013279094e-01,1.778551555532100620e-02,1.277193010477032098e-01,-1.257278342969195620e-02,7.402579400542215471e-02,2.545445424203974238e-01,-1.037992032831298872e-01,-2.974760575900508783e-02,7.818005484618342771e-02,-2.527549543203564189e-02,1.065271645361844377e-01,-9.295478428832054663e-02,1.138958377392422922e-01,-8.461227290777485754e-02,-5.590064375964687998e-02,6.516310084059072361e-02,2.361302717839185161e-02,6.452924515232826008e-02,-7.909882717268140739e-03,-1.835723441116176857e-01,1.227113881761573433e-01,-2.223141930311934855e-01,-4.640742195970946893e-02,-2.883779313887432916e-02,-1.647125813293423002e-01,3.341242501082979099e-02,-1.833176151287697550e-02,8.920065553297172600e-02,7.840031546244154159e-02,-2.470773957879165983e-01,1.985048134774366202e-01,-1.929982420795214593e-01,-1.473522872951034401e-01,-1.023464433910934723e-01,4.850781282385894372e-02,-3.826123519949278101e-02,1.007981079604661767e-01,4.029457945719763790e-01,1.175447029257345039e-01,-9.427243063196621975e-02,7.766503794728038534e-02,1.251869135497997963e-02,-4.227523710568303894e-02,4.785587742343071216e-02,-4.209436057238716972e-02,3.488311819712879187e-03,-2.171002616837732629e-02,5.430336969639999040e-02\n2.174758752117922633e-01,1.023432917739746512e-01,1.184369299873434395e-01,-8.071763986388663659e-02,5.057507817338516287e-02,5.504478247013688125e-02,-2.574411687592792833e-02,-9.004309003627682106e-02,3.748927522641857246e-01,-1.639385954670999901e-01,4.116965260078232075e-02,2.366786334874058373e-01,1.261599952613492170e-01,-3.865102368552481710e-02,7.464877567631535149e-02,1.832407868071084245e-01,1.255814393883045998e-01,-4.129332164382532727e-02,7.586090181699191304e-02,-4.769294777641140681e-02,-6.514422051265962577e-02,1.405355799241184665e-02,8.073217557506760789e-02,2.188958163245808830e-01,2.295901937642719770e-01,-6.324582456985308743e-02,1.679120030042993428e-01,-2.492113155982125447e-02,2.663888146154929498e-02,-1.086764859876649392e-01,-2.745910628370203110e-02,5.684867499441272065e-02,-1.555933277886289989e-01,7.606467742156362843e-02,3.693104600224435957e-02,2.794416851555966280e-02,-5.903662210839049490e-02,1.240839382531840618e-01,-1.195407836256476286e-02,-2.027774068463402413e-01,2.264979121220255312e-02,-1.969900882851053914e-01,3.367428755509933175e-02,4.277057166528968474e-03,-2.277724990546925177e-01,4.707497713807287849e-04,4.964818405868708096e-02,-6.918658350735855888e-05,-2.088102107342584412e-04,-6.772458966121235047e-02,-1.063242113219065865e-01,-1.807395038861211653e-02,1.606154867540344755e-01,6.873378267015925469e-02,1.008287768512856897e-01,2.839606560810644664e-01,-1.239426265539139010e-01,-1.552413004347596992e-01,-1.381593627741087016e-01,-1.291337839208403782e-01,1.682579515474854903e-01,-8.730414380736754854e-02,-1.379198697345887514e-01,-9.817579152335216552e-02,2.295049027870939007e-01,-4.064621531790200970e-02,8.492372756909005727e-02,1.208830229943112095e-01,-2.346873365524025298e-02,-1.132830637597685569e-01,-1.210026822168928512e-01,-4.215897609270582991e-02,-1.116611682509674741e-01,-1.030599237678674202e-01,1.000928212550794005e-01,8.568915069665407336e-02,-2.921993214366270727e-02,-7.351739319382524784e-02,-1.424840304164425031e-02,1.669836526214378836e-01,7.778288402658876943e-02,-1.245696003125942725e-01,-4.058007366637938346e-02,1.826212969079934467e-01,-1.537658216485455753e-01,1.510144176300116069e-02,7.070852302670342648e-02,3.204006133260337008e-01,-5.330650898295543477e-02,-5.715573462733161691e-02,3.862377852529430555e-02,1.227436004650382384e-01,1.902857199993006621e-01,2.378409776767979183e-02,-8.009467348973768608e-02,2.337767376365137983e-02,1.237638553677978259e-01,9.826819616027522575e-02,-7.221732409164006994e-02,-3.659708912896332822e-01\n-6.810131616197930005e-02,-2.250805231388586236e-01,8.135406609879139439e-02,-8.948246287269558119e-02,1.809012481262885497e-01,1.454816409791605814e-01,-8.143219789409876508e-02,-1.026231042776573343e-01,-4.477553426729361657e-02,5.626497362249103813e-04,1.054461781912764268e-01,1.218580030162588479e-01,8.167064755569308776e-02,3.457204745550661318e-05,1.119703286359812061e-01,1.275514810498797058e-01,4.667299646645300427e-03,1.802124785137289298e-02,-1.715130436865909269e-01,3.017985035759994661e-01,-1.560766149163223260e-01,6.052193398969805960e-02,3.190923404749411441e-02,-2.431163247771841729e-01,2.526909972457446196e-01,-1.412326364047975513e-01,1.675497489525241968e-01,1.908906328725211779e-02,1.232586228277101070e-01,-4.418407098145795547e-02,2.809365029217088527e-01,-4.003711002539018377e-02,-3.701975664357484014e-02,5.288576551191006420e-02,6.882867842676218539e-02,6.818595982502005659e-02,-1.420861519099880232e-01,-1.611710880738339013e-01,-2.365918694471239314e-01,1.443100430061438899e-01,3.623092845576343646e-02,1.842412925051412631e-01,-1.751033965260039849e-01,-2.823034291675987628e-01,-3.199155391283174388e-01,3.823808908234849896e-02,7.673452025938824750e-02,1.357887449876266361e-01,7.155058779426863060e-03,1.844465542298120431e-01,1.085191873950484831e-01,6.004145015815452041e-02,-1.759292045282251707e-02,3.202944490950987433e-02,8.848989050668842893e-02,-8.655684637772514956e-02,-5.405045337810442628e-03,3.068881758126791939e-02,7.292032863311603830e-02,1.287949209054956579e-01,-1.713065496656194786e-01,1.211263385328942427e-01,2.416848554092001777e-01,-7.799008016966489654e-02,-7.183318781400949149e-02,1.094558891498268738e-01,1.933879318702536598e-01,-2.223530605418537823e-03,-2.432079460227908052e-01,1.454397731371410152e-01,-3.002206017989657583e-01,1.454100570038305978e-02,1.560946637865306443e-02,-1.956831646197446650e-01,2.124465348089894234e-01,-2.351977280291209504e-01,1.046524301139527685e-01,6.427208125336250286e-03,1.180440396957878751e-01,-6.857209458475352348e-02,3.661159468181984789e-01,2.763024305906804923e-01,2.952047747354970622e-02,5.649658278947284479e-02,7.716004566820607036e-02,-1.338951926595013109e-01,-1.321481000019594787e-01,-1.016316950040084266e-01,-1.681010505720408887e-01,1.035897955338500320e-01,5.460611340914343914e-02,-6.046586102533852564e-02,3.564205563931989451e-02,1.421662209305412927e-01,-4.733362142827195196e-02,-2.154589227873517643e-01,2.479889399479728862e-01,-2.372770929341548318e-01,2.492315263791523294e-01,2.580104295891767485e-01\n3.122860234081331621e-02,1.595044302361816047e-01,3.108899882535700373e-03,-1.429751192123298598e-01,-3.449154515291655287e-01,7.044145047466145171e-02,-1.142401487106323443e-01,4.252025996795585211e-02,1.077108331680700776e-01,-6.134344265451732031e-02,1.327195932386560084e-01,1.228851969948547840e-01,-8.138404932380360890e-02,1.475057641869406688e-01,7.115171572483655615e-02,2.486446586390614610e-01,9.745967771206694163e-02,-3.841653831818904186e-01,2.848354730126933035e-02,-2.738229420200420303e-02,-7.024451076352639621e-03,3.193936529698502280e-01,-4.377590741811287350e-02,1.012521925705091169e-01,9.173393493860104719e-02,1.263830135276821920e-01,6.107721263274994150e-02,4.444944056337147426e-02,1.442051264504935759e-02,-4.210741793838582159e-02,1.057213663620970717e-01,-1.546489162536791306e-01,5.093341975186441162e-02,-1.672865277560341979e-01,7.734473032747349926e-04,2.389890661339600098e-01,1.121172191980155108e-01,-2.678701087714057127e-01,3.093032612714466736e-03,-2.602523357519850311e-01,4.457573803041921939e-02,1.478541358339506839e-01,-5.488194952964685347e-02,2.771163041343739294e-02,1.524398671349439516e-01,-1.558321285448217505e-02,6.236126173999363698e-02,5.164281110656033374e-02,-4.257793805433025824e-02,-1.178738394199443928e-01,8.007993099363666309e-03,1.903723789066604638e-02,7.873142750288134040e-02,-7.456279243828646194e-03,3.232679407340535160e-01,-3.195809776138115732e-02,1.023365073215330018e-01,1.263221049133662899e-01,-1.894669689675217150e-02,-2.090016543359444201e-01,-1.659978273847731167e-01,9.608718102529963112e-02,3.484876212791152700e-02,6.478196255209212051e-02,1.721960997204522448e-01,-4.246184354888639378e-02,-9.671247645213390531e-02,1.322233321180439625e-01,-1.082984313036971374e-01,2.247215775812913263e-01,3.345146265348561410e-02,-2.004382560631029764e-01,7.725317350546284656e-02,-1.106384732163845086e-01,6.929678707967011630e-02,-5.104702592906852632e-02,-1.331770551944396475e-01,-1.151960539044451087e-01,-1.256693970166676000e-01,-1.008597520687870286e-01,-2.143398630887693168e-01,3.132142323886218382e-01,7.339175933410367614e-02,-2.906875667983476602e-02,1.394158143743191580e-01,1.281531997597104566e-03,-1.294044140832046330e-01,-1.584794317883689851e-01,-4.030100084561728802e-02,-5.983836780386780213e-02,1.898059652831388111e-01,6.890015903130493335e-02,3.795948719022577272e-02,6.282819704601201594e-02,-1.105397799124331754e-01,8.032920910469856790e-02,-1.193356672010873476e-01,-2.255947365419849748e-01,1.716703409576167128e-01,1.382490286143923108e-01\n1.990808078797595970e-01,-7.157551411266266372e-02,-1.239853691725580492e-01,2.977794786381316589e-03,1.138263678892569714e-01,5.981611759103235698e-02,-1.452518633651527502e-01,2.316705206228044517e-02,9.591715839178892311e-02,5.823676706546684206e-02,1.393208015232834107e-01,-4.123780412086153896e-02,1.233343123033004279e-01,1.395320433889776432e-02,1.402004312904535366e-01,5.813362789608322867e-02,1.150931360308642681e-01,8.512047999535407583e-02,-9.744823292131524206e-02,-1.314866440262522918e-02,1.247561058775065734e-01,1.873737485742451025e-01,1.862823898470982592e-02,-4.301348801115626591e-02,-2.011510678529218332e-01,1.276029296121893863e-01,1.576377472917387390e-01,-8.277618217098902265e-04,8.048328469910256966e-02,1.462513075733908596e-01,-1.441443776831240753e-01,3.193400111495466320e-01,1.553054671908643269e-01,1.438279671586686626e-01,7.710282878769936232e-02,-1.504609222463514917e-01,2.667361189534946803e-02,1.336390503207737501e-01,8.619181103274323186e-02,-2.255866435494906508e-01,-1.732440877076664165e-01,-1.424650738646530690e-01,3.104431158601522744e-01,7.458000183318161391e-02,-1.904169385543834081e-01,1.175270742202432078e-01,-9.986570056642753157e-03,-1.453926144556272060e-01,3.061517009934717204e-01,4.786919308420580464e-03,7.891502100247195506e-02,8.763251260716367619e-02,-4.603426976655290020e-02,-1.077610372335898875e-01,2.642262058648923301e-02,-4.603916304217449407e-02,4.051917609085954608e-02,-3.394707738656998347e-02,2.452551423200017289e-01,-4.178418379772085717e-02,-1.266659598767371497e-01,1.241569667582481315e-02,-8.622014188564695869e-02,6.144129383862913241e-02,-2.031302913402789623e-02,-6.994209666908900169e-02,3.556524146303063211e-02,-8.479898137798604074e-02,-1.557710752397998555e-01,-3.577117890648235515e-02,2.458163284439761342e-01,-1.726428961871413204e-01,-5.288296022399891633e-02,-1.103963109642245588e-01,-6.590196869411699132e-02,1.985507768189721245e-01,1.303524940073370608e-01,1.227370580966101743e-01,2.456960820360056148e-03,-4.148115701144942657e-01,-1.302636279707724831e-01,-2.204315982768001170e-01,-4.507730691806766110e-02,2.639880965664441193e-01,9.734143307581320792e-02,-1.127641393839918238e-01,6.240413887207349464e-02,-8.922043068298228519e-02,-1.905689125773488146e-02,-8.058465266010454708e-02,1.155695311988060303e-01,-6.188907620210595123e-02,4.312363824914742898e-03,1.483380748120408446e-02,9.995429555405946354e-02,1.693152570251522382e-01,8.204423341627719787e-03,7.444277042225999619e-02,2.011420087826222558e-01,-1.107562783097280901e-02\n-2.326912731130000855e-01,-1.341092805010568878e-01,-1.050700908357420221e-01,8.607026264730555098e-02,-1.428750119953990649e-01,-7.275839326243620231e-02,1.932341633313938156e-01,2.353149120237192360e-01,-1.079159695273989028e-01,-2.550905490270364284e-01,-1.193702709337102069e-01,-1.263379996034753594e-01,-2.824728683176842489e-02,2.304800319450472229e-04,5.957051046913413445e-02,4.110549569110225065e-02,-1.081614197002863098e-01,-6.216047543441439310e-02,8.281871496506396091e-02,2.308488251009128689e-01,3.398820479761534979e-02,-3.144950082515501899e-02,1.897526873384660674e-03,9.652665755943422299e-02,1.263986104313222780e-01,-1.028334715305957575e-01,-2.967289431130839539e-01,1.467273275062316584e-01,1.251981320955364643e-02,-1.389493098167650653e-01,-1.070697559126060905e-01,-5.040340267797194240e-02,1.835244527638713596e-01,-1.017935749222181468e-01,1.070457960241982948e-01,1.401926445592739656e-01,3.008755012483558134e-03,-9.008855524940030321e-03,-9.126990963576107896e-02,1.749368097222436524e-01,-1.416907320803048875e-01,1.330683712182733902e-01,-2.026363979738325105e-01,8.166981704331199854e-02,1.195974285542555776e-01,1.394448178806706740e-01,2.974302876327843820e-02,-2.903882921161549668e-01,-2.489825249198570900e-01,-1.216155936149606737e-01,1.198101991461576199e-01,2.241100267199933049e-01,-3.192632025491683873e-02,-1.157463290505659215e-01,6.360137593778522613e-02,7.581426257141891945e-02,-1.273001610253826077e-01,1.175337674298021218e-01,1.740971730619314817e-01,7.096023788347161076e-02,-3.094158312568128649e-02,-1.434315176357963961e-01,2.189295483570828996e-02,-1.714044589356422676e-02,7.497529745430625558e-02,-5.285094124156786838e-02,-2.277702294639779579e-01,4.834958045944867666e-02,-9.781352150032437964e-03,2.301587107744795802e-02,-2.613997402689619554e-01,3.103659360968372694e-01,-4.119280411843085493e-02,-8.267922294944848871e-02,1.746738974686190826e-01,1.726424716480661620e-02,-6.199826555819207274e-02,-1.890584345103314412e-01,-3.706509589425446838e-02,7.800055073000758399e-02,1.202018224868279563e-02,1.254320544733915355e-01,1.262203903699573859e-01,-1.244419167022634554e-01,8.722687604299637909e-02,-6.036767931265484000e-02,2.869897731744749936e-01,-1.710007607145824782e-02,-6.224589258819097221e-02,2.241949541047801864e-01,-3.314435927740824739e-02,-1.612736830834232138e-01,1.103909459642694463e-01,-3.926212282962279060e-02,6.208073560910654445e-03,1.549765400952627659e-01,-1.541214381168002079e-01,1.670506829304213570e-01,1.451996475576912971e-01,-1.096961016506340925e-01\n2.912242274251140017e-01,-2.151655640268223136e-03,-3.390828171781652689e-02,-9.435233708963881860e-02,-1.427444284643988315e-01,-1.679848159162485033e-01,-1.640567891365715958e-01,2.052594273921018175e-01,-4.277840204061977847e-02,1.126622613665000522e-01,1.463185027592631415e-01,7.046971914336606913e-02,-1.980049151350422587e-01,7.400727616155351740e-02,4.106705815674430854e-02,9.393282282493904678e-02,7.726348572839632223e-02,1.323062602269220733e-01,-2.430113405620380057e-02,-1.674783980009679485e-01,-7.267394094942795923e-02,-6.122266553885834239e-02,2.014699171122851240e-01,-2.692467987519493733e-02,-1.729800110304181848e-01,2.027710701459296272e-01,1.760162922461569190e-01,1.490277530580322862e-01,-2.237024671099703543e-02,1.611545583177738938e-01,-5.475918793508303961e-02,5.213186223066895546e-03,-2.239477448583236385e-01,7.909910738185946255e-02,1.478102177914589199e-01,-2.102960315714559880e-01,-2.893926980793172787e-01,-1.057801080696490620e-01,-1.128585960728550885e-01,-1.075484146216509479e-01,-8.528551878641986439e-02,-6.292270656926367278e-02,1.209972891966357676e-02,2.093962654755293085e-01,1.076912152856589547e-02,-1.399335835109365433e-01,3.884699699815948315e-01,-1.004456491001210483e-01,5.318433120583286600e-02,3.040556227274656548e-02,-1.606588426543295034e-01,2.519332649565431126e-01,-6.688390640160982170e-02,-1.842645165711213895e-02,1.609396408060743133e-01,5.290167981031711902e-02,-1.019645187852930152e-01,-6.028003299981460339e-02,7.718901012916254412e-02,2.494896013160768575e-02,-1.190453635043925845e-01,5.319859711580938316e-02,2.456117405493855876e-02,1.122247981821551943e-01,1.983504249477111361e-02,1.861829305959674385e-01,-3.796115199824319497e-02,-4.076627430901572785e-02,-1.022429561829144296e-01,-3.018272512394859497e-02,-6.870547012542027598e-02,1.621000036043628856e-01,1.194425579477039270e-02,9.531470659790691746e-02,-5.757423633632144377e-02,1.758773735435357199e-01,-9.869444450313865844e-03,-6.364385896610622951e-04,2.034036751489682049e-01,-1.068418393038676611e-01,-3.796677911681851231e-02,7.887268705631438059e-03,5.072435279238331207e-02,3.625038402200579379e-01,-4.053044187933024789e-02,-1.780779466063482364e-01,3.491280510077782173e-01,-3.541078700417812225e-02,2.149105739642758195e-01,-2.610250969091462148e-01,-9.267611054404630011e-02,1.942665084855950963e-01,6.532607563303487186e-02,-4.086545382698737738e-02,7.442662632964239244e-02,3.999894447527152508e-02,-5.404633827172447558e-02,-5.235292395346957672e-02,1.666234403114675577e-01,5.185003714351463927e-02\n4.863591781598812502e-02,-1.096357429284140240e-02,3.699321560289650646e-01,-1.436073113260830370e-01,-3.102016781514638916e-02,-5.196226797518477963e-02,-1.280555292420062774e-01,-2.181018738040163829e-01,-6.364817012422420428e-02,-2.531248289701915066e-02,-1.918216256310178169e-01,3.017664758597642365e-03,8.868409277799886581e-02,-1.552980612754321366e-01,3.453045918039703704e-02,1.960875644247609406e-01,3.492000202653111618e-02,1.751172371167266512e-02,-3.113987968383359617e-02,-2.230384659940899961e-01,2.917230932564603973e-01,-9.883055895090216147e-02,-7.231705311808880529e-03,-1.946262454010216220e-02,-1.671057738987895835e-01,2.064454901518193719e-01,-3.488426923229610566e-01,1.473011070607839201e-01,-1.802768465015907873e-01,2.822088788705431894e-02,1.101151989661380559e-01,-2.287127458059243779e-01,-1.690014205315397144e-01,-4.389606793691570169e-02,-2.130929965567043560e-01,-4.901505516461881345e-02,-1.439950304098568390e-01,-7.865421185119227110e-02,2.525683109188854233e-02,1.249060903766583130e-01,1.922298093946128439e-01,1.189486659385058792e-01,1.934451707833790939e-03,1.347109817359312504e-02,-1.907687556757665659e-01,-2.272259702331426781e-02,1.098702746924557910e-01,1.225301236282868578e-01,3.771721923172553087e-02,1.564622022068589899e-02,2.467199149740157971e-01,1.919871316003551320e-01,2.639952468197504301e-02,2.423292712549512951e-03,2.434215267537939986e-01,7.190783602893700832e-02,-9.753854857552862745e-02,-1.825412818255839620e-01,2.379306069528654421e-01,1.537487395122152378e-01,-2.678284223672604547e-01,7.680451787052539059e-02,3.054377710580956015e-02,-1.427345637401186973e-01,-9.810098435700248531e-02,1.612149853249518205e-01,2.358702434541951748e-02,-1.265891256779093088e-01,4.266846980839828635e-02,8.636058196103778284e-02,1.115418500324483614e-01,1.912292603196181495e-01,-2.013808198934335936e-01,-1.627140424184782275e-01,1.463807023489899772e-01,1.994215649794298384e-01,-1.534137844865093026e-01,-1.341663072436812265e-01,2.170135802704617756e-01,-1.562774294809864961e-01,1.258605779481268561e-01,8.252951553699458542e-02,1.437458733584540647e-02,3.378393082633920352e-01,1.692509189833677208e-01,4.959529339282200272e-02,1.544468519249646288e-01,-2.945229495271034850e-02,9.601104592579193242e-02,-3.836046475336187672e-02,1.468049863956699119e-01,2.178941595591345759e-01,2.527479546362045720e-02,-2.360590065594943276e-02,2.314625733826214671e-01,1.170048618704881138e-01,4.959674503793938538e-02,-1.140613525290633812e-01,6.252412155171237218e-02,-1.440407459499090104e-01\n-1.411563495030611903e-01,-1.333640205027060988e-01,9.791026687779266768e-02,9.683359435454765018e-02,-3.992017009280095924e-02,2.556960543898099958e-02,-4.164258252735218019e-02,-9.672425507026381764e-02,-9.021078886209792091e-02,-5.369052162101083797e-02,-1.522571372238423204e-01,1.046608051611081502e-01,3.824092424241004040e-01,1.644785505342003518e-01,-9.976517481972868584e-02,6.971204954884745175e-02,1.645012022979925048e-01,-1.336409327181154183e-01,-9.278676006095269713e-02,-7.994435735457131043e-02,-1.168026641199046423e-01,-1.391599690061955386e-01,5.929421631181439750e-02,-6.996922203515086591e-02,5.481094997307016381e-02,3.580491213584574561e-01,1.633108930981992668e-01,-1.095285027256087673e-01,-2.245763257452704775e-01,3.934520883126402940e-02,3.642365929144632530e-01,-1.446965011227427378e-01,-1.534776713802154802e-01,-4.296226216579904916e-02,1.086049862493088936e-01,3.579093375873659832e-01,-2.108588673294817251e-01,2.864874041805709481e-02,-1.637716416172448619e-01,4.348139180484352287e-03,1.926169046487397618e-01,-5.334205679181039383e-02,4.556149231254493642e-02,1.813246992584165718e-01,-2.688210208475410104e-02,8.305711765211130915e-02,6.172705743897307501e-02,1.022676832605802083e-01,1.588079159758550019e-01,-7.885226604612741164e-02,-3.532345640811942328e-02,-1.595318708178436462e-01,-2.352863048583941907e-01,2.060748733037861269e-01,-5.507326690533839719e-02,1.533924413271347820e-01,1.534377769137365843e-01,-2.018608194608925710e-01,9.786431897184382292e-03,9.455298166425379555e-03,5.786918855181733684e-02,6.139893487965676633e-02,-1.801537972624382422e-01,3.362180941578114118e-02,-6.298122420864869786e-02,-5.854245182389429189e-03,3.336234761492924000e-02,-2.235879405038488921e-01,8.606436538740140640e-02,1.605533500948028436e-01,-2.113727840396226881e-02,3.562000367087630320e-02,8.699578526003000356e-02,-1.484321647704067715e-01,1.625238495249236026e-01,-1.425280334693480311e-01,4.795431893499858128e-02,9.052240498114505485e-02,1.495883930565504449e-01,2.187834547109610561e-01,1.340351120336630009e-01,1.395226345529914924e-01,1.289507366606033600e-01,7.416140923449222357e-03,-1.495071336724494160e-01,1.950618513920464869e-01,-5.250022581363864710e-02,-5.998827771925081820e-02,-1.319444624622892193e-01,-2.077256704078662697e-01,2.059757056906304507e-01,2.802381318590311046e-02,-2.126393015932050157e-01,-1.146911473119499175e-01,1.265376954994498759e-01,1.123476937823234545e-01,7.315221203185526266e-02,2.517865247637796414e-02,-1.362523330291457412e-02,5.892618787800715796e-02\n-1.565469183309500800e-01,-2.890771506431154617e-02,-2.091702457560032369e-02,-1.593385119841420339e-01,8.608327554715519692e-02,-1.748768973017149689e-02,-7.602434922919591720e-02,-4.315996626463834002e-02,2.806694355505356606e-02,-4.169472506648039950e-02,-1.846083277310265058e-01,-1.842740633807727901e-01,3.082256626700445867e-01,2.736171212958936061e-01,4.548801914057730433e-02,-1.220555630907231848e-01,-1.061300031313680281e-01,-2.346547683577641374e-01,-1.520161443814378732e-01,-1.348833395926187229e-01,2.793532217547805077e-02,6.749173237394341662e-02,1.975401880685759629e-02,-1.346057957664157645e-01,3.577637415209560662e-02,-2.350307704993632729e-01,-2.916225067559245487e-01,-9.962541947366959638e-02,-8.955619705490356838e-03,4.708411321368566327e-02,1.452611204849957593e-01,8.255550391837668256e-02,1.485395898455816044e-01,1.097283738433814798e-01,9.939594725838850342e-03,-8.797439371944382192e-02,2.267430038862620623e-01,-1.998997721997728405e-01,3.388299919639852775e-01,-8.415279681520211608e-02,-2.120657796951783136e-02,-4.508379508041556599e-02,8.548691424075717527e-02,7.207853229844028708e-02,-2.857853372162656447e-01,-1.510286016123771613e-01,-6.124561806030487388e-02,1.130606633955881096e-01,-4.039648119755320094e-02,1.659832809755791005e-01,4.029806617057123119e-02,1.240318428542991347e-01,1.691863329798183602e-01,2.110378718403141396e-01,6.350325285578192758e-02,-2.396951185687332120e-02,1.726225723600103290e-01,1.735852876018524893e-01,-1.288917063975714428e-01,-5.551070082889918156e-02,-1.399859891937398071e-02,6.109783295290773658e-02,7.818784160444287867e-02,-2.905308428504119536e-02,2.915272494739660769e-01,1.683085845424429905e-01,3.008953418615915518e-02,1.467896032130976969e-01,-4.326605090756361488e-02,-7.558715452154257664e-02,2.610717211462311726e-01,-2.116858170560904640e-01,1.530115938228734096e-01,2.092701533714993456e-01,4.330616330067730418e-02,-1.158497267948644521e-01,-1.509278281552675627e-01,1.505642017679145739e-01,-1.032395661175251611e-01,4.922557869833309868e-02,2.821403543500095590e-01,-1.350940306194592204e-02,-9.959352244816546684e-02,-2.172942722723188169e-02,-1.908097005312472394e-01,2.729382320370861703e-01,-4.181334233959919239e-03,5.558425153449322864e-02,1.252272437162809393e-01,6.041751564704524874e-02,1.808809613664415228e-01,7.446791154295698267e-02,2.118060813085867466e-02,2.001328521039029973e-01,-1.566115128305022308e-01,-1.112256196627592758e-01,1.780234217888376075e-02,-5.052661092075058646e-02,1.080995621600201045e-01,-9.003223539555273158e-02\n6.378873032939744864e-03,3.940907301210486158e-02,-1.522774788205909224e-01,3.183233132224577017e-02,-1.794843020187844584e-01,-1.399113289041290786e-01,-3.681470773995886014e-02,-5.871371983841065095e-02,6.637480176136055510e-02,-2.022668422678433053e-01,-1.570953142152824722e-01,-7.502253986857576606e-02,1.567079980469054598e-02,1.752484238847514531e-01,-8.709035351034921657e-02,-4.686669328308883109e-02,8.969118511342358269e-02,1.543740288291488467e-02,2.009741099448550949e-01,8.809159421509230037e-02,1.014460197028578675e-01,-2.732731355387449379e-01,-3.249291660030839135e-01,8.764155540645224285e-02,1.347485294435578525e-02,-1.609002937156250312e-01,-1.863840173402012482e-02,-1.327875878708646429e-01,-1.777993343094614459e-02,1.696949566649948449e-01,1.058842085704386204e-01,1.010941629805936146e-02,-9.213884674401964792e-02,-2.401630751915453943e-02,5.267641315632375087e-02,2.270160910489323058e-01,-4.930717263205310064e-02,-2.261688214121952978e-01,9.039483460993179287e-02,2.561464729505395499e-01,1.743085894392429058e-01,-1.143481349812090903e-01,1.115343361510102577e-01,1.715050039900178624e-01,-1.561136808719002511e-01,3.869221391219845874e-02,1.304892413521322458e-01,-5.644888532974000339e-02,-1.614253019509221676e-01,1.510085077165835565e-01,8.327674327404865906e-02,-5.598074130923714337e-02,8.638260507897270457e-02,2.210106175875805323e-01,2.398715950465943048e-01,7.161396577430635679e-02,-1.597567728419823849e-02,2.137918271477359522e-01,2.347534071009897347e-02,9.351395596722024417e-02,-2.140900947300415635e-01,1.409291225519910540e-01,8.829400919965531280e-02,-1.815287324797573987e-01,2.681229985827387682e-02,8.052523244473077865e-03,-3.632856334470152548e-02,1.485897942312178199e-01,2.345567718823677317e-01,-1.288978233092292203e-01,-1.612398254305794643e-01,-3.422668911392506407e-03,-1.299742909157221293e-01,1.965008011121477383e-02,6.662541356729198561e-02,1.782015138591947767e-01,3.985470317133448480e-03,1.596720220522405698e-01,4.981258719421016029e-02,-5.283913254607831150e-02,1.475824814921940786e-01,9.580562789377886079e-02,-1.319626420783703569e-01,1.186492809150368200e-01,3.099916524197927556e-02,1.565853256536335891e-01,8.294577156662495676e-02,1.678076591918857274e-01,5.139961799263927794e-02,4.743964625859966450e-02,4.189632737087433528e-02,1.631116463259681126e-01,-1.957084930279236190e-01,-7.145219563655563766e-02,-6.648641672673550815e-03,-2.749002954641596719e-01,4.919964558854680176e-02,3.713099947492885800e-02,8.765830875144153822e-02,-1.556981439531615885e-01\n-1.625414770801150710e-02,2.033266865782822896e-01,-1.501252160023919535e-01,3.138693943982060475e-01,-2.938028499786077274e-01,-1.589419414218858351e-01,-3.842317833221565310e-02,-1.838119683576310281e-01,1.232324881309414810e-01,2.420012181000035234e-01,4.086879919200511746e-02,-2.499530590218564455e-02,-2.108213326703053114e-01,1.418412057577151941e-01,-8.971342408051449779e-02,1.361300963852399015e-01,-7.992008647957708767e-02,-1.160809400537940322e-01,1.084505379682039750e-01,1.274121182795686091e-01,2.319231932842985566e-01,1.682087430939672446e-01,-1.678466657181055532e-01,-2.329732448391953203e-01,-3.776820611978043071e-03,2.268108680673570077e-01,-2.359115274427486114e-02,-1.710510022568814403e-01,7.031813469112409287e-02,1.843021603659339425e-01,-1.892179352757687033e-02,-8.417774888083349311e-03,3.584980293253911543e-02,-3.977232028820393284e-02,1.951226011178446018e-02,-6.182802196868767558e-02,1.868708621476422929e-02,2.292909539645818506e-01,-1.557358670029184919e-02,-2.450970925708694653e-02,-8.057562009748085730e-02,-2.892242620344785409e-01,-1.410299537212619247e-01,2.056237839801343670e-01,-4.566672603271970665e-02,-1.201768952747504088e-01,-1.434796876133632160e-01,-1.427310843999323731e-01,2.086371771269887321e-01,-6.826577423031636449e-02,4.263093219244227378e-02,-1.894745260641323981e-01,-6.462713294622596250e-02,-1.842111241035067348e-01,4.903394081795075382e-02,-7.252575411605979849e-02,-1.840627196605784111e-01,2.254243435642199478e-01,2.397891998840525063e-01,-1.540060515620965582e-02,5.570143705352829933e-02,4.673608354813164889e-02,-3.233471618503987455e-01,-5.717477181628957683e-02,8.111415814328137852e-02,1.680394038156641234e-01,2.139737838175027711e-03,-1.456093922417288633e-01,-2.440050386075271610e-02,-1.099173177608631369e-01,2.515267159236331818e-01,-2.179594640277414744e-02,9.521580932179772583e-02,7.697832827771833308e-02,-2.562941936724267844e-01,1.448908576450363139e-01,1.606861307743373823e-01,-8.206353485001931236e-02,1.927588087587783425e-02,2.097001279960693243e-02,4.755507085321470512e-02,2.810925238556308270e-01,-1.063650055414120804e-01,1.042099482737500298e-02,1.056137332913788529e-01,-3.026147535678001821e-02,3.037864820846187044e-02,-1.199554041948009825e-01,2.865815634765009334e-02,-7.109172098158944575e-02,1.910458270668159431e-01,-7.856798114273018385e-02,5.364009321301892175e-02,-4.104218275337574023e-02,-1.790591453827998503e-02,-6.529957428149742171e-02,5.117665073122952546e-02,-6.063130886051427276e-02,2.572834271341922774e-01,7.389432456204379773e-02\n1.239717619501797263e-01,-2.611845848453226426e-01,-9.599652792417671596e-03,1.590353892165762353e-02,-6.449013978025498750e-02,-7.143619937842887735e-02,-4.273657814334385491e-02,5.162887888809658543e-02,3.643875689678335306e-01,1.703522184030628606e-01,-1.640151974922981759e-01,-9.542243514622308909e-02,1.760811540991161772e-01,-4.256869043073227554e-02,7.806117160690685675e-02,-3.048765002340731931e-02,-1.519583419440789784e-01,-9.131825981206008469e-02,-2.078315781134556783e-01,6.279557199492837027e-02,-2.579784212737346594e-01,-2.198997409571699091e-01,3.235313322745417275e-01,-1.825714961992418728e-01,-1.009303974107906982e-01,2.313446132735944016e-01,1.736318484429266451e-01,-4.565896466504770768e-02,-5.173308375151274702e-02,2.362692723154357580e-03,-6.751091228619984785e-02,-6.888712801236342165e-02,1.671047957186058697e-01,2.331887751127198760e-01,8.494357060772375623e-02,-6.414241385884029804e-03,1.040396724154192404e-01,3.390434806200014195e-02,-6.771471606216851284e-04,1.294540233057046852e-01,-1.560462845820020927e-01,2.463851512576903935e-01,-2.229288261773264834e-01,-1.990910201083498920e-01,-1.211874804131694849e-01,-1.726503493086617158e-01,-4.087829734443919338e-02,8.816933748853673924e-02,-6.573092218496663641e-02,-2.213170578120596949e-02,5.066961413945501175e-02,-1.722088079510357694e-01,3.692570579574759593e-02,1.732367875794262324e-01,-4.240208113941745099e-02,-3.284633805205652152e-02,1.564185559479867038e-01,2.088364117191889024e-01,-2.314122110443155578e-01,1.521750746809005517e-01,1.887247843532388336e-01,1.792508842539784208e-01,1.283049206745362492e-01,6.842161403001686092e-03,1.919351600989649409e-01,-1.954448313948589644e-01,1.261123922428241950e-01,3.139142782575810586e-01,1.771348776318611984e-01,-1.141981687889566666e-01,-1.422019410572024356e-01,-2.971527763585735463e-02,1.142185438990639818e-01,4.582720868452753310e-02,3.721869220152347613e-02,-4.615053518365948987e-02,-1.404562648772410549e-01,1.625085528921561828e-01,-2.366048990053696427e-02,-1.234387397263388281e-01,1.107467394429092478e-01,2.014504348894946839e-01,-2.208955725773978918e-01,-1.729079045291911920e-01,-1.341118361566599193e-01,-3.907691545213316520e-01,2.049899985106907740e-01,3.258440108998872375e-02,-1.019976940254939540e-01,1.604910403409797737e-01,4.839851642820726385e-02,-3.682498140726123831e-02,-1.303520498634910471e-02,-4.264147000985241132e-02,-3.458603053001560457e-02,6.219401927213442233e-02,2.252883635167018117e-01,1.279425916049019563e-01,1.625209940019875232e-01,1.890965959316450729e-01\n-3.611332534783228548e-02,1.641302959520426485e-01,-8.907484733553933109e-02,1.485963876400020200e-01,4.173479425660766434e-02,1.611572997758152145e-02,-8.101775790845984482e-02,2.371628782216958498e-01,8.149400361340622401e-02,1.152889342523837901e-01,-3.589755058610829414e-02,-1.346587596711918411e-01,3.227386108498090378e-01,9.962302645070729434e-02,1.262127310722922502e-01,1.502090917942502935e-02,8.008781794162408985e-02,-1.820848710954379723e-01,-2.537194513284088404e-02,-9.554540440821078506e-02,-1.061987153270267520e-01,-1.078928483245258224e-01,4.658429408110883324e-02,-2.031928949159045594e-01,5.964120984358431410e-02,2.254217986282091024e-01,1.653938209369996137e-01,-2.248806321971172362e-02,-5.149589838866280855e-02,9.796044456364058628e-02,-8.707925430779715759e-02,2.147623792541945575e-01,1.272447096771904818e-01,1.477265166830688814e-01,2.899269183637606107e-01,-2.457946759587464058e-01,-3.759900937673947563e-02,-4.786854122930778166e-02,3.425715704304242715e-02,-3.460326565541915061e-02,-2.326079362520236116e-01,-7.826489227106486757e-02,2.929546807438271339e-02,7.561118488015493300e-02,4.419185369609208297e-02,-2.223665871901189806e-02,7.841657047041697415e-02,-9.758368230958215650e-02,2.181833463185859148e-02,-1.290011282871698223e-02,1.075368040015280552e-01,1.845465403536905927e-02,-1.863113003729681139e-01,3.975005701564051641e-01,6.277357789334772620e-02,1.457281468309292449e-01,1.319956158131774804e-01,6.924875078675910012e-02,1.887433995292478739e-01,3.117700974916616866e-02,8.478946784815866167e-02,1.875386915965512880e-01,2.599477481904792220e-01,1.022330882271303698e-01,-9.440263809348080695e-03,1.834549714427371470e-01,-2.410139505745035049e-01,-6.374071100589827343e-02,-1.879262270828053194e-01,6.181506006964097855e-02,1.306548185735536549e-01,-1.795331833866474769e-01,-3.386685033038856762e-02,-1.679228901939351093e-01,1.197189919857314377e-01,8.346360774202513100e-02,-1.265226184272212895e-01,8.095624829061709438e-02,-1.381216407685908754e-01,-1.161565194214789903e-01,3.039238698229954766e-02,-7.075510057034536948e-02,4.619735843312227502e-02,-2.979077530838131205e-01,1.061069590184265665e-01,1.835035189833292835e-01,-2.146262474967665645e-01,9.000816340193022735e-02,-3.694850439129482300e-01,-3.181996607796291898e-02,2.128223077738613522e-01,1.896100855151874320e-01,2.762956714663964211e-02,6.990499893162670231e-02,1.047784731256737323e-01,-8.594571892064963026e-02,-1.208044768367607692e-02,-2.237230301815577860e-02,8.481288236792684787e-02,-1.736103223608620807e-02\n-6.286475823441105282e-02,-2.183586691943177893e-01,-2.831067326402788437e-02,-1.053623240977234060e-01,-2.381149157845197789e-02,2.353642738706932802e-01,3.762664314260689286e-02,2.327555071339017512e-01,1.740421253689328485e-01,-1.538464148075550930e-01,-1.838795215175438869e-01,-1.190287681141213028e-01,3.974921374704134536e-01,5.587326405909289612e-02,-9.460843820584927122e-02,-7.077505922324457688e-02,-2.125993387314734917e-01,7.712860153893779866e-03,5.583329069170360481e-02,2.408784229946445699e-01,7.785281611715050287e-02,-2.263147625827218595e-02,-7.324485966922306135e-02,2.447751835832080811e-03,4.774745047148056670e-02,1.397916831758636708e-02,-1.861369679250507100e-02,2.514369482763882946e-01,-2.189103788015758223e-01,-1.315411616159813668e-01,-1.227226979972451115e-01,4.182071790284160734e-02,9.517360042569922296e-03,-2.799531338360738281e-02,2.037017316923283583e-01,-5.992632473884590763e-03,2.370096530082594632e-01,-1.164756122349625000e-01,-9.316482406448520215e-02,-2.727053367848316506e-02,2.048382104897026879e-01,-6.559371850060756459e-02,4.215845794869817198e-02,4.319586861558809276e-02,-1.926909145261573308e-01,3.969793512301447030e-02,-1.552015576886064951e-01,5.010160717454836127e-02,-1.545022175999550273e-01,-2.005299980790924141e-01,3.544900293518470948e-03,-7.837932839843582411e-02,1.391214634000993364e-02,-1.854411256703625624e-02,5.978140267037923561e-02,1.160240104318902288e-01,-6.150021283329720062e-02,1.185482056158582154e-01,-2.736750448176197281e-01,-8.068116288710847073e-02,-1.076498910220345245e-01,-5.911771343048970867e-03,-3.173080074585898358e-01,7.907363655188415219e-02,-7.721628569551050592e-02,2.962888128626843254e-01,2.120660349074494910e-01,1.628378348261834974e-01,-2.690125483451488719e-02,2.546740658663218873e-02,-2.931491388429200984e-01,-8.098633514453947024e-02,-1.419341462039337975e-01,-1.767490916719390293e-01,1.290588204133859447e-02,-2.030575033354641706e-03,-2.059275626669472212e-02,2.876364435232645622e-01,1.942227349629077962e-02,-5.121298747326155643e-03,2.239005118748015333e-01,-1.930478053239772368e-02,-1.854086266046960085e-01,-1.310771018986303937e-01,-2.191202698679870498e-01,-2.317500156822103752e-01,-6.811213151562167667e-02,-5.892230813221598085e-02,1.074234153129435820e-02,5.216180081916406419e-02,-8.669728792890216140e-02,2.134132716772758898e-02,-9.835683516812973592e-02,-1.516118901612223679e-01,-2.445573966602474225e-01,2.116521945863837073e-01,1.039653991739760558e-01,-2.524441158524311501e-01,9.264449728350156177e-02,-1.372175135462728179e-01\n5.585082621052829543e-02,-9.900863405177048882e-02,1.809572593519329642e-01,1.466576415714184456e-01,4.405284467220557665e-02,8.199136904737494569e-02,2.250641987535294611e-02,1.432825858759709248e-01,-3.733744634778227850e-02,3.563472675157181718e-02,5.429223726343004180e-02,2.303852831779983068e-01,-3.030638286527658209e-01,-1.474280961799702139e-01,-1.927050398924727292e-01,-1.131887799315700258e-02,1.317748453142026516e-02,-3.801455467093192708e-02,-8.859611519950806591e-02,-3.324526866915524237e-01,5.581620345955860818e-02,-1.599068210345605257e-01,-1.951480521669672272e-02,1.245104069291492893e-01,1.441207061304356218e-01,2.950566002947453970e-01,-2.145478229520070279e-02,-8.018473239534373853e-02,1.163965266629019696e-01,8.620454182504400098e-02,-9.236889983951000836e-04,1.245158531096891424e-01,-1.034776502165715428e-01,3.061914013873820450e-01,-5.105554732888502312e-02,2.050023080236161865e-01,-7.355065717764384947e-02,-1.556090741916676123e-01,1.513080153523918558e-01,-8.700534940281813567e-03,2.074436058866927293e-02,-2.656169979731844988e-01,1.272874455230372792e-01,-7.586426153924913894e-03,1.478596877544702815e-01,2.064430628442183724e-01,4.209512563267009400e-01,-7.275072856680987743e-02,5.560490015337133524e-02,1.046311734991766801e-01,8.136601811930455064e-02,2.352799468796386295e-02,2.145335294844822882e-01,-2.073526888058215695e-02,8.055729066561947982e-03,-1.870211291607913953e-02,9.131192462129496257e-02,5.944140404479010542e-02,-1.566932463201191894e-01,-5.208437855415551376e-02,7.596737640460704544e-02,5.306816199997547306e-02,1.726506143322645848e-01,1.209489556400632215e-01,5.071560745515094060e-02,8.178870799859649932e-02,-1.217661449477914493e-01,-2.096945461830483082e-01,-5.533478521474170797e-02,-1.331596388689872401e-01,4.400643336644732839e-02,-1.571764121841475598e-02,8.481740401077425551e-02,-1.811753259083588030e-01,-1.832771800538685325e-01,1.375713925681701644e-01,1.950249774845262338e-02,-1.156152140031220243e-01,2.815571833626567266e-01,6.057045707862712680e-02,6.111976224856285195e-02,-3.779556961208535570e-02,1.256807046786773963e-01,-1.059021503743840936e-01,2.197382071859304287e-01,2.252579938495785916e-01,8.054356058751548086e-02,-1.668225595204593514e-01,2.046766692776218199e-01,-2.638290543551580769e-01,7.894411260596051472e-02,-5.158330475848087876e-02,-2.460396417007828379e-02,9.332083174106324541e-02,4.241881533257253756e-02,-1.166672039119496657e-01,4.560621473925795255e-02,3.512476967683655221e-02,-1.070290745360340107e-01,1.018149116625931133e-01\n6.592418862194039664e-02,-3.476079430228241895e-02,-4.680796624732441735e-02,-1.872321877839119575e-01,-2.176817056317566917e-02,2.377323297292598669e-01,6.427375576383938249e-02,-1.372515496302962323e-01,1.939296605633996362e-01,1.256498376112993171e-02,-2.609431826766618959e-02,2.158073799626382960e-01,-8.708586474242344111e-02,-7.671552144527053751e-02,1.470052703633945301e-01,6.611557923170788276e-02,-1.477050179412346398e-01,3.154695186604726791e-03,4.605292809896583545e-02,8.800628989947026359e-02,2.306125289363021580e-01,-2.539545991408595667e-03,1.616246374740172020e-01,5.242360104719665653e-02,2.956928456623611826e-02,1.218736008406042515e-01,1.835950985254360679e-01,5.010746306163497976e-02,-1.001859747609895879e-01,-6.919883681907813833e-02,-2.520369886812727778e-01,-6.267456833421854168e-02,-1.028525780555856889e-01,2.630767374409489004e-02,-1.019871805412933680e-01,1.944013304222588223e-01,1.257513714119234960e-01,3.773895950768882401e-02,-1.208157036145083157e-01,1.588671941878293525e-01,1.121427160869239992e-01,6.849378786995595492e-02,6.185703840537127435e-02,8.802373030807503218e-02,-1.401013416171646431e-01,8.295167105778804284e-02,1.028752426007743942e-01,-7.901800697157106146e-02,9.102332256731046449e-04,5.537111559840417890e-02,7.366384034479891985e-02,-2.214381861231474458e-01,-8.082024330002418600e-02,-3.689422974071445566e-02,1.305934586715980228e-01,5.379122338416568450e-02,-9.425363825901332537e-02,5.030005661175249859e-02,3.922417704871176969e-02,-1.336914098945107543e-01,-8.400810393392536823e-02,-8.865086359532546589e-02,-2.110692249381807550e-01,-8.707575352611734987e-02,-1.339432060756077722e-02,-1.726509926991089128e-01,-1.589224292174012954e-01,8.509632123115815072e-02,-8.885104951401080753e-02,1.729975177906147299e-01,-2.293682732909048672e-01,6.985245318703328654e-02,6.820389873996568486e-02,1.945745285099063915e-02,2.908022335820088441e-02,2.618394132586002523e-02,1.378366178682328413e-01,-1.672336810526134088e-01,2.091334480770811258e-02,1.484390180942974646e-01,4.779007889270726894e-02,3.114461894948546417e-01,1.458041958590794718e-01,2.609344755751376588e-01,-2.431316954632124216e-01,9.967363811861307266e-02,-2.071501742577228078e-02,-2.152689838918525334e-01,-1.055948285185895896e-01,-1.790583512723810736e-02,-5.564941330321573898e-02,-1.199298781489152449e-01,-4.211135177805449409e-02,-1.532682674067394890e-01,4.078038887620975828e-02,5.961670639605255034e-02,5.976566984986142472e-02,2.260839462450067727e-02,-1.893964613212493694e-02,5.753476928539628943e-02\n1.475552302872223664e-01,-1.222574773940910825e-01,-7.234968258360754967e-02,-4.693165804819731703e-03,-3.034537593988130277e-01,1.439960354176156310e-01,-6.887383285123968579e-02,-5.189499187011647335e-02,3.085383555528278809e-01,1.784103461774981803e-01,-1.911497162669126004e-01,-1.226301572974466542e-01,-6.144367083352798853e-02,1.192925223628431841e-01,1.092380597050740393e-01,-2.602182015599053266e-01,-1.578527158095069105e-01,-3.226788208531137236e-01,2.668989852133233504e-02,2.684299499742372475e-01,1.849738807978180410e-01,4.679021649018039880e-02,2.282912928728405011e-01,-7.990511370130552737e-02,-5.500554688795933345e-02,2.267235532487573146e-01,1.102095271373214475e-01,3.859172123031430479e-02,-9.039021086398242588e-02,-6.203719411983953796e-02,8.758303987714141647e-02,1.449915556030667019e-01,-5.991009369573670890e-02,2.710741590504152088e-01,2.041633194366266613e-01,-2.364917618896582308e-01,-2.006464499900749154e-01,-1.253385671913838650e-01,1.671057913663307748e-01,7.437229085845618870e-02,3.433543646703159785e-02,-1.938568976455755655e-01,-1.413370359612325378e-01,-2.335313524346458586e-02,-1.807334016664335352e-01,-1.854858521395519322e-01,5.828147032519832155e-02,1.954204220795981717e-01,2.742763834040371981e-03,9.626278735905668266e-03,1.371852273416058754e-01,5.313896227653839427e-02,-1.498654146492429673e-01,-1.432470667843719070e-01,8.943832206402911600e-02,1.934909321980692737e-02,4.529531864457565088e-02,7.873649793144633924e-02,4.089042623817071981e-02,-1.146483926679620763e-01,-4.360603642947218084e-02,-1.653293584625056822e-02,-2.087921764341721664e-01,-1.108333893515297958e-01,2.412007465379585880e-01,6.119947172744873154e-02,1.409923287646691059e-01,1.013362022706199433e-01,-9.255192092425824912e-02,1.759723972926470828e-02,1.314786842322734073e-01,2.393318529567302344e-01,5.711975274505630418e-02,1.416645677564879868e-03,-3.256954748103217390e-01,7.448058060923884449e-02,9.896315955035764333e-02,6.038245939578094912e-02,-1.694938693617727421e-01,-2.832689194152965828e-01,-3.457045195593292514e-02,-3.273489927307450531e-02,-7.898066433220136962e-02,1.162388890099314009e-01,1.082188513941410857e-01,6.735585528275761513e-02,-2.099403228945698474e-01,-9.661053356473703335e-02,-1.268459725377823755e-01,-1.360280022206129258e-01,-2.461713106982401159e-02,4.323630766972503051e-03,3.334238989875548120e-01,-7.968064269845707981e-02,-1.325315011448291620e-02,-8.643076739987592960e-02,-4.168683092290044467e-02,-1.963038382906229784e-01,1.287928352276271060e-01,-7.635234707084082029e-02\n-1.604398958865842131e-03,-5.864431879591665980e-02,2.174806753676567818e-03,-2.926274778338568486e-02,1.359817855250880780e-01,-2.196582675201759483e-01,4.110783381504368728e-01,-1.308632594180667852e-01,6.567223279493303312e-02,-2.197579648927120433e-01,-2.263543665772416516e-02,9.101986848115872081e-03,1.604236401148607938e-02,1.415155052356066312e-01,1.908269802371597434e-01,1.079102116669351796e-01,-2.386656526025583147e-01,-1.951673823113377337e-01,1.425852534124957827e-01,1.393337077695225301e-01,4.249755448421181636e-02,2.828150330211545369e-02,-2.534169728459344517e-01,-2.935437901728686627e-02,1.604298802366001253e-01,5.885939865291531237e-02,-2.919455602675093409e-01,-2.183749892262120684e-01,-7.722848289788837063e-03,-4.103904298536557027e-01,-1.690134955201051947e-01,7.089010821085053871e-02,2.990387102366190986e-01,3.437048617732097466e-01,-1.113415614497742651e-01,-2.226059109556026983e-01,3.067361567458875005e-01,-4.470331122447170763e-02,1.096644817999547911e-01,-1.234176512493457140e-01,1.967979841305664626e-02,2.028527934654326681e-01,2.129556415778159975e-02,-3.467452871356945659e-02,-2.398271221716189242e-02,7.674230864076882208e-02,-6.002941325961375085e-02,-1.895052771289352511e-01,-2.444557547342658121e-01,-4.516555998980171377e-02,1.701329275092421378e-01,-8.426989072088070243e-02,-1.448125437873200028e-01,4.679634090078214209e-02,-1.619317926513279271e-02,-6.962632456045867585e-03,1.439639170168789672e-01,-2.692970010383993057e-02,-1.037332081758626234e-01,-7.075026151826105392e-02,3.011855226146072928e-01,2.387347183282735597e-01,4.794096635335992618e-02,4.712152014261666161e-02,1.070236961656522157e-01,-1.066519541365870266e-01,7.544016956362274706e-02,1.044393942930183228e-01,5.997105977076269689e-02,-5.337684627494856948e-02,1.528323628100050624e-01,-6.225972812940910178e-02,1.139811638093258528e-01,2.658734250258728005e-01,-2.046847344938784730e-01,1.524687056651720385e-01,-1.507704029236472953e-01,2.449744959329408500e-01,1.081742567634865343e-01,-7.587585193679453888e-02,-1.598034043302422047e-01,-1.047902056785941366e-01,9.744569252305859686e-02,4.194974173178287608e-02,-1.745122607869371012e-01,-1.841788882423573692e-01,3.322072932191429823e-02,-1.589788183271232391e-01,4.749181110671962802e-02,1.403342121329228254e-01,1.218827650202627955e-01,-7.702964540576809523e-03,9.634245469981314591e-02,-2.748928419326199246e-02,6.219584835375516207e-02,-2.048270237450570408e-01,4.178033421571749478e-02,-1.103806742367217930e-02,9.684616876307079042e-03,-1.073003087989691240e-01\n3.913335742611141060e-02,-1.561572003410404558e-02,-1.155738523080545310e-01,-9.471573336529176546e-02,1.446875737944469387e-01,-5.424615110964624287e-02,9.370838263087383213e-02,-2.253536274410669060e-01,2.688633126118757377e-01,4.174633366010838120e-01,8.895663052524088732e-02,1.983291696042019658e-01,7.757339540834212732e-02,-1.309894992769658761e-01,5.067206740277668819e-02,3.361690729609486672e-01,-3.838626139072244536e-02,6.682856450998865550e-02,-1.919392875607775217e-01,1.020785227891128771e-01,8.379325121847659708e-02,7.326755994731161403e-02,1.317170303841233570e-01,1.814674613686813320e-01,-1.667024973484765998e-02,1.585147919409885808e-01,2.488020596963903819e-01,1.790797648422518262e-01,8.856123453709936755e-02,5.076223404169218772e-02,-1.541576435626617995e-02,-5.872226278053158111e-02,-1.371949928116585754e-02,-2.176892744377492001e-02,-8.964314505164436286e-02,-1.284843733881374239e-01,9.678760199372250794e-02,1.903277056383539945e-01,4.674742187489404170e-03,1.443778825138887500e-01,-5.769833359038137321e-02,-1.506710613937654875e-01,2.697243488519613513e-02,2.369355844500088959e-01,2.962042092061303172e-02,-1.820449682781000722e-01,-2.436394563849703099e-01,4.382895176213684463e-02,1.997547611707814752e-01,-1.586015739618510112e-01,-2.419787952941371001e-01,-7.782412337980655626e-02,-2.704618347859218466e-02,-9.829151247250049461e-02,-1.373452577405657460e-01,1.180545062382959837e-01,-5.592130072064613322e-02,2.152655519427846414e-02,1.223061808871296480e-01,1.003281440904898181e-01,-1.032869538690766864e-01,1.780425907356817938e-01,2.562879430145491022e-01,3.686728053722906993e-03,2.762402156587389496e-03,-4.944224019708910733e-02,-1.070855583172287545e-01,-2.580762873124037848e-01,1.186030435062732646e-01,-2.043926214201170766e-01,1.030367263233283315e-01,-5.856635171778757504e-02,1.422948269813561692e-02,2.668538314804754785e-01,-8.237007256880435335e-02,1.355599537046570102e-01,-6.737036563295377423e-02,-1.124420563108273624e-01,-1.474380686250336414e-01,8.917469804673026912e-02,-1.071928604836071691e-01,2.510009891158179740e-01,1.169264585968862596e-01,9.396442259432569166e-02,-4.550593292640101040e-02,-3.334368573792054896e-02,1.811569392461359618e-01,3.910221542431484981e-02,-1.897316833828086857e-01,6.862308768203784215e-02,2.325611554391019686e-01,-8.849847065152391390e-02,4.894698958255246785e-02,-7.216291987456703583e-02,2.147264268386132047e-01,6.553127875250233658e-02,-3.485407428639797911e-01,1.731604020376936379e-02,5.239720724419839187e-02,-2.924680438646392808e-02\n-1.221691192995734560e-01,2.679906668869836417e-01,1.066529153948274876e-02,3.177411729391360629e-01,1.926879627137368656e-01,1.519444729521890747e-01,1.741613352064571019e-01,2.002292136549086235e-02,1.580841593768038678e-01,3.522354322944611787e-02,-1.561168825549216488e-01,-5.541385239129788948e-02,-1.274465081433180658e-01,3.102158089518348705e-01,-3.929341040597745041e-03,-1.632684185039358915e-01,-3.323489911028069677e-01,7.808442241306105813e-02,5.186664876783250028e-02,-1.197193033867909318e-01,-4.632850131629154822e-01,2.362618800316575174e-02,5.909509360623799168e-02,-1.044984966378245846e-02,2.088334113658465996e-01,-7.009251655878716292e-02,-2.488202221938674852e-01,-2.089736474758607521e-01,6.047820635314433285e-02,-6.416941707209205051e-03,8.920850678232229714e-02,-1.357754679733138431e-02,-4.488446883226145795e-02,1.046134921187222011e-01,9.179172828564499675e-02,2.112239993365287449e-01,-3.104231618030057083e-03,-5.790994186070164140e-02,-1.443171651663517630e-01,1.229711903161088554e-01,-8.254210449878546241e-02,5.566474552301128170e-02,1.359782458439627861e-01,-3.185383109619509268e-02,-8.286883067466332964e-02,2.008845765884547177e-02,-1.847016446719836336e-01,2.140425485756748958e-01,1.091391794750684874e-01,1.206379986139231864e-01,-3.394821809997259493e-02,-5.564430365727058431e-02,6.939607625894636533e-02,-1.430717939188797527e-01,-2.560634196443646315e-01,-1.149698610697048595e-01,3.523166561926688312e-02,-8.508940685457326569e-02,-2.171056639282221978e-01,-7.636795902220173959e-02,2.590605153311115738e-01,2.641847537699373305e-01,5.043902079467534744e-02,-3.583771623834192122e-02,1.339434456508034887e-01,3.669757496146103422e-03,-1.751752188510326269e-01,-2.566961023943565845e-01,1.863698996340069636e-01,-8.490867714185208748e-02,2.529654244351615261e-02,1.968930180184003467e-02,7.345102759676484794e-02,-9.639664712125631252e-02,-1.015722459994582438e-01,-1.506912888228407743e-01,8.669366055351622469e-02,-1.544017564639960649e-01,1.421333153078061240e-01,4.113982004677778359e-02,-7.785678286121000546e-02,1.399621618804743062e-02,-4.942296165543864916e-02,-2.597545758821234729e-01,1.489481210281909905e-02,-2.942333099425598619e-01,4.940214993886089812e-02,-1.310743220791151242e-01,-5.392944101543298979e-02,1.097626526988520947e-03,9.521675966996741292e-02,1.250085318580396454e-01,4.236870908125889290e-02,-1.626815972179446734e-01,-4.298099938278558685e-02,4.240806077045736200e-02,7.282024015359081504e-02,1.132277445942982824e-01,-9.359882903908421647e-02,-1.236795715806626901e-02\n6.897162869359682591e-02,-2.454995949473877392e-01,-3.193627750719621461e-01,-2.985727496604533848e-01,1.852094544334336457e-01,-8.154963590586028488e-02,1.357206926053675378e-01,6.258910449369782178e-03,5.022141970107493747e-02,-2.027692992339674705e-01,-1.302807564385438932e-01,-4.041764069020926248e-02,3.363471124312912841e-01,3.454841076037495906e-02,2.101319986699709819e-01,2.684828595974544582e-02,-5.905472239624935671e-02,-3.180519870397295612e-02,-1.469858318008022968e-01,4.396705635340655144e-02,1.444165977020918888e-02,-3.631608042762808630e-02,1.895583408167048067e-01,2.831104162917280620e-01,-3.496713566084677094e-01,1.983046915556068435e-01,-1.142825906346422449e-01,1.056651362767417474e-01,-6.037764713902372266e-03,5.228739360927204399e-02,-6.981791467517702021e-02,1.757846032964714145e-01,2.333736395619787907e-01,1.662820446686595621e-02,-1.273196619407707397e-01,5.830171695633999673e-02,1.975413886097804606e-01,-6.469528097422309887e-02,1.976584914659706427e-01,1.809120378348752500e-01,-1.184994521297710046e-01,-5.003359960803260148e-02,-3.437417441499466403e-02,-1.168887245078399362e-01,1.276491417365276798e-02,1.560327626278928126e-01,-3.338600181765272873e-02,-3.655882050326431792e-02,-3.117108396778824758e-02,4.253935363077317178e-02,1.449542037697472974e-01,2.643580652416808660e-02,-4.346565874832938013e-03,2.416324754717581458e-01,1.898086304042157779e-01,1.264798654068734485e-01,-7.381997675039850271e-02,2.476887834828113977e-01,7.334139768828240591e-02,1.132945970202038632e-01,-1.397097879182332067e-02,1.134914407459797908e-01,1.593584953533179194e-01,-1.291309156935512570e-01,5.045687876501758068e-02,1.239026751270064647e-01,-1.641832532650312204e-01,2.771913255996757974e-01,2.767778903421892062e-02,3.462562782047395871e-02,-2.684433176733459492e-01,1.318262069802963454e-01,-1.607396579165941974e-01,8.325483188972772342e-02,1.420150192200474726e-01,-1.240666092131583881e-01,6.043910636749495746e-02,-1.844042843982442448e-01,-4.830369864403425513e-04,-2.290415209793598417e-01,2.619050600370363413e-01,-7.126628155284754629e-02,9.008654403679418332e-02,-3.632513158037157242e-01,-1.545092993409115378e-01,2.052136557635024228e-01,4.996067104956505855e-02,4.264847183541715242e-02,-3.896643037856106218e-01,1.594387159604469806e-01,-1.430180106984012267e-01,1.367533524338572677e-02,2.213667104587335732e-01,-3.167335178811834379e-02,1.037108064935615831e-01,-2.132909892320462159e-02,1.934797768178579958e-01,-2.463670481295889558e-01,9.194557381308195165e-02,-3.138847284939534632e-02\n-6.462760206479009617e-02,5.790956481524544425e-02,-6.596276599423273046e-02,-1.791261266634399107e-01,1.693629297963097566e-02,-1.734626130221579021e-01,1.763641580782502327e-01,-1.996430241806383399e-01,-3.610358671705150846e-02,-2.518791125889703955e-02,4.595774297841835609e-02,8.302954967917677842e-02,8.527577117239421023e-02,1.588199463046431267e-02,1.325185233473245294e-01,-2.486155839797725142e-01,8.018434387968670363e-02,-1.573018185070882424e-01,-2.642629201026285291e-01,-1.530043341039852567e-01,1.322404054948406460e-01,-1.263638775757950639e-01,1.468657241122301171e-01,2.005909520976398297e-02,-2.145182712151780802e-01,-6.625425582513584655e-02,5.527786028949816660e-02,-1.728685669150404475e-02,-7.129264912697516610e-02,-5.774978412120040927e-02,2.365412041742533944e-01,1.924797015779001683e-02,-3.437245258010408061e-02,-7.604169448053835212e-02,-3.093929546706807032e-03,2.215188580142099517e-02,3.821279071081591650e-02,1.986505076849424400e-01,-1.070615689376215596e-01,1.430883878260242603e-01,-7.213067353147419036e-02,1.191130105854324925e-02,-1.609105350525151523e-01,-1.214107180495399285e-01,-5.215498439985449819e-02,1.510420164650453159e-02,-3.387973581741475699e-04,8.252329381795547869e-02,7.907769541884503151e-02,-1.593742648785671512e-01,1.904045304730807020e-01,-1.398067339420743238e-01,-4.562268846791300847e-02,-6.039978700885747370e-02,-8.767543840774544295e-02,3.737202033183362193e-02,1.096429643630974504e-01,1.603617108558625937e-01,-1.410621436426309494e-01,1.124147471686591515e-01,8.325965514520917987e-02,3.051857841944923821e-01,2.741621442884892845e-01,-1.511036250077378747e-02,-3.453878376199426975e-02,-2.394404474274077765e-01,1.094261740162813662e-01,-7.049675582918828176e-02,-4.634667265019463966e-02,-2.941212497388624725e-02,1.432739462259857710e-01,-1.644754713959312442e-01,-1.683521576194089153e-01,-8.210099676777270206e-02,-1.508554208405869790e-02,1.445862493803553028e-01,-2.545070585195481905e-01,-1.544511090931088293e-01,-1.159274158809921879e-01,-2.562043175273066506e-02,-1.752263327470151011e-01,8.471114896070475186e-02,5.484029212049382207e-02,1.449812405808603988e-01,-6.025122693668266693e-02,-2.818732170533972958e-01,-8.715630083811694295e-02,-2.432915602368814021e-03,-1.523488178006067451e-02,-9.970112377075282528e-02,2.771638647022904231e-02,-2.323339835975991308e-01,-2.199440862672920501e-03,-1.959815163296682247e-02,3.835599712054997557e-02,1.561319602784538296e-01,5.027498640837167743e-02,6.176242596931896811e-02,4.598212893027821269e-02,1.253557181022269817e-01\n-1.675824442029323624e-02,4.161410998973695541e-02,-2.222057765056395517e-02,1.096252363141955732e-01,1.012364471308700581e-01,4.616249260011376365e-02,1.669836035087984560e-01,-1.927988648066360222e-02,1.854328756078332252e-01,7.757191465385160356e-02,3.803163819930462965e-03,6.002772917916132656e-02,5.941059137438396698e-02,-6.424625497495835280e-02,-1.493575117927674056e-01,1.349144688360431193e-03,1.096571183073478950e-01,1.294028156516135730e-01,-6.601369754094330543e-03,5.954015360897006032e-02,-2.316983506649382130e-01,-2.100515151973811334e-01,-1.027101346733647058e-01,-3.478652215239795564e-02,-5.224389134575338489e-02,-2.230290125380335609e-01,-8.158683503408332288e-03,-9.410520179459290480e-02,2.655062081618476677e-01,-8.975593569580574138e-02,2.367713913599957601e-02,-4.791614022632390696e-02,6.273127438052807092e-02,-7.076540577248231767e-02,-5.992911424546673582e-02,-1.551870095742685085e-01,1.012779499259811172e-01,2.460816680257257583e-01,1.149702621606702169e-01,1.537924083849963874e-01,-1.411533080083038072e-01,-4.267790392795219739e-02,-2.234639174319747179e-01,-2.236259292813817523e-01,-2.207093643125401239e-01,1.819455538583054643e-01,7.978722567728697979e-02,-9.864857121282798180e-02,-1.763686901578110922e-01,1.707804007288637183e-01,1.249032169020869165e-01,-3.485329640105622878e-02,2.196347839052277540e-01,2.495428168648291395e-02,-8.264961247454911952e-02,-2.755814149077219499e-02,1.218317461444174687e-01,4.883013015448493246e-04,-4.503588836425032604e-01,3.839707938362152406e-01,1.283665702705619749e-01,-2.212266267918821389e-02,-1.738138747901635528e-01,-9.900942839367846138e-02,1.385877911830374065e-01,-1.099941107572743604e-01,9.067804748192470621e-02,1.048617912623211884e-01,8.625998123311943988e-02,-2.140359049955062321e-01,-7.278709190482500480e-02,4.680561252018938107e-02,6.691414522173094737e-02,2.536993966869935946e-01,-6.686164157783189288e-02,-5.337132006163865239e-02,-9.162626368941648169e-02,1.877749094548259723e-01,3.634026317873586404e-02,1.540381426313310875e-01,-4.426797193155206783e-02,1.203895647337066693e-01,-1.274692601724745911e-01,-1.445017298501085068e-01,1.084585832970260955e-01,-1.050159611739709814e-01,1.492314188155544064e-01,-1.901037317582954800e-01,1.170888326120407552e-01,-1.413275692670951100e-01,-9.230926372029012172e-02,-1.182087162725757312e-01,-1.574810164778537858e-01,5.395289518998908768e-02,-5.341899932796681516e-02,2.780866748077636882e-02,4.859368007021152430e-02,1.479739584152875986e-01,-9.515241880938705987e-02,1.290053050539020918e-01\n-1.292588940962142441e-01,3.528219768290848796e-02,-2.272418738724789056e-01,2.079604706858283747e-01,-1.217074818339941716e-01,3.439972832802873359e-01,-1.619203462491657433e-02,2.350255994008595140e-01,-2.190588735908865700e-02,8.668144321059123580e-02,-2.815774217800837698e-01,2.588500220444685251e-02,1.756048748271180418e-02,3.314165339332061366e-01,-1.187368223839127372e-02,1.126915904748394814e-01,-4.937277877566879219e-02,1.275113948292786459e-01,-4.178393017499338474e-02,-2.998021567667134013e-01,-2.092554188779148783e-01,1.561597795992290261e-01,-2.745747924392034633e-01,-2.516741916686521599e-02,1.339055820230536931e-01,1.176870252664180133e-01,5.856388493041018301e-02,-3.985347015595800541e-02,-2.007012879304538935e-02,9.092882977169503000e-02,-1.185844698640825257e-01,1.800695094246016533e-03,2.403851924301647902e-01,1.378081572052689829e-01,1.569368168879382852e-01,3.459589979142853600e-01,-2.132888638760526145e-01,-4.209385272188911203e-02,-2.641974488845960645e-01,7.965492621607854484e-02,-1.764791494798409119e-02,9.768921659581245032e-02,1.622326798607300405e-02,-1.963938556447505090e-01,2.275477111418402476e-01,1.019885033159591836e-01,1.528799836365861142e-01,-2.255021103028366156e-02,-1.437581411733732106e-01,1.836281718247932682e-01,3.950207024981478021e-02,-1.290684274573965229e-02,7.299280081131082065e-02,1.337667544952632070e-01,6.585751831525778199e-02,3.647004111010267863e-02,-1.120631156429973824e-01,1.904817549002355004e-01,1.606864455364373223e-01,9.449042665384416173e-02,-9.496615292258377139e-02,1.888893687599846050e-01,-1.449353746763772932e-01,1.165275977310836347e-01,1.487332102482719909e-01,9.544685452290832539e-02,4.153551974271166292e-02,2.659392035528370876e-02,2.267929239859411625e-02,2.690703723772505662e-01,-2.527226940229647112e-01,5.760280942733575667e-03,1.797209467403177163e-01,2.232446688657253320e-01,1.196854763875360335e-02,-1.257654292107777128e-01,-1.050308837959060618e-02,-7.094322124884046288e-02,-1.502227683419701532e-01,-9.858455317889490421e-02,-1.681027292983404697e-01,-8.078497423394927213e-02,-1.763158305759315592e-01,-2.506770494385114970e-02,1.423944869143581038e-01,2.825252125407661311e-02,1.327754892308991019e-01,3.088753528735052600e-01,1.823317968103895653e-02,3.321381204249126279e-03,-2.557435824960708204e-01,2.102234044709328786e-01,7.839905232077100383e-02,1.150921076713686680e-02,-1.203254254075605822e-01,5.911218005078970605e-02,4.378946438383677503e-02,-2.534825204324440695e-01,-2.817298679846132470e-01,-2.957449883835428991e-02\n3.725022388094410830e-02,-9.396646662640119330e-02,9.764177169147397750e-02,9.548850191474644866e-02,-1.128845049549202506e-01,-7.866378915913628533e-02,-1.818355904565471456e-02,9.089680405916018835e-02,-2.166615731245609758e-02,-2.482007783200099182e-01,-2.958393325219226683e-02,2.267948810878055721e-01,2.769831464910397223e-01,1.671360530098225938e-02,-2.999642414430948173e-02,1.354863310656770625e-01,3.861183843859233855e-02,1.006443660658832007e-01,1.445823487564067700e-01,1.262032502747445495e-01,-2.869651385321619341e-01,-2.616730296312051451e-01,2.665333993559191803e-02,1.373544830844651288e-01,-6.296448715479176228e-02,1.371233896153122578e-01,1.136238360658319291e-01,-2.038052843364969169e-01,1.578404429611871274e-01,6.660138959859531610e-03,1.448592804838525760e-01,-7.812802367036007778e-02,-9.280877167406398343e-02,1.722418280330734533e-02,1.080560058412484009e-01,-1.454412622730388294e-01,-1.395033633285982511e-01,-1.922806424229114575e-01,1.592799654103703999e-01,-1.411312228296968674e-01,2.021184718214417975e-02,3.548517517888583050e-02,2.749592604676348584e-02,1.636970225298098047e-01,-1.728940398147164603e-01,-3.935602413982813297e-01,4.195264646405263975e-02,2.802889532759874625e-01,2.594050799280986364e-02,-6.083480253677418965e-03,1.349150292277796204e-01,-2.734742538378010217e-03,-1.226969194069634506e-01,8.923433849205901491e-02,2.637236213964442785e-03,2.104632647324777284e-01,1.015058627235775196e-01,-2.145888186134594592e-03,-2.950101892223460504e-02,-1.765064039649924255e-01,1.451628275965693993e-01,-7.370186979461405830e-02,4.010951075751999217e-02,-2.032605612438284637e-01,2.532852475255644165e-01,-1.383166781125761136e-01,-7.116644179179499458e-03,3.203785487500349083e-02,1.857107013466840206e-01,-8.269413240642901897e-02,1.911675659054570819e-02,-1.976191957396988275e-01,-2.252122826822069990e-02,8.178956114969457292e-02,-1.470580461272542883e-01,2.172530718797893810e-03,2.178732174887319517e-01,5.898052074976795761e-02,1.076189147532954082e-01,-1.213141718312408801e-01,1.269127835824977457e-01,3.451546031346116039e-01,1.965633595308568238e-01,4.664992674069692175e-02,2.533743524642902423e-01,2.330637337097403172e-01,1.499679065065370465e-01,1.532715494050592049e-02,-6.874838957397361172e-02,-1.446133725862725206e-01,1.517605066470617270e-01,-3.253005739729181861e-02,2.973852844631363346e-01,-3.267921530318131096e-02,-4.758619552939219455e-02,7.520510943725874919e-02,-1.078098746232414723e-01,-3.562055983442587864e-02,2.997973647560751576e-01,-3.065313402853106842e-03\n-5.913053430074243638e-02,2.864359001368600027e-02,4.836797098759940128e-02,1.344559637161869825e-01,5.591494150622764066e-03,-8.488586105362554146e-02,2.305196016506530221e-01,8.543000031507075320e-02,-1.242054138460155777e-01,-3.278205960573611633e-02,-2.085222519291400067e-01,-8.944385036684023016e-02,-7.582621296139464839e-02,-5.482460634172493796e-02,-1.452600993588352707e-01,7.035952087807287314e-02,-1.099740223511611464e-01,-2.745840013909790073e-02,-7.921678259285641621e-02,2.042569759137186358e-01,-2.214260826787780023e-01,1.956732633276007938e-02,1.216668321197638541e-02,