{"weights": "-4.345489348472133528e-01,1.036098802681662656e+00,-6.380323894720357769e-01,2.399377211943837906e+00,-1.597731403022937258e+00\n-2.118487416955310731e+00,-1.987689165380330136e+00,-1.054679666445178077e+00,-1.339647127814705740e+00,2.376728112596911302e+00\n-4.262713216007962269e-01,-1.636288154766244896e+00,1.350986290195246520e+00,-7.234794666907615746e-01,-1.515065700647387770e+00\n1.040822275592380386e+00,7.340707029251719584e-01,-5.495259275357290418e-01,1.683531629186217460e+00,1.390257366424802743e-01\n1.939607270565292030e+00,5.853660509208082896e-01,1.869051121268082261e+00,1.214498761842242869e-01,-1.486338541355461285e+00\n2.934894909456627676e+00,-6.943598597033863173e-01,-2.702383633980806055e-01,-8.518596889849476828e-01,-2.407447203918461343e-01\n2.408584935980832287e-01,1.995415898929653320e-01,7.720722738827766607e-01,2.168858444225507220e+00,-1.431160494027409191e-01\n-1.514106697717660932e+00,-1.441172931317816097e+00,-8.160139560699792849e-01,-2.029739716900544888e+00,1.005044732301374033e+00\n-6.112515151389333878e-01,-3.763233870677982207e-01,-1.974062493180317717e-03,-1.685538924505645797e+00,-1.040044001923883465e+00\n8.078718301811969038e-01,7.464263423526394936e-01,-5.361560719200653136e-01,2.197818631993219363e+00,-1.581679858269861905e+00\n-4.259009364059903602e-01,-2.869241520909220911e-01,-3.395823717547756804e+00,2.345316279945655502e+00,4.377737761324555499e-01\n-1.292636519546131790e+00,2.469651043428529480e+00,6.998229536980007381e-01,5.159992704081552972e-01,-7.384565397493233485e-01\n1.134037317565173841e-01,-1.858155481060421055e+00,9.581918889106599835e-01,-4.536852724733156372e-01,1.668341635789949984e-01\n1.432859804188174824e+00,3.290518311186445555e-01,3.114969978170670228e-01,3.376630688204527719e-01,-8.874989591315755044e-01\n1.002470428194856433e+00,1.868392902038007897e+00,9.210663498126958615e-01,1.076121362377037594e+00,-1.062006445923246334e+00\n-1.027150978955014393e+00,-1.735357781771917907e+00,1.506471724569583559e+00,-2.909704768904691763e-01,1.717329705479173851e+00\n-9.188338521736807429e-01,-4.951390447165580078e-01,1.454021170157034915e-01,1.157605366978323502e+00,1.052681708459395904e-01\n3.121528154487229756e-01,6.632015303538431328e-02,2.559559412047077709e-01,-1.319841656044115297e+00,1.234831759843505461e-01\n-1.996487916209176705e-01,-3.970477556052699752e-02,6.228493968007385861e-01,-8.044037800309418174e-01,-8.525204773313885265e-02\n-3.307898596440631556e-01,5.350172327146336393e-01,9.712181401899159239e-01,-1.146252623284075955e+00,7.194140833952743508e-01\n2.557122363201751458e+00,-1.727095586550427386e+00,-9.539958752836591449e-01,-1.026410762358446638e+00,-3.120436829155128766e-01\n2.005593613978085887e+00,5.319492744157113678e-02,-8.091467227538665652e-01,7.722974498052275205e-01,-7.205223783827782169e-01\n1.383972779595218361e+00,3.929709250322668823e-01,1.701834145923773134e+00,-8.083620493771878079e-01,3.671524973911096446e+00\n1.022680338439768910e+00,8.071569473068898048e-01,-6.178043367098947497e-02,-8.954399239609651673e-01,-1.061899143132560175e+00\n-1.564431523844737049e-01,-9.666620349208486784e-01,3.355463485420803749e-01,-1.009402332465848984e+00,7.482466555663412899e-01\n1.073258939167814452e+00,-9.440600988205009036e-01,1.378107690075458525e+00,-3.177957598377738058e-01,1.383303041901990493e+00\n4.919892259367263931e-01,1.305986603315716588e+00,-1.261291395671000126e+00,-1.558783386887691025e-01,1.746814365020571858e+00\n-7.760467891024463993e-01,-2.507676101855683015e+00,-2.378790426538072378e+00,-3.055132372276817332e+00,-2.578503209395552442e+00\n-5.240796196445695054e-01,1.538861511995843756e+00,-5.369690025152058510e-01,3.894607218597187503e-01,-1.392809026127489191e-01\n-4.699543612396809428e-02,-2.401238324195802409e-01,-2.308823361037579402e-01,5.541697789497646021e-01,-1.429390678124274894e+00\n1.182751348214378329e+00,1.078244962904414850e+00,-2.703628196856149302e-01,9.625204661619835012e-01,-8.581856091484151294e-01\n-7.198209712462572130e-01,1.426001253741697727e-01,-2.601044187411447051e-01,-5.506939365085088411e-01,-8.146971534346045818e-01\n-7.276098301223414833e-01,1.117654947919289432e+00,-2.362227674867923621e+00,4.382491599297759777e-01,-2.776355047694322176e-01\n8.900238886164252294e-01,6.220540775917398069e-01,-3.362955567769151166e+00,7.253893795209257478e-01,4.062476245435315825e-01\n3.818498656339047032e-02,-5.518178089131015041e-01,1.057453788586674825e+00,-4.839385959432359052e-01,2.235616633076357385e+00\n7.641518315985195153e-01,2.650034382443169356e+00,-9.075690023883951074e-01,-2.110307975671336767e+00,8.864628577719925184e-01\n1.096925916145209179e+00,8.780889101903303906e-02,-1.839883608655484171e+00,-5.375369016995356075e-01,7.556575216669833006e-01\n-1.756820619432939434e-01,-1.216425133831968014e-01,-2.073392330746773038e-01,-1.136917129164649376e+00,-6.506042435935958101e-01\n-1.686922696334297589e+00,2.152225577686826430e+00,-5.809122504609909310e-01,5.664120452153503793e-01,-1.246030487338264825e+00\n9.729949670252714400e-01,-2.274698346993612841e+00,1.107360068525730989e+00,-4.442474763461174564e-02,2.557288040767136561e+00\n-1.564278972037181026e+00,1.023625084476079139e-01,4.222112200659716708e-01,1.465787790460536755e+00,-5.241197525071272789e-01\n6.290663792659037523e-02,-2.626006769794758888e+00,-1.042745180476838396e+00,5.257715790791165356e-01,1.321956257428900550e+00\n-3.986440605438578699e-01,2.464672348518615053e+00,2.112484028491460109e+00,-9.790217069147130746e-02,-2.946782260527604613e+00\n-2.168894555574637728e+00,-9.428395819992615445e-01,1.358811815471403284e+00,3.615965568581864242e-01,-2.550593271620006597e+00\n-2.748755047978824750e-01,1.963126520354153914e+00,-4.535147986613676241e-01,-9.132937941988924502e-01,2.491616624641821875e+00\n1.158139308457744321e-01,-5.742209731424037233e-01,4.272827049616106931e-01,-7.635889090284570489e-03,-5.457980790587265707e-01\n1.436655830404060197e+00,1.313754611981917231e+00,9.651601797695764651e-01,-1.727179371675092445e-01,1.360380454887910373e+00\n-1.206899238973597466e-01,4.990105935850778773e-01,1.184602626915855828e+00,9.418696426271793154e-01,2.147745405822306441e+00\n5.389058241977364716e-01,-2.078807717463213578e+00,-1.440741236745415543e+00,1.621406223860257345e+00,-4.163991204335391050e-01\n4.260441469304188655e-01,-1.065456415760473785e+00,1.194105720229441392e+00,-4.801359896987625331e-01,1.753261364691065749e+00\n-6.725880486940452041e-01,1.335107357969327779e+00,8.026265014485599592e-01,-8.760502371453670056e-01,1.330968070744986242e+00\n-1.111222419906360503e+00,-1.013505406722215785e+00,8.662839795859105241e-01,-7.567347204724254039e-01,-7.172196973603455206e-01\n-4.046695953641317733e-01,-1.203126932113784076e+00,1.281566157803772255e+00,7.499790728679754936e-01,-7.563868365620021739e-02\n-1.056625599166272078e-01,5.795524643708637180e-01,2.166905814490881266e+00,1.075619872485767958e+00,-6.051943433285960072e-01\n9.784625672015015985e-01,-1.128546604942741310e-01,-2.236821577839287478e-01,2.279784560072271038e+00,-5.040911020527352182e-01\n-6.404391963918065755e-01,-2.427641568900795299e+00,-1.776093233464140830e+00,5.111883671860559808e-01,-8.568878308474350280e-01\n5.793403444047889872e-01,-1.426460438278400300e+00,-9.996236223152964451e-01,7.874331486277260650e-01,1.757035986930975513e+00\n6.616513200071433287e-01,1.386100518227004086e+00,2.027339848791783972e+00,1.239219667868693531e+00,-1.131277862115073418e+00\n-2.051049172311435465e-01,7.180442408026986856e-01,-5.397447406106232748e-01,5.330400925816517477e-01,-1.927106816930831856e+00\n-1.063681568108476583e+00,5.991367033170487133e-01,-2.740348952351954193e+00,-1.357177316663026101e+00,-2.820892276278620658e-02\n-2.116078996244272314e+00,5.844721747087015112e-02,-9.830052646566501684e-01,-3.531448697813267534e-01,-3.009909809800491720e-01\n2.487142729868326574e-01,-6.774200625121933328e-01,1.169388697604111377e-01,-7.174178747824024871e-01,6.905764747614442367e-01\n2.078894849662616728e+00,2.641067464687862909e-01,2.279963545841867667e-01,-1.397952783836698520e+00,8.509076452549700909e-01\n-9.035517141880634595e-01,-9.654893956118369980e-01,6.895027618760919408e-01,2.263440831386494545e-01,1.348624828296561384e+00\n1.762425949281042126e+00,-6.442804123450354137e-01,1.621344051775122919e-01,2.139733975375463171e+00,1.178306164914965537e+00\n8.808211389466243935e-01,1.602164556295928133e+00,-6.973124472849171473e-01,7.857695985214903089e-01,1.707906464879944908e+00\n1.943449480804090079e+00,-9.940778589815660871e-01,-3.041924888759104384e-01,4.571371554300147078e-01,-3.651631245446192997e-01\n-5.234275729050980042e-01,7.939795266877984758e-01,-4.551071956460191470e-01,-2.191067153842388482e+00,4.240785615544122034e-01\n-5.427273617748628043e-01,-9.215410394097696134e-01,-1.925787657221804450e+00,1.208336367061159322e+00,-2.714939026889469975e+00\n-2.077037881184383039e+00,-3.429306761601047526e-01,1.483356743721831350e+00,1.582123387809251325e+00,-1.408902469677314029e+00\n-2.094445677771358261e-01,-1.812867484535463758e+00,1.245062750336033863e+00,-1.775937949839972996e+00,-1.625381188387643172e-01\n1.222980545075430969e+00,-2.944426796244857814e-01,1.763924588634252943e+00,-1.053005886777330646e+00,4.486179637545240073e-01\n1.017699879870520130e+00,-1.833411949566693122e-01,1.669687584171311912e+00,6.608629748014185346e-01,-1.990614996566333783e+00\n4.793307518961546165e+00,7.714228994879135382e-01,1.200600307799302158e-01,-1.703598373284734402e+00,9.650597274697295114e-02\n-5.692067051192492011e-01,7.671451465062694153e-01,4.394440618852294422e-01,2.243773137731990719e+00,1.706379873941913650e-01\n6.624220107619386289e-01,4.777385692007267148e-01,-1.458682031554181524e-01,-2.036596046860742470e-01,1.344736491465351014e+00\n9.694487050750417723e-01,-7.397133201425893922e-01,-1.335046866088146489e+00,-7.705402144263087671e-02,1.405648463428851747e+00\n-2.492034920514647409e-02,2.111185306393957628e+00,-9.535504998133861321e-01,1.619885642532125358e-01,-3.061486988884242422e+00\n-7.244728907477050450e-01,-3.925692635596172431e-01,6.021723695016867328e-01,2.065588383863091515e+00,3.286447848492950879e-02\n1.743006869903162448e+00,7.784469925080530484e-01,1.178623095490361150e+00,-5.785732000919650009e-01,1.672627423209614328e+00\n-1.249827604026789052e+00,6.371886695139146184e-01,-1.110829409302261039e+00,-6.005411780266312061e-01,-1.754763970659633410e+00\n-6.090313959088559104e-01,4.406544421686589552e-01,-5.780755005164275873e-02,-1.617012034637252516e+00,1.787984229858895047e+00\n3.788593374226881250e-01,1.215294719389632183e+00,9.517012619180532651e-01,-8.185149884666398368e-01,-2.374144816175144168e+00\n-1.132082035970976452e+00,1.464080673585503645e+00,-1.299910059967979592e+00,9.660129382792388419e-01,-7.604663342502567813e-01\n4.550192772791898377e-01,-2.237005821174897324e+00,1.393859885038759128e+00,-5.938221084901307983e-02,1.067837925939242316e+00\n1.939843393029828944e-01,9.357920622231665764e-01,-1.526860848161423756e-01,8.994973431163135746e-01,-1.825213249162554785e+00\n-1.364476916663013295e+00,8.347513488393928371e-01,-7.730840526682972169e-02,-2.826232750264172644e-01,-2.148656030967079078e-01\n5.903600351817964720e-01,-7.267135015719973223e-01,6.106163143683639438e-01,-1.109752557430459641e+00,-4.897832971793257273e-01\n1.187912316367150556e+00,1.300409244216055082e+00,-1.330590259848431822e+00,1.025952798385641129e+00,-1.255805534574301552e+00\n8.786072478838649058e-01,-2.307263903675233152e+00,-1.353682141079514345e+00,-6.158755857559445879e-01,-1.997157348181030356e-01\n1.719513496387405471e+00,1.089700033561478598e+00,1.903479557674702338e+00,1.458667615548412178e+00,-3.497373887716766494e-01\n-3.485598221516468254e-01,1.278184341778951572e+00,3.835446300518488560e-02,-1.954826386793324100e-01,-1.621809824957784807e+00\n-1.445926628787134183e-01,-3.393055902892754716e+00,-5.595165556238962390e-01,-1.188132920840283102e+00,8.443581682221581453e-01\n-6.059579554840807125e-01,-4.155220855859476092e-01,1.627224637545051200e+00,-1.270325195559576459e+00,3.861264835813618124e-01\n-2.310717529559962014e+00,1.050569997993192756e-01,4.982675992619371996e-01,1.045749034416880052e+00,-1.087967894855036644e+00\n4.132863656865598534e-01,3.984459793083008905e-01,-1.165043951571771014e-02,1.993424498068944728e-01,5.815328538589200624e-01\n5.123211115769209512e-01,-1.172633639128739302e+00,-1.421002007748040530e+00,3.079730689089460238e+00,2.360392017459337577e+00\n-1.632157394053538546e+00,5.924110145660651527e-01,8.021340397873913952e-01,9.459148313712083533e-01,1.956216510205094905e-01\n-1.097666261874580496e+00,-1.920597803283150828e-01,-5.701456025786066917e-01,1.842997760898101856e-01,-3.082886653163469104e-01\n-1.298030019810171298e-01,1.264368267343082053e+00,1.511983805046924756e+00,-1.420012771028019261e+00,-5.492500008307149573e-01\n-9.080757049295464789e-01,1.541946162430357203e+00,-1.896676867257104243e-02,1.799486579876168779e+00,-5.528150182666684564e-01\n6.852479534139055417e-02,-1.599048167723242875e+00,1.613605868442366198e+00,-4.218546823191322570e-01,-1.794504639503106347e+00\n-6.974793553519680334e-01,-2.773319857960752977e+00,-2.143033284959446408e-02,1.303401848120291917e-01,3.443780325555389488e-01\n1.839702742496233556e+00,-3.519872294321006456e-01,9.798040426353606946e-01,3.635139704240806791e-01,-2.437565069755380232e-01\n-2.510773953021032234e+00,1.149844418838254834e+00,-6.187044558239589431e-01,1.448238065023334416e-02,-1.546303222512340980e+00\n2.567185896479580731e-01,4.321213223383935098e-02,-3.300313527366651595e-02,-1.926703878183444185e-01,1.254634586761621096e+00\n1.132549402459283927e+00,8.251169330555534476e-01,3.976807873331108745e+00,-7.544386376857166177e-01,-4.742282663073724702e-01\n-1.257347548296991135e+00,4.924409802483217247e-01,-8.562805343453477880e-01,-3.287943574686461812e+00,-1.485750256332493580e+00\n6.290777529219364339e-02,1.212863691834634272e+00,-1.889178429991944741e+00,-7.459235219630276914e-01,-1.748966358348603145e-01\n-9.411232262632780454e-01,6.082428395950987277e-01,-1.473841756040412260e-02,3.844653188980138858e-01,-8.825837511980506589e-01\n1.821315603845077069e+00,-3.824405164548675545e-02,1.535402135354634767e+00,-5.469967367993580076e-01,7.083365374423398197e-01\n-8.922700618636955072e-01,-1.200463851339449439e+00,-8.837725245022710618e-01,-6.198806727672652450e-02,-2.643155490246664185e-01\n1.815808685060252170e+00,-1.415053781875766026e+00,-1.327508241076781559e+00,2.073078409716204717e+00,7.476651941737543217e-01\n-2.275113749321881595e+00,6.004561877207367226e-01,3.003151544053509481e-01,-2.585152889349326966e+00,-4.354157381750308753e-01\n-9.509728260643066436e-03,9.039430750690163885e-01,1.180232669587728322e+00,1.332357425131708850e-01,1.263634379406278763e+00\n-9.791449482952505057e-02,-9.834651637796918422e-01,-1.087887298819493420e+00,6.779893707569192296e-01,-2.355988132242379685e+00\n8.847665203781355237e-01,-1.297421020322860441e+00,-4.089991050821901730e-01,6.188424526026037320e-01,1.483437522763982663e+00\n-2.306422144382909600e+00,-9.588859306408651362e-01,6.501710533717283691e-02,-7.271121512803275788e-01,1.041177597475380079e+00\n-2.487340275731642070e+00,4.464755315295932947e-01,5.124075101770634300e-01,4.658103048019850839e-02,1.330651195499015893e+00\n-1.482356540773710041e+00,1.342367727414235157e+00,-8.620809073450749205e-01,8.786126245106798960e-01,-3.962741627841325220e-01\n1.008465764654512320e+00,9.564630777371817549e-01,-1.799242166085928796e+00,-2.171956988450153836e-01,-1.232958575806881174e-01\n-3.305358410654102297e-01,-9.437346440025815575e-01,2.210196417260320345e+00,2.315818989357578406e-01,1.868852856352813729e+00\n-7.472916383713370525e-01,-1.317823814218101797e+00,1.376256295602119595e-01,-7.075652990231684480e-01,2.880317288736659265e+00\n2.851064946038182613e-01,1.398915780141402498e+00,-2.667776984642211691e-01,-4.103123033209037929e-01,-4.764880383921915596e-02\n4.341357445180484831e-01,1.036624552742659855e+00,-1.470351559502592886e-01,-8.294496744939587884e-01,-1.296154388067793484e+00\n-4.199130709380967386e-02,7.020602462193679116e-01,5.580258781924449796e-01,-5.007137988644443788e-02,-7.532265897633088070e-01\n1.487641517489649290e-01,6.539766922599332677e-01,-9.951465283914891213e-02,8.839948399905574183e-02,-2.134452788328261574e-01\n1.050154842574819503e+00,-5.986161048869327317e-01,1.557468994283124353e-01,4.391590512468442342e-01,8.567712770431320513e-01\n1.806065977827002289e+00,7.834167864919631130e-01,6.934908747085457570e-01,-1.799831430722099723e+00,7.210687091742224997e-01\n2.739560157603623036e+00,-1.039442809551367697e+00,-1.256755997013255799e+00,-2.736998983094461324e-01,1.223325188246642936e+00\n6.095943145902291693e-01,-6.000308944529455513e-01,-5.911248938837252581e-02,1.258239551217846586e+00,8.137490102008112514e-01\n2.928877507214385556e+00,1.204149269591396898e+00,4.197042656513343406e-01,7.475386672310680991e-01,-4.201919464177931163e-01\n-1.173592757098896433e+00,2.187289975613865844e-01,6.090069344158500764e-01,-1.680741593945842327e+00,-6.251871467861718212e-01\n-4.221052360754835031e-01,3.557275617279140878e-01,-2.905062721178613416e-01,5.590115769206255303e-01,1.306088326622587559e-01\n1.321646439026642694e+00,-2.044522216799393721e+00,2.027900449673047500e+00,1.735367820510618220e+00,6.514189675941724211e-02\n7.297184403547140041e-01,6.761509570193192653e-01,-9.693624537521557949e-01,1.636986661994907499e-01,9.300603295118309299e-01\n3.299394313237292153e-01,1.201253508990715924e+00,4.640254893532824720e-02,6.709603837477413901e-02,-9.464992407183591139e-01\n-4.992573020901835967e-01,-6.246001643645604506e-01,2.028418676563571221e+00,2.692792587294813300e-01,-1.229519050421702175e+00\n4.062067412750248185e-01,-2.793303798427936302e-01,-3.740901813088193251e+00,5.668920635589029811e-01,-1.895012361149770230e+00\n6.432015840392746320e-01,-1.208491971824380506e+00,-1.795666268582863268e+00,5.862055377707494630e-01,-1.819257660753011763e+00\n-5.722272083297206269e-01,2.370776090378071133e-01,7.295642308843751644e-01,9.041632991628604232e-01,-3.084130976179158198e-02\n-9.906520726240171104e-01,2.340185343883605551e+00,-7.269456718148226138e-01,2.199675603452960093e+00,-5.329108808784634999e-01\n1.432913637480985880e+00,1.323221587386927744e+00,-1.246357257993040646e+00,4.450354490640707761e-01,9.261484745788682860e-01\n8.663582974512707979e-01,-2.256341659510905928e-01,3.795917023214413488e-01,-4.720472592266674039e-01,-1.415918310877153141e+00\n1.205796966261549974e+00,-6.685413802929717209e-01,1.680131013656718464e+00,7.350574057670533623e-01,-1.076992159449927433e+00\n-1.796906706105123319e-01,-3.297389310972474452e-01,-1.020330917916912661e+00,6.218203243765989541e-01,-5.821841990303335823e-01\n1.956525297782006012e+00,1.028180266517072505e+00,-1.066616776585070925e+00,-3.016684297474973853e-02,-2.896659189070475149e-01\n-1.945969233899919493e+00,1.093913124209095145e+00,1.125771367414212243e+00,1.100458566206278466e+00,-5.692151004683100313e-01\n1.268947364689334334e+00,-2.885945769280192641e-01,1.107929291625227686e+00,2.177211405502222696e+00,1.566365907720610462e-01\n-1.737157741130035404e+00,-3.927328899464691547e-01,7.701160152358251798e-01,1.473152634025947982e+00,-1.383197066567803057e+00\n-2.251125341163343063e-01,3.024556910558332534e-01,5.460887595635210978e-01,1.119612221694829435e+00,-1.139344806647200281e+00\n-5.437908347809555787e-01,1.198078890365904092e+00,4.564610040149176262e-01,5.462748416111210537e-01,1.365850356593012238e+00\n1.088427145568295618e-01,6.266352820513579891e-01,-3.935743730648078031e-01,-1.635623097045584950e+00,-1.575516982325948501e+00\n8.145223155412173455e-02,-2.574972596553805615e-01,-8.042243873872941817e-01,3.790106151072167862e-01,-1.082633099060572146e+00\n1.237885620880135595e-01,-3.817449218274798078e-02,-1.030367505478849477e+00,-2.791887329882046132e+00,1.764929582524505935e+00\n4.236096274570638753e-01,-3.205809155839768998e+00,-4.830238016247527244e-01,4.965021981346534607e-01,-2.675870483055529103e-01\n7.272048525348142611e-01,-1.156793801099851526e+00,2.281029116712284532e-01,-6.016058797774122974e-02,-2.253089347790332153e-01\n-2.596462728180814472e-01,2.349798684647383951e-01,1.118098016834032649e+00,-6.528949527833411981e-01,-5.030725362365316977e-01\n1.928806179809154919e-01,-1.633362708782353512e-01,4.501332973133759796e-01,8.617857641381526657e-01,1.556761531662052001e+00\n-1.619312714732650815e-01,-2.786701868787465841e+00,-1.023367568951631251e-01,4.161641334195875230e-01,-2.342329648968392852e-01\n-1.341450601091443984e-01,-2.914238153588362579e+00,6.602900045963545628e-01,-3.650707918578044442e-01,-1.815020150219564865e+00\n-1.039756554143967948e+00,-1.034358266988408603e+00,7.640622134820457267e-01,6.992025067081732992e-01,1.841371502106975200e+00\n7.557608175100539727e-01,-1.647173637293334769e+00,-1.710274720583243369e+00,1.359641647961294497e+00,1.885787345298036266e+00\n-3.100221564988677736e-01,6.557567335982796841e-01,-1.847417484052269465e+00,-2.381982202302951102e+00,-1.441739354861187872e+00\n-4.551334016859773790e-01,-6.569464728797267394e-01,-3.010101587597207029e-01,-6.068902687912464122e-01,8.173117681220507524e-01\n1.695367042302289962e+00,1.160484607542070987e-02,2.433465750693927898e+00,-7.718054606663866668e-01,-6.309959778204891068e-01\n4.168308625570436576e-01,-4.756809909361637834e-01,1.398048416606631150e+00,-7.828317105748331395e-01,1.607517404518970183e+00\n2.172842708596219863e-01,3.105086449863061038e+00,-5.714136315384666931e-01,-2.447241749956841073e-01,1.809205489289189284e-01\n-2.652601148790056484e+00,7.315009607439195705e-01,5.836141122538476278e-01,1.412505229243306570e-01,-1.868658210453775226e+00\n-1.886658195734895571e+00,7.077048232967995123e-01,1.426995321914743542e+00,1.935713083860169270e+00,-1.083980322050730249e+00\n-1.257828484921521772e+00,-3.367796464685802182e-01,-2.404325762053442173e+00,-7.194234582870405736e-01,1.026661498261246308e+00\n1.957375697008141069e+00,3.200923840152836708e-01,1.979466552868572649e+00,4.933718748749684746e-01,2.300023779502781418e-01\n-2.234183936557386507e-01,2.193468372800584099e-01,-3.153711330681779890e-01,-1.704030452420636221e-01,-7.986863884006016878e-01\n2.889192895329371624e-01,1.162918396208161096e-03,-1.801705728502890347e+00,-2.897297283350372954e-01,-1.035976867865538997e+00\n-2.496234581560557331e+00,5.831888767544961549e-01,1.891369454982080311e+00,2.877294185037321483e+00,1.897489759468996562e+00\n-1.030807532457244102e+00,1.438145884876222080e+00,1.370179847345839752e+00,-2.393986174161735203e+00,1.064031325375188075e+00\n7.904709484819867349e-01,2.330799207393662309e-01,3.797545561347797083e-01,1.105641709504887604e-01,2.011205777677309126e+00\n-4.313462462848613455e-01,-1.962665883562915159e-01,4.998041117576782627e-02,3.688962196135914806e-01,-2.113608350860873397e+00\n1.710373360020063904e+00,3.036197305868545415e-01,7.159976588865646363e-01,2.606530661520115033e-01,-2.089028731735913802e-01\n-4.010011454108753925e-01,1.453980778159827125e-01,2.036948245813093306e-01,1.414130840088928531e+00,4.284591276501228951e-01\n-1.107197119741044067e-01,2.467318009246909583e+00,-1.498966859145383079e+00,-1.583970019920715844e+00,4.566702038595046309e-01\n-2.206355577798570500e-01,-2.115688547721497947e+00,-3.451962064225919669e-01,-8.440514757034709437e-01,1.379198010631989213e+00\n-7.324038523447941040e-01,1.297119989056028322e+00,5.749070749228432087e-01,-2.564049857466243476e-01,2.060545547906305827e-02\n5.423997088848790948e-01,-2.786668085640280790e+00,3.970666567498193911e-01,-4.751429896973170530e-01,2.171732147942966318e+00\n-8.300434998119757823e-01,1.386466638058635237e+00,-3.058102060112033449e+00,9.808873625204400648e-01,3.297663485227952385e-01\n-3.862161571825132311e-01,-2.344810097186655617e-01,-3.847632050150651128e-01,4.839683132098700491e-01,-1.809780552029206235e-01\n-2.208159060972605392e+00,-2.808606611193262825e-01,2.658994989585552471e+00,3.049595681892006832e-02,3.388904035158327166e-01\n-5.577179683690438594e-01,1.747028861034625735e-01,1.935388835863930401e-01,-3.315300212878553032e-01,1.033285564330646666e+00\n-1.144483980584951599e+00,-1.700000048714433165e-01,6.121392211689729024e-01,-3.268876323980592358e-01,-1.490490628130706430e+00\n6.198404722913932741e-01,-1.227506201240211370e+00,-5.622019212812726652e-01,-1.009838669600728212e+00,-1.371766445208484619e-01\n-5.634600203599602342e-01,-6.134936604677421190e-01,7.923190253636307467e-01,2.123677311307055504e+00,-4.410999956955929946e-01\n5.658715963423852635e-01,-4.780936064898943516e-01,9.066708425425187845e-02,1.361677390278215771e+00,6.202914488083956235e-02\n-1.040642354354585075e+00,-9.070527010648351540e-01,-7.530143071791082221e-01,-5.485340636780034092e-03,1.049992689865738349e+00\n-1.641153195823512378e+00,-1.261050316963383766e+00,-1.109104017151892663e+00,-2.105948557150572054e+00,1.621304182135329341e+00\n-3.246524344114119082e-02,2.322463681197534768e+00,-1.705422691632282550e+00,1.587006253333393291e+00,-8.411398520605104512e-01\n-4.146392987992721380e-01,-1.142942883121727426e+00,-1.106910477040669027e+00,-1.586048764233654040e+00,2.818065884332725535e-01\n-1.531653273120867409e+00,-2.484043415283934686e-01,1.559816823698352735e-02,8.144221408487953839e-01,1.277867740899856497e-01\n4.375208231793124569e-01,6.430646129297640234e-01,-1.542380065497468353e-02,4.367361953870900204e-01,-1.192476600187122315e+00\n-8.971195578854089803e-01,2.309378141668974926e+00,-1.849217112785079414e-02,-8.748340343570434330e-01,1.667448158438928907e+00\n-1.810720128910927873e-01,-7.866778917097801971e-01,-1.767107662909619625e+00,9.440465491897883643e-01,-1.320740812882516435e+00\n-6.332559857886184140e-01,7.910385780448068171e-01,1.994961075553896568e-01,-1.346298054536005095e-01,-2.707495514611333309e-01\n1.348095483194152067e+00,2.678376749126508471e+00,-7.013812203686893287e-01,6.680487672363115692e-01,2.322274496197709759e+00\n1.252075678816082505e+00,-8.629697670448137625e-01,-5.452385609236798381e-01,-7.496971167377652900e-01,-1.127124613598316616e+00\n-7.694378416437743784e-01,3.184172977925713854e-01,-7.068665352490912657e-01,1.048098909855581296e+00,1.393643960515715541e-01\n-4.791055883716007213e-01,1.080904860098345743e+00,3.880755916937698169e-01,3.177615319801224691e-01,1.260866497609454351e+00\n7.464287346996393291e-01,-1.250761826453917480e-01,1.139817391595065343e+00,3.467624171601195182e-01,3.513637467005618742e+00\n1.303501209190844223e+00,1.359257369523158898e+00,1.511195684738416256e+00,4.894010445910953327e-02,1.561741878617202373e+00\n-3.206446340466521244e-02,-1.075314881204966655e+00,-7.534660351718794891e-01,6.011294714825636820e-01,-1.917056137201619270e+00\n2.442165822239931727e-01,-9.194772226088114842e-01,8.378484641391175103e-01,-9.215013492036279175e-01,2.256676619161834818e+00\n8.885572514182669135e-01,-1.571790374625856357e+00,2.113454772771084400e+00,-2.889827984833429064e-01,-8.979768227326263563e-01\n-1.268884725071290687e+00,6.674788576648742477e-01,1.809616289715892945e+00,-7.014125810879839884e-01,-1.212347872159621698e+00\n-1.400009537107706370e+00,1.799418893896676863e+00,2.017496733019052968e+00,-4.208746100409256341e-01,6.554126061837860506e-01\n8.977058405868917901e-03,-6.341279604714002149e-02,1.183342783967726852e+00,5.467208373330955107e-01,4.081510502926911088e-01\n-3.290917123677495892e-01,1.022857859724268792e+00,-3.166353280853520524e-01,7.964275750794427844e-02,2.778317843574402146e-01\n-1.421661331402567008e+00,-3.315976849234363311e-01,-3.614912812041304324e-01,1.384136715478277158e-01,-1.344594205331966386e+00\n-1.498515361014957525e+00,1.909725147121043909e+00,1.327843724091919642e+00,1.042405902259832651e+00,2.199699798773607551e+00\n4.631069733364691632e-01,-1.845420972820679961e-01,5.160734831223426911e-01,-2.310541569408728346e+00,-1.347146947071406808e+00\n8.632180250711346536e-01,-2.737201947689662032e-02,-1.590275462396583350e+00,7.763750376741574977e-01,1.194566712850472889e+00\n7.328601280891666736e-01,-8.317068719201833882e-02,-1.050687437612741304e+00,1.153226136598963780e-01,5.063831261759195179e-01\n-4.934972932659795197e-01,6.890923508378902218e-01,3.547881180214279007e-01,3.906278900589179037e-01,-2.472302022443356950e+00\n1.281071666591460989e+00,2.080941483261222302e+00,-5.013247908168214639e-01,-1.790986540568388019e+00,7.882275812564756290e-01\n-5.457809018566772696e-01,-1.166553279347985139e+00,1.485303267740731403e+00,-1.666298343330274268e+00,8.863094076452889825e-01\n-1.489364484924045939e+00,1.799106776116604411e+00,6.485428175176712884e-01,-2.981796538475574021e-01,1.910092160614025592e-01\n7.221322192351080638e-01,1.022397387788751777e+00,1.017455092731901267e+00,6.699487088371419707e-01,-5.735331208270070258e-01\n8.177004079086428456e-01,-1.580327063890421435e+00,1.224427885516093939e+00,1.063255939430919117e+00,1.696938688640677428e+00\n-6.983711044504562482e-01,2.435476551117113919e-01,1.077255120566289470e+00,3.991373928521231851e-01,-5.191697868904521229e-01\n3.500007119977614489e-01,6.639693075498057095e-02,1.208948189234244630e+00,-7.694789688861798371e-01,3.972251252680616962e-01\n3.072099476778625271e-01,8.829291031113414290e-01,-1.148232167231707790e-01,1.322128241021232886e-01,-1.009288169666722745e-01\n1.353037921203119331e-02,-2.401218994484107319e-02,-4.228179151113426459e-01,3.408187562590585085e+00,-1.037037326856003805e+00\n-1.439062506814191122e+00,-9.734540622275101862e-01,-8.687704648310741185e-01,7.248805690795454351e-03,1.727960104422882948e+00\n2.054139002261012426e+00,3.072900111736669992e-01,-3.012063147521705009e+00,4.814663503104361086e-01,-1.578732103680151599e+00\n-6.374670654180154550e-01,-1.419320974481027564e+00,4.968408401579312850e-01,-7.577468913741849388e-01,9.373940220261112177e-01\n5.616149997774031455e-01,-3.050809613675391496e-01,8.573380592751285445e-02,1.108832980053901629e+00,-4.557126500155687099e-01\n1.101994982977579918e+00,-3.885016782938757740e-02,3.166409474809601110e-01,9.627658349258374493e-01,1.612541678768625752e+00\n6.205049567916817166e-01,5.631589896932007178e-02,8.628198986019152139e-01,-1.878748744506371082e+00,1.986232668963431980e+00\n-1.568385691732407938e+00,1.122178182279188308e+00,-6.501045741549252854e-01,6.341403089514665581e-01,-1.322423266765147543e-01\n3.915030555062505302e-01,-9.475650840061305979e-01,-2.605350233917658187e+00,4.980146186670359465e-01,-7.316902623269841976e-01\n-7.783577344531252828e-01,-8.871980796720069229e-01,2.393857634407761115e+00,-7.160620258343245448e-01,3.873755285940734261e-01\n-1.409577484480756260e+00,1.830015474178271928e+00,-6.924089273169719005e-01,-3.164268280018128543e+00,3.280225439386866171e+00\n-1.352794675803780988e+00,1.563599600729408845e+00,8.713805036967655626e-01,7.780301794432614715e-01,-2.882501630967741479e-01\n2.812479766852253871e-01,1.521237124763162862e+00,-3.209699866017786674e-01,3.328517473835856944e-01,1.144070620529682225e+00\n1.184834054754208832e-01,-5.007991337186206149e-01,1.786584060170284038e+00,4.323912496082354950e-01,-1.479484754769648802e-01\n-9.714134252079152931e-01,-1.227392670685319764e+00,1.083387305785438182e+00,1.139523655508127398e+00,-2.647888211684311877e+00\n-7.682465679523846624e-01,1.148361127641017276e+00,2.918923167343038916e+00,2.584607048078949809e+00,1.124955442218036339e+00\n1.644085811938034603e+00,-6.642770625678700025e-01,9.176857477969488919e-01,-1.512013004596877597e+00,-6.883071591935109312e-01\n3.530275435219854541e-01,2.597526298528376909e+00,8.782853614577454948e-01,3.299313977614753424e-01,-2.003367197459071380e-01\n-1.657711926985973694e+00,6.860172258740517837e-01,-4.532534704935078929e-01,2.848433831643062963e-01,-1.075794675595551642e+00\n1.288280853473859899e-01,-1.871457244634792350e+00,6.028510791165798688e-01,1.602057701123646094e+00,1.112910953844648221e+00\n2.557298397997899819e+00,3.946209723999230534e-01,6.133550266014209384e-01,6.332014738607366633e-01,-1.062380553493741608e+00\n2.601403084532623478e+00,1.195304650539479985e+00,-2.931255683634024778e-01,-1.093649529387375141e+00,7.076450544602410631e-01\n1.032842163480912845e+00,1.603597837560356565e-01,2.180663089908478069e-01,-2.332128519499143682e-01,-9.940551361887327991e-03\n1.594112252227087634e+00,1.680490132197818287e+00,-1.830418308973409403e+00,1.634275977956519410e-01,-1.462776398632736896e+00\n-1.635725069228933126e+00,7.033756372033553861e-01,-1.027091502719807981e+00,-3.824672316017718288e+00,7.868329543221372901e-01\n1.530009853668646391e+00,2.456788857773390955e+00,-4.876172639847650703e-01,1.755661090752010711e+00,-3.177435041608164479e+00\n-1.277353969067785755e+00,6.257498542104894534e-01,5.725898038330368145e-01,1.604418681663029700e+00,1.162704751433731643e+00\n-7.342477095807765919e-02,1.867571511920708138e+00,8.444211345129400970e-01,2.100290512759267259e+00,-9.563944166671572988e-01\n3.938943100221932170e-01,-4.855397506716931932e-01,1.007264759109203656e+00,-2.264952748835958596e-01,-2.739363208803304861e-01\n-1.553060954640344660e+00,4.201404263889069179e-01,1.394169242296870337e+00,1.257498657942754949e+00,-3.633304431161767489e+00\n-1.938040249214072475e+00,2.461576115457853930e+00,-2.019843010030171471e-01,-1.593766469096279392e-01,1.430879203224302954e+00\n2.684689589359475770e-01,-7.385616872188796034e-01,-2.353096077812421305e-01,2.314096463079104993e+00,-1.667034689566597949e+00\n1.629669415963741486e+00,-3.214479305525927977e-01,-2.759659904771361583e-01,2.301599565275692871e+00,-7.533245183570791426e-01\n1.049958639866753973e+00,-4.034071245550157059e-01,-1.703622655374131600e+00,-1.833771347474359992e-01,1.425048861296983826e+00\n-2.042878916882598650e-01,6.891445752196794228e-01,2.458916094756294080e-01,5.069525427117319016e-02,-5.115257945175685217e-01\n1.822716941810257896e-01,-2.452901468475334301e+00,-5.435256142650723987e-01,-2.203535600363830671e+00,3.179136927514341071e-01\n4.387284344175234052e-01,-9.652008642101643776e-01,9.646763519191433600e-01,4.728658459477477205e-01,3.509576439561770678e-01\n-5.249745458968432255e-01,4.856894214667655252e-01,1.210124743825029325e+00,-8.303138250260637676e-01,-1.009005678686465179e+00\n1.402806222549100923e+00,-2.867847194054367499e+00,-3.226771471315311945e+00,-2.227698381614832357e+00,2.066102882068164559e-01\n1.585056616378044680e-01,5.658537795556309868e-01,6.984557245374889423e-02,1.850251963913060349e+00,1.897612927928312043e+00\n1.381207969668269975e+00,-1.414117309736437456e+00,4.405209445170079063e-01,-1.053749512546669376e+00,-6.132451327642453043e-01\n-1.298762379294770231e+00,-2.309428518222277765e-02,6.404618107775501556e-01,9.020941717338197552e-02,-1.450480908445288541e+00\n-1.893757923814400890e+00,-9.622413806546168402e-01,-9.770667450654453301e-01,9.369003923995111727e-01,-3.947207600442793618e-01\n-2.970018774047198384e-01,-2.373279841565400505e-01,1.301183730016642892e+00,1.978351580991422720e+00,5.190668917458012288e-01\n-3.525461135434438953e-01,1.679703979016627935e+00,5.267459513051547804e-01,-5.001610476319067189e-01,1.235059391993711619e+00\n2.585264132921807900e-01,-1.742320405736632605e+00,7.728901083307211373e-01,3.798848027132811223e-01,-2.239327185141285259e+00\n-2.597673632952471223e+00,1.820510764536600046e-01,8.513251334060636388e-01,7.553316932608176160e-01,-1.640946168206756095e+00\n-3.414195041229285965e-01,8.653387861175835249e-01,-1.817626385319113025e+00,1.231828591637246367e-01,2.781629436910603714e-01\n1.183115923028097427e+00,-2.931795471618577231e+00,2.026380433311076590e-01,2.453882095457521562e+00,-7.475539504627206622e-01\n-3.358819985226275673e-01,1.176300980002759955e+00,-9.202329219360632084e-01,1.399426606185475874e+00,6.516772281886077378e-01\n-1.865870430592170948e+00,1.296150928428374816e-01,-1.774086042445151890e+00,1.142538425237312527e+00,-2.045178460991164293e+00\n-2.188573356690498795e+00,-1.382062457331131311e+00,-9.835713019256064893e-01,1.593576561193304597e+00,-2.514342450744774457e-02\n3.736262777776268029e-01,1.313623202753799069e+00,-8.697449863108503987e-01,-7.313310942324551256e-01,-1.039178348794919327e+00\n9.101543955457795931e-01,1.954184277287581262e+00,2.781662627918446984e-01,-7.781383693634159604e-01,-6.486975721302412623e-01\n-1.406182465074691246e+00,8.571170197220304710e-01,-1.312191527763813648e+00,-3.332116452402423823e-01,-1.437082409436541086e+00\n-2.316762218219823311e+00,-3.080363003407836420e+00,-1.074340902698050604e+00,2.497602432097041636e-01,-3.956798627976114702e-01\n-2.685785974657546316e-01,-1.293617399831680892e+00,-1.129038137507836215e+00,-1.298721671278236567e+00,2.554791192665489818e-01\n2.534946964721613849e+00,-1.584037601438347265e-01,-1.658505037133302329e+00,1.515306841826985718e+00,-1.236541960358523928e+00\n6.470483563867799326e-01,-5.766213666276893690e-01,4.350580241737509596e-02,4.116106194622695114e+00,-9.376668697467592795e-01\n-7.720746260021906782e-01,3.881277109691795291e-01,-9.594104032758135614e-02,-5.318917055138144834e-01,-8.584063971124151760e-01\n7.077752943200822378e-01,1.270971964281385258e+00,-1.188321036964556932e+00,-1.394908198182154724e+00,2.205246616127226389e+00\n-1.771645369434967865e+00,8.351479291030717844e-01,5.126660898340468231e-01,-1.351277401043324389e+00,9.058020441838356973e-01\n-1.365222101703753577e+00,-1.342939565216471287e+00,-1.701057863929736236e+00,1.012285256272791534e+00,-5.472591039449445915e-01\n1.298983134407618811e+00,-9.985518622627351792e-01,7.364278075077966834e-01,1.709109854479767376e+00,-1.011935496053263384e-01\n-1.352736691306968497e+00,-4.054228365262080303e-01,1.538422540502677682e+00,9.083789977067938670e-01,-4.597645518460546921e-01\n-2.090199769892340687e+00,9.014750494492876909e-01,2.003835973950469640e+00,2.018922368977299264e+00,5.365922353410118584e-01\n-1.963204242129462651e-01,-9.223883057706355748e-01,-6.768846255225584585e-01,-1.985592430927947794e+00,2.593436917706488209e+00\n-9.186996447361450713e-02,2.832792351025485988e+00,-1.653577832620857224e-01,-1.999161172179334756e+00,2.244275170789053586e+00\n-1.088905036587466846e+00,-6.052659884612924257e-01,1.930953146212335048e+00,1.738715411590647797e+00,-2.473013289880884980e+00\n-5.577240742535487933e-02,-1.388604418848917721e+00,6.135754608324949233e-01,2.175806273646916811e+00,-6.449024338237265841e-01\n1.734048444344049589e+00,-1.172917321145806824e+00,2.598575908891370467e+00,-1.016761323511050419e+00,-5.735557009565636077e-01\n3.017175099129345006e-01,-1.741425290578144214e+00,1.853128010323792152e+00,-1.311450410994113414e+00,7.380425899081360930e-01\n-1.594143751778575924e+00,1.223291596394038561e-01,-2.587750917279001833e-02,-4.703823453733799731e-01,6.066206794199060504e-01\n-1.335690230076807650e+00,1.852597533794460016e+00,2.537243183912853972e-01,-3.374360934116779287e+00,2.448887983182287620e+00\n5.733753932157351629e-01,1.909855522127033911e+00,-1.926988314042826500e-01,-2.730626023044318895e+00,-4.993267038578913519e-01\n-1.471265539798918054e+00,-3.099313465387533439e-02,-5.722781702121977343e-01,2.602775738200074351e-01,-2.134769405891145055e+00\n7.737524374834925389e-02,-5.471148828749453630e-01,7.748881214161915665e-01,-2.048609114471110271e+00,-5.097962301996918910e-01\n2.027584836235567511e+00,-1.415034236239402388e+00,9.314064798948031854e-01,1.627537329010253941e+00,-1.383755460104869536e-02\n1.176310299898023493e+00,1.247195741951140802e+00,1.905305408815143764e+00,-4.533195212161966192e-01,-1.508180804283800192e-01\n9.273146004002209564e-01,-9.402616720711753917e-01,3.188746628694078683e-02,-8.696330397561370384e-01,-2.840122241806299908e+00\n3.784776774579806102e-01,2.030992195356349228e+00,-4.777938113384234686e-01,8.076955422879919522e-02,-5.629667587654294536e-01\n-9.144802162033265347e-01,1.567887548833383771e-01,1.294090161465457411e+00,2.681319655271729108e+00,9.947202871666072088e-01\n-1.160155605600346140e+00,-1.711649110900910431e+00,1.603670905270165647e+00,3.994098903960964786e-01,-7.293601847728757859e-01\n-1.311284465793058018e+00,-1.004455001385095470e+00,1.476751034882926472e+00,-2.475959399054201981e-02,-1.698080862385322076e+00\n1.041108001115182091e+00,3.623091803178478676e-01,-3.651503983284536403e-01,7.331437757543228795e-01,-1.008323199882203536e+00\n1.160568299318932795e+00,-1.743856109385872655e+00,-1.106080931508671261e+00,-1.676996305046143609e+00,-5.079928888891448446e-01\n-9.301010848343738147e-01,-4.544026541889459314e-01,-5.629500367715846443e-03,6.683070561672571630e-01,1.758307203814003794e-01\n3.450307943632930918e-01,1.972063451967230652e+00,-2.890098373765936923e-01,-1.750229211300490917e+00,1.163240869979985659e+00\n2.250245632435464049e+00,2.510270084343456665e-01,1.034017274820474119e+00,-7.905821751889718918e-01,2.219904428887795600e-01\n7.812223251974693694e-01,4.518938783770010126e-01,-6.680301003365618495e-01,1.968217262377182530e+00,2.005685315904637278e-01\n1.126489503078560883e+00,4.746454888623587998e-01,1.042192323024355716e+00,1.122547583090120149e+00,-2.717325806640361607e-01\n9.906219480959715940e-01,2.596545932730929707e+00,2.407012839050069353e+00,9.137248893265913496e-01,2.039290709684558500e+00\n-1.534904547129660957e+00,1.822633604894662529e+00,1.349050645560259387e-01,-2.139655469528734422e+00,2.184116074631665683e-01\n1.201630967288022322e+00,-8.295915074080307816e-01,2.375465776855995692e+00,1.654593487944174823e+00,-1.542892589751369226e+00\n1.193875061283069305e+00,1.282832259329083624e-01,-6.700432054034367590e-01,-3.960847528607153722e-01,-5.544964316909127833e-01\n-1.497026147682890551e+00,-5.659445310594940493e-01,8.183723485210906423e-01,1.705854335434204838e+00,1.751465564503750683e+00\n-7.173637992744310576e-01,-1.667153523827609729e-01,-1.064335015738689494e+00,1.238189811719077715e+00,-2.006022457113589397e+00\n-1.690060688003720779e+00,-8.036229649915396234e-01,2.760148778526607116e-01,-3.918072206832598492e-01,4.609271975516668340e-02\n4.148853906796610112e-03,2.376916815063044031e-01,-1.284645414369816274e+00,-4.167941611755041076e-01,7.036909642442285007e-01\n3.216728389766940754e-01,1.319289398729794227e+00,-9.136283507841240770e-01,1.100501735760674782e+00,1.783335875818905292e+00\n-1.798602493398297197e-01,3.235074866740664246e-01,2.734880122653445267e-01,6.584400344196469357e-01,4.753521452006634895e-01\n1.771980566637795240e+00,6.188440585631120872e-01,1.050126460890804081e+00,4.036975407914363823e-01,-1.261485432578125288e+00\n5.182789492743955506e-01,-2.858521488480584849e-01,-7.780498487483696879e-01,-1.089938914029721095e+00,-9.200346875506126842e-02\n-7.623786798778160456e-01,2.455699461058366229e+00,1.926356798026267469e+00,-3.288420186234288223e-01,8.581150639206963637e-01\n1.388010869848887330e+00,-2.170824307935457220e-01,2.235792245549479862e+00,1.119102066259709760e+00,-1.191528698435653233e-01\n-2.207953382907386519e+00,-1.188122467471716126e+00,3.797012404091774096e-01,-5.293854324210482964e-01,-2.317366334449707035e-02\n-9.667069994631607432e-01,2.957417984727306326e-01,-5.553545487373111600e-01,-1.880843970610122318e+00,-4.122467462604265664e-01\n-6.683756482000196009e-01,-1.869742184786039152e+00,1.738073541398835298e+00,-7.488998282247986971e-02,-3.772678104222169093e-01\n9.399168615871982269e-01,-6.460847667843501452e-02,9.604168885445265591e-01,-1.756284313703011746e+00,-1.225947833019497502e+00\n7.174385679506646296e-01,1.856027670078288061e+00,7.742284254519668507e-02,2.970470885795911675e-01,-9.735703174346488353e-01\n-9.631777156794103095e-03,-8.307540230018606309e-01,-1.687608154287197348e-01,8.974644317487220357e-01,-2.407353407453508787e+00\n2.883393544031535582e-01,-9.471485726058155308e-01,-7.650943393402634962e-01,1.393400927438520842e+00,3.670565141643244989e-01\n1.183755508436364234e+00,-2.082057617434708963e+00,-4.445664700722234408e-01,-5.085440622617167783e-01,-6.884939976663245753e-01\n5.710148286435007270e-01,1.123801111168293954e+00,-1.309029610968344581e+00,-1.149750057163545280e+00,-1.511620959128062047e+00\n1.413322100173983298e+00,-6.017381182982614041e-01,-1.058149485503199899e-01,-4.091043068772168834e-01,-1.174047452745843545e+00\n4.751990662807585863e-01,4.777473622189665758e-01,1.142195567356132813e+00,-2.886967152682585747e-01,-3.696303039224422271e-01\n-7.017661164483240954e-01,1.805671989035513070e+00,1.214880713547865865e+00,-5.628869304465231732e-02,7.820799107112601511e-01\n-7.972329006119329708e-01,2.404359401494525539e+00,-7.862919063774099770e-01,-4.897429609898537595e-01,-4.682092518875242693e-01\n2.024163335838031763e+00,1.235886362297426294e-01,1.263611780117352534e+00,-1.598850311250596956e-01,-1.485259588746197901e+00\n9.143686575454882393e-01,-7.963625259424210734e-01,-1.621762042592262087e+00,-5.194005412945340572e-01,7.523339451295354419e-01\n2.115440284823575379e+00,-1.695155498817470630e+00,-2.668102203635591696e+00,1.125337000654180297e+00,3.581242859609318208e-01\n-7.408904989490164850e-01,4.714077439037314687e-01,8.652642916478043844e-01,2.314199680431717088e+00,-1.609689582742708513e-01\n1.509880036311336493e+00,-5.857948094675066164e-01,-6.520043508493083007e-01,4.995936969203735312e-01,-1.359933940329525415e+00\n-1.647489259922837235e+00,1.121451220957375261e+00,-2.410677258797286004e+00,1.311487167392649811e-01,-3.929102621174017096e-01\n-5.038317281633226674e-01,-1.637772320366868373e+00,-2.474531305759396282e+00,-7.910661542304396887e-01,-1.404299771913008810e+00\n-5.089127898413204898e-01,1.040332678424216589e-01,-8.873802869851895592e-01,-1.284854453356361947e+00,3.647211941470205332e-01\n-9.124847110411558049e-01,-1.147256503713639075e+00,-3.405148316566196653e-01,3.634068188340225936e-01,2.568031591540201219e+00\n2.036865293939679855e+00,-1.475825694132416155e+00,-1.561061220701429164e+00,9.823560393696639803e-02,6.950538112131157131e-01\n-9.721897696102563269e-02,2.680078381754286809e+00,1.454613324532683993e+00,1.995268361383019551e+00,-5.008949367956792020e-01\n-1.040231674351949742e+00,-1.279266486700055383e+00,-1.325210317851263364e-01,-1.530475563872514932e+00,-7.728460837059175637e-01\n-4.789779989287212825e-01,1.153060664828275517e+00,-5.778828639091494468e-01,-1.719805120670322873e+00,-5.492352287720896342e-01\n2.379488031681828986e-01,6.779780374766127826e-01,-1.127423339285686055e+00,7.837814129581546219e-01,1.679302368793692546e+00\n6.144327222199040817e-01,2.993816036016055393e-01,-5.668469889245660864e-01,-7.707181856402960385e-01,-2.473609080245182668e+00\n6.954941972125660010e-01,-4.566269348597466471e-01,1.493869235085238667e-01,5.860106488322741614e-01,-9.714213464428956835e-01\n1.176791706216337330e+00,1.074056523624994236e-01,1.793141971486358122e+00,1.806037580025734723e-01,3.674441098246820081e-01\n-3.442274131774139545e-01,1.791721629707940799e+00,-2.546423392235470651e+00,-6.611368747675266944e-01,-3.801993493065028429e-01\n-1.853856978057379257e+00,-9.579921769070784965e-01,-2.633763838967507098e+00,2.274125823338488395e-01,-1.705380309054029819e+00\n4.996869252945926321e-01,-3.105322395475612618e-01,-1.007618862732720943e+00,-1.913284404464535626e+00,-8.535573682528189154e-01\n3.475339057198696402e-01,-1.918297498018018410e-01,7.533389014772432501e-01,-1.004199363802541045e+00,1.917286565136597787e+00\n-3.490489020334131554e-01,-1.092324396533641329e+00,1.519979336724072816e+00,1.607500796984195679e+00,-1.327093855236828324e-01\n-5.960133952559112380e-01,1.068025204293129304e+00,-1.118027902897879899e+00,1.118090381818155343e+00,-1.697262692930306072e+00\n-1.440106181300171428e-01,-1.833215225401340492e-02,1.445472991621898462e+00,-2.232260081936346729e+00,2.688781807325468232e-01\n-1.733865593774692460e-01,-1.772416294561623973e-02,-1.087924688878238788e+00,-1.579020262466453328e+00,-5.639886315705154862e-01\n-3.106403974597704565e-01,1.773675602755316660e+00,1.259193844274692220e-01,-3.346627231829514808e-03,8.502795295103987572e-01\n-1.942769868721137660e+00,8.866494296193776492e-01,1.124331822215869581e+00,1.112233248746194114e+00,-3.954797762620495538e-01\n-1.472605352495189646e+00,-1.161286114817632331e+00,3.256295040182964895e-01,6.702102410139610944e-01,1.560120615879748929e+00\n1.880994906758401530e+00,1.088095274049332151e+00,5.887152656558692493e-02,3.370115515898461922e-01,-2.813428872843118378e-01\n1.220454835008846661e+00,6.612584380360342351e-01,1.868618872244005580e-01,-1.559164332976646028e+00,1.255750588755383479e+00\n-1.898085977828064319e+00,1.420163480223386232e+00,1.125578481238332706e+00,-1.956064298572071314e+00,-7.389960166982997847e-02\n-1.562933783483989147e+00,-2.423679212783411419e-01,6.330228876426935436e-01,-1.882174527126779517e-01,-1.671607357054353704e+00\n2.390825436605955034e-01,2.683543848132284859e-01,-6.954921709762568183e-02,-1.283009220257899985e+00,-4.358054399779910937e-01\n2.672300602653921442e-01,-2.305087810242976987e-01,2.536095140939672365e+00,2.971799142047642506e-01,-2.575288590356881735e-01\n5.550631232866267695e-01,-1.351796151522666189e+00,4.972913415399887738e-01,1.961839371354031858e+00,-1.058894943457769910e+00\n3.815947360669679211e-01,9.370395948459998570e-01,-2.045984190640083522e+00,1.999885069447886465e+00,-1.251614606915603556e+00\n-3.822316311911836961e-01,4.870695151756383456e-01,-2.602252536291163598e-01,9.880629933792484110e-01,1.928960761741245200e-01\n7.071678322083662094e-01,1.066353113723306628e-01,1.798918708120096355e+00,-2.438179994834228648e+00,4.472250416461225897e-01\n-3.525291301960206125e-01,-1.152977105389318080e+00,-9.781233176228233406e-01,-6.895940831519463687e-01,7.074839485848067877e-01\n-1.071205150233593306e+00,-1.802886959517907839e-01,3.699979026257001480e-01,-1.388483346807698249e+00,1.347744123502992775e+00\n2.914716267361308066e+00,-8.337511480117828500e-01,1.116444403534240681e+00,-3.827769614687622224e-01,6.324121746774929997e-01\n-2.685509195601267773e-01,2.643479235115388626e+00,-4.198337240488660971e-01,9.408556918920201184e-01,7.219068820653916640e-01\n-1.342698780513494450e+00,-2.654682060413216860e+00,6.760075656975134129e-01,1.002960947413377379e+00,-6.643788823990214309e-01\n-7.839690309020116432e-01,1.176604230006929042e+00,1.027099159132641493e+00,1.152908362455453251e+00,3.092527364125267075e-01\n-9.501908107234146028e-01,-1.458068967081443956e+00,-2.399377013224860633e+00,-5.475467210608805924e-02,2.339227385221185340e+00\n5.496257297670849029e-01,-1.213712594346350176e-01,-1.864215269781890560e+00,-8.078735833342935990e-01,6.759930912418914660e-03\n-2.869448380469623028e-01,1.088004818675721186e+00,-2.043895455431922747e-01,8.393963360233098747e-01,-1.428487087582813175e-01\n-2.389012011394471280e-01,1.511981871158325275e+00,-9.223449128459862978e-01,-3.501180595762682368e-01,-1.570847078465358537e+00\n1.060804643822981091e-01,1.282873057306946230e+00,8.151661412301082210e-01,8.863652800736553372e-01,1.275479304123676272e+00\n7.979358814524003529e-01,9.457390540025614190e-01,5.239986577432339532e-01,-1.164386539774540541e+00,6.473438859652085320e-01\n1.170645400959651639e+00,-1.058102002217073512e+00,3.018837642738652627e-01,1.318232049248824866e+00,-4.562925207094972735e-01\n-1.594103089832158648e+00,6.730437001844516431e-02,1.919885138567129834e+00,-1.117284213805074256e+00,-1.369113654334227770e-01\n-9.129371312241427727e-01,-4.530352682741694559e-01,2.671666974223527724e-01,1.781917173447279179e+00,-8.788540687705745924e-01\n-8.803167279792123434e-01,-1.082604917709325987e+00,-1.344708282115401499e+00,-1.874779338451005417e+00,-1.040075380318248532e+00\n-7.661839311286904042e-02,8.610513596887452159e-02,1.466323680792738227e+00,-9.686492791652663303e-01,-9.281075630480523087e-01\n-9.007586407654922800e-01,2.521806049708484876e-01,-1.666211243267461672e-01,9.607020313650573851e-01,-9.533796157832254980e-01\n1.077626107474461969e+00,1.135776061224907707e+00,-3.192119343356734085e-01,-7.671659095136085238e-01,2.050762446458079258e-01\n-9.817956847119085895e-01,2.394554622490824958e+00,1.490055965505042712e-01,9.373812583140261889e-01,-1.554655087742170982e+00\n-2.145613186001563921e+00,8.092057685438999171e-01,6.039312422334321973e-01,-9.339186733745539204e-01,-6.942502931798592014e-01\n-8.611391689043437214e-01,2.440622763418148766e-01,1.091648483372585909e+00,-1.876239792125804495e+00,5.867294081542587803e-01\n-1.113928538605821972e+00,-6.893405883548110458e-01,-2.243999881311045386e-01,-1.656652673474345194e+00,3.452873653646292951e+00\n2.923374598787095380e+00,9.055923848315218239e-01,7.873679062153403629e-01,-1.264803481749772640e+00,2.888096077998257183e+00\n1.532977354670943954e-02,-1.487666870457054202e-01,1.460833139732927277e+00,3.250064472829298778e-01,-9.372826160333190826e-01\n-2.761557987640694267e-01,-4.601102736669915871e-01,7.986773452466811030e-02,6.741252974531956044e-01,6.485080700597898318e-01\n1.571020122313869782e+00,-1.187965787939950814e-02,1.154538963492892201e+00,2.065261505027345290e+00,-1.493842995322666845e+00\n8.388984871958061751e-01,-1.319338938681458240e+00,-1.838786833401149234e+00,1.917244850764344033e+00,1.375273729148230206e+00\n6.194306868255565757e-01,-5.859633626929418027e-01,1.817685321131284226e+00,-1.657922534465155806e+00,8.597751981223496209e-02\n5.632468343002366984e-01,1.544994384020460521e+00,-1.858534611767679978e+00,-3.714724155438869690e+00,1.419519792411087222e-01\n3.734063327700994916e-01,2.068945284221246073e-01,-1.063558459889809571e+00,-5.089294942631158308e-02,-1.866017594181546446e+00\n5.357280231131508197e-01,1.095267348002561203e+00,-8.763177060046047906e-01,-2.413531233835134238e+00,-1.381932561933080228e-01\n-2.111226688906434334e-01,-6.219662279257291704e-02,1.610957259896045324e+00,2.079582007284768164e-01,2.559734339668854997e+00\n5.179099488138068086e-01,-1.272605039281595518e+00,1.416154787781106039e+00,-7.509284953868067269e-02,-5.675928666813395695e-01\n3.656118836258269167e-01,1.684658485273788919e-01,-1.865046311737767359e+00,-1.009217078826382563e+00,1.414710524057239294e+00\n2.433375707500165519e-01,8.039324776605546452e-01,1.256749892956845471e+00,2.187274255781738841e+00,-7.665890345362651459e-01\n-8.020485931278218406e-01,-1.063981266180237029e+00,-6.753308006463212276e-01,-1.065239703789827796e+00,8.320993504417610598e-03\n-9.430718495897238984e-02,7.420724707372882145e-01,-1.410771560953623327e+00,-7.751119386067392147e-01,4.431213784255992327e-01\n8.687096522345837402e-01,-2.787523993316617599e+00,-7.131802181354438552e-01,-3.137698130694918097e-01,-2.481113350893397573e+00\n5.667113309634196350e-01,1.473789184123373674e+00,-2.356776094963948687e+00,-1.913596977022791412e+00,1.145804748712466070e+00\n1.385736173445514252e+00,-1.543477692507036370e+00,-1.205395502435293587e+00,7.926133997477726734e-01,-2.999636199510736789e-01\n-7.189575935840726295e-01,1.845943960734773404e+00,2.925587990855900711e-01,-2.236253634623454722e+00,2.891572759719526209e-01\n-1.744188996837696459e+00,8.446953405909471968e-01,1.139364540893189393e+00,5.056695049934203379e-01,1.111646357013588382e+00\n2.356449838122280482e+00,8.450690651664424236e-01,-4.735277793901531695e-01,-1.340917085933953645e+00,2.583694503186905189e-01\n-1.280298090389914600e+00,-1.757345697953873742e+00,-5.607694524680916226e-01,-2.160197451498280241e+00,-1.583403669339136899e+00\n5.505654276699393224e-01,-6.126007597591842657e-01,-3.915566196820741696e-01,-3.668621978880010071e-02,-2.373402654923778776e+00\n1.833096003581849986e-01,-4.243508356778843277e-02,-8.858518554553318491e-02,4.014244956064673131e-01,-2.633595248475494532e+00\n2.251019120646025939e+00,-4.149389820850738486e-01,-1.769138344690360354e+00,1.289429224062834112e-01,-1.540978201246504531e+00\n2.920111526520731068e-02,6.341710879025915792e-01,-1.604762701839225869e+00,1.036203805277528200e+00,1.681982706056365517e-01\n4.306030700638506792e-01,4.873980789100183508e-01,6.340288651093972661e-01,1.375242389314179636e+00,1.056664724275903522e+00\n6.023140885010017653e-01,-9.104772615966609806e-01,3.697110307764812642e-01,-6.595948702136300579e-01,-1.747419205207494830e+00\n2.933080687936586925e-02,-1.050563310387056859e+00,1.422319534821028464e+00,-2.601364977958690525e-02,7.428847176339045677e-02\n1.002916501026594576e+00,-4.622930299627894257e-01,-2.845040000157856297e-01,1.418597841957761174e+00,-1.672474981413728301e+00\n-1.003931713110793433e+00,-1.431241581623351744e-01,9.574964285663605246e-01,2.989869790684526185e-01,-1.408154049823229226e+00\n-1.072167958575196200e+00,2.063065981812306049e+00,3.793947346099819096e-01,-7.631606800372474630e-01,-5.938808757891669288e-01\n4.546321761813341134e+00,1.623378609774271508e+00,-1.994534558709185390e+00,-5.580415944981155230e-01,8.738290525467496961e-01\n-3.135530221945475593e-01,1.391445105933410531e+00,2.116873267915417411e+00,-2.061789986209662529e-02,3.463656087447476994e-01\n-2.465765592517507043e-01,1.043812795590260301e+00,1.783791471281233276e+00,1.111410492749727696e+00,-1.331183498210462668e+00\n8.582033978160450438e-01,-7.318653758333685255e-01,2.098064105297760662e+00,5.534321251906448857e-01,1.264504591356784502e+00\n-3.815162122490384916e-02,-3.848028822153862216e-02,5.277908358656627774e-01,-5.214512889398059681e-02,1.905160921155993670e+00\n-1.382918647074172336e+00,8.374765184018301278e-01,-7.105071018753960077e-01,1.040960120091118046e+00,-2.180763418931654041e+00\n1.611169451080123105e+00,-3.682580785353719577e-01,-1.494005722700901373e+00,8.409211730361909609e-01,-2.578602990714420340e-01\n3.069147090025758917e-01,1.449867961338467959e+00,-1.378528980989104147e+00,-9.411772563259087621e-01,6.666345759527353421e-02\n6.280306064421808943e-01,-9.205792500129955647e-01,-1.031448768847969655e+00,8.963690086287104952e-01,1.169880775247508886e+00\n1.686444607793587958e+00,-3.939630668538592340e-01,-3.165786632991849814e+00,6.185520230795120700e-01,9.073071017780417469e-01\n-1.822189784314255157e+00,7.704413067923822356e-02,3.139442069170349514e-01,3.995573648645471265e-01,-5.792077384702107867e-01\n7.425131907227690287e-02,7.070606090797747489e-01,-2.170053811169855518e+00,1.105447091487819167e+00,-4.459576999684867205e-01\n9.098961008250069371e-01,-8.681242830949900124e-01,-2.085661078500860910e+00,1.434629204508981903e+00,1.993937320250114720e+00\n-2.244428124711189909e+00,-1.557469869189178846e+00,1.281658718868578517e-01,-1.261117669591555801e+00,9.306896026876386729e-01\n-9.410606814286387456e-01,-5.943664205734892070e-01,2.819365286806225779e-01,-2.623227058578757820e+00,-3.764912088886641084e-01\n2.479292561208690682e+00,7.431461234519373127e-01,-1.194262731103941766e+00,1.284524434705780260e+00,2.506865752829236627e+00\n1.487084773284978789e+00,-7.687929824322993211e-01,-8.726897178293043789e-01,-4.854589358180280700e-01,-1.286470663231380041e+00\n-1.044550994430788228e-02,-1.294016784547117993e+00,-1.130548321423092917e+00,3.583119206809735613e-01,-6.988152342016198393e-01\n-3.049823139387975446e-01,2.538925996991554079e+00,4.062413113544249277e-01,1.421462156479493588e+00,5.140617836193408507e-01\n6.541320752275422423e-01,-1.683045271898108375e+00,-7.000198985723705691e-01,-3.333250416436546737e-01,-5.532839219945742126e-01\n-3.046482386125639596e-01,1.515453894516550770e-01,-2.966772313351120349e-01,8.230563130166684838e-01,-3.073080709364316432e-01\n1.284539778306574398e+00,-2.672928047448312056e-02,-7.344848006554949293e-01,-1.517432231697655842e+00,-9.201361611127689688e-01\n-2.894025175538014194e-01,1.464654152688397382e+00,-1.534710873894659544e+00,1.273583997510219001e+00,-9.528752536916303140e-02\n-9.843821893792499278e-01,-1.574840225065133659e+00,6.878976092441119183e-01,-2.298313793697979168e+00,-5.500265392927087271e-01\n-5.181569879431571213e-01,-1.821916333493609208e-01,7.183073942695464842e-01,-7.388606346525000701e-01,1.515402147320013826e-01\n-1.465182435703149766e+00,8.036782505872364091e-02,7.443755017034551225e-01,-4.223720796396821520e-01,4.530515173882628810e-01\n1.427770265680776973e-01,-3.999800618992233048e-01,-3.766969763347161743e-02,-2.230137237493646507e-01,-2.396472974072775930e+00\n-1.841379224041847840e+00,5.089445849761843332e-01,-2.532181154317767025e+00,1.398064907133482082e+00,-1.724968127987645206e+00\n-1.110326603182257114e-02,5.369747251744320105e-01,-7.987965936711994841e-01,1.388058991707362022e+00,-1.677786188344270624e+00\n1.072165765544030869e+00,1.460552179866076161e-01,-2.098551858783711255e-01,1.205756775827850458e+00,6.408209054093503276e-01\n-1.476749188928133893e+00,1.704292901083242828e+00,1.210468454026860652e+00,1.193002185117923997e-01,1.737366824759035977e-01\n1.626964573139413783e+00,2.030859356893786494e+00,7.616006465386861990e-01,-1.395109377394478045e+00,1.570367392232043247e-01\n9.646432476875346218e-01,-1.036935775205589882e+00,-1.482248754523979084e+00,9.373114619757179702e-03,1.370726539931451382e-01\n4.409490692087104091e-01,1.478560201204305535e+00,-2.659396710724295065e+00,1.170882158729677769e-01,-2.537942427313479299e-01\n1.040190185459168200e-02,1.876873134889723016e-01,1.234139079703326480e+00,6.712583916811426521e-01,-5.811965201408444276e-02\n9.683475749105337205e-02,1.133119938855361025e-01,-1.727082115801027717e-01,1.599645136089320463e+00,-2.321574881185151540e+00\n-1.660583987759367330e+00,1.963951764369528341e+00,7.301325288259324919e-01,7.838195073170781679e-01,1.414107152267194412e+00\n-2.425148132581012472e+00,1.769588303326760981e+00,-1.399372903693038017e+00,-1.187400119579876234e+00,1.253777128181197575e+00\n-1.393474856608755141e+00,6.366978042171391738e-01,1.718085634554518348e+00,-7.978234078327833823e-01,-7.236549584141055425e-01\n8.133150413143742652e-01,1.069701650562897122e+00,3.969079132957225031e-01,-1.927831153047982582e+00,1.943745026270774723e+00\n7.344438815058034198e-01,-2.883221059800523012e+00,-1.109371660922558123e+00,-1.298982712754053415e+00,-9.508373579683579990e-01\n3.623452394717594505e-01,-8.310841911446470442e-01,1.530006532152119236e+00,1.372961060324806137e+00,1.080720672287176914e-01\n-1.260296253233265773e+00,1.398605599715078106e-02,5.190376295267357110e-01,1.428030496236957214e+00,-5.593220775273288758e-01\n6.649842561645052941e-02,-1.216648079003942229e+00,-5.600215269464505763e-01,1.405268129095795349e+00,1.921593483480992015e+00\n-4.400934233047689714e-01,-3.425186591414336457e-01,-9.446252124657684712e-01,-1.879383880911855709e+00,4.345978512480381251e-01\n5.515556465070901027e-01,7.087414574115654675e-01,9.830873318990827198e-03,6.307016071283894076e-01,1.938984788566938955e-01\n1.473271013780776961e+00,4.220774033307204132e-01,1.731515364475385121e+00,1.298599527211959925e+00,4.414918184911817423e-01\n-1.560494562811567398e+00,5.821908466806877680e-01,3.593195848157993977e-01,2.322263218672520502e+00,9.035169040033840249e-01\n-1.390557425427547678e+00,-9.687425917540031239e-01,1.160894502213484447e+00,-2.331010938638218843e-01,-1.454937430105183171e+00\n5.884313719320944935e-01,5.997437047970279878e-01,-1.434774747952194673e-01,1.053806392540058479e+00,-1.216599252798842568e-01\n2.251535484543346399e+00,-1.335238667411423164e+00,1.102797856824263567e+00,1.203659369368162091e+00,1.539022437456513348e+00\n-1.593523381471308453e-01,-5.078880414664418419e-01,2.103885238532624768e+00,6.580029965793123825e-01,-7.164101960781499301e-01\n9.841999620816598293e-01,1.906682346788380222e+00,7.977397619695119069e-01,-8.856954998362825959e-01,1.185965302272947275e+00\n-1.880567734588645346e+00,9.349075605006396117e-01,1.180546976505868928e+00,-2.687311906380896454e-01,3.403962883553250385e-01\n1.569974165192520588e-01,-6.663144592421793577e-01,-1.047208940531396015e+00,-3.358026557594780970e-01,-7.525349154879366065e-01\n1.824724104435983207e+00,-1.647810935081856831e+00,2.183138216157364475e+00,-2.828902746034829274e-01,-9.331276342763481502e-01\n-6.346769559310061481e-01,-1.250240340643586467e+00,-2.453455979204224313e+00,1.007205445148003697e+00,-1.671436049048508621e-01\n-9.874184009987972965e-01,-1.548465433917016965e+00,-6.530976032684768784e-01,-1.478305996699534441e+00,1.606816000040157233e+00\n-2.244246565873643462e+00,-1.116095400230985524e+00,-1.030138454722134611e+00,6.109172273938067166e-01,3.331572800891524078e-01\n-1.489601424836727583e-01,-1.796921586887239297e-01,5.085008689164373097e-01,-9.436151534088929038e-01,6.039738435291437391e-01\n-1.574659062476156279e+00,6.842274915558160808e-01,-5.960851705112311105e-01,1.381519972682941688e+00,-1.475322470711714073e+00\n-4.989154500231019473e-01,-9.383034478422452862e-01,1.193588911531408225e+00,-1.670199309949204958e+00,1.099039324460655109e+00\n5.988941740345711251e-01,7.235550766554463831e-01,-8.012202594952319012e-01,5.946295119196971513e-01,2.130799826179711864e+00\n-8.173866985225665127e-01,3.297979635599820880e-01,-3.019668224968271031e-01,-1.340896642821295170e+00,-1.005639986524976326e+00\n6.590863282126023792e-01,-4.193765114344048806e-02,-2.975217313268891051e+00,6.304465247935854277e-01,-3.945002833176591284e-01\n1.121784554139610535e+00,-7.802932867787111260e-01,2.791078685005754068e+00,-1.158185969948665406e+00,9.243139682903701582e-01\n-1.391165054607086837e+00,1.486568581181384463e-01,-1.460683381310445617e+00,1.493044295012066591e+00,-4.372704061746448406e-02\n1.773708592138692364e+00,-1.734747845898172991e-01,-2.022289505387098174e+00,-1.049080455356935504e+00,-4.895752069651040372e-01\n1.649504483884428607e+00,3.274557807016702515e+00,-1.607982241056030437e-01,3.710953203783892151e-01,1.502555205848816300e+00\n-1.409209831674677504e+00,-3.949104611579888346e-01,8.117343230354798767e-01,4.253743643736467850e-01,-1.081429964863947352e-01\n-1.243008474663441332e+00,9.029930148683860958e-02,8.451690646993978984e-01,-8.767340205319777979e-01,8.748817716051210391e-02\n2.492384251006292573e+00,5.412473868509882768e-01,6.857454730471180815e-01,-1.271423285561233740e+00,-6.756584204888568257e-01\n-4.532434027255843878e-01,-1.064320238778171168e+00,-1.496063152015809194e+00,-1.905723155874244457e+00,-2.511494889150023280e-01\n9.589195204977837284e-01,7.265797390049185678e-01,8.155021598911988967e-01,1.117066699066947999e+00,-1.032625381590233760e+00\n-8.217015675016390297e-01,-2.885383285931679698e-01,-1.068729149474713758e+00,3.190449199264289715e-01,-7.915612468339685570e-01\n1.362952188123594643e+00,-1.048173675530150728e+00,7.047703049467610725e-01,2.053521356743391202e+00,-1.464137840353709974e+00\n-5.892630367121738377e-01,-8.750926633225889484e-01,-1.240844040708231510e+00,3.359597107528175530e-01,6.262984485211132712e-01\n-8.263897572191254426e-01,-5.767555070045603527e-01,3.208182023508523995e-01,3.866389058093147035e-01,-1.342152708770137925e+00\n2.839747930541290266e+00,-2.641231595827951417e-01,1.123966966368905446e-01,-7.659089597874448874e-01,-3.178325413038192160e-01\n-1.053383369916359058e+00,1.982735762231897292e+00,-2.245001468125434219e+00,-2.373103880577967784e-01,7.955447805539646033e-01\n-1.928324770434108215e+00,5.567911116114030445e-01,1.587598725406986100e+00,3.579918349776526343e-01,-2.986882625856682183e-03\n-2.087843933982615890e-02,-3.317660553279953572e-01,6.805266307602855225e-01,-1.077295990709959295e+00,3.852726465737781325e-01\n-4.526305762797973031e-01,-7.326143233870762161e-01,-1.438452504995745729e+00,7.961768461636762328e-01,-7.339564902621412701e-01\n1.250211122101483996e+00,-6.382460922926401492e-02,-2.654951257331384165e-02,-1.356109318537617625e+00,-1.232263058158372449e+00\n6.509345925510995334e-01,-1.159337060099730476e-01,7.649096461526239121e-02,7.749362574022818917e-01,6.228759874820323228e-01\n-4.290143696969138665e-01,3.517082521472625789e+00,3.804135442262713163e+00,5.305868871648302676e-01,-1.746583988526137832e+00\n-1.032974829853283705e+00,7.127067165931552095e-01,-6.969469511878717549e-01,-1.275671798894646991e-01,-2.447390040325041483e+00\n4.998425355746394794e-01,1.426254481586159084e+00,-1.527956735386087450e+00,-4.645949656205692335e-01,-4.663873942071696255e-01\n-3.074717403079828326e+00,-6.440448554376737578e-01,-7.597473619046026805e-01,-1.729768497200017352e+00,-1.084196290931649820e+00\n2.909196972284555649e-01,3.781772197346267017e-01,3.606951620982864481e-01,-7.150129654821572034e-01,-1.015189907481719445e+00\n1.335140551526707853e-01,-5.094960619257711265e-01,1.237212409334522478e+00,1.399060072534654697e+00,-5.888135205487079471e-01\n-2.008470530114389696e+00,2.011737461899237300e-01,-8.268626561200480563e-01,9.977453925160570947e-01,8.470835345006326733e-01\n-1.291937413208420704e+00,1.255757415882038153e+00,1.679718755230120930e+00,4.703522614475303953e-01,7.432875999009025403e-01\n-6.194138278235017392e-01,-1.032075243527547537e+00,1.536177658052681583e+00,3.042951949957523050e-01,-1.027462633772301681e-01\n-5.778678517222580330e-02,9.466307049009824448e-01,-2.361433783944190123e-01,-5.855374689716728032e-01,-3.580782407763135056e-01\n-1.617095205057707819e-01,-5.588959031446997239e-01,1.248054299957060825e-01,-5.806885407603245008e-01,-5.477489533142930744e-01\n2.350624467039237331e+00,-5.081938869558046828e-02,1.996896253081968942e+00,-1.254886075692156489e+00,9.017264197678824811e-01\n-3.215654059959974220e-02,1.977232971977729958e+00,-6.331306493967433502e-01,2.143330274005579739e+00,-7.291708191209305134e-01\n-4.779937465764691473e-02,-1.469334481787336610e+00,-8.234239583296659726e-02,-2.733558564305704763e-01,-1.362905964576558437e+00\n-2.316614652274211039e+00,1.040973662354621299e+00,5.641182166214028237e-01,-8.598944162745948416e-01,-1.410471374906566988e-01\n-9.382222090902965217e-01,-2.099169399441564443e-01,2.766802996963883543e-01,4.148903705463529157e-01,-6.144290511536463217e-01\n-2.848603030563824356e-01,6.152353497091865853e-01,-8.129091640856552781e-01,-6.733464275443398206e-01,1.124589186754094694e-01\n6.192656149197492965e-01,-5.077874180385884006e-01,9.743813401432943611e-01,-7.317222592855117391e-02,-8.000473092479489789e-01\n1.387392691083213225e-01,-1.741755719935635272e+00,-2.205114729523201866e+00,4.253118990267247823e-01,-2.144966337805214618e+00\n-9.567803535950221150e-01,1.227132536681742270e+00,4.156607592375095028e-01,-1.024324395150638667e+00,-1.262624166226992278e-02\n-1.727262988823603296e+00,-1.371518644022416300e+00,-1.971670903043869771e-01,7.168599147767837909e-01,-3.507677589844825083e-02\n-8.640167870279361062e-02,-7.712424128215030761e-01,1.265002285837576457e-01,9.791726058483357642e-01,1.337311070946715974e+00\n3.929942921206015516e-01,1.318366857479797427e-01,4.319473163961772832e-01,6.301736993780746587e-01,-5.990150595022826208e-01\n-4.958859360605236688e-01,-8.405495156886747532e-01,-7.891702620528954215e-01,2.261994909454899894e+00,9.373113009750518865e-01\n-8.584216794098081804e-01,1.718033124242333495e-02,3.465437202463194644e-01,-1.306126757985354436e-01,-1.182413591583341583e+00\n1.739072043051717031e+00,-1.449940379387544498e+00,1.045909979499823450e+00,5.892549714336878242e-02,-9.946303988260098983e-01\n-1.898802872121087282e-01,-2.225358700096653042e+00,3.519684125356848936e-01,8.988856044599231598e-01,-6.318276327475370602e-01\n3.312310547972875385e-01,-3.055942763665597806e+00,-6.640766007619230971e-01,-1.619980638371526949e+00,1.123201497792884362e+00\n2.183329852886344846e-01,-7.116478631735513594e-02,-2.415356869612139135e-01,-2.986868371875907036e-01,9.480300012605831217e-01\n-1.272408263678726170e+00,1.115457341652819956e+00,8.384876472003451875e-01,1.243604836326378527e+00,-4.247500230376496932e-01\n1.300634086840197545e+00,1.199517760716144021e+00,5.339744334748661725e-01,1.358072084648153988e+00,-5.372450289451625727e-01\n-4.922191352290273408e-02,1.660642189895942700e+00,2.481467710776981139e+00,-1.978646422243961922e+00,1.145847604452637114e+00\n-1.502934803089821969e+00,2.789307227003261502e-01,-6.975393652417213319e-01,2.542306861886974301e-01,-3.650247805567747861e-01\n4.865078850371808983e-01,7.808374446065632357e-01,-4.356789519455850357e-01,8.011759765084893736e-01,-3.579128124355482887e-01\n8.288311173800901877e-01,1.410731670844781904e+00,1.826333745690804089e-01,2.732371200277269319e-01,-2.196328516810494236e+00\n-9.570249685938474471e-01,-7.795276694523927130e-01,-2.006369138692886689e-01,-1.711408263277967245e+00,-1.585713082998551737e+00\n-4.179600235599004177e-02,2.886369723824037115e-01,1.240387878394406229e+00,1.766013940587080056e+00,6.588093855259580245e-01\n-4.287518110418744866e-01,8.538264315309818109e-01,-9.428251012630635142e-01,2.772766057052104549e-01,2.175235752677373569e+00\n1.757320184306496946e+00,-3.743567164165391148e-01,1.176282717319367510e+00,-4.825579728695745807e-01,-7.608507643363862094e-01\n-1.973837992176156186e+00,6.291752298095631968e-01,3.492248616060911193e-01,1.170352777860984794e+00,9.600476004565293708e-01\n-3.851798164725603324e-01,1.022504120392110583e+00,2.259564725336903113e+00,2.780326339800574420e+00,9.303136712969077848e-01\n3.136090228107774047e-01,4.391669186797839686e-01,7.211969280658379888e-02,-7.004342544296466855e-01,1.919328548404292789e+00\n8.714503915008063872e-01,1.324189308473775750e-01,1.774785938182102951e+00,1.013510617642330303e+00,-1.520922629772545331e+00\n1.481852122506903013e+00,-5.036171826513771155e-01,-1.606717830748788378e+00,3.527710183112769959e-01,-3.720498860789803741e-01\n-9.099779886202824519e-01,1.921852066698958916e+00,7.276681118141295479e-02,-5.470954285922436516e-02,-3.001384680538376482e-01\n-4.873015784943946493e-01,2.251030948214241545e-01,-3.881289362997847880e-01,3.929831329702096365e+00,-1.276775716332321675e+00\n1.348108331044443609e-01,-5.773706545638348508e-01,-8.598743245189069961e-01,-8.152638582164796199e-01,2.693934986558203445e-02\n1.104102018748531533e+00,1.430465186328673255e+00,8.344474323920925141e-01,-5.189904776476852444e-01,2.329044815276680946e+00\n2.141041539031787622e+00,2.131392895177039559e+00,-5.781195166368227056e-01,7.543653010930509994e-01,8.658049353930875602e-01\n6.842555436079277298e-01,6.735681019189346808e-01,6.591048376705420653e-01,-3.646128945903357454e-01,1.466545485560164064e+00\n1.659537132831056416e+00,7.680590897081818191e-01,6.767074005254382352e-02,4.949558700464302130e-01,1.516635688116526826e+00\n-1.291181438146617733e-01,8.609620958950864322e-01,-8.802220211491526003e-01,4.773748750837870092e-01,-1.526997980511712871e+00\n-1.349471649002674134e+00,2.569031524447378256e+00,1.893411367994893291e-01,1.378702879925901570e+00,-3.215586191601067068e+00\n-2.322952895478336277e-01,-1.669638238363991001e-01,-6.361579633566744052e-01,2.039101610225842742e-01,-1.025612093391744972e+00\n1.550113178000703584e+00,8.285496437909947165e-01,-1.362551495808004054e+00,6.092112920029656431e-01,3.987915390571078467e-01\n1.984017926754577665e+00,1.309634853409838984e+00,-1.337338918926701536e+00,-9.300253020501988432e-01,1.214977635831707481e+00\n-1.551861289727802795e+00,7.852167968746903703e-01,-7.698249318406975572e-01,6.591593118232998982e-01,6.794635920126415041e-01\n4.913159620921275228e-01,-8.689344401254964767e-01,7.423948213454958922e-02,1.498213718872502875e+00,-2.168554514814736434e-01\n5.630513180781718807e-01,2.022689532779688992e+00,2.333532674748246993e+00,1.879812956009939251e+00,1.681202650175771252e-01\n1.471185864995322168e-01,-2.011120279202532612e-01,-6.208530509950200837e-01,-2.141302660035109551e-01,-1.720828371934171930e+00\n7.096822319516519206e-01,-3.448070534152173350e-01,1.364933287694593211e+00,1.266414784406369787e+00,1.684645376166979069e+00\n-1.028885094554322643e+00,-3.628055065239505494e-01,-9.544780885254368075e-01,-1.920429805419144209e+00,-8.311212468591189229e-01\n-1.001170966738442525e+00,1.316026900290327761e+00,-3.374584450277601899e+00,5.927099529957774449e-01,-3.215065917695011377e-01\n-5.815037825072353339e-01,-4.076747719578263651e-01,5.426712151473793710e-01,-1.335272685377614510e-01,2.871037932674525006e+00\n2.140472243793487273e-01,-5.832255371306951375e-01,-6.430460850586910970e-01,-2.652297719673284426e-01,1.923580859766772955e+00\n6.014620571292550455e-01,1.634335728357217521e+00,-1.553151519209211129e+00,-5.961797839436273616e-01,8.160659957254130792e-02\n-2.858182157342583074e-01,8.149570360803842783e-01,1.241783041639679785e+00,-4.585959382839969178e-01,-3.491375299919580844e+00\n-1.187571060062183381e+00,-1.503241706174513137e+00,6.772750935471815170e-01,2.472496204410456144e+00,4.171898619543792375e-01\n2.156151301819087429e+00,3.884235660460821360e-01,1.357366486299521835e+00,4.038210255450845332e-01,9.254880252071943092e-01\n-1.117349926313884856e+00,-3.789221379336937257e-01,1.841842241470258656e+00,1.143969942434528209e+00,-1.631038592495925421e+00\n1.315840636358935889e+00,1.510795204912032785e+00,-3.119461196985060525e-01,4.223033189554607492e-01,-6.863681398748446849e-01\n4.536267396551157405e-01,2.473183286026661709e-01,-4.220659239321260525e-01,-2.943229758482229438e-02,-6.387462995047733516e-01\n8.983069206951261876e-01,-7.365681049583001627e-01,4.562338699217219906e-01,3.464243133254306661e-01,-9.500629804176786708e-01\n-4.360471990620166660e-01,3.981508882275425210e-01,1.672757836200953641e+00,-7.809914343990573826e-01,-1.542632389043036012e-01\n-1.823646046408856081e-01,-2.119392812099262891e+00,-1.836532103147368866e-01,8.991665337227080501e-01,9.413595332592206155e-01\n-5.731224531794850696e-01,6.473989422861762266e-01,-3.112698791158052813e-01,4.321849316006869390e-01,1.132394830587105217e+00\n-7.845477456771198232e-01,5.916568223827610717e-01,-2.012479601998812484e+00,1.153352151017544180e+00,-1.886314588197251396e+00\n-1.192890035815579314e-01,-2.571212583134213081e-01,1.009552110618687770e+00,2.148319467883406997e+00,-2.455432264331663950e-01\n-4.646346045690871729e-02,-1.314002953812861252e+00,6.627906320121750294e-01,1.186275933632305879e+00,1.408181802910797087e+00\n-1.220912844419106857e+00,-1.058844556154225458e+00,1.102588014043704767e+00,1.124488510995440782e+00,-2.496909938368383486e+00\n-9.879050607464497924e-01,-2.656502320414342311e+00,-2.307719576685814955e-01,1.683389011652368095e-01,4.227600200077465953e-01\n5.994108126802424330e-01,8.043204416119307254e-01,-1.196783066067510920e-01,-1.862456343295476602e+00,2.340896494518525661e-01\n8.819379479174932479e-01,-1.753048121496390888e+00,-1.228829626030986555e+00,1.409224674138454647e+00,1.946592093477562013e+00\n-6.245404045807995130e-01,-1.649253481186967019e+00,-7.951600135870295905e-01,-1.044874567092102913e+00,-5.779720681296590667e-01\n9.895285920796688117e-01,-2.367548303339259697e+00,-2.512330258597319066e+00,2.340563462251426863e+00,-9.903606282966975760e-01\n1.392994416039405436e+00,-2.270986638571210303e+00,1.021515030475791175e+00,-1.728502426591192354e+00,-1.213219707847714490e+00\n-1.721186187469285533e+00,6.395313497611530007e-01,-1.278481390367582016e+00,-1.210891244012294976e+00,8.150028404925465653e-01\n1.884457744146995406e+00,5.049851245894465546e-01,3.074651084520791944e-01,9.478424183087497124e-01,2.026255639294876065e+00\n-2.887235353891271505e-01,-1.176048827647666606e+00,2.249706990099746839e+00,1.728171731066335370e+00,-1.464346855395124658e+00\n1.012355617055435753e+00,5.278283169563845467e-01,-6.068633950540795741e-02,-1.378812355333798534e+00,-1.699826321201128421e+00\n-6.288169479444951637e-01,-5.616662503022551434e-02,2.008400026988516718e+00,-1.681327047498548000e+00,1.239267042492282478e+00\n1.991098483282575937e-01,9.301373033167212867e-01,2.378511331781556049e+00,-5.741273625744665043e-01,1.533806421832753786e-01\n-2.085882726314560731e+00,-8.866068072849345727e-01,1.825622179258404421e+00,2.425175450500026919e+00,1.876881757528790495e-01\n-1.203733160074869774e-01,4.920753254678890687e-01,3.198802846453894233e-01,2.710007384287538290e+00,-1.242842597071932564e+00\n-2.121261012323726991e+00,-9.501299884104357218e-01,-1.707807177055101100e+00,1.225525134633305424e-01,5.684776888080997348e-02\n-1.869935391368093835e+00,-8.238490984191428057e-02,-3.830038642680365646e-01,2.775187624865817493e-01,-7.842092013085649738e-01\n-5.161938787219179092e-01,-3.600563516985453294e-01,1.598937607720613663e+00,-1.376314222169195745e+00,-6.934278846647811134e-01\n9.774697567450794933e-02,-8.160454621509186102e-02,1.410837207038312169e+00,-3.561415298773665805e-01,4.363300331402888421e-01\n6.394569410711954671e-02,-1.010513832694424963e+00,-3.509504102626301858e-01,-2.081311166849302702e-02,-9.594610186799152896e-01\n3.165430443827945250e+00,2.867415548767673905e-01,1.281629713302907980e+00,2.027407700736537421e+00,2.436980882826525363e+00\n-2.175134116676169516e+00,-7.672028762689075965e-01,-1.693419188908448669e+00,-5.909289348541391096e-01,-4.266892506914920502e-01\n-1.769508953843152765e+00,1.364565297545635492e+00,1.582459816928724505e+00,-8.443376875193914222e-01,8.238969041245777225e-01\n1.013202908955634252e+00,7.863750044358129854e-01,-1.646351709533845575e+00,2.959264593645976937e+00,2.517316142792434430e+00\n-6.416025442943874557e-01,-5.976217223624608055e-01,-1.640699562450997462e+00,7.236037059591481357e-01,-1.873559394031953582e-02\n5.569074867614179913e-01,-5.449720837555651620e-01,-1.557756785612153694e+00,-1.187139066352151495e+00,-7.621142140973510282e-01\n1.653717900007695696e-01,-2.843572914792590334e-01,9.374450388999311379e-01,8.160261858975238480e-01,1.125178959658537092e+00\n3.658431966947086056e-01,2.270800402968303988e+00,2.619187956803041395e+00,-5.808686709872528109e-01,-1.271773760367968187e+00\n9.002645729950335962e-01,6.878387315623819553e-01,9.540469629653866024e-01,-6.014520350387063674e-01,-1.241765774040161308e+00\n-2.074034938537852035e-01,2.092679090491636806e+00,-2.572556215800977375e-01,8.403381221596292194e-01,-6.871301172738862872e-01\n-1.075885037979545489e+00,-9.864997254072951360e-01,-2.741448694338266989e+00,-8.018953462345561611e-01,1.068982591418303540e+00\n4.128028937653175495e-02,-1.040747824888238915e+00,-7.641925412620709235e-02,3.111358036409840877e-01,1.007745477344596630e+00\n-8.476381633579653796e-01,1.672364773805897972e-02,4.380695626081403393e-01,1.296741551491496836e+00,-1.507983069508381346e+00\n-3.477387408630986942e-01,-2.158258252625262497e+00,-1.002928373635541881e+00,4.136811958264350886e-01,2.070121873760982112e+00\n-2.804576199473417519e-01,-4.944967548052220385e-01,-1.225750762826874229e+00,-1.667823154253375684e+00,-1.054377656747160108e+00\n7.510718057161911432e-01,-2.559993092296660055e+00,-2.675847846144025488e-01,-8.382513560650479700e-01,-1.277786093926385202e+00\n2.678885456543416144e-01,-9.852739212771467470e-01,-1.337202298257863076e+00,-7.210119052922078220e-01,-1.880996671676508081e+00\n"}