{"weights": "-1.440394663899796923e-01,-4.429814365528660092e-02,-7.130083720898588995e-02,9.888550654725282441e-02,-3.865944805171310505e-02,-1.170514455639055790e-01,-1.070649723819997769e-03,4.497066342403348987e-02,6.171786649261720714e-02,2.194388702384160728e-01,-2.325639686308342280e-02,9.275953132150423219e-02,-5.003270936556700188e-02,2.584714607161914951e-02,-1.546621494781535294e-02,-1.223389712351406755e-01,1.790344784278350976e-01,1.912742873731588800e-01,4.701043033611308070e-02,8.029221168016069388e-02,9.045708053573114221e-03,1.625834710040568454e-01,-1.535629551773814438e-01,7.813706269834491680e-02,-1.976860846266411675e-01,1.491532934952509715e-01,2.454821646280437863e-01,-1.243179091799565400e-01,-7.113997965993223982e-02,-7.493100105610660255e-02,4.138219427162142389e-02,-2.120532426807189841e-01,-2.462948720901766281e-02,2.381965746875575399e-02,8.469247244169933464e-02,3.406995865851894512e-02,-6.095846397232624475e-02,-7.983859694266623452e-02,-3.619558653547540888e-02,1.954503290485968270e-01,-1.189420775566282090e-01,-3.320268409071031740e-02,5.769434572112550064e-02,4.859099117095246750e-02,1.169303509305007899e-02,-5.575197862257277870e-02,-1.654048128875845042e-02,-2.947577897572290981e-02,5.533107930438380118e-02,-3.293967939820104801e-02,1.772905502924046472e-02,-1.438301892440124220e-02,1.912216332131196628e-01,1.899726777951555312e-01,-1.452680227620497533e-01,-4.562992712994393130e-02,-1.447283941607439006e-01,-1.130361369060852023e-01,2.568863547721987259e-02,-1.197991653869515671e-01,7.139887139605918549e-04,-7.460183494564835704e-02,-2.676394624023681335e-02,-2.169935619125068493e-01,5.498810184117961658e-02,-8.964550332410625710e-02,-3.959096387084162783e-02,1.513211317260160227e-01,-8.615613239780661736e-02,8.801595848617894957e-02,-1.039411492365462271e-03,6.248817895066875044e-02,-1.323628733339173580e-01,-1.487291626184453763e-01,-3.206844264542544481e-02,9.687985437072456005e-03,1.465535234929688131e-02,8.642437504202089144e-03,-1.276504319053954339e-01,4.440910236914209774e-02,2.823478600087612339e-02,-1.275110287907685880e-01,-1.222470348824325481e-01,4.778743884509507878e-02,-1.097924808683336390e-01,-1.476519390245592811e-01,-5.577413190645763574e-02,-8.748290052233742564e-02,2.672311720332694041e-01,4.708813171171546963e-02,-6.178860279498171043e-02,-1.259989374065258738e-01,-2.569322747666736434e-02,-2.479172922166370321e-02,-6.723571133321024074e-02,-1.296519558809189690e-02,-1.162258196801635168e-01,2.154622878312440482e-01,-2.687993114883049928e-02,9.882905322659129438e-03,9.085347313544085354e-03,-9.577026722850440210e-02,5.388270098860451635e-02,-1.981073685253332828e-01,-8.666189362537629615e-02,1.044756834773930415e-01,4.227852768523122917e-02,-1.996973689419606346e-01,-1.890746962569088419e-01,9.243844974150156046e-02,-1.477048673081116925e-01,-2.770796473080667371e-02,-1.548283711811543062e-01,1.331525453406982307e-01,6.319879645069192975e-02,9.930779208189906282e-02,-6.600238226622525024e-03,9.944624698399573415e-02,-1.651883653288552245e-02,-1.697399188089932787e-01,-2.034438732252815199e-02,-8.298966567314337503e-03,-1.034155532779447995e-01,-1.559461071906383112e-01,1.438860802101723513e-01,5.167300222409455107e-02,-5.096208857338307974e-02,-1.803957776518583800e-01,3.900528143329149572e-02,6.967388068717705885e-02,5.355250433932251530e-02,-7.936154094764835687e-02,-1.785558330733740817e-01,-7.935093544099325324e-02,-1.020483486046315086e-01,-1.361139109678815573e-01,-3.428648803908655035e-02,-1.125196765640083391e-01,1.192943407086246715e-01,-6.353617735949705636e-02,-1.614603905654403426e-01,3.693948603799879910e-02,8.981157650346380250e-02,-3.680921845604549682e-03,-1.788360119892124234e-01,-2.902350382740715579e-02,1.974841782924642297e-01,4.080650394652389490e-02,-1.073465565396540117e-01,1.085725023412081360e-03,-7.335580635065265531e-02,3.303208087643229318e-02,-4.288421282383723661e-04,1.551265230760239325e-02,-6.740858058269054431e-02,-2.419490088254896629e-02,7.494126560053986086e-02,8.779341988550209974e-03,4.550320297159164001e-02,1.523457250097211835e-01,-8.300926455449234020e-03,-2.111720857015338959e-01,7.647017581181980717e-02,1.933013747535344308e-03,-2.062994214788274050e-01,3.355418347666470902e-02,-9.512064048790556947e-02,-1.363470684126261989e-01,3.529073210101661695e-02,7.689637806896179595e-02,-1.852549805077527145e-01,7.603361248741335142e-03,-2.250389558402554890e-01,8.426791572451190759e-02,-2.387143697029552869e-01,3.901332678949789162e-02,-1.207223494094734895e-02,-1.415238928987436751e-01,3.868478048434921546e-02,9.794674998568811408e-02,-2.195157822161346306e-01,-7.738075630779744918e-02,-2.016665365445929198e-02,-6.213050639005170822e-02,1.803215642404100705e-01,-4.200851965650975045e-02,1.814167161236298620e-01,-6.554388198420001144e-02,6.183707078274462091e-04,-3.688006318168466496e-02,2.888812452145591778e-02,-2.097169268607657344e-01,8.007925982700703216e-02,-5.138842924397859363e-02,-4.103497119132962223e-02,-1.192659158381673828e-01,9.296849143978520857e-02,3.409603703310134376e-02,-6.919883244617663909e-02,8.610549428582429943e-02,-2.902699109985050485e-03,6.508827388504027575e-03,1.985065092226787897e-01,-8.527114691855455786e-02,-6.849801515790428577e-03,-7.111077170688626103e-02,2.235620551514140020e-01,1.957625022276572868e-01,1.053903687734311645e-01,3.128089457982517751e-02,-2.618429992164069894e-02,3.109046047468188786e-02,4.903633266139285213e-02,-2.023913892456652985e-01,1.256020922099720938e-01,-7.043365208062658811e-02,-3.026501070551108896e-02,-5.994363600935728731e-02,4.542197421873975412e-03,-1.683258224897620225e-01,-1.027753969780391546e-01,-3.252693247837418894e-02,2.474267198646081661e-02,2.035588847851754410e-02,-1.967451041763548097e-02,-7.473836982983954325e-02,1.292162743833761285e-01,2.408002066272675948e-02,5.285285083056578265e-02,-1.472001471534743929e-02,-1.752147365167790183e-01,-7.467399552042673638e-02,9.963556615291141449e-02,1.699902377403684772e-01,7.261442893788867814e-02,-7.875553281919039916e-02,1.076330839307832882e-01,-1.615002833086002787e-01,-4.682089923597178294e-02,1.571158149455956499e-01,-6.444607327626555859e-02,1.178688749886519088e-01,-1.580331225776780701e-01,-1.018888338744258909e-01,5.432604988606559715e-02,2.680832829001455683e-02,3.329361155280105566e-02,1.331313341366021502e-02,7.797405740833219081e-04,9.751458010802389886e-02,-5.136906210286362739e-02,-1.818093333951009971e-01,-2.714684112694076140e-02,-1.665277854565172244e-01,1.275232787668807988e-01,-2.046475423900407688e-03\n-1.155466714777374053e-02,-7.873982747162083795e-02,-1.675483620682254038e-01,-2.111775127652400219e-01,-2.301578242984847131e-02,-4.334262033135126424e-02,6.477701814183918494e-02,-1.836967181134054744e-02,-9.087574701345736868e-04,-1.798428226766961291e-01,1.451688556499306226e-01,-4.604236156403807706e-03,6.884778674610536608e-02,-9.269756539980243681e-02,-4.519554904607656076e-02,6.581505046281357907e-02,-1.226548842187275418e-01,6.163372704789403522e-02,8.851802717196427528e-02,-8.943859509969383226e-02,6.842224446434666540e-02,8.368467524768066768e-02,-1.454436750744948215e-01,1.949932281628183051e-01,2.100580269449429244e-02,1.019035841658678804e-01,-1.041438537079363708e-01,5.684261808662752213e-02,1.131156776392939628e-01,-4.609734885428810186e-02,-1.706440807537610779e-02,-2.668512057055413833e-02,1.020995795438328219e-01,-2.587916037449026693e-02,-5.091548684948466602e-02,-1.125982866750139567e-02,4.111807690584855235e-02,-2.817559066406352675e-02,8.447747857518679571e-02,-3.462739885899079884e-02,1.735252240912390498e-01,3.453578557209853461e-02,-1.286870674647332125e-02,4.164612156657535730e-02,4.783881304246091759e-02,-6.320618623845612738e-02,-3.831717294775054822e-02,9.445966366368115097e-02,-2.612898122130808548e-02,-3.496160342773530372e-03,-1.647754904634901041e-01,-3.059640935077105259e-02,-1.471763183905073491e-01,-1.145029030234480244e-01,-1.225878212029067466e-01,1.892434100141806852e-01,7.401160243732546329e-02,6.471330655996668235e-02,7.603068059778336774e-02,1.369308961477277431e-01,-2.175874292020069378e-01,-1.525210696935014876e-01,-1.891035219040547444e-02,-1.055817420516351607e-01,-1.470046163639882608e-01,-5.015523497514870477e-02,6.725637714438818804e-02,1.391825181810615875e-01,-2.737357890105570832e-02,3.242305811588967052e-02,1.744410998530725870e-02,-2.300912464796521506e-01,5.372075609727686857e-02,-1.650553411373749391e-01,1.473251943427705650e-02,7.114819284990975268e-02,8.803815901804513955e-02,-8.225500531643782642e-02,3.377763432638886121e-02,7.207428768068258051e-02,7.086855497955550642e-02,-1.443055235831118555e-01,1.090222326951751676e-02,1.190585759546492622e-01,1.009967203036386124e-02,7.567328856429628159e-02,1.825238531618853660e-02,-5.088017140108059416e-02,3.636335836901830737e-02,-2.126582270186142334e-02,-9.195346419504706048e-02,2.117716938156889717e-02,-1.026090926197858154e-02,1.733583948593612201e-01,1.205631620247422930e-01,-1.362888910858713401e-02,2.868136701082753953e-02,-1.790969975210574272e-01,-2.616165302615327051e-02,1.880327010571714585e-01,-5.341641422854812027e-02,1.254678505920151232e-01,1.423294027910118331e-01,-2.475557667913947518e-02,1.064196473054638131e-01,-9.344412504738140723e-02,2.790012228803240985e-02,-1.573341613737102851e-01,-2.046477482728433286e-02,-5.961686820711982471e-02,-3.194026457077253633e-02,-7.410939157248928877e-02,2.045949328005513407e-02,-1.941792748027249549e-01,-7.097151238352601699e-02,-5.692524649682749460e-02,1.509477242443462153e-01,-5.150389363005820897e-02,-1.463089894164290930e-02,1.143667795274746213e-01,-7.588887339465191784e-02,1.758170830645121308e-02,-1.398767996014311024e-02,-1.640339430551049360e-01,-8.157554391426599660e-02,9.761721319292088195e-02,-5.604626312160526647e-02,5.761115824855292389e-02,7.441163480538284802e-02,-3.769541217337631783e-02,-5.229455716992872927e-02,1.656427967609065688e-01,6.981146802858880646e-04,-2.772269094220362537e-02,9.935039833965417233e-02,-6.877563814626262706e-02,-1.954496836245738223e-01,-4.003167390105368678e-02,-9.976136820359361723e-02,1.439977882767969064e-01,1.447959179323607126e-01,5.859750095375246270e-03,-4.431448083742114269e-02,-6.845608102091566005e-02,5.310510696909570560e-02,-7.050034280798883612e-02,9.666419910038230590e-02,-1.184609646353984441e-01,1.107982155448917344e-01,1.389576336656573596e-01,-5.204866195623258224e-02,-1.124967432697594610e-01,1.697656465858516164e-02,1.122987237514853215e-01,4.932063924798095467e-02,1.401309099685500714e-02,-5.938963240654855646e-02,3.627676067520251707e-02,-1.534470113273139480e-01,-2.444331517392905537e-02,-1.007531642567005836e-01,2.232502517090447225e-01,7.083239877143451824e-02,-2.461478122702196250e-02,-8.028844054965365851e-02,9.819428638076495297e-02,-4.752029085474131914e-02,-5.669525348183945129e-02,6.181086619007730406e-04,-6.534089624039243760e-02,1.560796144129236451e-01,1.527021067988492548e-02,1.243983963659699848e-01,-4.118496587846063629e-03,3.025270850144745061e-01,6.512446350528502959e-02,3.289717923151316836e-02,-8.298035960250894905e-02,3.159237083689429848e-02,-1.463363178399692266e-01,-4.881490726077007680e-02,-5.114821625132924543e-02,1.024749476869078607e-01,-8.086338040864354815e-02,-6.959627693092443335e-02,-1.361900697638906699e-01,-3.979618971310262127e-02,-3.934441127177577824e-02,2.565013012120762603e-01,-1.001469019080190037e-01,-6.319132663997302501e-02,1.812332974457489141e-03,7.333324925492201718e-02,-2.236681781418350112e-01,1.765796941805624354e-01,-8.824020823403133651e-02,-9.741899341558271641e-02,-1.876182561453282327e-01,-2.776184264992409209e-03,-1.311739011309195069e-01,8.388143643909309888e-02,-4.377910600707739935e-02,-2.486685587938938513e-01,1.710536854713887167e-02,6.557241055116121153e-02,-1.042400521377114808e-01,-1.515896933927448897e-01,-5.953846350665033087e-03,1.255327090099480625e-01,1.154343799828476541e-01,1.305447061083290505e-01,-1.736779911442416502e-01,-5.440254908606608625e-03,-9.490122480681309480e-02,1.329212508841826623e-01,1.786046411854278967e-02,-1.635583295540123105e-01,6.152555792753066407e-04,-1.995826992900422980e-01,2.193505817466676056e-01,2.361420391288792109e-01,-1.082404085686799189e-01,1.525989515743609963e-02,5.143729348274184154e-02,3.291448265856174865e-02,4.647611740948190406e-02,-1.696975874328586487e-01,-1.128109620677748837e-01,9.272306373368975618e-02,6.232189320368966556e-02,-6.963776418582874606e-02,-9.908080262512887482e-02,3.931320331854324529e-02,-9.612655481904228139e-02,4.515653947925247526e-03,1.126230483800548521e-01,5.176981909356190986e-02,4.523777630496268742e-02,-3.269785270954215367e-02,5.488107469227723051e-02,-7.519276409637379310e-02,-1.143816072552417962e-01,7.066921909745221830e-02,3.553769779647580895e-02,4.898306459307383981e-02,4.114011354056226061e-02,-2.083284023063469992e-01,2.384225965891624555e-01,2.211134585528958252e-01,-4.306465243463473286e-02,7.978475025922689146e-02,-9.754658873123031593e-03,5.834557148349767131e-02,1.912945856659697269e-02,5.110105177923272846e-02,-2.864015298255580613e-02\n5.980399863114835984e-02,1.992407629145118847e-02,-2.721392738187515259e-01,1.114330943586453460e-01,2.995717417007187980e-02,-6.494487734450481164e-02,2.667310707378040685e-02,-1.021729398739189103e-02,-4.897823600169468050e-02,1.484170974108697458e-02,-1.433769042813615446e-01,4.102103734167323462e-03,7.361288387842189473e-02,6.408311159559293424e-02,-3.332356174817535308e-04,-1.194160660354715714e-01,4.823049979504103087e-03,-1.302919697781517727e-01,-2.035335826813226140e-02,-3.677493211161145942e-02,1.689353692115938901e-02,1.287579690121085085e-01,6.690392576459065765e-02,-6.765414246715778512e-02,-1.145902717636237134e-01,-1.104435889202543680e-01,-1.654205936567018365e-01,-1.785187818633552637e-01,2.196298131225887795e-01,9.209961833859529878e-02,-2.723829149365739055e-03,-2.083428721409827291e-03,2.471783247389027216e-01,-1.857383582927045751e-01,3.326880161591782431e-02,2.088734418864652553e-01,1.936776871976188599e-02,-1.743772794276984145e-02,1.269291491474265066e-01,2.416813985946542065e-01,-3.431991686374694095e-02,6.753664694522285017e-02,-1.284050791490910504e-01,-3.238961042095091225e-02,5.679401071909688514e-02,-5.557048994735089981e-02,-9.224152360560101960e-02,3.379378195338973018e-02,6.555734559882242518e-02,-1.560394285149087068e-01,-2.751852036352406966e-02,2.584696694400443265e-02,-1.931696406887672413e-01,-1.042677949288933342e-01,1.332178991208291530e-01,4.716485150737568383e-02,5.081285778653157198e-02,1.863150442328631931e-02,1.264475386151336644e-01,3.366996552696839822e-03,-9.380065443673141212e-02,-2.179904235957336178e-01,1.126113665748340320e-01,-3.554521190635810679e-02,-4.418521187760472008e-02,-2.251796186256004029e-02,-9.761578314629398845e-02,6.094093283818238088e-03,3.172535575854106005e-02,2.504101172394235797e-01,-5.838248955301915399e-02,5.071525607733642221e-02,-5.697516550048604272e-02,8.334355194467878147e-02,-8.316664424260372668e-02,8.256482154523193950e-02,2.485319722705409476e-02,2.246079371279337961e-02,-1.660149308705317350e-01,5.582261163072392562e-02,5.722961541469411689e-02,1.261196060319889900e-01,-2.244816830790622234e-02,-8.173964632576788403e-03,-7.185571119930890538e-02,-8.242893485699170908e-02,1.322762326567067936e-01,1.988446592063605189e-01,-7.222574557887253589e-03,4.574861632550783486e-02,2.795298580368746691e-02,9.230708528849337902e-02,1.115168570227147576e-01,1.563079499241400716e-01,2.777401219754392289e-02,1.884579395180837613e-01,7.858734656692645607e-03,5.534767579969025741e-02,3.569252601877408171e-02,9.706262351228810148e-02,5.911026600152270716e-02,1.977901681402433887e-01,-1.228149970092657639e-01,2.314423466870388357e-02,5.618316001344178523e-02,1.111299727225395668e-02,2.184300364284050278e-01,1.220568405651060173e-01,-1.224229033794257404e-01,1.533316188538764724e-01,-3.670919812850882008e-02,-2.107171441005005127e-02,8.256307192071845463e-03,-2.098984280555775059e-02,-1.203147423308736641e-01,3.467364485947268399e-02,1.384698611182313965e-02,-1.139246702009548973e-01,-1.356688327427748586e-01,-5.608756751524898027e-02,-1.120259014627787188e-02,3.291272008631189114e-03,1.877883964220936064e-01,9.386023443265598121e-02,1.486555602815073096e-01,-5.435348626067085243e-02,1.200547278181527261e-01,2.756849802173363950e-02,-1.233307854800486450e-02,-1.656958807638317724e-02,6.828130944345441045e-02,-1.250937981421284817e-01,-2.290103874608902246e-02,1.202064272286154090e-01,2.168019253191052487e-01,-5.225598547316664261e-02,-4.949556943923645591e-02,-2.199706178825099334e-01,-3.182679359711394675e-03,-1.938931354293088882e-01,-7.512614497854387847e-03,8.542711151161461181e-02,9.983433083723805557e-03,-6.455340364615021198e-02,-1.842727515445666264e-01,-2.372778750851084473e-02,1.094024374948211892e-01,-2.750834776947736621e-02,-3.078380157706636297e-02,1.125769562281806330e-01,6.313439182455774130e-03,1.499270303898621592e-01,-1.133867703605390548e-01,-2.168367891639983239e-02,-1.435423266494379249e-02,9.872146270100924659e-02,1.813616567011871461e-01,-5.513949257099119011e-02,1.318990356348376525e-01,1.403615445787689542e-01,2.787219562861301819e-02,-3.264325021678496364e-02,-1.294836138892252186e-01,1.067428133850201327e-01,-5.830088207729066350e-03,1.092546166849495820e-01,1.657635233313456691e-01,-1.360759083504430034e-01,-5.629726489892076385e-02,9.045923458195177097e-03,-8.864168685648990409e-02,-1.068025986823933904e-01,1.972891024355930834e-01,7.675867656019067474e-03,4.515058804080551887e-03,-1.852493102428577620e-01,-1.650614946639487185e-03,-4.169170007001646999e-02,-2.722139806078252566e-02,3.734577435211233754e-02,-2.354532733264018060e-02,-1.572843726243912388e-01,-7.083742059575687255e-02,6.712568738122977330e-02,-1.600075959343012499e-01,1.834477157815166126e-01,1.006865737468908978e-01,-7.270716324598267000e-02,-1.656580813021950316e-01,-1.664164094131074800e-01,-3.189582575589363506e-02,-3.127474995299551336e-02,-1.511645254215415179e-01,1.698888681469860329e-01,1.123034188298864533e-01,4.765907542343191666e-02,-6.516763198400869761e-02,1.283524842809548872e-01,5.472629150135381593e-02,2.566521062954928850e-02,4.157872430610409786e-02,2.843571583009912307e-01,-1.202650097782824445e-01,-8.996246874303124100e-03,-1.821161087916370047e-01,8.557782564763327660e-02,5.922333806094756681e-02,2.351501148627090088e-01,4.196058510578126732e-02,-1.908154539633909463e-01,-9.259817018249168197e-02,9.282488462418631014e-02,-2.427097382156650218e-01,5.220118540046082833e-02,-1.642338874799682269e-01,-1.132691228758121588e-01,-2.401193508833984400e-02,-1.489811745543186128e-01,-8.682884722069227068e-02,1.888574754501057620e-02,1.130526641261356963e-01,3.477009198519392247e-02,-1.138669793441800249e-01,-5.395372085837239068e-02,-9.184780654428512103e-02,-7.993315967754698395e-03,-2.153365758854940415e-01,-3.487370363721806893e-02,1.438363641806110482e-01,-1.252108237793378986e-01,1.415456816100374715e-01,2.767298374815137588e-02,8.269030617727252119e-02,-5.016849325526621245e-02,1.036936510992846061e-02,-3.272623171646703299e-02,1.278662176254254379e-01,6.427237542539181170e-02,7.282404903836077470e-02,9.177310897794896394e-02,1.191704499750495666e-01,1.094368359575098315e-01,1.244330071105768099e-01,-7.663036337921731722e-02,1.864301155266234467e-01,-1.246819474889930141e-01,-3.038004691917017136e-02,6.198583056695849969e-02,-2.065282962928722266e-01,3.043259947133205093e-02,5.862128218762988063e-02,4.283208095642086072e-02,7.132524005829220248e-02,5.647894387704005710e-03,-1.802080871156961361e-01,7.428825383698272819e-03\n-1.089734004801585499e-01,4.386122735244088813e-03,-1.712843603040722917e-01,-2.222250149911002629e-02,-1.872956877062758457e-02,-7.950609340068114095e-02,1.668975096393831015e-01,-7.769872118252929560e-02,2.331040130721706918e-02,1.760865167527728148e-01,1.092652756507037082e-01,1.084814436851965491e-01,-2.853067912725732597e-03,5.776460283229725018e-02,3.094954860607517302e-02,1.897608184816267918e-01,3.616579499582794205e-02,3.845038405406047549e-02,2.428013997505879540e-01,-2.053921959196406133e-01,-2.885281117563007550e-02,1.314089362567497921e-01,-1.482081395263349088e-01,-8.473476437582210669e-03,6.497972160041440293e-02,3.759157471965904329e-02,6.058433404671539901e-02,-1.330107281535795050e-01,-3.761335709724657889e-02,-1.018020743055641775e-01,-1.019234778264584973e-01,-1.143027879639715444e-01,7.525705492771188332e-02,-2.296931967748579717e-01,-6.517277374856779437e-02,-8.884814935750835752e-02,2.897939485669482132e-02,-4.702112903225800188e-03,1.459317361259994672e-01,7.269218353902807961e-02,-1.738750706458236928e-01,4.172187917392990858e-02,-3.548621222112244983e-02,-1.219433004273981491e-02,-4.401591932868924306e-02,2.241911641635628907e-02,1.834759313016792459e-01,-4.614855095094334836e-02,2.736134291875754743e-01,5.097516716071769094e-02,-5.426656892857315007e-02,5.917939575522666862e-02,6.581122819948656555e-02,7.071877809530432990e-02,-6.565594378823969013e-02,1.928196432680868710e-01,-1.451914580728208837e-01,-1.717649201791632274e-01,-1.931528901546497590e-02,2.535746127938350303e-01,-1.374312013645599684e-01,6.168511903421491915e-02,2.035137927341590380e-01,1.274512200226796121e-01,2.528292860266735387e-01,-1.569399036517147294e-01,-1.696225360617282518e-01,-1.942185504776124116e-01,-6.196196208744079309e-02,-4.034726960029164089e-02,-1.293172726077443380e-01,8.259034751182935466e-03,5.261309519126406570e-02,-7.170960964285476302e-02,5.617688650498043473e-02,-8.503938877583125389e-02,-2.711468750983084958e-02,1.211732324698137214e-01,2.031435769457296814e-01,1.036210276671742092e-01,-8.971540891812600227e-02,7.925840542785922080e-03,2.680524598796754643e-01,3.248814858824515817e-01,-3.193572064463891247e-02,-1.976358922071568269e-01,1.078771593349261287e-01,-6.996197003844080442e-02,1.745088328336515202e-03,-4.606191989067338205e-02,-1.217515526218624633e-01,-6.790870324572370609e-02,7.575314828296052239e-02,4.097852372134356018e-04,-5.794011585702646405e-02,-2.110720191767943930e-03,-5.217985689675334882e-02,-1.624332800384788167e-01,-1.017023414649113749e-01,1.921937444201559098e-01,1.454949132722912208e-01,-2.895482928801669520e-02,1.190102560762602985e-01,-8.663438075038221164e-02,-7.184155547931232733e-02,1.381551989974896533e-01,5.096882756715656777e-03,-1.310307818374631950e-01,-9.115764220859164102e-02,-3.506891230018201883e-02,6.071239812255110196e-02,-2.739351097186080650e-02,3.673169633759402336e-02,-1.391469987764041086e-02,-1.950934791099427287e-02,-7.368014925690730133e-02,1.087422705794969385e-02,-1.202124375476770340e-01,-6.984108637952747556e-02,4.832995052767184024e-02,3.656334569468998319e-02,2.354895244481471431e-02,1.400539073396948331e-01,1.356781562411658870e-01,6.412447299956582081e-02,1.065452490954436338e-01,1.879718611955313520e-02,4.145675806671735714e-02,5.893855727981397313e-02,1.616062934860647837e-01,7.061028442034136821e-02,-1.522572207022380442e-01,-9.518695768558492476e-02,-3.046038537171157860e-03,2.077484681334687000e-01,1.312995843825645881e-01,-2.558761020869975700e-01,5.311978814836969959e-02,-9.159217047991191629e-02,4.188283691755086829e-02,-1.679019989057137230e-01,-2.112146733078543726e-01,2.507172358333954396e-02,7.620957598991229265e-02,1.493019334468677906e-01,2.998038497143046613e-02,-1.776847044713548429e-01,2.294007493483947724e-01,-2.642205562600885571e-01,-1.694588984873970916e-03,-3.422338639759722745e-02,4.591712873338668621e-02,-1.917939731271324222e-01,-1.367793517175777962e-01,-1.167140880154774038e-03,8.040159213748188094e-02,-2.170070302738431184e-02,-2.003567934255935136e-03,4.134031921345299176e-02,-1.409344635410306537e-02,-1.082612792961435144e-01,1.537497488825552983e-01,-1.141983065755027699e-02,9.937489890358314204e-02,-2.415711472469295185e-02,1.280557593588129263e-03,-1.648444299391966378e-02,-1.950742318287750354e-01,-4.618597390795124019e-02,1.646362222322937663e-02,-2.225291153207939465e-02,1.828055063312152700e-02,5.014882488241161063e-02,-1.546675190217527973e-01,-5.310235142992155571e-02,4.676359180635638463e-02,3.925810305543375733e-02,3.556424885193380792e-02,2.562575846189785733e-01,1.098802336601951424e-01,-6.904213508770459806e-02,1.344312593906996645e-01,-2.018595735308073291e-01,1.306840248407240279e-01,1.862257594516580558e-02,-1.582878547158174040e-02,9.723510889503855434e-03,-3.047740073909983513e-02,-2.267415419353244199e-01,-2.176219736783875924e-01,-6.368483403973473900e-02,1.423003798104744214e-02,5.275109005405737017e-02,-1.097055958409585141e-01,-1.229778623115159453e-01,2.934449869657914170e-02,-7.941482983417323671e-02,-4.828024900642571143e-02,-1.328286321624018163e-01,-5.458445359871869768e-02,-1.730575105671811886e-01,2.104106977184402039e-01,-4.315091598640712067e-02,7.810351552900413052e-02,-7.568100861667143020e-02,4.863939874770416283e-02,2.343467616965901057e-02,6.078143997318431226e-03,-2.867811978066176284e-03,-3.908587265204824246e-02,-2.151850684921207194e-02,-2.128745029052507010e-01,4.581472298179038727e-02,2.384050629956634137e-02,-3.408568223138965479e-03,-1.961086198448351928e-02,5.330087658994252936e-02,6.677722791090626164e-02,-6.691041514085795117e-02,1.276760656206577527e-01,-1.365987193532494370e-01,2.384085677413370075e-01,8.968583598772226703e-03,-4.595277920191175730e-02,5.079469478373589003e-02,2.338262745135499254e-01,-9.291516595459438366e-02,-1.897410141306044851e-01,2.082077753399524597e-02,-7.486139152215492976e-02,1.820162923726834914e-01,-3.717876076453561357e-02,-5.108631651991540901e-02,6.887844399871545509e-02,7.908339351898373282e-02,-1.660631117439746451e-01,2.659176786391999059e-01,7.208622933280030287e-02,-7.033013610447157518e-03,1.876233734809964679e-02,2.041789291936711992e-01,-2.989504243686694901e-02,5.445008189122688830e-02,-2.628544052009271215e-01,-4.528631933770825568e-02,-1.475703372693663029e-01,-1.620331625233800699e-02,7.936153838460457965e-02,-2.339989590943884201e-01,-4.588072723817674531e-02,-2.014664682802608242e-01,2.593673347629802881e-02,1.002950355191467718e-01,-7.805271087360990401e-02,-6.567986034114254440e-03,8.803844350560806331e-02\n1.539407721366749596e-02,2.731349746717596783e-01,2.870976494736351275e-02,-1.384942723856505409e-01,-2.688212860599372561e-02,4.446287713234513966e-02,-6.297258876550787055e-05,-4.655296186885871101e-02,7.549106621438758657e-02,2.808862540650701178e-01,2.214616527692246650e-01,-3.512634233204620093e-02,-6.473698874598775299e-02,1.251469763251577272e-01,-8.591475392238616046e-03,1.610913764030710293e-01,5.564086211933861464e-02,-1.748182526708747658e-02,-9.960106646632502225e-02,3.549165630426858592e-02,1.602252882503753251e-01,-1.008991753654488871e-01,3.718173427005361936e-02,4.473079081606295276e-02,-5.783282860036790402e-02,6.081186377871515558e-02,1.786875314597685949e-01,5.671800687203037809e-03,-2.203029201103650636e-01,-6.407404447784503798e-02,3.288024599838434980e-02,2.560899055566850241e-02,-1.976618354927603231e-03,1.823684540047261146e-02,-5.984652070898516252e-02,1.186318990389950354e-02,6.805995562818330236e-02,-5.813422494327873113e-02,1.598192259728649367e-02,6.372210204617116680e-02,9.020313527965875822e-02,-4.622885451511016958e-02,-1.616633300443608146e-01,3.711844898335182885e-02,1.502682379836502713e-01,1.202327665403987167e-01,8.142464249979206037e-02,1.996734976634302050e-01,-3.064455420810647743e-02,1.420806951799181150e-01,-2.073341217969007846e-02,-3.734579693730038369e-02,-3.355892033847206191e-02,-9.001030099139954721e-02,-6.394223690512781944e-02,6.465344554584566417e-02,-5.184478940677513664e-02,1.704370863486739940e-01,-1.325103735171212216e-01,-3.883568880256673544e-02,-6.888673282682571120e-02,-5.661787225930711709e-02,1.135624889829447287e-01,-1.061935520226602314e-01,1.114017179138142438e-01,-3.471201026822527680e-02,1.399927974144757059e-01,1.484572618140272970e-01,1.761272673218280682e-01,-1.090408135738652612e-01,3.148604829237636876e-02,8.814237144672761037e-02,1.176614038326498496e-01,1.996554019353802625e-03,1.213686091856553961e-01,-2.255376879249905431e-02,-3.631186056753919755e-02,-4.839492950482562200e-02,1.223855488747290637e-01,-3.437736695801899695e-02,2.663971442910114534e-02,1.262230090462536924e-01,3.639390676560112087e-02,-1.622397176236801131e-01,4.972750639733895806e-02,2.062011069512832348e-02,-4.898761688370496109e-02,-2.677899910068799044e-02,-2.534445214773383692e-01,-3.936469981774250865e-02,-3.260472661450954102e-02,5.350627974108133206e-02,4.903384323917862365e-03,-2.952656656483889641e-01,-4.371502308846159784e-03,7.308085253274709814e-02,-8.501291378663840964e-03,-4.230167051380120946e-02,1.213680468623555414e-01,1.885782992548328818e-01,-8.735505975687669900e-02,1.347164487640684777e-02,7.659483414056217354e-02,3.653962943955776921e-02,8.213328159411299734e-02,-1.585329630519234645e-02,1.442388490314778227e-01,2.157921103594481194e-01,1.762826657651303253e-01,8.329443410740050568e-02,-1.538205831576134990e-02,-4.935261904368589553e-02,-6.826371862766120180e-04,1.602233587602094889e-02,-3.788545026325675774e-02,-8.316587811735486058e-02,7.065661369214483456e-02,5.987592312773019204e-03,4.096633880994765553e-02,-1.250154025136095831e-02,4.218131307736065067e-02,1.236892609641644242e-01,1.895924338694929268e-02,2.648439987055525857e-01,1.133136442329577415e-01,-1.736138401640582585e-01,-1.536508904009551701e-01,6.285076410016819659e-02,1.073962455109648134e-01,6.121013642405342958e-02,-9.042560972601960956e-02,-2.402199529648977455e-02,-5.553162298809150021e-02,6.796956149145069737e-02,-9.295659420112091509e-02,-2.958464969764629596e-02,-1.136985726393468024e-02,-7.447645105724208514e-02,-6.532517844496341097e-02,3.670030753347333641e-02,-2.221960791484671183e-01,-1.731364293515605737e-02,-1.518029774839141921e-01,-4.095743870431142047e-02,2.582446301155584267e-01,-1.715668939826031358e-01,1.082560938779755788e-01,-1.287198183675461287e-02,-5.974829073849659972e-02,-1.522313234278920291e-01,-1.399511043969415836e-01,-2.027423034279521030e-01,-4.776551012326910733e-02,2.301938118545457379e-02,6.171531306915212234e-02,2.656841664727390140e-01,6.824553275273670394e-02,-2.158436640151164265e-01,-7.021011967622535488e-02,7.137749947372602766e-02,6.673639196917063865e-02,2.106089188595830844e-02,-1.215974600828692298e-01,8.548089028052941948e-03,-2.454109935760448169e-01,7.556144091885828862e-02,1.216640363472582947e-01,5.375307687667943424e-02,-8.727907807182447297e-02,-7.310955074892458438e-02,-3.972482920501186482e-02,1.440769812975278841e-01,1.007823337490059423e-01,-8.298382700864273542e-02,-1.094146946530938358e-01,3.764309873411200713e-02,9.575507933124782767e-02,-1.264706229828189282e-02,3.465336640201331642e-02,2.020806972339086460e-01,-7.204451143891628384e-02,1.139838851836144085e-01,7.494850457991036885e-02,5.859426234884308748e-02,-1.201297961286287019e-01,1.287809909374909301e-01,-1.932239607239050749e-01,-1.227300742875569867e-01,3.169497409671106353e-02,2.494769520288247361e-02,1.364562157351736915e-01,-4.879145465536851786e-03,-4.826171812993625305e-03,-1.425297878578545563e-01,1.138530076668811258e-01,-4.516930807360318434e-02,-4.179414882168170503e-02,-4.789033414769630626e-02,-1.505722496153092671e-01,8.829226699068601358e-02,4.076443751683797578e-02,5.606475953754741504e-02,2.919194242231368253e-02,-1.059190343491157524e-02,1.952222808883899152e-01,2.376167065622441284e-03,6.247491840556271964e-02,5.094526840825595176e-02,-2.896309957201420593e-02,2.096159145478779240e-02,-1.267382172164934762e-01,-6.255291604025273178e-02,2.819706381143070612e-03,1.846311766952005162e-01,3.116596226788000482e-02,1.817131411143169117e-01,1.409461764775725157e-01,-1.052539702277237484e-02,7.219877756431337945e-02,7.376882902679261778e-02,2.282378938524956824e-01,9.927868260769018294e-02,6.785203794336865102e-02,1.041024718252482745e-01,3.852810342631358964e-02,2.399115665584942297e-02,1.244349342924590818e-01,8.992070945778371863e-03,-5.159758824753428452e-02,-1.441914380803265561e-01,-6.492153645565730546e-02,3.362445359418492208e-02,-3.419061104826127961e-02,1.943951685694260412e-01,-3.348505566438954306e-02,-1.764438814681044687e-01,-1.365133168520184515e-01,-5.489915429534981961e-02,-1.879585893696431309e-01,-7.737803333668091810e-02,4.667956823828944835e-02,-3.333800811157629218e-02,-6.960133548867356024e-02,5.352522750188828775e-03,-1.551485452511894129e-04,3.492116321190057160e-02,2.530526325058682705e-02,1.117937024067870710e-02,-4.953452208604711138e-02,-6.015378712084379353e-02,-5.278974953415303123e-02,-4.333013052143155214e-02,-4.758957819354843466e-02,-9.832708002823441207e-02,9.296066399812301373e-02,-4.889363387603904570e-02\n-9.621183939856256528e-02,1.417474690603683363e-01,2.359973187581037024e-01,1.687586271804604743e-01,7.774748704372160966e-05,-2.468145617980283535e-01,1.260232955636861052e-01,2.368354127665943734e-02,-6.440298877744096706e-02,9.930056522115818241e-02,4.814405715940388297e-02,1.798835628745615867e-01,2.439747660367546367e-01,1.174197419361538014e-01,-5.525340714027261041e-02,8.631338600294550731e-03,-1.330641515515808559e-01,-3.861152647184462605e-02,-1.607622690030629242e-01,1.020862183088124958e-01,1.469075295949441307e-01,-3.108442155127006529e-02,4.535125441611120162e-02,-5.093972181460732634e-02,6.547818774042389600e-02,-2.577358207255503637e-03,1.752621506386271288e-01,-5.366219122137242531e-02,8.983794798423923311e-02,4.229360674967189843e-02,-1.476903204705900217e-02,7.592459221261029867e-04,2.021299544220955900e-03,3.869875243504317108e-02,6.815368988008374540e-02,3.825941405408796875e-02,-3.734812324009022938e-02,6.576633187737603026e-02,-5.824853019537361981e-02,1.621583469442888781e-01,-1.131001972867316657e-01,2.203434537980843155e-01,5.786947101177507963e-02,9.912467219381564110e-02,-6.750355722549164494e-02,-7.373333811949833727e-02,7.873684898559306367e-02,-1.148318375107778948e-02,-1.131272835534750942e-01,-1.164072569410461166e-02,4.447370510386894349e-02,-4.697227879143551360e-02,9.853075349852903619e-02,1.615320358758048080e-01,-1.298413418389566809e-01,-3.924329607999560432e-02,-1.060180336197028422e-01,-2.725314795232732998e-02,9.928811504598940296e-02,4.327713311758004354e-03,-2.383406872507918758e-02,-5.490542795492147493e-02,8.590726606104838459e-02,1.007622858987941294e-01,5.341185994555553568e-02,-7.989812318453083650e-02,9.192529738250945770e-02,3.122199988061437337e-02,-1.130449537385790071e-01,1.499386823613022279e-01,3.820555881412169424e-02,-1.062867947256325718e-01,-3.225189931319567133e-02,-5.184796477378995211e-02,-2.006328110812480303e-02,4.505225283389510671e-02,1.527662798274518896e-01,-7.295435863267850374e-02,1.817042627317088377e-01,9.030082100899125552e-02,1.836901750689449719e-01,1.584589274385492155e-03,-3.528859719823015072e-03,1.579431593057786798e-01,-1.130920892875767886e-01,9.760103600827702008e-02,-1.629726663196192915e-01,-2.745723742364835143e-02,1.116855896952555390e-02,4.470277303193925106e-02,-1.455077367460332338e-01,7.676575458862240631e-02,3.415589491691915086e-02,-1.447023276375740963e-01,-1.445788803233522823e-01,1.602975349019014834e-03,-1.375816571463725491e-01,-1.075854505585105425e-02,-1.192288617662759925e-01,-5.908881324796416701e-02,-4.848435246783389108e-02,2.457326455803628129e-02,7.615181591851012677e-02,-2.295018150730957218e-01,-2.132124358058830604e-01,6.815085749706978335e-02,-8.322981368537121782e-02,1.091553688218500490e-01,3.229252598892397297e-02,2.012441705309912440e-02,-2.630935959362428606e-02,1.749444262620965251e-02,-5.805675700554673024e-02,5.239582811442799332e-02,6.818756435948739036e-02,1.201519672255954747e-02,1.406829183062996980e-01,3.839485203584085127e-02,1.373000410235730717e-02,6.203274406873176411e-02,-2.352242133953508577e-02,-5.942435696004937096e-03,-3.212128891102014605e-02,-6.673394273238592023e-02,2.009093353903232751e-02,1.216807263148823454e-01,-5.450333877544943223e-02,2.537100426101540629e-01,1.094836320049945300e-02,-3.033886812741688754e-02,9.814545326365364808e-02,5.542583209971845004e-02,-2.830128208830621703e-02,-1.378222204083386915e-01,9.552753060994274847e-02,1.509238939648848386e-02,-2.867116405883498587e-01,2.329364784347921769e-01,3.700848847230830962e-02,-3.923565260086164103e-02,3.952019925836704195e-02,-9.823581490765116719e-02,9.035267519226838906e-02,-7.387195995611862964e-02,-1.002042846095775423e-02,5.176929855286136611e-02,1.214238305288175140e-01,9.389009655972606339e-02,-2.305521333494545480e-02,-1.772925044694742269e-01,-1.201999726522489098e-01,-1.338545795407821426e-01,6.121999411499520066e-02,-1.922621946655634073e-01,5.542272473856022647e-02,-5.456101112398502317e-02,2.162244764222414628e-01,1.234645437703136284e-01,1.306444777663824143e-02,-1.341913216139172249e-01,-5.918469820070965115e-02,-9.564575361237272200e-02,4.165413044350082389e-03,-1.811943200688904687e-01,7.766025943694992995e-02,7.709960006720043002e-02,-1.799885191785056612e-02,-9.262434305636055298e-02,-7.752106479544433604e-02,5.170364457179362633e-02,1.493277920483154081e-02,1.320679401387763741e-01,-6.751772253740617735e-02,-2.885263981314632395e-02,1.288672072245021505e-01,-1.242426253049930263e-01,5.410848399020248833e-02,4.467440857529936249e-02,8.965111637540343001e-03,-1.319869138784207918e-01,2.166354566637825399e-02,3.214594101049798869e-02,1.710056965350838509e-01,-9.375746202166164445e-02,7.046445573236113924e-02,-1.531927428545119263e-01,5.672835712826412857e-02,3.716607890524783325e-02,-9.154126130245253401e-02,2.526611299817683662e-02,2.103133067092980701e-01,2.357060273017351493e-02,6.247810227225415042e-02,-1.116692337866410090e-01,5.304812624346706175e-03,3.227661164445804615e-02,3.937764903630935204e-02,1.205954976015847363e-01,6.049671473141788507e-04,-1.400171241116324877e-02,2.758197807013547387e-02,7.889630314614003159e-03,-7.097156599458388782e-02,1.284309704976894194e-02,6.555003954364416706e-04,1.282056282336090369e-01,-3.939637578182616368e-02,-1.425111834818304501e-01,7.852379256608803260e-02,1.308249261338615965e-01,2.438927031370969820e-02,4.155150023364788392e-02,-6.579634980051000948e-02,-2.377495173293902100e-02,1.185155575250696099e-02,2.134689181541355243e-02,-1.126308877360010091e-01,1.343169412534234684e-02,-4.552824937973391252e-03,1.787085577196070169e-02,1.135592525683453563e-02,1.241522528952055393e-01,1.718909331717079214e-02,-6.890478905894752149e-02,-5.239343196255359658e-03,-9.007676971589359538e-02,1.192900927540296863e-01,8.864776554930547947e-02,-7.454969469292101192e-02,-1.411750603980859442e-01,1.021850245607449359e-01,2.040633418211342757e-03,5.296310880790335886e-03,-3.029351042130570271e-01,1.065356476267501351e-01,1.552500851549946936e-01,3.523926493370574398e-02,-7.012043344204395290e-02,1.774407831140647762e-01,1.570357748379368548e-02,-5.987028464908090986e-02,2.054769825890680746e-01,-9.882482300359754501e-02,4.865185921111794820e-02,-1.605806185281324627e-01,1.136144470316593491e-01,-1.167134752519484175e-01,-1.064803924558747061e-01,1.985913020135430529e-01,-2.048440235780930267e-03,-1.050130965555086393e-01,-1.394534101606573762e-01,-4.186075434720094163e-02,1.537361320833383616e-01,-9.268130472150944502e-03,-1.513414894242935127e-01\n1.885487975916980696e-01,-5.503644372782987709e-02,-7.384715133932823194e-02,-3.088706149451145300e-02,7.155107417710745987e-02,1.462357516502118537e-01,-3.052818615403314895e-01,-3.752474723219730857e-01,9.117228605516346229e-02,-1.291042559256951883e-01,6.327347098685821847e-02,-1.069529834582150091e-01,-1.393037336947083593e-01,6.268716913553362691e-02,-1.152802012467558229e-02,9.504809607681870276e-02,1.576039100021037198e-01,-1.186545054398378471e-02,3.165111295283817155e-02,3.020619147682111066e-02,-5.586961334811478552e-02,5.823497004088398765e-02,1.057046784087041676e-03,6.176907056128354279e-02,-2.433479131308582122e-01,-2.997374292093264378e-02,-4.510561777348602586e-02,-4.965859492229593442e-02,2.014870627747970561e-03,1.462157753263414357e-02,-1.691079400049899650e-01,-3.280725629495594153e-02,1.562538586664717899e-01,9.233990120584231742e-02,-1.322421126909543165e-01,-8.202168867076918557e-02,-7.513475363837143761e-02,1.126963621098262675e-01,1.918921589131575289e-01,1.579969522012891203e-01,9.696186179880056377e-02,-1.100930982363253346e-01,3.502017255535770646e-02,-8.218774937871474451e-02,-1.827641348856555992e-01,-2.756127050715585086e-02,-5.145700783491511526e-02,-6.909391437794842883e-02,1.045837471701074467e-01,1.683388046107972269e-01,-4.737362899990323756e-02,-4.133312017891426632e-02,1.411605471417425595e-01,6.931905160811981104e-02,-6.904547128323129668e-02,3.451641518751941140e-02,1.144891113586740811e-01,9.280539468868395647e-02,6.236035923926525754e-02,1.689201033395729135e-01,-8.308018736403820215e-02,-1.082767853544320674e-01,1.325641299822389874e-01,2.755766127807572907e-01,-1.756898209760845986e-02,8.657834116586704543e-02,-1.271642542165725143e-01,-7.201641907482494998e-02,8.340408658280523690e-02,5.792066800219942968e-02,7.898244240544519124e-02,-2.874076483184057063e-02,2.023179489969024747e-01,1.064964794270246567e-01,-8.173571563179848898e-02,-1.630619028787380909e-01,1.106671524508232030e-01,-1.193612823804100602e-02,-1.889773080449788367e-01,-2.044983403199959054e-02,1.584366021002546754e-01,-2.455083293923277649e-02,1.406164194340409346e-01,1.278396750830015360e-01,3.436434271689218362e-02,6.272766250646218122e-02,7.708553252000455158e-02,-3.243970679125807166e-02,1.556721807488622988e-02,8.027081995273253889e-02,-1.187919805501272625e-03,-1.992011982920557089e-01,-8.157297310223081410e-02,1.227006297833742147e-02,-5.984756933809891322e-02,7.545776069516904085e-03,-6.767147272467032015e-02,-1.713813819731914781e-02,4.570497743878154662e-02,3.431377793098529250e-02,-1.451500417580096347e-01,-7.348726800808004500e-02,-1.187302144928329972e-01,1.666704562485207541e-01,1.024659914126615883e-02,1.045739779612565312e-01,3.043593750839416936e-03,1.484029787896732622e-01,1.380234335223593789e-01,4.270997263039574138e-02,-8.069333426788863339e-02,4.642823118000312561e-03,6.276245905523267221e-02,6.695418536155789413e-02,-1.706527598788802613e-01,-1.111145436738490838e-01,-1.099466194899495763e-01,-5.578787595325093024e-02,-1.147567646497849175e-01,3.684301626311918196e-03,-6.012875872825356252e-03,-6.309945155998677481e-03,-1.298300325444652348e-01,1.670337811116034132e-01,3.000987833305717722e-01,3.522013241304576547e-02,-1.201247863931102500e-01,-3.336145780608729822e-02,7.015166141601897332e-02,1.161493675351751853e-01,7.984233971484762382e-02,-1.000633241501177190e-01,9.822990706014650408e-02,1.836731500844924758e-01,-9.916812974458207031e-02,-1.699565619608638112e-01,-2.225795087457757004e-01,-8.287616728144911460e-02,2.012383793058302173e-01,7.642256560506549556e-02,-1.390801573933921412e-02,-1.028499694096106920e-01,4.265704081560732497e-02,-2.139216581935815542e-01,-1.405746206479712990e-01,-1.411534529331144039e-01,-6.044583435488306428e-02,-2.521074579471296179e-02,-7.483164968773295400e-02,-2.520470443540175076e-02,-8.693725673515231844e-02,1.462745157302715870e-01,-9.730754452263586096e-02,1.559158626860753308e-02,-8.562006972351771106e-02,-1.545762582447779143e-01,8.221096415731865559e-02,2.561391007002201438e-03,5.768457459961856201e-03,-1.193274337353778941e-01,-2.392182143408910430e-02,-2.611062105111427653e-02,2.161287092622110328e-01,8.307659124040180088e-02,2.086609919885606679e-01,-7.498070091320491182e-02,9.771425630355144720e-02,4.386510682569615127e-02,1.860983483836707864e-01,5.363610639454066686e-02,8.422633519041867328e-03,-1.523733259446672511e-02,2.603667987768971959e-02,-6.297753657098370539e-02,-1.809630997905922398e-02,5.344421372477688864e-02,1.317547999341530940e-01,3.887722119894136685e-02,1.074141442028328508e-01,8.299080206529424464e-02,-5.538311248377758567e-02,2.726877407351976923e-01,1.072338989201905568e-01,7.584493779704711003e-02,2.672687860935417381e-02,1.421529847764084475e-01,1.160506136635189034e-01,-2.026287024676980131e-01,-3.561189367681560219e-02,-1.706730612187364882e-01,-1.518738995808750596e-02,4.552424377535586181e-02,1.496807354249919675e-01,-3.214798579101322412e-02,-1.732406336705965277e-01,-5.781604965483808090e-02,9.697968952125708697e-02,-1.261368115346519873e-02,1.554151047166100162e-02,-9.916371174250640519e-02,5.523880119783771553e-03,-6.412976149693238627e-03,7.976303506650804509e-02,1.331965964163779326e-01,1.915673045177855582e-01,1.957340703120892256e-01,-1.890842057739127446e-01,-2.302052505061294441e-02,-1.175171645321211045e-01,7.828791631779835614e-02,-8.226566987966725530e-02,-2.642384776242483538e-02,2.161464478648021104e-01,-1.981019343289046608e-01,-1.609391560599463811e-01,-2.117045612531166798e-01,-5.185604898758486292e-02,-5.137097370447442357e-02,3.947854799013707228e-02,1.106768767772242090e-01,-2.105709779065882345e-02,9.907933226671172822e-02,-3.003050370618716158e-01,-1.432092425737833269e-03,-9.698796780914158144e-02,-1.594392551530914859e-01,-1.215253149836184425e-02,-1.966917059441380677e-01,-1.021070576223843118e-01,-9.470185837453845568e-02,2.012508045375457563e-02,-6.092090709894267681e-02,-3.265529426266057522e-02,-9.999166943736245705e-02,-4.216649633726005098e-02,5.920986827262756519e-02,-7.086166046048678058e-02,-2.014676442691152591e-01,-7.446500676814769848e-02,-3.385548935799727148e-03,-7.051556683097279232e-02,-1.728274812510046388e-01,9.052990409037550701e-03,-3.148288530653575168e-01,1.428720828617462968e-01,4.676041438594043254e-02,6.507800132739223475e-02,-2.300777004225542516e-02,8.199503927843373660e-03,-8.512930817772856873e-02,1.356585515101194073e-01,-1.291920289780007503e-01,-8.833000260845989826e-02,2.716777159084339966e-04,6.494527607164046409e-03,-4.130739286926330550e-02\n2.916248565159267891e-01,-4.320446850848690817e-02,-2.019656684242353284e-02,-6.661181180180751615e-02,-5.952352204858270268e-02,5.866678390888242084e-02,1.520622189390896106e-01,2.074251273406051976e-01,-1.552810102962377814e-02,-1.645271057770679168e-01,-5.794369478406232593e-02,1.093206643804311706e-01,6.138438124646337229e-02,-8.806162517907319132e-02,-1.197273905682468692e-01,-5.012550328414874107e-02,9.761279986872448133e-02,-9.883052307655561253e-02,-1.505810644214689541e-02,4.411828762563968498e-02,-9.342426903843482899e-02,-2.016158431762827830e-01,-2.580889939654560511e-02,6.355079368401307660e-02,7.365155146822366383e-02,-1.539601948661007691e-01,-8.327147345506642762e-02,1.302197379857379378e-01,-1.484649660081455158e-01,-2.097312315770946331e-02,1.029305752988314039e-02,2.226616610050152593e-03,-1.106555103729956469e-01,-1.657738845883083012e-01,3.692454415726779265e-02,5.436288643069114510e-03,4.497342788846610956e-02,-1.912046289692431178e-01,2.488863812834450975e-02,8.926346529356844750e-02,-4.340206565118655269e-02,6.664221361719216419e-02,-8.946914914841480604e-02,4.622828400548630728e-02,-7.795862712593849830e-02,-1.481330025060170578e-02,6.690259513089794052e-02,6.494003243491257293e-02,-5.037786074663068436e-02,-3.202912630445094166e-02,2.290517127253405283e-01,1.382206538284779353e-03,1.774433148892274881e-01,-7.577667160797832424e-02,-3.929730878494867158e-02,-2.263681973683560542e-02,1.607251498958091329e-01,-1.319345437402442145e-01,-3.607031778146395362e-02,1.553519791058226851e-01,-2.808639727977782843e-02,1.079513294248870270e-01,2.102559579855378946e-01,-1.963985303068440103e-01,-6.052609268826816130e-02,-2.256592340592621093e-01,-1.587619081393578102e-01,-2.530385376156519053e-02,8.035332070649196801e-02,-3.206167670947954879e-02,2.016610649979928005e-01,1.005706574359636722e-02,3.477212878719543321e-02,2.720893151945759023e-02,1.476625232700536083e-01,4.681233564586652351e-02,1.059845230865815446e-01,-8.228801036733242313e-02,-1.027621796076502864e-01,-1.027205825524988778e-02,-1.444749227971982297e-01,-4.949326016184917021e-02,7.739310606203052278e-02,1.735666938084753225e-02,-1.342910487225404126e-01,1.069775701489070752e-01,-1.008452584871166041e-01,1.821748172866087187e-02,-1.332709355797571382e-01,-5.276784046070776696e-02,5.231768120235215369e-02,1.070079802775610878e-01,-1.536798094552462302e-01,-5.959652251417292546e-02,-1.638135021558844101e-03,-5.217426509688947306e-02,9.363583879269993249e-02,-3.729184298047601154e-02,1.331395972841664666e-01,-1.405712825713212044e-01,7.140429751024052196e-02,5.893905142886378401e-02,-5.180681335831061052e-02,-5.343826390685876837e-02,-1.011389127326686593e-01,-8.753248984358848184e-02,-1.043752058279341505e-01,1.201380784743362740e-01,-1.224595444778798885e-02,1.424301667107750191e-01,5.313265011473827272e-03,-2.989175642087334162e-02,-2.737220040961493156e-02,-1.918676331074849750e-01,-1.224089732179824003e-01,1.244004855055995673e-01,1.823307365123434318e-02,3.095136069839031501e-02,1.654590859353466947e-01,-1.469282053694075628e-02,1.420818790634516791e-02,8.802886620776063584e-03,1.463633058399410880e-01,-1.411498910391658923e-01,-4.900228531463379084e-02,1.676153472669068278e-01,-3.568802401710346236e-03,-8.922967965155849390e-02,2.206158208120715669e-01,3.645705017025720890e-02,2.566388511158950239e-02,-8.374057102510339265e-04,1.211569425397971272e-01,-3.872045542365408488e-02,9.798115273776768219e-02,1.108236817981943928e-02,-1.345157109038893073e-01,-1.393981204875005264e-01,1.127549793630949065e-01,-1.624652748594526946e-03,-2.841516986875385065e-02,1.539227904948830064e-02,1.516841193551276279e-01,-7.642629353201113585e-02,-1.147936098416834361e-01,9.278594748923800484e-02,-6.314911340292322407e-03,-1.176522812812068677e-03,8.043859597618877033e-02,-1.449357032188325345e-02,9.664392416844309885e-02,8.026198149674756976e-02,-9.502519514030398351e-02,-1.580565714211180084e-01,-2.450638668200281478e-01,1.622679716846745501e-01,3.235686440641960537e-01,-4.518006443068613848e-02,-3.876483148786220162e-02,9.748683229658747229e-02,4.035316344143603101e-02,-4.398883285936065757e-02,-7.164077019790762724e-02,6.016271795201361128e-02,3.052732549494870107e-02,4.971511027183098119e-02,-1.897831366377103202e-01,1.188566717596830080e-01,4.837954717066909882e-02,-8.023754705509397733e-02,-2.997101627738901417e-02,-1.309031227812204046e-01,-2.340855480432070534e-02,-6.212498240406621325e-02,1.021223030881149296e-01,2.376831257369257933e-02,3.849130525580621992e-02,-2.325224888816696672e-02,4.123905107739882919e-02,-4.733636703191553691e-02,1.007568218954973532e-01,-6.894244209258368339e-02,-8.402866764802130461e-02,-1.502226433218805390e-01,6.124161759848289338e-02,-5.553947369713048421e-02,-1.651792636544956172e-01,-1.145765496038038261e-01,1.934461755230099111e-01,6.440061704403795564e-05,-1.910464037968451767e-01,1.690357970521124131e-01,1.436454156452858233e-01,-1.581065130451216744e-02,-9.408332798387349094e-02,-1.306130105129495456e-01,-2.570219272653684328e-02,-1.212881437223128217e-03,-1.392366071883761047e-01,-3.265626016760064029e-03,2.924007065488768570e-02,9.749302794218964174e-02,-1.477295747201943892e-02,-1.910173486278378685e-01,-4.596140288194157202e-03,-9.687429074303237353e-02,-6.345633934008111134e-03,-6.048074594952906891e-02,6.346567708834467691e-02,7.717078615283431975e-02,4.733774251899727260e-04,-1.338662082188889491e-01,1.099584819103053002e-01,-2.227633267974361009e-01,3.964050536962404440e-03,-1.309525049276152597e-01,3.832077358498107988e-02,9.473498410516659196e-02,5.355977474300480101e-02,7.262895110768655127e-02,-2.235932784405718268e-03,5.197413315728180438e-02,-2.528660331572325504e-01,-1.260837650483365435e-01,8.483969989826334324e-02,-8.520296354323312130e-03,1.418194086715330871e-01,-1.327000061479335358e-01,1.132123813132238921e-01,2.503654938039745481e-02,8.064491037107936189e-02,1.009998339586009319e-01,3.057656400613725234e-01,-4.735845283669277983e-02,-8.633673728661223068e-02,-1.018068606577624546e-01,1.899940273264345558e-01,5.173151500496140504e-02,-6.626207018921567715e-03,-2.068621755255263817e-01,6.170287627158221877e-02,7.520005048065062092e-02,2.000337646628254085e-01,6.425133569339903754e-03,-1.410744116761396272e-01,6.437028459333653252e-02,-4.632175335122321047e-02,-1.065675332068595355e-01,8.618717922837543233e-02,1.672597195446810514e-01,2.249784376639409750e-02,-5.254739993790371461e-02,-3.647970662728801383e-02,1.301693283541501857e-02,-1.403180273910358544e-01,3.708095712042144138e-02\n-9.308760348997210596e-03,-7.816499612437146543e-04,-5.407100879717179065e-02,-4.725523843428942189e-02,-1.179624219411346403e-01,4.036693526502584117e-02,-1.183909961106871245e-01,-1.735675523504585649e-01,-1.003765554245368841e-01,2.072558765965145378e-01,-8.981737413038932971e-02,4.223563902700352285e-02,5.967079886242444148e-02,-1.070740977286299550e-01,1.570245518308945086e-03,1.658063270455805982e-01,-1.993502879592476407e-02,1.773122383179652206e-01,-3.680596135806576269e-02,1.014790968811515870e-02,1.438347450149460582e-01,-2.539181598223871905e-02,-3.496412872812092454e-01,8.369331671402362172e-02,2.214930283731512961e-01,-1.110696804364668805e-01,-9.401993392571582342e-02,-1.142366669112972466e-01,5.703529517910362751e-02,6.576079235556182845e-02,3.075807855733657392e-03,-1.721693325046101675e-01,-3.679888684034352681e-02,4.554711607010657193e-02,1.916412239437636778e-01,-7.151685290663638284e-02,-1.672588400768829642e-01,9.528721560760447518e-02,2.062881126937266343e-02,-4.067844137907411506e-02,-1.041661521899775594e-01,-2.573677028529648969e-01,-2.239029870267197908e-02,-7.061897815050062954e-04,-6.120819836039456674e-02,-4.520850137362843885e-02,-1.634024026435941801e-01,-5.939615029021905190e-02,-2.263895426709661499e-02,-1.058240635389883361e-01,-1.689525899365744710e-01,-1.336198960436877914e-01,1.032347851210641265e-01,-3.201866586546101706e-02,-8.970784196545344980e-02,-1.057246774190026689e-01,3.101743031441621390e-02,4.636976945267945460e-02,-6.869531933602290863e-02,-1.071522553040590853e-01,-1.754959360593558726e-01,-7.075594627038997442e-02,-2.211103019560700308e-02,-1.881450975400750930e-02,6.795481857671162307e-02,-5.871336694247343557e-02,-2.162654144683081106e-02,2.978307183562738381e-01,-3.690216614437728110e-02,1.307108829214433630e-02,-1.139195383013128227e-01,1.187729683894285237e-01,-1.523784275958303680e-01,-1.272130738335049659e-02,-3.592574648177464941e-02,9.460257963054456709e-02,-8.517505459720133010e-02,5.740257580029669605e-03,-5.394494647539761767e-02,9.438926907916651843e-02,1.793311706866736743e-01,1.536609348720971158e-01,-1.010904220123662670e-02,9.992639454605670157e-02,-2.483711200574411151e-02,1.530313460747290411e-01,8.353830854430024933e-02,1.172956826934064972e-01,1.472780110163190992e-02,1.011112346062569972e-01,-5.531848348216710648e-02,-2.503349634017456096e-02,-7.976472098559553303e-02,8.872770332671644014e-03,-2.920116975161747841e-01,-2.638422150934165988e-01,1.769614465907373702e-01,1.695280100080200358e-01,-8.472390405373713546e-03,-6.201678957890403160e-02,8.799684803376384146e-02,6.129029627540501929e-02,2.341013636977091195e-01,2.465383019537936010e-02,1.488301768449642182e-01,1.106208167865290609e-02,5.879942900281773244e-02,-6.588344710370577784e-02,7.786075629038294310e-02,3.000771486106603922e-02,-1.144955904637937200e-01,-1.330483286992525660e-01,3.019416572129492518e-05,-1.768302209302069494e-02,3.316319866316126685e-02,8.878407343691991152e-03,-1.260958994579330639e-01,-6.162968692788019925e-02,3.716174601599261332e-03,4.297537304525936297e-03,-8.083287461875217350e-02,4.137800180262023175e-02,1.525490336900078570e-01,1.355991204502876579e-01,-2.372480989879426072e-02,-3.244795373915769499e-02,7.292629555164498178e-02,-1.580540884008667379e-01,1.546557011259439562e-01,8.237206613322747839e-02,1.506200743092523942e-01,-4.854463783233949059e-02,2.574312983983168684e-02,4.949025112522105474e-02,-5.395928828206383171e-02,7.752979858249799475e-03,1.107809826624031602e-01,1.953039059809604516e-01,-3.615158127314529318e-02,-4.559647919504723063e-02,1.212354304360267615e-01,4.813083432914617293e-02,-9.612154029442921549e-03,3.377790801180692408e-03,1.020286779738386468e-01,-2.425050235198484283e-01,-2.433592627149949172e-01,-9.985008259077444992e-02,-3.089526184326884042e-02,-8.979200103061887872e-02,-7.734300471991087389e-02,1.276009847915848539e-01,1.698207953197451714e-01,-1.332051613083183594e-01,6.093834596723869679e-02,-4.582964526144109318e-02,1.739217142921543335e-01,-1.306578980415586677e-01,-3.573637259007491490e-02,-1.173146555879055059e-01,-1.181612650071468297e-02,1.164779523496562580e-01,1.181280387950968958e-01,-1.965792583727471107e-02,-2.116018220074091308e-02,4.133747062751014917e-02,-1.348422157838358726e-01,-6.769158286895450571e-02,-1.446561720856544102e-02,-1.756300836349646843e-01,-4.458636742091885014e-02,-5.971950502398457039e-02,-8.766694410638495305e-02,2.422256904681891268e-03,-1.485928454652653274e-01,5.711894625234721114e-03,-6.247761074004632570e-02,-6.507293188596026401e-02,1.826488889861551876e-02,-1.081981642857005599e-01,2.127135435049776202e-02,2.284102710656758101e-02,9.210227993666385282e-02,1.422688339821811532e-01,3.679270927514494138e-02,2.061876643375135376e-01,4.009264322134697273e-02,-1.691261494853046332e-01,-1.457741096950864734e-01,-1.609834939483892335e-02,-1.375483136170670695e-01,-1.066192546694030852e-01,1.391516367781110708e-02,-1.066252276901411833e-01,4.803793786377067582e-02,-2.619563587499352045e-02,-2.845650723773783877e-02,-2.064009388294390235e-01,3.958872327725353191e-02,1.757523354037562602e-01,1.430267806710137646e-01,3.470902689472422920e-02,-2.474575958665123018e-02,3.682084512326305042e-02,-5.621889237946538220e-02,5.457847508733695840e-02,-1.104261753708080801e-01,-1.693390895743755453e-01,-3.735101085806739191e-02,3.490434133197772154e-02,3.510333843099455731e-02,-1.045599724287639698e-01,3.499200291731260903e-02,1.227539052078764348e-01,-8.336807552055182369e-02,-1.064965967597399782e-01,-1.283816992950616853e-01,-5.733015044197499466e-02,1.304328307472704396e-01,-1.326794827226911444e-01,1.627860434696317693e-01,-8.526238086330716059e-02,-3.531752346071531656e-02,1.033238518321687449e-01,9.734766612936435193e-02,6.264001825570442161e-02,1.666936709558291818e-01,-3.164386298489978849e-02,1.441608944717189811e-01,5.712498232032953149e-02,9.659184021745624571e-02,2.320548970938669450e-02,3.045503717350596037e-02,1.988859763126230376e-02,7.188911680317914936e-03,-2.028097506134429739e-01,1.263157311048172284e-02,-6.816539468287197145e-03,4.244914521942916644e-03,2.127660084771500204e-01,-3.314508870104117960e-02,-1.830495914084180886e-01,-6.568495699399648502e-02,-1.691402041867218764e-01,2.447642785384629167e-03,-3.236693021933598896e-02,-1.908738505233270599e-01,-1.774784540998098625e-01,8.492466104123259918e-02,7.869166275587799464e-02,1.127151008999287447e-02,-1.014182750995401144e-01,-3.449750084116055392e-03,-1.155984088345892585e-01,-2.332063328934077737e-02,2.588808855004192111e-01\n-3.286214475423945153e-02,5.702444315693166316e-02,1.182547254628135425e-01,3.765940533789242928e-02,-4.391705058190092936e-02,5.158893755860734232e-02,-1.653033282021593511e-02,-1.117147099574851378e-03,-1.454954135159177431e-01,6.154005404942671648e-02,-9.915654599893261589e-02,1.202691617920128853e-01,-1.770739782854973132e-01,-1.770086687969282813e-03,7.995432373867858433e-02,1.155384627445420614e-01,5.233005980899853998e-02,7.807075648947127411e-02,-2.208715327625775382e-01,9.905947638996633053e-02,9.941107315110805920e-02,7.496320037576627293e-02,1.439013037832466146e-01,-1.550997874356953819e-02,-4.954136393059551530e-02,-6.821134322168102837e-02,2.173051066134901524e-02,9.028961993189441038e-02,-1.761953918563415739e-02,8.190097949680652523e-02,3.719770231169206021e-02,1.355328992665116306e-01,-6.495767197093484102e-02,5.962193618281533790e-03,-3.382310810842313609e-02,-2.705018494154280417e-01,1.431349195162046894e-01,7.779331214634475911e-02,3.112849963656795158e-02,1.100854176410405588e-01,2.008430212889318958e-02,-5.384177000495247480e-03,5.319105735043836575e-02,-6.923612058495555444e-02,7.591887901270739751e-03,2.785569323624648239e-03,-1.167462010138512959e-02,1.555917889755851179e-02,-9.741648855690031306e-02,8.147703988659454888e-02,-8.135460032103331018e-02,7.408757004729921158e-02,-4.216301253698436641e-02,-8.145285596905997225e-03,-7.751937477828205192e-02,7.890594442813690657e-02,1.660015021798034313e-02,-8.322480031423840074e-02,-6.136243614559784565e-02,-4.026399915739364843e-02,3.916210729645017846e-02,-1.883332425212609412e-03,1.141107309823568283e-01,-9.578834257952159592e-02,8.049715810936455829e-02,1.191720908779931587e-01,1.568516027091657050e-01,-1.451534378145417359e-01,-2.568481298908242838e-02,5.346403650152088682e-02,-1.294677908024625124e-01,5.191379265503862084e-02,1.513296215117120730e-02,-1.554351476478299243e-01,-6.885683817631912951e-02,-1.815603625074628524e-01,-1.094317892000522437e-02,-3.464028070508844148e-02,9.096487403001511651e-02,-1.198603561826446645e-01,1.123170120282413892e-01,-1.203531896446718985e-01,-1.912860369645534922e-02,-4.153013106280085964e-02,2.089559134730248624e-01,7.460138817217309981e-02,7.717731137488176296e-02,9.902311643398703511e-02,-4.010463510790939629e-02,-5.853017808517539666e-02,4.526750835508859538e-02,-5.583744534531621256e-02,-1.215671062792647722e-01,-1.195733704511078715e-01,-9.821072969955192689e-02,-9.456824541706113085e-02,1.022193647624680957e-01,-8.565545172488235603e-02,-2.464059158922352610e-01,3.058041759552740380e-02,-4.883816524620804983e-02,8.256012786102080725e-02,4.017324958696436542e-03,8.694067761475207656e-02,5.942252550493236363e-03,-1.084883397204083610e-01,-1.402338552277666850e-01,-4.545450475540835367e-02,1.089660564925342967e-01,3.657195895784832312e-02,-1.184800383345636643e-01,-2.113750301801215203e-01,7.783413612787210001e-02,1.139711186096511869e-01,-1.125696465315282890e-01,5.090671695769042812e-03,2.241732163145641610e-01,5.736269273208532840e-04,-3.336737703198738164e-02,6.690156983715241264e-03,1.027716022207837351e-02,-2.102600378207569731e-01,1.666286190272611156e-01,-1.967410473976149710e-01,1.380848391273249154e-01,7.073390261594669770e-02,2.388278224329232202e-02,2.158869130049859697e-01,-2.210293439141862715e-01,-7.867258898146152479e-02,-2.807849926574055091e-02,-1.595095083441430694e-01,-4.767875796739875355e-02,-6.962223216375205970e-02,-7.310834759799000881e-02,-2.145969172404689762e-01,-8.560518055850156738e-02,-1.402794021699615701e-01,7.239588485006021382e-03,1.152354609973486599e-01,1.127433835790015576e-02,-1.164522513076781118e-01,-2.638471826147259156e-02,-1.589664923328276691e-01,1.976500417616718769e-02,7.351937511078303344e-02,-4.102535563532863638e-02,1.191144172406457258e-01,1.175936574929935599e-02,-7.466236803577443182e-02,-1.997259573081042530e-02,-1.862354140361652949e-02,1.518261062129976358e-01,2.054499979466593018e-01,-4.190546086544732346e-02,4.729737448489757662e-02,-1.359452735037155469e-01,-6.273010781592021357e-02,8.297635958818906643e-02,-5.299376171037285810e-02,-1.902709439739325159e-01,-1.076512230223959921e-01,-9.029903252852143625e-02,8.529081817237986474e-02,-3.205525408932007048e-02,-6.209308448837184968e-02,1.168638721747737169e-01,-1.355551758134845020e-01,-1.224813332195412163e-01,3.316160220381275583e-03,-1.036484821851203636e-01,4.823596704326357787e-02,-1.073652696998373818e-01,-3.317394098420517468e-02,-7.843904002236042061e-02,1.657946437784750884e-02,-2.223233390395535081e-01,-5.128107662106887871e-02,5.980293931943009983e-02,1.163742331827874177e-01,-3.638577768223792697e-02,1.060596721560718436e-01,1.487069999719761448e-01,-5.731026901080756714e-02,-2.892401770641973152e-02,-5.863916923318680807e-02,8.458273850981486153e-02,1.514370887037532198e-01,-7.869607650059530501e-02,-2.691901976096700011e-01,-4.674841072816986708e-03,-2.653259094501519977e-01,8.916314161545656203e-02,1.388419150967513081e-02,5.410507374502072746e-03,1.400773444885314023e-01,6.304107338740361222e-02,-1.554168110519821566e-01,-7.361992750293533394e-02,6.320160078686456670e-03,7.341856891137328589e-02,-2.038028363806547449e-01,-3.444301514899327649e-02,-2.480190958877118990e-01,2.059377943801188882e-01,-1.512873685215649910e-01,2.470495965248145978e-02,-5.769479155479246418e-02,-1.551482087347281179e-02,6.872297429349066844e-02,-2.292561389442422659e-01,-3.460564859137701954e-01,1.735098820339654041e-02,-9.994197379852533258e-02,-1.005627670841136440e-01,8.014247267516545759e-02,-3.315326180054153360e-01,1.683288141512611150e-02,-3.307301870230761921e-03,1.286232788379310099e-01,7.996858307224767592e-02,8.739910424030892036e-03,-8.218415900407805355e-03,1.504220526419895732e-01,8.233563050598968758e-02,1.215731501787988347e-02,-3.400628950429628733e-02,-1.503363778266818274e-01,-1.362294452251362198e-01,8.503158959480353052e-02,6.688447651563509018e-03,-1.673453478398255478e-01,-3.366079587445803406e-02,-7.722944009277925292e-02,3.282419745260849522e-03,9.029537451138493209e-02,-8.014505230033037997e-02,-6.930919136617755272e-02,-4.836678920847001933e-02,1.640927365341608019e-02,-1.012829695945509922e-01,-2.334635563150926768e-02,-5.919662324906475870e-03,-2.901949796447786042e-02,2.365505888191820616e-01,-1.091727052828712352e-01,-5.549048792693218185e-02,-9.711974001301984516e-02,1.893652175207445887e-01,-6.551282762058376063e-02,-2.449682793750075291e-02,2.091747674590151984e-01,-8.835331772925159033e-02,-6.261125330054522972e-03,-1.071712930770701983e-01,1.879105091277614437e-01\n-5.000139841668263530e-02,-1.573811415712270470e-02,4.018976370653629115e-02,-9.066655408975320130e-02,4.471077496888030411e-02,1.181964126882253802e-01,-1.694472042383240451e-01,4.984569629484807834e-02,-1.551572975843591370e-02,-2.900322973121208237e-02,3.242268958886419805e-02,1.871114896117538574e-03,-5.203479783516419543e-02,1.018738496015352546e-01,-8.322147322989198459e-02,-7.311191059026453734e-03,9.571956999328407045e-02,5.983291125405408584e-02,1.725798842717034612e-02,-3.960600015772441224e-02,-5.752520250047355593e-02,5.401764714492360286e-02,1.106354810239676412e-02,-2.914810693587140122e-02,-3.382472571377945908e-02,4.035300451766781621e-02,1.862538802745706823e-01,-6.222681033095774777e-02,-2.789085160810893527e-01,5.921760040250962503e-02,7.385102127798804685e-03,-1.340070505546830659e-01,-2.257224170726656112e-02,-4.879333560477999709e-02,8.863741347710898943e-02,2.033066243156422120e-02,-7.544040430194419444e-02,-9.112170006995519433e-02,1.839720528595669216e-02,3.527716290859880116e-02,-2.865579701170638538e-01,1.134369747219611813e-01,1.149711643183011153e-02,-1.115545645345225462e-01,7.705727241457806242e-02,1.140845350327700063e-02,2.043591505711069289e-01,-8.930412054938426103e-02,1.195709251863751460e-01,-6.486029228811959757e-03,2.200389326645721400e-02,1.130441736429902977e-01,-5.585299544811477696e-02,-1.515310578812389952e-01,1.239080688967366950e-01,-1.237131442850017693e-01,1.005172116853916657e-02,2.701814216552649861e-01,-1.030941533324942205e-01,-8.455570916574814411e-02,-3.132990963142776031e-02,-2.362315826198795043e-02,-2.896204347373100285e-01,1.061004822354948834e-01,5.161992183664708411e-02,1.436250474066907701e-01,1.936751983644420250e-01,-1.469153917815464380e-02,-1.192064777588685703e-01,-7.324902607391865772e-02,5.192103312352167044e-02,5.406481105265248388e-02,1.243013523992801961e-01,-1.435310615764900377e-01,1.022995341101683303e-01,9.405733141862782087e-02,-6.359581409351632020e-02,-3.467976142244934279e-02,-1.363659643367297856e-02,1.674223841103252841e-01,-9.447898595548123724e-02,3.346891260738869139e-02,-1.806256676473435296e-01,6.605246917607009161e-02,1.092440123558008347e-01,-7.082737273836273162e-02,-3.217472019056036303e-02,-6.120610753442155133e-02,-7.342329322323813690e-02,-9.878254247925166709e-02,1.534387351977675208e-03,2.115995501419467295e-01,-3.993764545322925352e-02,-1.071307323881259543e-01,-4.171853518240830477e-02,4.703759912007682981e-02,1.254352210821892410e-01,1.711680130408244627e-01,1.619289275472504119e-01,-1.848614313809873039e-02,1.053479486609786436e-01,3.503650258156387753e-02,-8.640421074144902236e-02,-2.082885661364214033e-02,2.756094770623350454e-03,5.905023231464494315e-02,2.232272298665656518e-02,-3.722844382623052145e-02,-9.112519878364763737e-02,-1.199561167899299424e-01,-1.300309016168466336e-01,3.498652084931623552e-02,7.731207770795487690e-03,1.171093424995449939e-01,1.463558626025188714e-01,4.563403468032776328e-02,1.025006295107504656e-01,6.661116383515609807e-02,-9.651225125157696094e-02,1.604409209796915647e-02,9.895294101209843596e-02,1.098293434779001009e-02,9.999825174220715318e-02,-6.292912595825855826e-02,1.155666849178324691e-02,2.497973945081243818e-01,2.494879784825309449e-02,6.505290225788041419e-03,1.282284725502013945e-01,-3.518469733478738620e-02,-1.643525590103921685e-01,1.189403027179714994e-01,-3.166115064297429782e-02,-6.283844412219477538e-02,2.046727335025059352e-02,-1.402454135242074684e-02,-4.337941353426487401e-02,5.999677135132330114e-02,9.050241368805554687e-02,-2.832348356390022581e-01,4.361622262341947887e-02,-1.861396243581828897e-02,1.522579277834684719e-01,-1.094799294944943518e-01,-2.447230136939846853e-02,-7.385628777588477967e-02,-4.482719072454280362e-02,-3.602443313264128838e-02,4.127824547058300819e-02,-6.612874095643730965e-02,4.935405790816044073e-03,6.513912524994738829e-03,-9.656956233127225731e-02,2.899186334671602708e-02,-2.999049605223493703e-02,-1.110976117549026948e-01,5.716312436084670240e-02,-2.104534347147924978e-01,-1.228975257831731449e-01,1.108550415230940694e-01,-1.341825785428407414e-01,-8.251705213238407638e-03,-1.065389941916480565e-01,6.785428489874496816e-02,9.206037793532229063e-02,-6.546889737681359234e-02,3.690369468021256066e-02,4.739693057092380507e-02,2.452132673937984231e-01,-1.695988747627003856e-01,1.726261204197691024e-01,7.988747919002645026e-02,-6.402750808819883399e-02,2.106549503389927025e-01,-1.913589097706767661e-01,3.759285451282511764e-02,-1.298707849973854134e-01,2.635170084565997134e-02,1.291082004865558852e-01,-9.475459510000679153e-02,3.302674893363761327e-02,-2.079959686688949427e-01,9.404588857299488527e-03,-1.790936280954943602e-02,-7.826017592332583372e-02,-1.705761302311318284e-01,3.864761579705888045e-02,1.282330510459016304e-01,4.290637032076025092e-02,1.268052084220609999e-01,7.007153740155189214e-02,-4.280037635593680195e-02,-5.375948918394043291e-02,1.340816224299987425e-01,-1.163595946540794956e-01,-5.543057087402265826e-02,-4.564614574421481386e-02,-5.978214224662699305e-02,-4.868593994510125172e-02,1.120545088739222095e-02,1.083501859469558348e-01,1.150288743242542933e-01,-2.392719236523881826e-03,1.428425423370572982e-02,-1.514717844249084955e-01,-1.481198455411412550e-03,1.835823943330657237e-01,-1.103628557230272589e-02,-5.286587561022244863e-03,-1.828143064666888640e-01,-9.386847150858254607e-02,-1.458404619597036544e-01,4.338479267933552201e-03,-1.389864203003067511e-01,8.489804153034627432e-02,-3.632919751716648382e-02,-1.293103427828325991e-01,-2.381295222167766068e-02,-2.108418450919645748e-01,-5.028973033843996132e-02,6.200525922258950939e-02,1.293846645440170362e-01,-6.603654571946339369e-02,9.240824868785049717e-02,4.802971669331660559e-02,-1.030173427536816982e-01,-8.201333471532323838e-02,1.132024263889097188e-01,-1.702908147645460779e-01,-5.090174463960857321e-02,4.078368129730406549e-02,-1.642576193602608148e-01,-8.129588169505388984e-03,-2.393405342808829078e-02,-1.009381562320601916e-01,-3.519800459959866734e-02,-5.699670006227880448e-02,1.603050492343629368e-02,-4.997457479089491977e-02,-1.838063614770609616e-02,-1.202251010567280259e-01,1.859459994412305042e-02,6.957476692375841321e-02,6.521284446644824706e-02,1.117719950755586555e-01,5.062148093689605721e-02,-1.024290941559927587e-01,4.862337555163293717e-02,-8.510740333000147134e-04,1.836570267723948782e-02,1.514819860734182289e-01,1.390564977192417992e-02,2.769052931060278153e-02,3.005624781197389905e-03,-1.692681243940885039e-01,7.113956334219463662e-02\n6.704943292018153422e-02,-1.690394846930291795e-01,2.068808316321905580e-02,-1.105048475706803673e-01,-1.285532984539033974e-01,1.306832815666563070e-02,-2.946143028074432180e-01,-7.322244926689808198e-02,-4.278779264147048594e-02,1.949279040729377799e-01,-4.404651862401061380e-02,-1.576145826188319332e-01,-6.836571854333747464e-03,1.054518827243479950e-01,1.639480558461773319e-01,2.569564245541228198e-01,-1.103815974242346454e-01,9.461472615691281229e-02,-9.759894042885708387e-02,-1.506079846044552084e-01,1.896779115042869848e-02,1.110656152184187201e-01,-9.439501181535875363e-02,1.234405332088948926e-01,1.476714941334331815e-02,-1.774600579535977329e-01,1.024336150778846904e-01,-3.730274453809537955e-02,-1.222119084966468011e-01,-1.767966100770793358e-01,6.862300599846347070e-03,1.652075581865907958e-02,-5.159771918939200230e-02,9.345706032506824468e-02,-8.985801903429690984e-02,-1.765666676927970385e-02,6.040546525862266342e-02,2.108365239103846545e-01,-4.239974837481406966e-02,2.247466193342650964e-01,1.259310706492615395e-01,-1.345827844273941309e-01,3.862700307505625985e-02,1.538624535423697703e-01,1.125686056082276371e-02,2.506218551134735406e-02,9.377903188760106090e-02,-9.470977943526578957e-02,9.611363546707321626e-02,-8.632085765589264659e-02,-7.928145811282470701e-02,1.557073623204057247e-02,2.514228884945546652e-02,1.075657888432123982e-01,1.416490169332433879e-01,1.346995415826715004e-01,-4.538631074512168573e-02,-2.631549177366604084e-02,-1.060318345623554037e-01,-2.145686931182828883e-02,-1.779308461616597170e-01,1.008234742557683333e-01,2.759624225201481873e-02,-4.566835769261449324e-02,-4.426516242660646049e-03,4.955377763028295801e-02,-9.765920069262613856e-03,-7.213758729331790076e-02,-2.521299219212231463e-02,-2.173352386144850601e-01,-5.035334474145586325e-02,-1.457378914359335753e-01,1.679922380899821210e-01,-1.366575176551863002e-01,2.864429515248110777e-02,-4.725374748245807915e-02,-5.934343011822225400e-02,7.187422815528135556e-02,-1.058949129623161928e-01,-4.359790493803013256e-02,-3.217578986614101633e-03,6.779805123060397842e-02,-1.016016153188732951e-01,7.639011597541572884e-02,-5.195105391901450043e-02,-5.205636260124885811e-02,-1.753963311122661295e-01,-5.192957363161253975e-02,1.297135771551315153e-01,1.623983335619476054e-01,2.388888141726495662e-01,2.169319733984494680e-01,-3.776976655650116262e-03,-5.098476198812082472e-03,-3.177656940149493209e-02,-6.068329552804024862e-02,6.487310869286017079e-02,-1.512427991539837813e-01,-1.557190427765807739e-01,-8.717253742603646438e-02,2.034237156330819252e-01,-1.166179859309127154e-01,1.050236597462536892e-01,2.965270345725263823e-01,2.007895258014066597e-01,-1.492166781890974341e-02,-2.284929412882668598e-01,7.554923439090147075e-02,3.158450895309840301e-02,-6.741029075768666112e-02,8.023658370912913063e-02,-4.826322132571572721e-02,-7.066704849872972038e-02,-2.168460864276064715e-01,-4.743330065844466453e-02,-1.347535210663935445e-01,3.451723193654792580e-03,1.751747652671186706e-01,1.399706734207913639e-01,-2.149709565174769965e-01,-1.277583689981332538e-01,3.726436295078271177e-02,-4.505749142886102121e-02,-1.124384451727085676e-01,-2.253991132910124640e-03,1.383846646821351445e-01,-9.036436028555094868e-02,-4.097494064289509833e-04,7.965024340710845363e-02,-1.289583806908603802e-01,-1.121473939976976864e-01,-1.887976653627966295e-01,-9.427802025561940469e-02,-8.794099086951173705e-02,-2.352020694788019839e-01,1.830738412469224419e-01,-6.780094553730536822e-02,1.748870843038654033e-01,-2.998140786633465837e-02,-2.590266768587050072e-01,1.294897272631582996e-01,7.090966512473512173e-02,1.131850452125013895e-01,1.685753300372115071e-01,3.665822026653856730e-02,2.926678633412585148e-02,-1.020925547012432738e-01,9.065431422384050142e-02,5.332625501908646454e-02,-9.633499781803792072e-02,8.384066966736715767e-03,1.282698386158208359e-01,-4.837174572053859478e-02,-1.663675446779500078e-01,-3.976464849059083151e-02,-3.490125729183183624e-03,7.677592245288115957e-02,-2.193077929677917509e-02,5.295944932246988285e-02,8.216045859294325571e-02,-9.767695422431199592e-02,7.696493840751153503e-02,1.583560336567606600e-02,-1.005434437972418521e-01,-6.108457470337325113e-02,9.950363058217455425e-03,1.424939868503190959e-02,-2.410702127580496758e-03,2.622560057082115592e-02,4.839232475945576262e-02,2.931821924550600741e-02,5.129661889806901715e-02,2.139750013305080079e-01,-9.602848253898399467e-02,-6.843213379749320258e-02,-9.375117583555377110e-02,1.041626416132380023e-01,2.348267620207997522e-02,8.787088370046224062e-02,1.863458910823409531e-01,-1.856364219168436802e-01,8.034369706157069857e-02,7.414534281079596112e-02,-6.599508978565631068e-02,2.199952234009595609e-01,1.223616628313775878e-01,2.918661145139009663e-02,1.166456329734549546e-01,2.387601087218076470e-02,-6.904010336738135301e-02,-3.196376859801076248e-02,-1.555532463037410940e-01,1.325577815536697901e-01,-1.663692603118742674e-01,-4.382636491847606564e-02,5.728011637506288944e-02,-1.792129953657186150e-02,7.252303548704100260e-03,-1.418525879204297069e-01,-1.095488919279465900e-01,-1.011316148093396455e-01,2.131345639660656502e-02,-4.242152693534903020e-03,-1.539177548827620479e-01,-2.498772569444651925e-01,-1.226406485587007711e-01,1.308824970876706073e-01,-5.174430292688322885e-02,-6.280485747069863844e-02,-1.575955822866848266e-01,-1.437206495187214050e-01,5.713036278196423345e-02,9.231514214360929393e-02,1.506957816880231948e-01,6.546436047720378959e-02,-6.940964713183335466e-02,-1.639931553401798303e-01,1.107908853613469823e-02,-1.840105328637686721e-01,4.599136568352229365e-02,-3.874579355579013673e-02,-2.964177325166777316e-02,9.099414954371606856e-02,-1.038976218506361265e-01,7.815385628262856710e-02,3.687605273865773164e-02,1.281756093093270633e-02,-1.773382817553146099e-02,5.489417799079435167e-02,-1.564247336054064574e-01,-1.239927217514290303e-01,-2.011035566318693790e-01,-1.469908085746468758e-02,-5.890507566631622560e-02,1.569131890160226639e-01,-1.899130416990582049e-01,3.704439103410343825e-02,-4.627272146601271730e-02,1.969306419286860621e-02,2.447489227346713037e-01,1.090843026354942902e-02,3.939580924356563679e-02,-2.583719847058521882e-02,-2.424243358174981572e-02,1.559764135121302908e-01,8.530582360477026449e-02,-3.393401585388078345e-01,1.188850785252324044e-01,2.629463638905944409e-02,7.127957253282059258e-02,-8.909627259615596206e-02,4.201003600370663282e-02,-3.558372958486360343e-03,9.511856647812447219e-02,4.539861919425700054e-02,-3.352870353394577646e-02\n-1.533732121878115806e-01,-4.637686198491444006e-02,2.055010462672521299e-01,-1.112275194379278298e-01,-3.896423795977826954e-02,9.784770251281649234e-02,-3.446576374750782989e-02,3.137523465119057553e-01,-9.318147263648653145e-02,-1.146410453808955621e-01,-1.474216066499922477e-02,8.883728752892318392e-02,1.495605786464968556e-01,7.061719212674852364e-02,1.198751635217809412e-02,-1.212868196366629070e-01,6.596648725398540809e-03,4.649766387283782443e-02,-3.863696282730316386e-03,-1.793870101755347668e-01,5.097995926127166927e-02,1.269272432570262565e-01,9.018736945249619663e-02,-3.110940137644695527e-03,4.604614339135960910e-02,-2.136110399715855090e-01,8.818166878867736425e-02,3.289019967658990927e-03,9.570865236791029074e-02,2.171023936450164060e-01,7.319217235267430795e-03,1.079070110747772093e-01,2.961117454613336475e-02,-1.412860347637205083e-01,5.499208262269045938e-02,6.897815853838885902e-02,5.674005737997004500e-02,-7.560499067490343561e-02,-1.865147204344104193e-01,-5.209334060108373327e-02,-2.647547204828402251e-02,-9.236407701884938315e-02,1.251807003233568194e-01,5.087484551331463573e-02,3.801431065524176200e-01,1.866934455005295548e-02,2.695206377306707743e-02,-2.834057178620911534e-03,-1.498343487157698661e-01,-7.785320770277601166e-02,6.784575309542796931e-03,1.009754828012347783e-01,-1.318510421923906883e-01,-2.039385393092270696e-02,-5.422811080151470134e-03,1.112256897683994855e-01,-9.379308868193540760e-02,3.806600252300795101e-02,6.473761472946253093e-02,3.655876807028220470e-03,-4.457328259018876471e-02,-1.673802865799390097e-02,3.227347439881414915e-03,1.185859530790234068e-01,5.613740919353563813e-02,1.374143912916972118e-02,1.738767843095942733e-01,-2.349917797731957206e-02,3.168659833514863352e-03,-1.106432881011208957e-01,-4.006320221482940341e-02,1.741269911144402915e-03,-1.476177092054674067e-01,-2.040404485029259640e-02,1.079115166569770690e-01,2.749451985266063853e-02,-2.386501351052899567e-01,3.479676609153786737e-02,1.785041707947297718e-01,1.435453394645478872e-02,-1.148049930242588529e-01,1.094797442232800511e-01,-2.573882701434746997e-02,-1.615983058045364351e-01,1.911736680418885947e-01,-3.758944716516222917e-02,-1.335521691543548883e-01,-2.270383088214167344e-01,1.694825449654762672e-01,3.992420967302309082e-02,9.932650179238286525e-02,2.803855491486962736e-03,9.776934254666240498e-02,-6.736021694110466695e-02,9.029035568696866521e-02,-1.149363576369435459e-02,9.354656127482484027e-03,-2.501072478369091856e-01,-9.974179990235426674e-02,-1.117458584733364707e-01,-2.567753320362018039e-03,1.263649699130979000e-02,-7.394998843189244664e-02,-5.979868695642042570e-02,-1.030832123168924502e-01,-7.825776263856440429e-02,-1.157433610533310786e-01,2.377645545046708914e-02,2.220660996708143098e-02,9.800939803685787891e-03,5.710023130970413169e-02,1.699444662639656989e-01,1.266050534000663919e-01,-1.945478663917424578e-01,7.497222469089948049e-02,1.483329240154657447e-01,-8.481780201940458674e-03,7.174397477295996195e-02,-5.835978886230958756e-02,-2.493436492925937137e-02,9.830723495072778151e-02,7.714128772708690740e-02,3.637355283898463520e-02,-1.711426159440861683e-01,-1.044620169852703978e-01,-1.712364874252572666e-02,4.331186636204732709e-02,-1.561799336292458984e-01,-8.202990618182381954e-02,-9.772345587809665168e-02,4.669180785699430375e-02,1.551459455904009577e-01,-7.041223625003706355e-02,2.163249181080350789e-02,-6.347114251213650804e-02,1.661956977529694401e-01,1.935792417071380001e-01,-7.412408792518240808e-02,-9.397978001321416475e-02,-1.346085138410824111e-01,1.911942075088771120e-02,7.223878217194518170e-02,-9.600900191571965642e-03,1.188414572856396900e-01,7.699188724941453954e-02,-7.753455769085709770e-02,5.447218180247187513e-02,-2.003240231629380141e-01,-8.512875875095986256e-02,9.249949798997471329e-02,1.650807030097925787e-01,-5.749693220569252611e-02,-8.891480317053829241e-02,-3.066411356074134897e-02,-7.237827637639114575e-02,-1.301997638959459525e-01,6.942180346583655404e-02,1.961535197891138005e-01,3.404181101757293437e-02,-1.033285118437442945e-02,6.288064560301008521e-02,-2.308129548874643389e-02,7.829912020205272161e-02,3.226983373544077827e-01,1.005329652824165920e-01,1.160061581226944777e-02,-9.381193014179420309e-02,-6.420973440355397244e-02,1.199424044275459456e-01,-5.299740764925015696e-02,2.444986734255810007e-02,1.634356569645297186e-01,-7.260097185487376925e-02,-9.087401014270538036e-02,-8.831492492672778083e-02,8.819249071250599703e-02,1.226327766813214981e-01,-1.122975201613603778e-02,-7.799114896528056007e-02,-7.541897939094589776e-02,1.615374739014295014e-01,6.131205535564720338e-02,1.044487382096167399e-01,1.851897804862111530e-01,-1.254506592673270970e-01,3.016957220233721371e-01,1.416997013677729900e-01,3.472002306647832826e-01,4.072807239930545387e-02,6.663908947523154713e-02,6.768920668231631632e-02,-1.152350718944668423e-01,-3.234694300594057048e-02,-1.524998340948947317e-01,1.688480589731427076e-02,1.580211444072022464e-01,4.037779409974741676e-03,-4.168718681414930460e-02,-2.225015196554772645e-01,-4.406359904004752449e-03,-4.428721002532434031e-02,5.701438407834995975e-02,-1.016004363256567955e-01,-1.241577232382991627e-02,1.194438474913021159e-01,-8.155678128444585062e-02,4.680031892599160678e-03,-8.734605983861361278e-02,5.286993811321323566e-02,-1.530329525243303290e-01,1.530364055684722002e-01,1.924968164395817749e-01,1.379289001465932619e-02,4.990961655993322865e-02,1.521850088377604548e-01,3.090323475837218961e-02,1.004431332419685463e-01,-1.888543136788480847e-01,4.106052132967522028e-02,-1.333576165907622013e-01,-2.560310519918730307e-02,5.755078695702239150e-02,-3.730564914030065626e-02,1.212506449437210782e-01,-5.606509071718988879e-02,-4.255135898529052545e-03,7.645705423162386938e-02,-1.081478810829226110e-02,2.938982157043903976e-02,7.998899515773548463e-02,-4.040722557769642342e-02,-2.544652173771149717e-01,6.655666938178318726e-02,2.350319749672678121e-02,4.838697690446273902e-02,-1.082951216103594794e-01,1.319204461983686065e-02,-2.304374015240875651e-01,2.720229176936169932e-03,1.654685967935391189e-01,-9.000258426114501886e-02,1.432939894847732043e-01,1.041258540115205244e-01,-2.445154598018447339e-02,-1.258992340694455037e-01,-2.886574783160850491e-02,5.539407549865980190e-02,9.551842651482483904e-02,7.498831729505939236e-02,-6.936973169529643546e-02,8.058019754495072962e-02,-8.261585214553071599e-02,1.844846497175019473e-01,-5.321639180006794596e-03,1.507153413567328404e-01,-1.138121842872070934e-03\n-1.994718353901463181e-01,8.834710203925091876e-02,-1.139899897599304934e-01,2.534012608667983446e-02,-2.561697565204844318e-02,3.375467675725028066e-02,6.512660664743692707e-02,4.111734835430837925e-02,2.667626538456234209e-01,1.854699502049501347e-01,-4.702215818084872628e-02,6.325092213302153932e-02,1.843949485415638800e-01,-1.384616399992497950e-02,-1.574880899872880061e-02,2.686246892942822234e-02,1.313618015569727182e-01,-1.413433925321876637e-02,-3.148427549417379123e-02,-2.531390839618759617e-02,-3.174422955543780567e-02,-5.125496545669253057e-03,-4.963659356861240685e-02,-9.128018048593468381e-02,-8.033028427074956346e-02,-9.309982879912231946e-02,-3.840898282019872961e-02,-1.437180924687228578e-01,2.060271963192160105e-01,-2.682595801601138710e-02,2.453921560985414252e-02,-2.056581015960617653e-01,3.786733281787347388e-02,-1.531346692716330964e-04,-4.957978260541807958e-02,-5.363620339114767710e-02,4.064712712540016065e-02,5.756271612202647908e-02,-1.483940323345017132e-01,-1.313645333666179360e-01,4.176990887486035225e-02,1.974777505289387197e-02,-7.482092036156871850e-02,-1.946312745109236297e-01,5.460930760486016472e-02,-2.818954619646847279e-02,1.308488011091973602e-01,-2.405216254986369470e-02,-5.894158680078092488e-02,4.779817092480126428e-02,1.435363027972124950e-01,-1.382637573501170614e-01,2.701348043139610230e-02,8.282100540845052650e-02,6.466755538806309711e-03,-9.840939423386909236e-04,-6.960003457390433190e-02,-7.267000483895733054e-02,2.840782182462062849e-02,-1.901229611836924597e-03,3.240078525812529336e-02,2.156203873458776843e-01,-1.395015766392869450e-01,-7.736687275009208886e-02,8.702939099756725264e-03,-3.281563541108308696e-02,-6.574280364155631051e-02,-1.179680621637806959e-01,-7.775464428310223386e-02,8.936943259487159508e-02,-4.551851829799034160e-02,-7.523977153611209612e-02,-1.713098941591146424e-02,1.740799649126151608e-02,2.377073271423817968e-01,-2.772500413725371635e-02,-8.690580955344376357e-02,-7.030341797685862870e-02,-1.090850203246088584e-01,-1.224646841468661762e-01,-2.536247667180812487e-02,-1.186950087930379316e-01,-2.889692073374019662e-02,1.003117281908807182e-04,-3.102023737030542780e-02,-3.331321677808589399e-02,-3.420045112240324703e-02,-4.834851224938941511e-02,1.124095772863227399e-01,-2.102173185682720824e-01,-1.185120926421930065e-01,-7.234939686505387213e-02,-2.561540595973680334e-01,3.336431151945773443e-02,-7.752960431219792226e-02,9.549766338318073366e-02,-1.939906284836192540e-01,-2.152965930335083451e-03,-4.838365688785416924e-02,-1.152710962114085746e-01,-1.897998653346665010e-01,2.884918658887089191e-03,1.540324210774774161e-01,-3.377265962977768488e-02,-3.986407919357050356e-02,7.646954855876546275e-02,-2.205974809194610198e-01,3.473348125857166069e-02,3.305044894309266956e-02,-1.335494419567982982e-01,-9.239564470359357129e-02,-1.819585251047334817e-01,3.000313946258361883e-02,2.487751184746313238e-02,-7.066842144761063815e-02,3.075345859078693067e-02,-5.841029785432295951e-02,-2.817315832341979985e-03,1.004203743936523396e-01,9.053276958812350728e-02,-3.068219489391622867e-02,1.940463376594522282e-01,-8.589910721393707871e-02,1.253928665506162110e-01,5.212407114572598782e-02,5.424637577450425185e-02,-3.041003904993924700e-02,-1.212037638456457331e-02,1.895138714047529468e-02,-1.063117774872462951e-01,-1.042267749731784904e-01,-5.795332026353563690e-03,1.035469805496090356e-01,-9.841787308757717068e-02,1.706815629666399159e-01,-2.201995460603941024e-01,-1.008046619769355640e-01,6.374203952552837116e-02,-1.712069562885411289e-01,-7.948931801654450513e-02,-8.170938933012025784e-02,1.395632482991426664e-02,-1.199229393341352673e-01,-1.760783422498904405e-01,1.985426639083451572e-01,-1.143771956726109401e-01,4.757620185608939928e-02,9.867730319755332880e-02,-5.870008875999885301e-02,1.467980698085238345e-01,-5.355312189873052270e-02,1.594580022098201488e-01,3.778679816172014760e-02,4.740540031803181301e-03,9.476805198480532655e-02,5.663754317298929503e-02,5.999942687891601095e-02,-1.694853646926229238e-02,-1.053952608675820246e-01,-1.477254094174546284e-01,1.198364739433496794e-03,1.127523683453780790e-02,-1.690093234973698635e-02,1.503418837270598940e-01,1.528328451666046139e-01,-9.991620320140086331e-02,1.337421198716884641e-01,9.244885584772132014e-02,-1.167167829843174798e-01,-7.798728773823128402e-02,-4.182094259419564392e-02,-1.194691520912480320e-02,-8.837550473229215109e-02,-2.882498993624240530e-02,-1.174571109337144287e-01,1.666300856408961528e-01,-9.545870541259507402e-02,6.658793916838301463e-02,3.122326586045942598e-02,-1.200419222529653523e-02,-5.583378315236255454e-03,4.267185056335275062e-02,2.243641054159179193e-01,-1.724064448960624107e-01,3.584197917543612694e-02,-3.192095952661155173e-02,8.539095912798623164e-03,-1.651957825183275053e-01,1.058408420024561404e-02,2.852591796678932354e-02,-2.546061353225455015e-01,4.861381162015539215e-02,-5.754280551959926188e-02,-4.353651905408616879e-02,-6.239259043745952471e-02,-8.203879120689641299e-03,-5.661411928229854833e-03,1.677897341892043565e-02,-2.892069386740627607e-02,-1.191165492426364721e-02,1.140664541894791245e-01,2.581430185969585400e-02,9.110067344098589370e-03,-1.216961477585172119e-01,-1.721914323555806259e-01,8.089761149891741554e-02,5.832430014272819291e-02,-1.976878709530920444e-02,8.632617231178460471e-02,-1.383787376109679723e-01,1.779476447375612780e-01,2.484065147437986842e-01,-7.584928169588363300e-02,3.375374266807661811e-02,-9.410136022454025119e-04,-1.925763905513099700e-02,-4.088094817561837256e-03,1.550620789554844337e-01,3.973604779083270144e-02,1.395982482869612129e-01,-1.816781083132860269e-02,1.122456713631274638e-01,1.303192696738721817e-02,-3.256631990629784562e-02,-7.370629535541622923e-02,1.718425838318224652e-01,2.726233406435877860e-01,-5.663075323380230286e-02,-1.160182203612637047e-01,-1.329297075604260296e-02,-1.723800409881893758e-01,-1.411514567710279167e-01,-3.094303539861585281e-02,5.687854027049077388e-02,4.987660512934796037e-02,-1.305293623110468336e-02,1.243417943759210498e-01,1.730284901062537767e-02,-5.017103229884822130e-02,1.769385152421367943e-02,-2.002278985728803973e-01,6.851236560694208555e-02,1.389473969248803398e-01,4.826809957961781389e-02,-6.265283006603671045e-02,-1.830835715690587173e-01,5.355346865133785855e-02,-2.788257859298222678e-04,3.308300556997353925e-02,-1.354481736918049795e-01,7.950582572225220468e-02,-6.833310575333643999e-02,1.499437443350828125e-01,5.542060811416488209e-02,-2.227574687030280942e-01,-4.808021635326345522e-02\n-2.526792690066005653e-02,7.035308151423801115e-02,-9.712369789818298127e-02,-9.488553409796892865e-03,-1.288490417465513738e-01,4.528316111165576856e-03,-1.019158744793835919e-01,-8.584056396854178317e-02,6.904540411691821589e-02,6.631582492022720932e-02,1.107575482568025765e-01,-9.776308390942425874e-02,-1.755760709763642957e-01,-1.536554279341986462e-01,1.794444792674657063e-02,-1.305420529624312376e-01,8.155316350963145999e-02,-1.942921687956870522e-02,9.623800084751994721e-02,6.074103262143302345e-02,1.310607733869769143e-01,4.477532565231018280e-02,1.614794292426669289e-02,5.065079761080766574e-02,1.669925871074517676e-01,1.909232523024867803e-02,6.990912856123111807e-02,-4.887906758995472223e-02,-8.358501528574814599e-02,-1.549375116652055295e-01,1.239408100580897121e-01,-1.508205239428536161e-02,-1.380456228300971089e-01,-6.980803087793457928e-02,3.986600153970230875e-02,-5.047584084827697742e-02,-4.532824240250244580e-02,8.323567755087067643e-02,-1.577672191127494489e-02,1.150045990893021203e-01,-1.959346410606102595e-01,-3.219531995162008223e-03,-1.250581367928828291e-01,1.448680385131682347e-01,1.865662602952704030e-01,-1.125409033953664456e-01,-6.581987642958603280e-02,-1.423759673319609231e-01,-1.907676739422889955e-01,6.005905508203939619e-02,-3.198595678105745077e-02,1.467090943764920719e-01,7.243248141222054237e-02,-3.658842590843511267e-02,-9.162629722421027079e-02,-2.515851971309565616e-01,-1.160804092461225207e-01,-9.073345565577579930e-02,5.586099705829415500e-03,1.086131732143848921e-02,1.873649427124955968e-01,-7.428281368674052865e-02,2.632032507263581608e-02,-3.206511222946183126e-02,-8.842300802500549506e-02,5.700849730750182781e-02,6.754737353878240147e-02,1.398490791022358355e-02,-5.915470732974560664e-02,-1.377303297896081691e-01,3.567493792214261605e-02,-1.577379034342080988e-01,-4.153161576310025749e-02,6.231268105608171043e-02,-2.294346121705466424e-02,-1.294714444337970172e-01,1.047024401340333200e-01,4.926128559398090800e-02,-1.415213280967452317e-02,1.523961978286589867e-03,1.850495847833658752e-02,3.723143092486999595e-02,-3.809595401894631111e-02,-2.347867139830287497e-01,2.909723113173040901e-02,-5.541852485243782545e-02,5.251580804603059316e-02,-1.302654790868152945e-01,-4.729084779199138611e-02,-4.585331126470588992e-02,-1.834855767141602145e-01,-1.965328237874871403e-02,1.044707933147177303e-01,-9.471237434273363119e-04,-2.576353495733221116e-02,5.587795618267755310e-02,2.072657050450088176e-02,1.086266977144666745e-01,-2.789230600483307791e-03,-2.695177187374572236e-01,3.281599803261521509e-02,-6.605914426139952722e-02,1.698584844784291059e-01,-4.022658318249813791e-03,6.289420972585399450e-02,-2.081218022218286196e-02,-3.231884157548089997e-02,-4.274444110737810748e-02,2.598273192815028776e-02,-2.370049597009446507e-01,4.556608846921936413e-03,5.610295173305732130e-03,-2.241701712074355840e-02,3.720246797977026093e-02,1.353320163003139398e-01,-2.567765859663447281e-01,-2.606466635282631353e-02,-8.557387781976114050e-02,2.284310854577232819e-01,1.807910094733188588e-01,1.408543309172662419e-02,7.577674945472152868e-02,2.738752142714073051e-02,-1.408437257198563164e-01,1.025949112166847782e-01,1.023367475235135160e-01,1.035544897448309604e-01,-4.678108937646033305e-02,1.188052760540425495e-01,2.403511160663552304e-01,-1.431793774004512798e-01,2.610329206821929583e-03,-8.362259056084560271e-02,-1.391996569367685010e-01,-1.500261950228485297e-01,5.601053426454834228e-02,-1.005862808675536541e-01,2.790779923216901159e-01,-4.974903194582553506e-02,9.325728088476396838e-02,8.668769319455009101e-03,-1.067147184649317043e-01,-2.217388203536187763e-01,8.487492527294260292e-02,1.467572529059323755e-02,-1.472296299042221979e-01,-1.317726220890368671e-01,4.124924625448327109e-02,-2.157497066869021665e-02,3.541593253782013978e-02,1.479273594805954328e-01,-1.834463751827015709e-01,9.466822340899339050e-02,-1.089161655063904388e-01,2.670177518433701214e-01,-1.084957134144256125e-01,8.812513311109833325e-02,1.285488875761572336e-01,-3.957510774918982649e-02,9.275836657621407133e-02,-8.734230776086950032e-02,-7.404403260898646810e-02,-7.845443547431794895e-02,-3.378840318830613615e-02,1.253018258642597631e-02,-5.947411910843481558e-02,-4.858742181660126447e-02,-2.028370873315763628e-02,6.872068470957438946e-02,-1.195339134394733799e-01,-5.279683833807229110e-02,6.688380890925192668e-02,-3.808162469442135257e-03,7.284922552611144964e-02,9.776427228246885315e-02,8.019070285139159870e-02,-1.347747652300384236e-01,-1.249963479325755522e-01,-9.071191729919948765e-02,-4.698250011234345741e-02,-2.382103964110023758e-02,-4.976471665381280995e-03,8.405033782351650773e-02,-1.173317480480050162e-01,7.916798850372987195e-02,-8.378474172818988625e-03,-6.987543581481062138e-02,1.315230225463654978e-01,4.400995613737635793e-03,-2.072807594306906864e-01,-3.365746162526584567e-02,2.409377371958764183e-02,1.049283102653615022e-03,-1.596400657002562951e-01,9.171848488183240167e-02,-1.852305939871196419e-02,2.203793532072951394e-02,1.137384540225511685e-02,-8.312431246847027527e-03,1.439478643833396188e-01,5.147020517624956333e-03,1.265738021136642577e-01,-7.245250540413623874e-02,-1.340132116511477678e-01,3.399651780859692940e-02,-1.242959047512026127e-01,1.436291616074596416e-03,9.284872834249692508e-02,-2.929066082660801776e-02,1.307684399546032161e-01,1.577104483436629623e-01,1.839428590397566010e-01,2.148632257467959078e-02,-1.130355560305046532e-02,4.921823848822320935e-02,4.755264488650996768e-02,-1.352388675347446223e-01,5.061323963800522241e-02,9.007051807092832096e-02,8.415163370028309886e-03,5.406375417234195874e-02,2.193767734702379013e-01,5.493263357834364535e-02,-1.381947182538202090e-01,4.916654419570045537e-02,7.657040719262075967e-02,-3.907706785356825953e-03,-3.312582299073345976e-02,1.596394846008854784e-01,3.257759952857316316e-02,-4.607938247614209309e-03,3.941467715412200201e-02,-4.025090547739297586e-02,-1.549189752580120392e-02,-9.016409541549187667e-02,-4.277148486684118761e-02,-1.838686326692278994e-01,3.456383602932748544e-02,8.473214802672969503e-02,-5.621633417863153293e-02,-2.523108747704486121e-01,1.596187329891904372e-02,5.432256498169938524e-02,-4.867878049238504728e-03,-1.283949727402410868e-01,6.962124365332854337e-02,-1.390526865345161345e-01,-1.002820748955098040e-01,-3.142556066561399269e-02,1.725921762867231590e-01,9.536902888700621306e-02,-6.707605268400625154e-02,3.112983406168760500e-02,5.422331504375244721e-02,-1.447281405969565726e-01,1.019915497828191020e-01\n-1.042860737194927362e-01,-1.618929841901930733e-01,8.921881055863707666e-02,-5.262928965466169302e-04,1.457532339214902550e-01,-1.053612983583592927e-01,6.312290297663998573e-02,3.735137363859362264e-02,8.304598335964157030e-02,-1.642683981999449594e-01,-8.782959834465385585e-02,3.312430562548417945e-01,-1.297399372817147900e-01,-7.187964953161311843e-02,-1.603559551495569169e-01,-5.622424066405517368e-02,1.011510303229272781e-02,-8.269898092402484802e-02,-1.539017821965248285e-02,-7.697128716865468678e-02,1.900867429697295219e-01,-1.438735364457228716e-01,-2.538234778853452195e-02,-6.228316268358572577e-02,-2.278828557831711829e-02,-4.591670023253578009e-02,-7.958276383623232031e-02,6.983977566367721712e-02,-1.603919560466815220e-01,4.017692570596066715e-02,-4.898894971981360841e-02,1.178227040295720118e-01,3.216262869482067188e-01,-5.017429669903732820e-02,-1.500030247455528265e-01,2.354604221673207709e-01,-1.723658546776540151e-02,1.076878589797343744e-01,-2.145321810228252302e-01,-1.223966016688447928e-01,-1.343089426487963783e-02,-7.996178715292215355e-02,7.286616835892083255e-02,-1.755167024758950978e-01,1.464661326916260609e-01,-1.224430560779637966e-01,8.489811426502981428e-02,1.009618917240207997e-01,-1.074134567119099971e-03,-8.432664649022533765e-02,-4.490738816116841142e-02,-8.988277636197203324e-02,7.045258278805655028e-02,1.734630904499766257e-02,-9.548355096871348480e-02,3.731506547116464345e-02,-4.981352886573102781e-03,1.714434588201235177e-01,-5.487137537161031892e-02,5.070088374659536407e-03,7.103800368892447537e-02,1.238610654714257381e-01,1.113007134174980317e-01,-6.473765021177584067e-02,5.750600163539612564e-02,3.689414513911863387e-03,-3.413188159416596229e-02,-2.629777459376533288e-01,-1.710471129428617620e-01,-6.891213568997328620e-02,1.035456051568860864e-01,-2.901423730631676190e-02,4.959126191855073827e-03,-4.718968697571565563e-02,5.992216590996115450e-02,-1.171246707774179635e-01,1.844088520259705155e-01,-7.411195431895366281e-02,