{"weights": "2.561126798573799324e+00,-1.274953940144666120e+00,-1.131562654090256803e+00,-2.066173413006940240e+00,1.259152776585976685e+00\n-4.173811825368169970e+00,2.767789502174129446e+00,-1.531339468446337504e+00,3.218457953143555872e-01,-6.532728900607542855e-01\n2.282805000494793290e+00,-3.759688381096268017e+00,-7.785862969971912850e-01,-8.843261558961401647e-01,1.719533244211680634e+00\n-2.112359790377221991e+00,-5.212769445387429590e-01,-1.731457657227706282e+00,-1.530540510932957843e-01,7.743594038408621039e-01\n-2.113608535479507111e+00,1.738325525943175132e+00,1.321225648621212168e+00,6.365672139160255538e-01,1.319965132588875711e+00\n-9.080316146876952210e-01,5.409741979656060989e-02,-1.340414362802395232e+00,-1.946495204993022032e-01,1.174754468210593039e+00\n-9.216406626415368786e-01,-4.157209694917128884e-01,-9.139413134912863779e-01,-1.185050226626659819e+00,-8.866189410128333392e-01\n2.431918552119750609e-01,-1.651851709703792803e+00,6.670634235109083043e-01,3.112344615055994357e+00,1.537910979814682166e+00\n-6.417977268648296374e-02,-1.257828349830242276e+00,-1.016847890760752549e+00,3.168360551242174861e+00,3.520800444351021019e-01\n-8.278614978931839730e-01,5.924378713618855263e-01,3.867951149109679410e+00,4.710535171207419491e-01,1.323743469416823748e+00\n2.211418895680267171e-01,-8.980989515509832932e-01,-2.253821321827080393e+00,-8.931117176048591899e-01,-6.521693110259870751e-01\n7.125579570344678926e-01,1.145487351979963764e+00,1.303518909123797087e+00,1.961244482086518526e-01,1.224671966488109165e+00\n-1.587992665284057470e+00,1.855515536065342141e+00,5.861353929867088031e-01,-8.051914325951996521e-01,5.442566408999257588e-01\n-4.234516571359970283e-01,1.647527819856503761e+00,2.313471711317729440e+00,3.455594905383458482e+00,-2.689526284397917966e+00\n-2.771215079211414967e+00,-1.159228804746264219e+00,-1.925971852587758312e-02,1.209279890198297069e+00,2.476717906057694096e-01\n-3.752435525630908320e+00,-8.086053808408243393e-01,1.137102519290011715e+00,1.114266670052803110e-01,1.023940779633426335e+00\n-6.647145201099889933e-01,-6.277105943417328193e-01,3.674427752397845665e-02,4.201466234613839834e-01,5.688163386872614746e-02\n-7.914391113757546226e-02,-1.433841395516329609e+00,3.644129986968480117e-01,-7.431879208308621310e-02,1.654348154938154902e+00\n1.773463628689982752e+00,3.433401523042579895e-02,-9.271152162598715885e-01,-1.379061569932330533e+00,4.432078764728334952e-01\n-1.506272528269410049e-01,-8.731941881567729657e-01,-2.085144586177629378e-01,-1.346930600519717469e+00,9.141831768891173216e-01\n-8.112292215722942679e-01,2.056498786599074702e+00,6.480280553190018722e-01,9.741261927102424778e-01,-1.922515385800995125e+00\n2.464086677377403944e-01,1.226269992155198274e+00,-1.680264456778818305e+00,-5.008741210234528562e-01,1.178041428159407045e-02\n-2.399782866639810663e+00,4.964921792216968610e-01,1.407436264723149311e+00,-1.518688643227698254e+00,5.571986303886909964e-01\n-2.295420986076354808e+00,-1.105535219095854366e-01,-2.816062802229387874e+00,1.879645678118820662e+00,6.573071331025008845e-01\n-8.640146047956739905e-02,-1.373976988399867150e+00,2.140985177429111097e+00,3.330434856728027970e+00,-3.231578430582248807e+00\n2.291858805551080014e+00,2.963462706426701843e+00,7.510591409824436404e-01,-1.886177329165270367e+00,1.652280277358404881e+00\n-1.391798744919815756e-01,-8.648460397847871350e-01,-1.938998414293154893e+00,1.115651725200772715e+00,1.531270045014871295e+00\n-8.984875917456461858e-01,1.064252712086535935e+00,-1.791949491108939085e+00,1.546802661627399544e+00,2.510800016182470062e-01\n-1.488716616081284250e-01,-3.354436100314182011e-03,1.661785706740710911e+00,1.458540122016409590e+00,1.079501961130078458e+00\n4.074221888912444856e-01,3.046966189514354606e-01,1.232037450859538863e+00,5.700422201628422281e-01,1.342124431380477434e+00\n-5.234962034608049430e-01,-4.168500804701599449e+00,1.790641766575334470e+00,3.760326464433485949e+00,7.656860026543566011e-01\n-1.633026610482617436e-01,-2.255580977598754255e-01,-1.957242243427262940e-01,3.838201256918784277e-02,-1.916331486621889457e+00\n-8.785708769551764385e-01,-1.701905189412507236e+00,4.353361154469693739e-01,-5.003784852739643352e-01,8.580614852348787958e-01\n-2.911912337877189949e-01,1.700595046778726083e+00,3.748378026218832648e-01,3.766708345184269113e+00,-3.244732191040020641e+00\n-1.101283707961770997e+00,1.555035968044999661e+00,4.345912978716744313e+00,-4.180225160512303639e-01,8.343089575541784431e-02\n-2.669112771110835891e-01,2.405479018920556378e+00,-3.715471469683689909e-01,1.288010129248821523e+00,-4.272908496247040389e-01\n-2.061766262694418650e+00,6.592335427509359302e-01,9.845600583311389098e-01,2.339892520702650636e+00,-6.813857345984181135e-02\n-9.377622330191549560e-01,1.086764454716008022e+00,5.343253425319945960e-01,6.028226601884663083e-01,-4.090739170422039682e-03\n2.111921475189007857e+00,7.552083876458318690e-01,3.388818696559968480e+00,2.027377363784440334e+00,1.251949791619525243e+00\n-2.670569831393816873e+00,1.154627370438413347e+00,8.423388464772075812e-01,1.512540731311483588e+00,1.913098576767065850e+00\n"}