{"weights": "2.865426956613450926e+00,-1.075621148314182207e+00,-9.283062207465543336e-01,-1.888490901714386494e+00,1.527826785628938033e+00\n-4.053801002482592786e+00,3.077744608888752342e+00,-1.339022199873294072e+00,5.648721050895574303e-01,-4.369289280036294798e-01\n2.579489389187301196e+00,-3.628345824028811339e+00,-5.656713082002279291e-01,-6.743045458489755895e-01,2.000804726674061840e+00\n-1.935941085223702451e+00,-3.013211537179881216e-01,-1.544616258595288727e+00,7.697748889320112087e-02,1.029767924757081232e+00\n-1.937223999962506049e+00,2.020111224985635889e+00,1.591598168809881253e+00,8.882053023920128965e-01,1.590303161050994341e+00\n-1.204509425918775412e+00,-2.160534818666656753e-01,-1.648723540825537848e+00,-4.716069293644830629e-01,9.352683066317866167e-01\n-1.218490860695944589e+00,-6.987275961198633478e-01,-1.210580832872098833e+00,-1.489108147888428491e+00,-1.182510833408427109e+00\n-2.178482145384163376e-02,-1.968682803783960544e+00,4.136852206952748578e-01,2.925877080654233353e+00,1.308361935085394112e+00\n-3.375671144100639842e-01,-1.563877711948089111e+00,-1.316303261297245619e+00,2.983425790962694446e+00,9.008289484718232099e-02\n-1.122145599819940109e+00,3.370176761601313964e-01,3.702159412005213923e+00,2.123118600334215900e-01,1.088334120636266888e+00\n5.288379418076202265e-01,-6.210288874612577281e-01,-2.013848132441341310e+00,-6.159051869369615018e-01,-3.683698300138968373e-01\n1.033700715385919455e+00,1.478476435118857513e+00,1.640832238143138611e+00,5.031359437072294716e-01,1.559827792455249940e+00\n-1.329800286787311547e+00,2.207933247925613518e+00,9.038188280127572583e-01,-5.255791233781973437e-01,8.607941401112537694e-01\n-1.333937338831027719e-01,1.994254326483785755e+00,2.678420560249821225e+00,3.851795876398708351e+00,-2.461475368155116250e+00\n-2.545399428132245401e+00,-8.893040837281440680e-01,2.818581813356048071e-01,1.544014540017568216e+00,5.560937852921928881e-01\n-3.562261878093719858e+00,-5.378791803433436991e-01,1.461069474505562571e+00,4.073278696646313035e-01,1.344811269843073198e+00\n-3.900510081477057689e-01,-3.520345373127880539e-01,3.306019325470795356e-01,7.244953857349655246e-01,3.512903109901341359e-01\n2.115426745657965346e-01,-1.180223640380091865e+00,6.672367117863102770e-01,2.164998242195600442e-01,1.992468595378677376e+00\n2.114843447231772977e+00,3.281257178135054131e-01,-6.596318216731739126e-01,-1.123944864590242565e+00,7.481876679543486564e-01\n1.381033213594616837e-01,-6.042353427939566313e-01,7.863213756011172562e-02,-1.090934689690914894e+00,1.232050350102547043e+00\n-7.887528392013691825e-01,2.157445325498168032e+00,7.104343566383850561e-01,1.045455575929892245e+00,-1.930447326327554336e+00\n2.978253856243618380e-01,1.304498831443819951e+00,-1.681567641626571463e+00,-4.699054362968054788e-01,5.677695712993899996e-02\n-2.420774362961186643e+00,5.547519771477600337e-01,1.490622389265272352e+00,-1.515570600070397900e+00,6.171195498408624802e-01\n-2.313556809516640111e+00,-6.890442452827021114e-02,-2.848445041191721927e+00,1.975752953647950116e+00,7.199673394937832205e-01\n-4.409148590366008397e-02,-1.366899174241483994e+00,2.244243532614117242e+00,3.466240337111424541e+00,-3.275330498309335425e+00\n2.178781465725741384e+00,2.868762584760269796e+00,5.958206232096666666e-01,-2.113579022115236850e+00,1.521702035398493580e+00\n-3.187781623310694812e-01,-1.064300861233566042e+00,-2.167845460082124642e+00,9.703896197903162379e-01,1.397380578334064705e+00\n-1.098862953022706757e+00,9.175841662490364925e-01,-2.016772810802966553e+00,1.413338216724608687e+00,8.216046485937214539e-02\n-3.287351475587093064e-01,-1.792361080746041613e-01,1.531467563552160405e+00,1.322660533390411564e+00,9.332506832329160451e-01\n2.427806714815849143e-01,1.372442033221244195e-01,1.089960028963067540e+00,4.098505038752488505e-01,1.203059339303445885e+00\n-5.473802952685775658e-01,-4.292123812051605647e+00,1.830079847658078629e+00,3.853661381656802831e+00,7.770780350881120180e-01\n-1.773307122646650413e-01,-2.412896556720232066e-01,-2.106394326184323207e-01,2.987269529930378087e-02,-1.978327980434373634e+00\n-9.121709408247695716e-01,-1.758034297943759761e+00,4.376887245866133425e-01,-5.236300028070716150e-01,8.719812045890190655e-01\n-3.087187229886353412e-01,1.737569163295380914e+00,3.755349855622664434e-01,3.860217890956688436e+00,-3.343077951906678891e+00\n-1.140977903025167217e+00,1.588027125348045798e+00,4.455271404901052001e+00,-4.390205124074710863e-01,7.615425916688742247e-02\n-3.994881165160576453e-01,2.346027275143999891e+00,-5.069871564727319591e-01,1.197980883548112940e+00,-5.642561840763536951e-01\n-2.243456041423784519e+00,5.519989703863592556e-01,8.862274538406471613e-01,2.278646121796122248e+00,-1.952763596754669706e-01\n-1.088695687614685603e+00,9.912284874795803669e-01,4.236728846514529190e-01,4.940445067129975998e-01,-1.294759729934721326e-01\n2.044437063620784478e+00,6.505999921990741619e-01,3.356274252989348117e+00,1.957579556511821472e+00,1.160933820423866392e+00\n-2.868918411513842859e+00,1.060948348352983572e+00,7.401146174239785491e-01,1.428655356800423437e+00,1.840173738520937796e+00\n"}