{"weights": "-3.505445608525225021e-01,-4.822315371947979434e-01,-4.283834986890074359e-01,-9.975706368092064624e-03,-5.904690270151627396e-02,1.088994744154180017e-02,-2.677259262277779661e-01,-5.513186083675006843e-01,1.190520933958057054e-01,-6.544695438581528135e-01,7.444693963665723058e-02,-6.429887595773052522e-02,-1.783509725245860378e-01,-1.047200196315980353e-01,-2.425793050654062810e+00,2.407158152989673283e+00,-2.729520766415801436e+00,-1.774116949698223700e-01,-8.013280797872908146e-01,2.843880229455345021e-01,4.933326131215038379e-01,1.905201935641804623e+00,1.765660718426481424e+00,-2.734485078861891849e-01,1.973896353998416675e-01,-4.224023068743167353e-01,-7.285054443118672562e-01,-1.889532319803686189e-01,1.150929882431784845e+00,-4.779744975345417424e-01,-2.780063079370386769e-01,2.098713213680009348e-01,-4.326531487504123863e-01,-3.430940879644251984e-01,1.821625054925902321e+00,1.222031602386087545e+00,-5.519679040093905531e-02,1.977196746020475793e+00,-3.009812870766871984e-01,-3.995569802754075361e-01,-1.314186565033965692e-01,-8.979751352837526124e-01,2.960917111185654704e+00,-1.557119146498420759e-01,1.520921483325355927e-01,-1.072137708119132032e-01,-3.613857515651557883e-01,-3.322172135248434022e-01,3.992454177670885090e-02,-5.718707078959596180e-01,-4.742251527180664228e-01,-1.723654752701735127e-01,1.012234588034209404e+00,-7.236977859512584432e-01,-2.659342659292009525e+00,-2.686435996861851194e-01,3.288169518164156535e-02,2.842946457187201847e+00,-4.358599275371864423e-01,-4.811926594499924548e-01,-6.346809326132638387e-04,6.499137939250420049e-01,3.113177786755251031e+00,-6.169264676382372192e-01,-4.471875371205350724e+00,-5.748213032697340186e-01,1.454529183355607103e+00,9.924252843084220219e-03,1.248610877981370937e+00,1.046850829388824844e-01,-4.161397844033067339e-01,-5.928569362053860425e-01,-8.528294404163092590e-01,-3.150485925519455055e-01,1.342995272334733259e-01,-7.559365275703878728e-01,-4.235152181831497442e-01,3.863778843522411410e+00,-4.072684950535339077e+00,1.547754814395669032e-01,-5.353989648726728001e-01,4.495743700168615409e-02,-7.766840185382025696e-01,1.369662162879240752e-01,-1.576821873656478745e+00,-4.651739341188366184e-01,-2.318540144863628916e-01,1.031938075746762808e-02,-1.205667466363902068e-01,-1.505765615043562489e-01,2.848877538767959905e-01,1.275031435746394048e-01,2.531751522681952582e-01,9.855335522640821244e-01,-5.532058508233777400e-02,-4.747379237353257508e-01,-4.562139840287555703e-01,1.694949845385345322e+00,-4.167501553829927041e-01,-9.740431158855656912e-01\n-5.881413146859745117e-02,-1.642517765386797973e-02,1.700649870246601081e-01,-9.401340426987579713e-02,-3.343696293154204136e-01,2.085712091661140466e-01,-2.976389632327023360e-01,6.028043437452057507e-01,4.329445820058613337e-01,-3.802357329124452234e-01,4.470938399337556213e-01,9.540824537359943180e-02,-4.608459826322783282e-01,-5.169918956436640040e-02,2.446918588674962258e+00,-1.929606445783004665e+00,1.188000365020513538e+00,-3.073089047377964622e+00,4.027207041192233383e-01,-1.559652381196102444e-01,-4.181143119131577990e+00,-1.358995649628366831e+00,7.916305733107663334e-02,-2.176319489813009489e-01,-2.456785762772318582e-01,3.598039994711582645e-01,5.744016101502875671e-01,-1.678474373776453199e-01,2.135817816788802559e-01,2.962423411972938125e-01,-5.256044229688048297e+00,5.219718860775521829e-01,1.411560335336262129e-01,4.318504629402834805e-02,1.578910755262285415e+00,-3.050022810591346278e-01,-1.249389783932183112e-01,9.488606358801352503e-01,5.178674866730528237e-01,4.148590387942147073e-01,3.940960264849713290e-02,1.070707792891019139e+00,1.894041974815749541e+00,9.186607465998458677e-01,-3.062210259093038900e-01,-8.538198611456937481e-02,-1.347549411117728857e-01,1.812636639731399768e-01,-8.024330539958854369e-02,5.122264764947900145e-02,-2.390300416900609515e-01,-1.183477245158210678e-01,3.004675334894208460e-01,3.182441907172555567e-02,9.429263755641654754e-01,4.632271713729175788e-01,-5.824173933344090059e-01,-3.556310020616430201e+00,-1.894709627835385879e-01,-9.960514802331766893e-01,3.695056793771492876e-01,1.846184829570695074e-01,-2.757962463110162910e-01,5.654328292114945143e-01,2.646721384464887916e-01,4.953622117037680406e-01,-9.697304898926323302e-01,-1.658611064543336067e-02,1.585524928144141033e+00,1.136183772583743368e+00,-3.308017164333657001e-01,-2.844981753845495231e-01,1.733137678017089844e-01,1.569546349995614432e-01,1.227431893891326176e-01,4.647741136900908065e-01,-2.065391521126355712e-01,-1.872344251476956434e-01,1.471316920790125993e+00,-4.813010166993224592e-01,1.167350492960868014e-01,1.928466277446134469e-01,1.698396870501520800e-02,-2.917665335096223944e-01,1.789206455486220149e+00,-2.134478462471505467e-01,3.462172210704624331e-01,2.783059973921339289e-02,5.673178725720601223e-01,-1.006320996637493304e+00,2.770485350563283711e-01,-1.019211894666244955e+00,-4.098488483898154455e-01,6.925301075761306491e-01,-7.932966636670474303e-01,2.558709914574289757e-01,-3.431847218636248087e-01,-3.251596111863202854e+00,-2.923440250997769163e-01,-9.442669819761619066e-02\n-7.627074457566510590e-01,-2.010119016820288707e-01,1.003696132009983776e-02,1.623457423925548371e-01,1.866899158729887487e-01,-2.424005367320839266e+00,-6.833490692128423305e-01,-6.081835047987753373e-03,3.134747684376423815e-02,-3.690804171120857236e-01,1.181601597426033434e+00,3.992950672549264168e-02,-8.498795812307258224e-01,2.618903927623413008e-02,-3.656278417470369746e+00,4.237017820378767397e+00,3.971897812493712987e+00,3.075608077527001605e+00,-4.523249133044832115e-01,2.683203730605344256e-02,-2.190682710387766186e+00,-4.281985311928817595e+00,-2.157271544928109464e+00,-1.361622086211185523e-01,-1.524604249549655677e+00,-1.846162126326410802e-01,-8.881512212936010231e-01,-1.574567722637681688e-01,-4.607241403634135257e-01,-3.250893073165475600e-01,2.107488888430683716e+00,-4.057729387256718279e-01,-1.893384289674939769e-01,-2.866867166538776823e-01,6.626117693478843496e-01,-1.319022866454272469e-01,2.344457610342317588e-01,-1.348805532306909472e+00,-8.085870363104269432e-02,-5.582935803693624965e-01,-1.110445223354322941e+00,1.062573842085384745e+00,2.567667179199955463e+00,-1.752019858573806710e-01,-5.966602960392846100e-01,-3.979864825910235937e-01,-3.804528272845127956e-01,-4.991399499771008164e-01,-6.153759154073624726e-01,-3.878956276809011339e-01,1.660568549278688688e-01,5.463871713616669235e-02,-2.781622282431985838e-01,-4.473036002556973756e-01,1.220267764924931830e+00,-5.985539470504385173e-01,-5.093860403766502509e-01,4.021301121281566360e+00,-4.738005255085256384e-01,-4.851675635323375313e-01,-1.805289296686331535e-01,2.455793039190295346e+00,-2.773572628388734529e+00,-6.217853350993688410e-01,1.564276183767030926e+00,-1.890517862871941568e-01,2.838163128548662151e+00,3.896733105415317033e-01,-1.300073803683322149e+00,-1.770734624136230950e+00,-8.778632693774368612e-02,-4.826296811153136801e-01,-3.261989269429552141e-01,-2.822982227768449093e-01,-3.915811786979022990e+00,-1.765194867747597041e-01,-1.198021905599773035e-01,3.930025714460112951e+00,1.644205181582782060e+00,-1.997942880753628969e-01,1.455262477679378497e-01,-3.236125713973012630e-01,-1.793548008053010012e-01,2.919666755090603513e-02,-3.074102329208739715e+00,-2.241497420391138085e-01,2.299195068102656905e-02,9.990343500459086812e-02,-2.003964785917314306e-01,2.097647107351416351e-02,-4.639957411347808147e-01,1.437607176682882848e+00,-2.808955542107363090e-01,1.289069212144171583e+00,-1.661219539184397576e-01,-6.768113892583871305e-01,-1.061131053251507667e-01,1.145641841925537419e+00,-4.378550643379615637e-01,-5.751257717022687510e-01\n-1.849287341590905298e-01,-1.124173030281139907e+00,-4.970726922612424548e-01,3.828396732748573505e+00,-2.119451584363923058e-01,-3.399567355392695278e-01,-1.473226888798789824e-01,-7.658012814464677520e-01,-4.010721245664105455e-02,-6.779381515669765657e-01,1.730000761596915959e+00,-5.054477242815189619e-01,-6.864640893088915785e-01,-9.878526166531768071e-01,-2.649525116574311667e+00,3.365296624959107419e+00,9.205104130100745519e-02,1.904862592186826520e+00,-9.824783226116225177e-02,-2.540132907406776885e-01,2.698690901504757544e+00,3.614191104894501905e+00,1.034795166182934656e+00,-6.194941645522987761e-01,-4.806490273185125561e-01,-3.253384327632756201e-01,-4.254112100839037569e-01,-4.764156059445271429e-01,3.391553879645866632e-01,-6.537352439463102183e-01,1.548334187209862378e+00,1.639789203713780119e-01,-4.315162592617710624e-01,-7.158292700504247374e-01,2.114731217264385066e+00,4.891066466740648377e-01,-9.100921126470868927e-01,2.694832575093645932e+00,-3.172610337436471695e-01,-4.671959712186647407e-01,2.885676153253848852e-01,-1.824295523707447186e+00,-1.288629361250273053e+00,-6.176283519141853029e-01,-6.479198572681036383e-01,-1.091748205015005579e+00,-5.378320340316450343e-01,-4.835315110616018597e-01,-1.376286584478098041e-01,-1.941528777825985708e-01,-5.608013846413198999e-01,-5.097444831471293902e-01,-5.639473863797839215e-01,-5.423066624877115327e-01,4.048547723887440775e+00,-4.330683549146602251e-01,-6.067285883000197444e-01,2.602724057941149027e+00,4.461284438435460520e-01,-3.454548215762955343e-01,-7.542268915765144577e-01,8.684668680830733845e-01,3.702295436308329357e+00,-6.410209966506525969e-01,3.405230124939079506e+00,-6.385679810137626644e-01,1.784476128823679231e+00,-7.277601565974334275e-01,3.453816870501419944e-01,-8.834536412977742059e-02,-5.238455202986871395e-01,-5.572474978529563527e-01,-5.993902802697699261e-01,-1.991573846091448108e-01,-3.350232944205683294e-01,-6.996651666792330637e-02,1.535644695323602205e-01,-5.252695615545462715e+00,3.953086682667523277e+00,3.062594779287887703e-01,-3.465885609105973653e-01,-4.548905213417639426e-01,-6.566043097165861209e-01,-8.134790406023094667e-01,2.146580710116079871e+00,-2.002389717216563475e-02,-3.657712484680099019e-01,-8.775349214649434959e-01,-6.379962795963702860e-01,-3.733755625338592288e-01,-5.401865395158242933e-01,-3.071015546366112403e+00,-2.765675059401836444e-01,1.112855159945036754e-01,-3.814808134672842410e-01,-8.535554524370917440e-01,-3.656478965960612282e-01,-2.628906815706314237e+00,-1.187596053837818522e+00,-7.179103068884333805e-01\n-3.111749590677817534e-01,-3.295673855024076615e-01,-1.222968483647556559e-01,-1.568636084241868733e+00,2.123335698097324371e-03,2.840531516023609981e+00,-4.082144055584805975e-01,2.427562070810529438e-01,-7.558635347660214165e-01,-7.095542389834068597e-01,-1.282917037395734816e+00,-3.165358474782948295e-01,-3.317269405737223176e-01,-6.558179388929564757e-01,-4.530320304940753107e-01,-1.364000235970709740e+00,1.993454235219861204e+00,-4.909200662581438279e-01,6.070759506790799481e-02,1.407297486129485797e+00,2.173234487091457723e-01,2.296225496942851052e+00,1.277069037575911059e+00,-4.264384512799126448e-01,-4.042376119664643497e+00,-4.998095590647338438e-01,-5.453027488506914100e-01,2.533464442694901564e-01,8.852750248239986686e-01,-1.787275170795140644e-01,-2.799497228450171238e-01,2.775180922445378284e-01,2.545581343813458353e-01,-1.149903542133767081e-01,-3.969393600982446202e+00,-1.959509798607816045e+00,5.222685451602065293e-02,2.945714486995904213e+00,6.649717413538579203e-02,-4.298790574384259155e-01,-2.051471880737097131e-01,1.520685332826304137e+00,-3.461955231392269461e+00,-8.433650229376891128e-01,-2.919701054031040854e-01,-1.529197726243441968e-01,-8.691306883530904859e-01,-9.929413570967229874e-03,-3.545570780760538554e-01,-2.447988613444674610e-01,-3.539171631233240523e-01,4.312805463779087467e-01,2.442065663931075825e+00,-4.492039366682047952e-01,-6.644724454102006739e-01,3.199057915606942637e-01,-1.839203670140006908e-01,2.000845729577895415e+00,1.763598486436002977e-01,-5.481559439208731899e-01,-3.299843851698199271e-01,8.548471974157694220e-01,2.208497851190712513e+00,-5.345662508587917250e-01,-1.231565392951836646e+00,-2.851712357086342298e-01,-3.788442163783591887e-01,-2.345753857356477623e-01,-5.402409745914913408e+00,2.753816322683515061e+00,-6.738185168431410910e-01,-3.586487550886673370e-01,-3.795199523174160872e-01,-4.571215742274316596e-01,1.771514895732335892e+00,-3.605536443570924732e-01,-7.144253111252915622e-02,7.186238477770207078e-01,2.413348559501290680e+00,-9.385864493063314495e-02,-2.821980672391962153e-01,-3.394962332540366057e-01,-2.512609914061976202e-01,-6.588154953999503238e-02,-2.810867080911554794e+00,2.155136550430348241e-01,5.981209130459886475e-02,-8.143348150858716883e-01,-4.638642256301998001e-01,-2.876903806735650049e-01,-2.996743185662008035e-01,1.353077208077081428e+00,-6.016946298588096154e-01,-2.538870278659807744e-01,-9.894903809189267707e-02,-6.324791315975742956e-01,-1.472035403393810171e-01,-9.107507127293815730e-01,-5.305902225627843194e-01,-4.352795594246405830e-01\n-6.475790553060585542e-02,-6.070070834218511679e-01,2.431365532474456248e-01,-9.600170565585666171e-01,3.316635283409821167e-01,-2.105470790746324372e-01,2.611626099726466754e-01,2.776789281944652688e-02,-1.718911883658549022e-01,-1.551616317852722582e-01,-4.263923335838840423e+00,-2.277676949072369728e-01,-3.491240038829314385e-02,3.154944237063694867e-01,1.246558122455912576e+00,-2.522136519270266053e+00,2.409677886912797273e+00,-2.664742745527077350e+00,-2.668993658583429518e-02,-2.109419282494137349e+00,1.189405957337600572e+00,1.122796211485842965e+00,7.776774298912207950e-01,2.763675834858764224e-01,-9.318218044342974071e-01,-2.067830258373860031e-01,-3.801374878900352083e-01,-4.038313880811068568e-01,8.909025643736506739e-01,1.773338215199343204e-01,9.669626492628969894e-01,2.842126596608857136e-01,2.757219862034354652e-02,2.060585725043710403e-01,3.068779792106078652e+00,2.008077804523710874e+00,-5.458614508458012882e-01,1.708187684890452696e+00,-1.649820592605281966e-01,-7.345677201750483443e-02,-6.522886981170170628e-01,-4.520052680479120788e+00,-1.076347390470636878e+00,-2.662729901248687137e-01,8.929885567479046993e-02,-9.932513840218065715e-03,-1.999904487178727763e-01,1.735614331905358521e-01,3.263360345637790205e-01,6.400759077903030170e-02,-1.504418924761492804e-01,2.070411985554787559e-01,-6.206806204419066386e-01,7.669697185419813712e-01,-3.096221758111341593e+00,6.521501265956552995e-01,-1.474831413806601821e-01,-2.009171105831174309e+00,-2.862837527278900840e-01,-1.959203477312262964e-01,-1.301155033010328865e-01,-3.101806830150207972e+00,-3.727762878586386552e+00,-7.622910012316894690e-01,6.460921193349260960e+00,2.763652828809444184e-01,4.785417432967921769e+00,1.605474565737398107e-01,4.937530846579409327e-01,-4.138051335140971787e+00,5.311507279631344502e-01,1.279681527771152072e-01,-2.758618643808806725e-01,-2.953291220615423263e-01,-1.059414157960524294e+00,1.278409611384495603e-01,-2.845658822419639966e-01,-4.323515846372202986e+00,-1.620590134033564667e+00,-6.536849457816065745e-02,-3.563024990355528332e-01,-8.528599866319788725e-02,-3.563840380355449144e-01,1.516049873114014290e-01,1.892207907182485549e+00,2.039801276377521400e-01,-9.785925377850576701e-02,-8.300140743301729351e-01,3.627541612186163666e-01,-1.422482131593656163e-01,2.943602823115584743e-01,-2.608162572960590175e+00,-1.476679010876873754e-01,-1.346210768878030706e+00,-2.719359499684164128e-01,1.913167728783458088e-01,-3.734782273157016830e-02,5.224785625722370597e+00,-1.796964660502167188e-01,-2.687204732860434264e-01\n-2.969338324261477369e-01,-5.321754984475193240e-01,-3.969586996317517880e-01,-6.555132916714292435e-01,-9.719677963796798936e-01,1.114095763467662703e+00,-2.105215448703367243e-01,-6.406800375103557377e-01,-1.793176771522964896e-01,-4.599948760913519230e-01,2.598592364184353354e-01,-2.713308218041293740e-01,-4.507052649012927570e-01,-2.894780876207274090e-01,3.708396074721887814e+00,1.610051945075794411e+00,-3.732128149811720697e+00,-1.995519451615555440e+00,-1.342024401050979573e-02,5.931830537001893111e-01,1.799287637044578947e+00,3.014585541965243642e+00,7.725967424472496292e-01,-3.643365157540613963e-01,2.593564727882316401e+00,-3.583590189573097051e-01,-4.303943943969943953e-01,-3.317850213072073284e-01,4.218214037757539447e-02,-3.578196231238323088e-01,-5.787402311896109319e-01,-1.092794899665667369e-01,-8.059855212550835757e-02,-2.144098537458301312e-01,3.527295594105393506e-01,-1.224253696655904777e+00,-1.801382087114258845e-01,-1.649196640202224229e+00,-7.467946804089278801e-02,9.775304471322172548e-03,-6.161011056193683721e-01,1.074100014709709727e+00,3.049490112390165653e+00,-6.636915672046862502e-01,-5.539906113190828235e-02,-1.689116183027320472e-01,-1.467865527694706962e-01,-5.065694777952673977e-01,-2.615107317673459053e-01,-8.866769689581074573e-03,2.181400565095730215e-01,-1.825172546680909613e-01,6.346827890683347517e-01,-7.684964449508200346e-01,1.204142113500449307e+00,-3.731809647337262503e-01,-4.885465126164509897e-01,-4.492155358610640192e+00,-3.687685574896399920e-01,-1.467311556762204983e-01,-1.574278310992539842e-01,-2.006539168944101448e+00,-3.977551094785263808e-01,-7.109964965305335394e-01,2.491089962860069118e+00,-8.035939866172966406e-01,2.885865508684910541e+00,-1.879621099985507582e-01,-3.016634887185078551e+00,1.444507211910257105e+00,6.256384083090596460e-02,-1.749352657356334217e-01,-7.517097763135118793e-01,-2.922592758470229923e-01,2.523202049305642292e-02,-3.396893840571162393e-01,2.255507572734016808e-01,3.605707805350240935e+00,1.687639695513571514e+00,3.832688466876215116e-01,-3.794826852884248813e-01,-4.806709209561091378e-01,-1.397736926689163717e-01,-3.167252126887634134e-01,-3.790812653902407625e+00,-2.114749814825614416e-01,-2.002506786858260224e-01,-2.810716420524193571e-01,-3.269564266748646864e-01,1.469266007154497178e-01,-4.618799352450888573e-01,2.621040723187528787e-01,2.074150790414417689e-01,-2.308574763412533926e-01,4.992246889532152981e-02,9.182570493349073715e-02,-5.044498402279471438e-01,1.943584639001290970e+00,-1.336619959502614585e-01,-1.353408654586618409e+00\n2.924597585434998148e-01,1.057893669739499443e-01,-1.134157719764194577e-01,3.043894046727372960e+00,-5.879765319531725654e-01,1.102876684067754631e+00,6.408752834523185893e-01,5.576362346288379346e-01,-4.005400246825824295e-02,5.418929360623209179e-02,9.015988389020852534e-01,-1.292097595049133962e-01,-2.120745032513429024e-02,2.253136792700194124e-01,-2.043245980973323606e-01,-4.439887842612016966e-01,7.225990186901211088e-01,5.123791066995362353e-01,4.301798029942590085e-01,1.880407179871663725e-01,1.557741835243120265e+00,-1.844153049826491975e+00,-5.038415868249282781e+00,-7.889626397255364854e-01,7.669414642960420414e-01,2.542769155166736406e-01,-2.258801314471164945e-01,4.486579419690782666e-01,-2.764753202137540278e+00,3.593833726909633208e-01,1.968621433895851425e+00,-1.685156983610685277e-01,3.407424857963754494e-01,2.402031063274612244e-01,-3.414948892181575602e+00,-2.501828141953408746e+00,2.731883929114122256e-01,-3.470640068145128598e+00,8.688020572746150971e-02,1.567808548330208440e-01,-3.821900669720315613e-01,-1.262583995781745960e+00,-3.913092490135315238e+00,-1.771108911814848474e-01,3.271583771244995775e-02,-6.037554931370472597e-03,1.960806504076557932e-01,3.652536003080561477e-01,2.943861918372607800e-01,3.142175699391712151e-01,-3.298973693221363135e-01,4.843200679930863006e-01,-3.519389493696881477e+00,-1.173063005731991015e-01,2.069963475383675977e+00,4.736484112603100427e-01,5.258527382117649251e-01,-2.345568326994327824e-01,-1.648090215490974897e-01,-2.635402363918954993e-01,-8.756494133223143017e-02,-1.943630741930719275e+00,1.417163529668928001e+00,6.864300072438619948e-02,4.464129273944753562e-01,1.003032876210977337e-01,-2.236252088531630378e+00,-3.883282553037311069e-01,2.482849934266941616e-01,-7.155414393746938329e-01,2.870504132791550922e-01,3.084130131373689077e-01,5.486648359553160381e-02,1.260278204770681476e-01,3.129291775604795683e-02,4.617761833019961015e-01,1.399476310054915962e-02,2.705142956513571395e+00,-2.129774017758363946e+00,1.109134513085312385e-01,-4.632770141589535595e-01,-8.210300045505056765e-01,1.435731206565063478e-01,4.133278773009778084e-01,2.765384767851499781e+00,3.268903558950159161e-02,-2.397946480297053762e-01,2.038130794877601043e-02,1.111804694427614149e-01,7.533370654964666874e-03,2.907234876347080110e-01,5.376928936747259469e-01,-3.013869035917986494e-01,-1.582752542486957070e+00,3.654630007793936985e-01,-2.017706050121128789e-03,-1.957531030399160543e-01,-1.131693727441222680e-01,-3.840390504869123367e-01,1.758958124756944685e-01\n-5.024438435556172200e-01,-1.342379609278897989e+00,-5.823078084077509819e-01,-3.599227971240195778e+00,-3.105751958897645659e-01,8.858827116877469043e-01,-9.282313336675327431e-01,-4.780771521439736160e-01,-1.006903829612517676e+00,-9.924098764270761208e-01,3.576352774276258528e-01,-5.391176705530319468e-01,-7.170115161587895525e-01,-1.087252038186088843e+00,4.260202051473431339e+00,-1.679967057458706448e+00,2.906924527275899006e+00,4.718202711863222376e+00,-1.201528176378898527e+00,-2.503553489719840264e-01,3.020385376294126178e+00,3.574887974011211611e+00,2.258265287258670373e+00,-3.422894618209908479e-01,3.363273866978989668e-01,-1.053849736335410014e+00,-1.103811874442904184e+00,-1.256355396842242955e+00,-4.173605524883375328e-01,-8.954131006448986518e-01,3.656689514922307094e+00,-7.189236343636612458e-01,-5.958415584152539912e-01,-9.698000139678314424e-01,5.098766694811326161e+00,-2.865555261942209220e-01,-7.123062136382826148e-01,9.305986564337741518e-01,-6.831924807721116988e-01,-1.133246584655842826e+00,-5.622041148993652815e-01,3.764994822534580177e+00,2.091705958302872759e+00,-4.992568055011594730e-01,-9.428544953421021946e-01,-5.228526005378985042e-01,-1.622042529543690215e+00,-1.088914309417217341e+00,-7.435328092406168210e-01,-4.767355238061722900e-01,-8.494932432748305562e-01,-9.689573898364205462e-01,2.263129951135066723e-02,-1.049566167005436590e+00,3.080300043002760280e+00,-1.892067075932873932e+00,-1.326859806004152986e+00,2.892448764251074778e+00,-7.771762187744021277e-01,-7.577249321181650510e-01,-1.339810320913463526e+00,1.189072286394557976e+00,2.967254576640503405e+00,-5.361516171812660270e-01,3.950784939449676902e-01,-1.782821023640497549e+00,4.934581420434561494e+00,-8.259983175956991941e-01,2.275276108812299913e+00,1.295850761358995573e+00,-6.823895901419684273e-01,-1.164180057961406112e+00,-6.856926847327774466e-01,-8.386454131707677950e-01,-1.168572116070094036e-01,-1.267814776341003702e+00,-1.302067823664588397e+00,5.905968974333512200e+00,1.672183387575095326e+00,-1.946629263282050049e-01,-8.716891551959793372e-01,-1.399805281597197526e+00,-1.040813067223394839e+00,-1.070802066319374690e+00,3.338946491105595271e+00,-1.006682376394843814e+00,-5.264745100709843362e-01,-8.616868396248832385e-01,-1.115485451593856148e+00,-6.615280812096659968e-01,-9.177724040394131810e-01,1.784168921559998067e+00,-9.093912987401177039e-01,-2.717440431344809171e-01,-3.347183425274549151e-01,-1.289492156481458984e+00,-5.402854995676705796e-01,1.531055545102610438e+00,-9.340885233379202512e-01,-1.121321612714802241e+00\n-2.389625642426755625e-01,-5.862136203926502365e-01,-4.129696042889076657e-01,-1.635646418573502014e+00,-3.706254373010599568e-01,-3.038816415758633482e+00,-7.075695144557130334e-01,-2.333929935762448504e-01,-6.572871699983920957e-01,-5.368889761091507618e-01,1.766397870670551873e+00,-5.966711909354920351e-01,1.575116113308859256e-01,-2.457260729683995448e-01,6.575995342017699752e-01,-6.397080123471775570e-01,5.271442455259885834e-02,-1.194840342704967862e+00,-8.376910820362440946e-01,-1.216623499816694709e-01,1.265751258530580792e+00,1.970617669421618423e+00,6.017207553051665769e+00,-9.133345291581409509e-01,6.005939508010687433e+00,-1.869488267215975719e-01,-3.738835836296794946e-01,-7.632197239019036239e-01,1.778801379957575035e+00,-1.186304984620402403e-01,9.571448150979440239e-01,-5.525848911430829569e-01,-4.677771850388925401e-01,-9.011883894433390108e-01,-5.167094862413875056e+00,3.945482374121473956e+00,-3.214499870277124360e-01,3.721493527362515596e+00,-4.127964909627417911e-01,-3.297165656922361743e-01,-5.192649172096759358e-01,2.662623410977345451e+00,-3.470773712422086099e+00,-2.005034648542386999e-01,1.585929655013707668e-02,-4.836157735434045146e-01,-4.581055997419556935e-01,-5.070811159653314526e-01,-5.212555741762130435e-01,-3.568298756983298570e-01,-8.020693877579003483e-02,-2.843701048542189302e-01,2.267600843877890959e+00,-1.748304485345958947e-01,-3.898091876782424414e+00,-5.581340392775958892e-02,-2.300078366388902673e-01,1.431882679095450861e+00,-6.737649344437229848e-01,-7.908155212847473026e-01,3.109666920753748759e-02,3.304571511310940291e-01,6.993451972444479914e-01,-7.387169325968271361e-01,-2.082028479678101007e+00,-7.267383195874779211e-01,-2.772993359373945310e+00,-1.900691588579250246e-01,4.872327566625834550e+00,-1.000254706069550803e+00,-3.420714794798833114e-01,-3.809592226802836490e-01,-1.982218256976874815e-01,-6.128329102786195248e-01,2.037238007815646290e-01,-2.584253068025553213e-01,-3.295002529608156427e-01,-1.223985107997800581e+00,2.071917203869194424e+00,-6.928978520143892483e-01,-4.836442460878184746e-01,-2.241664317156158437e-01,-1.294113400535351843e+00,-5.403199645274008034e-02,2.165894504311988822e+00,-5.191475933080620386e-01,-4.028301510039190847e-02,-6.862331042185312313e-01,-6.735105153022175051e-01,-3.285520199250884232e-01,-2.290534564836975706e-01,-3.491311116027747130e-01,-2.047854117574250121e-01,9.376718651119879677e-01,-1.963871161775806451e-01,-5.084232099467724808e-01,1.329468839739709751e-01,1.377942779178715771e-01,-1.968894280079938053e-01,-1.704133214474603739e-02\n"}