{"weights": "1.624345363663241837e-01,-6.117564136500754091e-02,-5.281717522634557516e-02,-1.072968622156170587e-01,8.654076293246786011e-02,-2.301538696880282842e-01,1.744811764216480099e-01,-7.612069008951027893e-02,3.190390960570985840e-02,-2.493703754774101097e-02,1.462107937044974104e-01,-2.060140709497654266e-01,-3.224998315797437259e-02,-3.857679720619800606e-02,1.132063849929185601e-01,-1.099962333664291497e-01,-1.724282075504357525e-02,-8.778584179213717864e-02,4.221374671559282969e-03,5.828152137158222612e-02,-1.100619177212921324e-01,1.144723709839614162e-01,9.015907205927956025e-02,5.024943389018682316e-02,9.008559492644119260e-02,-6.837278591743331524e-02,-1.228902255186481787e-02,-9.357694342590688885e-02,-2.678880796260159347e-02,5.303554667381860099e-02,-6.916607517253091364e-02,-3.967535268559774231e-02,-6.871723434685433896e-02,-8.452045155317008951e-02,-6.713302810228224948e-02,-1.278140377084554212e-03,-1.117377120492870218e-01,2.344256699846599540e-02,1.663097132262559841e-01,8.082503006980461258e-02,-1.912510657609773831e-02,-8.891291016621777343e-02,-7.475762001811755986e-02,1.695182585693708610e-01,4.448075922703392110e-03,-6.380390928550683238e-02,1.910690317532354882e-02,2.100418007458783876e-01,1.202127883783712763e-02,6.172675818089028849e-02,3.002037604843182245e-02,-3.522441029395807777e-02,-1.142518198022140219e-01,-3.493427224128774905e-02,-2.088942333747781377e-02,5.866231911821976480e-02,8.389834138745050351e-02,9.311020813035573995e-02,2.855873279273272308e-02,8.851411831044582457e-02,-7.543972169938760464e-02,1.252876074889630598e-01,5.136158626528541937e-02,-2.961566878402537017e-02,4.895874710199984298e-02,-7.280767118717691548e-03,1.174539513937911950e-01,1.599387280522512889e-01,2.197607792864725573e-01,-1.394919670927335376e-01,-1.437769934576499653e-01,-4.852750926192091196e-02,1.691616187918651426e-02,9.257075970942588161e-02,4.025852621343400939e-02,-1.998882685721009578e-01,-3.016092764040168364e-02,8.298762216018963633e-02,2.305377260871537340e-02,7.626208948296921142e-02,-2.222123142686181427e-02,-2.007296277978331753e-02,1.865613909882843022e-02,4.100516472082563202e-02,1.982997201267697532e-02,1.190086458074588252e-02,-6.706622554583172025e-02,3.775636832663954029e-02,1.221219712926845807e-02,1.132617436513281284e-01,1.202992693172968558e-01,1.790241202295685119e-02,-3.854409710893931529e-02,-6.462377155614641711e-02,4.779368287544867588e-02,9.728194697589667359e-03,-3.767426505041100715e-02,1.085897690766900658e-03,-6.573754979372301022e-02,6.604697872935820502e-02,-4.076316886557370539e-02,1.350421269596451535e-01,5.167764330836846498e-02,6.579514832806085400e-02,-1.081913976249261194e-01,1.777344999037704099e-02,7.501726149334840554e-02,-9.477856090008032752e-02,-2.657254861684834116e-02,3.268160402304098010e-03,-1.373113519653771375e-01,3.151593920422917500e-02,8.461606475850334819e-02,-8.595159353000228486e-02,3.505462099487326177e-02,-1.311121101988134974e-01,-3.406958286341004154e-03,-1.610714748935663521e-01,1.129225408944855291e-01,3.986081034463678091e-02,-1.810944611258040807e-03,-7.424189871015927922e-02,1.375926435498096290e-01,2.045796511148752495e-01,-1.736510063115137836e-01,1.395939515349211291e-01,1.846751858551521908e-01,6.485724700466631576e-02,-8.965893429538966675e-02,1.167065366459709569e-01,1.666954757788505995e-03,-4.616485097533890025e-02,-1.057581397775463200e-01,6.706882229988705979e-02,8.573648260328776971e-02,-6.070905290053216219e-02,5.237679591875100266e-02,-1.144683654421159991e-01,8.016651576281759450e-02,4.647468588300456178e-03,-1.865697719073487748e-02,-1.017458725291452148e-02,8.688816256701058227e-02,7.511946713504509543e-02,5.489165939524397880e-02,1.754171024464359560e-02,1.226043420279171979e-02,6.544950926490561427e-02,3.060148358074812197e-02,8.078426924926085384e-02,-2.887272181676591061e-03,-2.099901335196315832e-01,1.562944047360709243e-01,2.816633172539275698e-01,1.167262962238411889e-01,7.602852989835799657e-02,7.700383737724850186e-02,6.825524471177848995e-02,7.398053334805945735e-02,-4.611835390822079800e-02,-1.329145228066617654e-02,-7.541960755997481614e-02,3.646550715234279927e-02,-2.388692048969323634e-02,5.095315461756205061e-02,-1.746000911148613485e-02,9.867743727434352685e-02,2.136324914692559751e-02,2.190699728969733584e-01,-1.896360919005894152e-01,-6.576773446817144042e-02,9.069920437214813724e-02,2.543669422930475710e-01,-2.103849852745969667e-02,1.024746244424639546e-02,-1.145840098237753228e-02,1.549668203452893300e-01,6.905816467557971891e-03,1.212554517680539540e-01,3.581434908269807982e-02,-3.214615782730615573e-02,1.417916934039916144e-01,1.821026818771160072e-01,2.770414598355517288e-01,1.052444831714355877e-01,4.362073595951086735e-02,1.593034565011114678e-01,1.168450776769614785e-01,8.993780408135410021e-02,1.984538344247335773e-02,1.312012233323588961e-01,4.628888190189794916e-02,1.935809590973105454e-01,1.111659956037751307e-01,6.622917129632822919e-02,-1.626543821607279172e-01,6.023192839141924826e-02,4.205851899531302951e-02,7.565811506569550260e-02,1.050862476894899589e-01,-3.887096306465200046e-02,8.741311893084584284e-02,-4.439725453867388039e-02,2.162187148999080710e-01,-8.885942620043667250e-02,-1.089486405595825741e-01,-8.671280503603791268e-02,1.336974373043227013e-02,1.477291788619124191e-02,3.325444918610800937e-01,1.222853811508861493e-01,3.208168665542740494e-02,2.642460139716351630e-01,8.235949628897186459e-02,-1.018468597578900013e-03,1.999210862540567457e-01,1.410016306502928085e-01,-9.011769090843595870e-03,1.548890770446220144e-01,2.523027504720089589e-02,1.651655973426947310e-01,5.158568375479115342e-02,1.579456011634612078e-01,1.603384130738269575e-02,-1.219744382273806604e-01,2.450603902993899741e-01,-5.874877349901958673e-02,-1.724733560245064398e-02,-6.302345885749499610e-02,-8.909112958247450420e-03,4.719457554370314056e-02,5.512386551339843593e-02,1.260641814610574674e-01,2.550151045803831784e-01,7.819019016358821905e-02,-1.386075550643791482e-02,1.749322640986309156e-03,5.635071125290466720e-02,-1.691706419617414539e-02,2.396060594218938911e-01,9.390930219959041370e-02,1.026057248066431227e-01,1.292652653995091661e-01,-2.585605592654817778e-02,-5.600961042735551863e-03,1.159401548091086309e-01,8.985842487607557938e-02,-3.788673512025073770e-02,1.902102579293879769e-01,-1.211066121149744629e-01,-2.582634084933395358e-02,-1.931823595804174967e-02,-2.793083879122176816e-01,1.938655428913941547e-01,3.450270605264046941e-02,-9.983372081823364830e-02,2.134488799513373780e-01,7.403104179706324062e-02,7.276982650606977909e-02,-2.208289463000221928e-02,7.136044078386225009e-02,-6.121189914241886854e-02,1.804098940330786938e-01,6.238469630643117547e-02,9.449496800332166102e-02,2.117508815444558712e-01,1.589693466847260095e-01,1.587777183928741342e-01,1.606253604897915632e-01,5.464644761690342495e-02,2.149560962560545518e-01,2.729870243694137999e-01,1.618368408073978248e-01,1.476387225842165918e-01,-5.215946765545490665e-02,-7.351283483529766349e-02,-1.369926542934561675e-01,1.245895545085429490e-01,-2.490949973254196620e-02,1.395783199443601796e-01,-7.819088173779985274e-02,-4.365473916992204662e-02,8.763713209292327624e-03,9.555171471497281299e-02,1.385309778636339105e-02,3.760502571906145647e-02,3.198800449238628496e-02,5.618578187569088500e-02,-4.730316450532193878e-02,1.176060937107158977e-01,8.101618475981003931e-02,7.765984742380407924e-02,1.203686864747322283e-01,2.032293090822168136e-02,1.126212600402856784e-01,1.003225639679628939e-01,1.870815579637815085e-01,2.231980960948603820e-01,4.310293037611125089e-02,1.835246114999415368e-01,2.890388096223004966e-01,-1.012177162427164573e-01,-5.013524534105850278e-02,-7.290231828124536795e-02,-2.320631349997455406e-02,1.662919991847063017e-01,-1.293810797288307696e-04,-6.936893992656338603e-02,6.218288176509074311e-02,-5.991013930010771760e-02,1.129373921776933992e-01,3.299490482519293333e-02,1.482024980451182583e-01,-4.459652881130263258e-02,3.385864788694246674e-01,1.342223708939399018e-01,1.537621395199532948e-01,1.238926519795800762e-01,3.532373174417265810e-02,-6.725167333426601210e-03,7.557430543428238223e-02,3.857255575935800845e-02,1.804463800359910608e-01,7.427340466307592870e-02,2.230385622186641936e-01,2.443617378213039648e-01,6.125919178260524206e-02,2.370215898074636840e-01,5.072571132792059317e-02,1.608188876741534490e-01,8.525505991978202247e-02,1.377508434648974933e-01,-9.371715389795326479e-02,-9.226146007665607038e-03,1.440907465719013514e-01,-6.167415091625154389e-02,-2.037094087640753393e-01,-1.940935551683620752e-01,-2.497867914096444653e-01,-2.091633547196884713e-01,-2.518673934445262580e-02,1.605773453810050710e-01,9.292620826502766317e-04,9.781064217827642460e-02,8.762413763838156067e-02,1.186030966171321838e-01,7.793381551195979751e-02,5.280989711334176800e-02,1.274444855561208401e-01,1.210243160359467628e-02,2.704662603190813863e-01,2.610696519023747997e-01,1.175746090885476658e-01,1.994605529981494652e-01,3.009107863179982453e-02,3.439304371382213843e-02,7.997646701959795768e-02,1.477734403311389659e-02,-9.097449579473181752e-03,-4.306231515413198180e-02,-5.446663372781426760e-02,9.007019336248654751e-02,-1.945289026904525875e-01,3.537621072104783077e-02,-2.364375750910679974e-02,7.290711809555991407e-02,5.253977125823983824e-02,-2.762621629315123450e-01,7.931475259208596584e-02,6.880047340325769201e-02,4.040682875327311629e-02,1.021518798222814835e-02,1.745693029182817935e-01,5.531165263644073626e-02,2.666233861211126932e-01,1.287364056343054675e-01,2.972528808110460052e-01,6.705901210517452304e-02,1.293601976992778298e-02,2.418986696415425242e-01,1.963701931020677971e-01,1.066435121606965492e-01,-6.239597360263104270e-02,3.016412150282994989e-02,1.193400833900808422e-01,1.262920835158295833e-02,2.552707402432773803e-02,6.018666635455347837e-03,-9.127926245947515227e-02,-5.663616208264865559e-02,-1.453102722975107564e-01,1.742466217949728280e-01,-4.753715670959541423e-02,4.783297704453002425e-02,-1.018365789563544510e-01,8.031402767789468100e-02,-1.759937325575708089e-01,1.215525477745304228e-01,3.190328115942966947e-02,2.608892036357263744e-01,-5.969671440188732692e-02,7.713909981783689807e-02,9.625973453302145988e-02,1.799719666589967570e-01,3.275177509322734631e-02,1.536437601441862366e-01,-1.825646437342696646e-02,7.669418253270603170e-02,1.437433716739467127e-01,2.047780253259958161e-01,5.512191576729891240e-02,2.705737577406185368e-01,2.337568146300381955e-01,3.522915774429920960e-02,-2.091020026421520628e-01,-1.568387359478425891e-01,-7.480573916615827768e-02,1.063586940872944392e-01,2.804480924062148148e-02,-2.097224602365661272e-01,-2.287649479610672984e-02,1.613610324325667755e-01,-3.737822968212018565e-02,-7.469254893186816346e-02,2.085729039088269621e-01,2.534976324394170796e-02,-8.869010006687610623e-03,7.974996864367271676e-02,4.188910042037266579e-02,-2.627923730198525559e-04,1.540498263544512192e-01,1.517458043535230561e-01,1.598655519289430005e-01,1.369974581902956012e-01,2.947777498994710865e-01,1.268961492566068328e-01,1.314161971590726841e-01,1.963438110483131382e-01,1.484423818124336325e-01,2.266125368142044572e-01,8.583373212573736089e-02,-1.341300135817069250e-01,-8.432244721892732942e-02,1.472056430313536390e-01,-3.481723140588107585e-02,3.160868507324666316e-02,-8.945661987298579587e-02,9.898045739408029009e-02,-3.848296624776593317e-02,1.458249953712329738e-01,-5.329125483334087865e-02,1.119592137803199078e-01,6.800312101229838424e-02,-6.117542575430012092e-02,1.336707251631097937e-01,-5.865858108109880953e-02,-5.854745662081501517e-02,9.609153082745584828e-02,-3.963187078747344716e-02,-1.929380399825557715e-02,4.612640094037573357e-02,3.779912815606760457e-02,2.498460519115605905e-01,1.586980259531938220e-01,7.408445282776311702e-02,6.900321427979315414e-02,9.535067306658975839e-02,2.128985141525797098e-01,1.134159442843868520e-01,-2.069312916668838986e-02,1.005556386989084339e-01,-1.467123588302256601e-02,-2.974076793682739819e-02,1.737623483836649163e-01,-5.108890071944094391e-02,-4.863878877730944128e-02,-1.952105287245232690e-01,-1.402278485767879945e-01,4.494323909926466187e-02,-6.982705055279689321e-02,5.089088981212527146e-02,-1.052928234881193303e-01,-6.134334370984552420e-02,8.630076010536952280e-02,1.670428996409577538e-01,7.666338148918402928e-02,1.413892428858398165e-01,2.115183560585318367e-01,1.854632780213323617e-01,4.078147454200189287e-02,1.168575261484879335e-01,1.554883728824517086e-01,4.105570540582501732e-02,1.302603963578727320e-01,-8.811854088779505489e-02,-3.680631110966146868e-02,9.255286949055979706e-02,-1.951754275452434462e-01,-1.034968215616571124e-01,-6.187854419329924527e-03,-1.813781227546996666e-01,-2.427795471180215457e-03,-8.437584726001716440e-02,-2.977121330936578422e-02,-2.589829361315755182e-02,1.892952107941556564e-02,-5.644803660958679775e-02,8.301654885509905310e-03,-6.090782291178450936e-02,6.297168927313950837e-02,1.823717282258966732e-01,4.573759651619390548e-02,4.298993758981820706e-02,-1.004478171190597430e-01,1.084301159442713075e-01,-2.572007747565822899e-02,2.326638436967792909e-03,1.675370998112541976e-01,1.256086214866751205e-01,2.020597500191332607e-01,2.194811589700979837e-01,3.709284810707357688e-02,9.614050739108845334e-02,2.426013321400906642e-01,1.589384295895940324e-01,1.026114822739847277e-01,1.408825080711584854e-01,-5.773675050068199921e-02,6.029690212877094474e-02,1.376539517962455383e-01,1.600586719541879366e-01,-8.162521348943137245e-02,-2.516746084372453382e-02,3.849220574550506202e-02,-2.889449267977478586e-02,-3.949594475365182655e-02,6.790831658243330626e-02,-2.764412575677004449e-02,-1.615948146108117656e-01,7.394865203315989510e-02,-3.918647805765612148e-03,-3.387682635806246734e-02,-8.456361886527435923e-02,1.841533755266991090e-01,-1.182250006120821456e-01,-5.274916228802429413e-02,9.619297207687516060e-02,2.188499606013129817e-01,2.294130471699654672e-01,-6.425916442561668135e-03,8.205292931887843422e-02,-6.631055847881135723e-02,1.542161515943163419e-01,-1.263295124143420933e-01,-6.786824867247748770e-03,1.067458606646529973e-01,-2.423184414606639400e-02,1.446325618055749607e-01,-8.823605720222645055e-02,3.690459193807336946e-02,8.532821858237332746e-02,-1.382407045048236402e-02,1.385730204270081700e-01,5.430636457049515392e-02,-1.691851811422117047e-01,3.983676271631088617e-01,8.344053062493497763e-02,4.908686428345904879e-02,-8.688706311129107407e-02,7.292586965200166527e-02,2.954430918990732027e-02,1.523408178789353029e-01,1.514335802141017484e-01,3.173345522201818092e-01,1.437235942100691666e-01,1.698148126873781361e-01,1.616393763224530655e-01,1.156963583389303413e-01,9.289102791055406372e-02,1.812954102988337535e-01,1.159268560113354413e-01,-4.196919580508484682e-02,-1.009388569333786595e-01,-2.939462010329009674e-03,1.167569418008036763e-01,-2.060913112983955679e-03,1.741754209971958511e-01,-7.750677471736582003e-02,1.416405121085396838e-02,-2.516267014488892118e-01,-5.969807366473826871e-02,-3.104141221422641872e-02,5.039643088093638534e-02,1.727271136340768898e-01,2.150966127561795491e-02,1.892381626405333639e-01,1.376721882410221476e-01,1.795743852765027959e-01,3.949270306176622114e-02,2.401870590846839626e-01,1.338498117247181700e-02,1.922226088196437588e-01,4.051966851662122671e-02,7.217130449650756285e-02,-1.158962858267228828e-02,7.921137955075380210e-02,1.232215166627907560e-01,3.610781579026692972e-02,-1.107534842319449625e-01,1.643572516766586555e-01,4.041434191662324205e-02,9.896709706590035849e-02,7.657671403838413327e-02,-6.810364878002214684e-02,-1.956456896303125914e-01,-9.154243679580124915e-02,1.225155824514630037e-01,-1.053544581710481182e-01,8.151047352386991962e-02,-6.127382121050301694e-02,3.954043276871385681e-02,-1.796597224747760457e-01,1.281206526365323284e-01,3.914800233302036941e-02,1.556671982162970425e-01,9.824273192674401467e-02,1.838582854623291574e-01,1.256240507709894261e-01,2.147128144065489908e-01,-3.091947936022943887e-03,3.868644927189184707e-02,2.117153530571064535e-01,1.264561931784707050e-01,8.334857424083157162e-02,4.408270784690297706e-02,8.043371082512904002e-02,-4.318895111209526683e-02,6.002052753682627501e-02,-8.913134627651636555e-02,-4.263065055070210801e-02,9.793961710394750997e-02,1.069012493658414720e-01,-1.097094276030033677e-01,8.386347477336582312e-02,-1.039182322034903072e-01,7.330232317190783775e-02,-1.898682749456333252e-01,-1.115316393780491216e-01,-4.983073858172408499e-02,-1.060020890032315269e-02,1.591605242817334398e-01,1.232823687285836689e-01,2.075181435627992677e-01,1.956187534876020484e-01,8.468642733567950664e-02,1.103418303895343094e-01,2.419330920075810354e-01,1.389858151111663942e-01,1.078704382977695442e-01,-2.604087332400162325e-02,8.100656534091893457e-02,-2.044035242434613098e-01,1.873479103291706511e-03,-7.680034264723288595e-02,7.797724229372873794e-02,-4.430579803503410102e-02,-3.232515753234082440e-02,1.336809300000462997e-01,-1.049850622170125924e-01,3.151942933601968588e-02,-1.895250848859010850e-01,8.972911744465112902e-03,4.102657453968444612e-02,8.598709717969121868e-02,-8.982922341194927995e-02,3.225138374266377922e-02,3.527233780295424559e-02,6.773002635035310116e-03,2.618932130440775746e-02,6.294496110178100790e-02,6.409620686444353344e-02,-5.935512077463579034e-02,-4.266225107482501944e-02,3.271384532806955181e-01,2.615290006427499758e-01,-6.348359719521246003e-02,1.157980370335084247e-01,1.220970191199965832e-01,1.324756446849187086e-01,6.121986514951188729e-02,-6.327522339199306844e-02,-7.916069808329637136e-03,-4.531294644134196969e-02,1.532937717960784763e-02,-2.645700922989223727e-02,-1.309630669644540682e-02,1.019144698272122507e-01,1.230124894569332022e-01,-1.181132916203429389e-01,-4.599301044345813216e-02,-7.907999537751678187e-02,1.223722211960109330e-01,-5.936606681098409097e-03,1.457281852130551669e-01,-4.170496702278497780e-02,6.779615635979420289e-03,-1.321387100181498908e-01,1.327320779917531002e-01,-2.699446701475548618e-02,-1.289922743535359406e-01,-2.746933044426157211e-02,-1.981881984159343801e-01,2.433217574397992383e-02,3.103598371342778522e-02,4.660612840506119653e-02,1.690084487195494534e-01,-8.299277506711277841e-03,1.058345822439354100e-01,4.801177784229465617e-02,-1.338026736209558566e-02,-2.044210228188607648e-01,9.759851361626779853e-02,-4.967998623656189744e-02,1.939725083572924405e-03,-1.269901343808804151e-01,2.829471991248344587e-02,1.079740314045914140e-02,2.941761897076564276e-03,-1.347931292957236377e-02,1.049218290752567811e-01,9.662208625783415272e-02,7.259179277387428630e-02,3.321924057368055849e-01,-5.977337103375338773e-02,-3.744239642055918055e-02,-1.000671574538178205e-01,4.685540910952210730e-02,-6.126507103686190669e-02,-2.523417916764614799e-01,-9.932644979434601673e-02,2.149143283007883681e-02,1.137723050657830498e-01,-1.435750962267539899e-01,-5.027064814311769242e-02,-2.273483531210892302e-03,-6.100112473841100280e-02,5.913395002549772655e-02,3.010821737663998791e-03,3.442119008185502704e-02,-7.043783274527322391e-02,1.542496063092353986e-01,-2.691450798321575055e-05,1.293549447914194017e-01,-4.389975199067239903e-02,5.900394641608302376e-02,-6.793837829972343423e-02,-9.509092510507696772e-02,-7.043503315234588003e-02,-4.586668606976747851e-03,-2.187334589677091684e-02,1.539207031245788115e-01,-1.148703440933447062e-01,-1.090297445986601332e-01,1.700683450520904805e-01,6.091681994747136231e-02,-1.880676217044144338e-01,5.016852521201377313e-02,2.505746107139660353e-02,-2.109484943559915004e-01,-3.305104672358782913e-02,1.832318336271308856e-03,7.511490231136941365e-02,9.635931450925153130e-02,1.029211464206890130e-02,1.039196007802225957e-01,-1.443055955685068267e-02,-8.524052003379720133e-02,-9.269082541362926031e-02,5.488939590004632968e-02,-1.957155471578607420e-01,6.778075711198115749e-02,-1.106573067391885268e-01,-3.592240957107388499e-02,5.053819027529176527e-02\n1.217940900801347398e-01,-1.940680964364893402e-01,-8.061782119534570412e-02,4.906169237310280956e-03,-5.960863345876620673e-02,8.616231013412040118e-02,-2.086390565456526236e-01,3.618016405710468980e-02,4.259201765028160225e-02,4.908039714163047601e-03,1.102236732585342160e-01,-1.229574253546428936e-01,1.108645801176930262e-01,-7.026508240227481716e-02,7.257797392182621654e-02,-3.241946686043973430e-02,8.143431291489254542e-02,7.804699297583744810e-02,-1.464053573580591794e-01,-1.544911938105286014e-02,-9.243231854158614688e-03,-2.378752654568325187e-02,-7.556627651019651171e-02,1.851437894573509935e-01,2.090966765755210288e-02,1.555015994333088791e-01,-5.691486535119704565e-02,-1.061796761310848103e-01,1.322477789197846337e-02,-5.632366041174566296e-02,2.390145962333511676e-01,2.454228491891196490e-02,1.152599142519573766e-01,-2.242356949993539253e-02,-3.262281256738957386e-02,-3.119870309154992253e-03,3.554155107711019779e-02,8.495598209602932271e-02,-1.215277164867257370e-02,-6.686825904361862194e-02,-1.069155018626962578e-01,-7.744951502750633578e-03,5.730058041630074761e-02,4.583766425605446948e-02,-1.726236171473867790e-03,-5.998247398161598437e-02,1.466331902124117827e-02,5.712491314286883420e-02,-3.705625459377409961e-03,1.123612427654663987e-02,-1.505094251148389288e-02,9.155016563685847153e-02,-4.382002673386686808e-02,1.855356209665554035e-02,3.944280300121125876e-02,7.255225582535589079e-02,1.495884765884475665e-01,6.754538092042119968e-02,5.992132388867427856e-02,-1.470237305955254536e-01,6.064075882346068452e-02,2.293718917579406769e-01,-8.297980737143026420e-02,-1.019534903548738880e-01,-2.152116324598941574e-02,1.025707518045065603e-01,5.351400805702878627e-02,-4.598914820776166951e-02,-2.234101321826442721e-03,1.052472151063677808e-01,6.893229850595103403e-02,2.448513634231377079e-01,1.023658171725502497e-01,3.798391265234706687e-02,6.450593295182027731e-02,-3.383486787518637240e-02,-9.698686978149825832e-02,1.764909304340334106e-02,4.913774546745585531e-02,-1.395258086370458894e-01,-5.222168725447010051e-02,-3.691291098442151669e-02,2.656424025142851281e-02,-2.604660588653798237e-02,4.450967103445720163e-02,9.811224622199124154e-03,1.060327575823599294e-01,-1.711168592461519700e-01,1.656969865936549213e-01,1.417276734329246390e-01,5.036971715066783026e-03,6.505814720096833592e-02,6.115348444978004061e-02,-7.218458650694599410e-02,1.943339829887682363e-02,8.017776125256825814e-02,3.348124136786065352e-02,1.094828480617103250e-01,1.331757636447021553e-02,1.370361947481026077e-02,-6.676728724781848257e-02,-2.754280297651201179e-02,-4.024088943223939896e-02,1.737520731298658194e-01,2.562973599932048818e-02,-9.988170307529517511e-02,3.963048979224009782e-02,-1.911130015947726593e-02,-3.052011772881736973e-01,4.801776328863505833e-02,-1.552786402021458789e-01,5.784644202562420207e-02,-9.612635990305100353e-02,-1.458324409898387464e-01,4.943385111024466844e-02,-1.494221682506947091e-01,-4.471533748528905283e-02,2.045564507602871951e-02,6.119288842461168693e-02,7.479673430345926133e-02,-1.866297722210643120e-03,-7.779798021733304314e-02,2.042305873354525458e-01,-4.786055271915147513e-02,2.007414545093897940e-01,-1.625574549915898004e-02,1.542178852938388134e-01,1.596369511599622926e-01,-5.079416211958504013e-02,7.961931616665883504e-02,9.596841354760578258e-02,8.523039494135146998e-02,-8.299540096340360384e-03,3.965448295969102588e-02,-3.449795426440763896e-02,-1.167931947513425606e-01,9.786681002390586193e-02,-5.663358607642506037e-02,1.379299205713962195e-01,6.016522021664386793e-02,-8.926466735128840702e-02,-1.611983195412373601e-02,-2.863538076565881954e-02,-8.715015788079477632e-02,4.985238984940663226e-02,-4.803323973820273346e-02,1.639313529489027643e-01,9.230890201337929590e-02,-7.504195949324739268e-02,2.728518406712366132e-02,6.321448826421208721e-03,-1.320579170304428396e-01,1.357182074684964712e-01,1.571925870771771205e-01,1.658028813811400215e-01,3.367875959926297513e-02,1.777768190528830339e-01,3.885845771190538783e-02,1.583258511703470317e-01,2.276067503126305847e-01,4.861770692317270853e-02,-1.114483360836186765e-01,-1.109803072853203683e-02,8.071646450081502999e-02,1.345219393928360208e-01,-1.147100679107661142e-01,-1.920706126664932858e-02,2.325725434289189000e-02,4.349983242628411434e-02,9.104235938475896406e-02,-9.563680459469291184e-02,-4.389397340980626117e-02,9.851132204136552051e-02,4.100421475544781258e-02,5.535421687403335733e-02,1.262160722379891964e-01,3.793432713341104295e-02,1.133989057610498147e-01,2.452940020510082850e-02,-8.006048763617890085e-02,-6.914573381386225626e-02,6.800400290249342117e-02,6.004646065150673340e-02,2.744686956284801346e-02,1.239616687042885551e-01,-4.076664127207288782e-03,1.038947465774548856e-01,7.091965949244218026e-02,-2.538901392650688010e-02,-1.792087093879357329e-01,1.845812943477700974e-01,6.521146221979834401e-02,-2.363367519442425846e-01,-2.556752333492389589e-02,3.972170571649913384e-02,-2.273553538047800790e-02,5.803301168726165971e-02,-9.726719284099938356e-02,1.756223215978748586e-02,-6.220691866546141681e-03,-1.766135264670374780e-02,-3.900969161521532919e-03,4.712574434649856314e-02,1.223189315943341432e-01,9.833781714453494402e-03,4.188215035149592258e-02,9.458489961672386648e-02,6.281615196498452347e-02,1.207557038370338787e-01,1.759138381780260274e-01,2.534574804477433552e-01,1.178161590175096779e-01,-8.582601626570039721e-02,1.278166590169162176e-01,1.698608409277414522e-01,7.908238941975198610e-02,5.456840848921441084e-02,-1.860896225366988066e-01,9.409585930125181907e-02,3.574160716140477052e-03,-1.221079677166492794e-01,-6.843988746347016983e-02,-8.694222549859036142e-02,6.126919093790708648e-02,5.616381138734684308e-02,1.515390678520664447e-01,6.532274378701689865e-02,-1.337620862758030771e-01,-1.359346227837344434e-01,1.303792592741604972e-01,1.870766955993648506e-01,1.951826104573343296e-02,1.361797552825246560e-01,-6.863525522783972543e-02,-1.251062737257883362e-01,-3.048887672525102399e-02,7.356310914559409386e-02,8.063398941105116846e-02,1.340952868101723261e-01,1.119766125408123286e-01,2.062487659119731087e-01,2.646383277040921245e-01,1.127017804706475085e-01,2.928404967098950373e-01,1.609212866897623620e-02,5.369400081669073281e-03,8.810681567289814498e-02,2.566742897169908572e-03,1.400759569624183132e-01,-6.227561038552241468e-02,1.326925232963932777e-01,1.965342691351584445e-02,2.565453201387562499e-01,-4.632917591156983372e-02,-1.966955314143460989e-02,1.639779923844088619e-02,-2.149505066917777041e-01,7.011361784370458150e-02,6.685009194828663015e-02,5.830705026785761025e-02,-8.539797850776037480e-02,-9.846032580241835530e-02,1.448653577434761142e-01,2.310178121899248149e-01,2.766231082242768258e-01,5.241228696418805122e-02,6.638370695412881828e-02,1.383156799489530242e-01,-6.153196769352702739e-02,6.314085131957454522e-02,1.848575711357814122e-01,2.374732887910539214e-01,8.146525825228997930e-02,2.116550839739506362e-01,7.872571061664929148e-02,3.856785322252619108e-02,-4.270616526145985803e-03,1.660431615497766702e-02,-2.413129187926250224e-02,-1.444822571507178334e-02,-6.618908108905179055e-02,2.610610989208006494e-02,2.404237007354437846e-03,-1.463958165520829469e-01,-2.093335881921901467e-02,-7.621670985774947615e-02,-1.835082037824191936e-01,9.071352082527929517e-02,2.058841565100543169e-01,2.938194788228105647e-01,2.466635395960028454e-01,5.025360007440729006e-03,2.047196062139675365e-01,2.320568405144201041e-01,-4.762644631572318654e-02,2.169151632698537446e-01,1.755570059661715476e-01,1.284737941539483841e-01,1.177918728792615166e-01,7.027423287500332572e-02,2.055232686727068991e-01,-5.161123525554451620e-03,6.063602184867682328e-03,1.683201611968862185e-02,3.839258336632835750e-02,-1.771231480280281156e-01,1.372234800966978252e-01,2.274737402141665393e-02,5.691276147179439443e-02,1.985785498692075463e-02,-1.785391772065568136e-02,-3.355904325869030896e-02,1.376917531061612812e-02,2.323940209537114429e-02,1.431215899405751946e-01,8.726867063241625089e-02,3.786323160958180584e-02,2.794260935379000999e-01,-3.131600532005032050e-02,-5.728140661190806587e-02,1.116749343724846993e-01,8.498751535549098346e-02,-4.087434521347358546e-02,9.414930914986958943e-02,4.744388862138387147e-02,2.207539732971132707e-01,2.300391859750395424e-02,1.643531148748077209e-01,8.733720812072888473e-02,1.143380019018836076e-02,3.319669014045953381e-02,6.182717311701220464e-02,-2.244110039550073765e-01,3.221165210559330527e-02,-3.832940923009661716e-02,1.798353535284156757e-01,-6.912651717611192903e-02,1.144083230425890635e-01,-2.508506801579719059e-01,8.262940023676822177e-02,3.221186899405850679e-02,-1.571600008112745625e-02,2.364627129876036016e-02,3.634997114430045528e-02,1.177742698757973799e-01,8.099057438824931732e-02,-8.862265489547237196e-02,5.363913556951004774e-02,2.952964601795818878e-01,1.173155353865422551e-01,1.815796580531622850e-01,1.075165479531044466e-01,1.407089078239898983e-01,1.231256038654464785e-01,6.913563324522936648e-02,1.457905372262693344e-01,-6.061356473462885947e-02,1.719753172797375967e-02,8.079560087174575411e-02,-3.935540385040483397e-03,-1.130373690815142246e-01,5.699750466304785712e-02,-9.743386777542437094e-02,-4.449020460307960556e-02,-8.281473581765766423e-02,-1.099958282488821756e-02,-4.235068767932819583e-02,-4.714895189378992546e-02,7.504851618748749342e-02,1.916555731571344678e-01,-1.195693649560333315e-03,1.321576113535952168e-01,4.977835972084880545e-02,1.088965815382291757e-01,2.094126902778604693e-01,8.605968333633429168e-02,-1.124359053386290996e-02,5.232965295437821962e-02,1.186038559540537884e-01,1.576458172949132541e-01,1.930656589573256920e-01,-3.288766311054063668e-02,-1.666796325250851848e-02,-3.739462575036842790e-02,-1.326456518353592295e-01,1.689657687215456450e-01,2.860535691971518787e-02,2.162961264411675522e-01,-1.329738645594749913e-01,1.310154470208333422e-01,-6.933984102652428205e-02,-4.041116020867022846e-02,-9.889618743749438445e-02,-9.496368249424484709e-02,-1.322009121537761622e-01,2.151554205768312425e-02,-1.266661312507168236e-01,-1.120461268528055200e-02,3.659509202785117543e-02,1.479175589293867665e-01,1.024421897522339725e-01,1.240682034844674680e-01,1.524964187328444465e-01,9.714446336449124308e-02,1.330357528716804016e-01,6.701256082684427240e-02,1.367209887225790954e-01,3.552996656342313209e-01,1.177575082553606184e-01,3.449873038247140006e-02,2.125533826598956788e-01,4.836502449731725634e-02,-1.162454430480210771e-02,-1.008169048918827193e-01,1.076013540283659309e-01,-8.631879779943937847e-02,-5.028017902404392087e-02,6.572302163634542727e-02,1.875067492649979198e-02,-8.580949496435395438e-03,-2.139868236283482689e-02,1.145723787507387653e-01,2.230264151769066339e-01,-5.468841438899262747e-02,5.838161941197714949e-02,2.017097145576623729e-01,1.515960021607840325e-01,8.858798880356006170e-03,5.070634260428493606e-02,1.344901456961575779e-02,-4.066896398834469323e-02,-2.093649804872120719e-03,1.341360402028681509e-01,1.405879693948527687e-01,3.296243367684324466e-01,1.850958249752300555e-01,6.822312593154118698e-02,1.836400125854875387e-01,1.110988549580447654e-01,9.538161490689987809e-02,1.517018373544083421e-01,1.019138435659611847e-01,2.646587016080818519e-02,1.059970981428478426e-01,3.517593584914274762e-02,2.937215483462320420e-01,1.104186590569503773e-01,1.153086031167684100e-01,1.290994013142288122e-01,7.971708850327271362e-03,1.312803846883568992e-01,2.515699118308327691e-03,-8.220003359147676214e-02,-4.737034959907894527e-02,8.359321980181987077e-02,-1.028156536602328058e-01,8.017370606141192846e-02,-1.849900673748782615e-02,1.216785207083837805e-01,-1.019581132046559063e-02,2.926579064824819110e-01,2.582701798571433449e-01,9.146088503611286835e-02,3.361502887687671803e-01,6.667464301608326538e-02,5.276727367797438492e-03,-3.323195905692445662e-02,1.131934450669016268e-01,1.943177964644283717e-01,-1.497699589253922298e-02,-6.676456313956442845e-02,-9.840779512671508911e-02,1.558579276200104669e-01,1.701186813562198530e-01,-3.302496752530147128e-02,5.382646620159785983e-02,-2.905450275541419285e-04,-6.067309635549940697e-03,9.648099169813405263e-02,4.413019651202310795e-02,3.473029627429729399e-02,-1.467624664264939420e-02,1.057941488287692106e-01,7.386902469121383978e-03,4.587092117600036212e-02,5.557069810396977200e-02,-7.601120297799054959e-02,3.590587361784520343e-02,6.741364543477031124e-02,1.566596918175560682e-01,6.180631470456874471e-02,2.255109980584564869e-02,2.511247189219666387e-01,1.929065022229967952e-01,1.543937862933269234e-01,2.302004134942959579e-01,8.862773272844377825e-02,2.956916750733594099e-02,7.274792548044185792e-02,-1.723377085583989721e-01,-1.052633905912920415e-01,7.798854034559433990e-02,4.349546001316203364e-03,-1.276361480990881314e-01,6.585367995838037336e-02,9.988994678210927347e-02,6.689472526074899394e-02,-2.755839692921621068e-03,-8.034902461753219705e-02,3.046954206726953940e-02,6.924936719047670997e-02,-6.906009241565389499e-03,8.540604870902147872e-02,4.869596997803572747e-02,7.954157938688159735e-02,-1.342967436180629304e-01,2.062996479568565966e-01,3.046899443518990558e-01,1.057305679779234481e-01,-2.454441058112037666e-02,1.586340206313788526e-01,3.495360514635764693e-02,-3.072706330053727800e-02,1.667823746825183029e-01,-9.897932402063774893e-02,1.053837681848839164e-01,-1.008419771297459078e-01,1.571088651466137354e-01,5.698130394990846836e-02,-2.279109554606155441e-02,1.664934676912714628e-02,5.842632851105084707e-02,8.298941169622146841e-02,8.283618458052596778e-02,5.466374223827842604e-02,-4.725343913321713996e-02,7.002975293804025725e-02,-1.089794298684899354e-01,1.311702180677892238e-01,1.305347379694642429e-01,1.891618029114622845e-01,-6.179398974422564347e-03,8.299061347761357843e-02,1.578943795422207974e-01,1.383406108450589145e-01,7.693081357669444287e-02,1.769517082959998766e-01,1.399016226006394858e-01,2.103792530745945966e-01,2.661894098636798447e-02,9.363245503623857102e-02,6.715378636831030590e-02,1.138511746398985086e-01,2.485459798453587207e-02,3.278454563113797349e-02,4.960068822535565469e-03,9.365727810176485701e-03,4.129917271589713702e-03,-3.077935603335465314e-02,2.827328794411901325e-01,-8.439114879378030454e-02,-1.173070596709558100e-01,-7.961505969915097514e-02,-7.058891792277187383e-02,3.995726878913809579e-03,1.646080246979459427e-01,2.084911933334429868e-01,7.398839604708251638e-02,-1.804092069745121540e-01,1.114928475890139825e-01,-5.532088690207476872e-02,3.826192573136455444e-02,1.385167528048115515e-03,1.787907214436587067e-01,1.039071707991196525e-01,2.208172392920203786e-01,1.683480789753143969e-01,6.725667784766078960e-02,6.382294396208383624e-02,1.326627580798136197e-01,-2.159942851316351380e-03,1.158598839765166422e-01,8.986692850877300159e-03,3.048229708582649369e-02,8.447900788484807855e-02,1.359186500548262844e-01,5.247819720066533578e-02,5.840234381089083604e-03,7.206859339750050497e-02,-1.545476471059493151e-01,1.639761133085199385e-01,-1.323700849789768430e-01,9.160890905750516955e-02,-4.403672575539496759e-02,1.028120861252703327e-01,6.325134822208197671e-02,1.175785166399667125e-01,1.098485871800064864e-02,-1.251194677529226806e-01,1.489863469552338837e-01,6.377854887466689882e-02,8.518691084623583598e-02,8.438771434826751461e-02,3.278731742376844727e-01,4.509381176060719976e-02,1.199271351626594873e-01,-5.860686894769812083e-02,1.923293542699844316e-01,-2.674976050221214430e-02,-2.421796728367328899e-01,2.733298412335048444e-01,-1.072917046110515582e-01,1.332360975651661894e-01,7.466765988566453904e-02,6.544917839409522542e-02,-2.314848300224843849e-02,1.891987510625335947e-02,1.223934786833590638e-01,-2.998219159382079987e-02,2.541601413574029120e-02,9.331343770312500174e-02,1.340242007391962906e-02,-1.125119296912453120e-03,2.136407933367494849e-01,1.195549711314219804e-01,7.360137352886927942e-02,9.218110558101800731e-03,7.924436079006738631e-03,1.966655023904962385e-01,2.164966883780662377e-01,-6.786918778908822281e-02,5.588048165887437441e-02,1.955273852957991054e-01,3.220531138838871876e-01,2.643515313640675823e-01,1.235827179007866483e-01,1.524179815676224292e-01,-4.954041052350753593e-02,7.580837850252500343e-02,-1.243167414129997678e-01,-5.510709692386690089e-02,3.220668279617335678e-02,2.168098838660739436e-01,7.479633299809304581e-02,2.738270906665687954e-02,-1.700835626858484759e-02,-1.322698621166392419e-01,6.029008067454081493e-02,-3.275276810547819717e-02,3.621477572085567836e-02,-5.778432290008220923e-02,5.611462660327815738e-02,-1.055020409088355399e-01,9.800477802930027127e-02,1.856305921939830628e-01,1.655245096466330113e-01,2.985728388008477840e-01,1.303552697149497064e-01,1.600849027596140672e-01,1.542200176266284861e-01,-1.139039021154244873e-02,2.763775873302561359e-01,1.352389807685331624e-01,-1.353758658013182355e-02,-8.883326569968721942e-02,5.792605360938936354e-02,8.485819552098666785e-02,1.229820159994352534e-02,1.811077258438280671e-02,-1.878995830237111322e-02,-2.704039038769565778e-04,1.335141327718631366e-01,1.400617885804689988e-01,-1.500176883494792057e-01,1.442399998208819013e-02,-1.193121994589651652e-01,-1.238401858688175511e-01,7.640554815155087276e-02,-6.449963809693137762e-02,-2.962008350224669684e-01,8.064269841314261611e-02,1.443740791257278611e-01,2.324430553096344665e-01,-8.897787961570185989e-04,1.909689627142172053e-01,-2.084962935428660846e-01,-6.279075996730183740e-02,8.858899471524815661e-02,8.231121188660416033e-02,1.706920985673038849e-01,1.129534399359678476e-01,-7.234188133248555322e-03,1.507435137635883549e-01,6.927302857851599938e-02,1.712452767178599677e-01,-8.183062521033915293e-02,2.936124912545164112e-02,-4.294465074794756587e-02,8.059346175135768953e-02,-2.195521670941655637e-02,-2.518521972500832942e-02,-1.326489647776787906e-01,3.081619552768596546e-02,1.129690995112736518e-01,1.135395092210634560e-01,-2.881501130804595689e-01,-1.493504586074415053e-01,2.034469473588708943e-01,-1.706194774428003783e-02,-1.098400339753187460e-02,1.271176641987251943e-01,3.909677897963025062e-02,-4.059593366507313617e-02,-2.268350760505736651e-03,1.961513900323624271e-01,-1.232788117748032514e-01,1.561738354121526839e-01,-1.958579056427769971e-02,-2.611121943666471282e-02,1.848620358426982246e-01,-6.539205962136816763e-02,8.354726923937075278e-02,-3.695130340215811021e-02,-1.433486120628462424e-01,-1.661485146099203614e-02,1.168919080946066030e-01,-1.858977376896521483e-02,5.494218269801783017e-02,1.885533152801626561e-02,4.683135799744122217e-03,-4.174978227341644144e-02,1.317900663757000206e-02,-2.023859420909810969e-01,-4.316185341758678462e-02,-1.786632830776376524e-01,2.790804695786890804e-02,3.733382783011108402e-02,-7.783468668528886747e-02,8.949527050325957467e-02,6.008613119001151442e-02,5.063537957108257825e-02,-1.775828083315360295e-02,5.397993521453631205e-02,1.119487445657477154e-01,-6.088830011556481403e-02,-7.706142363575393950e-02,1.210718689803199216e-01,-2.310059682820990168e-01,-2.618024873562765920e-01,-1.809724979687815927e-01,1.833422131239816760e-02,1.519166796063830052e-02,4.965049658060747412e-02,7.597741465751291570e-03,1.537379807730997472e-01,1.575783445862164178e-01,1.159010638862956188e-01,-1.155800271487535391e-01,3.635778859904440635e-02,-8.662026807009420848e-02,-5.007102696728375074e-02,-1.023358835136420064e-01,1.062697928927815562e-03,5.439992782711015884e-02,7.842438588499945143e-03,-1.192996524248244872e-01,-1.523398603292536180e-01,-7.563894807711063484e-02,-7.678933329828212251e-02,7.912135627775689073e-02,-3.157610021926290228e-02,-1.820084772129512696e-02,-1.509266620267445819e-02,1.100900317903249631e-01,1.638837637618026088e-01,4.289503627897062188e-02,-2.465313119294175459e-02,1.409727525685713079e-01,4.428887099194595695e-02,-4.204544728488820993e-02,1.010573711297539784e-01,2.072299460115002365e-02,-1.434030728952084555e-01,6.269063059702961738e-02\n2.998252017752905604e-02,-1.856641422224066806e-01,-2.151043155203957724e-01,1.363010053702723434e-02,6.833562545792691567e-02,6.085800501276962537e-02,-1.360979773904555934e-01,-3.470099491115854334e-02,6.665899190285885789e-02,-1.535752208791891504e-01,8.528298217914625709e-03,2.133292693976544807e-02,9.237624630962984473e-02,-2.453124933513262940e-01,1.458250239136115942e-02,2.018156756378384487e-01,-6.212073387910747174e-02,-3.162393276322202768e-02,9.539922302183480307e-02,-7.631426010826766748e-02,1.156954884598025146e-01,5.405331612446118150e-02,-1.574073425133733772e-01,1.005934176797257384e-02,-1.458981958986977912e-01,9.525478184314950525e-02,-1.680674472771311878e-01,-1.811753714719138708e-01,-1.137304411274112637e-01,-8.030726661534776101e-02,1.314940787518026066e-01,-1.825753517404700953e-03,2.910045222888808791e-02,1.074899715149303103e-01,-6.980476177716275765e-02,-5.787420341303999016e-02,-8.477562321057939554e-02,7.848939826763275118e-02,1.633468655046153573e-01,2.639264714869704251e-02,-6.246521604175481884e-02,-5.211259206198314009e-02,-1.112382387997299660e-01,7.317707793735750421e-02,-1.062094053736757082e-01,-2.546556139147180403e-02,-1.169688018838734023e-01,-1.901085809881374877e-01,-2.540490696250890523e-01,-8.899806621362942038e-02,2.180586402154109649e-02,-3.178170718713177467e-02,-2.235748874552202781e-02,-1.071379880386700845e-01,-9.316815621596365171e-02,-1.067702342894354950e-01,2.112336611600396097e-02,2.047654837143558226e-01,-1.363725087115081822e-02,-1.369282826523602337e-01,1.272621426759358298e-01,-9.985659346312540652e-02,5.571113486985988794e-02,-4.438665059729364482e-02,7.798840303764693546e-03,3.430444451688303142e-01,-7.460621566792777215e-02,-5.803547370248790527e-02,3.799715367794909843e-02,-9.847163240186513830e-04,-3.952271011809464080e-02,-6.714748004621665101e-02,5.982807523652329540e-02,1.077896819009716151e-01,-9.521357479881398245e-02,-1.140396309609476438e-01,1.829795307558632900e-01,-1.424129053914326981e-01,7.157263263864752090e-02,4.394253817161201947e-02,-1.103009174549133831e-01,7.594892182190397800e-02,-1.103216346273086235e-01,-1.089551098463041739e-01,-1.389550238470516064e-01,8.342832052517575037e-02,-4.493458612482258835e-02,1.085244071828855572e-01,-8.103860843076064746e-02,6.140492378883965346e-02,1.406390447525147080e-01,-8.255292821371967849e-03,-1.113951912379337744e-01,-3.230927711559739013e-02,1.285405335852047581e-01,7.723717242256623872e-02,-3.288340151003744938e-02,-1.677032097857991400e-01,7.744991493839047114e-02,1.696241030459425814e-01,1.705104807470009809e-01,4.674327528788554259e-02,-1.742209369584134596e-02,-7.835421765567822383e-02,-5.772326011083934311e-02,-1.651981120838373340e-01,2.133683015265047112e-01,-2.690443271096908204e-03,2.384425563532678871e-01,-7.454034854864702471e-03,-1.618330390074365910e-01,1.861565102277489558e-01,-8.598270238675055632e-02,-4.379082837910960868e-02,1.648550217347181102e-01,1.458540721813087748e-01,-2.028241616101902622e-01,6.317710560236613430e-05,-1.097398675765535042e-01,5.357707952055019984e-02,1.834737904803044051e-01,-4.526200011568342479e-02,1.619751327820960485e-01,-7.655651900535014043e-02,2.389203594310168322e-01,-5.560650937595021381e-02,-1.061456693961329925e-02,7.733125175573024590e-02,-9.311450579005479955e-02,1.910259364097886270e-01,-8.548460253370579465e-02,7.575242552471547763e-02,-1.184268209160975194e-01,2.077642109266561801e-02,4.068648751936233127e-03,-3.700251475906938398e-02,4.969578322386315750e-02,-1.114144731747206130e-01,1.522416999475575683e-01,2.022190061681303913e-02,-2.791444037921832488e-01,2.005561575887981063e-01,4.526652194046028310e-02,1.552820889125179626e-01,-1.745438770950830457e-02,-2.250678865830483544e-01,-4.026742111261050194e-02,-1.165289933656772220e-01,8.044137459483648861e-03,-2.546225518141980240e-02,4.707449808120565266e-02,-1.493035501914699026e-01,4.520745070518262382e-02,1.051761917668911882e-02,1.398543841401249932e-01,-8.364045443104931032e-02,3.334014194139030274e-02,2.350110402453235159e-01,-4.190977673895413674e-02,1.343278300914750312e-01,1.808925055080433386e-01,3.078383700302153234e-02,1.221756694467202586e-01,1.214984359163518574e-01,1.673576485642424005e-01,-3.622824714317184058e-02,-1.121776696910196415e-02,8.041841236909505475e-02,-7.456440496702340659e-02,4.805070736911763209e-03,-6.966196226560968097e-02,-2.334779237387574480e-01,3.274531507877505299e-02,1.710541368451770905e-01,-3.221671301059660791e-02,2.048335667587138087e-02,-2.209676478063902355e-02,-3.546227821607070979e-02,5.460364973731689220e-02,1.549499186138418583e-01,2.794640943581838122e-01,1.524959694443475400e-01,-4.609622995574621726e-03,-4.470237968512294491e-02,2.198514012157739006e-01,1.190909828660442621e-01,4.150493277346917892e-02,-1.065947335014375170e-02,-7.341943832298844508e-03,1.745719066587354817e-01,3.883818617309153093e-02,-1.056060561508363194e-01,1.135564619416438298e-01,4.447137775217036015e-02,-2.765411978426443249e-02,6.091952344279286113e-02,-8.276839535087039679e-02,9.640545679586608185e-02,-1.409103542700969602e-01,-9.069844887472179595e-02,-1.363316793646347780e-01,-3.608600863328643993e-02,-6.512585192664065159e-02,-1.976246710196496309e-02,3.931696523284514827e-02,1.062651633823023800e-01,7.224970591064745762e-02,8.816447430900682669e-02,2.302481875704635306e-01,5.644444837652269620e-02,-5.033074100809727808e-02,1.855477239329506867e-01,2.824333373938076597e-01,1.171478533702684649e-01,1.850437050011741191e-01,2.767901684332181936e-02,9.158914280045465928e-02,1.168133205929018786e-01,8.011467153877861735e-02,-2.085439155680281903e-02,1.899786987728422083e-01,3.399001773878398969e-02,9.509730870743067499e-02,4.229740865866734451e-02,8.736742379644760192e-02,9.333893840528598163e-02,-2.036588740883275156e-02,8.363205883074158187e-02,2.190852219383447874e-01,2.084676729336564505e-01,9.040560525780751144e-02,1.931243901845077771e-01,-8.245495104791107643e-02,2.006550979328892703e-01,6.380977768764624358e-02,-1.017757111533159342e-01,9.894464062529519099e-02,1.836176865379085810e-01,2.149714842341527571e-02,2.794198399562567992e-01,2.190790010705142010e-01,-3.715741964172416395e-02,1.913460612840555963e-01,9.998314586623757716e-02,1.804906112018410738e-02,2.313207374936499666e-02,1.644702327144243392e-03,-8.538547366385629278e-02,-2.355800395733531963e-02,7.936587225392614797e-02,1.465793399276897613e-01,1.470083188303344113e-01,-5.733603153729100593e-02,-1.167421260034124351e-02,-8.508202012603771625e-02,1.027467345405662785e-01,-1.624619750136159502e-01,-1.271331135656220135e-01,-4.859390579244812075e-02,5.631440178542487796e-02,1.870799118782922113e-02,5.415049340484610896e-02,8.207998239791301776e-02,1.156051596510282442e-01,-2.204055007296579563e-02,4.542771195526078970e-02,1.507378049246597684e-01,1.176276980916346887e-01,1.932746872499090107e-01,2.265061111117499040e-02,1.859245259506566994e-01,2.297634362570326327e-01,4.841601894483236329e-02,8.229837909225190540e-02,6.425590748043404077e-02,7.965200276612875718e-02,5.614732567585262873e-02,1.532812070185473607e-01,5.407397950473578907e-02,8.657432544129052554e-02,3.315277214867094063e-02,-1.040074024616782083e-01,4.348415874974913969e-02,-2.392088821643453128e-02,-6.063423376710409818e-02,-8.060811860213089319e-02,8.765108458115926024e-03,-2.625394272841568080e-02,2.531817249395139635e-01,2.266479229007423157e-01,6.556259981656857583e-02,1.583088230978066113e-01,1.874390755789723528e-01,6.049776512310393178e-02,2.756679348326206425e-01,1.768748904574083958e-01,7.434416673011867704e-02,-7.261658085489654246e-02,4.672575572661827673e-03,1.116296828868053870e-01,1.663855813350649873e-02,5.140445594536723062e-02,-4.283845865813692977e-02,4.871992672930502283e-02,-2.899825129471192073e-02,-1.465600632416261540e-01,-3.170121505795597122e-02,-5.716673616400975294e-02,-1.551657105432052153e-01,1.422337231192087048e-01,-8.018020776313857650e-03,-3.391194375073677825e-02,7.822682485320055223e-02,9.968074573678009122e-04,9.762066595372727307e-02,-1.077653861106707689e-01,-5.534020663208192442e-02,1.362229872783575768e-01,2.457684029320461039e-01,7.907244353828125905e-02,9.165312468994207817e-02,-3.281971332256366364e-03,9.403576577141674331e-02,2.345240344270096630e-02,9.041730680044800239e-02,1.907191609307929414e-01,-1.053764062891919262e-01,9.149572151902383987e-02,-1.818332847342742434e-02,-1.670395371168317128e-02,1.464781977828890913e-01,5.267913081113274887e-02,1.083547288065208336e-01,-1.676949911601582632e-01,-3.837852512662041221e-02,-4.540794520695860120e-02,-5.894510708208597349e-02,4.391281643356520492e-02,8.946730572048718078e-02,-1.110461553051859118e-01,-9.200911403966055557e-02,-1.130818619165237932e-01,1.435785264895071134e-01,-4.071276831771659770e-03,5.493921496315230801e-02,6.089430712126094047e-02,9.459642828264223577e-03,1.208906994636718135e-01,1.154130332900040329e-01,1.856124017203115706e-01,8.812280486001916602e-02,8.248468547216146474e-02,5.252386371263089576e-02,2.549878424484893213e-01,1.786547037697926721e-01,5.833562712756579921e-02,1.102547679360024735e-01,-2.971434005595111408e-02,2.219274832956658894e-01,-5.175047535816543892e-02,-3.718412405995077941e-02,-3.699250923982445177e-02,1.702421905990286199e-01,1.472922198904830227e-02,1.084419394543256615e-01,-1.102376108641105884e-02,-1.212221152114483502e-01,7.758896788556987612e-02,-5.579565214573574405e-02,-1.126378136669296259e-01,-1.062679992801789965e-02,1.216993924971156715e-01,2.564346779242476781e-01,-3.890781146144809549e-02,-1.072812077130111952e-01,1.971534504514600161e-01,1.162508491887513512e-01,4.710288590783649060e-02,1.643563107027798120e-01,1.887079546028812838e-01,2.888743878457759595e-01,7.357355710139876215e-02,1.973420532321193688e-01,1.389074004931537681e-02,-6.568115994383820315e-03,6.706113811747307918e-02,-9.726318013216084246e-02,-1.251821643772515757e-01,9.722528018508061476e-02,-1.965607511861597045e-01,1.154141459188789444e-02,-3.230514074552317400e-02,-3.730178556038259152e-02,-1.332539287277350881e-01,-2.035632691707013608e-01,-6.613179791289475196e-02,-1.069124766093547119e-01,-2.274475936885787461e-02,4.193650165841013300e-02,-1.336576319088192064e-02,-2.061950637517801638e-02,1.348048424526905320e-01,4.443577152207341813e-02,2.495199247639764972e-02,8.497948996337412186e-02,1.654882916201460274e-01,3.636636864949520653e-01,2.967359933548102124e-01,-1.782962211814709610e-02,-4.127876149282239809e-02,8.099841483057791669e-02,1.198279454009728712e-01,3.024917221108933824e-02,2.493171971990341962e-01,1.318110875551162520e-01,1.685575605332288451e-01,-4.001426154779004485e-02,-9.003365350625477936e-02,-1.067943685951581317e-01,-1.136103407787117728e-02,-1.258349263273168539e-01,-6.342745786786181672e-02,-4.309451354111289156e-02,9.498094501540738088e-02,-3.670641902719481986e-02,-1.207347456787114109e-01,-7.101247623659623712e-03,7.596675626844191787e-02,1.409810890936970817e-01,9.336348339916335920e-04,1.562115028882572199e-01,2.361640339286159018e-01,1.698214016624561007e-01,1.877731318837894403e-01,1.296276341387677111e-01,8.160388304338427046e-02,-1.054851422976896130e-01,1.493860556142068419e-01,4.204526385208850331e-02,7.775954048348915348e-02,9.276836541519944968e-02,-4.562003424701049220e-02,1.195139154932221975e-01,1.794522737183906064e-02,1.540490469888999847e-01,1.782316947679142213e-02,3.247137513306481982e-02,-2.728032742456662149e-02,1.476413357941715743e-01,-2.103734071499756553e-01,-5.329751234496488826e-02,-2.804904509899791565e-02,-1.445930713531587142e-01,-5.897580606530306718e-02,-1.802483123948235566e-01,7.156777595287612537e-02,-6.979549505894747097e-02,1.181553742653041750e-01,5.247394701544978030e-02,6.966530465489920339e-03,-3.414807166386572140e-02,8.727827029842138984e-02,1.948021948295340644e-01,1.218523349140083617e-01,1.644836539602002046e-01,7.680013038405377260e-03,2.338754963111120966e-01,3.249766597075798985e-02,-3.885197205988573377e-02,1.648910540444860073e-01,1.547165219308176409e-01,2.616167954455786947e-03,-4.306832302959247294e-02,9.227901759827165928e-02,-8.884138817401375510e-02,9.355452169172005783e-02,-1.387180519960789227e-01,-8.347409371022660590e-03,1.287466097238166868e-03,1.216079108122310737e-01,-1.779283662075209216e-01,4.981490067623703388e-02,3.262513718091780007e-02,5.666335304619667806e-02,-2.382583363233480023e-02,-5.714203437938817493e-02,2.652323286833134508e-02,5.578300357913737462e-02,2.540266878223517710e-01,1.536601526598491418e-01,1.522678098755755050e-01,1.962782927348751538e-01,-6.179126806740783961e-02,1.609213988700691211e-01,1.648854887924233459e-01,1.460898985815021756e-01,1.384010650336179281e-02,-9.220439838071325944e-02,-7.904812369688576923e-02,3.828731181474407524e-02,5.783247220067478517e-02,1.286532684623853395e-01,1.525369974740006518e-01,8.723079684033473169e-02,3.392874494393826809e-03,2.649200561346999952e-02,-2.348527294948830196e-02,1.063503976557618885e-01,6.668263071719125745e-02,4.859601697818110438e-02,-8.046645136588191638e-02,1.596359125097423504e-01,-9.760919815413567069e-02,1.777104595126302033e-01,1.648071074984067130e-01,-9.258388882311700818e-02,8.370452220234679552e-02,1.447189751244894185e-03,1.088652739040298911e-01,1.617456767274849661e-01,7.719012357613400099e-02,-5.383301104765629563e-02,9.782060774885073529e-02,7.969522832023738512e-02,4.283700838115504089e-02,-7.072819734916997725e-02,-1.439781389683790318e-02,4.028936817995202452e-02,-9.452376630802972537e-03,2.134510248943794486e-01,2.644304934126684090e-02,-2.043033788572034756e-02,4.825981214884560860e-02,-1.104469901488636663e-01,4.214806235707839466e-02,1.621518350367352201e-01,-8.186315552471223889e-02,5.042638549610694437e-02,1.168642237925996141e-01,-1.147444229005690347e-01,2.230528903751648195e-01,-4.488466300255450347e-02,3.374348929748866022e-02,1.091848142782776282e-01,7.679559985783372678e-02,1.941374841267611839e-01,1.202301610768841261e-01,1.542679537199908024e-01,1.007571174407661668e-01,2.275489526400722717e-01,-1.362302784904660113e-01,8.755661613556260658e-02,1.496099236907782147e-02,-6.632107190145064557e-02,-6.060703220774391053e-02,-4.278671576000957905e-02,6.398296501235548051e-02,-8.690614050769444876e-02,-1.516953750732578932e-02,2.753711229934424284e-02,-1.155791651099289385e-01,1.112957600777170625e-01,2.423680743390575210e-01,-6.474601657740645944e-02,9.910639349396618836e-02,-1.526444611766846100e-02,9.166132929657204442e-02,3.516756240601563721e-02,2.854848110867840849e-01,3.876016051417904146e-02,1.530432818815041229e-01,1.441548501426808959e-01,-5.174629904268982644e-03,-1.083215245505437380e-01,1.610318287752524058e-01,1.829281175063621756e-01,4.154706724723648825e-02,7.712447492205700555e-03,1.571331584262573022e-01,1.349557779091818399e-01,1.336945100982670220e-01,5.109436100171069889e-02,-6.030643541959167242e-02,-1.119814353037598270e-01,-1.961204456287262421e-01,-4.731352798466638594e-03,1.926046413353292019e-01,4.778977766185780324e-02,-7.974022576964553272e-03,-1.520745048405492406e-01,-6.635240438044924527e-02,3.594477165568312534e-03,-1.697143696098437488e-02,1.011410233488495986e-01,2.184983013742128333e-02,1.268748726570040064e-01,5.756900576309326861e-02,5.253287646975648983e-02,2.010747579782646011e-01,1.839841590810741348e-02,8.237313232000652297e-02,-1.072685938388323081e-02,1.133429079143776219e-01,2.055198283791501990e-01,1.576851161276853763e-01,1.423108940641913400e-01,1.642552323160177408e-01,1.102760612111724770e-01,1.065861716285450428e-01,6.193676485171049906e-02,-8.288306795897741608e-02,6.071278217189762100e-02,9.783538884063228136e-02,-8.773974953387325693e-02,2.433466004705198485e-02,1.082813072170249608e-01,-3.734764381737500083e-02,-1.321106685928636060e-01,6.462322105744188958e-03,1.601034745235464796e-01,-8.903543650019936362e-02,-4.825143679443240873e-03,-4.731167764752984561e-02,7.217928282012007687e-03,7.777973499712755034e-02,2.125311551132613441e-01,4.121337475583850170e-03,2.963146742124084243e-02,2.180756233981337444e-02,6.900640088336338013e-04,-4.691772834175498424e-02,7.233331440588281099e-03,7.039548090820767212e-02,6.758528006202282890e-02,1.696573781021456784e-01,-4.736875664028122185e-02,-5.569673961460518824e-02,-6.040269584461883251e-02,2.800616578959830294e-02,-1.265593831030836607e-02,7.991101186994220562e-02,-7.870648706744978740e-02,9.132984904233391876e-02,9.425131441200351734e-02,-2.624677020682750217e-02,-6.225374536090253624e-02,1.810659373196971816e-02,-7.910533354788501503e-02,1.996931423965787877e-01,1.665466928325785509e-02,9.230982879054930312e-02,-9.742989357811257523e-02,-1.387869519385724615e-01,1.151104084820444573e-01,1.108065956537485491e-01,-4.221586120264055053e-03,2.810030062659563468e-02,1.809570505605703761e-02,1.044329647250267917e-01,1.659963308760497025e-01,-9.725946668529296402e-02,9.696735688399520103e-02,-4.921316506213936626e-02,-3.530882169612293425e-02,-3.643516137489385184e-03,-1.268718441395307039e-01,2.879731416073147421e-01,2.433292075248373043e-01,7.553370398668374230e-02,6.571109069327174534e-02,-1.043587576158986063e-01,2.377348875883683044e-01,1.831726487140551522e-03,-1.233955099989665453e-02,1.203750578440731800e-01,2.607225090899087730e-02,-7.620432112912201017e-02,-1.874039514487068139e-02,-3.337712661605221620e-02,1.663730811321464248e-02,7.123770994332585815e-02,7.612994075840695540e-02,1.579036421619577635e-01,2.839257341889418751e-02,1.318786319486112690e-01,2.088680861477872630e-01,-9.030761215941408848e-02,9.615741324112825339e-02,-8.120509089907720912e-02,-1.190357291574095644e-01,1.817019625361691870e-01,1.232149244699183577e-01,5.837910968064415063e-02,-4.329091516152664548e-02,1.514234425987549537e-01,-1.365395683258100457e-01,6.865468611045181038e-03,4.855473239051760759e-02,1.287146415537391841e-01,-1.526427699373563429e-01,-3.064141356105101188e-01,1.153703132862659263e-02,3.174173223545569134e-02,1.738408881470522235e-02,-8.553568212584874986e-02,-1.802010763189624068e-03,-1.512259963023155629e-01,4.289005605265075460e-02,9.172534041388663573e-02,-6.777943342962483575e-02,-1.950028283421470776e-01,-9.647699388094933826e-03,-1.522397222973022497e-02,-6.888784144146374534e-04,1.359144740764012538e-01,2.013700950359066655e-02,2.141769879977789837e-01,4.381951685161104143e-02,-1.049351103692562348e-01,1.134462813216536442e-01,-9.225586538666829053e-03,-4.898535947533639440e-02,2.796334084654511498e-02,1.165940446977721361e-02,-1.557547393472451802e-01,-8.495203810762316787e-02,1.152008448097522619e-01,1.759278924598433463e-02,6.389859536932095130e-02,1.020152644515351925e-01,1.792613071632506994e-01,-6.390956783777182459e-02,-7.011590093215060160e-02,-9.213668908908115296e-02,-5.975991251447994312e-02,-9.067610836384838724e-02,-6.284825900398510485e-04,-1.184470006447808574e-02,5.536844446001729786e-02,-1.197493723539319738e-01,-6.294998303582913235e-02,3.983986116471551625e-02,7.154924343589218194e-02,-2.298850115867520083e-01,-6.025322472998975026e-02,-2.451969613686534946e-02,-2.038888793452205972e-01,4.512466593034313023e-02,1.207352710456825046e-01,-1.942096068837368961e-01,-1.565342865113687199e-01,9.525649093807238288e-02,1.135339501643512494e-01,-1.272775745084095689e-01,-9.876207127040620426e-02,6.594188067356808458e-02,-2.430237316935538600e-02,-5.213164307740236758e-02,1.594137379633442098e-01,2.977990384609698060e-02,-1.819448811824554146e-01,2.533117188526347666e-02,-1.405442617119737059e-01,7.410130017852460671e-02,9.810449661167217061e-02,4.384201314873165112e-02,9.273679553841585044e-02,1.964923991726929553e-01,7.359059255698101321e-02,-3.690963352254684332e-02,-1.092783681761411857e-01,2.302681844993762980e-02,-1.033982456388759796e-01,-1.440404024287856855e-01,-4.616941016092565575e-02,-1.778667532347057989e-01,-1.302082876301455250e-01,4.981347132029755737e-02,-4.768038204962970344e-02,-3.063482781025197998e-02,-2.591609865815979602e-03,-1.954191815725450365e-01,1.862237455182137735e-02,-3.829943066477540636e-04\n-4.520646971031836228e-03,3.428463105952827411e-02,-2.164927569406202290e-01,1.911829512041216539e-01,-3.033511147770678873e-02,-1.434213716989107545e-01,1.115298785398136094e-02,-1.271167723089402235e-01,6.639269984569035402e-03,5.406022320910384288e-02,-1.318896827433219954e-01,8.454264291238804130e-02,1.357364804323628674e-02,3.298690438505499228e-02,3.713693199089324049e-02,5.110716974207297342e-02,1.120361799575133599e-01,8.604544477785941448e-02,4.869103534737832806e-02,-7.643396262695974219e-02,2.863311024692068163e-02,-5.578339544058541488e-02,-1.448752273671571611e-01,-4.137687521102638606e-03,-9.128100967507607466e-02,1.135141385786538892e-01,-3.770919420042694818e-03,4.526256872071090891e-03,7.752061185930604614e-02,-4.181239219167975224e-02,-2.565948584104290817e-02,1.164671162298935442e-01,-1.383668870190275790e-01,-8.669264457924878708e-02,-1.334598797371702381e-02,7.699787488731658913e-02,2.887251748263361395e-02,-1.004855562177306844e-01,-6.745258152094037174e-02,2.037932868735792546e-01,7.339097967323182647e-02,-2.809432119988711229e-02,-1.275585701497545556e-02,3.948099383586679556e-01,1.668631207211108414e-01,-1.519516204543542304e-01,-3.954325921934419286e-02,8.325197592469842089e-02,-2.056787984143416612e-02,1.138699378114574889e-01,1.769003171342006797e-01,1.432704926177617161e-03,2.947395148619431221e-02,-1.686622867439575152e-02,8.827990661065271416e-02,1.499925163502086600e-01,9.343953739818500193e-02,-1.082977605711804570e-01,7.544439522404323972e-02,-5.585708070176558654e-02,1.848018631913742882e-01,4.764396249116864546e-02,1.032072800397163537e-01,-6.596531287681499378e-03,2.088936345956444313e-02,1.291987464421073262e-01,1.012944037005078651e-01,2.869924814043849914e-01,7.007320174242963329e-02,3.202909141999845666e-01,2.527926730323734050e-01,3.381411076074533062e-01,8.886540607908176292e-02,3.721029611004693649e-01,1.327901568086394812e-01,-5.376201229441328333e-02,9.741779014328429132e-02,3.205333954144358455e-02,8.192158120908994701e-02,1.462375301380829662e-01,-1.014676169727970062e-01,-7.330388130182689810e-02,8.040713038980740190e-03,5.675153985187858519e-02,-7.036149758564910761e-02,-7.931453150946521369e-02,7.722191402980761732e-02,1.047691290046698087e-01,1.418050638969289290e-01,9.999964221505843256e-03,-2.398881271190431430e-01,1.246399861966885486e-01,2.213533516896467601e-01,7.033904035209144479e-02,3.225173984228970614e-01,4.149426594981594496e-01,6.270893934154037064e-01,8.164745820760357375e-01,7.818489760992707316e-01,6.832292716868353377e-01,4.913293102873054208e-01,7.197084253138184007e-01,4.434185237530337553e-01,4.187784082699245181e-01,2.697551937923832188e-01,4.497482169396168662e-03,1.884325744412679582e-01,2.027743058318498826e-01,-1.530204525470721111e-01,-1.208655601678638447e-01,9.416780263550238519e-03,-1.049360321626716247e-01,7.602517470234038122e-02,-7.970638871104306078e-02,-5.134627445273293872e-02,2.643037310542924873e-02,-1.952460934749608856e-01,7.096084031331281738e-02,2.978941238245297884e-01,2.814515398271572044e-01,4.853609330924912313e-01,6.584996309179002028e-01,8.078587712291687151e-01,8.816351357256241306e-01,9.014217094315523093e-01,9.874236231781888806e-01,5.488886646209344411e-01,4.462730659318394633e-01,4.733893365790689534e-01,3.522412265215199567e-01,4.507812258436078023e-01,3.665755220195818231e-01,1.054508150480249762e-01,-5.903305753360038599e-02,-1.014069371820069537e-01,-2.538071759241411485e-01,-9.382938851607194874e-03,2.069874804590335002e-02,5.967856398885797164e-02,-1.349160225737304486e-01,-5.469719130389166795e-02,-2.622538736045713220e-02,-4.507853016275555069e-02,2.316950086997473374e-02,1.321274094152186940e-01,2.881151081778704492e-01,5.295132598445748684e-01,6.105948010029046413e-01,7.093892973497034626e-01,4.292369368129863028e-01,5.197785647634779460e-01,3.469442942030298571e-01,3.670374526712683050e-01,4.398306895775284664e-01,3.504843650173732894e-01,4.194934913929427300e-01,2.052631484854539334e-01,-6.477185884988546638e-01,-4.719794286094737279e-01,-3.417010218507885999e-01,-2.259567319134293817e-01,-4.803841334915455175e-01,-7.219779255521699968e-01,-6.582194353690717925e-01,-3.051064408994514365e-01,-2.315584087468208069e-02,-6.459567267100402299e-02,1.095552438387242290e-02,-1.217846050759177623e-01,5.774148119549685036e-03,7.003949544949111816e-02,6.258455842178260731e-02,3.959695209787730263e-01,8.086985107389967897e-01,8.227280396837834964e-01,7.605482935080185580e-01,5.079384432166867969e-01,2.135978525250277482e-01,3.671182049737578001e-01,7.983160635115150727e-01,1.072698414652170640e-01,5.409629175051950956e-01,2.027288242690678255e-01,2.405192079724293996e-01,2.015889016869396588e-01,-4.275131971869338687e-01,-1.274191530393521399e-01,-7.132963837297235932e-01,-4.484981030363398569e-01,-3.639290828799584543e-01,-5.934426194707718150e-01,-7.961557060140721509e-01,-4.366099159711762656e-01,-3.568506317342199363e-01,8.638462207300909301e-02,9.288420318135048870e-02,1.038076810890396252e-02,1.741551566909430374e-02,1.781500982917972320e-01,3.371443728646847382e-01,6.734831317127973893e-01,7.123775466822284130e-01,1.077252086824699528e+00,8.081410436737970215e-01,1.593148887186722207e-01,3.591006111403112766e-01,4.332048916622979196e-01,6.524479645042540188e-01,1.004830500205182719e+00,9.446524568610934480e-01,6.162865704437253678e-01,3.696072448848077285e-01,9.778169117731236315e-02,-1.702663765210040703e-01,-5.502532172660506982e-01,-2.749984346511489819e-01,1.517770433887455639e-01,-1.348510235171002797e-02,-4.544165766349270719e-01,-9.254899895690147371e-01,-8.763867145341273091e-01,-3.559573022846756474e-01,-2.858956999094675044e-01,-1.484773407992421301e-01,1.597636962847209519e-01,6.484456757084258727e-02,1.303239423700044697e-01,3.793244429784672911e-01,5.750119673152074284e-01,9.087790283869022767e-01,6.463205640047566813e-01,1.567446609703175564e-01,3.052610676781854493e-01,3.590912472274056522e-01,2.822727756683285905e-01,8.776814427082481052e-01,8.882688418109195849e-01,1.079471953397977968e+00,1.316341204859434733e+00,7.421152442771995483e-01,2.778071225796440724e-01,-1.127836908361281587e-01,-2.302225108846867874e-01,-5.514751395007846946e-02,-9.215905825075554336e-02,-9.673035976090973639e-03,-4.045022241339636948e-01,-9.418554018739410116e-01,-9.058970361223273038e-01,-6.055615843163540957e-01,-1.809035135631577307e-02,1.031240490342682781e-01,7.425066910361662054e-03,-9.133930442574016151e-02,8.879812588934538065e-02,4.199549905238132985e-01,7.474188986580977412e-01,5.498980464046563377e-01,4.026369753948884633e-01,2.371024729089944022e-04,6.165170023747295475e-02,8.933166766358249800e-02,-9.871639298829591735e-02,-3.280958910937350481e-01,4.598483186863718819e-01,1.013603392866619712e+00,1.443000462146058371e+00,1.407963564915803323e+00,1.274048586922774895e+00,5.192410006544028178e-01,2.778640583754853344e-01,2.886427761727959965e-02,7.089734587583085279e-01,5.489164781896360701e-01,2.825636334434463715e-01,-3.586085070386319518e-01,-6.899971824929227449e-01,-2.572741926584480310e-01,-2.258838756384174140e-01,4.501962311684842843e-02,3.207611860134278875e-02,1.961724908513919063e-01,1.639441590621475153e-01,2.942329560795659549e-01,2.806832895456368715e-01,4.789182126825184960e-01,1.464241354819836860e-01,-7.650867161999302946e-01,-8.056368391419288510e-01,-1.504886553373421920e+00,-1.393828697006322059e+00,-9.297625400751817759e-01,-7.812984654107684168e-01,4.014691768268754957e-01,1.053320662207177127e+00,1.303614292308386213e+00,1.047233138084202375e+00,6.304107258694003901e-01,5.380487808602909539e-01,4.325217872114925366e-01,1.066153249559549820e+00,6.955391542076058142e-01,5.189437516041720544e-01,-1.554331175420231859e-01,-3.472589120676403684e-01,-1.499643810742408157e-01,-1.076782688145530714e-01,1.004905190863688291e-01,-1.537632798953353641e-01,8.743758896229536504e-02,1.841420547081976666e-01,2.757446129088751419e-01,1.748753584930124172e-01,-5.771790523793517147e-02,-5.033676171894359008e-01,-1.336299674431632445e+00,-1.827391361481303766e+00,-1.861236284463707369e+00,-1.486531299325133837e+00,-1.277605216124069853e+00,-1.151408039700867025e+00,-1.312384372193586834e+00,-1.831373556812700698e-01,1.197826888873758933e-01,-1.572279620616067464e-01,1.794325556021394152e-01,5.948579868472017029e-01,7.298480551031463204e-01,2.885654688297324411e-01,5.851021509443273677e-02,3.498590217935191871e-01,-9.886606682657513023e-02,-1.393782177476874662e-01,-3.705271721210798286e-01,-1.281861943510579083e-01,-8.398338440924177362e-02,5.045954965546924770e-02,3.968365809370292402e-02,3.074875436879319010e-02,8.895772289521226839e-02,-1.085623638022554238e-01,-6.090763914084855735e-01,-1.156089761566445162e+00,-1.737420707361109429e+00,-1.624644749021672219e+00,-1.199100162748203857e+00,-7.844014518393234159e-01,-1.182448903345363567e+00,-9.224065710359220516e-01,-1.156422117057658738e+00,-5.506925147564450951e-01,-4.690340614708603528e-01,-1.462612739884512798e-02,1.303180070106205457e-01,5.999024954977776741e-02,-4.149478675658004878e-01,-3.226460427764424876e-01,-6.452042370975415164e-02,3.105285873556144494e-01,2.626254783675220361e-01,9.822987754813870820e-02,-8.221568774644508193e-02,-8.308864808969579352e-02,5.519998924984820948e-02,-4.545614119536574987e-03,-2.437817341679711647e-01,8.078794321184756821e-02,-2.413406676709848805e-02,-1.499702447427907204e-01,-4.311979624646881670e-01,-7.023078191457353681e-01,-1.444585836663834000e+00,-1.006878111310998136e+00,-9.336912359729189204e-01,-3.646270124583433359e-01,-1.041547332471607579e+00,-9.239144833150405578e-01,-9.498615345853811398e-01,-2.731128306564226116e-01,-8.379343632008358078e-01,-5.423914501090497664e-01,-3.192555314736362782e-01,-4.284422755156352958e-01,-2.774220206388254284e-01,-2.417929753024560535e-01,-1.398237475086966664e-01,2.158063567971077734e-01,5.699104625535524882e-01,1.824305599887583729e-01,3.403901465664469633e-02,8.147929288204433518e-02,4.659414071812298386e-02,-8.432323889659237154e-03,-9.834816962179392108e-02,1.147258570386685932e-02,7.813358000475653653e-02,-1.882315618566810789e-01,-8.922835740352336176e-02,-7.363610534599478175e-02,-5.522732854280743009e-01,-6.060398749590115708e-01,-5.865401257886508901e-01,-4.186194179145094618e-01,-4.483030233546407839e-01,-9.363621540671179799e-01,-9.873901013701890106e-01,-1.507900409631254823e-01,-1.737375263489656929e-01,-6.289234272335638698e-01,-4.308092183036005829e-01,2.040660165127447245e-01,5.366358220060284401e-01,2.788302350659213058e-01,2.385805320457242973e-01,2.672396836813881738e-01,2.509811001928863861e-01,2.779313069652063484e-01,2.084825378234824236e-02,1.321920236015603489e-01,-8.761374389719532585e-02,5.628924138818060946e-02,1.686303480186313875e-01,-1.296020200801219491e-01,1.182077396732705843e-02,1.761325011561584372e-02,3.628571993514131261e-02,8.681566600866856553e-02,4.895649552364000207e-03,-4.272960446593346284e-01,-2.136736913339210286e-01,-1.447782846953966085e-01,-6.241866660730032157e-01,-9.911489623502339752e-01,-1.849857404079092715e-01,3.794529524025321843e-01,2.906550175924970669e-01,-6.499273971560284302e-01,-4.966031513148429499e-01,2.807530783205519076e-01,1.137796504801567465e+00,1.214075041878606820e+00,8.607568490429882146e-01,4.169931167092533197e-01,9.348132710331471043e-03,3.925829474880740411e-01,2.589011953948712197e-01,5.092912444484416767e-02,4.601466553920093190e-03,-3.220587671701600607e-03,-2.758874444007207438e-02,8.988566585175085388e-02,4.141114008335341351e-02,3.006776790867184967e-01,2.283116773047559889e-01,2.318637520615769720e-01,1.128753386149753540e-01,-1.148061224174743572e-02,-5.386842422564810939e-02,-7.129642804442425097e-02,-4.914168835502504273e-01,-7.454290962081013827e-01,-5.175490458120609594e-01,-4.122025330407518701e-02,2.484564641088225501e-01,-4.593619560170910665e-01,-2.334178120178891092e-02,6.037293873314391046e-01,1.292171307991870632e+00,1.444407090855177378e+00,1.313036024694194781e+00,8.574285979256214274e-01,4.313491667063439339e-01,2.650540615892265639e-01,5.213415597144125530e-02,8.859889253766471684e-02,-5.452126631764640102e-02,-8.170226840933198995e-03,-1.992966414444457546e-01,9.699428983101192336e-02,2.880912261732364033e-01,1.560850923217666775e-01,1.144784620508675493e-01,4.466720256971222491e-02,-8.734734481902446668e-02,-2.014081473464839414e-02,-3.954735877391100107e-01,-7.580630194479502926e-01,-1.254548436806945722e+00,-9.326308110038076249e-01,-4.137647972651438688e-01,-2.818112292353229242e-01,-9.291095713361396946e-02,-3.361282111212491874e-01,7.414108750814785154e-01,5.080395008974192272e-01,7.186146991489350544e-01,1.250512814974954034e+00,1.082633896580236010e+00,6.825854167766577385e-01,3.639059812941364824e-01,9.827389985976574260e-02,2.326160694199390089e-01,1.105205454008963695e-01,-9.207775221082670214e-02,1.048189972172031692e-01,1.392884291268833008e-01,6.878093629404891107e-02,3.243525098769726167e-01,3.622866404915875971e-01,1.811234203581833790e-01,2.569043590808199884e-01,3.431403001031285011e-02,-4.274403535906476370e-01,-6.409572134280416833e-01,-7.683496222663903641e-01,-1.010504838581240517e+00,-1.934923094683130285e-01,-4.526813362386354900e-01,-8.069513970000681546e-02,3.384328575367142600e-01,3.821082934657574204e-01,1.184931117851447224e+00,1.706293092717160675e+00,9.179393081088238482e-01,7.669872125924583894e-01,1.240678104521319103e+00,7.347573214015040710e-01,2.362233957636897252e-01,-1.115678972268912932e-02,2.476321799331517581e-01,-2.993238677375461426e-02,1.816877309964434473e-01,-5.888495786513956581e-02,1.179939460263838618e-03,-8.695280428042503895e-02,3.672466282628398804e-01,5.892490854861945904e-01,3.113414022576392326e-01,1.099580741363681141e-01,3.269556111224619643e-01,-2.925863053155341453e-01,-3.601127943410074028e-01,-1.291873656402789117e-01,-1.065334993927342100e-01,4.367296729590356974e-01,1.542982314005663935e-01,8.124541298725533878e-01,6.141695513998604028e-01,5.295244935050421597e-01,1.483712343675776424e+00,1.229123322806457752e+00,3.700046996564424484e-01,2.160649506551723109e-01,5.095925073297646879e-01,2.864748692699823907e-01,1.119101279822677375e-01,-8.572617038972285552e-02,-6.197504017542605770e-02,-1.361973882962548218e-02,-1.415291057089785587e-01,-1.835899041290859623e-01,3.425548125719869719e-02,-1.499188291976948362e-01,3.738974276803429531e-01,8.926311595322337089e-01,6.054642014025564123e-01,3.081898549201403381e-01,2.724878734143292847e-01,5.949889524004268668e-03,3.603129860916663429e-01,2.710785828273715725e-01,1.968629173424228940e-01,1.650141277922546335e-01,1.389836267569274364e-01,6.867546560700268365e-01,5.067052052708733711e-01,5.724696848448636022e-01,8.626420620899718505e-01,5.696285761969219763e-01,-1.159234822483144883e-01,-1.393726612890449079e-01,2.856892733907777648e-01,-1.639495527623876028e-02,6.454618342117501850e-02,-7.377906194385341898e-02,-7.380802324254295832e-02,1.677476319716785791e-01,7.849672326196294181e-02,-6.847799360278887526e-02,4.234925956294161541e-03,3.082720522559295392e-02,2.455737234666581503e-01,4.959851316324804804e-01,7.254729380346885970e-01,2.858569584842697298e-01,5.177986270718690776e-01,5.707544738596260769e-01,5.438783237164028506e-02,1.055520846287257980e-01,-2.171655527576203115e-01,-3.237193521221995995e-01,-1.605917689014204341e-01,-8.881597012989224382e-02,3.590651148048706887e-01,2.436490228227690680e-01,2.643385079164883300e-01,-3.444377748602521216e-01,-3.290596868684602661e-01,-7.070885781943950787e-01,-3.539804135689436637e-01,-2.377583249847847746e-01,-4.007603812826306122e-02,1.429943015295874753e-01,3.945398885893197476e-03,1.088045888307662412e-01,6.995875909094184664e-02,1.030715357906942103e-01,-3.479483756164804265e-02,1.251197683990256937e-01,2.664776076591172105e-01,5.416740554040577749e-01,7.838102450572935753e-01,6.774778428569518951e-01,5.631023591675281548e-01,8.251057893602039561e-01,7.608264622733535987e-01,5.028403306829579145e-02,3.163345617806605919e-03,-4.771038380992389527e-01,-4.525918441281635007e-01,-8.116207909400309228e-01,-1.261478829966310444e-01,-2.145210463286238711e-01,-3.198880569067212853e-01,-5.844927584329966397e-01,-6.481634313022124338e-01,-5.572864005221995765e-01,-4.732758103942195649e-01,-1.358455795759623552e-01,2.189139295497046292e-02,1.649524121679384753e-02,4.960278691995510109e-02,-1.764475372584584090e-01,-7.718928855952413015e-02,-6.226565784556466199e-02,-1.506596141383785038e-02,-1.283811940229405146e-01,8.070144313100617930e-03,4.481353706816929572e-01,6.490775809161868359e-01,9.832646786921744875e-01,9.869933912677241183e-01,3.921288331496984303e-01,4.874131271258380638e-01,6.836167764762188792e-01,2.100085157585373785e-01,-3.093964869627205405e-01,-2.094473627937555871e-01,-3.080841655601238571e-01,-4.514713980135726112e-01,-4.779538280671916106e-01,-7.359843716617916476e-01,-4.514957760648092844e-01,-9.204259716074775222e-01,-7.032682777457915924e-01,-4.374359791960982236e-01,-8.560129618281921149e-02,-1.094256371617484402e-01,-9.272606249061129957e-02,8.627667939661527730e-02,1.910709822564181370e-01,2.301283761878850642e-01,7.724558045656564065e-02,2.884758882653989595e-02,3.910335264253843313e-02,9.566131495974318499e-02,2.649164589711600626e-01,7.718490853092258019e-01,9.296684813059609143e-01,6.664256177766568756e-01,5.615830866123548981e-01,3.538079738882164427e-01,3.921515123181351647e-01,9.290915739186329514e-01,4.455950708187080833e-01,2.402286738860157922e-01,5.398293195228449637e-01,2.249806051884108427e-01,1.017070164132023863e-01,4.482987793236094948e-02,-4.317598998831153057e-01,-5.811388611957045702e-01,-5.306558943626493718e-01,-1.889315505549877539e-01,-5.421480146850043980e-02,-1.589172668481747541e-01,3.048497646836952346e-01,-1.148611072830190843e-01,1.177625622336543783e-02,-4.702732775659126951e-02,-7.025405413912373664e-02,-6.679385164694476296e-02,2.441792539146234956e-03,9.462826189603834592e-02,2.293170005216853824e-01,2.567510932858305672e-01,2.237434362086454243e-01,4.552334352959584995e-01,6.982475617633440157e-01,9.138661511110474089e-01,8.184584977402512562e-01,9.291108793016462641e-01,1.110953661677087201e+00,1.017857861494395166e+00,4.320389779598385327e-01,2.868747517952979220e-01,3.547674550355633949e-01,1.955599014224800036e-01,2.675972328358933727e-01,1.467280291013285387e-01,-6.340671515750510856e-02,-8.413719276611079587e-03,1.082263346869609399e-01,-8.074628097442802799e-02,6.156217320957804717e-02,-7.545326178990319210e-02,3.793399701601037066e-02,-1.274661820520025524e-01,-1.136913822069470226e-01,2.088481804549088550e-01,1.316468172402232920e-02,1.103726543420181228e-01,-2.593699935000332579e-01,3.145903289276964776e-02,3.459902936061581141e-02,-7.666509183149722295e-02,8.528947875955522617e-02,1.362970149386914243e-01,3.881596501951567468e-01,2.386114539931313283e-01,1.458621979492065457e-01,4.238300104054308903e-01,1.561992664759802862e-01,3.897131886500163622e-01,3.546059693713374261e-01,-6.288257584165754532e-02,-5.282170388584443363e-03,1.058453492040810490e-01,-1.572326942297147812e-01,6.429588103266636878e-02,-4.141050592981238704e-02,3.900180992843990668e-02,5.381342627219008051e-02,3.745930164499115811e-02,-7.468172406559463183e-02,3.353786731489009215e-03,1.220222478276683370e-01,-1.845998325913380048e-02,4.466743622987070367e-02,1.648747795073854105e-01,1.909555693447829994e-01,1.554963001734899486e-01,1.527971885357517871e-02,1.603394781886679360e-02,-1.040710914857194413e-02,-4.127465345376886419e-02,-8.120132057706059073e-03,-1.258907656519930029e-01,1.008848712774573497e-01,2.956460434663992637e-02,1.053597920422390533e-01,1.207652930322696549e-01,1.787827116461445098e-01,-4.379227538967361832e-02,4.238101243648770625e-03,-5.412365544047533644e-02,-1.432877193538351634e-01,-6.554785825397843602e-02,-7.079240859880879533e-02,1.153171557233304834e-01,-2.739141738963787875e-01,5.103149781599827794e-02,-2.536193208322729681e-02,-4.576626676820923223e-02\n-3.060364967374900116e-02,4.657575557576121295e-02,-9.797565054204126697e-03,2.378239620768550777e-01,1.968457647342115521e-02,-4.708433098773226466e-02,-5.296753688246611663e-02,-2.161756814166414589e-02,1.590556729913435163e-01,5.431137214467075813e-02,1.377037456655711423e-01,-1.264210973989655373e-01,-4.871352785751455888e-02,7.195217488804596905e-03,-1.979393798898120352e-02,7.030799737055763721e-02,1.051500717385532302e-01,-3.661232601021421201e-02,-2.872050250287266904e-01,-9.228191871680530012e-02,-1.200508303933800758e-01,5.825205566485962966e-02,2.043469979931161751e-01,3.430748186148232376e-02,1.819773086209831026e-01,3.380169117836739900e-02,1.122974756204621061e-01,3.241130623760645618e-02,7.553743342106331027e-02,-9.269924740426355170e-02,-3.100947775221288283e-02,1.508111571640253223e-01,9.297089939383092194e-02,-1.355191262004369623e-01,1.074283120067671266e-01,1.230188841722706650e-01,-2.787207513727102057e-02,3.331050918690391105e-02,-5.779428254778736646e-02,2.856272250064907994e-02,1.410921778310515740e-02,-3.952987482116083334e-02,-4.752215020435062234e-03,-5.490632930950493235e-02,6.957868409372704177e-02,-6.448027870874835366e-02,3.471144405570821684e-02,2.721432850422672578e-02,-7.901517837835730917e-02,-3.997839035138544411e-02,3.117295277634924561e-02,1.374359824551121545e-01,-6.405024562481323458e-02,-1.238548514654574939e-02,-1.862524436112093090e-02,-1.753406913043752680e-01,-1.478869689321320527e-02,7.519208813872224617e-02,7.813188244547286665e-02,-4.800346830060993331e-02,5.356749255097290746e-02,-2.488791303742304492e-02,3.540917624800086344e-02,9.220664009271939410e-02,-6.900753042655634328e-02,4.575235372499868863e-02,-1.686933905037244774e-01,8.986711701852632961e-02,-1.603500276535494706e-01,-7.918602701800074931e-03,-2.121153353566624863e-02,7.835183145896279511e-02,1.663103845561118566e-01,-3.768429557110429540e-02,-2.093584462385932390e-02,-1.198189380621257627e-01,5.164626525303084997e-02,9.689252335163077434e-02,1.164166157862937812e-01,-9.987242094213850951e-02,-8.759518072322147741e-02,9.045550470760108097e-02,9.391726718903264937e-02,-2.049993228507018816e-01,-8.165614651768834942e-02,-2.194892647036275624e-01,-1.911836755638833540e-02,1.416779951145907650e-02,3.467862353362631544e-02,4.492610497711231610e-02,6.361771519791975527e-02,-1.249410979500071781e-02,-1.515042972910188024e-01,2.056103253931141142e-02,7.201647728305622664e-02,-1.447246298506461304e-01,-1.011618364972772383e-01,1.147472303047268050e-01,1.550062882887119353e-01,-6.597483827745957707e-02,-1.645300723544300403e-01,-1.068806354231820188e-01,-1.165353856958332573e-01,-6.947577133933723059e-02,6.706893783461484460e-02,-2.022822479717139299e-01,-2.078413206467525087e-01,1.934868749592155990e-01,-8.050211426208415955e-02,1.182609466191138908e-01,-1.845277055757420515e-01,8.586039353798408102e-02,-1.413940142040614745e-01,-9.873509660663346010e-02,-1.396661128819398634e-01,5.448185259791736568e-02,-1.049205220973215974e-01,-1.006869588849222813e-01,6.487666747659563693e-02,1.534553001656967508e-01,4.266347160567734997e-02,2.638601851847188762e-02,8.822767944306721122e-02,1.852252303154378887e-01,1.046991397513618042e-04,-6.951464749238206453e-02,2.138087517546003180e-01,1.860681898416910451e-01,-9.268426906107739283e-02,8.437921153321061019e-02,3.884585778586432947e-02,-1.491378745665870170e-02,-1.192375148982327548e-01,-1.360235016787901263e-01,-5.052672066391692557e-02,-2.487912467273321274e-03,1.660509345667797454e-01,-1.389846197237682990e-01,1.020616306569523263e-01,2.123577559857126387e-02,8.159255079814330125e-02,2.022575774207162336e-01,-4.437611878203528287e-02,1.394626615728174895e-02,-1.700352529792719114e-01,-6.710946004166309931e-02,1.549837876056446850e-01,2.063824117946010395e-01,2.573611614267149253e-02,2.723051835234568258e-02,8.772417604305486616e-02,8.205925543151053325e-02,2.889296018335992255e-01,-3.023021745784979300e-02,-8.579854222808726283e-02,1.140149074898409026e-02,-7.055872560093784385e-02,8.505238584975695348e-02,1.026870269965680926e-01,-8.016263518172497826e-02,5.509818167458711835e-02,2.254192678043718395e-02,7.162979726453223839e-02,-2.845006233395283232e-02,-1.795614426973775324e-02,-2.718209480395516325e-02,1.328850715759255507e-01,-1.135824055079728973e-01,-5.824935656665082562e-02,6.484125376494635253e-03,-6.735328418065123814e-03,1.163482535943223956e-01,-3.173107615982543456e-02,3.679569346500950744e-02,1.096984844793958899e-02,-6.698501713296785287e-02,7.816132519249088112e-03,7.460923303529927442e-02,4.150756521875236839e-03,3.500915419387871652e-01,1.153076338915573762e-01,1.907724772367181132e-01,2.502792222518170906e-01,2.741944494428543155e-01,-8.329209618037233809e-02,4.335500853938951960e-02,-1.280509492653487957e-02,7.624308302533543136e-02,6.416629114186479799e-02,-5.765310644566403603e-02,1.857548597485035591e-01,1.913394533470062775e-01,-1.732333894903895916e-02,9.885097642578995203e-02,8.935104205775527830e-02,6.620097078777349708e-02,-1.358101474343182402e-01,2.444028232194531691e-01,2.092714180608074015e-01,-4.933915863632653415e-02,-4.773450950131499088e-02,-1.244989444239792131e-01,7.072251487527203562e-02,1.346679966677201065e-02,1.156305863452152666e-01,5.402044720524707550e-02,-1.789337074733147320e-02,1.458455457669109896e-02,3.434114138742521555e-02,1.084851814715040025e-01,5.549490612294422087e-02,1.564476671757059068e-01,1.922941772045359821e-01,2.107555541392669152e-01,1.628045049645004960e-01,3.136384595883331960e-01,3.206733972513529651e-01,4.513051004429308177e-02,-3.162333891796736268e-02,1.386007557161726134e-01,1.153712693076806434e-01,1.130834060372656602e-01,-4.663433122327515640e-02,-1.010184077775708872e-01,-1.566485384588033741e-02,1.732587205210135428e-01,-2.125910586799381607e-02,6.405472957384278354e-02,-6.189119771255410102e-02,-8.112200364554195131e-02,-7.302481566699484117e-02,-2.084259264689921620e-01,7.892230674513325481e-03,1.668444527357628160e-01,9.010161871832968183e-02,3.582483293999409041e-02,9.746868436515659928e-02,1.215520997134004605e-01,1.541646543993410168e-01,5.157484104218911652e-03,9.132350141024042633e-02,1.235591785668418152e-01,2.035519253314293231e-01,-1.446330690524237107e-02,7.928045481542554673e-02,-8.569410935424437437e-02,-1.334060451253863896e-03,1.091320438082642452e-01,2.180763857344662493e-01,-8.951024699142077698e-03,-3.424654942426010734e-02,-9.881673441153041026e-02,-1.366792795463837029e-01,-8.629443126845416645e-02,6.077887203359672030e-02,-2.201527657914235936e-01,-3.339353059336010177e-02,-7.246226316582933535e-02,-1.105939258960110527e-01,4.628506393450335793e-02,-2.144786824756779453e-02,-6.583825945647295286e-02,4.183929444084233396e-02,-4.021771419183196167e-02,-8.117833706075693045e-02,-8.328265994003943018e-03,-4.404518142099103639e-02,1.885554262940594139e-01,8.085242654188712352e-02,-1.871570408155848186e-02,9.243127916697967128e-02,1.630266222926526898e-01,1.233672073024072308e-01,2.432150892220796001e-01,-1.559920915289443079e-02,1.785700822318304626e-01,1.093708813229160104e-03,2.134295113117545828e-02,-7.893172580004315098e-02,-1.037283823650447245e-01,1.816770422814411590e-01,1.897766265161534571e-01,2.774306152536730463e-02,7.300439901273414467e-02,6.081999882476936403e-03,1.478461378559262906e-01,-1.917310115807502602e-01,1.703036808938920010e-01,-1.404262403896175404e-01,2.153068323722399369e-01,3.100352004401198958e-01,-4.706015792799572023e-02,-1.441576809924935074e-02,4.570600856683770807e-02,1.462440452597223994e-01,-1.266434483338962635e-01,6.337280347224681643e-02,1.656397763806172763e-01,1.644656213108865728e-01,1.298669012351663099e-01,-5.276594821697656867e-03,1.181613510817718267e-02,-1.334113840161798778e-02,2.991972519654121365e-01,-6.438817588856661500e-02,4.587721159530606246e-02,-2.482830273872253454e-02,-1.626275264466633258e-02,3.210583488158415266e-02,-5.918164948383426716e-02,2.366851616678373625e-04,-5.533984411505685208e-02,5.125275950141523068e-02,-5.761604789111764158e-02,-7.285876448748362412e-03,8.804274409006914229e-03,2.128470309200434507e-01,2.653754899643167020e-01,-2.438611639653908217e-02,-2.162142004510247614e-02,-9.482968850538771310e-02,-3.626120289151005694e-04,5.169601822475516917e-02,9.837854540198700051e-03,1.343128585808290587e-01,4.516660485783848683e-02,5.191496906216308549e-02,-1.538510582774265945e-01,9.196372368660905849e-02,-7.503765796602565596e-02,-1.359971986857537625e-02,9.994224616904920366e-02,-1.056811242116456606e-01,1.251115884801107248e-01,2.991178453007068555e-02,2.208558712466710330e-02,-1.440651027686501162e-01,-1.393124114242558220e-01,-2.264451340004839178e-03,-4.647655763289729874e-02,-9.127393916494914994e-02,-4.692180798189639346e-02,-1.057970650750210267e-01,2.203139518521057480e-03,1.069779459305056357e-01,2.111566678891309279e-02,4.050630817514206533e-02,6.899633950342415334e-02,4.022778285137878357e-02,9.377843400507779315e-02,1.122682056087272728e-01,-6.536902022747319296e-02,2.710970496231814297e-01,6.173314854216425951e-02,4.907334945686862848e-02,-9.258820424389746506e-02,-2.517886298213865837e-02,-3.721409563796387182e-02,-1.047183314973707952e-01,-2.563428622132357323e-02,-1.598430529809179435e-01,2.245833205888621009e-01,1.749514377915977262e-02,4.318982199430559943e-02,2.306441382144439750e-02,-8.670360083034002463e-02,-8.816075532351077540e-04,-2.814353994400243808e-01,-1.314966979130086366e-01,2.868767527093661618e-02,-3.466817356629242619e-02,-1.531644499678330718e-01,-3.436676149602357899e-02,2.238342236395041707e-01,-3.543734960161991354e-02,1.236632299524218354e-01,-7.026284950845600175e-02,2.162999613495354967e-01,1.702376278548501931e-01,2.190518983008423182e-01,6.823374779568645854e-02,9.670461213903615294e-02,4.394667165647807294e-02,-1.216936895449730743e-01,1.276261249911289121e-02,-7.339623274868754821e-02,-1.274707435913159104e-01,-1.318607824182014832e-01,9.986054737744265442e-02,8.166289684805889959e-02,-3.627727165714145913e-02,-2.051985034133391173e-01,5.687018511073371752e-02,1.140769910800210202e-01,6.060042998103450790e-02,-3.219290533910761087e-02,-1.426134484888587628e-01,-2.043070351833591036e-02,-7.892742569084519599e-02,1.164284168291679529e-02,1.293587998087504243e-01,9.812683420342237228e-02,1.764194531508734287e-01,2.590841607152649662e-01,2.476857270625789850e-02,2.120450294988596440e-01,2.163350387629393856e-01,1.249465975954117403e-01,-8.585666315041490249e-02,-6.493403897375508126e-03,2.736069235373873032e-01,1.011354795751274738e-01,-1.088362695345615333e-01,-2.734813160184001654e-02,-4.833310912174577229e-02,-9.364187544586913270e-03,2.097787708476079455e-02,7.923368184240983658e-02,1.331063330141685035e-02,-8.895692526152307322e-02,8.833817140322805517e-02,-7.880862615850071917e-02,5.305658994435392961e-02,1.794966363574623802e-01,2.913132729449936092e-02,-1.561702382518387056e-01,8.812212975635054513e-02,1.182569846004205283e-01,3.170310215918247659e-02,1.926873839801119814e-01,1.138009863317926973e-01,6.541005749697768835e-04,1.782695211792368062e-01,1.856882629869706647e-01,-8.317594972498232320e-03,1.792178309071315312e-01,-5.809555502928218096e-02,1.085247581083505636e-01,-8.631274521016112089e-02,8.557395530615534429e-02,1.400443282291342385e-02,-1.389140863198381759e-01,5.812745161315736181e-02,1.112788756043537192e-01,-1.524357580906039455e-01,-9.348435159313306375e-02,-1.101825463734716071e-01,-3.955055119036993139e-02,1.356007385309905278e-01,-9.628609645000396622e-03,1.296989360451236140e-01,-2.653762960575414484e-02,1.305057925138491670e-01,-4.948846186606935260e-02,-1.255013168931664279e-02,-1.074219104410681913e-01,1.681102847826713431e-01,8.288697930674231162e-02,1.843368388858537821e-02,-3.130823890413675370e-02,2.002717237558635788e-01,1.892194451989594184e-01,5.394724863810336501e-02,2.893253516152524685e-01,8.880502421388154766e-02,3.462494035289199329e-02,2.233164719642952711e-01,6.023978606977412054e-03,-9.380231125586613317e-03,-1.627423266589661868e-02,2.445467110321779547e-01,2.429749707745843257e-01,1.108962006495223807e-01,-1.758729004718255148e-02,-6.176119975247193472e-02,4.158409587191985030e-02,3.192482602623677480e-03,-1.593704729027272393e-01,1.151942686807541083e-01,-4.766784424830006889e-02,7.380126161925390504e-02,3.036073958393327096e-02,6.551805850234801443e-02,-3.940478399684002597e-02,1.070743303874733404e-02,2.625594215402475215e-02,5.449803372662473389e-02,9.803747291991897483e-02,8.837910197301064585e-02,6.879243107080783293e-02,2.703239716443721630e-01,1.361035982753413531e-01,1.501517418474613563e-01,1.130507778752821990e-01,-5.488310816231243422e-02,-3.915225047655319923e-02,1.126630042201817866e-01,2.280429271092665189e-01,8.691794170028928346e-02,-3.382737030701191139e-02,1.335335651318235450e-01,-1.645446649962143959e-01,-8.232062740735324180e-02,1.275264644017777838e-01,-4.263087589810226480e-02,1.513818687614979508e-01,-1.710109286640367487e-01,-6.164938601243314525e-02,4.882067949680869712e-02,7.368216876190514242e-02,1.219372729284347590e-01,9.468585661825007493e-02,1.571587565361261957e-02,1.519284040905404531e-01,-4.017455021828294365e-02,-1.062445391828746311e-01,5.974803432024448913e-02,-1.356129798325348690e-01,1.977582881385303026e-01,1.306225793839389526e-01,7.912652696632413440e-02,-2.427462204699674247e-02,-1.530719672884279237e-01,-1.482064507452351132e-01,9.889459888301922741e-02,5.982093509796802128e-02,8.751764622952774852e-02,2.130081468229700833e-02,4.698406966108333027e-02,-1.585554846616997471e-01,6.551831005821306952e-02,3.622998363089841717e-02,8.913194346920523536e-02,1.115623410306947581e-02,-1.006859374495130549e-01,5.107846261211316380e-02,-1.019207174798067023e-01,1.452199025681510103e-01,1.131689200449436800e-01,3.460137129509247012e-02,1.316943490253996984e-01,2.329741797746238408e-01,-6.561254675021348237e-02,1.704502793518279657e-01,6.126255459310916973e-02,1.932868454006543280e-01,9.145546514815112993e-02,1.076670652543099682e-01,2.482445219540931336e-01,4.155436968416526683e-02,4.437636634906290747e-03,5.043341709268223810e-02,1.714889076427537906e-01,4.285297790079905383e-02,-3.248518583011655858e-02,1.683239370499677728e-02,7.054505465247870588e-02,5.584868858257389414e-03,4.525255411414751822e-02,-7.524376077934731566e-02,1.360376795154865925e-01,3.860754901429367530e-02,3.998553634791243705e-02,9.249679675819392002e-03,7.796509720157140944e-02,3.102473509624296966e-02,6.507595044923883409e-02,1.794818571392114148e-01,7.786250124983953858e-02,8.901892956757308240e-02,-7.794252583965743941e-02,1.328869684107081110e-02,-7.009686235819866107e-02,-3.692287173692952035e-02,-7.245631385084258524e-03,2.548953301347564038e-01,1.795357686825130861e-01,5.436617293333881329e-02,6.586012534185171907e-02,1.789002441151849865e-01,-1.364950533109117459e-01,-6.603199455432794129e-02,4.227880197398478646e-02,-5.139666941847453874e-02,-1.184831677824773888e-01,-3.881631842792614140e-02,6.350589486130242545e-02,9.517655331431583432e-02,-6.984252373073617827e-03,2.900687227611127572e-02,6.198612440154522424e-02,-2.538106429612501103e-01,7.566887905033795048e-02,-1.805875566585986025e-01,1.120392986392061696e-01,1.592083751835465799e-01,1.639803669984244427e-01,3.800259884071469779e-02,1.364152493691880574e-01,1.359564944921845819e-01,1.650014616684615243e-01,-8.347072713399454613e-02,-9.584506224631002616e-03,1.080491203208481382e-01,4.765681454744157691e-02,1.085874624044975562e-01,1.071917446303344290e-01,8.935341368819721408e-02,1.016048505813724190e-01,6.171188233137196028e-02,-6.006962531064227034e-02,6.855444640193239514e-02,-5.770348974954028765e-02,1.572579752383823359e-01,1.078864988269949976e-01,-6.892189639794184253e-02,1.570764032529652771e-02,-1.427322492036530721e-01,9.656757376417083455e-03,1.566945659866212093e-01,2.333668329387916796e-02,1.042637609405130533e-01,1.753291693899239612e-01,8.619961987195605413e-02,1.983601299348449754e-01,7.575448986188980383e-02,1.286593452653164715e-01,-2.054140296787165462e-02,5.019656283765906030e-02,8.386739259789277590e-02,1.797680976357921012e-01,-1.231922506869276290e-02,1.114237968671157319e-01,-9.293058428677056226e-02,2.913688674759024391e-02,-1.222884867383219019e-02,1.948752533331161996e-01,-5.481017426872200615e-02,-7.685188638802549184e-04,9.545207773503201765e-02,-7.041915038443057051e-02,4.309398847296532636e-02,-1.199600527763469184e-02,-9.222265866264943435e-02,-7.732205081895326959e-02,7.505224786839138906e-02,-6.033974864046327130e-02,7.561790358031023063e-02,4.741026607641862789e-03,-7.829373516566237590e-02,1.380409552374074408e-02,2.513407521586109028e-01,5.432163670302414538e-02,-1.885021334589041808e-02,1.089692060005741092e-01,6.254864168565671401e-02,-7.333338865819657298e-03,1.797304898997971467e-01,4.217273376918789091e-02,2.461998082587169567e-01,1.778078462631579038e-01,1.145955799832445721e-01,4.866712964673155367e-02,-6.490557389295781299e-02,4.449411248527868068e-02,-6.185812396273902142e-02,1.124385291984749263e-01,-1.342333769399914056e-01,1.452777908545340169e-01,-1.062250871191550670e-02,-6.922372301991590315e-02,-1.146575255375225644e-01,5.679305965730524486e-02,4.238713520930050688e-02,7.369881477796298708e-02,-1.115988787179324898e-02,-5.509819255878250360e-02,1.498164256761395745e-02,-1.175748875456014003e-01,-2.320024512453403454e-03,-6.583292663642872911e-02,1.524240633342159035e-01,6.929394296308789836e-02,-4.958893412474750344e-03,6.552767765205620362e-04,1.727472067787340360e-01,-1.000393790018380691e-02,1.076270796453637942e-02,6.153960262547910481e-02,-5.809366932920213833e-02,1.447338911942380180e-01,3.285672109148542880e-02,1.644913034424931031e-01,5.893590996741932680e-03,2.812539460591930163e-01,4.283579794196643031e-02,1.912152758293998722e-02,-1.329653294868047564e-01,2.605824073706232424e-02,-1.385539114757966817e-01,-2.884206161025333615e-02,-3.293599656568046291e-02,8.936913183092820567e-02,-3.122516029184380093e-02,-2.360076013235477485e-02,-7.290548211437056225e-02,-3.038979748437190334e-02,-5.750401098253141857e-02,1.764118797334465472e-01,-9.464569060324222460e-02,-1.271975041356048775e-01,-7.398593072581097219e-02,1.046244174174889713e-01,-1.836007764936035402e-01,1.412767685335782619e-01,-9.208133544965838024e-02,-1.045878521115426174e-01,-1.411431994555622793e-01,3.462699269228161625e-02,-7.782907638916197746e-02,1.339332609790172893e-02,-1.087753068966078838e-03,-2.408556258330032673e-01,-6.573595154467308521e-03,3.824703747231623235e-02,-1.287531185459486749e-01,-1.343030037284300426e-01,-9.336108195132204746e-03,1.559345599188150522e-01,1.430589699333724152e-01,1.710529751936602505e-01,-8.723222809587109772e-02,5.600441700416945029e-02,-5.334726088261852045e-02,6.867089486261032660e-02,-1.266695581341031190e-02,-1.919409578758657087e-01,4.537515499544286790e-02,-2.243982631067399924e-01,2.244046145639947143e-01,2.695747526216712986e-01,-6.757720689728871633e-02,-1.297644637316685071e-02,-3.897373759418118326e-04,2.163496617915068587e-02,5.021365550113209009e-02,-1.749692269103585718e-01,-1.079709200560305532e-01,8.251954996012168808e-02,4.347527012815316505e-02,-6.611713641420656484e-02,-1.311852195820329692e-01,3.638520834973564544e-02,-4.190870884084293285e-02,9.843517231553523816e-02,1.065590620561569779e-01,7.016544321704049070e-02,3.201011828870063691e-02,2.888784060789541600e-02,8.825977625451980613e-02,-7.299653138190126400e-02,-1.591262080614094521e-01,5.939095688122458805e-02,2.657222197390887719e-02,2.908274471340656017e-02,-1.371729296821449194e-02,-2.263147490020971653e-01,2.871829092227135005e-01,2.714058593001453801e-01,-5.499146567061702351e-02,7.914801317342202991e-02,6.749603562169728156e-03,2.435202672272814006e-02,3.208028540893275576e-02,1.046761341670283396e-01,-6.952149116941551410e-02,6.862488577121081401e-02,6.797405153495644781e-02,-2.572992420255498236e-01,1.464432232749416363e-01,6.574194137313520148e-02,-5.822172643134874287e-02,4.788010688419589225e-03,5.124678211490998891e-02\n-2.843192084027185151e-02,5.254102367074386243e-02,-2.050876125529095817e-01,2.119085766812849048e-02,1.110507879708842599e-01,7.513543351902525480e-02,2.178671491411411990e-02,-7.805170350404611046e-02,7.035790753463712528e-03,-1.186302846045955567e-01,1.206070913628889268e-02,-1.744146113395178208e-02,5.011813623521498007e-02,1.390925408796283014e-01,8.486212997565664717e-02,-8.316159130683653533e-02,-9.674980126442174477e-02,-8.657284978050910906e-02,